{"radial_lce/lce_params:0": [[1.673972725868225, 9.514471054077148, -4.7766905481694266e-05, 0.011794110760092735]], "reflect_batch_norm/gamma:0": [0.9903226494789124, 0.9776270389556885], "reflect_batch_norm/beta:0": [0.00599229009822011, 0.006006838288158178], "reflect_batch_norm/moving_mean:0": [73.67655181884766, 75.6483383178711], "reflect_batch_norm/moving_variance:0": [801.4761352539062, 986.0534057617188], "PMT_wall_dense_1/bias:0": [-0.00560673326253891, -0.006143980193883181, -0.006254770327359438, -0.006051647011190653, -0.006426084320992231, -0.006063906010240316, -0.005841635167598724, -0.006594516336917877, -0.005700475536286831, -0.006068625021725893, -0.005895793903619051, -0.0063553862273693085, -0.005648002028465271, -0.006368848495185375, -0.005344687961041927, -0.005128080956637859], "PMT_wall_dense_1/kernel:0": [[0.006505139637738466, -0.21484707295894623, 0.3821059465408325, -0.4476531147956848, -0.11178052425384521, -0.3509751558303833, 2.918676955232513e-06, 0.5550127625465393, 0.0524531751871109, -0.0663069412112236, 0.31507620215415955, 0.07983384281396866, 2.3340967914009525e-07, -0.021029319614171982, -0.398403525352478, 0.15585650503635406], [2.007707706752626e-07, 0.5183582305908203, -0.31772205233573914, -0.4094886779785156, 0.2533985376358032, 0.20748881995677948, 0.19344641268253326, 0.4116608798503876, 0.07283046096563339, 0.524339497089386, -0.27796435356140137, -0.14006660878658295, -0.014861451461911201, 0.2683263421058655, 0.44227030873298645, -0.035832516849040985]], "PMT_wall_dense_2/bias:0": [-0.005931397899985313, -0.005210552830249071, -0.011324922554194927, -0.005191974341869354, -0.004911303054541349, -0.0047270068898797035, -0.009604686871170998, -0.005237458273768425, -0.006722690537571907, -0.009156673215329647, -0.006192096509039402, -0.005571248475462198, -0.0049463072791695595, -0.011051414534449577, -0.0005612744716927409, -0.0048423390835523605], "PMT_wall_dense_2/kernel:0": [[-0.15229223668575287, -0.2628953754901886, -0.1650247573852539, 0.15724387764930725, 0.13642051815986633, -0.1353156417608261, -0.09623529016971588, -0.03901941329240799, -0.24246838688850403, -0.14977793395519257, 0.34912681579589844, -0.38031628727912903, -0.20095393061637878, -0.33146530389785767, -0.24109183251857758, 0.32464370131492615], [-0.359932541847229, 0.1843639314174652, -0.22727490961551666, 0.2989914119243622, -0.17093026638031006, 0.32960382103919983, -0.07663904875516891, -0.3082253634929657, -0.1486448347568512, -7.428611752402503e-07, -0.16867002844810486, 0.07852669060230255, -0.3075736463069916, 0.16093562543392181, -1.353866423414729e-06, 0.2363356500864029], [0.19709978997707367, -0.42501944303512573, 0.03158353269100189, 0.08279146999120712, 0.24832473695278168, -0.4028453230857849, -0.19764301180839539, -0.16444657742977142, -0.20111249387264252, -0.12076955288648605, 0.32514920830726624, -0.3133596181869507, -0.03948589414358139, -0.20256482064723969, 0.18666578829288483, -0.40782520174980164], [-0.38611307740211487, -0.295755535364151, 0.2175997495651245, 0.08449557423591614, 0.1231812983751297, 0.11892107129096985, 0.0007809007074683905, -0.2924247086048126, 0.10107021033763885, -0.18021941184997559, -1.3564279015554348e-06, -0.14864590764045715, -0.3440227806568146, -0.07359877973794937, -0.12139784544706345, -0.24198336899280548], [-0.41766518354415894, 0.007607103791087866, 0.2998458445072174, 0.37652280926704407, 0.032569434493780136, 0.28938964009284973, 0.15046857297420502, -0.20416776835918427, -0.35591357946395874, 0.3187206983566284, 0.3185804486274719, 0.0827343761920929, 0.11646880954504013, 0.0268301609903574, -6.114210009400267e-07, -0.09101399779319763], [-0.1925252228975296, -0.3570273816585541, 0.0334683321416378, -0.29077503085136414, -0.08378828316926956, 0.23054033517837524, -0.3279780149459839, 0.42359060049057007, -0.28453826904296875, -0.012750286608934402, -0.3208662271499634, -0.25241079926490784, -0.24733854830265045, 0.32691800594329834, 0.3324469327926636, -0.11015504598617554], [-0.00896297488361597, 0.29561781883239746, -0.2792495787143707, 0.09181885421276093, -2.0750103431055322e-06, -0.07329553365707397, 0.07708749175071716, -0.329782098531723, -0.155160591006279, -0.07558836787939072, -0.20782947540283203, 0.22154644131660461, 0.0517096146941185, 0.12847024202346802, -0.10501670837402344, -0.11467224359512329], [0.16943208873271942, -0.1560637205839157, 0.07110559195280075, -2.4028122425079346e-06, -0.2729864716529846, -0.18697841465473175, 1.5117302609723993e-07, 0.42120346426963806, -0.40459248423576355, -0.057224903255701065, -0.2145584523677826, -0.28383946418762207, -0.016788767650723457, 0.3918903172016144, 0.03168720752000809, -0.41261088848114014], [-0.23133352398872375, 0.06593230366706848, 0.06425804644823074, 0.2950526177883148, -0.11736664921045303, 0.360554039478302, -0.1427440345287323, -0.0039163921028375626, -0.36466288566589355, -0.003250867361202836, 0.3803389072418213, 0.021708136424422264, 0.349526047706604, -0.09028007835149765, 1.0609112450765679e-06, -0.07495743781328201], [-0.008804294280707836, -0.36114969849586487, 0.27330368757247925, 0.21818819642066956, -0.21565310657024384, 6.461311386374291e-06, 1.701252813290921e-06, -0.27004605531692505, -0.34086450934410095, 0.0309126116335392, -0.3056177496910095, -0.2816946804523468, 0.37864986062049866, -0.07021335512399673, 0.02084420807659626, -0.24621254205703735], [-0.28831422328948975, -0.1677466630935669, -0.07400648295879364, 0.030859526246786118, -0.06877303868532181, -0.39251962304115295, 2.3501638679590542e-07, -0.027677347883582115, 0.17961248755455017, 0.30881834030151367, -0.11272132396697998, -0.1862804889678955, 0.4068743586540222, -0.21557320654392242, -0.33568716049194336, -0.17614920437335968], [-0.36771586537361145, 0.22070591151714325, 0.11117450147867203, -0.38985300064086914, -0.2105594426393509, -0.24436749517917633, 0.23102934658527374, -0.3009297847747803, 0.39333173632621765, -0.4057101607322693, 0.41175577044487, -0.35642585158348083, 0.20865650475025177, -0.3802548348903656, 1.2441932994988747e-07, -0.2949655055999756], [0.23786847293376923, -0.42628389596939087, 0.34570202231407166, 0.3903557062149048, -0.012981726787984371, -0.37566202878952026, -0.152513325214386, 0.08305550366640091, -0.11860377341508865, -0.12258123606443405, 0.04819868132472038, -0.2689276337623596, -0.31860578060150146, 0.3270438015460968, 0.11742856353521347, -0.2487659454345703], [1.2064936072420096e-06, -0.13232021033763885, 0.08976539224386215, 0.15280868113040924, -0.0395391546189785, 0.05563437193632126, 0.12489894777536392, 0.3285796642303467, -0.19798900187015533, -0.27855154871940613, 0.2840109169483185, -0.09220942854881287, 1.6686238950569532e-06, 0.3152267634868622, -0.17506542801856995, 0.3420865833759308], [-0.21547530591487885, 0.3380616307258606, 0.29091963171958923, 0.354951947927475, 0.3728780448436737, -0.05203600972890854, 0.038991861045360565, 0.1585889756679535, -0.044574957340955734, 0.4057512879371643, -0.11931730806827545, -0.01688787341117859, -0.3773595094680786, -0.01933019980788231, -0.18797017633914948, 0.22765350341796875], [0.21464687585830688, -1.6162763358806842e-06, 0.02257975935935974, -0.3471381366252899, -0.2612873613834381, 0.04813568666577339, 0.09687722474336624, -0.41153934597969055, 0.04103357717394829, -0.2580329179763794, -0.25797775387763977, -0.13590262830257416, -0.2593757212162018, -0.2656767964363098, 0.2087002396583557, 0.14324964582920074]], "PMT_wall_dense_3/bias:0": [-7.226386969705345e-06], "PMT_wall_dense_3/kernel:0": [[-1.5167087212830666e-06], [5.520228114619385e-07], [9.93089656731172e-07], [1.1822469332400942e-06], [9.732630132930353e-07], [1.4016068234923296e-06], [-1.4540210031555034e-06], [3.0882392820785753e-07], [4.0350306562686455e-07], [3.687947014441306e-07], [-1.2045236417179694e-06], [-2.2995081394583394e-07], [-2.649298494361574e-06], [3.0344386914293864e-07], [-9.4140489181882e-07], [-7.845650316085084e-07]], "Variable:0": [0.0004294195387046784], "Perp_batch_norm/gamma:0": [1.0], "Perp_batch_norm/beta:0": [0.0], "Perp_batch_norm/moving_mean:0": [0.010652859695255756], "Perp_batch_norm/moving_variance:0": [0.010258098132908344], "perp_dense_1/bias:0": [0.0, 0.0, 0.0, 0.0, 0.0, 0.0, 0.0, 0.0, 0.0, 0.0, 0.0, 0.0, 0.0, 0.0, 0.0, 0.0], "perp_dense_1/kernel:0": [[-2.334868907928467, -0.19241245090961456, 1.1003515720367432, -1.7720342874526978, -1.818708896636963, -0.11487449705600739, -0.5554683208465576, -1.319388508796692, -1.4648293256759644, 1.666739821434021, -0.48639625310897827, -0.6146858334541321, -1.2750681638717651, -0.15448389947414398, -0.34294378757476807, -0.46642211079597473]], "perp_dense_2/bias:0": [0.0, 0.0, 0.0, 0.0, 0.0, 0.0, 0.0, 0.0, 0.0, 0.0, 0.0, 0.0, 0.0, 0.0, 0.0, 0.0], "perp_dense_2/kernel:0": [[0.47034400701522827, 0.1854117214679718, 0.2922945022583008, 0.08011434227228165, 0.6620548367500305, -0.35112738609313965, 0.3294345438480377, 0.35388630628585815, -0.23822541534900665, -0.13643814623355865, 0.31127363443374634, 0.6036984324455261, 0.5506098866462708, -0.05701213330030441, -0.09358992427587509, 0.5200893878936768], [-0.20671530067920685, -0.260022908449173, -0.5412536859512329, 0.22137095034122467, 0.5265561938285828, -0.09791626036167145, -0.3551306128501892, -0.3531143069267273, 0.02312150038778782, -0.6747518181800842, -0.4491722583770752, 0.35802972316741943, -0.5906816720962524, -0.5955471992492676, -0.7966450452804565, 0.557451069355011], [0.364346981048584, 0.008084380067884922, -0.4895080626010895, -0.5971554517745972, -0.3966214954853058, 0.5147926211357117, 0.2277720868587494, -0.29204919934272766, 0.6459025740623474, -0.5568699240684509, -0.3245505392551422, -0.5064427852630615, 0.1751740723848343, -0.2611016631126404, 0.5151172876358032, 0.567613422870636], [0.33135300874710083, -0.1378159075975418, -0.05786045268177986, -0.0716945230960846, 0.26499998569488525, -0.19828857481479645, -0.024194926023483276, -0.06691188365221024, -0.30322447419166565, -0.02406797744333744, -0.3180733323097229, -0.2883630096912384, 0.4562344253063202, 0.44813740253448486, 0.0707542672753334, 0.26385873556137085], [0.02176014706492424, -0.29816684126853943, 0.014084313064813614, -0.06313600391149521, -0.2558053433895111, 0.1631789207458496, -0.47476625442504883, -0.6634154319763184, 0.14402958750724792, -0.35132113099098206, -0.31354013085365295, 0.03250488266348839, 0.6217029094696045, 0.3468512296676636, -0.31923335790634155, -0.08403237909078598], [-0.38460150361061096, -0.7093487977981567, -0.6051101684570312, 0.16502168774604797, 0.1041114404797554, -0.2511530816555023, -0.19235029816627502, -0.3703548014163971, -0.35137230157852173, 0.3804284632205963, 0.008773169480264187, 0.21643121540546417, 0.22212648391723633, -0.13959155976772308, -0.3859107494354248, -0.16202053427696228], [0.6842553615570068, 0.058879654854536057, -0.007525213994085789, -0.1258954554796219, -0.3183704912662506, 0.16116569936275482, -0.24425359070301056, 0.25022268295288086, 0.8018752336502075, -0.3964657187461853, -0.2196953296661377, 0.2140931338071823, 0.27692797780036926, 0.30490344762802124, 0.04468804970383644, 0.6209515333175659], [-0.7949031591415405, 0.12306860089302063, 0.78608238697052, -0.3873768150806427, -0.4901708662509918, 0.2085026204586029, 0.3330516517162323, -0.6952223181724548, 0.04831002280116081, -0.6704860925674438, -0.1921934187412262, 0.16019554436206818, 0.04873170703649521, 0.729275107383728, 0.30494359135627747, -0.039444442838430405], [0.18384921550750732, 0.6785990595817566, 0.05058930441737175, -0.18917661905288696, 0.5031528472900391, -0.2904834747314453, -0.6524611115455627, 0.31229928135871887, 0.16070744395256042, -0.5364754796028137, 0.17452821135520935, 0.5351225733757019, -0.28617170453071594, 0.06363052129745483, 0.23917295038700104, -0.6374208331108093], [0.18854637444019318, -0.6853532791137695, 0.07450160384178162, -0.5484417676925659, 0.05695434287190437, -0.5023339986801147, -0.43266648054122925, -0.4088619649410248, -0.4209684431552887, -0.21923549473285675, 0.11478375643491745, 0.0701507180929184, 0.34767892956733704, 0.15751096606254578, 0.31671983003616333, -0.4875255823135376], [0.10412416607141495, -0.17037005722522736, -0.29541414976119995, 0.16312427818775177, -0.30690476298332214, -0.003930853679776192, 0.3006022870540619, 0.4885583519935608, -0.7203012108802795, 0.104680635035038, -0.48683664202690125, -0.20965440571308136, -0.38217103481292725, 0.35130858421325684, 0.7153966426849365, 0.007749670650810003], [-0.238355353474617, -0.3272615969181061, 0.14125888049602509, -0.7942533493041992, -0.24873001873493195, -0.24560417234897614, 0.16550399363040924, -0.21269911527633667, -0.41945645213127136, 0.3025069534778595, 0.12004345655441284, -0.7713050246238708, 0.150687113404274, -0.29387590289115906, -0.3392280042171478, 0.6551204323768616], [-0.04462854564189911, -0.0019632887560874224, 0.06688882410526276, -0.20400966703891754, -0.502431333065033, 0.14282037317752838, -0.2947176396846771, 0.08149556815624237, 0.33782142400741577, 0.44342365860939026, 0.33126989006996155, 0.2615734040737152, 0.07492703199386597, -0.16924920678138733, 0.4547649025917053, 0.38242414593696594], [-0.6420153379440308, -0.2943219244480133, -0.14367957413196564, 0.027344316244125366, 0.06976310163736343, 0.0047807213850319386, -0.4307459592819214, 0.3480883836746216, -0.12491702288389206, -0.04956052079796791, -0.45736995339393616, 0.09446938335895538, -0.3846224546432495, 0.27508628368377686, 0.21442539989948273, 0.24058324098587036], [-0.31135475635528564, -0.05938057228922844, 0.28286972641944885, 0.5323615670204163, 0.4399082362651825, 0.5086973309516907, 0.026801390573382378, -0.2858718931674957, 0.3074948489665985, -0.26611894369125366, 0.26726871728897095, -0.3796725571155548, 0.36846083402633667, -0.33843281865119934, -0.13155010342597961, 0.05624230206012726], [0.09401104599237442, -0.29246628284454346, 0.19480320811271667, 0.16279837489128113, 0.17890293896198273, -0.39334040880203247, -0.25446024537086487, -0.6335816979408264, -0.26364782452583313, 0.6980822086334229, 0.17784640192985535, 0.11605586856603622, -0.19541671872138977, 0.2499741017818451, -0.23309426009655, -0.11049793660640717]], "perp_dense_3/bias:0": [1.0], "perp_dense_3/kernel:0": [[0.0], [0.0], [0.0], [0.0], [0.0], [0.0], [0.0], [0.0], [0.0], [0.0], [0.0], [0.0], [0.0], [0.0], [0.0], [0.0]], "anode_dense_1/bias:0": [0.0, 0.0, 0.0, 0.0, 0.0, 0.0, 0.0, 0.0, 0.0, 0.0, 0.0, 0.0, 0.0, 0.0, 0.0, 0.0], "anode_dense_1/kernel:0": [[1.7147775888442993, 0.29189321398735046, -0.8060406446456909, 0.1459164023399353, -1.5177379846572876, 1.2229406833648682, -0.3140985667705536, -1.6995608806610107, -0.05979494750499725, -0.9285700917243958, 0.07276474684476852, 1.8084710836410522, 1.1287498474121094, 1.186439871788025, 0.46027588844299316, 0.011628007516264915], [-1.1285773515701294, 0.03433581069111824, -0.38164108991622925, 2.068002223968506, -0.27110037207603455, 1.9156490564346313, 0.2322564721107483, 0.019563021138310432, 1.3626161813735962, 1.387047290802002, 1.8362339735031128, -0.45748618245124817, 2.1613969802856445, -0.9834057688713074, -0.982080340385437, 1.068922996520996]], "anode_dense_2/bias:0": [0.0, 0.0, 0.0, 0.0, 0.0, 0.0, 0.0, 0.0, 0.0, 0.0, 0.0, 0.0, 0.0, 0.0, 0.0, 0.0], "anode_dense_2/kernel:0": [[0.5141288638114929, -0.10535627603530884, -0.14714455604553223, 0.25926637649536133, -0.03677027300000191, 0.2442627102136612, -0.27616339921951294, -0.19975082576274872, -0.0861002653837204, -0.2844655513763428, -0.6830677390098572, 0.4390001595020294, -0.49883800745010376, -0.5086628794670105, -0.45743080973625183, -0.05750710144639015], [-0.3469950258731842, 0.06719932705163956, 0.1316656768321991, -0.21582619845867157, 0.7216106653213501, -0.5814504623413086, 0.34361329674720764, -0.0135254031047225, -0.22078926861286163, 0.42339208722114563, -0.12002575397491455, 0.12125469744205475, 0.15304385125637054, 0.09233545511960983, 0.13673828542232513, 0.36883482336997986], [0.10693539679050446, -0.3868929147720337, 0.6474722027778625, -0.37794890999794006, -0.13278253376483917, 0.026999659836292267, 0.2743207514286041, 0.6060504913330078, -0.17790696024894714, 0.5987055897712708, 0.3346426784992218, -0.29553428292274475, -0.069456085562706, -0.037211574614048004, -0.3001014292240143, 0.44858404994010925], [0.038974374532699585, 0.6267086863517761, -0.3472003638744354, -0.15754739940166473, 0.47622740268707275, -0.021883659064769745, 0.39545536041259766, 0.0583297461271286, 0.16911518573760986, -0.006597902625799179, -0.12401650846004486, 0.6965702772140503, 0.012519883923232555, 0.033210597932338715, -0.15943686664104462, -0.2737993896007538], [0.21826522052288055, 0.5130184888839722, -0.1431976705789566, -0.06786911189556122, -0.10550818592309952, 0.24812380969524384, -0.4022744297981262, -0.5329989194869995, 0.5765987038612366, -0.4042958617210388, -0.6301666498184204, -0.0956646203994751, -0.1507541537284851, -0.3353894054889679, 0.20831330120563507, -0.2864351272583008], [0.3720509707927704, 0.25480589270591736, -0.12099641561508179, -0.11315187066793442, 0.13591839373111725, 0.038270242512226105, 0.22656461596488953, -0.6448442339897156, -0.3251209855079651, -0.030078357085585594, 0.022430693730711937, -0.3586257994174957, -0.07269499450922012, -0.4866565763950348, 0.28344982862472534, 0.419032484292984], [0.0902848169207573, 0.13709528744220734, -0.028512196615338326, 0.08080746233463287, 0.49042996764183044, 0.08636413514614105, -0.08842702209949493, 0.20126508176326752, 0.08220960944890976, 0.7013326287269592, 0.1625397801399231, 0.2847832143306732, -0.13589584827423096, -0.571742832660675, -0.7630969285964966, -0.050652891397476196], [-0.060860950499773026, 0.18589788675308228, 0.4153759777545929, -0.6887387633323669, -0.2368900030851364, 0.05190494656562805, -0.07962121069431305, 0.7182521224021912, 0.42651060223579407, 0.14045517146587372, -0.08216770738363266, 0.12537738680839539, -0.5953864455223083, 0.18508003652095795, 0.40786415338516235, 0.3643063008785248], [-0.40630990266799927, 0.31865745782852173, -0.6654025316238403, -0.054699525237083435, 0.5147240161895752, -0.598242998123169, -0.38075053691864014, 0.43175867199897766, -0.4515737295150757, -0.7400370240211487, 0.6794595122337341, -0.22779211401939392, 0.3493542969226837, -0.20782607793807983, -0.5755265355110168, -0.15944020450115204], [0.07876729965209961, 0.5840812921524048, -0.24402745068073273, -0.24599994719028473, 0.16753537952899933, -0.24590912461280823, 0.40418606996536255, -0.10753661394119263, -0.14388805627822876, 0.4482610821723938, 0.600491464138031, 0.2550823986530304, -0.046568576246500015, 0.5423030853271484, 0.5216008424758911, 0.1756388396024704], [-0.18403761088848114, -0.23531761765480042, -0.4416188597679138, 0.32913196086883545, -0.0807545930147171, -0.10387630015611649, 0.744170069694519, -0.06011814996600151, 0.46140891313552856, -0.14783993363380432, 0.0380471833050251, -0.40713536739349365, -0.09479735046625137, -0.15030845999717712, -0.27703723311424255, 0.175723597407341], [-0.21336878836154938, 0.029085876420140266, 0.2833046317100525, 0.04174736142158508, -0.3423851430416107, 0.1785537451505661, -0.08080704510211945, 0.4464626908302307, 0.45561322569847107, -0.7115193009376526, -0.09138540923595428, -0.5662201642990112, -0.482349157333374, -0.3107374310493469, 0.31366267800331116, -0.6059286594390869], [0.0485815666615963, 0.16902263462543488, 0.19176489114761353, -0.414398193359375, 0.4561370611190796, 0.19616132974624634, -0.15240634977817535, 0.6555861234664917, 0.06380834430456161, 0.33939868211746216, 0.2323518544435501, 0.05425748601555824, 0.156408429145813, 0.20062358677387238, -0.17020955681800842, -0.16893388330936432], [0.2408120036125183, -0.31694096326828003, -0.5079392790794373, -0.5504636168479919, 0.5252709984779358, -0.33765020966529846, -0.26275956630706787, 0.2753417193889618, 0.3191366493701935, -0.3660774528980255, 0.4758354425430298, 0.05452802777290344, 0.6542091965675354, -0.2345138043165207, 0.41923731565475464, -0.7444887757301331], [0.3502519726753235, -0.6890655159950256, -0.17085300385951996, 0.30934175848960876, -0.5837863087654114, 0.2503725290298462, -0.17939451336860657, 0.4317311942577362, 0.03645465523004532, 0.3911036550998688, -0.4215049743652344, -0.370868980884552, 0.49561208486557007, -0.2500777244567871, -0.4183403551578522, 0.33842262625694275], [0.2841770350933075, 0.11210136860609055, -0.2833890914916992, 0.6506390571594238, 0.27115896344184875, -0.32946956157684326, -0.35871708393096924, 0.4540725350379944, 0.01196561474353075, 0.02328089438378811, -0.22921638190746307, -0.2982240915298462, 0.6673321723937988, -0.17618900537490845, -0.5248159766197205, -0.09201367199420929]], "anode_dense_3/bias:0": [1.0], "anode_dense_3/kernel:0": [[0.0], [0.0], [0.0], [0.0], [0.0], [0.0], [0.0], [0.0], [0.0], [0.0], [0.0], [0.0], [0.0], [0.0], [0.0], [0.0]], "I_0:0": [1.127701759338379, 1.1357258558273315, 1.1289160251617432, 1.1311852931976318, 1.1395169496536255, 1.0336788892745972, 1.1384258270263672, 1.0700222253799438, 1.025476336479187, 0.950107991695404, 0.881759524345398, 0.9978286027908325, 0.9506819248199463, 1.1097573041915894, 1.1410447359085083, 0.9138080477714539, 1.0438063144683838, 1.019290566444397, 0.9012720584869385, 0.8944385051727295, 1.0001516342163086, 0.9240191578865051, 0.9664009213447571, 0.9582699537277222, 0.9749073386192322, 1.081885814666748, 0.8726891279220581, 1.1169778108596802, 0.9031509757041931, 0.9953138828277588, 0.9509941935539246, 0.9587669372558594, 0.8666756749153137, 0.9393641352653503, 0.9423019886016846, 1.0054072141647339, 1.0114041566848755, 1.0244206190109253, 1.1328047513961792, 1.1016812324523926, 0.9577348232269287, 0.9132825136184692, 0.9021707773208618, 0.9907904267311096, 0.966406524181366, 0.9305609464645386, 0.9815986752510071, 1.0138823986053467, 0.8796277046203613, 0.9909835457801819, 0.9936331510543823, 1.0294113159179688, 1.1412353515625, 1.1283236742019653, 0.9590004086494446, 0.8913045525550842, 0.8985339403152466, 0.9136279225349426, 1.067056655883789, 0.8584592342376709, 0.9894003868103027, 0.9593287110328674, 0.9572423696517944, 0.9585283994674683, 0.911262571811676, 0.8648902177810669, 1.117635726928711, 1.0345098972320557, 1.0976133346557617, 0.955646276473999, 0.931106686592102, 0.9508634805679321, 0.901109516620636, 1.019093632698059, 0.9627647399902344, 0.9765219688415527, 0.9576441645622253, 0.9139455556869507, 0.9854943156242371, 0.900363028049469, 0.9482242465019226, 0.8749940395355225, 0.8744776844978333, 1.1304343938827515, 1.0628206729888916, 0.9506292939186096, 0.8670874238014221, 0.9239014983177185, 0.9894963502883911, 1.0481141805648804, 0.9838376045227051, 1.005333423614502, 1.0421618223190308, 0.9494369626045227, 1.0569661855697632, 0.9795131683349609, 0.8727504014968872, 0.9713424444198608, 0.9313342571258545, 1.0650124549865723, 1.0284788608551025, 1.0137253999710083, 0.8795536160469055, 1.0474361181259155, 0.9950760006904602, 1.0108827352523804, 0.9994369149208069, 1.0184495449066162, 0.9837453365325928, 1.05402672290802, 0.929198682308197, 0.9820927381515503, 0.9571875929832458, 1.0000395774841309, 0.8678823709487915, 1.0067046880722046, 1.1227569580078125, 0.934954047203064, 0.9422819018363953, 0.9555587768554688, 0.9461598992347717, 0.9780261516571045, 1.0542211532592773, 0.9788147211074829, 0.9513179659843445, 1.0504364967346191, 0.9816403985023499, 0.986137866973877, 0.9333369731903076, 0.9662572741508484, 0.9647536277770996, 1.1376662254333496, 1.1231186389923096, 0.9826256632804871, 0.9785966873168945, 0.9699593186378479, 0.9926590323448181, 1.050866723060608, 1.0250940322875977, 1.019556999206543, 0.9621449112892151, 0.9646349549293518, 1.018715739250183, 1.010440707206726, 0.9622411727905273, 0.9842084050178528, 0.9884549975395203, 0.9725667238235474, 0.8969917297363281, 0.9391309022903442, 0.985944926738739, 0.9441924691200256, 0.9946408867835999, 1.0163899660110474, 1.0751477479934692, 1.0633221864700317, 1.012464165687561, 1.0723236799240112, 0.9681416749954224, 0.9870473742485046, 0.9435436129570007, 0.9419283270835876, 1.1274192333221436, 0.9990344643592834, 0.8882738947868347, 1.0358470678329468, 1.022829294204712, 1.0154064893722534, 0.8314138054847717, 1.0503606796264648, 0.9996957182884216, 1.0657647848129272, 0.9001073241233826, 0.9340035319328308, 0.9709362387657166, 0.8983328342437744, 1.1148711442947388, 1.0995135307312012, 0.90913987159729, 0.9592258930206299, 0.9104678630828857, 0.961310863494873, 1.0461556911468506, 1.0438153743743896, 0.9767339825630188, 1.0462268590927124, 1.059460163116455, 1.0296227931976318, 1.0002902746200562, 0.9280260801315308, 0.9288011193275452, 1.1332789659500122, 1.1384756565093994, 0.948901891708374, 0.9878994226455688, 0.9789021015167236, 1.0896073579788208, 0.996208667755127, 0.9556490182876587, 0.9687321186065674, 0.9913607239723206, 1.080377459526062, 0.8632522821426392, 0.881878137588501, 0.9961836338043213, 1.1297920942306519, 1.1345205307006836, 0.9855216145515442, 0.9533449411392212, 0.9844214916229248, 1.0298062562942505, 0.965094268321991, 1.019914150238037, 0.936543345451355, 0.8490126132965088, 1.041149377822876, 0.9065577983856201, 0.9053409695625305, 1.1221494674682617, 1.0102955102920532, 1.0292965173721313, 1.027147889137268, 1.000747561454773, 0.9216817021369934, 0.8774878978729248, 0.9801210165023804, 0.9727786183357239, 0.9303953051567078, 1.0218255519866943, 0.9975032210350037, 1.1293169260025024, 1.1151292324066162, 1.094704508781433, 0.9922181367874146, 1.0165140628814697, 1.1225405931472778, 0.9947550892829895, 1.0235267877578735, 1.0209492444992065, 1.142196536064148, 1.0916978120803833, 1.1143563985824585, 1.1415174007415771, 1.1288447380065918, 1.123055100440979, 1.0256503820419312], "GaussianStandardDeviation:0": [0.5015347003936768, 0.5013076663017273, 0.5015830993652344, 0.5015648603439331, 0.5015252828598022, 0.5016846060752869, 0.5016337633132935, 0.5017669796943665, 0.5018779039382935, 0.5019344687461853, 0.501735508441925, 0.5017733573913574, 0.5017939805984497, 0.5017406940460205, 0.5017596483230591, 0.5016433000564575, 0.5018305778503418, 0.5017959475517273, 0.5019235014915466, 0.5019345879554749, 0.5020005702972412, 0.5022079944610596, 0.5019080638885498, 0.5018733739852905, 0.5018084645271301, 0.5017441511154175, 0.5017451643943787, 0.5017943382263184, 0.5018743276596069, 0.5018298625946045, 0.5017912983894348, 0.5018171072006226, 0.5018624663352966, 0.5018263459205627, 0.5018741488456726, 0.5018206834793091, 0.5019693970680237, 0.5018829703330994, 0.5019078850746155, 0.5018119812011719, 0.501836359500885, 0.501854419708252, 0.5017985701560974, 0.5018972158432007, 0.5018310546875, 0.5018470883369446, 0.501944899559021, 0.5018438100814819, 0.5019167065620422, 0.5019232034683228, 0.5019306540489197, 0.5019718408584595, 0.5019474029541016, 0.5017509460449219, 0.5018049478530884, 0.5018063187599182, 0.5018134713172913, 0.5018513798713684, 0.5019382834434509, 0.5019525289535522, 0.5019735097885132, 0.5019543170928955, 0.5019957423210144, 0.5019360780715942, 0.5019519925117493, 0.5018240213394165, 0.501853346824646, 0.5018067359924316, 0.5017635226249695, 0.5018750429153442, 0.5018041729927063, 0.5018109679222107, 0.5018619298934937, 0.501897394657135, 0.5018554925918579, 0.5019444823265076, 0.5019548535346985, 0.5019246339797974, 0.5019028186798096, 0.501818835735321, 0.5018057227134705, 0.5018694996833801, 0.5018220543861389, 0.5017731189727783, 0.5018678307533264, 0.5017877817153931, 0.5019506812095642, 0.501917839050293, 0.5019068121910095, 0.5019144415855408, 0.5019209384918213, 0.5019695162773132, 0.5018243789672852, 0.5019146203994751, 0.5018605589866638, 0.501828670501709, 0.501941978931427, 0.5017921924591064, 0.5017844438552856, 0.5017958283424377, 0.5017892718315125, 0.5018939971923828, 0.5019510984420776, 0.5019403696060181, 0.5019538402557373, 0.5019703507423401, 0.5019262433052063, 0.5018937587738037, 0.5019211769104004, 0.5018885731697083, 0.5019384026527405, 0.5019221305847168, 0.5018693208694458, 0.501916766166687, 0.5019505620002747, 0.5018194913864136, 0.5018280148506165, 0.5020167231559753, 0.5019698739051819, 0.5018907189369202, 0.5019108057022095, 0.501833975315094, 0.5018684267997742, 0.5019639730453491, 0.5019012093544006, 0.5019410848617554, 0.50181645154953, 0.5018630027770996, 0.5018539428710938, 0.5017748475074768, 0.5017508864402771, 0.5017812252044678, 0.5019944310188293, 0.5019368529319763, 0.5018969774246216, 0.5018408298492432, 0.5018749237060547, 0.5018197298049927, 0.5019494295120239, 0.5018787384033203, 0.5019335746765137, 0.5018805861473083, 0.5018590092658997, 0.5018767714500427, 0.501838743686676, 0.5018468499183655, 0.5017370581626892, 0.5019211769104004, 0.5018476843833923, 0.5019093155860901, 0.5018832087516785, 0.5018864274024963, 0.5018277168273926, 0.5018483996391296, 0.5018174648284912, 0.5018360018730164, 0.5018513202667236, 0.501855194568634, 0.5019202828407288, 0.5019358992576599, 0.5018726587295532, 0.5018414855003357, 0.5018306970596313, 0.5018079280853271, 0.5018171668052673, 0.5017998218536377, 0.5017565488815308, 0.5019020438194275, 0.501882791519165, 0.5018842816352844, 0.5018476247787476, 0.5018643140792847, 0.5019506216049194, 0.5018210411071777, 0.5019153356552124, 0.5017786026000977, 0.5019274353981018, 0.5018001198768616, 0.5019388794898987, 0.5019465684890747, 0.5018903017044067, 0.5018834471702576, 0.5019199252128601, 0.5018643736839294, 0.5018852353096008, 0.5018485188484192, 0.5019093751907349, 0.5018503069877625, 0.5019195675849915, 0.5019434094429016, 0.5018364787101746, 0.5017773509025574, 0.5017421841621399, 0.5018160939216614, 0.5017669200897217, 0.5018429160118103, 0.5018259286880493, 0.5017889142036438, 0.5019000172615051, 0.5019356608390808, 0.5019338726997375, 0.5019516944885254, 0.5019422173500061, 0.501826822757721, 0.5018540620803833, 0.501801073551178, 0.5014827847480774, 0.5018604397773743, 0.5020239353179932, 0.5019532442092896, 0.5019077658653259, 0.5019572377204895, 0.5018627643585205, 0.5019256472587585, 0.5018990635871887, 0.501905083656311, 0.5019980669021606, 0.5020025372505188, 0.5018401741981506, 0.5015026330947876, 0.501793622970581, 0.5017232894897461, 0.5018544793128967, 0.501804769039154, 0.5018431544303894, 0.5018390417098999, 0.5018799304962158, 0.5018167495727539, 0.5018356442451477, 0.5017741322517395, 0.5018338561058044, 0.501802384853363, 0.5017317533493042, 0.50186687707901, 0.5018358826637268, 0.5019510984420776, 0.5019787549972534, 0.501952588558197, 0.5018556714057922, 0.5016560554504395, 0.5015990734100342, 0.5017374753952026, 0.5018945336341858, 0.5017127990722656, 0.5017434358596802, 0.5016314387321472], "n_pmts_LikelihoodFunction:0": 246, "switching_signal_LikelihoodFunction:0": 40.0, "return_ratio_LikelihoodFunction:0": false, "n_sigma_LikelihoodFunction:0": 5.0, "p_dpe_LikelihoodFunction:0": 0.20000000298023224, "nan_safe_LikelihoodFunction:0": false, "nan_safe_value_LikelihoodFunction:0": 100000.0, "tile_std_indices_LikelihoodFunction:0": true, "m_LikelihoodFunction:0": 5, "z_LikelihoodFunction:0": 20, "sigma_min_LikelihoodFunction:0": 0.05000000074505806, "sigma_max_LikelihoodFunction:0": 1.0, "radial_lce/radial_lce/lce_params:0": [[1.673972725868225, 9.514471054077148, -4.7766905481694266e-05, 0.011794110760092735]], "reflect_batch_norm/reflect_batch_norm/gamma:0": [0.9903226494789124, 0.9776270389556885], "reflect_batch_norm/reflect_batch_norm/beta:0": [0.00599229009822011, 0.006006838288158178], "reflect_batch_norm/reflect_batch_norm/moving_mean:0": [73.67655181884766, 75.6483383178711], "reflect_batch_norm/reflect_batch_norm/moving_variance:0": [801.4761352539062, 986.0534057617188], "PMT_wall_dense_1/PMT_wall_dense_1/bias:0": [-0.00560673326253891, -0.006143980193883181, -0.006254770327359438, -0.006051647011190653, -0.006426084320992231, -0.006063906010240316, -0.005841635167598724, -0.006594516336917877, -0.005700475536286831, -0.006068625021725893, -0.005895793903619051, -0.0063553862273693085, -0.005648002028465271, -0.006368848495185375, -0.005344687961041927, -0.005128080956637859], "PMT_wall_dense_1/PMT_wall_dense_1/kernel:0": [[0.006505139637738466, -0.21484707295894623, 0.3821059465408325, -0.4476531147956848, -0.11178052425384521, -0.3509751558303833, 2.918676955232513e-06, 0.5550127625465393, 0.0524531751871109, -0.0663069412112236, 0.31507620215415955, 0.07983384281396866, 2.3340967914009525e-07, -0.021029319614171982, -0.398403525352478, 0.15585650503635406], [2.007707706752626e-07, 0.5183582305908203, -0.31772205233573914, -0.4094886779785156, 0.2533985376358032, 0.20748881995677948, 0.19344641268253326, 0.4116608798503876, 0.07283046096563339, 0.524339497089386, -0.27796435356140137, -0.14006660878658295, -0.014861451461911201, 0.2683263421058655, 0.44227030873298645, -0.035832516849040985]], "PMT_wall_dense_2/PMT_wall_dense_2/bias:0": [-0.005931397899985313, -0.005210552830249071, -0.011324922554194927, -0.005191974341869354, -0.004911303054541349, -0.0047270068898797035, -0.009604686871170998, -0.005237458273768425, -0.006722690537571907, -0.009156673215329647, -0.006192096509039402, -0.005571248475462198, -0.0049463072791695595, -0.011051414534449577, -0.0005612744716927409, -0.0048423390835523605], "PMT_wall_dense_2/PMT_wall_dense_2/kernel:0": [[-0.15229223668575287, -0.2628953754901886, -0.1650247573852539, 0.15724387764930725, 0.13642051815986633, -0.1353156417608261, -0.09623529016971588, -0.03901941329240799, -0.24246838688850403, -0.14977793395519257, 0.34912681579589844, -0.38031628727912903, -0.20095393061637878, -0.33146530389785767, -0.24109183251857758, 0.32464370131492615], [-0.359932541847229, 0.1843639314174652, -0.22727490961551666, 0.2989914119243622, -0.17093026638031006, 0.32960382103919983, -0.07663904875516891, -0.3082253634929657, -0.1486448347568512, -7.428611752402503e-07, -0.16867002844810486, 0.07852669060230255, -0.3075736463069916, 0.16093562543392181, -1.353866423414729e-06, 0.2363356500864029], [0.19709978997707367, -0.42501944303512573, 0.03158353269100189, 0.08279146999120712, 0.24832473695278168, -0.4028453230857849, -0.19764301180839539, -0.16444657742977142, -0.20111249387264252, -0.12076955288648605, 0.32514920830726624, -0.3133596181869507, -0.03948589414358139, -0.20256482064723969, 0.18666578829288483, -0.40782520174980164], [-0.38611307740211487, -0.295755535364151, 0.2175997495651245, 0.08449557423591614, 0.1231812983751297, 0.11892107129096985, 0.0007809007074683905, -0.2924247086048126, 0.10107021033763885, -0.18021941184997559, -1.3564279015554348e-06, -0.14864590764045715, -0.3440227806568146, -0.07359877973794937, -0.12139784544706345, -0.24198336899280548], [-0.41766518354415894, 0.007607103791087866, 0.2998458445072174, 0.37652280926704407, 0.032569434493780136, 0.28938964009284973, 0.15046857297420502, -0.20416776835918427, -0.35591357946395874, 0.3187206983566284, 0.3185804486274719, 0.0827343761920929, 0.11646880954504013, 0.0268301609903574, -6.114210009400267e-07, -0.09101399779319763], [-0.1925252228975296, -0.3570273816585541, 0.0334683321416378, -0.29077503085136414, -0.08378828316926956, 0.23054033517837524, -0.3279780149459839, 0.42359060049057007, -0.28453826904296875, -0.012750286608934402, -0.3208662271499634, -0.25241079926490784, -0.24733854830265045, 0.32691800594329834, 0.3324469327926636, -0.11015504598617554], [-0.00896297488361597, 0.29561781883239746, -0.2792495787143707, 0.09181885421276093, -2.0750103431055322e-06, -0.07329553365707397, 0.07708749175071716, -0.329782098531723, -0.155160591006279, -0.07558836787939072, -0.20782947540283203, 0.22154644131660461, 0.0517096146941185, 0.12847024202346802, -0.10501670837402344, -0.11467224359512329], [0.16943208873271942, -0.1560637205839157, 0.07110559195280075, -2.4028122425079346e-06, -0.2729864716529846, -0.18697841465473175, 1.5117302609723993e-07, 0.42120346426963806, -0.40459248423576355, -0.057224903255701065, -0.2145584523677826, -0.28383946418762207, -0.016788767650723457, 0.3918903172016144, 0.03168720752000809, -0.41261088848114014], [-0.23133352398872375, 0.06593230366706848, 0.06425804644823074, 0.2950526177883148, -0.11736664921045303, 0.360554039478302, -0.1427440345287323, -0.0039163921028375626, -0.36466288566589355, -0.003250867361202836, 0.3803389072418213, 0.021708136424422264, 0.349526047706604, -0.09028007835149765, 1.0609112450765679e-06, -0.07495743781328201], [-0.008804294280707836, -0.36114969849586487, 0.27330368757247925, 0.21818819642066956, -0.21565310657024384, 6.461311386374291e-06, 1.701252813290921e-06, -0.27004605531692505, -0.34086450934410095, 0.0309126116335392, -0.3056177496910095, -0.2816946804523468, 0.37864986062049866, -0.07021335512399673, 0.02084420807659626, -0.24621254205703735], [-0.28831422328948975, -0.1677466630935669, -0.07400648295879364, 0.030859526246786118, -0.06877303868532181, -0.39251962304115295, 2.3501638679590542e-07, -0.027677347883582115, 0.17961248755455017, 0.30881834030151367, -0.11272132396697998, -0.1862804889678955, 0.4068743586540222, -0.21557320654392242, -0.33568716049194336, -0.17614920437335968], [-0.36771586537361145, 0.22070591151714325, 0.11117450147867203, -0.38985300064086914, -0.2105594426393509, -0.24436749517917633, 0.23102934658527374, -0.3009297847747803, 0.39333173632621765, -0.4057101607322693, 0.41175577044487, -0.35642585158348083, 0.20865650475025177, -0.3802548348903656, 1.2441932994988747e-07, -0.2949655055999756], [0.23786847293376923, -0.42628389596939087, 0.34570202231407166, 0.3903557062149048, -0.012981726787984371, -0.37566202878952026, -0.152513325214386, 0.08305550366640091, -0.11860377341508865, -0.12258123606443405, 0.04819868132472038, -0.2689276337623596, -0.31860578060150146, 0.3270438015460968, 0.11742856353521347, -0.2487659454345703], [1.2064936072420096e-06, -0.13232021033763885, 0.08976539224386215, 0.15280868113040924, -0.0395391546189785, 0.05563437193632126, 0.12489894777536392, 0.3285796642303467, -0.19798900187015533, -0.27855154871940613, 0.2840109169483185, -0.09220942854881287, 1.6686238950569532e-06, 0.3152267634868622, -0.17506542801856995, 0.3420865833759308], [-0.21547530591487885, 0.3380616307258606, 0.29091963171958923, 0.354951947927475, 0.3728780448436737, -0.05203600972890854, 0.038991861045360565, 0.1585889756679535, -0.044574957340955734, 0.4057512879371643, -0.11931730806827545, -0.01688787341117859, -0.3773595094680786, -0.01933019980788231, -0.18797017633914948, 0.22765350341796875], [0.21464687585830688, -1.6162763358806842e-06, 0.02257975935935974, -0.3471381366252899, -0.2612873613834381, 0.04813568666577339, 0.09687722474336624, -0.41153934597969055, 0.04103357717394829, -0.2580329179763794, -0.25797775387763977, -0.13590262830257416, -0.2593757212162018, -0.2656767964363098, 0.2087002396583557, 0.14324964582920074]], "PMT_wall_dense_3/PMT_wall_dense_3/bias:0": [-7.226386969705345e-06], "PMT_wall_dense_3/PMT_wall_dense_3/kernel:0": [[-1.5167087212830666e-06], [5.520228114619385e-07], [9.93089656731172e-07], [1.1822469332400942e-06], [9.732630132930353e-07], [1.4016068234923296e-06], [-1.4540210031555034e-06], [3.0882392820785753e-07], [4.0350306562686455e-07], [3.687947014441306e-07], [-1.2045236417179694e-06], [-2.2995081394583394e-07], [-2.649298494361574e-06], [3.0344386914293864e-07], [-9.4140489181882e-07], [-7.845650316085084e-07]], "AddReflectionContribution/Variable:0": [0.0004294195387046784], "Perp_batch_norm/Perp_batch_norm/gamma:0": [1.0], "Perp_batch_norm/Perp_batch_norm/beta:0": [0.0], "Perp_batch_norm/Perp_batch_norm/moving_mean:0": [0.010652859695255756], "Perp_batch_norm/Perp_batch_norm/moving_variance:0": [0.010258098132908344], "perp_dense_1/perp_dense_1/bias:0": [0.0, 0.0, 0.0, 0.0, 0.0, 0.0, 0.0, 0.0, 0.0, 0.0, 0.0, 0.0, 0.0, 0.0, 0.0, 0.0], "perp_dense_1/perp_dense_1/kernel:0": [[-2.334868907928467, -0.19241245090961456, 1.1003515720367432, -1.7720342874526978, -1.818708896636963, -0.11487449705600739, -0.5554683208465576, -1.319388508796692, -1.4648293256759644, 1.666739821434021, -0.48639625310897827, -0.6146858334541321, -1.2750681638717651, -0.15448389947414398, -0.34294378757476807, -0.46642211079597473]], "perp_dense_2/perp_dense_2/bias:0": [0.0, 0.0, 0.0, 0.0, 0.0, 0.0, 0.0, 0.0, 0.0, 0.0, 0.0, 0.0, 0.0, 0.0, 0.0, 0.0], "perp_dense_2/perp_dense_2/kernel:0": [[0.47034400701522827, 0.1854117214679718, 0.2922945022583008, 0.08011434227228165, 0.6620548367500305, -0.35112738609313965, 0.3294345438480377, 0.35388630628585815, -0.23822541534900665, -0.13643814623355865, 0.31127363443374634, 0.6036984324455261, 0.5506098866462708, -0.05701213330030441, -0.09358992427587509, 0.5200893878936768], [-0.20671530067920685, -0.260022908449173, -0.5412536859512329, 0.22137095034122467, 0.5265561938285828, -0.09791626036167145, -0.3551306128501892, -0.3531143069267273, 0.02312150038778782, -0.6747518181800842, -0.4491722583770752, 0.35802972316741943, -0.5906816720962524, -0.5955471992492676, -0.7966450452804565, 0.557451069355011], [0.364346981048584, 0.008084380067884922, -0.4895080626010895, -0.5971554517745972, -0.3966214954853058, 0.5147926211357117, 0.2277720868587494, -0.29204919934272766, 0.6459025740623474, -0.5568699240684509, -0.3245505392551422, -0.5064427852630615, 0.1751740723848343, -0.2611016631126404, 0.5151172876358032, 0.567613422870636], [0.33135300874710083, -0.1378159075975418, -0.05786045268177986, -0.0716945230960846, 0.26499998569488525, -0.19828857481479645, -0.024194926023483276, -0.06691188365221024, -0.30322447419166565, -0.02406797744333744, -0.3180733323097229, -0.2883630096912384, 0.4562344253063202, 0.44813740253448486, 0.0707542672753334, 0.26385873556137085], [0.02176014706492424, -0.29816684126853943, 0.014084313064813614, -0.06313600391149521, -0.2558053433895111, 0.1631789207458496, -0.47476625442504883, -0.6634154319763184, 0.14402958750724792, -0.35132113099098206, -0.31354013085365295, 0.03250488266348839, 0.6217029094696045, 0.3468512296676636, -0.31923335790634155, -0.08403237909078598], [-0.38460150361061096, -0.7093487977981567, -0.6051101684570312, 0.16502168774604797, 0.1041114404797554, -0.2511530816555023, -0.19235029816627502, -0.3703548014163971, -0.35137230157852173, 0.3804284632205963, 0.008773169480264187, 0.21643121540546417, 0.22212648391723633, -0.13959155976772308, -0.3859107494354248, -0.16202053427696228], [0.6842553615570068, 0.058879654854536057, -0.007525213994085789, -0.1258954554796219, -0.3183704912662506, 0.16116569936275482, -0.24425359070301056, 0.25022268295288086, 0.8018752336502075, -0.3964657187461853, -0.2196953296661377, 0.2140931338071823, 0.27692797780036926, 0.30490344762802124, 0.04468804970383644, 0.6209515333175659], [-0.7949031591415405, 0.12306860089302063, 0.78608238697052, -0.3873768150806427, -0.4901708662509918, 0.2085026204586029, 0.3330516517162323, -0.6952223181724548, 0.04831002280116081, -0.6704860925674438, -0.1921934187412262, 0.16019554436206818, 0.04873170703649521, 0.729275107383728, 0.30494359135627747, -0.039444442838430405], [0.18384921550750732, 0.6785990595817566, 0.05058930441737175, -0.18917661905288696, 0.5031528472900391, -0.2904834747314453, -0.6524611115455627, 0.31229928135871887, 0.16070744395256042, -0.5364754796028137, 0.17452821135520935, 0.5351225733757019, -0.28617170453071594, 0.06363052129745483, 0.23917295038700104, -0.6374208331108093], [0.18854637444019318, -0.6853532791137695, 0.07450160384178162, -0.5484417676925659, 0.05695434287190437, -0.5023339986801147, -0.43266648054122925, -0.4088619649410248, -0.4209684431552887, -0.21923549473285675, 0.11478375643491745, 0.0701507180929184, 0.34767892956733704, 0.15751096606254578, 0.31671983003616333, -0.4875255823135376], [0.10412416607141495, -0.17037005722522736, -0.29541414976119995, 0.16312427818775177, -0.30690476298332214, -0.003930853679776192, 0.3006022870540619, 0.4885583519935608, -0.7203012108802795, 0.104680635035038, -0.48683664202690125, -0.20965440571308136, -0.38217103481292725, 0.35130858421325684, 0.7153966426849365, 0.007749670650810003], [-0.238355353474617, -0.3272615969181061, 0.14125888049602509, -0.7942533493041992, -0.24873001873493195, -0.24560417234897614, 0.16550399363040924, -0.21269911527633667, -0.41945645213127136, 0.3025069534778595, 0.12004345655441284, -0.7713050246238708, 0.150687113404274, -0.29387590289115906, -0.3392280042171478, 0.6551204323768616], [-0.04462854564189911, -0.0019632887560874224, 0.06688882410526276, -0.20400966703891754, -0.502431333065033, 0.14282037317752838, -0.2947176396846771, 0.08149556815624237, 0.33782142400741577, 0.44342365860939026, 0.33126989006996155, 0.2615734040737152, 0.07492703199386597, -0.16924920678138733, 0.4547649025917053, 0.38242414593696594], [-0.6420153379440308, -0.2943219244480133, -0.14367957413196564, 0.027344316244125366, 0.06976310163736343, 0.0047807213850319386, -0.4307459592819214, 0.3480883836746216, -0.12491702288389206, -0.04956052079796791, -0.45736995339393616, 0.09446938335895538, -0.3846224546432495, 0.27508628368377686, 0.21442539989948273, 0.24058324098587036], [-0.31135475635528564, -0.05938057228922844, 0.28286972641944885, 0.5323615670204163, 0.4399082362651825, 0.5086973309516907, 0.026801390573382378, -0.2858718931674957, 0.3074948489665985, -0.26611894369125366, 0.26726871728897095, -0.3796725571155548, 0.36846083402633667, -0.33843281865119934, -0.13155010342597961, 0.05624230206012726], [0.09401104599237442, -0.29246628284454346, 0.19480320811271667, 0.16279837489128113, 0.17890293896198273, -0.39334040880203247, -0.25446024537086487, -0.6335816979408264, -0.26364782452583313, 0.6980822086334229, 0.17784640192985535, 0.11605586856603622, -0.19541671872138977, 0.2499741017818451, -0.23309426009655, -0.11049793660640717]], "perp_dense_3/perp_dense_3/bias:0": [1.0], "perp_dense_3/perp_dense_3/kernel:0": [[0.0], [0.0], [0.0], [0.0], [0.0], [0.0], [0.0], [0.0], [0.0], [0.0], [0.0], [0.0], [0.0], [0.0], [0.0], [0.0]], "anode_dense_1/anode_dense_1/bias:0": [0.0, 0.0, 0.0, 0.0, 0.0, 0.0, 0.0, 0.0, 0.0, 0.0, 0.0, 0.0, 0.0, 0.0, 0.0, 0.0], "anode_dense_1/anode_dense_1/kernel:0": [[1.7147775888442993, 0.29189321398735046, -0.8060406446456909, 0.1459164023399353, -1.5177379846572876, 1.2229406833648682, -0.3140985667705536, -1.6995608806610107, -0.05979494750499725, -0.9285700917243958, 0.07276474684476852, 1.8084710836410522, 1.1287498474121094, 1.186439871788025, 0.46027588844299316, 0.011628007516264915], [-1.1285773515701294, 0.03433581069111824, -0.38164108991622925, 2.068002223968506, -0.27110037207603455, 1.9156490564346313, 0.2322564721107483, 0.019563021138310432, 1.3626161813735962, 1.387047290802002, 1.8362339735031128, -0.45748618245124817, 2.1613969802856445, -0.9834057688713074, -0.982080340385437, 1.068922996520996]], "anode_dense_2/anode_dense_2/bias:0": [0.0, 0.0, 0.0, 0.0, 0.0, 0.0, 0.0, 0.0, 0.0, 0.0, 0.0, 0.0, 0.0, 0.0, 0.0, 0.0], "anode_dense_2/anode_dense_2/kernel:0": [[0.5141288638114929, -0.10535627603530884, -0.14714455604553223, 0.25926637649536133, -0.03677027300000191, 0.2442627102136612, -0.27616339921951294, -0.19975082576274872, -0.0861002653837204, -0.2844655513763428, -0.6830677390098572, 0.4390001595020294, -0.49883800745010376, -0.5086628794670105, -0.45743080973625183, -0.05750710144639015], [-0.3469950258731842, 0.06719932705163956, 0.1316656768321991, -0.21582619845867157, 0.7216106653213501, -0.5814504623413086, 0.34361329674720764, -0.0135254031047225, -0.22078926861286163, 0.42339208722114563, -0.12002575397491455, 0.12125469744205475, 0.15304385125637054, 0.09233545511960983, 0.13673828542232513, 0.36883482336997986], [0.10693539679050446, -0.3868929147720337, 0.6474722027778625, -0.37794890999794006, -0.13278253376483917, 0.026999659836292267, 0.2743207514286041, 0.6060504913330078, -0.17790696024894714, 0.5987055897712708, 0.3346426784992218, -0.29553428292274475, -0.069456085562706, -0.037211574614048004, -0.3001014292240143, 0.44858404994010925], [0.038974374532699585, 0.6267086863517761, -0.3472003638744354, -0.15754739940166473, 0.47622740268707275, -0.021883659064769745, 0.39545536041259766, 0.0583297461271286, 0.16911518573760986, -0.006597902625799179, -0.12401650846004486, 0.6965702772140503, 0.012519883923232555, 0.033210597932338715, -0.15943686664104462, -0.2737993896007538], [0.21826522052288055, 0.5130184888839722, -0.1431976705789566, -0.06786911189556122, -0.10550818592309952, 0.24812380969524384, -0.4022744297981262, -0.5329989194869995, 0.5765987038612366, -0.4042958617210388, -0.6301666498184204, -0.0956646203994751, -0.1507541537284851, -0.3353894054889679, 0.20831330120563507, -0.2864351272583008], [0.3720509707927704, 0.25480589270591736, -0.12099641561508179, -0.11315187066793442, 0.13591839373111725, 0.038270242512226105, 0.22656461596488953, -0.6448442339897156, -0.3251209855079651, -0.030078357085585594, 0.022430693730711937, -0.3586257994174957, -0.07269499450922012, -0.4866565763950348, 0.28344982862472534, 0.419032484292984], [0.0902848169207573, 0.13709528744220734, -0.028512196615338326, 0.08080746233463287, 0.49042996764183044, 0.08636413514614105, -0.08842702209949493, 0.20126508176326752, 0.08220960944890976, 0.7013326287269592, 0.1625397801399231, 0.2847832143306732, -0.13589584827423096, -0.571742832660675, -0.7630969285964966, -0.050652891397476196], [-0.060860950499773026, 0.18589788675308228, 0.4153759777545929, -0.6887387633323669, -0.2368900030851364, 0.05190494656562805, -0.07962121069431305, 0.7182521224021912, 0.42651060223579407, 0.14045517146587372, -0.08216770738363266, 0.12537738680839539, -0.5953864455223083, 0.18508003652095795, 0.40786415338516235, 0.3643063008785248], [-0.40630990266799927, 0.31865745782852173, -0.6654025316238403, -0.054699525237083435, 0.5147240161895752, -0.598242998123169, -0.38075053691864014, 0.43175867199897766, -0.4515737295150757, -0.7400370240211487, 0.6794595122337341, -0.22779211401939392, 0.3493542969226837, -0.20782607793807983, -0.5755265355110168, -0.15944020450115204], [0.07876729965209961, 0.5840812921524048, -0.24402745068073273, -0.24599994719028473, 0.16753537952899933, -0.24590912461280823, 0.40418606996536255, -0.10753661394119263, -0.14388805627822876, 0.4482610821723938, 0.600491464138031, 0.2550823986530304, -0.046568576246500015, 0.5423030853271484, 0.5216008424758911, 0.1756388396024704], [-0.18403761088848114, -0.23531761765480042, -0.4416188597679138, 0.32913196086883545, -0.0807545930147171, -0.10387630015611649, 0.744170069694519, -0.06011814996600151, 0.46140891313552856, -0.14783993363380432, 0.0380471833050251, -0.40713536739349365, -0.09479735046625137, -0.15030845999717712, -0.27703723311424255, 0.175723597407341], [-0.21336878836154938, 0.029085876420140266, 0.2833046317100525, 0.04174736142158508, -0.3423851430416107, 0.1785537451505661, -0.08080704510211945, 0.4464626908302307, 0.45561322569847107, -0.7115193009376526, -0.09138540923595428, -0.5662201642990112, -0.482349157333374, -0.3107374310493469, 0.31366267800331116, -0.6059286594390869], [0.0485815666615963, 0.16902263462543488, 0.19176489114761353, -0.414398193359375, 0.4561370611190796, 0.19616132974624634, -0.15240634977817535, 0.6555861234664917, 0.06380834430456161, 0.33939868211746216, 0.2323518544435501, 0.05425748601555824, 0.156408429145813, 0.20062358677387238, -0.17020955681800842, -0.16893388330936432], [0.2408120036125183, -0.31694096326828003, -0.5079392790794373, -0.5504636168479919, 0.5252709984779358, -0.33765020966529846, -0.26275956630706787, 0.2753417193889618, 0.3191366493701935, -0.3660774528980255, 0.4758354425430298, 0.05452802777290344, 0.6542091965675354, -0.2345138043165207, 0.41923731565475464, -0.7444887757301331], [0.3502519726753235, -0.6890655159950256, -0.17085300385951996, 0.30934175848960876, -0.5837863087654114, 0.2503725290298462, -0.17939451336860657, 0.4317311942577362, 0.03645465523004532, 0.3911036550998688, -0.4215049743652344, -0.370868980884552, 0.49561208486557007, -0.2500777244567871, -0.4183403551578522, 0.33842262625694275], [0.2841770350933075, 0.11210136860609055, -0.2833890914916992, 0.6506390571594238, 0.27115896344184875, -0.32946956157684326, -0.35871708393096924, 0.4540725350379944, 0.01196561474353075, 0.02328089438378811, -0.22921638190746307, -0.2982240915298462, 0.6673321723937988, -0.17618900537490845, -0.5248159766197205, -0.09201367199420929]], "anode_dense_3/anode_dense_3/bias:0": [1.0], "anode_dense_3/anode_dense_3/kernel:0": [[0.0], [0.0], [0.0], [0.0], [0.0], [0.0], [0.0], [0.0], [0.0], [0.0], [0.0], [0.0], [0.0], [0.0], [0.0], [0.0]], "i0/I_0:0": [1.127701759338379, 1.1357258558273315, 1.1289160251617432, 1.1311852931976318, 1.1395169496536255, 1.0336788892745972, 1.1384258270263672, 1.0700222253799438, 1.025476336479187, 0.950107991695404, 0.881759524345398, 0.9978286027908325, 0.9506819248199463, 1.1097573041915894, 1.1410447359085083, 0.9138080477714539, 1.0438063144683838, 1.019290566444397, 0.9012720584869385, 0.8944385051727295, 1.0001516342163086, 0.9240191578865051, 0.9664009213447571, 0.9582699537277222, 0.9749073386192322, 1.081885814666748, 0.8726891279220581, 1.1169778108596802, 0.9031509757041931, 0.9953138828277588, 0.9509941935539246, 0.9587669372558594, 0.8666756749153137, 0.9393641352653503, 0.9423019886016846, 1.0054072141647339, 1.0114041566848755, 1.0244206190109253, 1.1328047513961792, 1.1016812324523926, 0.9577348232269287, 0.9132825136184692, 0.9021707773208618, 0.9907904267311096, 0.966406524181366, 0.9305609464645386, 0.9815986752510071, 1.0138823986053467, 0.8796277046203613, 0.9909835457801819, 0.9936331510543823, 1.0294113159179688, 1.1412353515625, 1.1283236742019653, 0.9590004086494446, 0.8913045525550842, 0.8985339403152466, 0.9136279225349426, 1.067056655883789, 0.8584592342376709, 0.9894003868103027, 0.9593287110328674, 0.9572423696517944, 0.9585283994674683, 0.911262571811676, 0.8648902177810669, 1.117635726928711, 1.0345098972320557, 1.0976133346557617, 0.955646276473999, 0.931106686592102, 0.9508634805679321, 0.901109516620636, 1.019093632698059, 0.9627647399902344, 0.9765219688415527, 0.9576441645622253, 0.9139455556869507, 0.9854943156242371, 0.900363028049469, 0.9482242465019226, 0.8749940395355225, 0.8744776844978333, 1.1304343938827515, 1.0628206729888916, 0.9506292939186096, 0.8670874238014221, 0.9239014983177185, 0.9894963502883911, 1.0481141805648804, 0.9838376045227051, 1.005333423614502, 1.0421618223190308, 0.9494369626045227, 1.0569661855697632, 0.9795131683349609, 0.8727504014968872, 0.9713424444198608, 0.9313342571258545, 1.0650124549865723, 1.0284788608551025, 1.0137253999710083, 0.8795536160469055, 1.0474361181259155, 0.9950760006904602, 1.0108827352523804, 0.9994369149208069, 1.0184495449066162, 0.9837453365325928, 1.05402672290802, 0.929198682308197, 0.9820927381515503, 0.9571875929832458, 1.0000395774841309, 0.8678823709487915, 1.0067046880722046, 1.1227569580078125, 0.934954047203064, 0.9422819018363953, 0.9555587768554688, 0.9461598992347717, 0.9780261516571045, 1.0542211532592773, 0.9788147211074829, 0.9513179659843445, 1.0504364967346191, 0.9816403985023499, 0.986137866973877, 0.9333369731903076, 0.9662572741508484, 0.9647536277770996, 1.1376662254333496, 1.1231186389923096, 0.9826256632804871, 0.9785966873168945, 0.9699593186378479, 0.9926590323448181, 1.050866723060608, 1.0250940322875977, 1.019556999206543, 0.9621449112892151, 0.9646349549293518, 1.018715739250183, 1.010440707206726, 0.9622411727905273, 0.9842084050178528, 0.9884549975395203, 0.9725667238235474, 0.8969917297363281, 0.9391309022903442, 0.985944926738739, 0.9441924691200256, 0.9946408867835999, 1.0163899660110474, 1.0751477479934692, 1.0633221864700317, 1.012464165687561, 1.0723236799240112, 0.9681416749954224, 0.9870473742485046, 0.9435436129570007, 0.9419283270835876, 1.1274192333221436, 0.9990344643592834, 0.8882738947868347, 1.0358470678329468, 1.022829294204712, 1.0154064893722534, 0.8314138054847717, 1.0503606796264648, 0.9996957182884216, 1.0657647848129272, 0.9001073241233826, 0.9340035319328308, 0.9709362387657166, 0.8983328342437744, 1.1148711442947388, 1.0995135307312012, 0.90913987159729, 0.9592258930206299, 0.9104678630828857, 0.961310863494873, 1.0461556911468506, 1.0438153743743896, 0.9767339825630188, 1.0462268590927124, 1.059460163116455, 1.0296227931976318, 1.0002902746200562, 0.9280260801315308, 0.9288011193275452, 1.1332789659500122, 1.1384756565093994, 0.948901891708374, 0.9878994226455688, 0.9789021015167236, 1.0896073579788208, 0.996208667755127, 0.9556490182876587, 0.9687321186065674, 0.9913607239723206, 1.080377459526062, 0.8632522821426392, 0.881878137588501, 0.9961836338043213, 1.1297920942306519, 1.1345205307006836, 0.9855216145515442, 0.9533449411392212, 0.9844214916229248, 1.0298062562942505, 0.965094268321991, 1.019914150238037, 0.936543345451355, 0.8490126132965088, 1.041149377822876, 0.9065577983856201, 0.9053409695625305, 1.1221494674682617, 1.0102955102920532, 1.0292965173721313, 1.027147889137268, 1.000747561454773, 0.9216817021369934, 0.8774878978729248, 0.9801210165023804, 0.9727786183357239, 0.9303953051567078, 1.0218255519866943, 0.9975032210350037, 1.1293169260025024, 1.1151292324066162, 1.094704508781433, 0.9922181367874146, 1.0165140628814697, 1.1225405931472778, 0.9947550892829895, 1.0235267877578735, 1.0209492444992065, 1.142196536064148, 1.0916978120803833, 1.1143563985824585, 1.1415174007415771, 1.1288447380065918, 1.123055100440979, 1.0256503820419312], "LossLayer/GaussianStandardDeviation:0": [0.5015347003936768, 0.5013076663017273, 0.5015830993652344, 0.5015648603439331, 0.5015252828598022, 0.5016846060752869, 0.5016337633132935, 0.5017669796943665, 0.5018779039382935, 0.5019344687461853, 0.501735508441925, 0.5017733573913574, 0.5017939805984497, 0.5017406940460205, 0.5017596483230591, 0.5016433000564575, 0.5018305778503418, 0.5017959475517273, 0.5019235014915466, 0.5019345879554749, 0.5020005702972412, 0.5022079944610596, 0.5019080638885498, 0.5018733739852905, 0.5018084645271301, 0.5017441511154175, 0.5017451643943787, 0.5017943382263184, 0.5018743276596069, 0.5018298625946045, 0.5017912983894348, 0.5018171072006226, 0.5018624663352966, 0.5018263459205627, 0.5018741488456726, 0.5018206834793091, 0.5019693970680237, 0.5018829703330994, 0.5019078850746155, 0.5018119812011719, 0.501836359500885, 0.501854419708252, 0.5017985701560974, 0.5018972158432007, 0.5018310546875, 0.5018470883369446, 0.501944899559021, 0.5018438100814819, 0.5019167065620422, 0.5019232034683228, 0.5019306540489197, 0.5019718408584595, 0.5019474029541016, 0.5017509460449219, 0.5018049478530884, 0.5018063187599182, 0.5018134713172913, 0.5018513798713684, 0.5019382834434509, 0.5019525289535522, 0.5019735097885132, 0.5019543170928955, 0.5019957423210144, 0.5019360780715942, 0.5019519925117493, 0.5018240213394165, 0.501853346824646, 0.5018067359924316, 0.5017635226249695, 0.5018750429153442, 0.5018041729927063, 0.5018109679222107, 0.5018619298934937, 0.501897394657135, 0.5018554925918579, 0.5019444823265076, 0.5019548535346985, 0.5019246339797974, 0.5019028186798096, 0.501818835735321, 0.5018057227134705, 0.5018694996833801, 0.5018220543861389, 0.5017731189727783, 0.5018678307533264, 0.5017877817153931, 0.5019506812095642, 0.501917839050293, 0.5019068121910095, 0.5019144415855408, 0.5019209384918213, 0.5019695162773132, 0.5018243789672852, 0.5019146203994751, 0.5018605589866638, 0.501828670501709, 0.501941978931427, 0.5017921924591064, 0.5017844438552856, 0.5017958283424377, 0.5017892718315125, 0.5018939971923828, 0.5019510984420776, 0.5019403696060181, 0.5019538402557373, 0.5019703507423401, 0.5019262433052063, 0.5018937587738037, 0.5019211769104004, 0.5018885731697083, 0.5019384026527405, 0.5019221305847168, 0.5018693208694458, 0.501916766166687, 0.5019505620002747, 0.5018194913864136, 0.5018280148506165, 0.5020167231559753, 0.5019698739051819, 0.5018907189369202, 0.5019108057022095, 0.501833975315094, 0.5018684267997742, 0.5019639730453491, 0.5019012093544006, 0.5019410848617554, 0.50181645154953, 0.5018630027770996, 0.5018539428710938, 0.5017748475074768, 0.5017508864402771, 0.5017812252044678, 0.5019944310188293, 0.5019368529319763, 0.5018969774246216, 0.5018408298492432, 0.5018749237060547, 0.5018197298049927, 0.5019494295120239, 0.5018787384033203, 0.5019335746765137, 0.5018805861473083, 0.5018590092658997, 0.5018767714500427, 0.501838743686676, 0.5018468499183655, 0.5017370581626892, 0.5019211769104004, 0.5018476843833923, 0.5019093155860901, 0.5018832087516785, 0.5018864274024963, 0.5018277168273926, 0.5018483996391296, 0.5018174648284912, 0.5018360018730164, 0.5018513202667236, 0.501855194568634, 0.5019202828407288, 0.5019358992576599, 0.5018726587295532, 0.5018414855003357, 0.5018306970596313, 0.5018079280853271, 0.5018171668052673, 0.5017998218536377, 0.5017565488815308, 0.5019020438194275, 0.501882791519165, 0.5018842816352844, 0.5018476247787476, 0.5018643140792847, 0.5019506216049194, 0.5018210411071777, 0.5019153356552124, 0.5017786026000977, 0.5019274353981018, 0.5018001198768616, 0.5019388794898987, 0.5019465684890747, 0.5018903017044067, 0.5018834471702576, 0.5019199252128601, 0.5018643736839294, 0.5018852353096008, 0.5018485188484192, 0.5019093751907349, 0.5018503069877625, 0.5019195675849915, 0.5019434094429016, 0.5018364787101746, 0.5017773509025574, 0.5017421841621399, 0.5018160939216614, 0.5017669200897217, 0.5018429160118103, 0.5018259286880493, 0.5017889142036438, 0.5019000172615051, 0.5019356608390808, 0.5019338726997375, 0.5019516944885254, 0.5019422173500061, 0.501826822757721, 0.5018540620803833, 0.501801073551178, 0.5014827847480774, 0.5018604397773743, 0.5020239353179932, 0.5019532442092896, 0.5019077658653259, 0.5019572377204895, 0.5018627643585205, 0.5019256472587585, 0.5018990635871887, 0.501905083656311, 0.5019980669021606, 0.5020025372505188, 0.5018401741981506, 0.5015026330947876, 0.501793622970581, 0.5017232894897461, 0.5018544793128967, 0.501804769039154, 0.5018431544303894, 0.5018390417098999, 0.5018799304962158, 0.5018167495727539, 0.5018356442451477, 0.5017741322517395, 0.5018338561058044, 0.501802384853363, 0.5017317533493042, 0.50186687707901, 0.5018358826637268, 0.5019510984420776, 0.5019787549972534, 0.501952588558197, 0.5018556714057922, 0.5016560554504395, 0.5015990734100342, 0.5017374753952026, 0.5018945336341858, 0.5017127990722656, 0.5017434358596802, 0.5016314387321472], "LossLayer/n_pmts_LikelihoodFunction:0": 246, "LossLayer/switching_signal_LikelihoodFunction:0": 40.0, "LossLayer/return_ratio_LikelihoodFunction:0": false, "LossLayer/n_sigma_LikelihoodFunction:0": 5.0, "LossLayer/p_dpe_LikelihoodFunction:0": 0.20000000298023224, "LossLayer/nan_safe_LikelihoodFunction:0": false, "LossLayer/nan_safe_value_LikelihoodFunction:0": 100000.0, "LossLayer/tile_std_indices_LikelihoodFunction:0": true, "LossLayer/m_LikelihoodFunction:0": 5, "LossLayer/z_LikelihoodFunction:0": 20, "LossLayer/sigma_min_LikelihoodFunction:0": 0.05000000074505806, "LossLayer/sigma_max_LikelihoodFunction:0": 1.0}