{"conv_1d_0/kernel:0": [[[3.0712645053863525, -5.563169479370117, -18.3372802734375, 1.616483449935913, -0.9039768576622009, 0.26329919695854187, 5.61354398727417, -15.693893432617188, -5.254206657409668, -12.898088455200195, 12.818014144897461, 7.139903545379639, 6.834384441375732, -0.7723137140274048, 3.1857492923736572, -10.645196914672852, -0.5385092496871948, 5.628097057342529, 8.868355751037598, 5.2122297286987305, -17.144025802612305, 1.3322172164916992, -0.6194702386856079, -6.683395862579346, -1.6773507595062256, -8.230326652526855, -10.56280517578125, 7.705098628997803, 0.7752576470375061, -4.433069229125977, -4.808140754699707, 0.20331552624702454, 0.6443875432014465, -13.620723724365234, 8.59327507019043, 3.193882942199707, 4.053376197814941, -2.152425527572632, -0.13825222849845886, -24.353168487548828, -3.5617473125457764, 6.881758213043213, 2.3040547370910645, -13.66530990600586, 2.078108310699463, -1.4699639081954956, 10.351658821105957, -5.512497425079346, -1.3354039192199707, 1.982250690460205, 10.544522285461426, 8.231508255004883, -13.667333602905273, -0.5955989360809326, -1.498240351676941, 3.0891380310058594, -5.52617883682251, 3.1629955768585205, 7.68814754486084, 7.612781524658203, -2.570542335510254, -2.468909502029419, -2.46716046333313, -9.116920471191406, 4.131063938140869, -9.315790176391602, -27.66160011291504, -1.523730754852295, 3.4747304916381836, -1.3882243633270264, 5.688950538635254, 1.8501129150390625, 0.6414266228675842, -6.876182556152344, 2.9724552631378174, 4.480576038360596, 1.8839713335037231, 0.2775549590587616, -1.7439388036727905, 5.0230937004089355, -4.252754211425781, 2.700014352798462, -6.32292366027832, -1.8760000467300415, 0.12268394231796265, -5.214545726776123, -3.429325819015503, -8.107486724853516, -22.864261627197266, -1.0925037860870361, 2.052685022354126, 0.6876147985458374, 8.367412567138672, -20.923681259155273, -1.834027886390686, -12.818856239318848], [4.216110706329346, 0.8494250774383545, 5.743525981903076, 2.544588804244995, -2.911269187927246, 10.6976957321167, 5.00968599319458, -0.9935609102249146, -1.5095165967941284, 5.603853702545166, 2.7616403102874756, 12.477259635925293, -1.9577525854110718, 9.813647270202637, -1.9168274402618408, -6.304525852203369, 0.8793416619300842, -1.9563648700714111, -6.351336479187012, 3.685974359512329, 4.506844997406006, -1.6717029809951782, 1.355509638786316, -0.11461412906646729, -0.09917189925909042, 2.12556529045105, -1.7621227502822876, 1.0398356914520264, 3.0073158740997314, 1.676405429840088, -10.280228614807129, -2.358539581298828, -8.160530090332031, 8.602324485778809, 1.4468705654144287, 1.8397812843322754, -5.81533145904541, 5.8411030769348145, 2.43080472946167, -4.929086685180664, -2.9810540676116943, 5.392793655395508, -3.207427978515625, 7.721303939819336, 12.837146759033203, 1.5667728185653687, -7.626602649688721, -7.418068885803223, 3.285414934158325, -1.082731008529663, 6.11067008972168, -1.6689198017120361, -9.296131134033203, 4.073873519897461, 5.751687526702881, -2.5143580436706543, 5.5433197021484375, -2.350459575653076, 0.6027634739875793, 0.8121232390403748, 11.415336608886719, 7.473733425140381, 6.689228057861328, 6.63231897354126, 7.750419616699219, 7.41461181640625, -3.718676805496216, -1.272439956665039, 4.583673000335693, 3.0796382427215576, 9.35541820526123, 0.29413673281669617, 6.079533100128174, 1.6543062925338745, 11.262855529785156, -6.7425737380981445, -3.063091993331909, -4.035775184631348, 7.783878326416016, 0.8784938454627991, 12.14237117767334, 3.8798258304595947, 2.413402795791626, 4.024306297302246, -4.065433025360107, -3.008740186691284, -0.8461217880249023, -7.72332763671875, 9.535822868347168, -4.002579689025879, 0.021289564669132233, 10.122481346130371, -0.08249418437480927, 0.8090539574623108, 3.363477945327759, -1.01398766040802], [4.588403224945068, -2.1919257640838623, 7.9392242431640625, -5.59737491607666, -0.2595674991607666, 1.2349680662155151, -3.434192657470703, -1.1688014268875122, 1.3035944700241089, 7.454821586608887, -0.5816853046417236, -6.029219150543213, 5.663183689117432, -6.897942066192627, -0.07608286291360855, -12.566947937011719, -0.7623944878578186, 4.6576361656188965, 4.471075534820557, -1.5421621799468994, -12.755316734313965, -2.472151041030884, -0.26643913984298706, 6.635382652282715, 0.8594385981559753, 1.4256250858306885, -9.17761516571045, -4.602908611297607, 8.029726028442383, 17.266645431518555, 4.867791652679443, 1.653442621231079, -4.179440021514893, 2.651099443435669, -3.6379964351654053, 13.155994415283203, -0.18189743161201477, 8.523880004882812, -4.052280426025391, 3.1383979320526123, -5.700091361999512, 4.675617694854736, 7.344487190246582, 1.117164134979248, 1.938420295715332, 1.1898466348648071, -0.6432961821556091, 3.2136175632476807, -4.279077529907227, -3.0634734630584717, 0.6729867458343506, -2.233182907104492, -1.4840304851531982, -7.612285137176514, -0.40920230746269226, 4.720688343048096, -9.291603088378906, 3.218323230743408, -3.582315683364868, 15.469626426696777, -0.43048471212387085, -1.9374140501022339, 2.249713659286499, 5.113124370574951, 5.917932987213135, -5.240335941314697, -0.4393647015094757, -13.191689491271973, -2.451970100402832, -2.3711447715759277, -7.73391056060791, -1.4214047193527222, -3.0667524337768555, -3.759423017501831, 2.0847554206848145, -11.599801063537598, -1.454917311668396, -4.557925224304199, 7.278162956237793, 1.3533176183700562, -1.7478270530700684, 9.03747272491455, 6.440388202667236, 0.6075122356414795, -6.735729694366455, -4.072804927825928, -12.2667236328125, 0.42044827342033386, -2.7498838901519775, -2.3965096473693848, 0.5552669167518616, 0.3251822888851166, -6.3827290534973145, -0.05490470677614212, 6.3038129806518555, 3.989304542541504], [-7.08817720413208, 6.9402384757995605, -2.3718485832214355, -9.741483688354492, -1.7870763540267944, -4.100340843200684, 3.9829277992248535, 3.219407558441162, -3.0721845626831055, 8.753706932067871, -2.026840925216675, 2.0744833946228027, -6.675480365753174, -1.6995694637298584, -12.82856273651123, -3.8813352584838867, 2.4365170001983643, 1.675288438796997, -8.020612716674805, -5.677648544311523, -7.266444683074951, 3.080561399459839, -3.8191988468170166, -12.118936538696289, 10.957916259765625, -3.4035940170288086, 11.532965660095215, -2.926246404647827, -3.2083382606506348, 2.320603132247925, 7.208602428436279, 10.274399757385254, -7.151960372924805, -6.165431976318359, 0.7258150577545166, 9.327848434448242, 3.697160243988037, -2.0363199710845947, -0.08643880486488342, 1.8721823692321777, 5.413533687591553, 2.836658000946045, 2.2622807025909424, 1.0608696937561035, 5.0936760902404785, -9.333678245544434, 8.137158393859863, 1.2874021530151367, -0.6914522647857666, -11.485873222351074, -2.420804262161255, -1.2214916944503784, 4.336451530456543, 8.060898780822754, -3.1116251945495605, -10.944204330444336, 12.891313552856445, -10.692854881286621, -14.720071792602539, -9.965240478515625, 7.012887477874756, 3.29349946975708, 6.823078155517578, 8.971128463745117, 2.8702392578125, 3.3269288539886475, -0.04912267625331879, -14.296002388000488, -0.39552828669548035, -13.639239311218262, 2.9944746494293213, -1.8966203927993774, -3.7428221702575684, 11.244649887084961, 4.368198394775391, 0.9936056733131409, -5.421481609344482, 4.5931220054626465, 1.8023641109466553, -7.62050724029541, -10.260591506958008, -9.149526596069336, 12.04772663116455, 1.379596471786499, 5.326649188995361, 4.810123443603516, 3.714647054672241, -7.539353847503662, -4.9656548500061035, 2.913059949874878, 14.603935241699219, -1.6671980619430542, 1.9714239835739136, 0.17311695218086243, 2.5134572982788086, 8.075175285339355], [4.498249053955078, 0.3553157448768616, 3.1849310398101807, 3.1859982013702393, -1.5903456211090088, 5.091337203979492, -1.2702078819274902, -2.4425292015075684, 0.037238869816064835, -8.207168579101562, -9.738306045532227, -5.103236198425293, 3.494394540786743, -1.0730128288269043, 8.989392280578613, 1.0160919427871704, -0.5542609095573425, 0.18806040287017822, 10.377090454101562, -0.13279475271701813, 5.658489227294922, -7.1503143310546875, 0.6507326364517212, 7.852295398712158, -6.269519805908203, 6.315987586975098, -3.6602447032928467, 1.5163055658340454, 1.2098990678787231, 0.3771146833896637, -5.003236293792725, -9.71086597442627, 5.321288108825684, 5.292830467224121, 2.986769199371338, -6.778444766998291, -3.5393662452697754, 0.15019722282886505, 6.4974565505981445, -1.1403563022613525, -2.642545223236084, -2.749516487121582, -0.013348686508834362, -5.836935997009277, -7.8871564865112305, 9.082523345947266, -3.4848415851593018, 0.19611142575740814, 0.09825893491506577, 9.592371940612793, -4.489322185516357, 0.00751984678208828, -3.5622150897979736, -6.167273998260498, -1.0002946853637695, 3.725288152694702, -5.7221455574035645, 9.932568550109863, 8.086181640625, 4.944952487945557, -3.4903852939605713, -0.028571266680955887, -7.25323486328125, -2.925513744354248, -2.5531256198883057, -8.1246919631958, 0.43721482157707214, 4.806615352630615, -1.2345912456512451, 9.936073303222656, -7.918155670166016, 2.575625419616699, 2.5443053245544434, -5.762096405029297, -6.539035797119141, -1.5324877500534058, 4.413548469543457, -4.178973197937012, -2.5194973945617676, 3.7534143924713135, 8.69542407989502, 4.19204568862915, -8.898120880126953, -1.3592562675476074, -6.954595565795898, -0.11807730793952942, -2.3422911167144775, 4.236412525177002, 5.192991256713867, -2.680762529373169, -6.299178600311279, 3.091015577316284, -3.008000612258911, -0.2757737338542938, -0.6672664880752563, -4.218557357788086], [-4.475494384765625, 0.32857686281204224, 1.0816272497177124, 0.011853554286062717, -5.606636047363281, -2.8728060722351074, -0.21851247549057007, -0.5481512546539307, -2.1126351356506348, -1.7299790382385254, -2.513002395629883, -4.458263874053955, 0.12554523348808289, 0.1888379007577896, -1.0118257999420166, -2.184455156326294, -3.536466598510742, -2.4526655673980713, -0.9546011686325073, -1.7530412673950195, 1.31985342502594, -2.037095069885254, 4.023665904998779, 0.578960657119751, -0.790439248085022, 0.855975329875946, -1.477985143661499, 1.0544977188110352, -2.1511614322662354, -3.6722161769866943, -1.4084181785583496, -0.3994394838809967, -5.65034294128418, -1.2317557334899902, -0.34350502490997314, -0.6569079756736755, -6.4104719161987305, -1.074018120765686, -4.7258477210998535, -3.369473457336426, 1.8208814859390259, -1.395973563194275, -2.7962169647216797, 2.0503902435302734, -7.0409345626831055, -0.9716698527336121, -0.5109646320343018, 1.7307345867156982, 3.732694625854492, -0.7731273174285889, -2.4299514293670654, -0.5050787925720215, -0.8145607113838196, -1.1318477392196655, 1.5077576637268066, -2.299900770187378, -1.1809393167495728, -2.8782455921173096, 2.3323941230773926, -0.2840767502784729, -1.3254987001419067, -0.30307435989379883, -2.2177376747131348, -0.9513722062110901, -2.350583076477051, -1.7671256065368652, -1.3004014492034912, 2.347470760345459, -1.5348533391952515, 1.884414792060852, -5.423542022705078, -0.6917439699172974, 6.2165961265563965, 0.5944404602050781, -1.6200495958328247, -1.5615341663360596, 4.3298420906066895, -3.9512996673583984, -0.698829174041748, 2.697028160095215, 1.1074438095092773, -0.09712278842926025, 0.3423202633857727, -3.436551570892334, -2.1630465984344482, -1.1077347993850708, -2.0392119884490967, -3.1963346004486084, -0.8031890988349915, -1.8718054294586182, 0.8575841188430786, -2.3923795223236084, -3.3882226943969727, 1.9418632984161377, -0.40518659353256226, -1.742067575454712], [-4.394380569458008, 4.125748634338379, 1.227202296257019, -4.026777267456055, -8.689275741577148, -2.3097660541534424, -8.427491188049316, 2.4245762825012207, -4.309179306030273, 0.16805611550807953, -7.337775707244873, -8.231292724609375, -0.2734072804450989, 0.14364905655384064, -4.75590181350708, -0.07435867190361023, -6.6272735595703125, -11.708767890930176, -2.0413155555725098, -4.342414855957031, 2.8539891242980957, -12.560575485229492, 1.1069060564041138, -3.1124022006988525, 1.273424744606018, -0.8775920271873474, 2.742668390274048, -10.805767059326172, 0.16816182434558868, -1.6679171323776245, -3.51235032081604, -1.4654934406280518, -11.901927947998047, 0.374422550201416, -8.821208000183105, -3.574340581893921, -4.3134989738464355, -6.965795040130615, -12.112439155578613, -1.4166090488433838, -5.170562267303467, -8.87479019165039, -5.6893815994262695, -15.655339241027832, -6.515129566192627, 1.975542426109314, -5.360461711883545, -0.14676353335380554, -4.0789923667907715, -5.835793495178223, -6.642918109893799, -1.1044942140579224, -2.1648240089416504, -1.5943069458007812, -5.133289337158203, -7.995491981506348, 1.1149662733078003, -5.468927383422852, 0.6310214400291443, -0.15962015092372894, 2.1507179737091064, -5.794313430786133, -1.1659132242202759, 1.4888702630996704, -3.105262041091919, -5.184349060058594, -0.969536542892456, -2.7750256061553955, -8.258209228515625, 2.546302318572998, -8.500401496887207, -5.930123329162598, 5.772972583770752, 1.7033369541168213, -13.934114456176758, -5.32411527633667, 10.774264335632324, -6.1699538230896, -6.034422397613525, -3.8006017208099365, 1.9822773933410645, -0.8004686832427979, 3.5912246704101562, -6.066036224365234, -9.988662719726562, -2.821491241455078, -6.423412799835205, -3.2966232299804688, 0.20882222056388855, -7.437431335449219, 0.05823129042983055, -7.632763385772705, -7.919313907623291, 5.871743202209473, -0.45671379566192627, -3.1174120903015137], [-13.760852813720703, 6.752630233764648, 2.5401504039764404, 4.495947360992432, -17.23953628540039, -1.656373381614685, 2.4293084144592285, 1.7268800735473633, 1.0244747400283813, -1.1018576622009277, -5.592035293579102, -2.9321553707122803, 6.41861629486084, -10.06818962097168, -1.1713964939117432, -7.867355823516846, -17.67249298095703, -1.6357775926589966, -7.8694376945495605, -3.3465723991394043, -0.23232053220272064, 2.024503707885742, 11.089825630187988, 0.3024172782897949, -4.055222034454346, 13.010085105895996, 1.413590669631958, 0.28949493169784546, -18.92534637451172, 3.3011484146118164, -1.779471755027771, 3.2130813598632812, -2.016580104827881, -1.7121806144714355, -1.471630334854126, 2.4380979537963867, -25.891464233398438, 5.195618152618408, -5.9742584228515625, -2.9107189178466797, 3.02787446975708, -3.872751235961914, -13.660818099975586, 6.499877452850342, -4.365182399749756, 3.275864362716675, -1.8369719982147217, 6.8711395263671875, 8.592975616455078, -1.4012128114700317, -0.9805457592010498, -19.01902961730957, 2.1408910751342773, 7.210616588592529, 3.9095139503479004, -1.792292833328247, 0.6480889916419983, -3.332477569580078, -1.0679627656936646, -0.41381585597991943, -9.284920692443848, -4.266319751739502, 2.0600013732910156, 0.6305885314941406, 0.8439509272575378, -2.080399751663208, 0.9258702397346497, -2.041653633117676, 0.4683079421520233, -0.4647822976112366, -3.6073005199432373, -9.602892875671387, 7.908313751220703, 5.207683563232422, 2.8573801517486572, 1.8736488819122314, 18.259788513183594, -18.12451934814453, -7.148733615875244, 10.343037605285645, -1.052240252494812, -1.6689796447753906, 5.568269729614258, -4.213489532470703, 3.9432260990142822, 1.0725359916687012, -7.263950347900391, -3.0215423107147217, -1.067658543586731, 1.717188835144043, -0.034893546253442764, 3.490823984146118, -11.438272476196289, 8.737648963928223, -16.005773544311523, 5.723846435546875], [0.16537809371948242, 0.13588084280490875, 0.1906188577413559, -0.21780668199062347, 0.5515214800834656, 0.052211686968803406, 0.13728010654449463, 0.16873489320278168, -0.04060646891593933, -0.1537630409002304, 0.06305427104234695, -0.07439121603965759, 0.17869745194911957, 0.12218866497278214, 0.16586866974830627, -0.07161829620599747, 0.1784103363752365, -0.15519846975803375, 0.06622180342674255, -0.29943495988845825, -0.0014325100928544998, 0.3466549515724182, -0.11349069327116013, 0.40992000699043274, 0.029086416587233543, 0.07480170577764511, -0.03380530700087547, -0.14495119452476501, 0.23003727197647095, -0.09002164751291275, -0.1281747817993164, 0.32731854915618896, 0.3504329025745392, -0.20144419372081757, -0.07968880236148834, -0.2654847502708435, -0.32466086745262146, 0.10449783504009247, -0.49090391397476196, -0.17571420967578888, 0.16986672580242157, -0.07811058312654495, -0.2138434201478958, 0.07210493832826614, 0.08470901101827621, 0.043435581028461456, -0.10942835360765457, -0.10302650183439255, -0.0037816977128386497, 0.20608797669410706, 0.06701628118753433, 0.007002748548984528, -0.20300829410552979, -0.06447868049144745, -0.3893260359764099, 0.2806779444217682, 0.12143069505691528, 0.252850741147995, 0.16294345259666443, 0.17473095655441284, 0.25965434312820435, 0.5507835149765015, 0.07427337765693665, 0.17439498007297516, 0.2086530178785324, -0.18002310395240784, 0.08406613767147064, 0.14889556169509888, -0.18622468411922455, 0.009181076660752296, 0.03530304506421089, -0.6130893230438232, 0.06848298013210297, 0.17039835453033447, -0.04681222513318062, 0.1603468805551529, 0.018892282620072365, 0.15047791600227356, -0.49263423681259155, 0.032137926667928696, -0.1423606127500534, -0.09570745378732681, -0.10724584758281708, -0.06785652786493301, 0.19221115112304688, -0.2797487676143646, 0.21035794913768768, 0.20323258638381958, -0.2347870022058487, -0.2023402899503708, -0.1072743684053421, 0.007119856774806976, -0.06963445246219635, -0.0063248672522604465, 0.3417026102542877, -0.2227713018655777], [-0.29143354296684265, -0.04881029576063156, -0.040188781917095184, 0.10939037799835205, -0.13487179577350616, -0.47471678256988525, 0.12901100516319275, 0.11675259470939636, 0.235191211104393, 0.08797098696231842, -0.08086592704057693, -0.17546813189983368, 0.07239609956741333, -0.26202186942100525, 0.35814616084098816, 0.29330068826675415, 0.37262219190597534, -0.16370978951454163, 0.4209597110748291, -0.12351575493812561, 0.2902592718601227, -0.1895357370376587, 0.05405160039663315, 0.13425007462501526, -0.02331548184156418, -0.07858861237764359, -0.27763697504997253, 0.4959239959716797, -0.06740161031484604, -0.038357898592948914, -0.29477983713150024, 0.349856972694397, 0.3043951690196991, -0.3238130807876587, -0.020873084664344788, -0.05267183855175972, -0.1551198959350586, 0.05453834310173988, 0.0385793000459671, -0.10422854125499725, -0.3567994236946106, -0.22136595845222473, 0.38317763805389404, -0.12884023785591125, 0.024841686710715294, 0.1552005410194397, -0.2043248564004898, 0.06746765971183777, 0.21170739829540253, 0.36344602704048157, -0.076970174908638, 0.12086465209722519, -0.39110448956489563, -0.15655376017093658, 0.01196182519197464, 0.08125277608633041, -0.22927053272724152, 0.3834789991378784, 0.21011707186698914, 0.17354366183280945, 0.28793564438819885, 0.07786516845226288, 0.260387659072876, 0.0927167534828186, 0.004334850236773491, 0.13149257004261017, -0.26545286178588867, 0.3518638610839844, -0.21577033400535583, 0.11654165387153625, -0.13223721086978912, 0.200929194688797, 0.05799097567796707, -0.03937205672264099, -0.24038656055927277, -0.18942469358444214, 0.07976207137107849, -0.41597872972488403, 0.1934737265110016, -0.04972905293107033, 0.25784674286842346, -0.2636190354824066, 0.07977086305618286, -0.04780299589037895, 0.04066700115799904, -0.32958894968032837, -0.3328024446964264, 0.5200964212417603, -0.05375180020928383, -0.6186283230781555, -0.22544653713703156, 0.020087726414203644, -0.33179327845573425, -0.006870107725262642, 0.1581469178199768, -0.3124777674674988], [-4.163142204284668, -3.221498489379883, 1.0553650856018066, 2.176443338394165, -1.225584864616394, -2.5484848022460938, -3.0286128520965576, 6.061752796173096, 2.602566719055176, 0.38451051712036133, 3.538674831390381, -1.5091689825057983, -5.620739459991455, 6.795936107635498, 1.6231154203414917, -0.4604092538356781, -4.219908714294434, -1.9405419826507568, -5.572731018066406, 1.4720896482467651, -2.5164811611175537, -10.443869590759277, 0.31987401843070984, -4.330172538757324, -2.2241005897521973, -0.714605450630188, 1.9785213470458984, 0.8906545639038086, 4.5773024559021, 1.7524375915527344, -1.2330318689346313, -1.111670732498169, -12.273327827453613, -0.8721287846565247, -2.2223899364471436, -1.1134636402130127, -1.7080891132354736, -15.338133811950684, -7.763696193695068, 2.933347225189209, -8.357569694519043, 3.9215900897979736, -5.069674491882324, -1.742457389831543, -0.10820424556732178, -11.546762466430664, -2.413257598876953, -6.3457794189453125, 0.21933986246585846, 0.25686657428741455, 1.6237207651138306, 1.7068284749984741, 1.3458952903747559, -0.023617833852767944, -0.5731685161590576, 2.8452041149139404, 1.3436379432678223, -0.22565455734729767, 1.712099313735962, -0.8057973980903625, -1.4733953475952148, -3.7060840129852295, 1.4152655601501465, -0.7508593201637268, -8.060704231262207, 4.802324295043945, -1.2636772394180298, 2.3956992626190186, 1.9308536052703857, -1.8528529405593872, 0.22299771010875702, -1.3643519878387451, -16.488994598388672, -4.269793510437012, -6.6833014488220215, 4.568497180938721, 2.4291017055511475, -0.4384377598762512, 2.8966355323791504, -7.180200576782227, 0.15638898313045502, -4.330137252807617, 1.5450962781906128, -3.049757719039917, -1.9959250688552856, -0.9372378587722778, -2.7736706733703613, 1.4529540538787842, -1.0253362655639648, -5.109673976898193, -0.8028383255004883, -3.5366432666778564, 3.193586587905884, 0.10955437272787094, 2.5880823135375977, -3.428039312362671], [-1.4090319871902466, 3.4244096279144287, 2.7114169597625732, -0.3589499890804291, -2.6026391983032227, 5.6700286865234375, 0.9145541787147522, 1.0495115518569946, 1.1065402030944824, -3.880601167678833, -3.280855178833008, -5.258141040802002, -3.5238378047943115, -1.365217685699463, 0.44358816742897034, -0.8452464938163757, -1.0316218137741089, 1.3414338827133179, -3.3874199390411377, 1.7815721035003662, -1.1981165409088135, -0.54315185546875, -16.509410858154297, -2.5772409439086914, -3.546550989151001, 0.555622935295105, 0.7546029090881348, -2.464280128479004, 1.5151050090789795, 3.5505905151367188, 2.9318954944610596, -0.09832427650690079, -16.7365779876709, -0.7608557939529419, 3.5689001083374023, -9.318326950073242, -6.355319976806641, -9.26889419555664, -9.213813781738281, 8.8851957321167, 1.857930302619934, 2.265134572982788, 0.4318026006221771, -6.662866592407227, -9.871747970581055, -1.5420159101486206, -0.6074443459510803, -10.098862648010254, -6.788649082183838, -1.2549554109573364, -1.9573209285736084, 1.5911818742752075, -3.1083688735961914, -2.1906301975250244, -4.389302730560303, -2.774095058441162, 2.186183214187622, 0.010551227256655693, 1.1257779598236084, -1.4091492891311646, -0.3981160819530487, 0.3152802288532257, -1.8174370527267456, 3.284214735031128, -0.38763999938964844, 5.344400882720947, -0.7409613132476807, -4.050368309020996, -1.8245172500610352, -3.458604097366333, -9.281922340393066, -1.8942803144454956, -14.80357837677002, 0.00947143416851759, -6.225506782531738, -8.101485252380371, 1.7959816455841064, -1.5982182025909424, -0.8531163334846497, -18.909950256347656, -4.731266021728516, -3.697627067565918, 0.07121041417121887, -4.332760810852051, -5.303074836730957, 0.9337275624275208, -3.0247843265533447, 1.0578999519348145, -2.637110948562622, -1.7124511003494263, 0.39097046852111816, -2.464824914932251, -0.4208558201789856, 0.805300772190094, -0.35910677909851074, 3.408546209335327]]], "conv_1d_0/bias:0": [-0.02983987145125866, 0.021569838747382164, 0.008070848882198334, -0.0016429958632215858, -0.046320606023073196, -0.01041886955499649, -0.009469724260270596, 0.00791515689343214, -0.0073176901787519455, -0.003154515055939555, -0.026762867346405983, -0.022565048187971115, 0.01180354692041874, -0.01384759321808815, -0.011649800464510918, -0.01403603982180357, -0.04301982372999191, -0.0289781391620636, -0.020055273547768593, -0.017146389931440353, 0.006466924212872982, -0.023142371326684952, 0.027567420154809952, -0.0071166581474244595, -0.0046704476699233055, 0.021781789138913155, 0.007141926325857639, -0.022349528968334198, -0.021149443462491035, -0.00014912799815647304, -0.012492385692894459, 0.002097790129482746, -0.03191749006509781, -0.0006476716371253133, -0.022737903520464897, -0.00528376828879118, -0.04138417914509773, 0.0015397467650473118, -0.03745918720960617, -0.007793369237333536, -0.006229929625988007, -0.02824210748076439, -0.033928290009498596, 0.004338455852121115, -0.025507230311632156, 0.008689678274095058, -0.017936864867806435, 0.014837991446256638, 0.009988316334784031, -0.01573985628783703, -0.01593652181327343, -0.027586881071329117, -0.0005163979949429631, 0.007394472602754831, -0.0030509019270539284, -0.02118982933461666, 0.0031375065445899963, -0.01895812526345253, -0.0010557154892012477, 0.00040614852332510054, -0.009901253506541252, -0.021326683461666107, 0.0012869293568655849, 0.00522981071844697, -0.004284307826310396, -0.016199003905057907, -0.0007862186757847667, -0.008477347902953625, -0.016950147226452827, 0.0075618801638484, -0.02835923619568348, -0.028709670528769493, 0.02827887423336506, 0.012266365811228752, -0.015540385618805885, -0.007610217668116093, 0.05487697198987007, -0.039939820766448975, -0.025809042155742645, 0.01839257963001728, 0.0032424714881926775, -0.0040656100027263165, 0.020078931003808975, -0.021578704938292503, -0.009970695711672306, -0.005715568084269762, -0.026549559086561203, -0.012793943285942078, 0.0012924793409183621, -0.011569357477128506, 0.002711455337703228, -0.008836272172629833, -0.03894353657960892, 0.03158659115433693, -0.024903271347284317, 0.004199694842100143], "conv_1d_1/kernel:0": [[[-0.13401032984256744, 0.424210786819458, -0.09795377403497696, 0.12748126685619354, -0.038356635719537735, -0.15630073845386505, -0.5424490571022034, 0.017294224351644516, 0.13932548463344574, -1.4217581748962402, -0.01623409427702427, -0.18598486483097076, 0.40223896503448486, -0.09135103225708008, 0.01618160679936409, -0.21636143326759338, 0.24066998064517975, -0.5230723023414612, -0.0009239692590199411, 0.07509294897317886, 0.2500646114349365, 0.2204252928495407, -0.23618929088115692, -0.0345747135579586, 0.1473868489265442, 0.17795759439468384, 0.17180916666984558, -0.21359021961688995, 0.0854262113571167, -0.09782692044973373, 0.1564628928899765, -0.2896849811077118, -0.15537779033184052, 0.11217409372329712, -0.09080047905445099, 0.2775968909263611, -0.08090028166770935, 0.1834152787923813, 0.28965041041374207, 0.17374515533447266, -0.036315057426691055, -0.03601767495274544, 0.20881125330924988, 0.033672671765089035, 0.024564215913414955, 0.31628715991973877, 0.059304509311914444, -0.17648015916347504], [0.07546695321798325, 0.21942231059074402, 0.1499912589788437, -0.2611272633075714, 0.18380717933177948, 0.20701093971729279, 0.3900851905345917, 0.12569423019886017, 0.023598166182637215, 0.33695515990257263, 0.21160271763801575, 0.08387152850627899, 0.005163781810551882, -0.021894345059990883, -0.162579745054245, 0.09533755481243134, 0.037993401288986206, 0.04044916480779648, -0.1025158017873764, -0.09042409062385559, -0.0351843424141407, -0.02806732803583145, 0.03121183067560196, -0.30263859033584595, 0.0697188675403595, -0.09886687248945236, -0.036672018468379974, 0.004846182651817799, 0.04156705364584923, 0.06512464582920074, -0.08888739347457886, 0.07439738512039185, 0.04773952066898346, 0.027729446068406105, 0.3356103003025055, 0.16648565232753754, -0.1004389077425003, 0.07952727377414703, -0.48110130429267883, 0.08021478354930878, 0.04408177360892296, 0.07577203959226608, 0.041652366518974304, -0.18523572385311127, 0.12010835111141205, -0.3043540120124817, -0.026371482759714127, -0.28887709975242615], [-0.07322685420513153, 0.03453928604722023, -0.153772234916687, -0.03268572688102722, 0.20527788996696472, 0.02519938163459301, -0.2867942154407501, 0.0024771392345428467, -0.20305651426315308, 0.41725072264671326, 0.0798039361834526, -0.06512466818094254, -0.017160270363092422, 0.003873624140396714, 0.24770011007785797, 0.035817235708236694, 0.33106550574302673, -0.03591505438089371, -0.22035817801952362, -0.16827304661273956, -0.02860204130411148, 0.03349293768405914, -0.09417252987623215, -0.32202965021133423, -0.011119013652205467, 0.07799285650253296, -0.1801653504371643, -0.11432448029518127, 0.1673894226551056, -0.1510029435157776, -0.523125946521759, -0.12892071902751923, -0.15757295489311218, 0.17334069311618805, -0.21858704090118408, -0.017983103170990944, -0.051107101142406464, 0.23824457824230194, -0.11725452542304993, -0.10193033516407013, 0.37856653332710266, 0.01617487333714962, -0.2978837788105011, 0.24840137362480164, -0.16412721574306488, 0.23534925282001495, 0.2510860562324524, -0.40045082569122314], [-0.07233471423387527, 0.1325744241476059, 0.03801078349351883, 0.08414377272129059, -0.03878996521234512, -0.11472467333078384, 0.08053611218929291, 0.164014533162117, 0.11638876795768738, -0.9135862588882446, -0.06267350912094116, -0.011900758370757103, -0.4341978430747986, 0.05677550658583641, 0.13082385063171387, 0.21618808805942535, -0.01374573353677988, 0.1338893324136734, 0.04570583254098892, -0.03866645693778992, -0.038905031979084015, -0.19114136695861816, -0.2981109917163849, 0.23231641948223114, -0.05352480337023735, 0.1587013155221939, 0.06856144219636917, 0.025816699489951134, -0.06824254244565964, -0.19980891048908234, -0.04416016489267349, 0.15006418526172638, 0.39784809947013855, 0.4650309681892395, 0.1984594166278839, -0.13129985332489014, 0.08939601480960846, 0.14104072749614716, -0.026218673214316368, 0.24120944738388062, 0.09013880044221878, 0.09772790223360062, -0.10650134831666946, -0.037185944616794586, -0.03979999199509621, 0.25062039494514465, 0.11872066557407379, -0.1795659065246582], [0.38518425822257996, -0.07351058721542358, -0.19442225992679596, -0.7906351089477539, -0.4786359369754791, 0.13373543322086334, 0.18689559400081635, -0.12328395247459412, 0.0374077744781971, -0.44210925698280334, -0.06266438961029053, -0.4394855797290802, -0.3057328164577484, -0.12596388161182404, 0.2702757716178894, 0.23022671043872833, 0.057947177439928055, -0.009291539900004864, 0.3781571090221405, -0.0483710840344429, -0.002123315818607807, -0.042268041521310806, -0.4221736788749695, -0.2839491367340088, 0.16698023676872253, 0.02040286175906658, 0.07387277483940125, -0.41849201917648315, 0.642663300037384, -0.17964863777160645, -0.14846010506153107, -0.46852925419807434, -0.1161685436964035, -0.3681323826313019, -0.8365322947502136, -0.31489089131355286, -0.1223323866724968, 0.16197623312473297, 0.05965316295623779, 0.14033785462379456, -0.09432798624038696, 0.05617495998740196, -0.1636183261871338, -0.31264737248420715, -0.0034746010787785053, 0.2192186713218689, -0.010965817607939243, -0.4841358959674835], [-0.030078984797000885, 0.10944698005914688, 0.05216982960700989, -0.01030165608972311, -0.07887537777423859, 0.05904300510883331, -0.01611262559890747, 0.2017373889684677, 0.08692766726016998, -0.9897733330726624, 0.10456638783216476, 0.25240927934646606, -0.04224048927426338, 0.02243165299296379, 0.21390484273433685, 0.5190231800079346, 0.1845863163471222, -0.11941883713006973, -0.2396778166294098, 0.32353442907333374, -0.18758226931095123, 0.11768908053636551, 0.2073090672492981, -0.005727948620915413, 0.10108336806297302, 0.12491855770349503, -0.17399224638938904, 0.035136811435222626, 0.08913873136043549, 0.26091068983078003, -0.05423681437969208, 0.04674297198653221, -0.06222911179065704, 0.02040289156138897, 0.08529043942689896, 0.10896310210227966, -0.048430465161800385, 0.41409698128700256, 0.06928149610757828, -0.10378268361091614, -0.008154037408530712, 0.03154532611370087, -0.10898088663816452, 0.049090780317783356, -0.03680679574608803, -0.018325796350836754, -0.05429458245635033, -1.3306306600570679], [0.14483138918876648, 0.15837468206882477, 0.022549735382199287, 0.18040098249912262, -0.10942389816045761, 0.19214169681072235, 0.08389147371053696, 0.08653733134269714, 0.05751095339655876, 0.024491332471370697, -0.15059061348438263, 0.07161308825016022, 0.1605800837278366, -0.032317616045475006, 0.09509993344545364, -0.17364145815372467, -0.037318140268325806, 0.00246041314676404, 0.18635030090808868, 0.11155222356319427, 0.08040746301412582, -0.05644696578383446, 0.2071996033191681, -0.040804892778396606, 0.06285276263952255, -0.053087018430233, -0.15480583906173706, -0.11530935019254684, -0.05898265168070793, -0.09733926504850388, 0.014691728167235851, 0.05063968524336815, 0.08653970807790756, -0.0468960776925087, -0.1949394941329956, 0.07917942851781845, 0.44961220026016235, 0.13306152820587158, 0.45824387669563293, -0.017532777041196823, -0.10239209979772568, 0.10815615206956863, -0.006160465534776449, -1.0376648902893066, -0.06724365800619125, -0.020377671346068382, -0.06456100940704346, -1.8162938356399536], [0.009523130021989346, 0.006813797168433666, -0.21979284286499023, -0.4102654457092285, 0.28920555114746094, 0.014952355995774269, -0.026404883712530136, -0.01677406020462513, -0.18824125826358795, 0.2630082964897156, 0.2251701056957245, -0.10469670593738556, -0.04091774672269821, 0.16703899204730988, -0.04395079240202904, 0.20664261281490326, -0.12073243409395218, -0.24979227781295776, -0.08786802738904953, -0.3507605493068695, -0.004126331768929958, -0.07764608412981033, 0.06326901912689209, -0.35548532009124756, -0.017344588413834572, -0.16888420283794403, -0.1522778868675232, -0.36737775802612305, -0.0932198315858841, 0.17769306898117065, -0.4909055531024933, -0.17328190803527832, -0.5186218023300171, -0.192027285695076, 0.17785049974918365, -0.15603329241275787, -0.4199047088623047, -0.058881040662527084, -1.074641227722168, -0.01646619476377964, 0.02922426536679268, 0.214807391166687, 0.07833749055862427, 0.2230857014656067, 0.008840778842568398, 0.09822434186935425, -0.08484698832035065, 0.36705026030540466], [0.17495448887348175, 0.01950916275382042, -0.14690585434436798, 0.012136848643422127, -0.015200822614133358, 0.09343177080154419, 0.04527370631694794, 0.16138646006584167, 0.09945226460695267, -0.08446989953517914, -0.03525850176811218, -0.09467769414186478, 0.09875207394361496, -0.018065374344587326, 0.14284956455230713, 0.0011718419846147299, 0.004875957500189543, 0.1269441694021225, -0.1950022280216217, -0.019182948395609856, 0.09136229753494263, 0.0006332381162792444, 0.044099729508161545, 0.06149101257324219, -0.2023879438638687, 0.056049950420856476, -0.16045889258384705, 0.0961453840136528, -0.10131748765707016, 0.1943240612745285, -0.03311241790652275, 0.11988954246044159, 0.1482144445180893, -0.08151080459356308, 0.21062757074832916, 0.00700021255761385, -0.5258353352546692, 0.14661119878292084, -0.6812881231307983, 0.03542289882898331, 0.09640537202358246, -0.03202028200030327, 0.2873744070529938, -0.04742957279086113, -0.05561280995607376, 0.19123943150043488, -0.22804947197437286, 0.271636962890625], [0.2173994928598404, -0.26474061608314514, -0.45000162720680237, -0.19037234783172607, 0.10753390192985535, 0.1774318814277649, -0.09958306699991226, -0.05991949141025543, -0.08106698095798492, 0.19459488987922668, 0.13080596923828125, 0.1317829191684723, -0.32358959317207336, 0.030291089788079262, -0.05286234989762306, 0.0236625038087368, 0.3021221160888672, 0.05315501242876053, 0.2646135985851288, 0.025224594399333, 0.04405723139643669, 0.07866840064525604, 0.2795149087905884, 0.21425017714500427, 0.06697632372379303, -0.270153284072876, -0.01116202026605606, 0.05153028666973114, -0.02644076757133007, 0.1968618780374527, 0.04776637628674507, -0.022804489359259605, -0.17508737742900848, -0.2561386525630951, 0.11450652033090591, 0.22434908151626587, 0.08464472740888596, 0.1143123134970665, -0.12279079854488373, 0.23855970799922943, 0.11682961136102676, -0.2166636437177658, 0.027258016169071198, -0.000386991334380582, 0.009975722059607506, -0.16811542212963104, -0.10510215163230896, -0.4724275767803192], [-0.48738500475883484, -0.056904137134552, -0.12666144967079163, 0.08767198026180267, -0.031292855739593506, 0.021910687908530235, -0.02715948037803173, 0.10508667677640915, -0.16189366579055786, -0.2382323443889618, -0.15088120102882385, -0.11259905248880386, 0.26486608386039734, -0.0010583661496639252, 0.09210091829299927, -0.1762552559375763, 0.0631236806511879, -0.4501000642776489, 0.25336208939552307, 0.33746448159217834, 0.1549784392118454, 0.2485499531030655, 0.11845959722995758, 0.00872180238366127, 0.22303754091262817, 0.20658740401268005, -0.047227565199136734, 0.11018967628479004, 0.019742928445339203, -0.2416178286075592, 0.0047935983166098595, 0.013659016229212284, -0.2973063886165619, 0.14666952192783356, -0.9357172846794128, -0.06650415062904358, 0.1947048008441925, 0.1654984951019287, -0.07659025490283966, -0.17225275933742523, 0.14791396260261536, -0.1878315806388855, -0.01822643354535103, -0.0885014459490776, -0.12986136972904205, -0.15181964635849, -0.14087235927581787, -0.8466511964797974], [0.05743920058012009, 0.039055682718753815, -0.10402706265449524, 0.13758011162281036, -0.05688178911805153, 0.18773341178894043, 0.17231613397598267, -0.10366974025964737, 0.048284176737070084, -0.0014989215414971113, 0.04278025031089783, 0.033640824258327484, 0.13283143937587738, 0.13553372025489807, -0.004068688489496708, -0.009212635457515717, 0.05380210280418396, 0.016430556774139404, -0.19190478324890137, -0.01776490919291973, -0.0753011703491211, -0.09722453355789185, -0.31458547711372375, 0.13691723346710205, -0.08154361695051193, 0.030485808849334717, -0.04292743280529976, 0.20454886555671692, -0.09738882631063461, -0.13822346925735474, -0.0828852429986, 0.09978000819683075, 0.16960328817367554, 0.06223099306225777, 0.03426612913608551, 0.15218806266784668, 0.2897409200668335, 0.1482609063386917, 0.13130895793437958, 0.14659053087234497, 0.16026295721530914, -0.34832751750946045, 0.07698182016611099, 0.051890213042497635, 0.04653787985444069, -0.0863567590713501, 0.1086062341928482, -0.37545645236968994], [0.04415830597281456, 0.15477822721004486, 0.037971131503582, -0.1108216941356659, 0.07320017367601395, -0.1633126139640808, 0.021419968456029892, -0.06241501867771149, -0.03150181844830513, -0.01172390952706337, 0.04611561819911003, 0.18469378352165222, 0.32686710357666016, 0.14084956049919128, 0.20231769979000092, -0.0003891570959240198, 0.004632499534636736, -0.1821867823600769, -0.1254672408103943, -0.09295809268951416, 0.2380756437778473, 0.13085520267486572, 0.14587509632110596, 0.012483745813369751, 0.01449811365455389, 0.32565194368362427, -0.2119777500629425, -0.03990654647350311, -0.1926468312740326, -0.15835992991924286, 0.2686751186847687, 0.08908119052648544, 0.15586718916893005, 0.12653598189353943, -0.2805821895599365, 0.36868223547935486, -0.0472848117351532, -0.13975626230239868, 0.12188271433115005, 0.10481227934360504, 0.0706191286444664, -0.06982421875, 0.2579382658004761, -0.05729997903108597, 0.10679706186056137, -0.31671127676963806, 0.1790996491909027, -0.14251762628555298], [-0.19064395129680634, 0.10705249011516571, -0.028826043009757996, 0.10008840262889862, -0.024730253964662552, -0.04685481637716293, -0.06550244241952896, 0.20378904044628143, -0.06434060633182526, 0.4728552997112274, 0.26993033289909363, 0.0787668526172638, -0.1662595123052597, -0.14606909453868866, 0.018303584307432175, 0.3959268629550934, 0.27247053384780884, -0.11966949701309204, -0.31603550910949707, 0.18627533316612244, 0.22783230245113373, -0.14872808754444122, -0.032910652458667755, 0.26249945163726807, 0.062124501913785934, 0.08226354420185089, 0.08273985236883163, 0.14211440086364746, -0.033690474927425385, 0.09622417390346527, -0.12208819389343262, -0.14010147750377655, -0.06210586428642273, 0.07378161698579788, -0.16516228020191193, -0.031338881701231, 0.03421609103679657, 0.13572929799556732, -0.057197555899620056, -0.15574264526367188, 0.03600945323705673, -0.11540793627500534, -0.015096855349838734, 0.11865117400884628, -0.012974563986063004, -0.004052784293889999, 0.1468648761510849, -0.8729325532913208], [-0.06194320693612099, 0.08909188956022263, -0.764551043510437, -0.2765229046344757, -0.09061570465564728, -0.46071138978004456, 0.06286772340536118, 0.0799512267112732, 0.21170674264431, -0.40338587760925293, -0.18981176614761353, -0.32437440752983093, 0.2154657542705536, 0.12001806497573853, -0.06329649686813354, -0.13620060682296753, 0.2538389563560486, -0.3942728340625763, 0.13296690583229065, -0.17782972753047943, 0.3575654923915863, -0.24260617792606354, -0.2623313069343567, -0.1455860584974289, -0.3559388816356659, -0.045165013521909714, 0.15592093765735626, -0.1738920509815216, -0.1522955447435379, 0.25296223163604736, 0.2926444411277771, 0.15135498344898224, 0.09478367120027542, 0.16620630025863647, -0.44689688086509705, -0.29400864243507385, -2.20786452293396, -0.009961878880858421, -0.453138530254364, 0.12261802703142166, 0.050240408629179, -1.0179628133773804, 0.0809764564037323, -0.2705564796924591, -0.43261417746543884, 0.41628798842430115, 0.10570071637630463, -0.837766706943512], [0.02101803943514824, 0.04107903689146042, 0.3045880198478699, 0.058367978781461716, -0.05554906278848648, -0.19781805574893951, 0.0667039081454277, 0.08188650757074356, 0.09175069630146027, 0.18757109344005585, -0.00530592817813158, 0.2132401019334793, -0.23572057485580444, -0.16751085221767426, 0.02713952027261257, 0.13268384337425232, -0.12933914363384247, -0.08265621215105057, 0.05530547723174095, 0.14297284185886383, 0.19907687604427338, 0.027883777394890785, -0.08439527451992035, 0.17982541024684906, -0.6661887764930725, 0.2574739158153534, 0.11294050514698029, 0.11247521638870239, 0.10108616948127747, 0.2016744166612625, -0.07201336324214935, 0.06564483791589737, 0.22229048609733582, 0.0833955928683281, -0.006368887610733509, 0.08363073319196701, -0.6073390245437622, -0.0155104361474514, -0.5204278826713562, -0.07359395176172256, 0.12252730876207352, 0.2161087542772293, -0.2893352210521698, -0.5428242087364197, 0.049194104969501495, 0.07453840970993042, -0.17097339034080505, -0.3822353184223175], [-0.09185615926980972, -0.09020332992076874, 0.3967137932777405, 0.3056286871433258, -0.31149622797966003, -0.13953262567520142, -0.17847976088523865, -0.046718765050172806, 0.059277184307575226, 0.04249076917767525, 0.15317471325397491, -0.06567122787237167, 0.06412217766046524, 0.0544377826154232, 0.45563799142837524, 0.10659321397542953, 0.16195148229599, 0.3104899227619171, -0.09350822865962982, 0.21013298630714417, -0.05034472048282623, 0.11712325364351273, -0.11072225868701935, -0.5514188408851624, -0.5506709814071655, -0.3042144775390625, -0.15944351255893707, 0.5230116844177246, 0.10692532360553741, -0.16578170657157898, -0.33130714297294617, -0.3377630114555359, 0.3161340355873108, -0.026849418878555298, -0.6296665072441101, -0.22469647228717804, 0.7954266667366028, 0.1697791963815689, -1.1578631401062012, -0.1598207950592041, 0.12154077738523483, 0.2986483573913574, -0.8599685430526733, -0.013255130499601364, 0.019052015617489815, -0.986004650592804, -0.2825118601322174, -0.9290404915809631], [-0.4224787652492523, -0.18700957298278809, -0.18778952956199646, 0.032858382910490036, -0.07963033765554428, -0.14200888574123383, -0.021106690168380737, 0.040275007486343384, 0.012440385296940804, -0.47062644362449646, -0.07294945418834686, 0.11421073973178864, -0.3413081467151642, 0.060949306935071945, 0.1806398183107376, -0.05710452422499657, 0.18043802678585052, -0.015756327658891678, 0.103411465883255, -0.10496196895837784, -0.6626728773117065, -0.02380615472793579, 0.10547633469104767, -0.14721985161304474, -0.07141466438770294, -0.037350647151470184, -0.09013426303863525, -0.0047378260642290115, -0.09673618525266647, -0.09885920584201813, 0.1494392603635788, 0.07698959857225418, -0.21722763776779175, -0.10018287599086761, -0.3024172782897949, 0.08164823055267334, 0.11353487521409988, 0.0963515192270279, 0.0721849873661995, 0.10827432572841644, -0.14227017760276794, 0.0886014848947525, 0.08688001334667206, 0.036993928253650665, -0.06674501299858093, -0.024793490767478943, 0.039090096950531006, -0.44627806544303894], [-0.06783846020698547, 0.17267507314682007, -0.9599354267120361, 0.17116989195346832, -0.020047752186655998, 0.24816301465034485, -0.0005918644601479173, 0.1802162081003189, -0.0870392769575119, 0.10495612025260925, 0.17336559295654297, 0.0051358542405068874, 0.120979443192482, 0.30955129861831665, -0.017369935289025307, -0.09537103027105331, 0.3977523446083069, -0.04380116984248161, -0.06233452260494232, 0.14994695782661438, -0.02085975557565689, -0.496539443731308, 0.22271835803985596, 0.28793179988861084, 0.48720014095306396, -0.19303850829601288, -0.11745806783437729, 0.2568340003490448, -0.0441611185669899, -0.12706860899925232, -0.12347220629453659, 0.019775664433836937, 0.21277204155921936, 0.07228142023086548, -0.3231638967990875, -0.21857330203056335, -2.3743975162506104, -0.09315947443246841, -0.37289801239967346, 0.006300174165517092, 0.15822502970695496, -2.1187283992767334, -0.23459585011005402, -1.1849536895751953, -0.14966535568237305, 0.27106043696403503, -0.11319876462221146, -0.33761927485466003], [-0.1799795925617218, 0.09629660099744797, 0.16808252036571503, 0.1109495535492897, -0.10921590030193329, -0.030606521293520927, 0.07123979926109314, 0.11071871221065521, 0.15522794425487518, -0.4765297472476959, -0.055467989295721054, 0.020384907722473145, -1.7572108507156372, 0.1657177358865738, 0.10719123482704163, 0.09512563794851303, 0.12131739407777786, 0.0989353358745575, -0.021998465061187744, -0.17531611025333405, 0.08151286095380783, 0.05739114060997963, 0.12362794578075409, 0.013379518873989582, -0.02258782833814621, 0.05300835892558098, 0.027426432818174362, 0.15122240781784058, 0.0973736122250557, 0.13015319406986237, 0.18089614808559418, 0.1503802090883255, 0.018811646848917007, -0.25570669770240784, -0.12109816819429398, 0.03116794489324093, 0.13866198062896729, 0.16580075025558472, 0.03573176637291908, 0.04097255691885948, -0.01567629911005497, 0.2371092289686203, -0.13476534187793732, 0.11061447113752365, 0.1765066534280777, 0.09436748176813126, 0.08033885806798935, -0.22406232357025146], [-0.12730690836906433, -0.08845189213752747, 0.014116770587861538, -0.5023329257965088, 0.05159219726920128, -0.14561209082603455, 0.17498354613780975, 0.08627531677484512, 0.006875141523778439, -0.208498015999794, 0.20497021079063416, 0.24234862625598907, -0.2566967010498047, -0.23204405605793, 0.11053041368722916, 0.07866980880498886, -0.3484627902507782, -0.09975526481866837, 0.09710840880870819, 0.1365174502134323, 0.026749951764941216, -0.0346418097615242, -0.01947375014424324, -0.20028114318847656, -0.8657996654510498, 0.254234254360199, 0.005925336387008429, 0.1536441445350647, 0.10926439613103867, 0.0784679651260376, -0.035018548369407654, -0.12187618762254715, -0.5823273658752441, 0.05532390996813774, -0.16565237939357758, -0.19746187329292297, -0.2862079441547394, -0.0964999794960022, 0.2704277038574219, -0.09906639158725739, 0.08167894929647446, -0.07614658027887344, -0.13795268535614014, 0.03739219158887863, -0.01161818765103817, -0.22963809967041016, 0.11750927567481995, 0.41424760222435], [0.09126796573400497, 0.1875227987766266, 0.11335568875074387, -0.6296068429946899, -0.21040722727775574, -0.30658891797065735, -0.16936682164669037, -0.16474923491477966, 0.330180823802948, -0.11090784519910812, -0.021578887477517128, -0.189991295337677, -0.11061464250087738, -0.08264646679162979, 0.2342245727777481, -0.051513608545064926, -0.031107619404792786, 0.10414108633995056, 0.12153345346450806, -0.17978012561798096, -0.16544581949710846, 0.09612289816141129, 0.024845780804753304, -0.18571865558624268, 0.1477942168712616, 0.2591794729232788, 0.1582259088754654, -0.13798967003822327, 0.036460988223552704, 0.05366088077425957, 0.17853479087352753, -0.048542287200689316, 0.31300050020217896, -0.03741258755326271, 0.2586582899093628, 0.28110265731811523, -0.24964739382266998, -0.01329429168254137, -0.00444004125893116, 0.041098229587078094, 0.06292993575334549, 0.13733617961406708, -0.014246121980249882, -0.2802999019622803, 0.1334739476442337, 0.0010179306846112013, 0.32393574714660645, -1.9194601774215698], [-0.03554103523492813, 0.0376267284154892, 0.13038480281829834, 0.011530851013958454, 0.05395469814538956, 0.14078116416931152, -0.15850399434566498, -0.15406233072280884, 0.11976587027311325, 0.0071187405847013, -0.05915510281920433, -0.05446844547986984, -0.1066097617149353, 0.02900904417037964, 0.10372308641672134, 0.1940719336271286, -0.4758005440235138, -0.0008362651569768786, -0.06746049970388412, 0.06696470081806183, 0.03877229616045952, -0.1921743005514145, -0.018957732245326042, -0.0924978032708168, 0.18261730670928955, 0.032681580632925034, -0.07798973470926285, -0.032330356538295746, -0.10696429759263992, -0.20840977132320404, 0.08821182698011398, -0.03449896723031998, 0.1375245898962021, -0.01606612652540207, 0.17871607840061188, -0.3092571496963501, -0.026746874675154686, 0.04746628552675247, -0.026212550699710846, 0.20604704320430756, 0.06565694510936737, 0.33857426047325134, 0.07707876712083817, 0.1692364364862442, 0.031198928132653236, 0.4596105217933655, 0.36275243759155273, 0.15107814967632294], [0.09895278513431549, -0.07708998024463654, -0.1551196277141571, -1.4274625778198242, -0.00597791001200676, -0.0740690603852272, -0.0919743999838829, -0.08860207349061966, 0.29287949204444885, 0.16887451708316803, 0.12009598314762115, 0.02560213766992092, 0.04570978134870529, 0.22777964174747467, 0.040567297488451004, -0.08744914084672928, 0.048072244971990585, -0.2687602937221527, 0.1762099713087082, 0.08258845657110214, 0.14084121584892273, 0.16516587138175964, -0.0694413110613823, 0.5910396575927734, 0.019857307896018028, 0.12267632782459259, -0.18829964101314545, 0.08353786170482635, -0.0646948367357254, -0.34162625670433044, -0.0070600793696939945, -0.1625809520483017, 0.07487107813358307, -0.07344769686460495, 0.5619640350341797, -0.008718287572264671, -0.056506529450416565, -0.011661441996693611, -0.16713109612464905, -0.05208100005984306, 0.09529858827590942, -0.1232205331325531, -0.1187276765704155, 0.21985764801502228, -0.2071622759103775, -0.205675408244133, 0.14825338125228882, 0.06837215274572372], [0.001470081740990281, -0.02878793701529503, 0.06780417263507843, -0.08866100758314133, 0.07012756913900375, 0.015016910620033741, -0.019800053909420967, -0.009188758209347725, 0.01289020013064146, -0.01675434410572052, 0.06820886582136154, 0.03822869434952736, 0.05290971323847771, 0.034728627651929855, -0.12885800004005432, 0.1176210269331932, 0.06930092722177505, -0.08674795925617218, 0.10663629323244095, 0.0024250075221061707, 0.04028555750846863, 0.15984207391738892, 0.061909984797239304, 0.10735122859477997, -0.023002585396170616, 0.12144120037555695, 0.0883861631155014, 0.02014751173555851, 0.00826813280582428, -0.08746181428432465, -0.02967013046145439, -0.07737454771995544, 0.1045231893658638, 0.009548943489789963, -0.10526549071073532, 0.10788489133119583, -0.22604544460773468, -0.1575751155614853, -0.14425994455814362, -0.1807088404893875, -0.12553732097148895, -0.26305094361305237, -0.16119089722633362, -0.346359521150589, 0.11573991924524307, -0.5009017586708069, -0.005338141229003668, -0.6205142736434937], [-0.2256040722131729, 0.11620502173900604, 0.07738715410232544, 0.12123139947652817, 0.18816083669662476, -0.08223282545804977, 0.5866267085075378, -0.06779566407203674, 0.10833240300416946, 0.4418468177318573, 0.20241646468639374, 0.2567158639431, 0.18451309204101562, 0.15020044147968292, 0.4393484890460968, -0.04195297881960869, 0.09642305225133896, -0.018273131921887398, 0.14154784381389618, -0.3943483829498291, 0.21361707150936127, -0.06818556040525436, 0.08199054002761841, 0.13118688762187958, -0.08729709684848785, 0.1248178482055664, 0.12425738573074341, 0.09115327149629593, 0.09326253086328506, -0.0050080204382538795, -0.2442723512649536, 0.309975266456604, 0.061579473316669464, -0.15832610428333282, -0.1573745161294937, 0.02010306902229786, -0.13167288899421692, 0.19270013272762299, 0.09082404524087906, 0.27528703212738037, 0.35507917404174805, -0.21998479962348938, -0.37606462836265564, -0.09102167934179306, -0.11414576321840286, -0.24893365800380707, 0.16276901960372925, -0.3312506377696991], [-0.011818520724773407, -0.30571457743644714, 0.08384933322668076, -0.2616887390613556, 0.20704559981822968, 0.05399248003959656, -0.09793936461210251, 0.0005445666611194611, -0.0903080552816391, 0.03801368549466133, 0.16850760579109192, 0.0653441771864891, -0.604306161403656, -0.012639082968235016, -0.44814762473106384, -0.0650254562497139, 0.2216891646385193, -0.04717192426323891, -0.06332925707101822, -0.13736246526241302, -0.7414422035217285, -0.5202935338020325, 0.03824719041585922, 0.10163892060518265, 0.3496534526348114, -0.35319221019744873, -0.1895103007555008, -0.021200580522418022, -0.07502100616693497, 0.2110973745584488, -0.3740473985671997, -0.06825582683086395, 0.04475463926792145, -0.1666630059480667, 0.38010817766189575, 0.065226249396801, -0.22454921901226044, -0.13223682343959808, -0.10694323480129242, -0.04627932608127594, 0.24212107062339783, 0.10244057327508926, -0.18651387095451355, 0.010513465851545334, 0.20579539239406586, 0.1024537980556488, -0.146582692861557, 0.36136719584465027], [-0.004716360010206699, 0.04750341549515724, 0.10374817997217178, 0.1500990092754364, -0.322135865688324, 0.10278204083442688, 0.2988145649433136, 0.1366630643606186, 0.22182951867580414, -0.12562407553195953, -0.016775522381067276, -0.08605009317398071, 0.0737946406006813, -0.002227648627012968, 0.08151760697364807, -0.007293123751878738, 0.05753665789961815, 0.044968131929636, -0.063052698969841, -0.16084793210029602, 0.07299927622079849, -0.059527914971113205, 0.05111292749643326, -0.08955327421426773, -0.3754325211048126, 0.12837867438793182, -0.13032299280166626, 0.03526854142546654, 0.0380290187895298, 0.11674542725086212, -0.025754889473319054, 0.0033279922790825367, -0.003776208497583866, 0.01794644072651863, -0.14151695370674133, -0.3557016849517822, -0.7625269889831543, 0.5103492140769958, -0.45649927854537964, 0.19452710449695587, -0.03377532213926315, -0.5431126356124878, -0.02238360606133938, -0.09004329890012741, 0.05406830087304115, 0.12401013821363449, -0.11365915089845657, -3.097623825073242], [-0.09286914765834808, -0.07510717958211899, 0.00826080422848463, -0.11161694675683975, -0.21428827941417694, -0.09097079932689667, 0.03858368471264839, 0.05791269615292549, -0.014667571522295475, -0.012375777587294579, -0.09788351505994797, 0.26353928446769714, -0.21924935281276703, -0.217176616191864, -0.014357567764818668, -0.022718073800206184, -0.07528569549322128, -0.18948368728160858, 0.15889233350753784, 0.42670896649360657, -0.3126150667667389, 0.0442538820207119, -0.10738801211118698, -0.0744459480047226, 0.12954021990299225, 0.21545393764972687, -0.012776751071214676, -0.227126806974411, 0.17134442925453186, -0.18455198407173157, 0.2680749297142029, -0.25821202993392944, -0.24095970392227173, -0.23901507258415222, 0.03518243134021759, -0.2954883277416229, -0.11434954404830933, 0.06258823722600937, 0.2578585743904114, -0.15301348268985748, -0.005409613251686096, -0.15004943311214447, 0.07291577756404877, 0.05098825320601463, 0.008935676887631416, 0.3400610387325287, 0.1703074425458908, 0.032566700130701065], [0.1278945356607437, -0.4592703878879547, -0.22318913042545319, 0.14972425997257233, 0.03121609054505825, -0.02364204078912735, -0.23148125410079956, 0.017134210094809532, -0.023864125832915306, 0.304470032453537, -0.0472213514149189, 0.2243284285068512, 0.38294336199760437, 0.08766622841358185, -0.07047922164201736, -0.20427332818508148, -0.05827450007200241, 0.04119996726512909, 0.00776299275457859, 0.09649157524108887, -0.27708709239959717, 0.08371540158987045, 0.3086450695991516, -0.15125784277915955, -0.12885676324367523, -0.11788802593946457, 0.0024119026493281126, 0.04277131333947182, 0.09356876462697983, -0.23871006071567535, 0.27750539779663086, 0.12218405306339264, -0.04172185808420181, -0.08494614064693451, 0.14847278594970703, 0.1044706180691719, 0.061511196196079254, 0.15565362572669983, 0.06961000710725784, -0.12552444636821747, -0.09401760995388031, 0.1499418020248413, -0.17800667881965637, 0.03758564963936806, -0.1358000934123993, -0.08108329027891159, 0.07707185298204422, 0.11750135570764542], [0.30653929710388184, -0.3057994544506073, -0.05926629900932312, -0.3372124433517456, -0.0031492148991674185, -0.3025294542312622, -0.5743582248687744, 0.1592317521572113, 0.16783510148525238, 0.5496317148208618, 0.09685306251049042, -0.11877632141113281, 0.4148932695388794, 0.03498726710677147, 0.11526026576757431, 0.06886755675077438, 0.11926308274269104, 0.005766245536506176, 0.20215657353401184, -0.0682590901851654, -0.08980290591716766, 0.34532397985458374, 0.023736676201224327, 0.012494340538978577, -0.14090189337730408, -0.3669779300689697, -0.14782914519309998, 0.0843769982457161, -0.1407996267080307, 0.17388755083084106, 0.11422114819288254, 0.09190693497657776, 0.08984733372926712, 0.08031025528907776, -0.09967821091413498, -0.011200301349163055, -0.24009597301483154, -0.07614779472351074, -0.0344826839864254, 0.09777481108903885, -0.10393086075782776, 0.20714254677295685, 0.31505075097084045, 0.20448501408100128, -0.15664896368980408, 0.3238345980644226, -0.02588619478046894, 0.3620367646217346], [0.15530428290367126, 0.0963849276304245, 0.2747426927089691, -0.03930768370628357, -0.07465977221727371, 0.005900265648961067, 0.36689287424087524, -0.023397725075483322, 0.1314142644405365, -0.031335216015577316, -0.02117721550166607, 0.11427778005599976, 0.064763143658638, 0.12435642629861832, 0.13755083084106445, 0.05605005845427513, -0.00908805150538683, 0.013543509878218174, -0.06940767914056778, -0.1446574330329895, 0.09728177636861801, 0.012559618800878525, 0.1274980902671814, 0.06664242595434189, -0.07095453888177872, 0.2188531458377838, -0.03633233532309532, -0.05555567890405655, -0.0048165456391870975, -0.23317724466323853, 0.01613977923989296, 0.10633052885532379, -0.05337885022163391, 0.11786192655563354, -0.2311667501926422, -0.017498476430773735, 0.9837170839309692, 0.07505163550376892, -0.4006439447402954, 0.19532938301563263, 0.0929279699921608, 0.21641288697719574, -0.03415606543421745, -0.8507967591285706, 0.22471018135547638, -0.8977268934249878, 0.01891295611858368, 0.3771316707134247], [-0.28013408184051514, -0.040680404752492905, -0.2694292962551117, -0.5924421548843384, -0.0957641676068306, -0.11376295238733292, -0.07531493902206421, 0.45914551615715027, 0.00257727294228971, 0.3939213454723358, -0.2812498211860657, 0.1388549506664276, 0.13396725058555603, -0.07605264335870743, -0.05941646173596382, -0.06066664308309555, 0.011768922209739685, 0.2728370726108551, -0.1730523705482483, 0.13432155549526215, 0.1291099339723587, 0.056543197482824326, 0.182153582572937, 0.19680966436862946, 0.518977165222168, -0.5077863931655884, -0.20962320268154144, 0.26594099402427673, 0.006063198670744896, -0.6488568782806396, -0.4753819704055786, 0.008977152407169342, -0.12168261408805847, -0.05703569948673248, 0.5638793110847473, 0.039024271070957184, -0.23485121130943298, 0.16223056614398956, -0.5847429037094116, -0.41687318682670593, 0.028893833979964256, -0.807370126247406, -0.2900988459587097, -2.013817310333252, -0.175757497549057, 0.07113464176654816, -0.45083343982696533, -0.8561911582946777], [-3.27583384513855, 7.125892443582416e-05, -0.21697616577148438, 0.08230959624052048, 0.07075965404510498, 0.1977161467075348, -0.1644875407218933, -0.12109103053808212, -0.1891072690486908, -3.8489723205566406, 0.19341565668582916, 0.11560051143169403, 0.15096348524093628, -0.12773749232292175, -0.034229133278131485, -0.9479861259460449, -0.10091502964496613, -0.12393362075090408, 0.11773352324962616, 0.28061673045158386, -0.19859302043914795, 0.2887761890888214, -0.030792972072958946, -0.4751030504703522, -0.0569552481174469, 0.12889128923416138, 0.18543283641338348, 0.19871662557125092, 0.33409884572029114, -0.4026499390602112, -0.07033339142799377, -0.12370415031909943, -0.3545207381248474, -0.8135575652122498, 0.03324957937002182, -0.25616875290870667, 0.0455005057156086, 0.06896957755088806, 0.0937994197010994, -0.14357411861419678, 0.10912353545427322, -0.08443497121334076, -0.403634637594223, -0.03211252763867378, 0.1654396504163742, -0.05290216952562332, 0.1830299198627472, -0.10907794535160065], [-0.5352259278297424, -0.06350674480199814, 0.021210145205259323, 0.07066230475902557, -0.09189677983522415, 0.0900653675198555, -0.014257673174142838, 0.2667788565158844, -0.0420229509472847, -1.7474873065948486, 0.007787590846419334, 0.057322386652231216, -0.3328838646411896, 0.03043070249259472, 0.06618005037307739, 0.12910614907741547, 0.12833121418952942, -0.18490633368492126, 0.12697923183441162, 0.018053177744150162, -0.39974480867385864, -0.054934751242399216, 0.08398937433958054, 0.02398485131561756, -0.05148591846227646, -0.04847097769379616, -0.1936320811510086, 0.107224240899086, -0.02872530184686184, 0.0021257048938423395, -0.010425024665892124, 0.07108709216117859, -0.00405435124412179, -0.11012382060289383, 0.228179931640625, 0.2519114017486572, 0.022942781448364258, 0.07641672343015671, 0.03041760064661503, -0.007549647241830826, -0.11195331066846848, -0.09609681367874146, 0.013367620296776295, -0.03268766775727272, -0.025822468101978302, -0.05923917889595032, 0.11789985746145248, -0.34854400157928467], [0.14497298002243042, -1.151150107383728, -0.3036992847919464, -0.08497705310583115, -0.07904069125652313, -0.00017894792836159468, -0.3116651475429535, -0.3010979890823364, 0.14939787983894348, -0.43387556076049805, -0.1587088704109192, -0.360063761472702, 0.018976913765072823, 0.021692747250199318, -0.16679459810256958, -0.23778483271598816, -0.2130805253982544, 0.0824885368347168, 0.05061471089720726, 0.04251454025506973, -0.3515703082084656, 0.050914544612169266, 0.1869758516550064, -0.22712378203868866, -0.013302762061357498, -0.21603494882583618, -0.018988242372870445, -0.04393060877919197, 0.056096289306879044, -0.05016568303108215, 0.13985450565814972, 0.010401003062725067, -0.06253588944673538, -0.15407513082027435, -0.11674554646015167, 0.1782979518175125, 0.156301811337471, 0.13301651179790497, -0.4332594573497772, 0.2642316520214081, 0.14193925261497498, -0.09222684055566788, 0.06701618432998657, 0.07420728355646133, 0.007527269423007965, -0.10967016220092773, 0.06000899150967598, 0.06249061971902847], [-3.159940242767334, -0.2068893015384674, -0.1730404496192932, -0.11636654287576675, 0.03456098213791847, 0.14126376807689667, 1.1105923652648926, -1.1155691146850586, 0.19403144717216492, 0.6110256314277649, 0.3008662164211273, -0.02841733954846859, 0.025430548936128616, -0.11453057080507278, 0.05635218322277069, -0.26061394810676575, 0.6075780391693115, -0.681851863861084, 0.20782116055488586, -0.18699465692043304, -2.922616720199585, -0.5024988651275635, 0.030678529292345047, -0.8110584020614624, 0.21767716109752655, -0.04959721118211746, 0.1309526562690735, 0.24663347005844116, 0.25643762946128845, -0.18847805261611938, -0.045402031391859055, 0.05598907545208931, 0.4801976680755615, -0.24535433948040009, -0.5601377487182617, -0.28759682178497314, -0.05814746394753456, -0.379295289516449, -0.41552799940109253, -0.009933781810104847, 0.0753084123134613, -0.4183845520019531, -0.20182257890701294, 0.20516757667064667, 0.16952373087406158, -0.1035480946302414, -0.3441322445869446, -0.2898775041103363], [0.2833358347415924, -0.243423193693161, -0.04456882178783417, 0.014008416794240475, -0.03705442324280739, 0.10970711708068848, 0.3417954444885254, 0.4042818248271942, 0.11378338187932968, -0.25933441519737244, 0.0938592329621315, 0.03159205988049507, 0.08885638415813446, 0.03812756761908531, -0.06481504440307617, -0.02601815201342106, -0.18041861057281494, 0.023144233971834183, -0.10946138948202133, -0.1825677752494812, 0.05984039232134819, 0.012117530219256878, 0.33747148513793945, 0.13437344133853912, -0.3049863278865814, 0.23225846886634827, 0.17654027044773102, -0.23053130507469177, 0.051777731627225876, -0.29013344645500183, 0.18762747943401337, 0.0714891254901886, -0.14424318075180054, 0.08284758031368256, -0.5554055571556091, 0.11295431852340698, -0.08187206089496613, -0.009985573589801788, 0.16246691346168518, 0.06461213529109955, -0.020737165585160255, -0.7629006505012512, 0.08836151659488678, -0.1959391087293625, 0.00045800022780895233, 0.3704400956630707, 0.005378388799726963, 0.014919848181307316], [-0.4677751362323761, 0.12227072566747665, -0.1187603622674942, 0.13383890688419342, -0.12436860799789429, -0.06390954554080963, 0.1671324223279953, -0.20318230986595154, -0.16197752952575684, -1.3180806636810303, 0.17580711841583252, -0.12337297201156616, 0.2813378572463989, -0.05167707800865173, 0.06993073225021362, 0.004339524544775486, -0.04763635993003845, -0.2816237509250641, -0.00802399218082428, -0.059420146048069, -0.5805227756500244, 0.059430453926324844, 0.47082892060279846, -0.008814813569188118, 0.057116132229566574, 0.07131500542163849, 0.1557331532239914, 0.1119919866323471, -0.11010758578777313, 0.04306704178452492, -0.15454015135765076, -0.07817836105823517, -0.10292332619428635, -0.19879789650440216, 0.1868046373128891, -0.1198849081993103, 0.11542274802923203, 0.02991095930337906, 0.01473893690854311, 0.17630624771118164, 0.029718715697526932, -0.19819936156272888, -0.10699670761823654, 0.05587315931916237, -0.03302666172385216, -0.037415046244859695, 0.28073522448539734, 0.36324426531791687], [-0.27849671244621277, 0.1288740038871765, -0.13061556220054626, -0.15172834694385529, 0.20468994975090027, -0.1407003551721573, -2.2335050106048584, -0.051074180752038956, -0.1465854048728943, -0.00511703547090292, 0.15862344205379486, 0.045000337064266205, 0.6382604837417603, -0.31480950117111206, -0.1592302918434143, -0.14901968836784363, 0.3840307593345642, 0.020660074427723885, 0.33696240186691284, 0.40398475527763367, 0.11534469574689865, 0.2322150468826294, 0.008534600958228111, -0.03397797420620918, 0.2402392327785492, -0.10609225928783417, 0.14736080169677734, 0.0052215056493878365, -0.01648331992328167, -0.0476982481777668, -0.0919216051697731, -0.02696418948471546, -0.3326207399368286, -0.016749847680330276, -0.1665799766778946, 0.018160279840230942, -0.12521640956401825, -0.005898114759474993, -0.051266007125377655, -0.02913779579102993, 0.02403295412659645, -0.008848610334098339, -0.25321030616760254, 0.16602487862110138, 0.0626889318227768, 0.0767887756228447, -0.27974802255630493, -0.0915474072098732], [-0.028976814821362495, -0.10136044770479202, 0.0487123504281044, -0.153360515832901, -0.13685941696166992, -0.05349685624241829, 0.10605709254741669, -0.12335609644651413, 0.17033568024635315, 0.18123078346252441, -0.07043690234422684, 0.02796483226120472, 0.19338606297969818, 0.039941176772117615, 0.11263281852006912, -0.15566565096378326, 0.05698608234524727, 0.20321406424045563, 0.08497645705938339, -0.10575257241725922, -0.11207140237092972, -0.07595135271549225, -0.032693635672330856, 0.12000582367181778, -0.07225153595209122, -0.01505318470299244, -0.21630585193634033, 0.19321374595165253, 0.20141831040382385, 0.2587505280971527, -0.29723143577575684, -0.028474846854805946, 0.016491666436195374, -0.03910529240965843, 0.18265336751937866, 0.3229078948497772, -0.04066737741231918, 0.12769639492034912, 0.24406537413597107, 0.13896572589874268, 0.19268594682216644, 0.001766843837685883, -0.09392381459474564, 0.2346925437450409, -0.0498964786529541, 0.06584850698709488, -0.03280330449342728, -0.5323940515518188], [-0.7475746870040894, 0.05114539712667465, 0.038745347410440445, -0.002589658834040165, -0.12256712466478348, -0.028092145919799805, 0.016094820573925972, -0.11755680292844772, 0.033446360379457474, 1.4120750427246094, -0.09672946482896805, 0.16390153765678406, 0.6380571126937866, 0.16266654431819916, 0.13625089824199677, -0.3621094524860382, -0.06216355413198471, -0.040630243718624115, -0.021087605506181717, -0.03361697494983673, -0.13463090360164642, 0.14130882918834686, 0.060812171548604965, 0.08219033479690552, 0.018163077533245087, -0.04959503933787346, -0.145695760846138, -0.04989932104945183, 0.12177609652280807, 0.07316471636295319, -0.007058240938931704, -0.0019892132841050625, -0.013566269539296627, -0.1296803057193756, 0.1424410045146942, -0.2327941656112671, -0.011212384328246117, 0.10828201472759247, 0.06294704973697662, 0.0747394859790802, -0.08687446266412735, 0.2293548583984375, -0.07131960242986679, -0.0013622073456645012, 0.12454444169998169, 0.1448623239994049, 0.1328587830066681, -0.07328315824270248], [0.07905682921409607, 0.19890405237674713, -0.2603853642940521, -0.06202390044927597, -0.255208283662796, -0.008205164223909378, -0.06614433228969574, -0.04124880209565163, -0.1076086163520813, 0.13263097405433655, 0.2585299015045166, -0.10740401595830917, 0.0895034447312355, -0.04041363671422005, 0.29582569003105164, 0.12841768562793732, 0.44510507583618164, 0.03776688128709793, -0.013964662328362465, -0.0025606807321310043, 0.07167105376720428, 0.11159738898277283, 0.11739051342010498, 0.6319854855537415, -0.6387773156166077, 0.015919793397188187, -0.1503099501132965, 0.09207506477832794, 0.3690621554851532, 0.008921550586819649, -0.3028751313686371, -0.20124870538711548, 0.0224510096013546, -0.11234498769044876, 0.04948872700333595, -0.31888896226882935, -2.3363592624664307, 0.02253657765686512, -2.6212425231933594, 0.015592250041663647, 0.018807604908943176, -0.7564548850059509, -0.27310025691986084, -0.329420268535614, 0.0663679912686348, -0.5319731831550598, 0.14256764948368073, -1.562299132347107], [-0.21644358336925507, 0.20661839842796326, 0.13017190992832184, -0.012272344902157784, 0.10878558456897736, 0.17134028673171997, -0.3382170498371124, 0.3174014389514923, -0.24568019807338715, -0.16355665028095245, -0.11203163862228394, -0.8222095370292664, 0.17870084941387177, 0.2764297425746918, -0.6694058179855347, 0.638841450214386, 0.22001169621944427, -0.17525406181812286, -0.11018619686365128, 0.2014656364917755, 0.15216168761253357, 0.5756324529647827, 0.0365065298974514, 0.05687681958079338, -0.24181437492370605, -0.0559871532022953, -0.19129687547683716, -0.2834562361240387, 0.16181205213069916, -0.23315104842185974, -0.3745141327381134, -0.44966474175453186, 0.39009883999824524, -0.186770498752594, -0.29226773977279663, 0.15104231238365173, -0.624629557132721, 0.12344097346067429, -0.2699991762638092, -0.1719549596309662, -0.26022908091545105, -0.6736460328102112, 0.06938209384679794, -0.3968285322189331, 0.2349185198545456, 0.07852412760257721, -0.25967082381248474, -0.2707299292087555], [0.16784481704235077, 0.10408403724431992, -0.23947186768054962, 0.057607509195804596, -0.02928864024579525, 0.09454374760389328, 0.12053428590297699, -0.05690852925181389, -0.05195977911353111, -0.002098268363624811, 0.09955337643623352, 0.10225421190261841, 0.023272987455129623, -0.007047007326036692, 0.07549072057008743, 0.0036750291474163532, 0.23633356392383575, 0.08382993936538696, -0.1460404098033905, 0.041859887540340424, -0.1303960233926773, -0.0864117294549942, -0.2875782251358032, 0.12424122542142868, 0.07439526170492172, -0.19665320217609406, -0.1821812242269516, 0.3334777355194092, 0.09867437928915024, 0.024109698832035065, 0.2225024253129959, 0.059522952884435654, 0.15588143467903137, -0.11904511600732803, -0.230218306183815, 0.13253028690814972, -0.14841842651367188, 0.16563323140144348, 1.4673794507980347, -0.0249868743121624, -0.020153291523456573, -0.7424653768539429, 0.1310601532459259, -0.01692722551524639, -0.1858440786600113, 0.1380443572998047, -0.04726558178663254, -0.6219931244850159], [-0.27115949988365173, 0.022763187065720558, -0.14923939108848572, -0.04230480268597603, 0.08447626978158951, -0.044037383049726486, -0.06530245393514633, -0.09050638228654861, 0.0326799675822258, 0.5383145809173584, 0.03920591250061989, -0.18603970110416412, -0.11530005186796188, 0.05907631292939186, -0.0980384424328804, 0.2909199893474579, -0.0445212721824646, -0.13719239830970764, 0.016674010083079338, -0.11721924692392349, 0.06754135340452194, -0.08430694043636322, -0.01933416537940502, 0.020747872069478035, -0.18480943143367767, 0.08790723979473114, -0.14379970729351044, 0.08962631970643997, 0.07557588815689087, 0.0436490960419178, 0.10410461574792862, -0.13782139122486115, -0.1463855355978012, -0.0032182782888412476, -0.15854492783546448, -0.11731738597154617, -0.05452689528465271, -0.07972130179405212, -0.09796939790248871, -0.153738334774971, 0.21992099285125732, 0.07510769367218018, -0.021942932158708572, -0.05781707167625427, -0.0779486820101738, -0.008774694055318832, -0.2003609985113144, -0.5076261758804321], [-0.4774204194545746, -0.416779100894928, -0.5786606073379517, -0.1529807597398758, -0.11782203614711761, -1.041438102722168, -0.24262621998786926, 0.43011999130249023, 0.13602010905742645, -0.5378033518791199, -0.13929465413093567, -0.442675918340683, 0.3381059467792511, 0.12677867710590363, 0.07483427971601486, -0.282632440328598, 0.293035626411438, -0.5133928060531616, -0.03869720920920372, 0.2225550413131714, -1.256653904914856, -0.38900572061538696, -0.258526086807251, -0.2963940501213074, 0.36187252402305603, -0.5379491448402405, -0.20501618087291718, 0.5388714671134949, -0.448055624961853, -0.20012684166431427, 0.22171303629875183, 0.1862388700246811, -0.12751838564872742, 0.0001468019327148795, 0.4719749987125397, -0.11777021735906601, 0.06394432485103607, -0.354081392288208, -0.16747204959392548, 0.1381937712430954, -0.22253648936748505, -0.21229217946529388, 0.2660245895385742, -0.3194758892059326, 0.1635349690914154, -0.2774064242839813, 0.05529624968767166, 0.15710224211215973], [-0.13303424417972565, 0.14966240525245667, -0.20329026877880096, 0.07012065500020981, 0.022726910188794136, -0.13381263613700867, 0.09701238572597504, 0.054021257907152176, 0.22455087304115295, 0.10336807370185852, -0.011469372548162937, -0.9914343357086182, -0.18623867630958557, 0.04263735190033913, 0.029146132990717888, 0.17721086740493774, 0.014277242124080658, 0.11496369540691376, -0.07996372133493423, -0.23534084856510162, -0.12042277306318283, 0.08032237738370895, 0.2075587809085846, 0.012570234015583992, -0.10878933221101761, 0.057907428592443466, 0.014162017032504082, 0.10447517782449722, -0.23362097144126892, -0.008580648340284824, 0.13254845142364502, 0.008469381369650364, -0.22168338298797607, -0.07946179062128067, -0.07254743576049805, 0.13654176890850067, 0.08121100068092346, -0.07627450674772263, -0.04695193096995354, 0.0552908256649971, 0.13062404096126556, -0.16387400031089783, -0.007274689618498087, 0.45087870955467224, 0.0990370437502861, -0.028129681944847107, -0.13427066802978516, 0.20077615976333618], [0.05180615559220314, 0.015474679879844189, 0.00255192955955863, -0.03394894674420357, -0.05083787813782692, 0.030603133141994476, 0.20782341063022614, 0.1398431956768036, 0.12950697541236877, 0.010677474550902843, -0.037926312536001205, -0.03579345718026161, 0.01748088002204895, -0.11856163293123245, 0.023973233997821808, -0.08108898997306824, -0.10253135114908218, -0.009889393113553524, -0.2012718915939331, -0.07518301159143448, 0.09515161067247391, 0.05036104470491409, 0.1961849331855774, -0.35769087076187134, -0.698588490486145, 0.10575810074806213, 0.08240237087011337, -0.01224453654140234, -0.22141951322555542, -0.08177785575389862, 0.12216906249523163, 0.10136569291353226, 0.025744160637259483, -0.05705205723643303, 0.018020229414105415, 0.06842265278100967, -0.4451260268688202, 0.11146944016218185, -0.4846705496311188, 0.02618406154215336, -0.07458304613828659, 0.2538900375366211, 0.11547869443893433, 0.3681800961494446, -0.04552021622657776, 0.13967116177082062, -0.439856618642807, -0.7630847096443176], [0.16168633103370667, 0.08910011500120163, -0.05999419465661049, -0.8075212240219116, -0.116294264793396, 0.12727917730808258, 0.02907203696668148, -0.10456319898366928, -0.03981829062104225, -0.10467204451560974, 0.010284923017024994, -0.004140705801546574, 0.07619188725948334, 0.11729472875595093, 0.09837108105421066, -0.10553158074617386, 0.18058975040912628, -0.24915219843387604, 0.0668916404247284, 0.3471517562866211, 0.09716569632291794, -0.17669594287872314, 0.22413219511508942, -0.7414502501487732, -0.3894483745098114, -0.37258368730545044, -0.23526178300380707, 0.11121544241905212, -0.2258482277393341, 0.21939043700695038, 0.17373134195804596, 0.15043506026268005, -0.40840065479278564, -0.13199494779109955, 0.46656519174575806, 0.11269524693489075, -0.8566654920578003, 0.21571654081344604, -0.05803987383842468, 0.01232568733394146, -0.008630764670670033, 0.036686886101961136, 0.0540454238653183, 1.1648533344268799, -0.49382537603378296, 0.3662319779396057, -0.0437932051718235, -2.819969654083252], [-0.10801497101783752, 0.24713419377803802, -0.005021717399358749, -0.01580658368766308, -0.05420037731528282, 0.07643112540245056, 0.08942565321922302, -0.05225338414311409, 0.06189080700278282, -0.23469939827919006, 0.18462365865707397, 0.004129928071051836, 0.0847267135977745, 0.0775819718837738, 0.09832379966974258, 0.05806305631995201, 0.06071709468960762, -0.21735461056232452, -0.23740050196647644, 0.06438776105642319, 0.03735921531915665, 0.12019434571266174, 0.09400492161512375, 0.12286057323217392, 0.17706815898418427, 0.08376386761665344, -0.050667256116867065, 0.11312511563301086, 0.009041432291269302, 0.07630613446235657, 0.02398287132382393, 0.04783712700009346, 0.04188968986272812, 0.10751181095838547, 0.1314776986837387, -0.01474370900541544, -0.025646068155765533, 0.07755935192108154, -0.004223616328090429, -0.15064379572868347, 0.02484464831650257, 0.13844120502471924, -0.03646313399076462, -0.15571871399879456, 0.12461966276168823, -0.06093248724937439, -0.08578071743249893, -0.16215606033802032], [-0.14975754916667938, -0.04532720893621445, -0.831115186214447, -0.444664865732193, -0.12028578668832779, -0.3609108328819275, 0.017127113416790962, -0.02356034517288208, -0.33961594104766846, 0.9895440340042114, 0.0341465137898922, -0.5918988585472107, 0.4487275183200836, -0.6148489117622375, 0.19544076919555664, -0.4728417694568634, 0.7603387236595154, 0.6548799872398376, 0.34242507815361023, 0.12337509542703629, 0.0997849851846695, -0.5236942768096924, 0.0012249019928276539, -0.553390622138977, 0.3603566586971283, -0.09306503087282181, -0.22155292332172394, -0.09338414669036865, 0.24242840707302094, -0.07138930261135101, -0.02582043968141079, -0.24786394834518433, -0.4165221154689789, 0.22427722811698914, -0.8563880324363708, -0.06627070158720016, -0.5082712769508362, 0.1808479130268097, 0.05608128011226654, 0.00020287638471927494, 0.2762705087661743, -2.509916305541992, 0.06700469553470612, -0.6601076126098633, -0.15089987218379974, -0.9438160061836243, 0.24967651069164276, 0.9055182933807373], [-0.8080560564994812, -0.13190579414367676, -0.2387205958366394, 0.07701225578784943, -0.0035981405526399612, -0.07796195149421692, 0.18619725108146667, -0.10101404041051865, 0.15782487392425537, -0.35086891055107117, 0.20412829518318176, -0.18328870832920074, -0.1967005878686905, -0.04380698874592781, -0.040570370852947235, -0.6817612051963806, -0.10720168799161911, -0.24850556254386902, -0.00043760606786236167, -0.3833496868610382, -0.4518876075744629, -0.12388692051172256, 0.21630562841892242, 0.06704947352409363, 0.041556887328624725, -0.3277939558029175, -0.09851263463497162, -0.05628367140889168, -0.029589932411909103, 0.05143505707383156, 0.01634189486503601, -0.050398848950862885, 0.0335739366710186, -0.5801706314086914, -0.060301363468170166, -0.11805263161659241, 0.0015857178950682282, 0.032123640179634094, -0.05647755041718483, 0.05740789696574211, -0.1348118931055069, 0.09042835980653763, -0.06352142244577408, 0.2379402071237564, -0.0017364313825964928, 0.14661139249801636, 0.007111674640327692, -0.17375314235687256], [0.11266276240348816, -0.23539991676807404, -0.051313403993844986, -0.025805281475186348, -0.05775759741663933, 0.17449046671390533, -0.3652206063270569, 0.019206654280424118, 0.08322149515151978, -0.04450511187314987, -0.13576185703277588, 0.25367578864097595, -0.3861369490623474, 0.12758837640285492, -0.09081163257360458, -0.5649814605712891, -0.1870262324810028, 0.052886348217725754, 0.019208485260605812, 0.2813493609428406, -0.2247868776321411, 0.0016269974876195192, -0.16036461293697357, -0.13005805015563965, 0.16675713658332825, -0.04263380542397499, 0.12187465280294418, -0.06830786913633347, -0.09287188202142715, -0.02718811109662056, -0.017750153318047523, 0.06436456739902496, 0.11367907375097275, -0.3314465284347534, 0.20683220028877258, 0.1015312522649765, 0.07271886616945267, 0.09970003366470337, 0.04903581738471985, 0.24357596039772034, 0.18922120332717896, -0.17617884278297424, -0.20897285640239716, 0.02460552752017975, 0.03210657835006714, 0.10706708580255508, 0.32240432500839233, -0.2781258523464203], [-0.29068228602409363, -0.05262291431427002, 0.08374205231666565, -0.06660909205675125, -0.05906024947762489, -0.021555012091994286, -0.2666066288948059, -0.04732471704483032, 0.10154539346694946, 0.4531753361225128, 0.09308792650699615, 0.17682208120822906, -0.3751980662345886, -0.032371532171964645, 0.16439028084278107, 0.1440020501613617, -0.27071064710617065, 0.14182476699352264, 0.16986359655857086, 0.055692754685878754, -0.26775774359703064, -0.043722670525312424, -0.06710297614336014, -0.017879635095596313, -0.04922667518258095, -0.003690333105623722, -0.1350252479314804, -0.03163508325815201, 0.12722164392471313, -0.12166597694158554, 0.08471598476171494, -0.023962467908859253, 0.04211165010929108, -0.14229261875152588, -0.04995758458971977, -0.26152220368385315, 0.040363285690546036, 0.08910509198904037, -0.06039208918809891, -0.06508307158946991, 0.01716688461601734, 0.11676571518182755, -0.2266177535057068, -0.06620273739099503, -0.049199171364307404, 0.17393578588962555, 0.07878617197275162, 0.33194655179977417], [0.04987321048974991, 0.18808557093143463, -0.0719120055437088, -0.06986213475465775, -0.056480567902326584, -0.4077052175998688, -0.06921465694904327, -0.027314556762576103, 0.107662633061409, -0.015560139901936054, 0.09417923539876938, 0.12214769423007965, -0.057072654366493225, 0.09916086494922638, 0.09570127725601196, 0.013733936473727226, 0.12165431678295135, -0.1282336711883545, 0.29251375794410706, 0.38380560278892517, 0.22015786170959473, 0.14245988428592682, 0.12933750450611115, 0.05659772455692291, 0.28627848625183105, 0.1360103189945221, 0.13943219184875488, -0.14905014634132385, 0.13589414954185486, -0.08486773073673248, 0.057524360716342926, -0.03955436497926712, 0.15462297201156616, 0.10735031217336655, 0.3154660761356354, -0.06932242214679718, -0.0415525920689106, 0.04455899819731712, -0.21855303645133972, -0.2810314893722534, -0.05918911099433899, 0.07455453276634216, 0.04180942848324776, 0.07165656983852386, -0.0400376059114933, -0.025581343099474907, -0.0770123153924942, -3.6249332427978516], [0.021835481747984886, -0.19889770448207855, 0.3076217770576477, 0.29770752787590027, 0.1663329303264618, 0.5059465765953064, -0.04391713812947273, 0.04831250384449959, -0.07459302246570587, -0.022681791335344315, 0.012231995351612568, 0.17863529920578003, 0.2561333477497101, -0.02245570346713066, -0.04828560724854469, -0.000691878842189908, 0.38839176297187805, 0.06139203533530235, -0.39278644323349, 0.18386267125606537, -0.48612022399902344, -0.3299928605556488, 0.07477772980928421, -0.2614310681819916, 0.5679107308387756, -0.4781113266944885, -0.10946643352508545, -0.01688416488468647, -0.24401777982711792, 0.10904935002326965, -0.059267643839120865, 0.23027940094470978, 0.19040250778198242, -0.07603897899389267, 0.15762491524219513, 0.056458309292793274, -0.18481118977069855, -0.033632051199674606, -1.0079779624938965, 0.0019565820693969727, -0.02261991612613201, 0.115839384496212, 0.1665147989988327, 0.12412203103303909, 0.35111427307128906, -0.23786063492298126, 0.022161636501550674, -0.53888338804245], [0.07381678372621536, 0.053168799728155136, -0.5555985569953918, -0.0033990382216870785, -0.22137796878814697, -0.0018794509815052152, 0.059809695929288864, -0.2800810635089874, 0.322696715593338, -0.07323666661977768, -0.04575556516647339, -0.2536624073982239, 0.08601509034633636, 0.289615273475647, 0.03394836187362671, -0.032837703824043274, 0.16301780939102173, -0.5292889475822449, 0.14219166338443756, -0.7045928239822388, -0.040215302258729935, 0.07587206363677979, -0.0917828381061554, -0.5121787786483765, -0.12636825442314148, -0.8867034912109375, 0.018131136894226074, 0.1633514016866684, 0.2095726579427719, 0.26688989996910095, 0.387183278799057, 0.11272212862968445, -0.006741452030837536, 0.015113003551959991, -0.031090527772903442, 0.03568325564265251, -0.7577269673347473, 0.24425190687179565, 0.9950966835021973, 0.09640613198280334, -0.11389726400375366, -0.513344407081604, 0.14304828643798828, 1.1822917461395264, -0.4697081446647644, 0.5861122608184814, 0.35344818234443665, -0.865927517414093], [-0.15803147852420807, 0.47096380591392517, -0.2094029039144516, -0.45415422320365906, 0.16936878859996796, -1.2519439458847046, -0.441822350025177, -0.5833139419555664, -0.21037204563617706, -0.6209278106689453, -0.6496635675430298, -0.07408832013607025, 0.009338194504380226, 0.3089393377304077, -0.1993802785873413, 0.30305778980255127, 0.3946564495563507, 0.2822328209877014, -0.18044982850551605, 0.3764399588108063, 0.5849307775497437, 0.2272653877735138, -0.3230997622013092, -0.5209619998931885, -0.24791689217090607, 0.8416638970375061, -0.22079022228717804, 0.18175478279590607, 0.3255954682826996, -0.23010486364364624, 0.4148400127887726, 0.010078434832394123, 0.037695132195949554, 0.6345821022987366, 0.297532320022583, -0.040748387575149536, 1.6079057455062866, -0.187800332903862, -0.01283407211303711, 0.019354868680238724, -0.12723183631896973, 0.14562933146953583, 0.41530221700668335, -0.027815843001008034, -0.6980821490287781, 0.026601383462548256, -0.22407293319702148, -0.027368677780032158], [0.02027571015059948, 0.009268228895962238, -0.4594862461090088, 0.4752037227153778, -0.011113282293081284, -0.2839818298816681, 0.0981392189860344, 0.1764315813779831, 0.07536808401346207, -0.30714505910873413, -0.09707914292812347, 0.4039985239505768, -0.194796621799469, -0.057831525802612305, -0.08596684783697128, 0.05588666349649429, -0.3185668885707855, -0.04168442636728287, -0.05713428556919098, 0.5249361395835876, 0.46222978830337524, -0.14726319909095764, 0.0068671004846692085, 0.348723828792572, -0.10514948517084122, 0.5661089420318604, -0.021114632487297058, 0.1601688712835312, -0.009829191491007805, -1.165964961051941, 0.07280830293893814, 0.1434512585401535, 0.4656391739845276, 0.27615290880203247, -0.15501856803894043, -0.1025601476430893, 0.15526083111763, 0.2584080100059509, 0.6909838914871216, -0.13483265042304993, -0.11675527691841125, -0.19815979897975922, 0.12374458461999893, -0.7381427884101868, 0.10021504014730453, 0.022738616913557053, -0.0454271100461483, -0.19242456555366516], [-0.1609828919172287, -0.2675972580909729, 0.5056679248809814, -0.28404220938682556, -0.03810048848390579, 0.26907989382743835, 0.2323625683784485, 0.017184127122163773, -0.2576533854007721, 0.16591045260429382, 0.27878907322883606, 0.24824678897857666, -0.14593088626861572, -0.43038588762283325, -0.16755646467208862, -0.09803981333971024, -0.025273598730564117, 0.2369231879711151, 0.1832820028066635, 0.320040225982666, -0.04285097494721413, 0.16904579102993011, 0.01929968036711216, 0.6611419320106506, 0.16248588263988495, -0.055917318910360336, 0.1577567756175995, 0.11313364654779434, 0.29450517892837524, -0.31336405873298645, -0.0408034510910511, -0.08797324448823929, -0.11066387593746185, 0.345939576625824, 0.23111934959888458, 0.02452212944626808, -0.3240576386451721, -0.07362150400876999, 0.9224619269371033, -0.08501895517110825, 0.0013049235567450523, -0.0276445671916008, -0.3996375799179077, -0.35000261664390564, -0.05284671112895012, -0.49290531873703003, 0.2793855667114258, -0.5307522416114807], [0.060045141726732254, 0.18609128892421722, 0.09379558265209198, 0.34892019629478455, -0.15070250630378723, 0.09234633296728134, -0.041005056351423264, -0.25258195400238037, 0.3440912067890167, 0.13190890848636627, 0.2549499273300171, 0.035714566707611084, 0.21767236292362213, 0.09907741844654083, 0.25244948267936707, -0.1303652971982956, 0.08842422068119049, 0.09952142089605331, -0.04458702355623245, -0.7062757015228271, -0.12506116926670074, 0.08342457562685013, 0.015525264665484428, -0.08507686853408813, 0.03600257262587547, -0.047357745468616486, 0.12577508389949799, 0.0619082897901535, -0.0457715205848217, 0.03414129093289375, 0.05656152591109276, -0.059798821806907654, 0.05586952343583107, -0.04947292059659958, 0.08571407198905945, -0.1060522273182869, -0.38798999786376953, 0.15713901817798615, -0.5348700881004333, 0.19553864002227783, -0.12902912497520447, 0.313879132270813, -0.08146187663078308, 0.04885363578796387, 0.09439244121313095, -0.1829323023557663, 0.03630547225475311, -2.626844644546509], [-0.03768252953886986, 0.15173281729221344, -0.2762737274169922, 0.12424737960100174, 0.0223307553678751, 0.24124114215373993, 0.10126177221536636, 0.050301626324653625, -0.02861204743385315, 0.1363968700170517, -0.06536237895488739, 0.15281358361244202, 0.05010652914643288, 0.09067549556493759, 0.04995262995362282, -0.0886981412768364, -0.12950217723846436, 0.028481872752308846, -0.0904240608215332, 0.12619414925575256, 0.10658883303403854, -0.03218378499150276, 0.22595341503620148, 0.04182477295398712, 0.16638964414596558, -0.1851494461297989, -0.10171753913164139, -0.037205055356025696, -0.05107035115361214, -0.0032999441027641296, 0.06408978998661041, -0.11781912297010422, 0.06634998321533203, -0.18634489178657532, -0.15151113271713257, -0.13036946952342987, 1.104849934577942, 0.2466564178466797, 0.20174595713615417, 0.08871416002511978, -0.13636095821857452, -0.16730667650699615, -0.015295930206775665, 0.38041162490844727, 0.15340158343315125, 0.25682586431503296, -0.02219654619693756, 0.33352750539779663], [0.259054034948349, 0.0010869123507291079, -0.09845422208309174, 0.05657332390546799, 0.11834072321653366, 0.2771686315536499, 0.2549366056919098, 0.16723573207855225, -0.008398913778364658, 0.1083536222577095, 0.15132273733615875, 0.04979701340198517, 0.15988197922706604, -0.014236675575375557, -0.09858950227499008, 0.09574782848358154, 0.017044655978679657, -0.04107058793306351, 0.017156217247247696, 0.1164451614022255, 0.06976836919784546, -0.03351563587784767, 0.02589123137295246, -0.11528179794549942, -0.024515250697731972, -0.15091119706630707, 0.02565189264714718, -0.33522307872772217, -0.2529633343219757, 0.04523320868611336, -0.13413892686367035, -0.07421346753835678, 0.16825035214424133, 0.10990919172763824, -0.03307076916098595, -0.029423873871564865, -0.20925593376159668, -0.0304661113768816, -1.2242590188980103, 0.08056125789880753, 0.02421209029853344, 0.014101281762123108, -0.11084625869989395, -0.08544887602329254, 0.15603439509868622, -0.33053675293922424, 0.31676343083381653, 0.3807467818260193], [0.09128114581108093, 0.16119539737701416, -0.07407578825950623, 0.08715230226516724, -0.02051132544875145, 0.03454151749610901, -0.07074923068284988, 0.20877765119075775, 0.1803772896528244, -0.011204682290554047, 0.019710209220647812, -0.025356413796544075, 0.03666423261165619, -0.0014158370904624462, 0.17558592557907104, 0.12238527089357376, -0.021516505628824234, 0.13301992416381836, -0.1210472509264946, -0.0939260721206665, -0.060156743973493576, -0.10866810381412506, 0.09266605228185654, 0.1643521636724472, 0.11709439009428024, 0.08023225516080856, -0.08306137472391129, 0.16835527122020721, 0.003975760191679001, -0.02919909358024597, -0.0006645626854151487, 0.0221231859177351, 0.16142065823078156, 0.30046021938323975, 0.13574375212192535, 0.08566873520612717, -0.22233590483665466, 0.10343652218580246, -0.03430209681391716, -0.0010122499661520123, -0.036684438586235046, 0.026364678516983986, -0.06857151538133621, 0.00641357759013772, 0.1323574036359787, -0.16352179646492004, -0.04879320412874222, 0.443940132856369], [0.14098510146141052, -0.13067203760147095, -0.21909251809120178, 0.016095172613859177, 0.15447059273719788, -0.04271330684423447, 0.0357736237347126, 0.07912192493677139, 0.2229398787021637, -0.019669722765684128, 0.15324123203754425, -0.011860199272632599, -0.056123096495866776, -0.05358828231692314, -0.03853344917297363, 0.10919409245252609, -0.0818106159567833, -0.02303047478199005, 0.034672997891902924, 0.022046316415071487, -0.07159236818552017, 0.14208145439624786, 0.017060259357094765, -0.18947939574718475, -0.22946156561374664, 0.12069858610630035, 0.004936901852488518, -0.1928100734949112, 0.11081091314554214, 0.25381043553352356, -0.12780332565307617, -0.021140649914741516, -0.038747094571590424, -0.10071590542793274, 0.24720251560211182, -0.06553804874420166, -0.06280559301376343, 0.11548461019992828, -0.41729500889778137, 0.046671658754348755, -0.140691339969635, -0.2676602602005005, 0.16775010526180267, -0.9947330951690674, 0.06166090816259384, 0.06295830011367798, -0.2951083481311798, -0.638603150844574], [-0.027585994452238083, 0.04658975452184677, -0.09657223522663116, 0.0032618201803416014, 0.22953005135059357, 0.15723475813865662, 0.03436795994639397, -0.15538597106933594, -0.004954228177666664, -0.1309043914079666, 0.3045228123664856, -0.20919324457645416, 0.16317951679229736, -0.11646786332130432, -0.2990238070487976, -0.04422697052359581, 0.3223816454410553, -0.17948147654533386, 0.016859153285622597, -0.4728744328022003, -0.0017988120671361685, -0.0018594416324049234, 0.1888182908296585, -0.3783370554447174, 0.1125091016292572, -0.12883926928043365, 0.16320127248764038, 0.005983238108456135, 0.023781904950737953, -0.03972664102911949, -0.3034096956253052, -0.17526204884052277, 0.4711330235004425, 0.05632972717285156, 0.11756672710180283, -0.019966915249824524, -0.05128894001245499, 0.048509303480386734, -0.012191853486001492, 0.032398369163274765, 0.11861518770456314, -0.28357696533203125, -0.05355864763259888, 0.24778077006340027, -0.11477228999137878, 0.04274236038327217, -0.2723216116428375, -0.6613041758537292], [-0.1589266061782837, -0.027733854949474335, -0.05495366081595421, -1.1491129398345947, -0.07804276049137115, -0.3679289221763611, 0.11608947813510895, 0.13846690952777863, -0.05297055467963219, -0.08061527460813522, -0.03140886127948761, 0.007196143735200167, -0.02992064319550991, 0.19460244476795197, 0.05628523603081703, -0.11655111610889435, 0.20800037682056427, 0.18844372034072876, 0.021023046225309372, 0.012692789547145367, 0.0966736227273941, 0.16612845659255981, 0.02025347203016281, -1.2042104005813599, -0.20284494757652283, 0.01250567939132452, 0.01108340360224247, 0.05333062261343002, -0.032704468816518784, 0.31351539492607117, -0.1791781634092331, 0.07398979365825653, -0.2430955320596695, 0.10234727710485458, 0.31568771600723267, 0.13517236709594727, 0.013804050162434578, -0.012925299815833569, 0.56031733751297, 0.11490879952907562, -0.026052454486489296, 0.2887745499610901, 0.026479428634047508, 0.22050543129444122, -0.026284484192728996, -0.4732968211174011, -0.38107946515083313, -0.42072197794914246], [-2.144235134124756, -0.22050690650939941, 0.14984533190727234, 0.016157640144228935, -0.0901743546128273, 0.044975340366363525, 0.3324580192565918, -0.005687660071998835, -0.06748192757368088, 0.45504558086395264, 0.06383925676345825, 0.07356459647417068, -0.9015085697174072, 0.19067001342773438, 0.09824088960886002, 0.10628560930490494, 0.0362267941236496, -0.06085814908146858, -0.028761720284819603, -0.14016997814178467, -3.893986463546753, -0.13001397252082825, 0.0648726224899292, 0.17731893062591553, 0.03565330430865288, -0.022675007581710815, -0.1979363113641739, 0.03998585790395737, 0.038487132638692856, 0.016596846282482147, -0.02677980065345764, 0.037894103676080704, 0.04846608638763428, -0.004413011483848095, -0.08991104364395142, -0.01012270338833332, 0.14320315420627594, 0.16988374292850494, -0.04833085462450981, 0.1054101511836052, -0.08633851259946823, 0.20217519998550415, -0.08877794444561005, 0.09855931997299194, 0.195074662566185, 0.16660195589065552, 0.10602376610040665, -0.27931898832321167], [-0.3094278872013092, -1.0323294401168823, 0.3361327350139618, -0.07816768437623978, 0.263229101896286, -0.1882183849811554, -0.7965408563613892, -0.4082914888858795, 0.19276157021522522, 0.4697166979312897, -0.04884987324476242, -0.20878368616104126, -1.0763912200927734, -0.14839811623096466, -0.19879581034183502, 0.3371817469596863, 0.13977621495723724, 0.4533607065677643, -0.07640881836414337, 0.3653492331504822, -0.7670514583587646, -0.04696522280573845, -0.525084912776947, 0.1811366230249405, -0.526314914226532, 0.3923092186450958, 0.014290080405771732, -0.07151155918836594, 0.1267731636762619, -0.5207042098045349, 0.07021090388298035, -0.1969371736049652, -0.29208916425704956, 0.8278414607048035, -0.7608369588851929, 0.18295146524906158, -0.21820968389511108, -0.2676103711128235, 0.21806488931179047, -0.32766059041023254, 0.28943097591400146, 0.2710786759853363, -0.16686220467090607, 0.07723180949687958, 0.18866336345672607, -0.020450079813599586, 0.15512798726558685, -0.9044473767280579], [0.1527949869632721, -0.08542182296514511, -0.04659247398376465, 0.015640927478671074, -0.061453599482774734, 0.045107193291187286, -0.19093498587608337, 0.03209651634097099, -0.10547298192977905, 0.03379112109541893, -0.029561847448349, -0.043896451592445374, -0.0136112617328763, 0.05731619521975517, -0.002876075217500329, 0.06883328408002853, 0.05941908806562424, -0.06899584829807281, 0.0980108305811882, -0.10527484118938446, 0.019239377230405807, -0.03543804958462715, -0.052124038338661194, 0.3428208529949188, -0.0939468964934349, -0.017758991569280624, -0.06260498613119125, 0.12437231093645096, -0.13242682814598083, -0.17490705847740173, -0.029804134741425514, -0.12769104540348053, -0.0015221231151372194, 0.19516009092330933, -0.2816184163093567, -0.08404359221458435, 0.20166383683681488, 0.2814427316188812, 0.03933315724134445, 0.12577757239341736, 0.05451418086886406, -0.1962265521287918, 0.11483913660049438, -0.015911828726530075, 0.05226929485797882, -0.1343325972557068, 0.009281176142394543, -0.17619681358337402], [-0.07500550895929337, 0.12867626547813416, -0.06365349143743515, 0.055212218314409256, -0.2634468972682953, -0.025784974917769432, 0.3402189612388611, 0.03780129924416542, -0.16285809874534607, -0.8756746053695679, 0.38527345657348633, 0.034808143973350525, 0.1854798048734665, -0.05705061927437782, 0.28542742133140564, -0.181769460439682, 0.3481760621070862, 0.07655970752239227, -0.021643798798322678, 0.14391189813613892, -0.10393642634153366, -0.0022795130498707294, 0.002566049573943019, 0.0703897550702095, -0.23473741114139557, 0.05423104017972946, -0.20512764155864716, 0.06621385365724564, 0.19025945663452148, -0.09326843172311783, 0.012505115009844303, -0.2623327374458313, 0.28064021468162537, 0.026777606457471848, -0.1930590122938156, -0.0022113434970378876, 0.1387195885181427, 0.2290637493133545, -0.046615198254585266, 0.2517474889755249, -0.13221842050552368, -0.08419628441333771, -0.1475980430841446, 0.03616080433130264, -0.03049231693148613, -0.06844566017389297, 0.13131341338157654, -0.02318822592496872], [0.375598669052124, 0.12190641462802887, -0.021592505276203156, -0.5009097456932068, 0.09634216874837875, -0.22775256633758545, -0.12020670622587204, 0.10999050736427307, 0.18579716980457306, 0.08627840131521225, 0.04308178648352623, 0.5501117706298828, 0.20412865281105042, 0.02338597923517227, 0.01008674968034029, -0.03513199836015701, 0.0953206941485405, 