{"conv_1d_0/kernel:0": [[[-105.05131530761719, -114.5253677368164, -216.94155883789062, -770.4381713867188, -594.8563232421875, -26.541027069091797, -547.1044311523438, -401.8793640136719, -59.62886428833008, 117.22846221923828, 663.3727416992188, -160.38726806640625, -1191.3934326171875, -2766.4423828125, 243.02297973632812, 76.5107421875, -18.191823959350586, 459.1166076660156, 477.4588623046875, -10.901091575622559, -519.8889770507812, -1143.3111572265625, 66.67669677734375, -298.7655944824219, 517.700439453125, 737.177490234375, -151.6816864013672, -559.6370849609375, 510.1834411621094, -317.94677734375, -527.59912109375, -3.3142387866973877, -31.163846969604492, 15.661266326904297, -159.58905029296875, -432.77606201171875, -146.7440643310547, 860.1947021484375, -531.5272827148438, -1304.406005859375, -121.67373657226562, 1025.18701171875, -174.14332580566406, -2279.593994140625, -3.936746597290039, -159.6474609375, 129.2779998779297, -623.6361694335938, -177.81976318359375, -587.6101684570312, -239.15846252441406, -718.046630859375, -351.81500244140625, 510.9695129394531, -1736.965576171875, 406.29083251953125, 249.5189666748047, -142.58287048339844, -246.7342071533203, 913.7245483398438, 22.94397735595703, 591.9063720703125, 60.06245422363281, -460.420654296875, -461.11004638671875, -214.33963012695312, -689.7576293945312, -325.7303161621094, 864.194091796875, 867.4090576171875, -110.90812683105469, 575.9207763671875, 335.5696105957031, 536.1224975585938, -783.8326416015625, 1209.690185546875, -2324.749755859375, -456.8257751464844, 1573.733642578125, -1874.662841796875, 1063.4580078125, -13.096251487731934, -287.0710754394531, -540.976318359375, -159.96990966796875, 149.37353515625, 381.1433410644531, -2282.66064453125, -55.96991729736328, 690.6298828125, 678.9151000976562, -233.5874481201172, 937.636474609375, -174.63990783691406, 43.63475036621094, -619.9329833984375], [61.912139892578125, 891.2278442382812, 350.291748046875, 562.1351318359375, 823.1712646484375, 265.0696105957031, -58.722835540771484, 1548.6109619140625, 1268.624267578125, 148.28628540039062, 65.46408081054688, -44.92304992675781, 785.4617309570312, 66.28824615478516, 146.93310546875, -158.69065856933594, 6.78303337097168, 935.6361083984375, -196.13877868652344, 137.31472778320312, -20.078853607177734, 523.3173828125, -157.45777893066406, 647.9542236328125, 94.16468048095703, 482.5473937988281, -132.20828247070312, 90.57743835449219, 8.973503112792969, 624.6880493164062, -113.0247573852539, 152.0362548828125, 27.56676483154297, -205.71023559570312, 79.25140380859375, 96.23067474365234, -674.1498413085938, 748.300537109375, -824.529296875, 455.5279846191406, -77.61351013183594, -69.46707153320312, 812.4619750976562, 330.71087646484375, -0.17081475257873535, 179.38076782226562, -259.42132568359375, 297.6817626953125, 89.85347747802734, 13.432971954345703, -810.6339721679688, -306.841796875, 250.3562774658203, 88.742431640625, 58.9361572265625, 1343.48779296875, -926.9219360351562, 96.25251007080078, 14.553523063659668, 98.7623291015625, 905.8482055664062, 1259.749267578125, 589.91748046875, 440.1105041503906, 338.58843994140625, -381.55499267578125, 817.0256958007812, -149.65171813964844, -386.5479736328125, 343.26171875, 116.11978912353516, 423.6362609863281, 12.878205299377441, -330.6582336425781, 595.294677734375, -204.9937286376953, -514.4663696289062, 673.0784912109375, 132.06381225585938, 494.27545166015625, 439.83026123046875, 36.370880126953125, -24.317100524902344, -520.636962890625, 23.88396453857422, 41.33038330078125, 131.11505126953125, -68.78175354003906, 247.86041259765625, -432.1504821777344, 461.7778625488281, -44.675628662109375, -162.01934814453125, 298.8570251464844, 48.0814208984375, 220.0588836669922], [-1024.8062744140625, -328.7664794921875, -900.421875, -51.23219299316406, 418.1992492675781, 759.2376098632812, -150.95404052734375, 363.48687744140625, 112.68140411376953, -191.92431640625, 103.7929916381836, 636.8265380859375, -588.5525512695312, -19.96579360961914, 995.8280639648438, 18.832366943359375, 0.5567256808280945, -83.40779113769531, 537.8134155273438, 889.0803833007812, -556.4487915039062, -434.1309814453125, 548.0054931640625, -169.7360076904297, 1128.30908203125, -1021.5523071289062, 835.0824584960938, 689.2213134765625, -27.055631637573242, 117.9914779663086, -162.03353881835938, -5.319253444671631, -11.624543190002441, 743.2319946289062, -89.63780212402344, -1303.1484375, 717.977294921875, -310.6827087402344, 18.22559928894043, -427.9708251953125, 156.46768188476562, -23.92882537841797, 965.725830078125, -10.856350898742676, -0.9306260347366333, 544.5452880859375, 403.5202941894531, 1121.4141845703125, -380.0877990722656, 1206.4537353515625, 216.55487060546875, 1030.5166015625, 693.6570434570312, -537.147216796875, 26.659299850463867, -198.2311553955078, 129.32374572753906, 105.60449981689453, 421.6319885253906, -715.3804321289062, -555.36083984375, -131.10177612304688, 661.48583984375, -220.48963928222656, -1121.3997802734375, -74.30059814453125, 854.8037719726562, -1307.61669921875, -47.647117614746094, 666.7105712890625, -432.9637145996094, 22.50303077697754, 18.69028663635254, -28.500818252563477, -70.44808959960938, 89.75373077392578, -594.2012939453125, 94.54082489013672, -4.937157154083252, 307.9129638671875, 679.05224609375, -1.6187548637390137, -329.7364501953125, -877.072265625, -13.2499418258667, -220.14991760253906, 52.80361557006836, 30.655153274536133, -106.86271667480469, -358.7328186035156, 185.7104949951172, 15.550068855285645, 391.7073059082031, -594.1155395507812, 14.645658493041992, -54.763065338134766], [-1035.2813720703125, -750.607421875, 1118.0465087890625, 3.0642430782318115, -965.0574951171875, -701.6884155273438, 1560.411865234375, 620.1452026367188, -1098.8336181640625, 119.1330795288086, 2263.06884765625, 562.819091796875, -378.21240234375, 249.2905731201172, 553.1778564453125, 387.31243896484375, 2.805750608444214, -703.3717651367188, 581.367919921875, -370.1431884765625, 575.7800903320312, 866.150390625, 445.8270263671875, 92.5929946899414, 925.2889404296875, 628.181396484375, -275.3833312988281, -145.39161682128906, -1296.160400390625, 1027.4725341796875, 14.955696105957031, -29.109451293945312, -22.82745933532715, -494.0525207519531, 78.14820861816406, -845.5443115234375, -851.42724609375, 820.5104370117188, -822.8634033203125, -678.4989624023438, -223.51051330566406, 829.4261474609375, 524.074462890625, 449.2366943359375, -0.4525807499885559, 1330.744384765625, -431.56646728515625, -559.3983154296875, 183.95220947265625, -914.5601806640625, 662.9915771484375, -60.4998779296875, 254.0098419189453, 1064.7197265625, -42.660518646240234, 923.7227172851562, 769.69775390625, 138.21194458007812, 1092.0703125, 888.6831665039062, -694.1619262695312, 289.84967041015625, 977.5735473632812, -601.16845703125, 826.6206665039062, 522.2619018554688, 836.8936157226562, 329.9160461425781, 156.8917694091797, -821.4986572265625, -453.36920166015625, 166.1181640625, -2470.889892578125, -482.0613098144531, -97.11666107177734, 272.73712158203125, -202.08004760742188, -790.6669311523438, -794.1694946289062, -647.3605346679688, -262.3815002441406, 6.889826774597168, 6.659439563751221, -688.0489501953125, 762.8717041015625, -22.909469604492188, -560.8892211914062, -227.85272216796875, -976.1182250976562, 774.9508056640625, 1244.5565185546875, -684.6956176757812, 917.034423828125, -260.2341613769531, 357.55511474609375, -401.19744873046875], [411.418701171875, 394.38800048828125, -499.2687683105469, -85.81343841552734, 656.7877197265625, 365.9371337890625, -1533.437744140625, -387.8294372558594, 37.853572845458984, 60.80302429199219, -1178.5125732421875, -481.1875915527344, 449.1403503417969, -228.50051879882812, -238.589599609375, -576.4472045898438, -0.9310102462768555, 574.2259521484375, -843.4177856445312, 306.24945068359375, -644.2313232421875, -590.3800659179688, -481.28106689453125, -658.9401245117188, -349.55718994140625, 206.2179718017578, 3.175628185272217, 118.10415649414062, 463.18865966796875, -538.7925415039062, -42.2347412109375, 90.14418029785156, 17.034011840820312, 214.04946899414062, -110.80020141601562, 273.13092041015625, 355.25103759765625, -573.451171875, 425.4381103515625, 677.1497802734375, 599.2200927734375, -234.177001953125, -696.0112915039062, -253.57688903808594, 0.4618454575538635, -700.6663818359375, 293.43475341796875, 213.37686157226562, -202.5494384765625, 558.0091552734375, -696.0008544921875, -32.26799392700195, -471.0549011230469, -393.48760986328125, 43.31731414794922, -400.2240905761719, -432.8622131347656, -88.73341369628906, -1230.70556640625, 172.33023071289062, 510.7052917480469, -484.06097412109375, -62.83859634399414, 374.8551330566406, -280.96044921875, -309.0780944824219, -292.02880859375, 23.7160587310791, 304.4980773925781, 5.798435688018799, 183.14454650878906, -549.5475463867188, 961.56396484375, -281.2435607910156, 120.40850830078125, -107.06875610351562, 158.976806640625, 561.315185546875, 379.5919494628906, 432.7679748535156, 825.065185546875, -2.1033856868743896, -88.43836975097656, 298.8311767578125, -390.559814453125, 304.61279296875, 654.761962890625, 121.16051483154297, 36.34291458129883, -298.391845703125, -758.7988891601562, 418.4696044921875, -480.9286193847656, 655.22900390625, 258.8816833496094, 480.87786865234375], [-27.828229904174805, 8.113479614257812, -33.10237503051758, -26.586225509643555, -33.43118667602539, -17.81290626525879, -44.03279113769531, -98.28083801269531, -81.10005950927734, -142.53878784179688, -145.42405700683594, 2.100311279296875, 86.2884750366211, 181.57879638671875, -165.73960876464844, -49.579158782958984, -7.354982376098633, -28.52370262145996, -5.397847652435303, -100.01978302001953, -36.961544036865234, -14.881672859191895, -149.3433380126953, -9.832074165344238, -40.1285285949707, -16.643033981323242, -66.77067565917969, -123.81787872314453, 49.53156661987305, -55.195621490478516, -5.599160671234131, -43.96843719482422, -9.52212905883789, 150.740966796875, -34.90498352050781, -65.89686584472656, -181.56544494628906, 53.16977310180664, -59.7502555847168, 85.10002899169922, -203.6739959716797, 143.1063690185547, -42.86118698120117, 130.42250061035156, -0.46065887808799744, 71.8952865600586, -123.8147201538086, -163.87965393066406, -249.14756774902344, -78.34065246582031, -155.87953186035156, -172.864501953125, 51.86776351928711, 58.22572708129883, 58.72136688232422, -96.95901489257812, 35.00553894042969, -29.718669891357422, 35.099830627441406, -17.93785858154297, 25.036643981933594, -50.840423583984375, -104.64191436767578, -35.375911712646484, -59.95787048339844, -67.76863098144531, -129.80125427246094, 52.80153274536133, -89.54718780517578, 19.429288864135742, -178.17312622070312, 133.03326416015625, -206.34219360351562, -28.1146240234375, -78.23707580566406, -10.263520240783691, -29.486974716186523, -56.55606460571289, 141.62794494628906, -84.65621948242188, -37.96233367919922, -8.86428165435791, -135.19618225097656, -58.63197708129883, 109.55582427978516, -151.64137268066406, 214.80108642578125, 85.56572723388672, 44.40541458129883, 162.69638061523438, 155.06472778320312, 72.33599090576172, 26.538833618164062, -15.331273078918457, 265.5533752441406, 25.670942306518555], [-191.37237548828125, -903.8065185546875, 69.24212646484375, -1276.30615234375, -78.20599365234375, -9.853947639465332, 288.8360290527344, -147.67198181152344, -437.86700439453125, -558.0994262695312, -587.4873657226562, -1751.946044921875, -324.0848388671875, 427.036376953125, -294.82281494140625, -105.99801635742188, -46.23969268798828, -340.06134033203125, -1161.5155029296875, -734.5824584960938, -1201.9393310546875, 46.763248443603516, -700.7879638671875, -108.34973907470703, -153.07275390625, -133.3094024658203, -452.5915832519531, -520.8955688476562, -85.09163665771484, 94.70578002929688, -172.15281677246094, -219.6916961669922, -54.572654724121094, 230.8988037109375, -440.07525634765625, 64.01155853271484, -247.8396453857422, -149.30038452148438, -330.04022216796875, 215.96058654785156, -732.0381469726562, -373.91375732421875, -1360.3653564453125, 340.9234924316406, -0.3200417757034302, 168.57997131347656, -327.41412353515625, -162.6495819091797, -911.6095581054688, 291.9056396484375, -724.7380981445312, -529.8958740234375, 10.924633026123047, -1414.693603515625, 441.72052001953125, -122.76363372802734, -237.83163452148438, -270.2216796875, -211.31895446777344, -681.8467407226562, 265.5578918457031, -1137.57275390625, -154.1142120361328, -162.42576599121094, -193.7431182861328, 59.66569137573242, -33.38008117675781, 266.57684326171875, -238.13348388671875, -195.837890625, -569.2685546875, -1466.0562744140625, -902.882080078125, -1225.2926025390625, -938.0116577148438, -320.9172058105469, 230.41973876953125, -5.682265758514404, 90.9769287109375, 165.4899139404297, -327.3848876953125, -36.01185607910156, -913.927001953125, -549.53076171875, 668.6422119140625, -746.7371826171875, -815.5183715820312, 386.72747802734375, -276.73919677734375, 138.610107421875, 95.95476531982422, 863.542236328125, -148.95802307128906, -363.0857849121094, 914.2344360351562, -739.6152954101562], [-123.00717163085938, 719.0472412109375, 123.61773681640625, 684.1807861328125, 291.0626220703125, -681.3670654296875, 351.5301208496094, -468.7934265136719, 97.54252624511719, -1162.718017578125, -618.8096923828125, 360.26715087890625, 515.5880126953125, 57.79601287841797, -1015.42236328125, -2293.039306640625, 8.445230484008789, -38.33327865600586, 196.7005615234375, -638.6370239257812, 1026.0911865234375, 289.8177490234375, -1115.677001953125, -755.54638671875, 37.235904693603516, -455.2754211425781, 686.6466674804688, -77.55569458007812, 125.06295776367188, 259.31060791015625, 69.73111724853516, -167.28074645996094, -1.6519192457199097, 317.04693603515625, 72.05085754394531, 172.85726928710938, 32.889976501464844, -650.6883544921875, 338.3921813964844, 41.190799713134766, -1616.3612060546875, 20.96560287475586, 394.07586669921875, 347.86956787109375, -0.15560276806354523, 189.40789794921875, -533.5437622070312, -163.59182739257812, -1123.6004638671875, 418.72479248046875, -166.98452758789062, -712.5365600585938, 336.321044921875, 321.5697021484375, 724.2381591796875, -466.0072937011719, 113.55115509033203, -10.335675239562988, 215.04405212402344, 71.02771759033203, 363.27154541015625, 64.17918395996094, 6.946887969970703, 395.9689025878906, -774.8558349609375, -2231.763916015625, -37.51439666748047, 379.4251708984375, -1915.5885009765625, -159.93589782714844, -1245.79248046875, 889.4775390625, -882.4860229492188, -107.41983795166016, 545.104248046875, 123.82223510742188, -112.34265899658203, -78.82421112060547, -50.276004791259766, -131.40023803710938, -627.5406494140625, -31.506563186645508, -833.9918212890625, 105.04029846191406, 1218.9892578125, -1501.159912109375, 1115.3133544921875, 445.0629577636719, 729.85986328125, 616.1724243164062, 219.15992736816406, 1180.7435302734375, 100.41255950927734, 741.3860473632812, 597.5048217773438, 1052.2254638671875], [-6.64730978012085, -8.579740524291992, 4.192509651184082, 3.628676414489746, 15.523197174072266, -23.54287338256836, 1.7507264614105225, 28.552566528320312, 9.177135467529297, 6.9370012283325195, -22.13764190673828, -22.578115463256836, 15.979485511779785, -2.5867369174957275, 13.395605087280273, -9.377463340759277, -0.1313685029745102, 18.74053192138672, -4.248420238494873, -48.938072204589844, 11.03005313873291, 11.759602546691895, -57.025081634521484, -46.28652572631836, -13.129294395446777, 4.4755048751831055, 38.47846603393555, 46.04068374633789, 10.966696739196777, 25.66524314880371, 1.149998426437378, 3.095766067504883, 0.6264504790306091, 2.3603322505950928, 0.9370813369750977, -1.9954146146774292, 24.153919219970703, 28.907323837280273, 10.221816062927246, -16.7988224029541, -48.761474609375, -8.87503719329834, 3.9636189937591553, 7.965829372406006, 0.006302820518612862, -11.815383911132812, 56.050621032714844, 36.63451385498047, 43.60910415649414, 3.4324517250061035, -22.67317008972168, 34.00223922729492, 10.811028480529785, -1.2467578649520874, 0.38539162278175354, -1.4555398225784302, -13.482718467712402, 1.0578196048736572, -30.441015243530273, -0.48152074217796326, -13.705418586730957, -2.5869317054748535, 14.110397338867188, -32.41159439086914, 38.66651916503906, 34.7337646484375, -9.310355186462402, 5.392245769500732, 7.896814823150635, 28.48497200012207, -36.3306770324707, 3.0576725006103516, 20.46367835998535, 25.47638702392578, 6.665651798248291, -21.59699058532715, -4.02864933013916, -12.803317070007324, 7.3996262550354, -5.853203296661377, 3.097073793411255, 0.10015963017940521, -8.5468168258667, 19.343358993530273, -8.829636573791504, -27.0859317779541, 1.335706353187561, -1.3661837577819824, -2.9231488704681396, -4.89837121963501, -10.673205375671387, 8.76879596710205, -19.331119537353516, -23.018098831176758, -1.7189559936523438, 3.331155776977539], [42.72218322753906, 0.2645946741104126, -13.50600814819336, 15.205225944519043, -2.787478446960449, -21.80164337158203, 3.4677724838256836, 1.0515198707580566, 8.17640209197998, -63.658477783203125, -33.058223724365234, 7.655354976654053, -33.694923400878906, 9.343119621276855, 29.42502212524414, 13.035829544067383, 0.398354709148407, 14.352768898010254, -34.01299285888672, 29.684144973754883, -1.589623212814331, -10.332242965698242, -2.775721549987793, 27.508167266845703, -11.009773254394531, -16.535741806030273, 7.94514799118042, -8.754672050476074, 17.72744369506836, 9.906474113464355, -0.2040952444076538, -0.36515650153160095, 0.9554249048233032, 8.816471099853516, 1.1483122110366821, 14.348362922668457, 31.528915405273438, 5.843459129333496, 34.36094665527344, 10.767021179199219, -33.087581634521484, -13.679533958435059, -20.827409744262695, 5.377463340759277, 0.008597108535468578, -5.335895538330078, 43.628902435302734, -14.366358757019043, -46.71978759765625, 11.60238265991211, -32.20809555053711, 51.1517219543457, 21.341106414794922, -22.033262252807617, 0.7281544804573059, -8.671490669250488, -26.693042755126953, 1.0462766885757446, 19.657495498657227, 2.362309694290161, 7.224305152893066, -2.729200839996338, 23.383358001708984, 26.131261825561523, -28.213537216186523, 18.695852279663086, 16.013072967529297, -13.291084289550781, -6.411858558654785, 9.543889999389648, 34.9415397644043, -2.545354127883911, 36.47624969482422, -8.174421310424805, 20.165611267089844, -9.6566162109375, -18.186649322509766, -23.985530853271484, 15.184125900268555, -17.12563705444336, 24.19934844970703, -0.5958715677261353, 56.19273376464844, 40.38412857055664, -10.44948673248291, -61.824459075927734, 0.8635969758033752, 2.593593120574951, -3.997828245162964, -23.143831253051758, -17.976747512817383, 11.172767639160156, -8.72382640838623, 5.645595073699951, -2.259101390838623, -31.500913619995117], [90.95513916015625, -1304.458984375, -172.00930786132812, 37.51066589355469, 179.78814697265625, -17.352760314941406, 67.56198120117188, -46.239410400390625, 288.73199462890625, 315.5035095214844, -320.44781494140625, -190.27471923828125, -558.9959106445312, 39.04100036621094, -139.5041961669922, 169.6635284423828, -7.630908012390137, -212.73040771484375, -263.8010559082031, -121.35665893554688, -935.5081176757812, 63.11088180541992, -63.05937576293945, 171.91148376464844, -34.75684356689453, -68.60897064208984, -319.2008056640625, -613.6914672851562, 119.59870147705078, 62.753482818603516, -398.218505859375, -125.13594055175781, -26.977848052978516, -4310.3310546875, -81.03057098388672, 85.64893341064453, 267.5370788574219, -552.9386596679688, 201.1515350341797, -33.67231750488281, -447.7445373535156, -9.058253288269043, -8.304638862609863, 241.6563262939453, -0.2188049554824829, -71.16008758544922, 32.762176513671875, 102.02717590332031, -135.15667724609375, 223.75802612304688, -211.51499938964844, -417.4599914550781, -3199.380859375, 479.67340087890625, 42.44193649291992, -4.764492034912109, 81.78675842285156, -189.013427734375, -10.876891136169434, -277.43682861328125, -29.827648162841797, 67.49535369873047, -156.49514770507812, 220.05239868164062, -284.2425231933594, 75.61498260498047, -262.5941162109375, -1060.35595703125, 111.38826751708984, 41.61640930175781, -123.07878875732422, -712.6322021484375, 78.28250122070312, -822.8925170898438, -303.0062255859375, -13.739623069763184, 271.6689453125, -121.79287719726562, 32.03816223144531, 26.946067810058594, -686.81591796875, -39.8859748840332, -468.4908142089844, -109.99423217773438, 139.3176727294922, -368.0740661621094, -989.4366455078125, 137.9600372314453, 783.0164184570312, 7.477726459503174, 91.94930267333984, 86.58744812011719, -216.28915405273438, -644.282470703125, -644.439697265625, -1143.010009765625], [118.70236206054688, -778.7472534179688, 215.54998779296875, -1668.7265625, 151.640869140625, -158.1876678466797, 19.19063949584961, -422.5924987792969, -749.827392578125, 294.7523498535156, -105.90786743164062, -1126.4473876953125, 29.01472282409668, 250.70237731933594, -329.63616943359375, 84.2845458984375, -37.88200378417969, -380.1376647949219, -683.8787231445312, -405.16351318359375, -456.84710693359375, -110.74800109863281, -86.5578384399414, 20.69072151184082, 294.0018005371094, 94.0655517578125, -462.4409484863281, 133.9512481689453, -155.34857177734375, -176.6856689453125, -161.33706665039062, -56.61199951171875, -26.696590423583984, -284.0412292480469, -466.9776916503906, -294.2267150878906, -146.257080078125, -551.6060180664062, -42.4490852355957, 79.94654083251953, -30.764850616455078, 208.31834411621094, -900.2831420898438, -25.118839263916016, -0.071566641330719, -108.14265441894531, 286.2933654785156, -79.03923034667969, -91.99919128417969, -147.5665740966797, -615.2574462890625, -707.1387329101562, -408.28656005859375, -181.46209716796875, 23.629009246826172, 277.6678161621094, 87.67007446289062, -280.40625, -108.51398468017578, 188.21380615234375, 111.80720520019531, -656.8572998046875, -28.35741424560547, -136.7666778564453, 110.33049774169922, 13.663049697875977, -226.51841735839844, 32.190528869628906, 190.55685424804688, -442.0429992675781, -84.96802520751953, -470.1452941894531, -205.27833557128906, -920.0624389648438, -191.9636688232422, -67.76219177246094, 76.35911560058594, -329.77117919921875, -19.491212844848633, 140.0987548828125, 241.16183471679688, -23.319982528686523, -613.0936279296875, 145.40667724609375, 219.659912109375, 16.217302322387695, -952.8762817382812, 140.9840545654297, -538.4982299804688, 154.13870239257812, -115.78089904785156, 61.935768127441406, -228.6537628173828, -2055.89111328125, -4873.4111328125, -567.4613647460938]]], "conv_1d_0/bias:0": [-0.1423347294330597, 0.11975919455289841, 0.07667780667543411, -0.008439403958618641, 0.06592036783695221, -0.20592309534549713, 0.2688371241092682, -0.2161218374967575, -0.18077777326107025, -0.6576760411262512, -0.5210094451904297, -0.2352149933576584, 0.05198230966925621, 0.2346975952386856, -0.4614827632904053, -0.5266772508621216, -0.01954953745007515, -0.13499273359775543, -0.3508836030960083, -0.5910181403160095, 0.10768074542284012, 0.10806435346603394, -0.6985327005386353, -0.3072745203971863, -0.05339875817298889, -0.21467377245426178, 0.08835466206073761, -0.27627596259117126, 0.011811934411525726, 0.13658586144447327, -0.027788881212472916, -0.22128424048423767, -0.03413984924554825, 0.1990429311990738, -0.10963181406259537, 0.07523050159215927, -0.11738426983356476, -0.2730509042739868, -0.023015743121504784, 0.11299110949039459, -0.8436735272407532, -0.13889439404010773, -0.14738434553146362, 0.2677749991416931, -0.0010922792134806514, 0.1516171097755432, -0.3563693165779114, -0.15720577538013458, -0.8190407752990723, 0.2861570119857788, -0.42479395866394043, -0.5286217331886292, 0.1534757912158966, -0.24061113595962524, 0.4613293707370758, -0.19245125353336334, -0.07211267203092575, -0.09889097511768341, -0.026443716138601303, -0.22387954592704773, 0.2341693490743637, -0.44741275906562805, -0.047756221145391464, 0.0632573589682579, -0.3671112060546875, -0.545152485370636, -0.03802628815174103, 0.27202773094177246, -0.5672897696495056, -0.14258523285388947, -0.6591222286224365, 0.2481113076210022, -0.7793005704879761, -0.4788500666618347, -0.09777770936489105, -0.09376078099012375, 0.05340241640806198, -0.020800769329071045, 0.04214944317936897, 0.03413978964090347, -0.3778487741947174, -0.043930646032094955, -0.7258625030517578, -0.23129749298095703, 0.7448638677597046, -0.8209543824195862, 0.38575279712677, 0.3267648220062256, 0.2062455117702484, 0.2962815463542938, 0.12901702523231506, 0.8206949830055237, -0.03409479185938835, 0.15940271317958832, 0.604286253452301, 0.18419311940670013], "conv_1d_1/kernel:0": [[[-0.05854446813464165, -0.03184621036052704, -0.22128944098949432, 0.26704052090644836, 0.15564781427383423, -0.15037457644939423, -0.499172568321228, -0.24361462891101837, -0.2358178198337555, -0.7222517132759094, -0.20782077312469482, 0.04369095712900162, 0.12611474096775055, -0.22016318142414093, 0.3184141218662262, 0.19850216805934906, -0.08430793136358261, 0.21581001579761505, -0.19621126353740692, -0.5023376941680908, 0.05582810938358307, -0.09434212744235992, 0.20425397157669067, 0.20953001081943512, 0.11094138771295547, 0.14648941159248352, -0.6197878122329712, 0.27203163504600525, -0.28380367159843445, 0.28627851605415344, 0.2477508783340454, 0.214503675699234, 0.17133010923862457, -0.0497809536755085, -0.16862770915031433, 0.1549796611070633, -0.20109260082244873, 0.11029741168022156, -0.006962163839489222, -0.09855931997299194, 0.13879720866680145, -0.012041941285133362, -0.06511016190052032, -0.13184033334255219, 0.057140693068504333, 0.27008435130119324, -0.4391244649887085, -0.12733107805252075], [-0.2726794183254242, 0.3957485854625702, -1.0298008918762207, 0.021004963666200638, 0.20562231540679932, 0.12839674949645996, 0.322439968585968, -0.3179205656051636, -0.31896594166755676, 0.32653969526290894, -0.3193387985229492, 0.07915166020393372, -0.4299604892730713, 0.058856721967458725, 0.4926707446575165, -0.08895671367645264, 0.46760129928588867, 0.18992462754249573, 0.3479557931423187, 0.10799874365329742, 0.30577927827835083, 0.4061044156551361, -0.0661584883928299, -0.08997448533773422, 0.08501005172729492, -0.35401248931884766, -0.2127194106578827, 0.05808589234948158, 0.000946744461543858, -0.3819963037967682, 0.11229825019836426, -0.32436403632164, 0.2840971350669861, -0.8826491236686707, -0.6184421181678772, -0.04539736360311508, 0.13816720247268677, -0.1641041785478592, 0.06785274296998978, -0.115677110850811, -0.03226581588387489, 0.10384414345026016, 0.011218824423849583, 0.02752206102013588, 0.245941162109375, -0.22024855017662048, 0.21471796929836273, 0.025949910283088684], [0.2940850853919983, -0.09526223689317703, 0.3309105634689331, 0.4148447811603546, -0.14402322471141815, 0.11028078198432922, 0.014622335322201252, -0.5348474383354187, 0.43657609820365906, 0.6043218374252319, -0.29622238874435425, 0.08072667568922043, 0.0747036263346672, 0.23404309153556824, -0.2755008935928345, -0.10779871791601181, -0.3971867859363556, -0.3230505585670471, -0.05890195071697235, -0.027182353660464287, 0.0987963080406189, 0.047460153698921204, -0.4181785583496094, -0.20821158587932587, -0.18791958689689636, -0.01419086568057537, 0.024286603555083275, -0.2188234180212021, 0.22051697969436646, -0.14876948297023773, 0.04909517243504524, -0.17808116972446442, 0.0823463574051857, 0.03439868241548538, 0.20791012048721313, -0.2758057117462158, -0.1244894415140152, -0.2891024053096771, 0.08239927887916565, 0.01997494325041771, -0.2823662757873535, 0.08311796188354492, 0.07769215106964111, 0.032337039709091187, -0.10174184292554855, 0.3115343749523163, -0.2181020975112915, 0.15115554630756378], [0.08892618864774704, -0.4237138330936432, 0.1368834525346756, 0.061342619359493256, 0.2519059479236603, -0.15341153740882874, -0.28258997201919556, 0.2858297526836395, 0.2150387018918991, 0.27505531907081604, -0.50492924451828, -0.15791860222816467, 0.07657752931118011, 0.24248547852039337, 0.1089099794626236, 0.17841000854969025, -0.13503234088420868, 0.3707781136035919, 0.26950275897979736, 0.2014855593442917, 0.4555545151233673, -0.36233603954315186, -0.2167321890592575, -0.0630199983716011, 0.011359760537743568, -0.0017518470995128155, 0.17898239195346832, -0.1816677451133728, 0.03285559266805649, -0.6790916919708252, -0.26249539852142334, 0.5459970831871033, 0.023053018376231194, 0.057328008115291595, -0.22048555314540863, -0.21394957602024078, 0.12740373611450195, 0.7087001204490662, -0.21513338387012482, -0.04074128344655037, 0.14057950675487518, -0.028482865542173386, -0.07421611249446869, 0.27658119797706604, 0.2762688398361206, 0.34109240770339966, -0.3477974832057953, 0.09986399859189987], [0.05955100804567337, -0.07814666628837585, -0.5986694693565369, -0.27395451068878174, -0.020823029801249504, 0.14383761584758759, 0.16705389320850372, -0.19812819361686707, -0.42697659134864807, 0.2236771136522293, 0.1336427927017212, 0.21974670886993408, -0.3718318045139313, 0.04127666354179382, 0.41150179505348206, 0.21392783522605896, -0.2846534252166748, 0.07711762189865112, -0.23683768510818481, 0.22217188775539398, -0.3137620687484741, 0.12585897743701935, 0.09276688098907471, 0.16530966758728027, 0.1403294801712036, 0.17677567899227142, -0.7309800386428833, -0.3513539731502533, -0.037503939121961594, 0.03930049389600754, -0.6292546987533569, 0.09412194043397903, -0.2732608914375305, 0.1799742728471756, 0.1896028369665146, 0.04620127007365227, 0.16195376217365265, -0.5334954857826233, -0.19474142789840698, -0.09669919312000275, 0.04564601555466652, -0.21964509785175323, 0.050457604229450226, 0.09768301993608475, 0.2003403604030609, 0.5425540804862976, -0.09083986282348633, 0.032677002251148224], [-0.0400485135614872, 0.25936344265937805, 0.038311805576086044, -0.03937282785773277, 0.13126426935195923, -0.34180372953414917, -0.4077607989311218, 0.09721622616052628, 0.43368515372276306, -0.016495542600750923, 0.1419096142053604, 0.01689744181931019, 0.09515783935785294, -0.2539427876472473, 0.13497760891914368, -0.0324849970638752, -0.085574209690094, -0.2799376845359802, 0.30512580275535583, 0.06746695190668106, 0.24546028673648834, 0.014910727739334106, -0.1299380511045456, -0.016121231019496918, -0.10467060655355453, 0.07764249294996262, -0.2886849641799927, 0.046540796756744385, -0.02275949716567993, -0.17997683584690094, 0.02831249311566353, 0.3322567641735077, -0.1639965921640396, -0.3150685429573059, 0.039242036640644073, 0.10915706306695938, 0.14296460151672363, 0.2954314649105072, -0.007284969091415405, -0.017492586746811867, 0.15764395892620087, -0.2041349560022354, 0.08324018120765686, -0.03565710783004761, 0.4974016845226288, 0.29105329513549805, 0.05738808959722519, -0.17287521064281464], [0.20283223688602448, 0.08073850721120834, 0.1398462951183319, 0.234126016497612, -0.4973532259464264, 0.4193651080131531, 0.18905937671661377, 0.1375720500946045, -0.09322550892829895, -1.4153426885604858, -2.408024311065674, 0.025808187201619148, 0.27461913228034973, 0.2798745930194855, -0.09945189207792282, 0.013000750914216042, 0.1747007966041565, -0.21304483711719513, -0.30424684286117554, -0.43195077776908875, 0.030338076874613762, 0.10729759186506271, 0.1203077882528305, 0.23472057282924652, -0.10967009514570236, -0.11830215156078339, -0.024248166009783745, -0.0620187446475029, -0.12170199304819107, 0.1017831489443779, 0.03389621898531914, 0.0048344372771680355, 0.23023487627506256, -0.02726631984114647, 0.29916852712631226, 0.004948779474943876, 0.25084471702575684, 0.11187420785427094, -0.020346447825431824, 0.11255662888288498, -0.053969256579875946, -0.596759021282196, 0.1154295951128006, 0.014381668530404568, 0.06794604659080505, -0.07834093272686005, -0.0625186562538147, 0.0699753612279892], [-0.06935139745473862, -0.08117856085300446, 0.09740811586380005, -0.12010196596384048, -0.10620136559009552, 0.09578167647123337, 0.000639636826235801, -0.14198333024978638, -0.2263677418231964, 0.364283949136734, 0.06106889992952347, 0.04386994615197182, -0.1440829485654831, 0.055024731904268265, -0.10930567979812622, -0.07149557769298553, 0.23790384829044342, -0.217878058552742, 0.36882200837135315, -0.3541007936000824, 0.17681917548179626, -0.0361163429915905, -0.22896453738212585, 0.29755228757858276, -0.06498610973358154, 0.1876845359802246, 0.2951999604701996, 0.08644451946020126, -0.3023877441883087, -0.25818198919296265, -0.20178481936454773, 0.13572996854782104, -0.2922392785549164, -0.10749062150716782, -0.12362799793481827, -0.11209550499916077, -0.8869650363922119, 0.49831831455230713, -0.049815721809864044, -0.20491409301757812, -2.3131673336029053, -0.024012111127376556, 0.12138759344816208, 0.2039320021867752, -0.31055963039398193, 0.22114813327789307, -0.45777153968811035, 0.053355760872364044], [0.02722393162548542, -0.3519735634326935, 0.43622225522994995, -0.023107921704649925, 0.05949331820011139, 0.611598014831543, -0.045802682638168335, 0.11950655281543732, 0.03633382171392441, 0.47326403856277466, -0.18522238731384277, -0.09959723800420761, -0.09396696835756302, 0.20477066934108734, 0.23370487987995148, 0.1649371236562729, 0.41541215777397156, -0.020959993824362755, -0.2165759950876236, -0.3698924779891968, -0.08406969159841537, -0.07665479928255081, 0.24814940989017487, 0.12381661683320999, -0.17790919542312622, -0.02494354546070099, -1.5018175840377808, 0.52889084815979, -0.03493412584066391, 0.4655269980430603, 1.0040174722671509, 0.08102524280548096, 0.16481232643127441, -0.06274423748254776, -0.16996748745441437, 0.13719049096107483, 0.29311487078666687, -0.9618783593177795, -0.1426144391298294, -0.198516383767128, 0.06967134773731232, 0.17717349529266357, -0.11323346197605133, -0.1510140746831894, 0.21204866468906403, -0.3504435122013092, 0.21815958619117737, -0.1325354129076004], [0.007950294762849808, -0.19081097841262817, -0.15409018099308014, -0.0960831567645073, -0.07637806236743927, 0.07928641885519028, -0.10400155931711197, 0.20943297445774078, -0.024389183148741722, 0.49337390065193176, 0.032459091395139694, 0.061846181750297546, -0.08559566736221313, 0.07127872854471207, -0.05460180342197418, -0.10498472303152084, 0.0829957127571106, 0.14266744256019592, -0.05301377549767494, -0.14973124861717224, -0.2677001357078552, -0.04752034321427345, -0.04984152317047119, -0.06605225801467896, -0.09755327552556992, 0.1640520840883255, -0.7351208329200745, 0.39469027519226074, -0.07022790610790253, 0.08666563034057617, -0.22283649444580078, 0.1539359986782074, 0.14884702861309052, 0.1747659295797348, -0.16249990463256836, 0.09297239035367966, -0.008850593119859695, 0.26706594228744507, -0.19387605786323547, -0.2961505353450775, -0.036801692098379135, -0.17731697857379913, 0.11034046858549118, 0.10427085310220718, 0.016404420137405396, 0.0800246000289917, 0.18946459889411926, -0.004593279212713242], [-0.9870967268943787, -0.42387986183166504, -0.2144642174243927, -0.35647422075271606, 0.7797420620918274, -0.6808584332466125, -0.7681697607040405, -0.0347786583006382, -0.22240716218948364, -0.03254301846027374, -2.5623347759246826, -0.26180151104927063, 0.14797164499759674, -0.6256846189498901, -0.3164438009262085, -0.6743029356002808, -0.338225781917572, -0.3546864092350006, -2.271984100341797, 0.08321896195411682, 0.1827874779701233, 0.07768793404102325, 0.4990907907485962, -1.4072455167770386, -0.16952916979789734, -0.16346710920333862, -0.19513638317584991, -0.05021875724196434, -1.05404794216156, -0.21717852354049683, -0.1518397331237793, 0.20957031846046448, -0.03224930539727211, -0.5737618207931519, -0.500048041343689, 0.7999160289764404, 0.014424219727516174, -0.3596547245979309, -0.18749986588954926, 0.007167631760239601, -0.14772388339042664, -0.7199733257293701, -0.6672853827476501, -0.06230052560567856, 0.5882611870765686, -2.4885826110839844, -0.46861621737480164, -1.4327378273010254], [-0.05943695455789566, -0.1930040419101715, 0.09466982632875443, 0.1676483452320099, -0.055522989481687546, -0.27547547221183777, -0.025327712297439575, -0.34510183334350586, -0.5048711895942688, 0.048638101667165756, -0.03652479127049446, 0.025281449779868126, -0.008966312743723392, -0.0828801766037941, -0.12505921721458435, 0.011383967474102974, -0.2588045299053192, 0.18520471453666687, 0.004017026163637638, 0.15609893202781677, -0.08426151424646378, -0.0019820560701191425, -0.24139449000358582, 0.23187170922756195, -0.2768499255180359, 0.03260299935936928, 0.11197594553232193, -0.10156332701444626, -0.04959700629115105, 0.02071644552052021, -0.15370126068592072, 0.1853688806295395, -0.026904109865427017, 0.17396554350852966, 0.10575536638498306, 0.12263456732034683, 0.09841348230838776, 0.06780559569597244, 0.1548926830291748, -0.007186038885265589, -0.17015250027179718, -0.36314713954925537, 0.17676076292991638, 0.22988687455654144, 0.04963959380984306, 0.08036067336797714, 0.14466316998004913, 0.01402929425239563], [0.0021337042562663555, -0.34092724323272705, -0.26850640773773193, -0.23645499348640442, -0.042992185801267624, -0.016778666526079178, 0.10587861388921738, 0.04106663167476654, -0.10376724600791931, -0.4943607747554779, 0.051142528653144836, -0.08236872404813766, -0.4825129210948944, -0.23845578730106354, 0.12774068117141724, 0.011884755454957485, 0.10352388024330139, 0.023868879303336143, -0.028802508488297462, -0.0435820147395134, -0.038597915321588516, -0.05154368653893471, 0.09408531337976456, 0.09450452774763107, -0.022147715091705322, 0.14245177805423737, -0.9094871878623962, 0.12762217223644257, -0.07224420458078384, 0.23887938261032104, 0.09431225806474686, 0.20533257722854614, -0.15870895981788635, 0.03750944882631302, -0.06283209472894669, 0.004225684329867363, 0.24252548813819885, -0.5073515772819519, -0.09918652474880219, -0.499042272567749, 0.005734600126743317, 0.11655427515506744, 0.03340128809213638, -0.0038206232711672783, 0.020371032878756523, -2.4747917652130127, -0.19844691455364227, 0.078934445977211], [0.05983917415142059, -0.24104677140712738, -0.05446178838610649, -0.4435133934020996, 0.19464941322803497, -0.17486155033111572, -0.09299714118242264, -0.2296711802482605, -0.0035271907690912485, -0.5468837022781372, 0.3820411264896393, -0.3670409023761749, 0.3020457923412323, 0.26213085651397705, 0.18591700494289398, -0.11312682926654816, -0.37188664078712463, 0.1465829610824585, -0.6718279719352722, 0.36207151412963867, -0.5002294778823853, -0.021284963935613632, 0.24961866438388824, -0.14156632125377655, 0.12191421538591385, -0.45478692650794983, -0.340114951133728, 0.4436323344707489, -0.07196081429719925, -0.1347038745880127, -0.9308823943138123, -1.066384196281433, 0.2586769163608551, -0.0006154871662147343, -0.87708580493927, -0.26134756207466125, 0.13721247017383575, -0.22324131429195404, 0.038145676255226135, -0.06549537926912308, 0.054009150713682175, 0.4357346296310425, -0.24172039330005646, 0.010870263911783695, -0.23489855229854584, 0.1319684088230133, 0.02757224626839161, 0.218734472990036], [-0.05858366936445236, -0.4666716158390045, -0.08621492981910706, -0.15476970374584198, 0.10740804672241211, -1.9951521158218384, 0.3224829435348511, -0.28700846433639526, -0.002098693046718836, 1.7774341106414795, -0.06060689687728882, -0.2239810824394226, -0.17900682985782623, -0.4262184798717499, -0.10968033969402313, -0.3165137767791748, 0.2106901854276657, 0.03447467088699341, -0.28627222776412964, -0.519442081451416, 0.28959596157073975, -0.1596444994211197, -0.39837172627449036, 0.30463552474975586, -0.19228562712669373, 0.14312782883644104, 0.09925223141908646, 0.20115642249584198, -0.20230597257614136, 0.2519051432609558, 0.12673626840114594, 0.845811128616333, -0.09132317453622818, 0.12448540329933167, -0.08560148626565933, -0.19529956579208374, -0.00047629987238906324, 0.13500018417835236, 0.10997617244720459, -0.1459789127111435, -0.32459965348243713, -0.18728072941303253, 0.14862358570098877, 0.15680815279483795, 0.19686569273471832, 0.2150634527206421, 0.2377445548772812, -0.1259690225124359], [-0.17831134796142578, -1.0881339311599731, 1.3430815935134888, -0.6406078338623047, 0.002775951288640499, -0.8474593162536621, 0.503300130367279, -0.6360648274421692, 0.33872008323669434, -0.7427076697349548, 0.07747169584035873, -0.3606480658054352, -0.3854331374168396, -0.9996564984321594, -0.28254416584968567, -0.07791866362094879, -0.09918801486492157, 0.10299825668334961, 0.548890233039856, -0.7067386507987976, 0.6570731401443481, -0.26478272676467896, 0.19121672213077545, 0.16465792059898376, 0.007288999855518341, -0.28253573179244995, -2.200401782989502, 0.1803814321756363, -0.2637627422809601, -0.3394762873649597, -0.21995952725410461, -2.163146734237671, 0.1627635508775711, -0.19059200584888458, -0.3858718276023865, -0.2458486706018448, 0.11042166501283646, 0.2530979514122009, -0.11212664842605591, 0.1590678095817566, 0.4244522750377655, -0.16058771312236786, 0.03224877268075943, 0.676207959651947, 0.02809372916817665, -0.31627315282821655, 0.1440325379371643, -0.012037236243486404], [0.030383234843611717, -0.00671749422326684, -0.1503564566373825, 0.02367769367992878, 0.0014268112136051059, 0.0462556891143322, -0.056668490171432495, 0.0028722246643155813, -0.19439692795276642, -0.6787378191947937, -0.1330903023481369, -0.043005697429180145, 0.08291883766651154, 0.00042323340312577784, 0.0931747779250145, 0.04598090797662735, 0.040991444140672684, 0.08459213376045227, -0.022523678839206696, -0.1047615110874176, 0.08041785657405853, 0.08406172692775726, 0.08548957109451294, 0.05054211989045143, -0.0657859668135643, 0.05762920528650284, -0.08433100581169128, 0.0795067548751831, 0.048089999705553055, -0.12343032658100128, 0.04706008732318878, 0.047163188457489014, -0.05675874277949333, -0.18153490126132965, 0.07364978641271591, 0.013596209697425365, -0.06899961829185486, -0.023404592648148537, -0.08774473518133163, 0.005946786608546972, -0.0010077531915158033, 0.04829271137714386, 0.004341889172792435, 0.12552814185619354, 0.020306751132011414, -0.015444362536072731, -0.09329366683959961, 0.05460108816623688], [0.04235453903675079, 0.1642085760831833, 0.16356755793094635, 0.07447828352451324, 0.08611486107110977, -0.25007250905036926, -0.11341621726751328, 0.22342005372047424, -0.028000812977552414, 0.3358570635318756, 0.20528565347194672, 0.32491305470466614, 0.2890758514404297, -0.30623432993888855, -0.059851162135601044, 0.04259464889764786, -0.23671433329582214, -0.21842633187770844, 0.04342794045805931, -0.012307570315897465, 0.1386876106262207, 0.11099658906459808, 0.11069240421056747, -0.5193769931793213, 0.13104665279388428, 0.0697648748755455, -0.1087687537074089, -0.028955068439245224, -0.13677290081977844, -0.7187793254852295, 0.5692188739776611, 0.005338591989129782, 0.006704800296574831, -0.20940907299518585, 0.01584412343800068, -0.09048619121313095, -0.10858393460512161, -0.2699931859970093, -0.2034205049276352, -0.05055069923400879, -0.4017656147480011, -0.3303341567516327, -0.12191710621118546, 0.16155476868152618, 0.06222595274448395, -0.3891989290714264, 0.08828289806842804, -0.010422058403491974], [0.08700408786535263, 0.012788919731974602, -0.05751845985651016, -0.10195552557706833, -0.0619475357234478, -0.08006997406482697, -0.3906126618385315, -0.14787684381008148, -0.05204203352332115, -0.6336926817893982, 0.037593524903059006, 0.025426337495446205, 0.015834785997867584, -0.11628216505050659, -0.09743434190750122, 0.0723472535610199, -0.05416496843099594, 0.15271888673305511, -0.17612943053245544, 0.1484619528055191, 0.011051705107092857, -0.03160945698618889, 0.02308071032166481, -0.09911885112524033, -0.12630267441272736, 0.009378158487379551, -0.3640511929988861, 0.051115479320287704, 0.09233720600605011, 0.33922499418258667, 0.10857704281806946, -0.06938585638999939, 0.05699874088168144, 0.10098149627447128, 0.029241202399134636, 0.07502775639295578, -0.12173788994550705, 0.30296027660369873, -0.16362319886684418, -0.133661687374115, -0.09006893634796143, 0.35431087017059326, 0.04383431002497673, -0.20310020446777344, -0.29274773597717285, -0.39006417989730835, 0.025343049317598343, -0.009618992917239666], [-0.01392662525177002, -0.0954839363694191, 0.2836912274360657, -0.1610174924135208, -0.026888320222496986, 0.036604586988687515, 0.07834220677614212, 0.03148637339472771, -0.3853687644004822, -1.71510648727417, 0.19041278958320618, 0.07536277920007706, 0.046570491045713425, -0.6680405735969543, -0.08861500769853592, 0.05148379132151604, 0.09492627531290054, -0.34375452995300293, 0.13405576348304749, -0.22654813528060913, 0.00841736700385809, -0.03876936808228493, 0.022059815004467964, -0.13503174483776093, -0.23776544630527496, 0.3314790725708008, -3.1057403087615967, 0.14982476830482483, 0.09742961078882217, -0.04937530308961868, 0.05360284075140953, 0.3961949944496155, -0.20246411859989166, 0.32381221652030945, 0.1612546294927597, -0.08514394611120224, -0.10893171280622482, 0.1481395661830902, -0.12164909392595291, -0.1875281184911728, 0.0815579742193222, -0.19995790719985962, 0.001621657400391996, -0.06959081441164017, -0.1733049899339676, 0.17551960051059723, -0.19115836918354034, 0.11076901853084564], [0.0041480581276118755, -0.14445987343788147, -0.10299639403820038, 0.46769997477531433, -0.01889461651444435, 0.5699975490570068, 0.030427370220422745, 0.04126933962106705, 0.09693586081266403, 0.015823176130652428, -0.04324670135974884, 0.4637492597103119, 0.1764701008796692, -0.4113793671131134, -0.038685936480760574, 0.061855245381593704, -0.1691887527704239, -0.08958563208580017, 0.03693196177482605, -0.0027331344317644835, 0.23690518736839294, -0.029573805630207062, -1.1302980184555054, -0.13476790487766266, 0.026547234505414963, 0.0825866237282753, 0.24714750051498413, 0.02866719849407673, 0.009566673077642918, -0.390316903591156, 0.06092660501599312, 0.019612202420830727, -0.06056718900799751, -0.21591396629810333, 0.4511127769947052, 0.018065350130200386, -0.08177955448627472, -0.08672793209552765, -0.09854058176279068, 0.16424046456813812, -0.3586854338645935, -0.14308448135852814, -0.035165268927812576, -0.04790418967604637, 0.06752719730138779, -0.8795861601829529, -0.7117947936058044, 0.08198675513267517], [0.15432068705558777, -0.5183161497116089, 0.3212890326976776, -0.23000049591064453, 0.02376672439277172, -0.21533209085464478, 0.0806892067193985, 0.24183478951454163, 0.3804952800273895, -0.25831103324890137, -0.0027488982304930687, -0.13576708734035492, -0.048051029443740845, -0.101220041513443, -0.44038328528404236, -0.0229982677847147, 0.11919078975915909, -0.03307865932583809, 0.019428424537181854, -0.0605335533618927, -0.2795183062553406, 0.01484033651649952, -1.438164472579956, -0.48783355951309204, -0.13759344816207886, -0.2726098597049713, 0.04311993718147278, -0.005448379088193178, -0.16316786408424377, 0.21940934658050537, 0.0977897047996521, 0.1072506457567215, -0.4882361590862274, 0.011773157864809036, 0.1349317580461502, -0.3138151466846466, -0.30450624227523804, -0.3037591576576233, 0.12361545860767365, 0.276350200176239, 1.036336064338684, 0.550969123840332, 0.0004493881424423307, 0.17034412920475006, -0.3287780284881592, 0.2762982249259949, -1.2191102504730225, -0.03185366466641426], [-0.032980989664793015, -0.508770227432251, -0.45470890402793884, -0.0523340068757534, 0.04954884573817253, 0.40455976128578186, -0.02173450216650963, 0.13934513926506042, -0.36325693130493164, 0.08237219601869583, -0.10450492799282074, -0.08300960063934326, -0.1256655603647232, -0.04167817905545235, -0.17773254215717316, -0.18680432438850403, -0.05027589574456215, 0.10964778810739517, -0.01858351193368435, 0.1601031869649887, 0.01735418289899826, -0.10251016169786453, -0.028991708531975746, -0.11484691500663757, -0.047762997448444366, 0.21375705301761627, -1.1783722639083862, 0.28625866770744324, 0.12100554257631302, 0.0626571923494339, -0.0659060850739479, -0.09881230443716049, 0.024416740983724594, -0.4581476151943207, -0.019308535382151604, 0.08919880539178848, 0.16675914824008942, 0.03227441757917404, -0.16860602796077728, -0.26171645522117615, 0.13155509531497955, -0.16521035134792328, -0.05524108558893204, -0.04023689404129982, -0.10505592077970505, 0.06393416225910187, 0.14266279339790344, -0.0022735062520951033], [-0.005693292245268822, 0.0013482777867466211, 0.06918560713529587, -0.11485490202903748, 0.012825891375541687, 0.19750244915485382, -0.008516388945281506, 0.0641825795173645, -0.13415631651878357, 0.5042605996131897, 0.050811219960451126, -0.23936641216278076, -0.26156434416770935, -1.1366369724273682, 0.04205206036567688, -0.05485375225543976, -0.10217368602752686, -0.009977685287594795, 0.2470899075269699, -0.11351396143436432, 0.0040216161869466305, 0.07079408317804337, 0.14228156208992004, 0.0386396199464798, -0.14222750067710876, -0.09485529363155365, 0.5288982391357422, 0.29776471853256226, -0.04224815592169762, 0.04850080609321594, 0.1079317107796669, -0.011956807225942612, 0.01714966632425785, 0.004877773113548756, 0.057399850338697433, 0.051912080496549606, 0.07205622643232346, 0.0731283500790596, 0.11105667054653168, -0.05435160920023918, 0.09276432543992996, 0.019067799672484398, 0.06387021392583847, -0.05829625949263573, -0.19117861986160278, 0.07217104732990265, -0.06485733389854431, -0.06765561550855637], [0.09168355166912079, -0.352347731590271, 0.3521023690700531, -0.19749194383621216, -0.1017586961388588, 0.21827512979507446, -0.027561496943235397, -0.04832396283745766, -0.0041707586497068405, 0.283075749874115, 0.38589417934417725, 0.01891869306564331, 0.4771682024002075, -0.12617874145507812, -0.18597017228603363, -0.3233085870742798, -0.12809757888317108, -0.148285910487175, 0.13537850975990295, 0.14286857843399048, 0.26613253355026245, 0.14961929619312286, 0.01791849546134472, 0.25229066610336304, -0.12112099677324295, -0.09814678877592087, -0.34176236391067505, -0.09054476767778397, 0.08393257111310959, -0.7190735340118408, -0.0004683705628849566, 0.12152502685785294, 0.2667366564273834, 0.1946517676115036, -0.20738279819488525, -0.21115578711032867, -0.11422654986381531, -0.0388946533203125, 0.005273997783660889, 0.009793019853532314, 0.02204933948814869, 0.16129383444786072, 0.14723674952983856, 0.27359938621520996, -0.1716688573360443, -0.17581723630428314, 0.0974440798163414, 0.23743315041065216], [-0.14690238237380981, -0.22803394496440887, 0.2857719957828522, -0.21794240176677704, -0.0026859932113438845, 0.17699307203292847, 0.2332996428012848, 0.08440753072500229, 0.12375447899103165, -0.7217282652854919, -0.11194074153900146, -0.3446292579174042, 0.0001144675406976603, -0.06709660589694977, -0.046278536319732666, -0.2498336285352707, -0.4629175662994385, 0.20802277326583862, 0.21663352847099304, 0.00038782061892561615, -0.0506916269659996, -0.0668892040848732, 0.05257245525717735, -0.38039448857307434, -0.1387363076210022, -0.012013821862637997, -0.20053419470787048, 0.022628553211688995, 0.18065065145492554, 0.24158702790737152, -0.6516758799552917, -0.12637865543365479, -0.47939878702163696, -0.06716914474964142, -0.11836279183626175, -0.12367262691259384, -0.08111701160669327, 0.056571707129478455, -0.07368514686822891, -0.01957509107887745, 0.09425944089889526, 0.2502971589565277, 0.04869231954216957, 0.07008112221956253, -0.06663253903388977, 0.19802112877368927, 0.7722280621528625, 0.19929341971874237], [0.0792713537812233, 0.0683111697435379, -0.06279771775007248, 0.045737795531749725, 0.11837495118379593, -0.10943002253770828, -0.04557187855243683, -0.33566930890083313, -0.11579085141420364, -0.7080852389335632, 0.15398047864437103, 0.255198210477829, -0.027814209461212158, 0.002722581382840872, 0.11878664791584015, 0.17814047634601593, 0.022778505459427834, -0.15501466393470764, -0.10158795118331909, 0.3371143639087677, 0.1492222547531128, 0.04521019384264946, -0.37387368083000183, -0.06461162120103836, 0.043997105211019516, 0.04814916476607323, -0.029379412531852722, 0.04730131849646568, -0.11909890919923782, -0.817253828048706, 0.6701561212539673, 0.1337173581123352, 0.06833207607269287, -0.034492019563913345, 0.043238431215286255, 0.049217816442251205, 0.11929786205291748, 0.028349656611680984, -0.14379186928272247, -0.1629209667444229, -0.6255358457565308, -0.5181612968444824, -0.03837408125400543, 0.10200659930706024, 0.12629434466362, 1.1682053804397583, -1.0811433792114258, 0.05111076682806015], [0.027971822768449783, -0.02110806666314602, -0.06251583993434906, -0.8338418006896973, 0.005099667701870203, 0.2343895137310028, -0.09456042945384979, 0.1876513808965683, 0.03328154981136322, -0.34322023391723633, 0.11249218881130219, -0.05379130691289902, -0.20397406816482544, -0.0018458706326782703, 0.17436307668685913, 0.10507623106241226, 0.23010651767253876, 0.11022691428661346, 0.05883421003818512, 0.465395987033844, 0.25626063346862793, -0.0708792507648468, -0.24715556204319, -0.37320923805236816, -0.1252809315919876, 0.08658137172460556, -0.2844642102718353, 0.10110677033662796, -0.056514326483011246, 0.07066617161035538, -0.33073776960372925, 0.21046321094036102, -0.09553651511669159, 0.08499659597873688, 0.17476250231266022, 0.0004154361959081143, 0.2917211055755615, 0.12584710121154785, -0.0378485769033432, -0.19367031753063202, -0.5489758849143982, -0.22901731729507446, -0.1135113537311554, 0.2066623419523239, 0.0268919225782156, -2.703306198120117, 0.3332570791244507, -0.0019634761847555637], [-0.6263516545295715, -0.18542586266994476, -1.5267940759658813, 0.20772714912891388, 0.35369035601615906, -0.02889559417963028, 0.12679418921470642, 0.018963919952511787, 0.32827478647232056, 0.06861042976379395, 0.3636479675769806, 0.0190312210470438, -0.1364709734916687, -0.016959628090262413, 0.5771732926368713, 0.1889033019542694, -0.27953583002090454, -0.26811590790748596, 0.48983821272850037, 0.10971780121326447, -0.118878073990345, -0.16439057886600494, 0.18379217386245728, -0.21123535931110382, -0.03745972365140915, -0.1753365695476532, 0.16627661883831024, -0.11787527054548264, -1.0817595720291138, -0.46286532282829285, 0.00906754657626152, -0.3342183828353882, 0.17261889576911926, -0.20145727694034576, 0.0856727883219719, 0.2223714292049408, -0.39798489212989807, 0.16468706727027893, 0.07026928663253784, 0.05656332150101662, -0.008677275851368904, 0.13471832871437073, -0.37621545791625977, 0.019304409623146057, -0.11516015976667404, -0.12594406306743622, 0.20630644261837006, -0.6862756609916687], [0.1893189549446106, 0.28428515791893005, 0.1960032731294632, 0.15760751068592072, -0.27966010570526123, -0.906108021736145, 0.17882010340690613, 0.496625155210495, 0.4657984972000122, 0.10549386590719223, -0.120433509349823, 0.09711383283138275, 0.08613095432519913, -0.14979934692382812, -0.03204008564352989, -0.10757775604724884, -0.2529589831829071, -0.16282962262630463, 0.08522302657365799, -0.08376850932836533, 0.29710516333580017, 0.05730991065502167, -0.05827780067920685, 0.10871368646621704, -0.013796349987387657, 0.0185902938246727, 0.09477894008159637, -0.14037907123565674, -0.08781350404024124, -0.4556991159915924, -0.09034010022878647, 0.10689124464988708, -0.12238462269306183, 0.09443166851997375, -0.18166081607341766, -0.08202745020389557, -0.11486797034740448, 0.35751408338546753, -0.1946675330400467, -0.27183765172958374, -0.2547468841075897, -0.47125741839408875, 0.12933313846588135, 0.17557156085968018, 0.09908086806535721, -0.09235777705907822, 0.5422477126121521, 0.18345172703266144], [0.051684603095054626, 0.005076556000858545, -0.011249435134232044, -0.0001098042048397474, -0.052418529987335205, -0.015119761228561401, 0.01501502189785242, 0.03053767792880535, 0.11532246321439743, -1.0067094564437866, -0.21251851320266724, 0.022479752078652382, 0.0006318127852864563, -0.07032591104507446, -0.02504933811724186, 0.07778611779212952, -0.06732205301523209, -0.09261912852525711, -0.063715361058712, 0.0344165600836277, -0.06464606523513794, -0.02798829786479473, -0.26770901679992676, 0.08583682030439377, 0.08299523591995239, -0.04051710292696953, -0.010264291428029537, -0.01683630794286728, -0.017956675961613655, -0.09200014919042587, 0.13264219462871552, 0.08319759368896484, 0.06510154902935028, 0.04343608766794205, -0.015572750940918922, 0.009983080439269543, 0.01061426755040884, 0.033231113106012344, 0.04285459220409393, 0.07191899418830872, -0.36543112993240356, -1.6540937423706055, 0.00011284588254056871, 0.18292219936847687, 0.08431248366832733, -0.04644431546330452, -1.7212562561035156, -0.000663642946165055], [0.041722372174263, -0.12104097753763199, -0.03939562663435936, 0.1580861359834671, -0.07933293282985687, 0.06408820301294327, 0.02695287950336933, -0.034069888293743134, 0.020631611347198486, -0.2708229124546051, 0.047686733305454254, 0.10730800777673721, 0.30500829219818115, 0.011519921012222767, 0.04849453642964363, -0.08661185204982758, 0.0101314727216959, -0.02380194328725338, -0.009671813808381557, -0.004894469399005175, -0.07798276096582413, -0.05091850087046623, -0.06518098711967468, -0.03991197049617767, -0.12944380939006805, -0.08920388668775558, -0.15575352311134338, 0.0788523331284523, -0.02962656319141388, 0.1156095340847969, -0.007802342530339956, -0.18702998757362366, 0.2397901862859726, -0.036338064819574356, -0.09200187772512436, 0.0030596537981182337, 0.03241041675209999, -0.003916900139302015, -0.16766563057899475, -0.03691662847995758, -0.033719614148139954, -0.08108849823474884, -0.02039145492017269, -0.007387769874185324, -0.06513601541519165, -0.008616815321147442, -0.06428904831409454, 0.1302875429391861], [0.04000881314277649, 0.03406262770295143, 0.01633463241159916, 0.033333852887153625, -0.025871578603982925, 0.1610454022884369, 0.054045114666223526, 0.07790104299783707, -0.030517973005771637, 0.1788814663887024, 0.10104946792125702, 0.028155634179711342, -0.09275086224079132, -0.025580691173672676, -0.00045491830678656697, 0.04453982785344124, 0.04901258647441864, -0.11024598032236099, -0.3421577513217926, 0.05834798887372017, -0.10485909134149551, 0.033249299973249435, 0.10951713472604752, -0.04817470908164978, -0.016467733308672905, 0.0233808271586895, 0.031100604683160782, 0.07347948849201202, -0.03820981830358505, -0.010850802063941956, 0.0027890284545719624, -0.061059411615133286, 0.04080340638756752, 0.0843924731016159, -0.13036414980888367, -0.03931521251797676, -0.023772310465574265, 0.09714611619710922, 0.17490053176879883, 0.025250133126974106, -0.02076462283730507, 0.030748752877116203, -7.854880823288113e-05, -0.018122006207704544, -0.09190981835126877, -0.05740489810705185, -0.022429822012782097, -0.05575643107295036], [-0.10621931403875351, -0.14301849901676178, 0.050226327031850815, 0.23107928037643433, 0.06437693536281586, -0.03809284046292305, -0.015796778723597527, -0.6831636428833008, -0.06814391911029816, -0.2351011037826538, -0.43052569031715393, 0.1116151288151741, 0.15586943924427032, -0.26352691650390625, 0.015602054074406624, -0.07286673784255981, 0.4459248185157776, 0.1390981525182724, 0.6622040271759033, -0.599091649055481, 0.23312684893608093, 0.015271811746060848, 0.6093355417251587, -0.14193539321422577, -0.14131832122802734, 0.015579271130263805, -0.29917457699775696, -0.15908725559711456, -0.24710603058338165, 0.31885501742362976, 0.5858640670776367, -0.5019135475158691, -0.1551310271024704, 0.22507058084011078, 0.06853946298360825, 0.32900312542915344, 0.9659204483032227, -0.022709401324391365, 0.07559468597173691, 0.1682622879743576, 0.4671687185764313, 0.399286687374115, 0.08136898279190063, -0.16732560098171234, 0.231607124209404, -0.6579016447067261, -0.07106231153011322, -0.0578671395778656], [0.06849194318056107, -0.0050546699203550816, -0.07210851460695267, -0.03144655376672745, -0.027142703533172607, 0.10244549065828323, -0.01601363718509674, -0.028057485818862915, 0.03560630604624748, -0.13742072880268097, -0.0837479755282402, 0.08508867770433426, 0.08408217877149582, 0.1314401626586914, 0.00391381373628974, -0.041735101491212845, -0.02876015566289425, 0.026357870548963547, 0.0735115185379982, -0.09284985810518265, 0.07237451523542404, 0.01599963754415512, -0.005067029036581516, 0.07542046904563904, 0.07217048108577728, 0.04080049693584442, -0.006262384820729494, 0.10108275711536407, -0.0031374050304293633, 0.026604754850268364, -0.05474802851676941, -0.12454226613044739, -0.0358862467110157, -0.05141209810972214, 0.05783776938915253, 0.10183358937501907, -0.13984672725200653, 0.03789838030934334, -0.19692778587341309, -0.035936806350946426, 0.03405240923166275, -0.02161698415875435, 0.05176597088575363, 0.029723752290010452, -0.012744272127747536, 0.10362910479307175, -0.07123567909002304, 0.08290711790323257], [-0.10859350115060806, 0.3551388680934906, -0.4156651198863983, 0.3322216272354126, 0.163919597864151, 0.07358630001544952, -0.5183801054954529, -0.45198556780815125, -0.5306978821754456, -0.009698184207081795, 0.37854719161987305, 0.12516410648822784, 0.09266522526741028, 0.35632941126823425, 0.21305863559246063, 0.21159301698207855, 0.020085997879505157, 0.09147872030735016, 0.4130328893661499, 0.10553579032421112, -0.10583396255970001, 0.05020972341299057, -0.04525939002633095, -0.1279914826154709, -0.15620097517967224, -0.1471395045518875, 0.22379830479621887, -0.4374710023403168, -0.10106504708528519, 0.252312034368515, -0.17702831327915192, 0.24195058643817902, 0.17704589664936066, 0.23443949222564697, -0.19755473732948303, 0.18086493015289307, -0.11927206814289093, 0.022462354972958565, -0.08311041444540024, 0.1985401064157486, -0.112838976085186, 0.1540713757276535, -0.13412989675998688, 0.020681653171777725, -0.05422442778944969, 0.4158758819103241, -0.2825945317745209, -0.1900826394557953], [-0.06079571321606636, 0.014392116107046604, -0.2796177566051483, -0.08318085223436356, 0.142984077334404, 0.6338321566581726, -0.26485514640808105, -0.24084775149822235, -0.08742009103298187, 0.18103553354740143, 0.24013853073120117, -0.03483128547668457, 0.11351258307695389, 0.016591817140579224, 0.50347900390625, 0.051315758377313614, 0.03149779140949249, 0.09401154518127441, 0.08952928334474564, -0.25468045473098755, -0.02040616050362587, -0.03250563517212868, -0.01931046135723591, -0.048300039023160934, 0.06086857616901398, -0.05305049568414688, 0.1945740282535553, -0.030460042878985405, -0.17286798357963562, -0.33798936009407043, -0.2905033528804779, -0.09304099529981613, -0.013094551861286163, -0.13399167358875275, 0.08943641930818558, 0.16088595986366272, 0.12390900403261185, 0.09226907789707184, -0.09307117760181427, -0.04799950495362282, -0.14442402124404907, -1.2205874919891357, -0.13269084692001343, 0.08677931129932404, 0.1254778951406479, 0.1157718375325203, 0.18642449378967285, -0.1884140968322754], [-0.07527397572994232, 0.01981930248439312, -0.21370674669742584, 0.10244235396385193, 0.060082074254751205, -1.1409087181091309, 0.5781208276748657, -0.15589362382888794, -0.2307116687297821, 0.3043766915798187, 0.6661219000816345, 0.14698433876037598, 0.08490785956382751, -0.24231866002082825, -0.11800526082515717, -0.04583422839641571, -0.1588113009929657, 0.8438767790794373, -0.013399594463407993, 0.42906278371810913, 0.41830089688301086, -0.17381015419960022, 0.1578139215707779, 0.12957392632961273, -0.09529057890176773, 0.24654033780097961, 0.020584918558597565, 0.1348506659269333, -0.4743567705154419, 0.12325386703014374, -0.019329991191625595, -0.898033082485199, 0.298410028219223, -0.12448744475841522, 0.23953957855701447, -0.10949453711509705, -0.3453696668148041, 0.1765507459640503, -0.08783058077096939, -0.0009178211912512779, 0.4209149181842804, 0.4932191073894501, 0.07570487260818481, 0.023471487686038017, -0.17178542912006378, -0.03879184648394585, 0.48708784580230713, 0.2978287935256958], [0.028211569413542747, 0.37091484665870667, -0.8057665824890137, -0.37828299403190613, 0.19805823266506195, 0.026228513568639755, -0.6464155912399292, 0.20097631216049194, -0.5906598567962646, 1.1144165992736816, 0.2704309821128845, 0.134667307138443, -0.1567634791135788, 0.16670608520507812, 0.3700772225856781, 0.3803768455982208, 0.0385177843272686, 0.22355560958385468, -0.1959570199251175, -0.2593540847301483, -0.12759312987327576, -0.11407032608985901, -0.42428383231163025, -0.11896457523107529, -0.006283773109316826, 0.18251147866249084, 0.4408942461013794, -0.023669565096497536, -0.20024041831493378, 0.0744512751698494, -0.23057927191257477, -0.2863142788410187, 0.29570457339286804, -0.043809883296489716, 0.032880526036024094, 0.2682109475135803, 0.03881411999464035, 0.010387971997261047, 0.0429399237036705, 0.15827009081840515, 0.23311831057071686, 0.08016112446784973, -0.217397078871727, -0.12439870834350586, 0.3947674334049225, -0.05900749936699867, 0.0989745631814003, -0.214375838637352], [0.02290339209139347, 0.4195684790611267, -0.007962910458445549, -0.09412768483161926, -0.04871745780110359, -0.2923605144023895, -0.7066121697425842, 0.019281422719359398, -0.17901548743247986, 0.20093491673469543, 0.35894641280174255, 0.45560717582702637, 0.10057772696018219, -0.22945930063724518, -0.0629221647977829, 0.325924813747406, 0.05078146606683731, -0.13190403580665588, 0.2537107467651367, 0.19186215102672577, 0.12935079634189606, -0.22975462675094604, -0.01148955151438713, 0.17774972319602966, -0.022662807255983353, -0.025383440777659416, -0.7390319108963013, -0.08696071058511734, -0.1575217843055725, 0.2844570279121399, -0.16367214918136597, -0.44280165433883667, -0.15732808411121368, 0.13542070984840393, -0.3505951464176178, -0.11562392115592957, 0.008128770627081394, -0.25976163148880005, -0.19589823484420776, 0.2271990031003952, 0.0396793894469738, -0.03815333917737007, -0.2173350602388382, 0.4677732586860657, -0.3108692169189453, -0.12447548657655716, 0.06183553859591484, -0.20197515189647675], [0.02959715574979782, -0.026818089187145233, 0.9848805665969849, 0.12581384181976318, -0.1756051927804947, 0.006168839521706104, 0.15855427086353302, -0.03905298933386803, -0.39768388867378235, 0.09982646256685257, -0.11443039774894714, 0.018045678734779358, -0.20414221286773682, -0.11803090572357178, 0.01867692917585373, -0.0340418703854084, 0.058499086648225784, 0.3142494857311249, 0.02412216179072857, 0.2785710096359253, 0.07742718607187271, -0.17518088221549988, -0.11166930198669434, -0.13774950802326202, 0.02861594408750534, 0.03109523467719555, 0.05531757324934006, 0.3879239857196808, 0.01033577136695385, 0.08993586152791977, 0.10479934513568878, 0.2650444209575653, -0.02951028384268284, -0.5142765641212463, 0.280754953622818, -0.05868425965309143, -0.09957193583250046, 0.075412318110466, 0.15468886494636536, -0.12032877653837204, 0.05201972648501396, -0.03626779466867447, 0.07380487769842148, 0.16590607166290283, -0.06323897838592529, -0.2907390296459198, -0.12956608831882477, 0.06152639910578728], [-0.44909411668777466, -0.1585310697555542, -0.5771321654319763, -0.44974228739738464, 0.09841752797365189, -0.02333073504269123, 0.4044923782348633, 0.03444286808371544, -0.13041283190250397, -0.5738379955291748, -0.16209612786769867, -0.5348999500274658, 0.2665296792984009, -0.5547037720680237, -0.3612558841705322, -0.8762856125831604, 0.25005802512168884, 0.2078995257616043, -0.11909623444080353, -0.02639722265303135, -0.06353385746479034, -0.41542258858680725, -0.49235913157463074, -0.3038053512573242, 0.03334848955273628, -0.11058616638183594, 0.18259188532829285, 0.004486889112740755, 0.2653172016143799, 0.4765292704105377, -0.2691630423069, -0.06608687341213226, 0.13310712575912476, -0.14645683765411377, 0.26301145553588867, -0.3354816138744354, -0.0695876032114029, 0.3246261775493622, 0.03262742981314659, -0.2380145937204361, -0.017022185027599335, -0.05203510820865631, -0.047800369560718536, -0.2559567391872406, -0.34805765748023987, 0.31508538126945496, -0.21615652740001678, 0.416302889585495], [0.2205074280500412, 0.508431613445282, -1.231308937072754, 0.35034945607185364, -0.2134341299533844, 0.05550941079854965, -0.3525456488132477, 0.31513673067092896, 0.3063220679759979, -0.19194689393043518, 0.11618469655513763, -0.31785890460014343, -0.18176697194576263, -0.08029669523239136, -0.35269859433174133, -0.2759801149368286, -0.26954415440559387, 0.11158492416143417, 0.15412846207618713, -0.3107161521911621, 0.2231004685163498, -0.21690019965171814, 0.19949865341186523, 0.586022675037384, -0.08562460541725159, -0.504876971244812, -0.16710525751113892, 0.2001570165157318, 0.24465155601501465, 0.14491181075572968, -0.05212322622537613, 0.5754249095916748, 0.17792153358459473, 0.3182280957698822, -0.09279495477676392, -0.12623874843120575, -0.16040106117725372, 0.2673879563808441, -0.11924999952316284, 0.34255096316337585, 0.4481543302536011, -0.46258702874183655, -0.23172324895858765, -0.11460454016923904, 0.3900776505470276, -0.4396521747112274, -0.4509912431240082, -0.35094040632247925], [0.3409613072872162, 0.1210203543305397, 0.6600386500358582, 0.449140727519989, -0.5590820908546448, 0.05870453640818596, -0.5220292806625366, 0.07591534405946732, -0.0011472506448626518, 0.738649308681488, -0.08931127190589905, 0.22830253839492798, -0.15549609065055847, -0.30894580483436584, -0.04475343972444534, -0.13972188532352448, -0.375082403421402, 0.1849602460861206, -0.5242668390274048, -0.20798607170581818, -0.5284693241119385, -0.06435023248195648, 0.26042789220809937, 0.2673191428184509, -0.14785601198673248, -0.4660590887069702, 0.009753244929015636, 0.212524875998497, -0.2477070540189743, -0.060835402458906174, -0.7324324250221252, 0.7735409736633301, -0.20413130521774292, 0.15637224912643433, -0.47937890887260437, -0.06273086369037628, 0.1823626309633255, 0.22855828702449799, 0.03514871746301651, -0.6842594146728516, -0.19095003604888916, -1.1349900960922241, -0.20240943133831024, 0.35901013016700745, 0.11218153685331345, 0.3982396423816681, -0.3549339175224304, 0.1076563149690628], [0.051210008561611176, -0.01552041620016098, -0.5031045079231262, 0.11302518844604492, -0.3262702524662018, 0.006864365190267563, -0.18897204101085663, -0.14185117185115814, -0.020443392917513847, -0.5313575863838196, -0.0024903651792556047, -0.012531841173768044, -0.22270292043685913, -0.16853104531764984, -0.13437795639038086, -0.19833792746067047, -0.11203084141016006, 0.030661093071103096, 0.018016507849097252, 0.08153010904788971, -0.052505847066640854, -0.16988998651504517, -0.07486539334058762, -0.03842831030488014, -0.05477374419569969, 0.19510376453399658, -0.47954848408699036, -0.1065555214881897, -0.02972802333533764, 0.03780099004507065, -0.01847766898572445, -0.04908856004476547, 0.08729206025600433, 0.11847034096717834, 0.14034722745418549, -0.12716124951839447, -0.08793703466653824, 0.07385752350091934, 0.04704107344150543, 0.1064794585108757, 0.0760042667388916, 0.017243990674614906, -0.22879329323768616, 0.062066562473773956, 0.08466663211584091, 0.13928048312664032, -0.10250276327133179, 0.11969190090894699], [0.10234690457582474, 0.1469089686870575, 0.279559463262558, 0.13928866386413574, -0.1917273849248886, -0.11262651532888412, -0.21417385339736938, 0.2591134011745453, -0.13229651749134064, 0.4208751320838928, -0.1003129705786705, 0.21461820602416992, 0.1456773579120636, 0.7253268957138062, -0.35651615262031555, -0.5194969773292542, 0.3703867495059967, -0.05111398175358772, -0.8337584137916565, -0.7245846390724182, -0.30170002579689026, 0.004051311872899532, -0.38744252920150757, 0.3508729338645935, -0.20040437579154968, -0.03665126487612724, -0.6308541893959045, -0.3567018210887909, 0.7694218158721924, -0.3975236117839813, -0.24230918288230896, -0.49113911390304565, -0.2070494443178177, -0.4810692071914673, -0.05957317352294922, -0.19583334028720856, -0.05625855550169945, -0.049077872186899185, 0.08961725234985352, 0.20928530395030975, -0.1465313732624054, -0.0692056193947792, 0.09572576731443405, 0.05296735092997551, -0.035813815891742706, -0.0826677680015564, 0.19268131256103516, 0.3684804141521454], [0.010219759307801723, 0.12305495887994766, 0.15749181807041168, 0.12076442688703537, -0.011764382012188435, 0.03700954094529152, -0.314030259847641, -0.050929561257362366, 0.13892127573490143, -2.1036829948425293, -0.36139971017837524, -0.04685148969292641, -0.05143539234995842, -0.058108747005462646, 0.15579022467136383, 0.006503385957330465, 0.041141822934150696, -0.03267965838313103, 0.1310545951128006, 0.31735196709632874, 0.06734310835599899, -0.031983040273189545, -0.022704249247908592, 0.02448047138750553, -0.13137789070606232, -0.09213459491729736, 0.044663410633802414, 0.2699206471443176, 0.1594167947769165, 0.10367713123559952, -0.18473422527313232, 0.23780840635299683, 0.07430540025234222, 0.07566334307193756, 0.24304908514022827, 0.1674966812133789, -0.41673794388771057, 0.11826907098293304, -0.20514968037605286, -0.20610859990119934, -0.08482787758111954, -0.14258608222007751, -0.006899986416101456, 0.09671468287706375, -0.11611723154783249, -0.41069474816322327, -0.24684655666351318, 0.008751435205340385], [-0.018742388114333153, 0.27266359329223633, 0.15630100667476654, 0.04421674832701683, 0.09935619682073593, 0.16682980954647064, -0.0786130428314209, 0.15698590874671936, -0.20353199541568756, -0.08698662370443344, 0.2308851033449173, 0.16828027367591858, -0.14252011477947235, 0.10698215663433075, 0.23355631530284882, 0.09976782649755478, 0.10848446190357208, 0.017429986968636513, -0.01462116651237011, -0.037359386682510376, -0.09447290003299713, -0.04597988724708557, -0.20469258725643158, -0.0568915456533432, 0.14137059450149536, 0.3184448480606079, 0.23531202971935272, 0.055414386093616486, 0.058715879917144775, -0.26186078786849976, -0.6734379529953003, 0.15150710940361023, -0.18406106531620026, 0.3331480622291565, -0.22259487211704254, 0.14176985621452332, -0.45663392543792725, 0.1346556693315506, -0.13141164183616638, -0.17806605994701385, -0.32593801617622375, -0.005522624123841524, -0.015290028415620327, -0.089861199259758, -0.09193269908428192, -0.12314121425151825, -0.47768890857696533, -0.008796785026788712], [-0.0601588673889637, 0.31531256437301636, 0.21355636417865753, -0.5385854244232178, -0.021412208676338196, 0.21365004777908325, -0.20002244412899017, 0.46611928939819336, 0.15776649117469788, -0.9211707711219788, 0.08270222693681717, -0.23109479248523712, -0.168515145778656, 0.13692353665828705, -0.16587108373641968, -0.03524213656783104, 0.18279989063739777, -0.20209653675556183, 0.25660473108291626, -0.07205936312675476, 0.14152386784553528, -0.20419330894947052, 0.30848056077957153, 0.2595418691635132, 0.02581365406513214, 0.20283903181552887, 0.22872322797775269, 0.3242323398590088, 0.00877847895026207, 0.07761706411838531, 0.34651830792427063, 0.19655971229076385, -0.08933117240667343, 0.38293763995170593, -0.009690876118838787, -0.008215216919779778, 0.03180396556854248, 0.11134020984172821, 0.1358179897069931, -0.25643235445022583, 0.42233869433403015, -0.5572254061698914, -0.039657093584537506, 0.10251447558403015, -0.05783005803823471, -0.5133229494094849, -2.723064661026001, -0.05047048255801201], [-0.05279800295829773, -0.03988475352525711, 0.03440021350979805, 0.4744555950164795, -0.03345523029565811, 0.15872710943222046, 0.36115676164627075, -0.3343299329280853, 0.15047147870063782, 0.24124962091445923, 0.1371259093284607, 0.18891839683055878, 0.15554489195346832, -0.1673828363418579, 0.20676042139530182, 0.6471003293991089, 0.14652080833911896, 0.3454877436161041, 0.10097874701023102, -0.16879867017269135, 0.2660413086414337, 0.03877731412649155, 0.017133638262748718, -0.01918468438088894, 0.028246192261576653, 0.128448948264122, 0.43581879138946533, -0.4490665793418884, -0.2582571506500244, -1.5548354387283325, -0.21452751755714417, 0.10980542004108429, 0.3217284083366394, -0.6762736439704895, -0.06307923048734665, 0.10148397088050842, 0.05440443754196167, -0.4922870099544525, -0.14985540509223938, 0.3785667419433594, 0.5897275805473328, 0.3851373493671417, -0.06889975816011429, -0.12845681607723236, -0.06016000732779503, 0.2971900999546051, 0.6193151473999023, -0.29314014315605164], [0.0415535643696785, -0.7581437826156616, -0.989844560623169, 0.2766592800617218, -0.26501062512397766, -0.25827351212501526, -0.46914541721343994, -0.10040769726037979, 0.09005241096019745, 1.0487738847732544, -0.314393550157547, -0.13986694812774658, -0.23941487073898315, 0.31828832626342773, 0.15411628782749176, -0.11204075068235397, 0.053388409316539764, 0.16726751625537872, 0.08692368865013123, 0.3805563747882843, 0.048589468002319336, -0.09273923933506012, 0.2313787192106247, 0.26573386788368225, -0.08270317316055298, 0.03962951526045799, 1.6054209470748901, 0.21217040717601776, 0.12729370594024658, -0.15536893904209137, 0.28693777322769165, 0.09640353918075562, -0.052480410784482956, 0.2703365087509155, 0.04129500687122345, -0.1621055155992508, -0.008570839650928974, -0.15778383612632751, 0.1291085183620453, -0.092315673828125, -0.11999271810054779, 0.31394702196121216, -0.02983439527451992, -0.2951894998550415, 0.1477324217557907, 0.2855837047100067, 0.2056405246257782, 0.13102562725543976], [-0.1038363054394722, -0.151724711060524, 0.08719228208065033, 0.012994848191738129, 0.06376004219055176, -0.9503033757209778, -0.29335612058639526, -0.5462429523468018, -0.15184523165225983, -0.439144104719162, 0.5730589628219604, -0.0852012038230896, -0.08857645839452744, 0.23934482038021088, 0.14700032770633698, -0.07646588981151581, 0.39081159234046936, 0.25652074813842773, -0.08734424412250519, -0.2172282487154007, -0.08665109425783157, -0.16002210974693298, -0.20307640731334686, 0.2211272418498993, 0.03979628533124924, 0.11696452647447586, 0.004885687958449125, 0.023165037855505943, -0.010931718163192272, -0.03970863297581673, 0.4719509482383728, -0.26965609192848206, -0.16127416491508484, -0.19184087216854095, -0.2166152447462082, -0.02650114707648754, 0.14577360451221466, 0.13033774495124817, -0.14109066128730774, -0.1242765560746193, 0.18688267469406128, -3.2939438819885254, -0.17259804904460907, -0.09249959141016006, 0.07616288214921951, -0.058561671525239944, -0.32820379734039307, -0.07820463925600052], [0.09269209206104279, -0.6503396034240723, -0.18167319893836975, -0.14050239324569702, -0.07854238152503967, 1.0839265584945679, -0.1277371346950531, -2.6029727458953857, 0.02167258970439434, 0.400716096162796, -0.28841426968574524, 0.14049112796783447, -0.02290121093392372, -0.22586661577224731, -0.09145756810903549, 0.20002950727939606, -0.29077649116516113, 0.08685792237520218, -0.2745126485824585, -0.21136946976184845, 0.1508864313364029, 0.03678112104535103, 0.1327541321516037, -0.07464038580656052, 0.11850795149803162, 0.12366216629743576, -0.3226066827774048, -0.010260606184601784, -0.03252431005239487, -1.783597707748413, -0.15175887942314148, -0.5326489210128784, 0.16058555245399475, 0.05478547886013985, 0.10504613816738129, 0.06232492998242378, 0.40406063199043274, -0.084950290620327, -0.17494721710681915, -0.1520615816116333, 0.020425839349627495, -1.0905210971832275, -0.024148132652044296, -0.31313738226890564, 0.09724263101816177, -0.6202600002288818, -0.12035819888114929, 0.016621457412838936], [0.01447492465376854, 0.1736612319946289, -0.1534377634525299, -0.013024769723415375, -0.17465373873710632, 0.1073710173368454, 0.13520537316799164, -0.06724730879068375, -0.16817517578601837, -0.36190736293792725, -0.20516231656074524, -0.5335375070571899, 0.04263767972588539, -0.10311900824308395, -0.19861271977424622, 0.0015697923954576254, -0.723270833492279, 0.02015809156000614, 0.047794830054044724, -0.18970619142055511, -0.03981740027666092, -0.0324486643075943, 0.18905887007713318, -0.9811856150627136, -0.013703405857086182, 0.006607228424400091, 0.22245360910892487, 0.06977388262748718, 0.37859442830085754, -0.23342350125312805, 0.3785313069820404, 0.07251888513565063, 0.08587664365768433, 0.021803170442581177, 0.0554945282638073, -0.22729597985744476, -0.03481318801641464, 0.058401405811309814, -0.21543674170970917, -0.20995740592479706, 0.15443900227546692, 0.44053176045417786, 0.11751995235681534, -0.019352780655026436, -0.401904821395874, 0.16334722936153412, 0.21132725477218628, 0.027958083897829056], [1.0174174308776855, 0.05325382575392723, -1.0106778144836426, -0.8571335673332214, -0.46405741572380066, 0.4704533517360687, 0.48575857281684875, 0.003963599447160959, -1.1490178108215332, -0.03036409802734852, 0.1056460440158844, 0.5253732800483704, -0.17059659957885742, -0.1639796644449234, 0.1860406994819641, 0.7097309231758118, 0.005698031280189753, -0.6323277354240417, 0.3392418324947357, 0.06075252592563629, -0.13281039893627167, -0.9968722462654114, 0.06078404188156128, -0.23736608028411865, -0.20571917295455933, -0.8360872864723206, 0.11205300688743591, -2.771483898162842, -0.027055911719799042, 0.06371837854385376, -0.07994263619184494, 0.39152055978775024, -0.6898042559623718, 0.20978142321109772, -0.8407884240150452, -0.44161781668663025, 0.054921504110097885, 0.44914159178733826, -0.06411672383546829, -0.8231937885284424, -0.9217482209205627, 0.023447297513484955, -0.7394378185272217, -1.0182862281799316, -0.4129452705383301, -0.030184075236320496, 0.1554892361164093, 0.22196783125400543], [0.2410978376865387, 0.08136533945798874, 0.2123919576406479, 0.21852430701255798, -0.020434334874153137, 0.504975438117981, 0.12093241512775421, -0.6615918874740601, -0.02780362218618393, -0.46873366832733154, -0.39567384123802185, 0.1381572037935257, -0.06070544943213463, -0.48613110184669495, -0.20093442499637604, 0.006176578346639872, -0.08922432363033295, -0.39829424023628235, 0.3210870921611786, 0.1906862109899521, -0.07975941896438599, -0.15316417813301086, 0.6355321407318115, 0.020427821204066277, 0.11793318390846252, 0.10337604582309723, 0.1194692924618721, 0.013788029551506042, 0.08090940117835999, -0.12194101512432098, -0.17712713778018951, -0.09009291976690292, -0.15083211660385132, 0.308316171169281, 0.2249126136302948, 0.19067208468914032, 0.3422302305698395, -0.47051623463630676, 0.14356228709220886, -0.04571465402841568, -0.3129870295524597, -0.3302082419395447, 0.18332144618034363, 0.09083064645528793, -0.2245515137910843, -0.12482373416423798, 0.3246482014656067, 0.24781371653079987], [0.12827348709106445, -0.16465991735458374, 0.051910556852817535, 0.1509689837694168, -0.1208271011710167, -0.15824314951896667, 0.13093386590480804, 0.022427650168538094, -0.1239328533411026, -0.34414222836494446, -0.4652664065361023, -0.32265228033065796, 0.24179548025131226, 0.3183436095714569, -0.1697017401456833, -0.18478664755821228, 0.13485540449619293, -0.08235487341880798, 0.21860867738723755, -0.44337138533592224, 0.25032949447631836, -0.16639845073223114, -0.051643043756484985, 0.5556572675704956, -0.128548726439476, 0.11447042971849442, -0.23143751919269562, 0.1275615096092224, 0.3284344971179962, -0.138856440782547, 0.06215091049671173, -0.24387122690677643, 0.0796501561999321, -0.1505020707845688, 0.08607006818056107, -0.38633841276168823, 0.1508171409368515, -0.0749284029006958, -0.11355581134557724, -0.045700494199991226, 0.009357357397675514, -0.1597827970981598, -0.003999090287834406, 0.024163302034139633, -0.19042299687862396, -0.1134735569357872, 0.11914375424385071, 0.17984631657600403], [-0.010471691377460957, 0.07846695929765701, 0.08335939794778824, 0.0771222785115242, -0.07365228980779648, -0.1122007668018341, -0.11388222873210907, -0.11754930019378662, 0.07216814160346985, -0.5757665634155273, -0.14175812900066376, 0.061131175607442856, -0.041906893253326416, 0.14133614301681519, -0.053446728736162186, -0.07529401779174805, -0.008265934884548187, -0.026408884674310684, 0.11987147480249405, 0.11531108617782593, -0.13074637949466705, 0.041030943393707275, 0.04844571277499199, -0.04006410390138626, 0.004559613298624754, -0.05506125092506409, 0.14647458493709564, 0.06548263132572174, -0.003180868225172162, -0.011292087845504284, -0.04619240388274193, 0.03799326717853546, 0.07350550591945648, -0.04718609154224396, -0.006248642224818468, 0.05629526451230049, -0.05770512670278549, 0.08289462327957153, 0.08858254551887512, -0.0355897881090641, -0.17615768313407898, 0.06963431090116501, 0.0468936413526535, -0.04084526374936104, -0.05284968763589859, 0.0683249980211258, 0.022785821929574013, -0.030805470421910286], [0.2024914026260376, 0.02656477876007557, -0.752507746219635, 0.2042110413312912, -0.010491353459656239, -0.16709308326244354, 0.16815565526485443, 0.10738036781549454, -0.27828848361968994, -0.16158173978328705, -0.7040379047393799, 0.13647323846817017, -0.23079508543014526, 0.27771657705307007, -0.15256568789482117, 0.019406750798225403, 0.20036213099956512, -0.12211799621582031, -0.49446406960487366, -0.36559078097343445, -0.17263160645961761, -0.08858159929513931, 0.21172986924648285, -0.2519489824771881, -0.10313262790441513, 0.19123788177967072, -0.024350857362151146, 0.18928514420986176, 0.1935277134180069, 0.2551404535770416, 0.3023754358291626, -0.39235547184944153, 0.029514795169234276, -0.2540462017059326, 0.16263243556022644, -0.0648118108510971, -0.004323653876781464, 0.29696324467658997, -0.10340937227010727, -0.15797990560531616, -0.02590775117278099, 0.43501555919647217, 0.1492888182401657, -0.1571073830127716, 0.020488670095801353, -0.07700245082378387, 0.09783659875392914, 0.08295353502035141], [0.028189117088913918, 0.19010548293590546, 0.07117675989866257, 0.24801862239837646, 0.006714318413287401, -0.09400235861539841, -0.03948502242565155, -0.06667961180210114, 0.02438017912209034, -0.34391722083091736, -0.05120093747973442, 0.30204224586486816, 0.06323270499706268, -0.15465117990970612, -0.049955565482378006, -0.04051954671740532, -0.2606704533100128, -0.33541935682296753, 0.5265772342681885, -0.3779997229576111, 0.05176135525107384, -0.053491801023483276, 0.1976836919784546, -0.12744012475013733, -0.16016626358032227, -0.0876522958278656, 0.09078049659729004, 0.0419289655983448, 0.2548222839832306, 0.02729792706668377, 0.12114600092172623, -0.004897275939583778, 0.08780234307050705, -0.057718511670827866, 0.13971135020256042, -0.13228195905685425, -0.08754684031009674, -0.016100188717246056, 0.13542015850543976, -0.03122078627347946, 0.13595151901245117, 0.3276562988758087, 0.0837237536907196, 0.01377939898520708, -0.00022496984456665814, -0.3899306356906891, 0.37671607732772827, 0.08559755980968475], [0.04372139647603035, 0.1583259552717209, -0.10482483357191086, -0.1466911882162094, 0.00416962755843997, -0.10038210451602936, -0.06269736588001251, -0.2597678601741791, -0.09223897010087967, 0.08642959594726562, 0.2666260004043579, 0.1621149331331253, 0.3490634262561798, -0.10533326864242554, 0.18352390825748444, 0.05440095067024231, 0.07541243731975555, -0.23167479038238525, 0.01454250793904066, 0.055000849068164825, 0.24942010641098022, 0.05585218966007233, 0.0538153313100338, 0.15708911418914795, -0.12521326541900635, 0.0773530974984169, 0.8724607229232788, -0.12627758085727692, -0.07357096672058105, 0.06421380490064621, 0.18896882236003876, 0.31785231828689575, -0.18274030089378357, 0.4266619384288788, 0.11571583896875381, 0.222431018948555, 0.19953791797161102, 0.009454512968659401, 0.13630706071853638, 0.10203754901885986, 0.16418686509132385, -0.05494780093431473, -0.01823904737830162, 0.15467849373817444, 0.04471562057733536, -0.18290366232395172, -0.08346445113420486, -0.02921968884766102], [0.14406776428222656, -0.5538046360015869, 0.08378827571868896, 0.013980909250676632, 0.18620531260967255, -0.19590678811073303, 0.04958968237042427, -0.02899271994829178, 0.12154757231473923, 0.39080920815467834, -0.12567515671253204, -0.6819798946380615, -0.32601287961006165, 0.43345126509666443, 0.3401710093021393, -0.02851960062980652, -0.002708349609747529, 0.40775713324546814, -0.25191935896873474, 0.2827395498752594, 0.12179060280323029, -0.21974581480026245, 0.23160642385482788, 0.2406529188156128, -0.06241597235202789, -0.10602417588233948, 0.06308457255363464, 0.1467137634754181, 0.10190510004758835, 0.5419915914535522, 0.3556952476501465, 0.348334938287735, 0.5962812900543213, -0.08820129185914993, 0.33780041337013245, -0.17521320283412933, -0.11388832330703735, -0.42878544330596924, 0.10054611414670944, -0.11912072449922562, -0.45997676253318787, 0.5110942721366882, 0.037978995591402054, -0.07812447100877762, 0.007282140199095011, -0.06645145267248154, 0.10827384889125824, -0.06698323041200638], [0.06051715090870857, 0.07127716392278671, 0.169352725148201, 0.19309042394161224, -0.04949408024549484, -0.5980433821678162, 0.0936741754412651, 0.34804126620292664, 0.13075177371501923, 0.3707880973815918, -0.43226999044418335, 0.1710379719734192, -0.14872275292873383, -0.300658643245697, -0.004393149632960558, 0.0015718673821538687, 0.03578511252999306, -0.1052199974656105, 0.04408562555909157, 0.670258104801178, -0.04896344989538193, 0.02184773050248623, -0.0750947892665863, 0.018143532797694206, 0.11344236135482788, 0.11502482742071152, 0.17491711676120758, -0.04325644299387932, 0.1418767273426056, -0.033681441098451614, -0.009923681616783142, -0.3624819219112396, -0.21932099759578705, 0.12358640134334564, -0.15505701303482056, -0.09530231356620789, 0.15705804526805878, 0.2636285722255707, -0.11322195082902908, 0.12632867693901062, -0.16212879121303558, 0.5308054089546204, 0.17949122190475464, 0.19100013375282288, 0.15944582223892212, 0.2419530153274536, 0.06306129693984985, 0.22455190122127533], [0.012658772058784962, 0.31608355045318604, 0.039797306060791016, 0.017473692074418068, 0.06378688663244247, 0.06264255195856094, -0.13067886233329773, 0.2826227843761444, 0.19091340899467468, -0.3247986435890198, 0.16744489967823029, 0.004667262546718121, 0.007730212528258562, 0.006626589689403772, 0.039924390614032745, 0.21313033998012543, 0.14058317244052887, 0.08669385313987732, -0.05271069332957268, -0.10865113884210587, -0.017840098589658737, 0.016092052683234215, 0.005749323405325413, 0.1270776093006134, -0.017260905355215073, 0.12878891825675964, -0.5580345392227173, 0.12285903841257095, -0.08209595829248428, 0.20777161419391632, 0.031232554465532303, -0.3857816457748413, -0.1638617366552353, 0.2367365062236786, -0.27505525946617126, 0.1347372829914093, 0.05224355682730675, 0.2062104493379593, -0.11001991480588913, 0.028928332030773163, 0.17608480155467987, 0.1620142012834549, 0.03156401962041855, -0.0774044319987297, 0.09795870631933212, 0.06653384864330292, 0.24229875206947327, -0.049884069710969925], [-0.002351455856114626, 0.1460060030221939, 0.1368289738893509, -0.3712279498577118, -0.07317373901605606, -0.3712722957134247, 0.03336173668503761, 0.2892496585845947, 0.0867212563753128, -4.760042667388916, -0.06395324319601059, -0.1600021868944168, 0.08540219813585281, 0.08171495795249939, -0.21739496290683746, -0.0366416797041893, -0.14752337336540222, -0.06092754751443863, 0.2025568187236786, 0.10445545613765717, 0.07520413398742676, 0.027297016233205795, -1.1384859085083008, 0.09248481690883636, -0.040573179721832275, -0.10048392415046692, 0.12293326109647751, 0.3446226716041565, 4.853942300542258e-06, -0.020299332216382027, -1.5914392471313477, 0.21694046258926392, -0.1924559623003006, -0.0815393477678299, -0.0051787495613098145, -0.2281923145055771, -0.44883298873901367, -0.10809515416622162, 0.03307246044278145, 0.033357080072164536, -0.5464738011360168, -0.545093297958374, -0.049094390124082565, 0.10035247355699539, -0.05547961965203285, 0.39634382724761963, -0.034013789147138596, 0.050136301666498184], [-0.2128342241048813, 0.42786577343940735, -0.8525111079216003, 0.1150980219244957, 0.05579845607280731, -0.3826769292354584, 0.47546127438545227, -0.43668681383132935, -0.4525429308414459, -0.7780553698539734, 0.4688953757286072, -0.4317682981491089, -0.3240843117237091, 0.399767130613327, -0.07245481014251709, -0.2040141373872757, -0.08664660155773163, -0.06869109719991684, 0.3348529040813446, -1.2333767414093018, 0.1488264501094818, -0.050331585109233856, -0.2483229637145996, 0.5800085067749023, 0.10832440108060837, -0.2637999951839447, -0.10911489278078079, 0.2243780791759491, -0.14335741102695465, -0.0304262638092041, -0.4130241572856903, -0.9935377836227417, 0.17462541162967682, 0.08877075463533401, 0.1580788940191269, -0.05998893827199936, 0.4812149703502655, 0.2257869988679886, 0.10774862766265869, -0.15223918855190277, 0.16938427090644836, -0.3961922526359558, -0.10594277083873749, 0.16243606805801392, 0.1084095910191536, -0.9629771709442139, 0.19995015859603882, -0.04393184557557106], [-0.0030303976964205503, 0.25331661105155945, -0.014750191010534763, -0.027937591075897217, -0.10973075032234192, 0.039415691047906876, -0.13813890516757965, 0.41493967175483704, -0.0409713014960289, -0.16340821981430054, -0.7787020206451416, -0.04638048633933067, -0.07136575132608414, -0.43364283442497253, -0.4301142692565918, 0.021353241056203842, -0.1612391620874405, -0.020981749519705772, 0.26151901483535767, -0.011186998337507248, -0.33016684651374817, 0.15871600806713104, 0.18708865344524384, -0.14764177799224854, 0.09299328923225403, -0.2559646666049957, 0.0474071241915226, 0.007565937004983425, 0.3253777027130127, 0.20801232755184174, 0.373611718416214, 0.10649438947439194, -0.15470246970653534, 0.17054250836372375, -0.07447829097509384, -0.2012876272201538, -0.052274566143751144, -0.2995064854621887, -0.04473620653152466, 0.06943904608488083, 0.1304909735918045, -0.08798159658908844, -0.12510626018047333, 0.05311840400099754, -0.32962164282798767, 0.05620678886771202, 0.09627197682857513, 0.0784955769777298], [0.26618722081184387, -0.26319679617881775, 0.06731229275465012, -0.03586103394627571, -0.13557374477386475, 0.10336814075708389, 0.3714187741279602, -0.2634332478046417, -0.07150017470121384, 0.32438498735427856, 0.02489771880209446, 0.14748235046863556, -0.24511556327342987, -0.21417886018753052, -0.14602462947368622, 0.06453274190425873, 0.09763827919960022, -0.11721669137477875, -0.24367590248584747, 0.34609487652778625, 0.11300400644540787, -0.032103609293699265, 0.15097881853580475, 0.09812867641448975, 0.0680646300315857, 0.046480387449264526, -0.08575596660375595, -0.3138884902000427, -0.1876353621482849, 0.015442038886249065, 0.27816540002822876, 0.181216761469841, -0.032642871141433716, 0.31744593381881714, 0.08645792305469513, -0.008733036927878857, 0.038109276443719864, -0.0712851732969284, -0.1526368260383606, -0.07311490923166275, -0.3236630856990814, 0.03805112466216087, 0.14725860953330994, -0.030377740040421486, 0.04163288325071335, -1.7440646886825562, -0.12655800580978394, 0.18323639035224915], [-0.3182215690612793, 0.19844330847263336, -1.0148544311523438, -0.1934763640165329, -0.03666221722960472, 0.3580387234687805, -0.4576265215873718, 0.20076145231723785, -0.1833915412425995, -1.1322875022888184, -0.3959612250328064, -0.5307142734527588, -0.03933648765087128, 0.1311102956533432, -0.0009035602561198175, -0.12983842194080353, -0.033402927219867706, -0.02165387012064457, 0.03519110009074211, 0.10600032657384872, -0.04993994161486626, -0.09373222291469574, 0.08024439960718155, -0.16904489696025848, 0.10907942056655884, 0.09218493103981018, 0.24161657691001892, 0.10191527754068375, -0.055091455578804016, -0.37492746114730835, 0.5196549296379089, -0.12453410029411316, 0.31993210315704346, 0.22524333000183105, -0.35185331106185913, -0.0784231424331665, 0.3802078068256378, 0.3256833553314209, -0.005794382654130459, -0.05044752359390259, 0.591664731502533, -1.4198414087295532, -0.15876057744026184, -0.23688887059688568, -0.019580857828259468, -3.0150954723358154, -0.7139460444450378, -0.07567556947469711], [-0.07136624306440353, 0.08743824064731598, -0.3180535137653351, -0.020349329337477684, 0.19422923028469086, -0.10952240973711014, 0.12250036001205444, -0.0405585914850235, 0.1273186206817627, 0.4784991443157196, 0.07452211529016495, -0.029096178710460663, 0.14923101663589478, 0.0015534195117652416, 0.16780728101730347, -0.06354202330112457, -0.199032723903656, 0.18149246275424957, 0.1254938840866089, 0.3082701861858368, 0.07226449251174927, -0.156732976436615, 0.0029629634227603674, 0.012634513899683952, -0.21042732894420624, 0.04277477413415909, 0.008450089953839779, 0.1497386395931244, -0.3620883524417877, -0.4552335739135742, -0.24579915404319763, 0.22607867419719696, -0.02240145020186901, 0.07706742733716965, -0.11211857944726944, 0.06944116950035095, -0.10538201779127121, 0.2024235874414444, -0.10842520743608475, 0.059540506452322006, -0.3083714246749878, 0.1531173288822174, 0.05641359090805054, -0.02719288319349289, -0.23188304901123047, -1.5928090810775757, 0.05000187084078789, 0.028337890282273293], [-0.03289654105901718, 0.14166879653930664, -1.2801597118377686, -0.06819762289524078, 0.008170588873326778, -0.2674078941345215, 0.1616692841053009, 0.1432129144668579, -0.5935367345809937, -0.5167270302772522, -0.1652730405330658, -0.08895986527204514, -0.37102073431015015, 0.6312708854675293, 0.26118898391723633, 0.037492845207452774, -0.031311579048633575, 0.015450305305421352, -0.08449268341064453, 0.43309471011161804, -0.18841958045959473, -0.24436518549919128, -0.0753563791513443, -0.014349492266774178, 0.09760121256113052, 0.07686791568994522, -0.05588066205382347, 0.17086061835289001, -0.18053124845027924, -0.059468433260917664, 0.09111130237579346, 0.11424636840820312, -0.00691171083599329, -0.1329425871372223, -0.2626248896121979, -0.10238710790872574, 0.13099505007266998, 0.16744457185268402, 0.018600327894091606, -0.170586958527565, 0.28998038172721863, -0.08610218018293381, -0.05024109035730362, 0.06089119613170624, 0.04872513189911842, -0.0617123618721962, 0.07166391611099243, -0.06958521902561188], [-0.10473701357841492, 0.1747743934392929, 0.009844682179391384, 0.38805192708969116, -0.08868367224931717, 0.08622463792562485, 0.43412962555885315, -0.32551419734954834, 0.11616187542676926, 0.3544416129589081, 0.7280507683753967, 0.14240562915802002, -0.017305778339505196, -0.11782687157392502, 0.03948178514838219, -0.32413604855537415, -0.4803487956523895, 0.20370309054851532, -0.19504383206367493, 0.25718116760253906, -0.3262453079223633, -0.04100845754146576, 0.1940660923719406, -0.1422368288040161, -0.17170634865760803, -0.03309851512312889, 0.6018249988555908, 0.03388260304927826, 0.053819071501493454, 0.3710762560367584, -0.5917797684669495, -0.44859811663627625, -0.15645679831504822, 0.2722851634025574, 0.16468465328216553, 0.018833721056580544, -0.28493732213974, 0.35845354199409485, -0.15219515562057495, -0.02070922777056694, -0.6523151397705078, -0.3266032934188843, 0.04341640695929527, -0.31501632928848267, 0.2583991289138794, -0.4137871265411377, -0.2597833573818207, 0.05170919746160507], [-0.3409627079963684, 0.1571863740682602, 0.10771528631448746, -0.21603909134864807, -0.2666528522968292, 0.32230955362319946, 0.8558635115623474, -0.1526232212781906, -0.3366999328136444, -2.682603597640991, -1.2904151678085327, -5.428426742553711, 0.21518701314926147, -3.641213893890381, -0.21019336581230164, -0.4509315490722656, -0.32217833399772644, -0.13007278740406036, -1.7954169511795044, -1.003285527229309, -0.2693287432193756, 0.06727300584316254, 0.09080100804567337, -1.802054762840271, -0.036905672401189804, -0.3076973259449005, -0.26198098063468933, -0.04997803270816803, -1.4233778715133667, -0.8410979509353638, -0.05221383273601532, -1.1977012157440186, -0.05731881037354469, -0.24293245375156403, 0.1368098258972168, -0.6501283049583435, -1.7545236349105835, -0.1521719992160797, 0.09125668555498123, -0.25839629769325256, -0.29945164918899536, -1.3759716749191284, -0.1377786248922348, 0.08761704713106155, -0.5531836152076721, 0.3829597234725952, -0.43137675523757935, -0.7450439929962158], [-0.09415391832590103, -0.07504793256521225, -0.06937475502490997, 0.5178784728050232, 0.006407759618014097, -0.10980333387851715, -0.023305578157305717, 0.014751089736819267, -0.13331757485866547, -0.7518041729927063, 0.024147817865014076, -0.3099870979785919, 0.03837894648313522, 