{"dense_0/kernel:0": [[-195.8991241455078, 13.598871231079102, 21.120824813842773, 3.847672700881958, -9.209678649902344, 12.465497016906738, -72.11358642578125, -4.917137145996094, 66.500244140625, 8.746040344238281, 7.29532527923584, -38.19034957885742, -1.6506363153457642, -10.173442840576172, -0.3381674885749817, -147.0304718017578, -96.04289245605469, -8.198829650878906, 171.85055541992188, 24.056528091430664, -21.249807357788086, -78.77639770507812, 43.023948669433594, 6.900996208190918, -17.78789710998535, -3.600064516067505, 72.65338134765625, -8.075569152832031, 22.135181427001953, -13.01179027557373, 20.023555755615234, -183.6970672607422, 36.68064498901367, -50.12148666381836, -146.61572265625, 22.108728408813477, -36.709503173828125, -155.21347045898438, -96.68206787109375, 2.6945853233337402, -2.1331429481506348, 87.31969451904297, -10.61376667022705, -107.36676788330078, -176.61416625976562, 3.8392510414123535, 33.56705856323242, -11.891793251037598, -65.04946899414062, -45.771202087402344, 2.3752574920654297, 20.354345321655273, -0.288626104593277, 10.982659339904785, 37.63827133178711, -7.808638572692871, -149.95004272460938, -11.408703804016113, -3.7650651931762695, -0.15474319458007812, -49.379112243652344, -5.222439765930176, -28.2582950592041, -123.2203598022461, -10.010221481323242, 9.395917892456055, -9.306703567504883, 8.257132530212402, -9.752968788146973, -5.610896587371826, -49.018741607666016, -58.779815673828125, -83.14994049072266, -1.985506534576416, -54.445037841796875, 6.737308502197266, -30.659196853637695, -33.855838775634766, 0.6553691625595093, -62.91191482543945, -0.14086762070655823, -3.89941668510437, 18.022422790527344, -163.1653594970703, -45.88929748535156, 1.9700287580490112, 39.13020324707031, 2.1449971199035645, 13.772187232971191, -43.44877243041992, 10.911262512207031, -42.09990692138672, 87.14659881591797, -22.933956146240234, 27.297767639160156, -110.86675262451172], [7.291656017303467, 24.13311195373535, 12.020442962646484, 6.763111114501953, 8.900962829589844, -4.67645263671875, 74.6173324584961, 0.24764949083328247, 100.2762451171875, -10.530081748962402, 6.346651554107666, -15.710875511169434, 0.2493685781955719, 13.072591781616211, -0.15183939039707184, 1.7495187520980835, 3.9532763957977295, -0.9152299165725708, -2.1306512355804443, 1.1041288375854492, 27.35944366455078, 16.911266326904297, 60.81657409667969, 10.107023239135742, 7.728025436401367, 9.400758743286133, 26.088459014892578, 9.243279457092285, 6.574676036834717, 6.734377861022949, 22.611547470092773, 40.72806930541992, 27.076786041259766, 0.04466916620731354, -42.5206298828125, 19.098140716552734, 144.2822265625, 74.26538848876953, 108.19949340820312, 37.934104919433594, 1.7850459814071655, 0.4425741732120514, 21.774280548095703, -36.80155944824219, -0.6666105389595032, 24.024850845336914, 9.644449234008789, 42.422874450683594, 17.31523323059082, -65.40103912353516, 6.591528415679932, 8.54619026184082, 1.2180893421173096, 49.424781799316406, 50.92188262939453, 7.834878921508789, -32.1971435546875, 4.842475414276123, 0.8403612375259399, 1.1802674531936646, 50.97714614868164, 1.2495458126068115, 61.76655960083008, 26.07979965209961, -10.327582359313965, -18.817180633544922, -8.538710594177246, 34.921592712402344, 66.02499389648438, 19.57101058959961, 4.699216842651367, 35.51700210571289, 135.40440368652344, -0.2117588222026825, -73.31484985351562, -73.48248291015625, 84.86913299560547, -17.64735984802246, 13.511143684387207, 52.250335693359375, -10.531216621398926, 12.189523696899414, -45.562843322753906, -83.91295623779297, 27.07781410217285, 0.760746955871582, 73.26758575439453, -34.462833404541016, 30.607646942138672, 151.96006774902344, 6.533486843109131, -29.325292587280273, -0.3853488862514496, -11.952560424804688, 61.02088165283203, 125.2127685546875], [-5.890480995178223, -7.4747090339660645, -10.599509239196777, -32.02244567871094, -1.9344968795776367, 1.2390186786651611, 29.399322509765625, 3.463411808013916, 7.8255228996276855, -9.193901062011719, 25.121570587158203, -17.93573760986328, -0.8093947768211365, -4.075437068939209, -0.14109432697296143, -0.14947789907455444, -61.63804244995117, -0.9194364547729492, -1.5982259511947632, 37.27753829956055, 147.38417053222656, -101.27104949951172, -15.171055793762207, 45.67087173461914, -0.10082446783781052, -5.156087875366211, 0.780468225479126, -1.1228585243225098, -6.305394172668457, 2.370516061782837, -10.252291679382324, -16.262266159057617, 115.51988220214844, -58.107181549072266, -21.92097282409668, 48.150203704833984, -36.696590423583984, 26.707916259765625, -89.59889221191406, -128.46844482421875, -2.278270721435547, 6.9653191566467285, -8.443812370300293, 6.542397499084473, -0.13401535153388977, 131.25575256347656, -0.2908160090446472, -138.43478393554688, 138.59048461914062, 17.676145553588867, 0.22829273343086243, -1.870969295501709, 0.2080777883529663, -59.29282760620117, 33.0884895324707, -0.5871255397796631, -61.11238479614258, 0.03318827226758003, 0.055284470319747925, -0.3123152256011963, -27.488460540771484, 3.405952215194702, -21.3472843170166, -4.1071553230285645, 5.810810089111328, -44.269439697265625, 37.708839416503906, 9.161653518676758, -15.876803398132324, 33.49155807495117, -23.928852081298828, -123.83677673339844, 60.41941452026367, -0.5005726218223572, 64.5649185180664, 6.311155796051025, 87.63174438476562, 28.674762725830078, 1.704694151878357, 36.37329864501953, 5.867316246032715, 0.10883507132530212, 19.027177810668945, -15.684924125671387, -5.779174327850342, 12.11938190460205, 46.022705078125, -37.59150695800781, 26.10020637512207, 17.130552291870117, 0.15154868364334106, 6.1271748542785645, 3.688771963119507, -4.146965503692627, 47.897769927978516, -12.165196418762207], [1.1215966939926147, -62.668888092041016, -3.6394762992858887, 6.302912712097168, -0.4948803782463074, -3.3625564575195312, -9.458019256591797, 0.9008345007896423, 33.55058670043945, 1.7862002849578857, 134.74359130859375, -20.412425994873047, -1.9409351348876953, -6.778661251068115, 0.3188985288143158, -0.967016875743866, -49.354515075683594, 0.6388223767280579, -0.12954789400100708, -19.91746711730957, -4.652943134307861, -105.75653076171875, -43.47920227050781, -43.42676544189453, -0.8108075857162476, 1.8295552730560303, 4.3560099601745605, -1.4328055381774902, 30.35266876220703, -17.608394622802734, 9.166337013244629, 2.566511392593384, 31.52754020690918, 65.97200012207031, -5.65768575668335, -3.489821195602417, 79.5048599243164, -40.43632125854492, -75.6856689453125, 13.093887329101562, 3.47601056098938, -5.2099785804748535, -4.532910346984863, 0.6618112325668335, -1.03939950466156, -84.26594543457031, 12.789509773254395, -63.871673583984375, 59.019229888916016, -97.4793930053711, -1.9430040121078491, 1.7296528816223145, -143.9075469970703, 5.865668296813965, -77.16831970214844, 1.8780627250671387, 0.3410112261772156, 8.997048377990723, -0.10594885051250458, 135.59580993652344, -20.497671127319336, -0.018782269209623337, -51.38296127319336, 0.9307215809822083, -2.9903066158294678, 22.963111877441406, 11.449324607849121, 8.957781791687012, 43.02627182006836, 29.96219253540039, -14.202600479125977, 71.0169677734375, 80.92610168457031, -0.9050936102867126, -1.949153184890747, -13.653220176696777, 41.642372131347656, 34.70206069946289, 1.5330758094787598, 52.267913818359375, -5.948954105377197, -6.045639991760254, -13.607833862304688, -8.03885269165039, -2.814368486404419, 90.07027435302734, -73.0926513671875, -31.40434455871582, -19.53055763244629, -67.99219512939453, -0.9493184089660645, 16.40773582458496, 14.195520401000977, 0.49631014466285706, 24.72693634033203, -43.34914016723633], [-5.482398509979248, 64.5947494506836, 28.025440216064453, 6.443158149719238, -5.303305149078369, 2.241152048110962, 23.819177627563477, 0.9636046886444092, -49.60285186767578, -39.675140380859375, -123.9593276977539, -45.85818099975586, 2.015770196914673, 6.087249755859375, -0.8396018743515015, 2.4567501544952393, 35.233604431152344, -1.4585800170898438, -0.4088951647281647, -24.822975158691406, -5.140266418457031, 48.4141960144043, 33.45716857910156, 12.257076263427734, -1.5733314752578735, -0.8727110028266907, 27.46228790283203, 2.6496641635894775, -9.316985130310059, 7.3408732414245605, -30.50465965270996, -14.662841796875, 30.389963150024414, -84.88359069824219, 8.384248733520508, -5.627236843109131, -49.6253547668457, 31.374460220336914, 40.15095520019531, 25.771198272705078, -1.310455083847046, -2.5647499561309814, -0.05108696594834328, -7.894598960876465, 1.1324156522750854, 56.60669708251953, -18.876602172851562, 25.365299224853516, -25.67731285095215, 67.00789642333984, -4.4546051025390625, -6.735751628875732, 10.583666801452637, -12.627960205078125, 67.8716812133789, -2.4546618461608887, -3.996706247329712, -5.725341320037842, 0.9620354771614075, -5.439206123352051, 15.59847354888916, -1.3168597221374512, 2.9243953227996826, -19.105539321899414, 0.693252444267273, -25.60539436340332, -60.7369270324707, 21.313493728637695, -24.63352394104004, -12.184014320373535, 12.352335929870605, -40.971248626708984, -55.42947769165039, -1.9849210977554321, -36.343589782714844, 1.4781605005264282, -9.369558334350586, -7.066196918487549, -1.6654069423675537, -27.757932662963867, -6.236787796020508, 1.156394600868225, 17.564189910888672, 2.519970417022705, 2.5978426933288574, -43.57001876831055, 48.58866882324219, -9.849472999572754, 31.136478424072266, 50.88399124145508, -2.469635009765625, 9.944371223449707, -32.50458526611328, -0.0415564626455307, 36.571956634521484, 29.57552719116211], [-9.004019737243652, 30.16364860534668, -8.056621551513672, -28.82774543762207, -8.724438667297363, 21.3225040435791, -7.725513458251953, -5.046080112457275, -40.95722198486328, -24.410978317260742, -5.982851982116699, -34.92196273803711, -2.038529634475708, -13.023701667785645, -0.5444200038909912, 14.064671516418457, 4.815850734710693, -2.917022705078125, 16.787595748901367, 3.8961522579193115, -17.34720802307129, -20.71546745300293, -5.13819694519043, 11.106223106384277, -14.131210327148438, -7.262988090515137, -3.117478132247925, -6.058800220489502, -3.1387298107147217, 37.87736129760742, 1.6597553491592407, -17.644092559814453, -10.278726577758789, -14.211297988891602, 2.9986276626586914, -8.463000297546387, -0.0778668001294136, -16.339365005493164, -32.50254821777344, -14.025510787963867, -4.252658843994141, -34.97201156616211, -16.656200408935547, -18.7536678314209, 7.582369804382324, 6.045568466186523, 72.66362762451172, 21.95322608947754, -21.859691619873047, -33.193668365478516, -7.81980562210083, 36.65719985961914, 2.067734956741333, -8.639286994934082, -21.050212860107422, -8.411969184875488, -24.90396499633789, -11.508841514587402, -2.089047908782959, -4.74485969543457, -25.555437088012695, -3.7384822368621826, 0.211041659116745, -7.746506214141846, -6.43214225769043, 6.474155426025391, 14.246949195861816, -44.024288177490234, -27.605159759521484, -18.10321807861328, -31.126422882080078, -0.6029906272888184, -15.314075469970703, -0.9578465223312378, -6.012929916381836, -1.5142838954925537, -39.80031967163086, -33.04484176635742, -10.4378080368042, -16.710893630981445, -26.66490364074707, -13.098201751708984, 9.638006210327148, -13.813995361328125, -60.71796417236328, 8.641456604003906, 11.627802848815918, -9.653962135314941, 2.071791172027588, 21.788768768310547, -13.48043441772461, -63.97578430175781, -37.455970764160156, -7.401423454284668, -40.30690002441406, -26.9809513092041], [23.541942596435547, -62.62403869628906, -52.704559326171875, -94.96038818359375, -19.25155258178711, 55.6370964050293, -116.37680053710938, -2.3003177642822266, -84.68629455566406, -112.54034423828125, -3.4034955501556396, -37.52277374267578, -1.8571150302886963, -11.014887809753418, -1.5377224683761597, 54.30546569824219, -19.348894119262695, -5.580986976623535, -7.576284408569336, -35.503753662109375, 5.937480449676514, -34.622154235839844, -50.22959899902344, -65.81146240234375, -17.285898208618164, -14.31075668334961, 15.704633712768555, -9.848139762878418, 6.144906044006348, 23.819711685180664, -11.800225257873535, -19.05181884765625, -41.094573974609375, -4.954598903656006, 5.354166507720947, -65.56307220458984, -7.335148334503174, 17.255352020263672, -27.308212280273438, -5.115397930145264, -5.166005611419678, -55.243202209472656, -25.36271858215332, -18.728490829467773, 45.493751525878906, -1.146721601486206, -45.06983184814453, 4.751331329345703, -34.558780670166016, -40.685909271240234, -11.067201614379883, 18.850332260131836, -3.4770686626434326, -25.60239601135254, -7.26246452331543, -4.38547420501709, -48.042381286621094, -10.450665473937988, -4.067472457885742, -1.8745205402374268, -120.34095001220703, -8.236151695251465, -137.7367706298828, -46.457706451416016, -10.529617309570312, -46.25248718261719, -90.2366714477539, -50.02383041381836, -109.99351501464844, -35.08762741088867, -38.6158561706543, -35.520103454589844, -9.415067672729492, -2.5837817192077637, -14.34669017791748, -0.4524255096912384, -43.8868408203125, -45.95594024658203, -16.757247924804688, -162.97142028808594, -22.822359085083008, -12.546804428100586, -40.56660079956055, -18.348896026611328, -63.30413818359375, 31.528566360473633, 12.792957305908203, -74.762451171875, -67.98896789550781, 51.297489166259766, -16.18876838684082, -75.43302154541016, -47.67734909057617, -8.396871566772461, -69.45317077636719, -6.393596172332764], [40.24911117553711, 61.58196258544922, 18.276016235351562, -23.909624099731445, 0.8030270934104919, 96.53466796875, 47.287513732910156, -10.023747444152832, -27.319412231445312, -31.883512496948242, 8.529386520385742, -104.8617172241211, -3.6041758060455322, -44.310340881347656, -0.11372499912977219, 66.25332641601562, 24.719423294067383, 0.743423581123352, -2.048745632171631, 52.571720123291016, -12.01970100402832, -9.969517707824707, 19.797338485717773, 32.395259857177734, -27.07528305053711, -10.314168930053711, -233.7811279296875, -8.83186149597168, 13.095659255981445, 54.52375030517578, 66.94010162353516, -8.697030067443848, 0.018824677914381027, 33.662933349609375, -22.301036834716797, -24.339801788330078, -6.6070332527160645, -0.7889142632484436, -40.39664077758789, -11.868208885192871, -4.0231499671936035, -86.65734100341797, -2.8134679794311523, -76.4886245727539, 50.25788116455078, 16.69440460205078, 76.32167053222656, 28.09467887878418, 1.6488821506500244, 3.8715829849243164, -13.595686912536621, 48.8953971862793, -1.153560996055603, -13.64859390258789, -103.83208465576172, 2.457159996032715, -41.20540237426758, 3.6319236755371094, 0.2874791920185089, -0.28880682587623596, 20.23505973815918, -0.8579782247543335, 31.827558517456055, 56.732975006103516, -8.940007209777832, -32.774967193603516, 24.480056762695312, -118.02220916748047, 24.8829402923584, -40.77812576293945, -63.69766616821289, 31.48351287841797, -2.7637441158294678, 0.7307206988334656, 6.0063300132751465, 10.816426277160645, -57.31045913696289, -171.34788513183594, -9.68311882019043, 42.85381317138672, -123.4329605102539, -8.22899341583252, 23.569875717163086, 9.879302978515625, -82.91181945800781, -11.220319747924805, 15.750215530395508, -8.42558765411377, -7.676156997680664, -1.4399056434631348, -17.417621612548828, -117.8736343383789, -55.6156005859375, -5.4317426681518555, -12.735852241516113, -44.74721908569336], [-0.1998853087425232, 0.07640880346298218, 1.1156375408172607, -3.0187065601348877, -0.19203579425811768, 0.07258284837007523, -0.7018324136734009, -0.020698701962828636, 0.37670251727104187, 1.7230077981948853, -1.01931631565094, -4.039229393005371, 0.05539928749203682, 0.35824406147003174, 9.04201515368186e-05, -0.010047617368400097, -0.43296679854393005, -0.06052781268954277, -0.005198854953050613, -1.539085865020752, -0.1221589744091034, 0.5036917328834534, -0.4227047860622406, 0.9603307843208313, -0.47568583488464355, 0.16159245371818542, 0.1818648725748062, 0.15968653559684753, 1.963623046875, 0.2332199364900589, -0.28418734669685364, 0.158178448677063, -1.4129031896591187, 1.105197787284851, -1.1018460988998413, -0.06863445043563843, 0.6979027390480042, 0.3939473628997803, -1.2757443189620972, -0.2694738805294037, -0.03811619058251381, 0.13597753643989563, 0.3947690427303314, 0.13419809937477112, -0.0378275141119957, 1.1273047924041748, 0.08677482604980469, -0.4684714376926422, -2.301562786102295, 1.7383257150650024, -0.08927161246538162, -0.47816476225852966, 1.114147663116455, -3.6869232654571533, 0.18342551589012146, -0.11092720180749893, 2.4563539028167725, -0.08935688436031342, -0.04584034904837608, -0.9160235524177551, -0.05340293049812317, 0.028388861566781998, 0.4199425280094147, -0.2514875531196594, 0.04712934046983719, -0.7703349590301514, 2.8411917686462402, 2.0937838554382324, -0.4878789782524109, 1.7978841066360474, -2.339183807373047, 0.9473885297775269, -0.4064093828201294, 0.008402246050536633, -0.2435774803161621, 1.002371072769165, 0.344429612159729, 3.8299200534820557, -0.06307053565979004, -0.2910836338996887, -0.03271444886922836, 0.010901650413870811, -2.2485029697418213, -0.6262645125389099, -0.5795974135398865, 0.019591882824897766, 0.9420172572135925, 2.11059308052063, 3.4264988899230957, -0.08988961577415466, -0.11326698958873749, -2.3813161849975586, -0.3870055675506592, 0.11025577038526535, -0.03906089439988136, -1.7946254014968872], [-0.05627674609422684, 0.26073020696640015, -1.466472864151001, 1.4188181161880493, 0.06635729223489761, 0.06189913675189018, 0.7848417162895203, 0.00970369391143322, -0.7468953728675842, -1.5421499013900757, -2.777440309524536, 2.8175528049468994, 0.019947560504078865, 0.0052393353544175625, 0.0022732282523065805, 0.04890141636133194, 0.6336253881454468, -0.000594909128267318, 0.0034898389130830765, -0.29766958951950073, -0.7731780409812927, 2.4112374782562256, -0.3238864839076996, -1.556068778038025, 0.36344337463378906, -0.2693256139755249, -0.14764949679374695, -0.1699983924627304, 2.042268753051758, 0.11081019043922424, 0.7379307150840759, 1.6317352056503296, 1.1803758144378662, -0.38100168108940125, 1.9453511238098145, -0.3532578945159912, -0.41053324937820435, -0.9416684508323669, 1.3657134771347046, -1.0201373100280762, -0.05222387611865997, 0.06083337217569351, -0.43818607926368713, -0.40837329626083374, 0.030895700678229332, 0.9832153916358948, 0.2995549440383911, 1.4135522842407227, -0.04016865789890289, 2.8415253162384033, 0.11962375789880753, -0.58822101354599, 1.8784022331237793, 0.7430669665336609, 0.6717017292976379, -0.09096414595842361, -2.3015296459198, -0.1705862134695053, 0.03473161533474922, -1.808266282081604, 0.7049552798271179, -0.011052053421735764, 0.6864855885505676, -0.07842270284891129, -0.03671488165855408, 2.2417070865631104, -1.0779117345809937, -3.195521116256714, -0.5927897691726685, 2.8801190853118896, -4.220700263977051, -2.1472554206848145, 0.4901537597179413, -0.01670520380139351, 1.1165357828140259, -0.38957056403160095, 0.4380567669868469, -1.9497458934783936, 0.041469912976026535, -0.9081771373748779, -0.004480655305087566, 0.2838537395000458, -1.9459201097488403, -1.600938081741333, 0.7089720964431763, 0.022491462528705597, 0.7255125641822815, 0.9229393005371094, -1.4711917638778687, 0.9149966239929199, 0.11701339483261108, -3.3029098510742188, 0.08234936743974686, 0.049687765538692474, 0.7300822734832764, -1.5688502788543701], [4.366969108581543, -67.14826965332031, 19.915678024291992, -92.89012908935547, -7.304407596588135, 7.708263397216797, -158.3560028076172, -5.075084209442139, -38.541316986083984, -2.421135902404785, 8.368330955505371, 8.454573631286621, -1.4204432964324951, -17.85209083557129, 0.0864419937133789, 2.0966527462005615, -30.11028289794922, -2.125101089477539, 0.6936497092247009, 11.998071670532227, 9.299489974975586, 9.718759536743164, -44.773765563964844, -9.66881275177002, -10.789897918701172, -10.436749458312988, 25.252971649169922, -10.756172180175781, 5.985099792480469, -511.05462646484375, 3.8678107261657715, -42.32855987548828, -24.183086395263672, 22.70944595336914, -11.244962692260742, -7.069782733917236, 11.06098747253418, -11.424967765808105, 9.339818000793457, 5.271605014801025, -1.8492454290390015, 12.544878959655762, -16.809240341186523, -8.32884407043457, 2.7951159477233887, -17.325178146362305, -84.17840576171875, -3.645348072052002, -12.290773391723633, 13.817442893981934, -3.3186542987823486, 15.875563621520996, 3.197532892227173, -14.848028182983398, -27.675952911376953, -22.427297592163086, -24.01548194885254, -10.99602222442627, -2.5652148723602295, -4.878183841705322, -48.11163330078125, 0.3865668773651123, -19.488248825073242, -56.43354415893555, -3.1184349060058594, -11.94365119934082, -131.99298095703125, -30.01169776916504, -32.23867416381836, -11.692903518676758, 10.758492469787598, -22.963768005371094, 14.001411437988281, -0.8361369967460632, 27.944419860839844, -51.67975616455078, -27.097923278808594, -30.572141647338867, -10.139917373657227, -40.71882629394531, -17.995275497436523, -11.214282989501953, -5.433673858642578, 4.004698276519775, -26.61842155456543, -49.18210220336914, -27.283058166503906, -5.936195373535156, 17.993236541748047, -2.222374439239502, -11.354900360107422, -67.25169372558594, 5.059953212738037, -4.006124973297119, -21.15119171142578, -29.93069839477539], [8.007089614868164, -60.82292175292969, 15.337592124938965, -138.26002502441406, -10.705594062805176, 9.054397583007812, 15.137377738952637, -3.2282533645629883, -63.24787902832031, -89.37669372558594, -13.797186851501465, -18.616701126098633, -2.3361873626708984, -8.37013053894043, -0.4097426235675812, 2.724700689315796, -60.04216384887695, -4.756042003631592, 2.2916431427001953, -40.160987854003906, 10.932836532592773, 4.055831432342529, -46.34931945800781, -114.56531524658203, -20.75522232055664, -9.510350227355957, 18.752317428588867, -9.035223007202148, 15.701891899108887, 2.3794515132904053, -22.620803833007812, -28.610631942749023, 1.7661844491958618, -49.391563415527344, -19.920347213745117, -11.562687873840332, 6.941280841827393, 6.8653459548950195, -12.2002534866333, 19.544361114501953, -0.5872751474380493, 20.45290756225586, -25.2651309967041, -22.498291015625, 3.3696560859680176, -10.549164772033691, -65.73664855957031, -18.884695053100586, -41.535545349121094, 0.7664265036582947, 0.49931207299232483, -548.8573608398438, -5.202138423919678, -30.385713577270508, -119.69448852539062, -9.653180122375488, -20.592220306396484, -9.672496795654297, -0.9727559089660645, 4.262077331542969, -32.444671630859375, -1.5032291412353516, -13.71041202545166, -64.58707427978516, -3.2626476287841797, 34.15787887573242, -53.51049041748047, -9.622832298278809, -53.2092170715332, -2.093735456466675, -4.211897850036621, -11.209031105041504, 16.208965301513672, -2.9848649501800537, -32.57843017578125, -25.789804458618164, -97.12915802001953, -23.188323974609375, -13.211865425109863, 8.59274959564209, -26.158954620361328, -10.994425773620605, 30.12287139892578, 2.895416259765625, -44.68427276611328, -36.21095275878906, -2.525820732116699, -17.26439094543457, 5.128108501434326, -18.887914657592773, -22.839950561523438, -15.863973617553711, 3.633586883544922, -13.809996604919434, 23.314950942993164, -27.283905029296875]], "dense_0/bias:0": [0.0705549418926239, 0.037018146365880966, -0.04191891849040985, -0.12548834085464478, -0.022837400436401367, 0.1743028461933136, -0.00350251910276711, -0.01815236546099186, -0.13597862422466278, -0.16137543320655823, 0.001349522965028882, -0.14091606438159943, -0.010798252187669277, -0.061766207218170166, -0.0033292474690824747, 0.1359865963459015, 0.0005504239816218615, -0.009250819683074951, -0.007112385239452124, 0.010402274318039417, -0.0050808461382985115, -0.059283092617988586, -0.03314675763249397, -0.023930221796035767, -0.06373684108257294, -0.03434213623404503, -0.08158037066459656, -0.02317589335143566, 0.028648732230067253, 0.09724359959363937, 0.06266661733388901, -0.03468344733119011, -0.051481056958436966, 0.025632765144109726, -0.015446625649929047, -0.1059451475739479, -0.016956772655248642, 0.025059739127755165, -0.07701129466295242, -0.015067024156451225, -0.01889048144221306, -0.13993042707443237, -0.04303373396396637, -0.07947760075330734, 0.10981663316488266, 0.020526016131043434, 0.08451336622238159, 0.03934629634022713, -0.042451076209545135, -0.05313554406166077, -0.03800904378294945, 0.07516278326511383, -0.00553176598623395, -0.04021117463707924, -0.0672517716884613, 0.0018238506745547056, -0.09712959825992584, -0.00615830160677433, -0.009225454181432724, -0.003710006596520543, -0.05735132843255997, -0.017898812890052795, -0.032218217849731445, 0.0472598560154438, -0.031439416110515594, -0.09270709753036499, -0.05949469655752182, -0.1700516939163208, -0.05413191393017769, -0.08191414177417755, -0.10593412816524506, -0.015151401981711388, -0.013426241464912891, -0.005528375506401062, -0.016909202560782433, 0.013193098828196526, -0.11121971160173416, -0.204929381608963, -0.04301050305366516, -0.0385223887860775, -0.13476307690143585, -0.025918375700712204, -0.028994757682085037, -0.010883340612053871, -0.1469106674194336, 0.03752769157290459, 0.0356467105448246, -0.10482698678970337, -0.0920238122344017, 0.0759960412979126, -0.045049432665109634, -0.20564694702625275, -0.09960473328828812, -0.02431003749370575, -0.10377192497253418, -0.0509442463517189], "dense_1/kernel:0": [[0.25733131170272827, -0.28170204162597656, 0.14803048968315125, 0.8286216259002686, -0.4984150826931, 0.29922327399253845, -0.5707607269287109, -0.335724800825119, 0.26024043560028076, 0.07349390536546707, 0.1907350867986679, 0.46507397294044495, 0.21195641160011292, 0.6276044249534607, -0.1293548047542572, 0.1711583137512207, -0.602384090423584, -0.11285120248794556, -0.5128729343414307, 0.01505463756620884, 0.15795207023620605, 0.39847683906555176, -0.013040428049862385, 0.22282803058624268, 0.2845446765422821, 0.3292487561702728, 0.23994985222816467, -0.028688685968518257, 0.2964797914028168, 0.12842205166816711, -0.18683508038520813, -0.18256963789463043, 0.2382173240184784, 0.002128553343936801, -0.4418165981769562, 0.08467242866754532, -0.012397526763379574, 0.3192875385284424, -0.18451617658138275, -0.0907360315322876, -0.10511582344770432, -0.2926423251628876, -0.0076899416744709015, -0.14256586134433746, -0.432064026594162, -0.17948052287101746, 0.30694660544395447, -0.18661707639694214], [0.024304933845996857, 0.1646932065486908, 0.06702519208192825, -0.10438844561576843, -0.2656154930591583, -0.22612585127353668, 0.011352143250405788, -0.22888793051242828, -0.046843770891427994, -0.05569356679916382, -0.239145427942276, 0.2285868227481842, -0.06899898499250412, -0.009123368188738823, 0.016562188044190407, 0.13491439819335938, -0.2591353952884674, 0.06918253749608994, -0.10077890753746033, -0.02559376321732998, 0.2816670835018158, -0.26317742466926575, -0.22808264195919037, -0.08748075366020203, 0.12126892060041428, -0.17681367695331573, -0.003217866411432624, 0.03430138900876045, -0.14086122810840607, 0.3560795187950134, -0.5168455839157104, -0.16323760151863098, -0.1151384636759758, -0.15826836228370667, 0.17154349386692047, -0.14107853174209595, 0.013095865026116371, -0.26468074321746826, -0.3406427800655365, -0.030697599053382874, -0.2913980782032013, 0.0002936707460321486, 0.21445034444332123, -0.07913942635059357, 0.10314960777759552, 0.014172879047691822, -0.18575555086135864, 0.07692384719848633], [0.01571136713027954, -0.048799775540828705, -0.09499993920326233, 0.046259500086307526, 0.0011330293491482735, -0.5041621923446655, 0.057256683707237244, 0.09232580661773682, 0.04862551763653755, 0.15197047591209412, -0.1134452223777771, 0.019402483478188515, -0.045796945691108704, 0.10974188894033432, 0.4928205907344818, -0.05049077421426773, -0.04703290015459061, -0.44681671261787415, -0.04996265470981598, 0.18033593893051147, -0.05952548235654831, 0.11470159143209457, -0.1486816704273224, -0.059058889746665955, -0.2297375500202179, 0.07344246655702591, 0.15362301468849182, 0.2683051824569702, 0.01627412438392639, -0.06214391812682152, -0.09835685789585114, 0.015739399939775467, 0.12277822196483612, -0.2532799541950226, -0.33552274107933044, -0.253486692905426, 0.014045245945453644, 0.09941665083169937, -0.3635769486427307, 0.09693977981805801, -0.4581403136253357, -0.13895051181316376, 0.016926804557442665, -0.25301045179367065, 0.08367215096950531, 0.09226232767105103, -0.05474197119474411, 0.020125221461057663], [0.09664624184370041, -0.034605737775564194, 0.09244205802679062, -0.024899518117308617, 0.21262791752815247, -0.13365551829338074, 0.0629565492272377, 0.12004870921373367, -0.5932555794715881, -0.06907930225133896, 0.040715672075748444, -0.19791452586650848, -0.02297198586165905, 0.03898227959871292, -0.03175431862473488, -0.2597208023071289, -0.11615997552871704, 0.21250665187835693, 0.04847026616334915, 0.03281597048044205, -0.21581919491291046, -0.4011460840702057, -0.0727677047252655, -0.04556340351700783, 0.017743835225701332, 0.2118500918149948, -0.004003612324595451, 0.060077447444200516, 0.04493682458996773, -0.33985623717308044, 0.14114318788051605, 0.014209595508873463, 0.29132258892059326, -0.25834906101226807, 0.11125131696462631, 0.05185675248503685, -0.10792558640241623, 0.14521574974060059, -0.12326788902282715, 0.12960480153560638, -0.20879490673542023, -0.044517893344163895, -0.11309579759836197, 0.011799952015280724, -0.02488557994365692, 0.1948600709438324, -0.11895209550857544, 0.11532753705978394], [0.035589735954999924, -0.027515025809407234, -0.6606283187866211, 0.0830674096941948, -0.08601748943328857, 0.3184656500816345, 0.05774810537695885, 0.00963415578007698, -0.02431669645011425, 0.1488417088985443, -0.03126050531864166, -0.14409156143665314, 0.12050701677799225, 0.09279434382915497, -0.028796015307307243, 0.1132865846157074, 0.058158352971076965, 0.07341841608285904, -0.028500553220510483, 0.049567800015211105, 0.007891892455518246, -0.08176294714212418, -0.006885950453579426, -0.4359275698661804, -0.058431562036275864, 0.06306590884923935, -0.01932363025844097, -0.023067377507686615, 0.08129461109638214, 0.07192868739366531, -0.004510686732828617, -0.030336227267980576, -0.06747438758611679, -0.13665230572223663, 0.1433657854795456, -0.10318479686975479, -0.0852634608745575, 0.033301617950201035, 0.08670926839113235, 0.014712140895426273, 0.036086324602365494, -0.056574128568172455, -0.7198649644851685, -0.1342187374830246, -0.05875914916396141, 0.0852241963148117, 0.06665721535682678, -0.004074223339557648], [0.5423721075057983, 0.26647159457206726, 0.3960736095905304, -0.20510981976985931, 0.4103136658668518, 0.3864313066005707, 0.07635779678821564, 0.3002065122127533, -0.11035614460706711, 0.5280901789665222, -0.2357606589794159, -0.10840268433094025, 0.2516333758831024, -1.2974241971969604, -0.6751422882080078, -0.22323377430438995, 0.1905234456062317, 0.13635005056858063, 0.159882053732872, 0.7288699150085449, -0.15544624626636505, 0.2124401181936264, 0.3734688460826874, 0.3369349241256714, -0.4500819146633148, 0.12024804204702377, 0.8682315945625305, -0.7687678933143616, 0.3278082013130188, -0.34002551436424255, 0.17858213186264038, 0.03798508271574974, -0.1568535417318344, 0.0386870875954628, 0.22839774191379547, -0.06725475937128067, 4.87670477014035e-05, 0.28912755846977234, -0.0229865200817585, 0.2057708203792572, -0.07941772788763046, 1.0240888595581055, 0.03365708515048027, -0.3068046271800995, -0.6115131378173828, 0.2687727212905884, -0.4128004312515259, -0.5621516108512878], [0.2486996054649353, -0.01949123479425907, 0.14997099339962006, -0.03666152060031891, 0.5707812905311584, 0.21053870022296906, 0.06876055896282196, 0.23988986015319824, -0.4220600426197052, -0.09430725872516632, -0.017925787717103958, -0.6030876636505127, 0.05358019098639488, 0.18443812429904938, -0.11056645959615707, 0.11443740874528885, 0.31684643030166626, 0.40695980191230774, -0.014005031436681747, 0.06388918310403824, 0.003447307739406824, 0.04807520657777786, -0.4366716146469116, 0.04865249618887901, -0.2567272484302521, 0.17239375412464142, 0.08219754695892334, 0.2065241038799286, -0.06688304245471954, 0.3070726692676544, 0.16312408447265625, 0.039745863527059555, -0.08707913756370544, -0.0520169660449028, 0.0747859850525856, -0.19257649779319763, 0.297404408454895, 0.13349471986293793, 0.7198600172996521, -0.1894276738166809, 0.0375828854739666, -0.1099151223897934, -0.18503344058990479, -0.08637204766273499, -0.12402708828449249, 0.1914355307817459, -0.38755401968955994, -0.42199230194091797], [0.12419387698173523, -0.08531881868839264, 0.6341547966003418, 0.06655566394329071, 0.3261559307575226, 0.19046205282211304, -0.07056523859500885, -0.11066275089979172, 0.07465371489524841, -0.5642179250717163, -0.016909711062908173, -0.0019280276028439403, 0.06574621051549911, 0.08387716859579086, -0.014737559482455254, 0.008780163712799549, -0.045654963701963425, 0.06624791026115417, 0.06365740299224854, 0.04117802157998085, 0.03618055209517479, 0.003987486939877272, -0.13993191719055176, 0.05494320020079613, 0.11621145159006119, 0.10197439789772034, 0.12516750395298004, -0.0024948567152023315, -0.04728541523218155, 0.06358876079320908, 0.13363084197044373, 0.1158023402094841, 0.0673663392663002, -0.14624668657779694, 0.006347388029098511, -0.10821328312158585, 0.08709999173879623, 0.008991053327918053, -0.11285503953695297, 0.01306920312345028, -0.07811736315488815, -0.0633966326713562, -0.07194342464208603, 0.1644562929868698, 0.09630807489156723, -0.0809907540678978, 0.08024923503398895, -0.3792160153388977], [-0.15452329814434052, -0.18043996393680573, 0.05676386505365372, 0.08323986083269119, 0.27479681372642517, -0.2544603943824768, -0.25518837571144104, 0.04464859515428543, 0.5504649877548218, 0.03352575749158859, 0.21584254503250122, -0.16654591262340546, 0.12419629096984863, 0.272977739572525, 0.29108718037605286, -0.0016712374053895473, 0.2362062782049179, -0.4524758458137512, -0.08112708479166031, 0.15916675329208374, -0.1943543702363968, -0.5234396457672119, 0.11107093840837479, -0.07511837035417557, -0.25534823536872864, -0.07113911956548691, 0.10619448125362396, 0.345864862203598, 0.1494889259338379, -0.6584517955780029, 0.1837063878774643, 0.07778573036193848, -0.08117306977510452, -0.01280942466109991, -0.016884194687008858, 0.04233187809586525, -0.17289920151233673, 0.1745288223028183, -0.40352657437324524, -0.27343377470970154, -0.5169676542282104, -0.042290255427360535, -0.3768998980522156, 0.05650701746344566, -0.12899675965309143, -0.22125956416130066, -0.2397538125514984, -0.12274100631475449], [0.003267063992097974, -0.03033866174519062, 0.11722332239151001, -0.05120474100112915, 0.00724352803081274, -0.8209959268569946, -0.051930803805589676, -0.12671026587486267, -0.15575316548347473, -0.07017261534929276, -0.05016205087304115, 0.0953110083937645, 0.017959147691726685, -0.007690099999308586, 0.010472318157553673, 0.018481381237506866, -0.1309462934732437, 0.012325228191912174, -0.13009607791900635, -0.017121851444244385, -0.029381774365901947, 0.07652013748884201, 0.22507403790950775, 0.15242192149162292, -0.05712262541055679, -0.09459200501441956, -0.03077671304345131, -0.11628539115190506, 0.014672485180199146, -0.27953481674194336, -0.0010136383352801204, -0.0012915779370814562, 0.17393772304058075, -0.32164710760116577, 0.13499878346920013, -0.015278011560440063, -0.1435883492231369, 0.10501706600189209, 0.16253839433193207, 0.07792572677135468, -0.18440048396587372, -0.02078838087618351, -0.7414751052856445, -0.08968071639537811, -0.010776624083518982, 0.17181631922721863, 0.020518168807029724, -0.04530110955238342], [0.16007527709007263, 0.2184092253446579, 0.14034369587898254, 0.06712377816438675, 0.04345544055104256, 0.23494520783424377, 0.034600354731082916, -0.30139726400375366, 0.2483086884021759, -0.06077776104211807, -1.0319281816482544, -0.08695175498723984, -0.17583538591861725, 0.20884589850902557, 0.10210253298282623, -0.27354398369789124, 0.0012544435448944569, -1.8115689754486084, -0.179896280169487, 0.2146131545305252, -0.18528661131858826, -0.5269697308540344, -0.1705177128314972, -0.1420469731092453, -0.10967547446489334, -0.12419050931930542, 0.03862248733639717, 0.19145753979682922, 0.15044397115707397, -0.3277983069419861, 0.04323771968483925, -0.06572394073009491, 0.14132940769195557, 0.03245670348405838, -0.12144673615694046, -0.04789327085018158, -0.16548392176628113, -0.251827210187912, 0.18713781237602234, 0.24570217728614807, 0.3693424463272095, -0.14481277763843536, 0.3380935490131378, -0.07315624505281448, 0.013508721254765987, -0.507469654083252, 0.012977762147784233, 0.021401146426796913], [0.056481219828128815, 0.04020039737224579, -0.23905153572559357, -0.11326421797275543, -0.3595641255378723, -0.07620411366224289, -0.20762793719768524, 0.13114796578884125, -0.037535037845373154, -0.07732779532670975, -0.02777106687426567, 0.17525826394557953, -0.11083817481994629, 0.25463345646858215, 0.1370285451412201, 0.06866906583309174, -0.05398698151111603, -0.0004090930742677301, -0.07915152609348297, 0.044756509363651276, -0.04544108361005783, -0.12882444262504578, 0.019624579697847366, 0.009187187999486923, -0.0043531437404453754, 0.23258449137210846, 0.06505607068538666, -0.12870639562606812, -0.09134538471698761, -0.057087697088718414, 0.1470082551240921, 0.059289321303367615, 0.05848286673426628, 0.07035976648330688, 0.11355417221784592, -0.08304083347320557, 0.20947258174419403, 0.16949620842933655, 0.0070450184866786, -0.0795372873544693, -0.009147832170128822, -0.1820632368326187, -0.001002145349048078, -0.12764985859394073, 0.4179123640060425, -0.07665946334600449, -0.024017278105020523, 0.3535749912261963], [0.17023999989032745, 0.07617472857236862, -0.02423473820090294, 0.05993165448307991, 0.042759548872709274, 0.13126012682914734, 0.022382283583283424, -0.12959948182106018, 0.011311257258057594, -0.05855557322502136, 0.02146822027862072, 0.049135368317365646, -0.076863132417202, 0.02606925740838051, -0.04312404990196228, 0.022081615403294563, -0.0014881545212119818, 0.022910621017217636, -0.11376210302114487, 0.020819123834371567, -0.021554406732320786, 0.039288654923439026, -0.07721409201622009, 0.01640813797712326, 0.06913691759109497, 0.13130836188793182, -0.08346961438655853, -0.08342679589986801, 0.11460361629724503, 0.0389631949365139, -0.09797167032957077, 0.009826848283410072, -0.11668723076581955, -0.24261276423931122, -0.025196677073836327, -0.212563157081604, 0.05537120997905731, -0.1974986344575882, 0.1134418249130249, -0.06328882277011871, -0.21737074851989746, -0.030958253890275955, -0.0013109884457662702, 0.1101294681429863, -0.022285230457782745, 0.0876976028084755, 0.13426491618156433, -0.15133851766586304], [0.2015509158372879, 0.06003383547067642, 0.08595284074544907, 0.03247150778770447, 0.07000529021024704, -0.2185945063829422, -0.11284025013446808, 0.045937299728393555, -0.0472625307738781, -0.10659731179475784, -0.08476320654153824, -0.06774158775806427, -0.02963041141629219, -0.06738287955522537, -0.33181238174438477, 0.07230079174041748, 0.2622705101966858, -0.02961142361164093, -0.0911591425538063, -0.0019513616571202874, 0.0357840321958065, -0.10560622811317444, 0.03855389729142189, 0.054383646696805954, 0.0617208369076252, -0.07166804373264313, -0.08823002129793167, 0.0012915231054648757, -0.04277855530381203, -0.029738064855337143, -0.010171810165047646, 0.060731250792741776, 0.03434906154870987, -0.129689559340477, 0.13753041625022888, -0.08396424353122711, 0.01702449470758438, -0.002593238139525056, 0.22138819098472595, -0.05594327300786972, 0.10359450429677963, -0.13449418544769287, -0.05855026841163635, -0.16105736792087555, 0.06445177644491196, -0.05621170252561569, 0.041395753622055054, -0.08443590253591537], [0.12353621423244476, 0.07138660550117493, 0.3530307710170746, 0.09025747328996658, -0.13863135874271393, -0.13808465003967285, -0.03788527101278305, 0.12680315971374512, 0.12065774947404861, -0.03467352315783501, 0.1489758938550949, 0.13925638794898987, -0.017552150413393974, 0.011160628870129585, 0.08819956332445145, -0.2609572410583496, 0.09702502936124802, -0.010301299393177032, -0.016547027975320816, -0.0494777113199234, 0.06658047437667847, 0.012223020195960999, -0.058184824883937836, 0.024277063086628914, 0.09876483678817749, 0.11721371114253998, -0.04082539305090904, 0.0032210610806941986, 0.07433903217315674, -0.06366315484046936, 0.10457930713891983, -0.0717611014842987, 0.13908617198467255, -0.19316913187503815, -0.02058456279337406, -0.1184314414858818, 0.16720841825008392, -0.06463143229484558, 0.11934870481491089, 0.07564537972211838, 0.0437588132917881, -0.022635994479060173, -0.11712422221899033, -0.1936304271221161, -0.049734048545360565, -0.057696375995874405, 0.02884678542613983, 0.03403526917099953], [-0.32444658875465393, 0.4938119351863861, 0.5287919044494629, 0.1001899465918541, 0.3325579762458801, 0.2519523799419403, 0.4014393389225006, 0.16116774082183838, 0.22617270052433014, 0.2022687941789627, 0.5358752012252808, 0.015287631191313267, 0.4579484164714813, -0.6050713062286377, -0.7879039645195007, -0.0922609195113182, 0.09497268497943878, 0.38948288559913635, -0.16941827535629272, -1.1059277057647705, -0.058381374925374985, 0.18109974265098572, 0.30202963948249817, -0.22783230245113373, 0.5642776489257812, -0.06704533100128174, 0.08438438177108765, 0.8753912448883057, 0.4164665639400482, 0.1261482834815979, -0.16227397322654724, 0.45634496212005615, 0.2795332968235016, -0.15706169605255127, -0.1581561416387558, -0.057663965970277786, 0.18340614438056946, 0.21416282653808594, -0.07184169441461563, -0.08208762109279633, 0.8735736012458801, -0.2202310711145401, 0.5810368657112122, 0.07150296866893768, -0.07939085364341736, -0.15243662893772125, -0.32717829942703247, 0.6326151490211487], [-0.03952212631702423, 0.058708421885967255, -0.1397775262594223, -0.011450650170445442, 0.058898329734802246, -0.044040754437446594, 0.03988856077194214, -0.24133293330669403, -0.04020235687494278, -0.08091945201158524, -0.16853126883506775, -0.03172960504889488, -0.042340390384197235, 0.03747430071234703, 0.06404620409011841, 0.029030660167336464, 0.4322342574596405, 0.1222594603896141, 0.026549020782113075, 0.0021906192414462566, 0.15333080291748047, -0.3589334785938263, -0.09212268888950348, 0.0897371768951416, -0.03820270672440529, 0.05145016312599182, 0.02169901505112648, -0.1482696682214737, 0.03190106526017189, -0.31601765751838684, -0.10779189318418503, -0.0304593313485384, -0.11357169598340988, -0.1910114288330078, -0.052156027406454086, 0.046283431351184845, -0.034008484333753586, 0.03321482241153717, 0.009578494355082512, -0.018038665875792503, 0.10113159567117691, -0.03915257751941681, -0.1511838734149933, 0.01787620410323143, -0.0892631784081459, 0.10148988664150238, -0.02373885177075863, 0.02059059776365757], [-0.11599700152873993, -0.003338933689519763, -1.07197904586792, 0.019906694069504738, -0.013912057504057884, 0.08162061125040054, 0.05976293981075287, -0.08687978237867355, 0.04525206610560417, 0.11035443842411041, 0.0492851659655571, -0.014527630992233753, 0.15095555782318115, 0.04028613492846489, -0.07463199645280838, -0.11294741928577423, -0.03520582616329193, -0.040702056139707565, 0.07798770815134048, -0.04581355303525925, 0.10622965544462204, -0.06339804083108902, 0.0712333619594574, 0.10264789313077927, -0.11470744758844376, 0.08568377047777176, 0.10706185549497604, 0.06458380818367004, -0.055800821632146835, -0.07636775821447372, 0.07124250382184982, 0.0642022043466568, 0.19641931354999542, -0.12317239493131638, -0.07572957128286362, -0.1496308296918869, 0.17541949450969696, 0.002040507271885872, 0.10722194612026215, -0.11622405052185059, -0.1048564612865448, 0.051965635269880295, -0.07410459220409393, -0.0668921172618866, 0.12887771427631378, -0.037714824080467224, -0.01121380552649498, 0.048974812030792236], [-0.38266706466674805, -1.0156691074371338, 0.15705657005310059, -0.8127915859222412, -0.1062094047665596, -0.37027469277381897, -0.009870416484773159, -0.31786251068115234, 0.33183175325393677, 0.20701543986797333, -0.8399620652198792, -0.11438263952732086, -0.9665778875350952, 0.41231265664100647, 0.1288621723651886, -0.08940023183822632, 0.34285762906074524, -0.14742536842823029, 0.1291654258966446, 0.7551154494285583, 0.5386936068534851, 0.08503520488739014, 0.0713697001338005, 0.35067591071128845, 0.2681983411312103, -0.35806551575660706, -0.9140028357505798, 0.25920405983924866, -0.8320851922035217, -0.46686404943466187, -0.5761545300483704, -0.7635836601257324, 0.15703806281089783, 0.0052750627510249615, 0.2609608471393585, -0.1906673163175583, 0.6536059379577637, -0.22306419909000397, -0.46385708451271057, -0.11945575475692749, 0.04658817872405052, 0.07033821195363998, 0.033315256237983704, -0.21253755688667297, -0.15298102796077728, -0.4967806041240692, 0.1345272660255432, 0.20950286090373993], [-0.06453924626111984, -0.12066168338060379, -0.20454135537147522, -0.021230828016996384, 0.11341264843940735, -0.07566773146390915, 0.14196138083934784, -0.2126065492630005, -0.10398775339126587, 0.044028617441654205, -0.09923209249973297, 0.050114721059799194, -0.07221274077892303, 0.018712958320975304, 0.0765557810664177, -0.0012402399443089962, -0.1787453591823578, 0.05818429961800575, -0.07935337722301483, 0.07917623221874237, -0.08098115772008896, -0.3393388092517853, -0.11186222732067108, 0.08537010848522186, 0.13754402101039886, 0.23247146606445312, 0.08392461389303207, 0.0941695123910904, -0.03515288606286049, -0.14941680431365967, 0.19423024356365204, 0.09863893687725067, -0.11372769623994827, -0.2542930245399475, -0.1922272890806198, 0.10413961112499237, 0.05866214632987976, 0.07335007935762405, 0.12787289917469025, 0.019168755039572716, -0.08121436089277267, -0.09878259897232056, -0.011897082440555096, 0.1655479222536087, -0.028231486678123474, -0.04592546820640564, 0.11902455240488052, -0.22384224832057953], [-0.03932518884539604, -0.040678463876247406, -0.14267632365226746, 0.0005622980534099042, -0.20973752439022064, -0.017107853665947914, 0.01629871316254139, -0.41080352663993835, -0.3466454744338989, 0.2249385416507721, -0.13659502565860748, -0.21666483581066132, 0.08376220613718033, -0.1333429515361786, -0.09638781100511551, -0.010982059873640537, -0.06496664881706238, -0.368040531873703, 0.18990550935268402, 0.03729429841041565, -0.07917147129774094, -0.1344161331653595, -0.05196799337863922, -0.12593919038772583, 0.07336687296628952, 0.05264446511864662, 0.09308438748121262, 0.04138347879052162, -0.004903549328446388, -0.04994428902864456, 0.13836897909641266, -0.08464508503675461, -0.5024084448814392, -0.15453535318374634, 0.5788733959197998, -0.14155524969100952, 0.1134364902973175, 0.05570819601416588, -0.03451431915163994, 0.0024552964605391026, 0.21779559552669525, 0.02621883526444435, 0.026555484160780907, -0.15227124094963074, 0.061082545667886734, 0.11880744993686676, 0.09168165922164917, -0.1676618903875351], [0.08458434790372849, 0.15373364090919495, 0.0706021711230278, -0.03783383592963219, -0.04714967682957649, 0.02762618660926819, 0.10271630436182022, -0.09755722433328629, -1.1736513376235962, -0.3473251461982727, 0.02229018695652485, -0.06296014785766602, -0.06516622006893158, 0.061460915952920914, -0.06338414549827576, -0.0377090647816658, -0.18318277597427368, -0.6504085659980774, -0.008407672867178917, -0.03144388273358345, 0.16494928300380707, -0.16973933577537537, 0.23115423321723938, -0.11339378356933594, -0.1332577019929886, -0.38769087195396423, -0.03482476994395256, -0.08233874291181564, 0.02916591800749302, -0.2525361478328705, 0.13171625137329102, -0.05370057746767998, 0.3537520170211792, -0.020465852692723274, 0.23098590970039368, 0.16363568603992462, 0.04029697924852371, -0.18728278577327728, 0.18762843310832977, -0.5188430547714233, -0.1962682008743286, 0.04408454895019531, -0.2475808560848236, -0.2168211042881012, 0.12041646242141724, -0.03407572954893112, -0.12442030012607574, -0.08635010570287704], [0.02923428826034069, -0.038095735013484955, 0.09634165465831757, 0.0835617259144783, 0.031730614602565765, -0.11145734786987305, -0.1260744333267212, -0.18358448147773743, 0.008038735017180443, -0.08996430784463882, 0.08461122214794159, 0.008418692275881767, -0.1890185922384262, -0.0930556207895279, 0.1517471969127655, -0.2901076376438141, -0.7437228560447693, -0.023862197995185852, -0.027390623465180397, 0.00907579343765974, -0.103426493704319, -0.2777239680290222, 0.08299652487039566, -0.09039940685033798, 0.05458097159862518, 0.07735812664031982, -0.032330505549907684, -0.17549054324626923, 0.07326600700616837, -0.24944351613521576, 0.09187612682580948, -0.023531951010227203, 0.1021740511059761, -0.2580550014972687, -0.21991616487503052, -0.2634316086769104, -0.010080068372189999, 0.0005205269553698599, 0.17618821561336517, -0.0027616736479103565, -0.07573625445365906, -0.010190475732088089, 0.09441760927438736, -0.12823732197284698, -0.04956579953432083, 0.09281690418720245, 0.00445321761071682, -0.07679785043001175], [-0.0029177446849644184, -0.04850829765200615, -0.10300996154546738, 0.16457420587539673, -0.11437185853719711, -0.23452141880989075, -0.13261674344539642, 0.00015050440561026335, 0.04092274233698845, 0.05186964198946953, -0.03203941136598587, 0.12867192924022675, -0.11099091172218323, 0.015897253528237343, 0.01320269051939249, -0.1850004345178604, -0.37624868750572205, -0.6527776122093201, -0.06616102904081345, -0.0038983519189059734, -0.17757967114448547, 0.014181617647409439, -0.03417028859257698, -0.07435944676399231, -0.033847201615571976, -0.080137699842453, -0.02703607641160488, -0.18518714606761932, 0.06702310591936111, -0.01858268491923809, -0.07866718620061874, 0.044025395065546036, -0.04245929792523384, -0.27499401569366455, -0.17898166179656982, -0.12525303661823273, 0.05271183326840401, 0.1374492347240448, 0.08830469846725464, 0.053660593926906586, -0.862452507019043, 0.007012470625340939, -0.022273989394307137, 0.06915843486785889, -0.13900820910930634, 0.1199234277009964, -0.010727127082645893, -0.036818403750658035], [0.09183493256568909, -0.10943475365638733, -0.535451352596283, -0.14007633924484253, 0.035948581993579865, 0.02866954356431961, 0.06949429214000702, -0.5605965256690979, -0.1334746927022934, -0.044724125415086746, -0.015895690768957138, -0.030026156455278397, 0.21774117648601532, 0.2599268853664398, -0.013647140935063362, -0.20330843329429626, 0.3664727807044983, 0.09401291608810425, -0.17409847676753998, 0.015674104914069176, -0.00859435647726059, -0.29657962918281555, 0.060326818376779556, 0.08892182260751724, 0.17838376760482788, 0.1320512443780899, 0.009118202142417431, -0.037735797464847565, -0.06365423649549484, -0.40340644121170044, -0.04031401872634888, 0.1025451049208641, -0.14392662048339844, 0.05202410742640495, 0.04295073077082634, 0.09628738462924957, 0.019590117037296295, 0.053601544350385666, -0.04383590444922447, -0.03580067679286003, -0.21421673893928528, -0.06435157358646393, -0.19584143161773682, -0.16745999455451965, 0.2091722935438156, 0.05749710649251938, -0.16039805114269257, 0.08059735596179962], [-0.06940027326345444, -0.16447733342647552, 0.15579980611801147, 0.0012309763114899397, 0.16361980140209198, 0.10525774210691452, -0.10767760127782822, -0.01392054371535778, -0.002242099726572633, 0.049643851816654205, 0.09595304727554321, -0.03296034783124924, 0.015571769326925278, 0.18524052202701569, 0.0070298719219863415, 0.05148785188794136, 0.024152610450983047, -0.00513394083827734, 0.08119836449623108, 0.12019769847393036, -0.05566670745611191, 0.0023863131646066904, 0.003779592690989375, -0.0019464412471279502, 0.09580273181200027, 0.0530976727604866, 0.04400560259819031, 0.02732284739613533, -0.01998754031956196, 0.028420530259609222, -0.04841391369700432, 0.060804806649684906, 0.07963827252388, 0.1454910933971405, 0.005279012955725193, -0.07018343359231949, -0.09680277854204178, -0.029695535078644753, 0.038700707256793976, -0.022537540644407272, 0.017005156725645065, -0.08674238622188568, 0.19991709291934967, -0.13145935535430908, -0.03593364730477333, 0.2102140337228775, -0.17298494279384613, -0.010176335461437702], [-0.004317131359130144, -0.2109387069940567, 0.04966932162642479, 0.10522482544183731, 0.10174764692783356, -0.5144733190536499, -0.13985367119312286, 0.21841765940189362, -0.019091114401817322, -0.18473364412784576, -0.36578238010406494, -0.3709670305252075, 0.16075409948825836, -0.004027169197797775, 0.0158136747777462, -0.20368866622447968, -0.010324477218091488, 0.04280364513397217, 0.002327100606635213, -0.03090515546500683, 0.05998251959681511, 0.052096519619226456, 0.061661116778850555, 0.0010964293032884598, 0.08829744160175323, -0.5685697197914124, 0.0400574691593647, 0.07908263057470322, -0.3598504960536957, 0.0773298442363739, 0.3526131212711334, -0.16325516998767853, -0.03586956486105919, -0.33698770403862, 0.11488749831914902, 0.09277574717998505, 0.05478689819574356, 0.003277876880019903, 0.0010602697730064392, -0.11193904280662537, 0.22379693388938904, 0.08087803423404694, -0.17258556187152863, -0.15164156258106232, 0.03281613439321518, -0.05358865484595299, 0.14500759541988373, -0.24289260804653168], [-0.030323125422000885, -0.013107412494719028, 0.5720261335372925, 0.06558354198932648, -0.04963832348585129, 0.001011345535516739, 0.009811099618673325, -0.04822259023785591, -0.12523843348026276, -0.036373384296894073, 0.1021665632724762, -0.043405160307884216, 0.033629875630140305, 0.07155343890190125, 0.05343659967184067, -0.20709511637687683, 0.14529600739479065, 0.051063135266304016, 0.2598371207714081, 0.09700622409582138, 0.05194811522960663, 0.13529129326343536, -0.04937225580215454, 0.020887497812509537, 0.032266028225421906, 0.12842504680156708, 0.10541965067386627, 0.09676505625247955, 0.05590411275625229, 0.08107677102088928, 0.12084794044494629, -0.09356699883937836, 0.011644130572676659, -0.09127545356750488, 0.10459136217832565, -0.003560455981642008, -0.05666625499725342, 0.03441028296947479, 0.1455158144235611, -0.11822167783975601, -0.11012312769889832, -0.07452864944934845, 0.03567422181367874, -0.19960537552833557, 0.14836591482162476, -0.017041804268956184, -0.03522808104753494, -0.0005812447634525597], [0.10196682810783386, -0.06802432984113693, -0.2881062924861908, 0.04208426550030708, -0.1327928602695465, -0.09979312121868134, -0.20164963603019714, 0.26373812556266785, -0.15733766555786133, -0.011025582440197468, 0.018520250916481018, 0.13824275135993958, 0.10403981804847717, 0.032422177493572235, 0.12452468276023865, -0.1595926135778427, 0.2457750290632248, -0.06760779023170471, 0.011302663944661617, 0.13758385181427002, 0.09251666069030762, 0.10179480165243149, 0.03882240876555443, -0.4406156539916992, -0.06305526942014694, 0.09967217594385147, 0.06360852718353271, 0.06703421473503113, 0.09954515844583511, 0.018259810283780098, 0.09067261219024658, 0.08077754825353622, -0.16028210520744324, -0.06543692946434021, 0.03686472773551941, -0.11499371379613876, -0.0671328529715538, -0.136071115732193, 0.11638402938842773, 0.049336761236190796, 0.005728274583816528, -0.18742632865905762, -0.9082112312316895, 0.01972102001309395, 0.1054007038474083, -0.05759308487176895, 0.0025785237085074186, 0.03823230415582657], [-0.18329881131649017, -0.005110638216137886, -0.22960366308689117, 0.025306468829512596, -0.0681663230061531, -0.1805596798658371, 0.14584335684776306, -0.0425243154168129, 0.10067655146121979, -0.2200254648923874, 0.09901604801416397, 0.05182351544499397, -0.04084918648004532, -0.05982673913240433, 0.04743880033493042, -0.12355166673660278, 0.12660007178783417, 0.00986137893050909, -0.07294680178165436, -0.0017983407014980912, 0.08759430795907974, 0.12464199215173721, -0.18889844417572021, 0.10140135139226913, -0.13560590147972107, 0.2348688393831253, 0.03950394317507744, 0.07878417521715164, -0.13811291754245758, -0.015193049795925617, 0.12494447827339172, 0.03989781066775322, 0.04993516951799393, 0.21229666471481323, 0.061143819242715836, 0.03714165836572647, 0.04705752059817314, 0.026187308132648468, -0.018020233139395714, -0.04701797664165497, -0.05139084905385971, -0.03270196169614792, -0.01428623404353857, -0.18328115344047546, -0.09466103464365005, -0.07700061053037643, 0.23023578524589539, -0.20329129695892334], [-0.10731981694698334, -0.08837874978780746, -0.33169832825660706, -0.028281696140766144, 0.04507334902882576, 0.004999615252017975, 0.023374764248728752, -0.014778487384319305, -0.09590283036231995, 0.27495327591896057, -0.2070995718240738, -0.10642378032207489, -0.07187642902135849, -0.04399830102920532, 0.06613253057003021, -0.1304328590631485, 0.03193599730730057, 0.00010066483810078353, 0.14007911086082458, 0.0625922828912735, 0.060143064707517624, 0.012369698844850063, -0.03972207382321358, -0.2189626544713974, -0.10715874284505844, 0.19683101773262024, 0.07120490819215775, 0.169648677110672, 0.09915505349636078, 0.10437661409378052, 0.013870198279619217, 0.07655485719442368, 0.19445624947547913, -0.3067246973514557, 0.10070032626390457, -0.1482163667678833, -0.06752800941467285, -0.036146633327007294, 0.0035834622103720903, 0.004330160096287727, 0.07181643694639206, -0.05838954448699951, 0.0642339289188385, -0.005896356888115406, -0.1775665581226349, 0.17494623363018036, 0.3268757462501526, -0.1745561808347702], [-0.012502226047217846, -0.021145420148968697, -1.0314538478851318, -0.008718310855329037, -0.2716458737850189, -0.14037573337554932, 0.18005259335041046, -0.09155110269784927, -0.057737573981285095, 0.01789865642786026, -0.038629043847322464, 0.03559015318751335, 0.02563449740409851, 0.11644025892019272, 0.06704502552747726, -0.12529784440994263, 0.02123606763780117, 0.07788713276386261, 0.029989050701260567, 0.03886006399989128, 0.0008878547814674675, 0.11958213150501251, -0.04338698089122772, 1.1902397871017456, 0.008851762861013412, 0.029935108497738838, 0.0721052885055542, -0.4324865937232971, -0.07964462786912918, 0.07804160565137863, 0.17236393690109253, -0.0696636214852333, 0.029616020619869232, -0.12952829897403717, 0.07616133987903595, -0.009053527377545834, -0.048110056668519974, 0.11035999655723572, 0.012055215425789356, 0.035380154848098755, -0.005616810172796249, -0.06254252046346664, 0.32316431403160095, -0.11630113422870636, 0.11780184507369995, 0.17860668897628784, -0.8743371367454529, -0.053433243185281754], [0.010591831989586353, -0.15588639676570892, -0.18131595849990845, 0.09399177879095078, 0.1015629768371582, -0.07464127987623215, -0.024717647582292557, -0.12071848660707474, 0.15601162612438202, 0.15340885519981384, -0.23256327211856842, 0.12630857527256012, -0.10099238157272339, 0.01610279083251953, -0.09542524069547653, 0.04951891303062439, 0.01732957363128662, 0.11539847403764725, 0.08771353214979172, 0.04816669598221779, 0.07197102904319763, 0.3316394090652466, 0.0294729545712471, -0.534593939781189, 0.12156637012958527, 0.02302267774939537, 0.01788969337940216, -0.003920475486665964, 0.04235847666859627, 0.42814943194389343, -0.06021478399634361, -0.012304185889661312, 0.1038685142993927, -0.07997529953718185, -0.021995272487401962, 0.06957729905843735, -0.01432226411998272, -0.06697706133127213, -0.09792206436395645, 0.3183399736881256, 0.19194725155830383, -0.05716816708445549, -0.02561943046748638, -0.20917795598506927, -0.07347173988819122, -0.24251271784305573, 0.17906108498573303, 0.07413708418607712], [0.023108255118131638, 0.031043047085404396, -0.28468817472457886, -0.04612519592046738, -0.5318912863731384, -0.1477849930524826, -0.0634971410036087, -0.274867981672287, 0.149830162525177, 0.08420390635728836, 0.06945472210645676, -0.067464180290699, -0.0005912957130931318, 0.00452402513474226, 0.2399156540632248, 0.07417239248752594, -0.15476131439208984, -0.1507028192281723, 0.16113175451755524, 0.07509692013263702, -0.13297292590141296, 0.1118004098534584, 0.033244017511606216, -0.2895926237106323, 0.07120438665151596, 0.018168672919273376, 0.10603611171245575, -0.025221390649676323, 0.030326509848237038, 0.1179056465625763, -0.1749061495065689, -0.0314718522131443, -0.3661130666732788, 0.1544562429189682, 0.20354360342025757, 0.14370405673980713, 0.13910731673240662, 0.06481708586215973, 0.055367860943078995, 0.09873465448617935, 0.17567665874958038, 0.12804928421974182, -0.21043473482131958, -0.12817415595054626, 0.21954680979251862, 0.22666625678539276, -0.044042687863111496, 0.07201756536960602], [0.01619408279657364, -0.019999846816062927, -1.8454493284225464, 0.1014837771654129, 0.0747326910495758, 0.19692429900169373, 0.13996891677379608, -0.07222583144903183, 0.18680286407470703, -0.09384927898645401, -0.339346319437027, -0.17985549569129944, 0.0632106140255928, 0.07479484379291534, 0.07958207279443741, -0.12067785114049911, 0.061721157282590866, 0.06230393797159195, -0.49094706773757935, -0.07468020915985107, 0.09335900098085403, -0.07998913526535034, 0.07532054930925369, 0.15395382046699524, -0.09339073300361633, -0.054920852184295654, -0.007220602594316006, -0.2257087379693985, -0.1061372458934784, 0.005165698938071728, -0.01942247524857521, -0.1219480112195015, 0.009740964509546757, -0.01897919923067093, -0.15821537375450134, -0.16352172195911407, 0.20445767045021057, -0.05328879505395889, 0.02554257959127426, -0.14942282438278198, 0.0029673443641513586, 0.13936591148376465, -0.16673293709754944, 0.02712547406554222, 0.10783819109201431, 0.02657516859471798, -0.0732630267739296, 0.09107738733291626], [0.03568083047866821, -0.012496509589254856, -0.13061495125293732, 0.06317474693059921, 0.10450951009988785, -0.12431354075670242, -0.11089947074651718, -0.05203768238425255, 0.027850190177559853, -0.05268466845154762, -0.18880553543567657, 0.0250107254832983, -0.0878201425075531, -0.0607498437166214, 0.15674087405204773, -0.2842128574848175, -0.19787374138832092, 0.5634417533874512, -0.0892544612288475, 0.0417136624455452, 0.03591195121407509, 0.08356644213199615, 0.045905642211437225, 0.08521141856908798, 0.002842437010258436, 0.14929789304733276, 0.029662268236279488, 0.026333238929510117, 0.006465556565672159, 0.163879856467247, -0.022146696224808693, -0.07949572801589966, -0.029820997267961502, 0.09434317797422409, 0.036487627774477005, 0.2013624906539917, 0.00415249215438962, 0.026379752904176712, -0.197454571723938, 0.00557030038908124, -0.6032475233078003, -0.049672890454530716, -0.027038153260946274, -0.08544109761714935, -0.05669151619076729, 0.16367453336715698, -0.06509297341108322, -0.16237317025661469], [-0.018797792494297028, -0.11313774436712265, -0.1086619570851326, 0.1225728988647461, 0.12317590415477753, -0.1807272881269455, 0.2227802574634552, 0.013266010209918022, 0.49133628606796265, 0.1840628832578659, 0.062351468950510025, 0.07962151616811752, 0.06353863328695297, 0.0140508022159338, -0.16646136343479156, 0.001625420176424086, 0.20913927257061005, -0.2643870711326599, 0.1683807224035263, -0.08967167139053345, -0.023372380062937737, -0.017138609662652016, 0.03325623273849487, -0.22242404520511627, -0.06380452960729599, -0.10258415341377258, -0.07483065873384476, -0.39957404136657715, -0.12799470126628876, 0.1924264132976532, -0.04416702315211296, 0.004091418813914061, 0.2636536955833435, 0.14550602436065674, -0.029346728697419167, 0.02006729692220688, 0.1656300574541092, -0.2796728014945984, 0.11294152587652206, 0.6122233867645264, -0.0131519865244627, -0.019934218376874924, 0.3884257376194, -0.2456660121679306, 0.18458975851535797, -0.40097931027412415, -0.11583618074655533, -0.40219005942344666], [0.15478825569152832, 0.05504046753048897, -0.16891853511333466, -0.24677889049053192, -0.09684572368860245, -0.09316763281822205, -0.41251182556152344, -0.07068918645381927, -0.17833258211612701, -0.030851969495415688, 0.09617520123720169, 0.176157608628273, 0.13507550954818726, 0.04172997176647186, -0.06237630546092987, -0.17026884853839874, 0.42951351404190063, -0.052465878427028656, -0.03440605103969574, -0.02402435429394245, -0.0682348683476448, -0.29049152135849, 0.10454492270946503, -0.10554312914609909, -0.23576194047927856, 0.00887595396488905, -0.028212442994117737, 0.013598966412246227, 0.08426200598478317, -0.19006726145744324, 0.001482647261582315, 0.09338192641735077, 0.3323429822921753, -0.26433077454566956, 0.16238516569137573, 0.03873147815465927, 0.04454675316810608, 0.54857337474823, -0.21975846588611603, -0.11687774956226349, -1.85764479637146, 0.05399717018008232, 0.12460961192846298, 0.12494084239006042, 0.020603349432349205, 0.09848225861787796, 0.011327151209115982, 0.18992899358272552], [-0.11712957173585892, -0.021122202277183533, -0.3550046682357788, 0.09935252368450165, -0.13898102939128876, 0.12264396250247955, -0.9761226177215576, -0.6967480182647705, -0.5480135679244995, -0.10635915398597717, 0.2400262951850891, -0.0764496922492981, 0.09073971956968307, -0.006189398001879454, -0.08071757853031158, -0.13456128537654877, 0.7555970549583435, -0.32273486256599426, -0.005210108123719692, 0.012468181550502777, 0.09108256548643112, 0.04302733391523361, -0.024880213662981987, -0.31528812646865845, 0.23980651795864105, -0.06920471042394638, 0.046509888023138046, -0.005566851235926151, 0.040631625801324844, -0.3634324073791504, -0.1263768970966339, -0.05915568396449089, -0.42377960681915283, -0.27360042929649353, 0.06516429781913757, -0.22069382667541504, 0.054575223475694656, -0.03769262507557869, -0.14991125464439392, -0.21166642010211945, -0.0856914222240448, -0.10899772495031357, 0.06717788428068161, -0.07365936785936356, 0.2094353437423706, 0.04736396670341492, -0.093407541513443, -0.0709729939699173], [0.055017318576574326, -0.10476212203502655, -0.022877760231494904, 0.20739389955997467, -0.038226183503866196, 0.14224787056446075, -0.11767399311065674, 0.41909101605415344, 0.353341281414032, 0.15230384469032288, -0.14047881960868835, 0.06461149454116821, 0.17212726175785065, -0.10059335827827454, -0.1498090922832489, 0.06905537843704224, -0.08214060962200165, 0.11651778221130371, 0.3213558793067932, 0.09701648354530334, 0.5850138664245605, -0.029489554464817047, -0.10713224112987518, 0.4118810296058655, 0.03618404269218445, -0.8371779322624207, 0.1124580055475235, 0.21562430262565613, -0.05127101019024849, 0.14453738927841187, 0.07571980357170105, 0.038289446383714676, 0.14933612942695618, -0.16243332624435425, -0.3872654438018799, -0.017826862633228302, -0.12154034525156021, -0.14965936541557312, 0.1349654197692871, 0.026002930477261543, -1.1388728618621826, -0.09856411814689636, -0.244816854596138, -0.05872592329978943, -0.10841186344623566, -0.20245949923992157, -0.09636334329843521, -0.1699700653553009], [0.040265146642923355, 0.14242956042289734, -0.05885675176978111, -0.002655674470588565, 0.08595301955938339, -0.03172371909022331, -0.011384684592485428, -0.09634240716695786, 0.15856602787971497, 0.108344666659832, 0.13630521297454834, 0.2354031801223755, -0.003049982013180852, -0.03986012935638428, 0.1911390870809555, -0.22875410318374634, 0.05462441220879555, -0.03502170369029045, 0.05548391118645668, -0.020963363349437714, 0.12648403644561768, 0.13607282936573029, -0.11045191437005997, 0.10402517020702362, 0.08083119988441467, -0.032516855746507645, 0.12797702848911285, -0.0023723160848021507, -0.016296543180942535, -0.06799019128084183, -0.00934868585318327, 0.05877716839313507, -0.053355857729911804, 0.14901283383369446, 0.042058367282152176, 0.16507725417613983, -0.07059092819690704, -0.03452064096927643, -0.10124307870864868, 0.03131997957825661, -0.009227811358869076, 0.0954444631934166, -0.1950354427099228, 0.14361654222011566, 0.05779843032360077, 0.016084814444184303, 0.11562784761190414, 0.10036659240722656], [-0.04996735602617264, -0.04179986193776131, 0.11426632106304169, -0.2223280668258667, 0.1084352657198906, -0.0900321751832962, -0.3837958872318268, -0.0344734750688076, 0.3888789713382721, -0.2172977477312088, -0.14523710310459137, -0.17060264945030212, -0.1133999451994896, 0.11220858246088028, 0.25676438212394714, 0.06066272035241127, -0.12747794389724731, -0.04703763127326965, 0.10793886333703995, 0.15873271226882935, -0.18148945271968842, -0.15390415489673615, 0.04440547525882721, -0.1482623964548111, -0.07483088970184326, -0.20389661192893982, 0.13416366279125214, 0.3195044994354248, -0.04508913308382034, 0.0680561512708664, -0.05056527256965637, -0.06944940239191055, -0.20459996163845062, -0.33420297503471375, -0.1288336217403412, -0.23250266909599304, -0.047170236706733704, 0.07005304098129272, 0.018782876431941986, 0.028039876371622086, -0.1841656118631363, -0.10656848549842834, 0.20425008237361908, -0.2286985218524933, 0.0021446661558002234, -0.14724385738372803, -0.08852449804544449, 0.040986888110637665], [-0.047939375042915344, -0.06589806824922562, -0.16667169332504272, -0.0024217695463448763, -0.020823286846280098, -0.6240553855895996, 0.03957849740982056, -0.17111392319202423, 0.05565354973077774, -0.013864308595657349, 0.11313173919916153, 0.00141892209649086, 0.03039477951824665, -0.02960919216275215, 0.04246988892555237, -0.07117293775081635, -0.1086469367146492, -0.053598225116729736, -0.044071733951568604, 0.07287771999835968, -0.014137327671051025, -0.03989383950829506, 0.05619492381811142, 0.48338088393211365, -0.14932221174240112, 0.058410681784152985, 0.04681653156876564, 0.1128554418683052, -0.012839901261031628, 0.006162072531878948, -0.22190824151039124, -0.030216848477721214, 0.08991985023021698, -0.26805779337882996, 0.08484913408756256, 0.07887831330299377, -0.021312540397047997, -0.13346025347709656, 0.024774219840765, 0.03465712070465088, 0.0835883766412735, -0.05619490146636963, -0.7128391861915588, -0.10408966988325119, 0.01486926805227995, 0.08226288110017776, -0.1928325742483139, -0.03937903419137001], [-0.1896093636751175, 0.054303936660289764, -0.6265645027160645, 0.05079497769474983, -0.22185486555099487, -0.2811760902404785, 0.03270500898361206, -0.06525655835866928, -0.007521502207964659, 0.00010596516949590296, 0.1446373611688614, -0.025511201471090317, 0.07404611259698868, 0.09912669658660889, 0.07167911529541016, -0.16086070239543915, -0.5221076011657715, 0.09462803602218628, -0.045383527874946594, -0.248647078871727, -0.08684234321117401, -0.10451458394527435, -0.025366472080349922, -0.07060221582651138, -0.04271208122372627, 0.08691404014825821, -0.20224221050739288, -2.01004958152771, -0.053436100482940674, -0.016624629497528076, 0.053722985088825226, -0.101777084171772, -0.20406469702720642, -0.15998508036136627, 0.023856528103351593, -0.15538863837718964, 0.10503694415092468, -0.14655302464962006, 0.03880922868847847, -0.0013692129869014025, -0.26356837153434753, -0.05403590947389603, -0.2193925827741623, 0.013481100089848042, -0.007469522301107645, -0.06797818094491959, 0.010847230441868305, 0.17344912886619568], [-0.035799216479063034, 0.5523870587348938, 0.14585994184017181, 0.733235239982605, 0.15559199452400208, -0.2585875988006592, -0.2915247678756714, -0.34624436497688293, 0.24394914507865906, -0.5762854814529419, 0.480010986328125, -1.8973610401153564, 0.5384587645530701, 0.13674777746200562, -0.04498482868075371, -0.18922901153564453, 0.04493679851293564, 0.23683728277683258, -0.07655497640371323, -0.7107099294662476, -0.2960332930088043, 0.4732893705368042, 0.41433820128440857, -0.2095041126012802, -0.015250461176037788, 0.3721659779548645, 0.4398186504840851, 1.200818657875061, 0.6413640975952148, 0.20977073907852173, 0.1235833615064621, 0.8315318822860718, 0.14937905967235565, -0.017822980880737305, -0.15383154153823853, -0.16166731715202332, -0.2972484529018402, -0.2799101173877716, -0.2545785903930664, 0.0035214710514992476, -0.04077175259590149, -0.4312303364276886, 0.10176589339971542, -0.05267929285764694, 0.08539563417434692, -0.29597488045692444, 0.3278195261955261, 0.4002690613269806], [-0.05682091787457466, 0.022916514426469803, -0.039596639573574066, -0.008294373750686646, -0.286990225315094, 0.12681156396865845, -0.10193829238414764, -0.018620338290929794, -0.42842912673950195, -0.17966778576374054, -0.041416235268116, 0.03692902252078056, 0.11311713606119156, -0.07723023742437363, -0.03138023987412453, -0.24863336980342865, -0.13517826795578003, 0.15300363302230835, 0.04624534025788307, 0.030733365565538406, 0.11399373412132263, -0.012784918770194054, -0.006683101877570152, 0.10101368278265, 0.03228682652115822, 0.13851198554039001, 0.007842643186450005, 0.06674720346927643, -0.0010001935297623277, -0.012549424543976784, 0.09534674137830734, -0.041798558086156845, -0.6958750486373901, -0.16146908700466156, -0.520652174949646, -0.1242578849196434, -0.1101723238825798, 0.10844269394874573, -0.12328487634658813, -0.5134617686271667, -0.1769142597913742, 0.016972117125988007, -0.0036394004710018635, 0.06924205273389816, 0.0015635238960385323, 0.028390858322381973, -0.1665383130311966, -0.05682811513543129], [0.17266049981117249, -0.0723729059100151, -0.15201330184936523, -0.21140863001346588, -0.3763178884983063, -0.22060880064964294, 0.07900410890579224, 0.13784141838550568, -0.21685989201068878, -0.09257588535547256, 0.0030576728750020266, 0.26598086953163147, -0.1955149918794632, -0.10358002036809921, -0.027309158816933632, 0.003226815490052104, 0.5746502876281738, 0.023864520713686943, -0.1706656664609909, -0.0945383757352829, 0.2534274458885193, 0.04700570926070213, -0.300840824842453, 0.3172583281993866, 0.31496965885162354, -0.08864496648311615, -0.12029913812875748, 0.13534066081047058, -0.3089260458946228, 0.18792498111724854, -0.1679195910692215, -0.17431363463401794, 0.3035140335559845, -0.1277574896812439, 0.045587386935949326, -0.1366468071937561, 0.020966321229934692, -0.43931108713150024, 0.10914090275764465, 0.02747790701687336, 0.377556174993515, -0.021460454910993576, -0.3751508891582489, 0.08460360765457153, 0.13692714273929596, 0.11286406219005585, 0.028756646439433098, -0.11031282693147659], [0.02730625495314598, -0.0963142141699791, -0.17863905429840088, 0.07667475193738937, 0.14107687771320343, 0.11283689737319946, -0.2541605830192566, -0.09578102827072144, -0.20774735510349274, 0.03935939073562622, -0.16795742511749268, 0.01050181407481432, 0.08685283362865448, -0.1617397964000702, -0.10654651373624802, -0.11677410453557968, -0.1897561252117157, -0.18608327209949493, -0.10528086870908737, 0.09583093971014023, -0.00093909224960953, 0.02375219389796257, -0.30117669701576233, -7.171599281718954e-05, 0.06210910528898239, -0.1284094601869583, 0.07682514935731888, 0.052377358078956604, 0.08801142871379852, 0.06758066266775131, 0.153016597032547, -0.05899115651845932, -0.4329618215560913, -0.09897378087043762, -0.03262658417224884, 0.11398492753505707, -0.08629891276359558, 0.18595366179943085, 0.15079112350940704, -0.3905177712440491, -0.20805813372135162, -0.04983912780880928, 0.09769637137651443, 0.065247543156147, -0.08305007219314575, 0.22880245745182037, 0.010986256413161755, -0.002423242898657918], [0.09085138142108917, -0.03502832353115082, 0.05969957634806633, 0.06872592121362686, -0.11500662565231323, -0.10910726338624954, 0.06468653678894043, -0.5024482011795044, -0.1039719507098198, 0.14558802545070648, -0.03348960354924202, -0.05926593765616417, -0.14238595962524414, -0.03316498547792435, -0.08052796125411987, 0.03194665536284447, 0.09509775042533875, 0.04806423932313919, -0.08916585147380829, 0.027927283197641373, -0.10980972647666931, 0.16924454271793365, -0.12658005952835083, -0.20107969641685486, 0.10061976313591003, -0.23640374839305878, -0.025399520993232727, -0.09284269064664841, 0.19266802072525024, 0.34408560395240784, 0.03764692321419716, 0.02847827598452568, 0.198117196559906, -0.013304605148732662, 0.0676875188946724, -0.0744505301117897, -0.003122462658211589, -0.16563333570957184, 0.15956035256385803, 0.34098565578460693, -0.0072577763348817825, -0.06392928957939148, 0.17453661561012268, -0.16331987082958221, 0.11937664449214935, -0.40092313289642334, 0.02710704877972603, -0.028817949816584587], [0.1404479295015335, 0.060497794300317764, 0.059647392481565475, 0.008230108767747879, -0.15962587296962738, -0.031967855989933014, 0.012114210985600948, 0.10374188423156738, -0.2732439637184143, 0.04054632410407066, 0.3027345538139343, 0.009267582558095455, 0.17930953204631805, 0.21299907565116882, 0.059415679425001144, -0.1981678009033203, -0.06962727755308151, -0.12130076438188553, -0.2583555281162262, 0.056234560906887054, 0.004314095247536898, -0.36810052394866943, -0.033675506711006165, -0.052297454327344894, -0.18007899820804596, -0.03143242374062538, -0.017055191099643707, 0.047655072063207626, 0.006029288284480572, -0.16615499556064606, 0.24886319041252136, 0.07815926522016525, 0.09958253055810928, -0.17092876136302948, -0.0668078362941742, -0.13336138427257538, -0.08007801324129105, 0.06087569519877434, 0.03615542873740196, -0.903111457824707, 0.06759874522686005, -0.0736268162727356, 0.3804386854171753, -0.15900194644927979, -0.04877964407205582, 0.36822065711021423, 0.043986231088638306, -0.011384498327970505], [-0.09523271769285202, 9.35725329327397e-05, 0.027206256985664368, -0.026307595893740654, -0.08418793231248856, -0.07771814614534378, -0.12537038326263428, -0.003999894950538874, 0.1262747049331665, 0.0014887164579704404, 0.03547525778412819, 0.045889679342508316, -0.05436563119292259, 0.15691907703876495, 0.09633932262659073, -0.16615132987499237, -0.012787817046046257, -0.032830920070409775, -0.014648481272161007, 0.11245416849851608, -0.03593005985021591, -0.11433876305818558, -0.09844300150871277, 0.002631979761645198, 0.06568816304206848, 0.07528890669345856, 0.09387361258268356, 0.01491399947553873, 0.04029560834169388, -0.07898563146591187, -0.000846235838253051, 0.06718038022518158, -0.08605429530143738, -0.09261583536863327, 0.060959864407777786, -0.25116103887557983, -0.0853748470544815, 0.002920069033280015, -0.08237343281507492, 0.03847712278366089, -0.058190543204545975, -0.05860287696123123, 0.06810860335826874, -0.08377595990896225, -0.01506628468632698, -0.12344018369913101, -0.0763912945985794, -0.0018984752241522074], [-0.08391634374856949, -0.06958877295255661, 0.01457941997796297, 0.12484488636255264, 0.010667789727449417, 0.02986602485179901, -0.40857237577438354, 0.09046714752912521, -1.6149526834487915, -0.25429046154022217, 0.26454031467437744, 0.19039113819599152, -0.11367274075746536, -0.057521361857652664, -0.12822431325912476, 0.01942816562950611, -0.05770731717348099, -0.05531618744134903, -0.06221235916018486, -0.04374847188591957, -0.0669802874326706, 0.09732936322689056, -0.19578351080417633, 0.012714882381260395, 0.06318386644124985, -0.07763407379388809, -0.0831172987818718, -0.077431321144104, 0.14788657426834106, -0.0913517028093338, 0.12516431510448456, 0.03984608128666878, -0.0046608238480985165, -0.010137630626559258, 0.0497259646654129, -0.24643319845199585, -0.12315600365400314, 0.020197954028844833, -0.43150320649147034, 0.03419532999396324, 0.11681604385375977, 0.04846884682774544, 0.015179178677499294, -0.14172865450382233, -0.10975943505764008, -0.015498725697398186, 0.290041446685791, -0.13131050765514374], [-0.11505246162414551, 0.1504809856414795, 0.29331791400909424, -0.6723927855491638, -0.22757680714130402, 0.4662138819694519, 0.8738873600959778, 0.3346613943576813, -0.604211688041687, -6.378535270690918, -0.345927357673645, 0.08084291219711304, -0.19243980944156647, 0.06970490515232086, 0.13757547736167908, -0.15250781178474426, -0.6507903933525085, -1.666752815246582, 0.11992892622947693, 0.17642973363399506, 0.16514895856380463, -0.8979361057281494, -0.09254167228937149, 0.14981181919574738, 0.26850825548171997, -0.12020233273506165, 0.020050207152962685, 0.0650680810213089, 0.10801568627357483, -4.366448402404785, -0.3069232404232025, 0.4398220181465149, 0.06358415633440018, -0.19159215688705444, 0.19430018961429596, -0.19944186508655548, 0.0834459736943245, -0.14759886264801025, -0.24298258125782013, -7.357977390289307, -0.0798407718539238, -0.017489023506641388, -0.7560960650444031, -0.23626413941383362, 0.28221145272254944, -0.14077052474021912, 0.26349490880966187, 0.10602378100156784], [0.03369826078414917, 0.003359330352395773, -0.19662590324878693, 0.004509280901402235, 0.023412805050611496, 0.0006099554011598229, 0.06337789446115494, -0.16472111642360687, -0.1790710985660553, -0.03126838058233261, -0.04928600788116455, -0.014549226500093937, 0.015445674769580364, 0.1622382402420044, 0.27273979783058167, -0.13240891695022583, -0.274895042181015, 0.0663754791021347, -0.10332752019166946, 0.10243218392133713, -0.016581760719418526, -0.18875735998153687, -0.079182468354702, 0.07288828492164612, 0.03985413536429405, 0.0231257826089859, 0.08736395090818405, 0.06764592230319977, 0.03786437585949898, -0.2509557008743286, 0.10310383141040802, -0.08322817087173462, -0.12105841189622879, -0.09819302707910538, 0.05327284336090088, -0.06511892378330231, -0.06537101417779922, -0.05120512470602989, -0.012470867484807968, -0.07761536538600922, -0.06744033098220825, -0.030552685260772705, 0.11275087296962738, 0.019544705748558044, -0.08453910797834396, 0.09257946908473969, 0.14207470417022705, 0.021845513954758644], [0.15843617916107178, -0.006433745380491018, 0.05361335352063179, 0.062062133103609085, -0.16531157493591309, 0.009475335478782654, -0.1904917061328888, 0.3780139684677124, -0.20383261144161224, -0.04266263172030449, 0.01996581442654133, -0.04238252714276314, 0.013926212675869465, 0.01488382276147604, 0.035881198942661285, 0.007201515603810549, -0.03312849998474121, -0.0070508006028831005, 0.04163001850247383, 0.011787084862589836, -0.08782101422548294, -0.7747176885604858, 0.014426620677113533, 0.031577881425619125, 0.016828477382659912, -0.10776609182357788, -0.027017442509531975, -0.024911826476454735, 0.031105877831578255, -0.11387037485837936, -0.03246557340025902, 0.021037181839346886, 0.09367760270833969, -0.11606894433498383, -0.04015772044658661, -0.2715153992176056, 0.10118706524372101, 0.058535587042570114, 0.20362494885921478, 0.10133074969053268, 0.06364472955465317, 0.10144153982400894, -0.12819650769233704, 0.020608186721801758, 0.06367681175470352, 0.0035126875154674053, -0.3097880184650421, -0.03345923498272896], [-0.17442826926708221, -0.0029868220444768667, -0.35706013441085815, -0.01757383719086647, -0.05965036898851395, -0.0014140898128971457, 0.06298493593931198, -0.06044894456863403, 0.06421779096126556, 0.0809624046087265, -0.09452573210000992, 0.04424546658992767, 0.0667455792427063, 0.01363545935600996, 0.0585513599216938, -0.32864174246788025, 0.07629355788230896, 0.016327273100614548, -0.025223329663276672, 0.04016400873661041, -0.005980223882943392, 0.013584017753601074, -0.17069102823734283, 0.04129563271999359, -0.1404893547296524, 0.0006494027329608798, 0.07003404200077057, 0.029839975759387016, -0.014350734651088715, 0.030614325776696205, -0.1533193141222, 0.02336255833506584, -0.04956713318824768, -0.20333552360534668, -0.017225919291377068, -0.22723788022994995, 0.025688929483294487, -0.036211393773555756, -0.11160428076982498, -0.027026796713471413, -0.05781707912683487, 0.067088283598423, 0.1933247298002243, -0.16232970356941223, -0.12186204642057419, 0.05220368131995201, 0.07054880261421204, 0.009592976421117783], [0.1885044276714325, 0.05038411542773247, -0.035115908831357956, -0.2273971289396286, -0.19387765228748322, 0.3829774558544159, -0.011978907510638237, -0.17975690960884094, 0.10612846165895462, -0.07750112563371658, 0.3082634210586548, -0.2883348762989044, -0.0034851841628551483, 0.2357570081949234, -0.22979536652565002, 0.03743915632367134, -0.6237019896507263, -0.3104013502597809, 0.08661603927612305, -0.08709784597158432, -0.1348184198141098, -0.031431231647729874, 0.12934882938861847, 0.08376402407884598, 0.04049365967512131, 0.0033746117260307074, -0.07893913239240646, -0.2631360590457916, 0.042931441217660904, 0.00999816507101059, -0.19735094904899597, -0.05150563642382622, -0.03319986164569855, 0.136679008603096, -0.013123978860676289, 0.16028878092765808, 0.16294193267822266, -0.1969623863697052, 0.07893252372741699, 0.1492321938276291, -0.8859423398971558, 0.12124983966350555, 0.07746125757694244, -0.10683679580688477, 0.258232444524765, -0.1502063125371933, 0.19689035415649414, 0.1263604760169983], [-0.03642939403653145, -0.10073530673980713, -0.07729008048772812, 0.09664952754974365, -0.09586666524410248, 0.048350896686315536, 0.047907810658216476, -0.049724649637937546, 0.03345346078276634, 0.030354870483279228, -0.09005831182003021, 0.020908381789922714, 0.04436226189136505, 0.040234632790088654, 0.05161833390593529, -0.24965910613536835, -0.04315127432346344, 0.057430699467659, -0.03257084637880325, 0.02139766328036785, 0.03730900213122368, 0.00012342078844085336, 0.010961744002997875, 0.017171435058116913, -0.06938214600086212, -0.02902035228908062, 0.07158155739307404, 0.0496111623942852, -0.03122977539896965, 0.044152285903692245, -0.017424779012799263, 0.01540572103112936, -0.02022789977490902, -0.1158641055226326, 0.014123446308076382, -0.18464550375938416, 0.12584607303142548, -0.032009076327085495, -0.06931757181882858, -0.062312494963407516, 0.0020054273772984743, -0.012998582795262337, -0.07155636698007584, -0.1903466433286667, 0.00399935245513916, 0.004937575664371252, 0.008364100940525532, -0.020457306876778603], [-0.06967639923095703, -0.2558673024177551, 1.8291164636611938, 0.2529018819332123, -0.14347124099731445, -0.1932297796010971, 0.02943386882543564, -0.1435176134109497, 0.19154541194438934, 0.30673307180404663, 0.2646085023880005, 0.014720161445438862, -0.021360017359256744, 0.14314185082912445, -0.11110112071037292, -0.20657657086849213, 0.03155175596475601, -0.015962116420269012, -0.6490083336830139, -0.12892474234104156, 0.07572232186794281, 0.30876225233078003, -0.0562019906938076, 0.058820970356464386, 0.03693798929452896, -0.0675162523984909, -0.17964722216129303, 0.0009429671335965395, -0.06011894717812538, 0.45011797547340393, -0.14315222203731537, -0.06940442323684692, 0.25909680128097534, -0.07426590472459793, -0.04225897789001465, -0.09431185573339462, 0.06068694218993187, -0.15657496452331543, -0.09846475720405579, 0.3198036849498749, -0.11926276236772537, 0.3768814206123352, 0.0010334134567528963, 0.11022213101387024, -0.04309773072600365, -0.16624709963798523, -0.10494616627693176, 0.030645309016108513], [-0.10168199241161346, 0.4641880691051483, 0.22307971119880676, -0.2627713680267334, -0.5938758850097656, 0.46279579401016235, 0.03240935131907463, 0.23030667006969452, -1.5756467580795288, -7.30045223236084, -0.3715474009513855, 0.14317938685417175, 0.052430249750614166, -0.17203165590763092, -0.03234199061989784, -0.0814756378531456, 0.13360029458999634, -1.5282375812530518, -0.16597029566764832, 0.10400598496198654, 0.4933162033557892, -0.6122870445251465, 0.0780610740184784, -0.5670532584190369, 0.22555474936962128, -0.42438316345214844, 0.003796642879024148, 0.09140007197856903, 0.031200440600514412, -0.26207679510116577, 0.35121744871139526, -0.17547106742858887, 0.12173891067504883, -0.15446226298809052, 0.25530654191970825, -0.057909853756427765, 0.016137292608618736, 0.5560941100120544, 0.17908242344856262, -0.714675784111023, -1.1514310836791992, 0.044229622930288315, -1.144966959953308, 0.13980750739574432, 0.3532852828502655, 1.3528531789779663, -0.027482734993100166, 0.17377270758152008], [0.05343925207853317, -0.08095840364694595, -0.31409400701522827, -0.23131850361824036, 0.24863208830356598, 0.3251201808452606, -0.00805041566491127, 0.1974233239889145, -0.5290213823318481, -0.4632109999656677, -0.17511655390262604, -0.2898656725883484, -0.11089067906141281, 0.1384837031364441, 0.10832688957452774, 0.024249592795968056, 0.2705504596233368, 0.14814288914203644, -0.4937775433063507, 0.055366337299346924, 0.11930771917104721, -0.2959659993648529, -0.47409090399742126, 0.360613614320755, -0.13448725640773773, 0.026549704372882843, 0.08035387843847275, 0.3496595323085785, 0.09471975266933441, -0.06498729437589645, 0.18846751749515533, 0.08286000043153763, -0.020774824544787407, -0.11952623724937439, -0.06367064267396927, -0.06736637651920319, 0.08870603144168854, -0.0045644361525774, 0.23935352265834808, -0.003552879672497511, -0.2485022246837616, -0.18194419145584106, -0.1906091421842575, -0.17424176633358002, 0.12871474027633667, 0.08589880913496017, -0.11359677463769913, 0.18258532881736755], [-0.01016943994909525, 0.13570033013820648, -0.09203940629959106, 0.03087710402905941, 0.04589983448386192, -0.016548309475183487, 0.1757163107395172, 0.11327726393938065, -0.03851771727204323, -0.03672501817345619, 0.11237374693155289, 0.16047629714012146, 0.12837788462638855, 0.11178523302078247, 0.11969494819641113, 0.0354895293712616, 0.10713811218738556, 0.08906395733356476, -0.12367057055234909, -0.01899423822760582, 0.12625670433044434, -0.11556660383939743, 0.04412451013922691, 0.3335567116737366, -0.036334969103336334, -0.07879757881164551, -0.09194033592939377, -0.28513777256011963, 0.038727644830942154, -0.08971674740314484, -0.0016143013490363955, 0.10519790649414062, -0.1307903528213501, -0.27327147126197815, 0.25059473514556885, -0.14278113842010498, -0.07424361258745193, -0.047595951706171036, -0.01216830313205719, 0.17236608266830444, -0.034790992736816406, -0.09077000617980957, -0.43472152948379517, 0.09611070156097412, -0.11494161933660507, 0.08329782634973526, -0.09251214563846588, 0.06736847013235092], [-0.08850788325071335, 0.09876765310764313, 0.2547547221183777, 0.28743141889572144, 0.20656746625900269, 0.44742804765701294, 0.7651734352111816, 0.656728982925415, -0.896507740020752, 0.19130420684814453, 0.20865704119205475, -0.00035149138420820236, -0.2040317952632904, 0.02512865513563156, 0.3676610291004181, 0.016530606895685196, 0.5870151519775391, -0.24194471538066864, 0.19192437827587128, 0.14489375054836273, -0.7871717810630798, -0.3331252932548523, 0.03724528104066849, -0.10850474238395691, -0.057894907891750336, 0.683841347694397, 0.025730745866894722, 0.10524850338697433, 0.11660084873437881, -0.13198383152484894, 0.36947187781333923, 0.09158559143543243, -0.43782439827919006, 0.010404616594314575, -0.18649306893348694, -0.028700780123472214, 0.11201702803373337, -0.19161386787891388, -1.069437026977539, -0.09948288649320602, 0.288217693567276, 0.15506595373153687, 0.13741327822208405, -0.0130070885643363, -0.40143534541130066, 0.036995042115449905, -0.1514989584684372, 0.10568535327911377], [-0.14073863625526428, 0.02312496118247509, -0.172083780169487, 0.06416746228933334, -0.03927285596728325, 0.09585711359977722, 0.15039581060409546, -0.15630587935447693, 0.017696397379040718, -0.0384778194129467, 0.026259100064635277, 0.034233782440423965, -0.08064650744199753, 0.08727329969406128, 0.07566018402576447, -0.050348564982414246, 0.006756612565368414, -0.00913255289196968, 0.17505237460136414, 0.02884039469063282, -0.02161756344139576, 0.08403005450963974, -0.05968423932790756, -0.49462413787841797, -0.20784573256969452, 0.11110956966876984, 0.07385067641735077, 0.08795325458049774, 0.004875367972999811, 0.04003213346004486, -0.17736750841140747, -0.07959771156311035, -0.1434825360774994, 0.10211623460054398, 0.18010275065898895, -0.06196986138820648, -0.05786506459116936, 0.07475048303604126, -0.07606996595859528, -0.031169509515166283, -0.08980848640203476, -0.018695445731282234, -0.12572979927062988, -0.09378683567047119, -0.10394138842821121, 0.16774307191371918, -0.029174495488405228, -0.11370210349559784], [0.09291235357522964, 0.039795853197574615, 0.022549673914909363, 0.050595104694366455, -0.08671701699495316, -0.18327301740646362, -0.0713125690817833, -0.017805643379688263, -0.008196165785193443, 0.08661989122629166, 0.08261102437973022, 0.04951905459165573, -0.21739885210990906, 0.07503538578748703, 0.050189316272735596, -0.015082275494933128, 0.028604522347450256, 0.03626364469528198, -0.17926885187625885, 0.05220610648393631, 0.004340596031397581, 0.020633529871702194, -0.0383186973631382, -0.11563310772180557, 0.00011034854833269492, -0.02270863763988018, 0.03145667165517807, -0.069102443754673, 0.022613031789660454, -0.3227061927318573, -0.023391546681523323, -0.021045397967100143, -0.07410814613103867, -0.1986331343650818, -0.012347225099802017, -0.1939632147550583, 0.04705396667122841, -0.01744968071579933, -0.1803532987833023, 0.16077522933483124, 0.1643645465373993, -0.03543073683977127, 0.0027557574212551117, -0.12773433327674866, 0.021295225247740746, -0.146615669131279, 0.1297370195388794, -0.04436247795820236], [0.09182163327932358, -0.03273217752575874, 0.08389756083488464, -0.0421455018222332, -0.10478617995977402, -0.07413084805011749, -0.43439942598342896, -0.002788520185276866, 0.08408752828836441, -0.054878439754247665, -0.19447603821754456, -0.05974206328392029, -0.1343749314546585, 0.07594966888427734, 0.14116571843624115, -0.07977970689535141, -0.11415966600179672, -0.04685533791780472, 0.042014338076114655, 0.14521996676921844, -0.22224061191082, -0.049829572439193726, -0.007813847623765469, -0.048188235610723495, -0.019850820302963257, 0.014183390885591507, 0.05137099325656891, 0.20365788042545319, 0.06148960441350937, -0.04062637686729431, 0.10414208471775055, -0.015283424407243729, 0.04484307020902634, -0.1873621940612793, -0.14597076177597046, 0.04016595706343651, -0.2420509308576584, 0.0023972131311893463, 0.016467761248350143, -0.11477010697126389, 0.0933651551604271, -0.2084299623966217, 0.022972825914621353, -0.04371223226189613, 0.046141207218170166, 0.17913532257080078, 0.1356411576271057, -0.186301589012146], [-0.045693304389715195, -0.02717214822769165, 0.060006771236658096, -0.04437054321169853, 0.21256019175052643, -0.8769471049308777, 0.031087633222341537, -0.09767600893974304, -0.05210849270224571, 0.026246534660458565, 0.08288168162107468, -0.04828491061925888, 0.05124717578291893, -0.026928190141916275, 0.0959763154387474, -0.12066196650266647, 0.01872333139181137, -0.5248332023620605, -0.06715107709169388, -0.032945338636636734, -0.04340074956417084, -0.013628702610731125, -0.12245088070631027, 0.15183280408382416, 0.08545530587434769, -0.11080729216337204, -0.019012248143553734, -0.23173828423023224, -0.014403737150132656, -0.0028300012927502394, 0.0724412053823471, -0.030446453019976616, 0.16071800887584686, -0.033065065741539, 0.01251191459596157, -0.16689595580101013, -0.050294406712055206, 0.14546696841716766, 0.020412173122167587, -0.043016210198402405, -1.0200895071029663, -0.021387116983532906, -0.01743716560304165, 0.0030404306016862392, 0.05696650221943855, -0.013720965012907982, 0.13373014330863953, -0.017799794673919678], [0.17414434254169464, 0.016732029616832733, -0.12882159650325775, 0.0738593339920044, -0.05098579823970795, -0.36515751481056213, -0.09714145213365555, 0.0646936446428299, 0.030872151255607605, -0.004553978331387043, 0.10681508481502533, 0.07057777047157288, -0.038037192076444626, 0.22132648527622223, -0.05549263581633568, -0.03865138813853264, -0.5316712260246277, -0.4642657935619354, -0.0356222465634346, 0.08028288185596466, -0.023450367152690887, 0.15341122448444366, -0.056556105613708496, -0.02999160811305046, -0.020184092223644257, -0.008979222737252712, 0.032943546772003174, -0.08190011233091354, 0.07330896705389023, -0.1501660943031311, 0.1778431534767151, 0.06659626960754395, 0.0771893784403801, 0.11792910844087601, -0.20353923738002777, -0.17005173861980438, 0.012073478661477566, 0.05400848016142845, -0.08758390694856644, -0.06945409625768661, -0.057358287274837494, -0.12358692288398743, 0.16331614553928375, 0.11302044242620468, -0.030679183080792427, 0.0034628636203706264, 0.0015891653019934893, 0.1236669272184372], [-0.06896818429231644, -0.1720459908246994, 0.0674072727560997, 0.18207789957523346, 0.23502640426158905, 0.027567187324166298, 0.17343679070472717, -0.07387230545282364, 0.27120089530944824, 0.23624549806118011, -0.18759149312973022, -0.07767628878355026, -0.0028808219358325005, 0.19317321479320526, 0.15143246948719025, -0.0993354395031929, 0.1507571041584015, -0.021127646788954735, 0.06766565889120102, 0.10688543319702148, -0.1411454975605011, -0.29006215929985046, 0.1038215383887291, 0.05986420810222626, 0.026518145576119423, 0.11789387464523315, 0.08912766724824905, 0.3055958151817322, 0.0778825432062149, -0.17485962808132172, 0.064435213804245, -0.001000500051304698, 0.17157548666000366, -0.275927871465683, -0.11847842484712601, -0.11646369844675064, -0.07514429092407227, -0.028971819207072258, -0.03199920430779457, 0.14561137557029724, -0.05119412764906883, -0.0184481218457222, 0.15174581110477448, 0.10666084289550781, -0.2506197392940521, 0.20785591006278992, -0.1382455676794052, -0.04698702320456505], [0.14475812017917633, -0.018645400181412697, -0.37733888626098633, -0.038970865309238434, -0.04772879183292389, -0.0834345743060112, 0.20004156231880188, 0.001497758785262704, -0.13310740888118744, -0.06585923582315445, 0.21505434811115265, 0.11197517067193985, 0.038031551986932755, 0.25962406396865845, 0.11495604366064072, -0.21235288679599762, -0.1677522212266922, 0.08232732117176056, -0.21211805939674377, 0.07703960686922073, 0.06943431496620178, 0.07336506247520447, -0.09109325706958771, -0.6105248332023621, 0.10195654630661011, 0.036628905683755875, 0.03983820974826813, -0.1423627734184265, 0.04458056017756462, 0.05083152651786804, -0.22333046793937683, 0.10850269347429276, -0.1872021108865738, -0.21838852763175964, -0.03880171850323677, 0.04405441880226135, -0.02898569218814373, 0.08670678734779358, 0.0865992084145546, 0.0426025353372097, -0.14640870690345764, -0.17458398640155792, -1.2359048128128052, 0.11168066412210464, -0.07375884056091309, -0.06021828576922417, -0.19223608076572418, 0.03426595404744148], [0.11688549071550369, -0.015412240289151669, -0.4926316738128662, 0.07781435549259186, 0.010524521581828594, -0.00017904405831359327, 0.14678563177585602, -0.03108581341803074, 0.11044053733348846, -0.0017062482656911016, -0.041720110923051834, 0.0288992952555418, 0.05670813471078873, 0.09110138565301895, -0.03909168392419815, 0.1552855670452118, -0.15685997903347015, 0.07440152764320374, 0.27499958872795105, 0.02336401864886284, -0.08087235689163208, -0.30173230171203613, 0.02394123375415802, -0.006091023329645395, 0.10113054513931274, -0.25872647762298584, -0.007950381375849247, -0.2130005955696106, 0.14111556112766266, -0.17134635150432587, -0.20591969788074493, -0.014202744700014591, -0.12585285305976868, 0.0351562537252903, -0.1721939593553543, 0.03854246065020561, -0.02482623979449272, -0.10646339505910873, 0.17286676168441772, 0.05325229838490486, -0.6454281806945801, -0.07639612257480621, 0.03221825882792473, -0.1365388035774231, 0.30608031153678894, 0.08653297275304794, 0.1299624890089035, 0.10246611386537552], [0.047755490988492966, -0.026084130629897118, 0.007648835889995098, -0.04329254478216171, 0.030155260115861893, -0.29573336243629456, 0.18060451745986938, -0.14344918727874756, 0.25869816541671753, 0.035984281450510025, 0.12857690453529358, -0.024017540737986565, 0.004030315205454826, -0.06126958131790161, -0.06206333264708519, -0.11851877719163895, -0.10397759079933167, 0.00375666213221848, -0.04693305119872093, 0.01920628361403942, -0.049304354935884476, 0.0048118093982338905, 0.051138363778591156, -0.1470867544412613, 0.12130828946828842, -0.21006768941879272, -0.026348745450377464, -0.10151660442352295, 0.0315360464155674, 0.23934979736804962, -0.12734057009220123, -0.031262923032045364, 0.10038498044013977, 0.07637950032949448, 0.12351033091545105, -0.07124011218547821, -0.05833246186375618, -0.27325543761253357, 0.187405064702034, 0.33344560861587524, -0.528168261051178, -0.02097952365875244, 0.07022280246019363, -0.11152824014425278, 0.0987151712179184, -0.2770175635814667, 0.09951040148735046, -0.027152370661497116], [0.15962401032447815, -0.09337535500526428, 0.022257205098867416, 0.2194637805223465, -0.07720357179641724, 