{"PMT_dist_dense_1/bias:0": [-33604.5625, -22497.88671875, -891.2262573242188, -0.010712496936321259, -14584.099609375, -133.57406616210938, -15159.1611328125, -4907.9130859375, -17228.798828125, -300.2430725097656, -30367.03515625, -29115.900390625, -619.4828491210938, -8135.232421875, -17874.599609375, -0.000944263709243387, -5123.74560546875, -119.59068298339844, -16246.1650390625, -153.8294677734375, 0.00020571537606883794, -5887.1162109375, -12733.7744140625, 0.0002894462086260319, -53058.109375, -5537.40869140625, -143.5436553955078, -26487.775390625, -5745.8203125, -6018.06396484375, -8939.65625, 237.3232421875, 27.9736270904541, 24.853675842285156, 12.125950813293457, -5639.19873046875, 14.57618236541748, -16388.83203125, 5.4626078605651855, -6164.6044921875, 21.75210952758789, -17207.529296875, -3918.554443359375, -5682.59375, -6077.19580078125, -1916.07763671875, 6.048037528991699, 16.56505012512207, -6052.90966796875, 4.688069820404053, 31.88818359375, -9078.2685546875, 30.331714630126953, 2.2413747310638428, -1535.4820556640625, 4.604590892791748, 7.9340667724609375, -0.0006913982215337455, 20.390005111694336, -0.00019451156549621373, 5.843212127685547, 7.785496234893799, 4.7897629737854, 7.790653705596924], "PMT_dist_dense_1/kernel:0": [[134248.75, 1.897403359413147, -7889.83203125, -2.0314344510552473e-05, 53821.94140625, -14.948487281799316, -55981.3671875, 19153.263671875, -63241.0078125, 1194.890869140625, -124391.65625, 110728.6953125, -2459.353515625, -31836.294921875, 166064.4375, -8.130363085001591e-07, 799996.125, -26.843887329101562, -397128.28125, 36.515193939208984, -8.896762437871075e-07, -443791.9375, -49368.96875, -2.8097119866288267e-06, 144731.453125, 21657.333984375, -7.432496070861816, -135373.28125, -71790.515625, 306949.34375, 21829.8828125, 468954.875, -78996.8828125, 49556.20703125, -57176.16015625, 326647.75, 82767.09375, -15.962470054626465, 76777.9921875, 236079.515625, -60996.56640625, 36.93217468261719, 422260.3125, 240568.21875, 464011.8125, -125803.578125, -98618.0546875, 85652.75, -255669.078125, 92230.984375, 101713.6640625, 282484.25, 72676.15625, 48664.015625, -224224.59375, 124026.671875, 10.768057823181152, 4.5478961396838713e-07, -168.27366638183594, -4.971076350557269e-07, -0.0005092966603115201, 249.4296112060547, 42.28483963012695, -192.8208465576172], [-92905.2890625, -642241.6875, 1369.88232421875, -0.00665796035900712, -54051.5, 604131.0, -56198.9296875, -6136.353515625, -62178.58203125, -499.9226379394531, -58143.4921875, 21408.63671875, -975.5001220703125, 8001.49462890625, 16012.0830078125, 3.7991724184394116e-06, 8.54227066040039, 20.287145614624023, 9767.1181640625, -39.89500427246094, 0.0005336059839464724, 0.4706541895866394, 48949.0234375, -0.0004499476926866919, -27838.51953125, 5456.78271484375, 3.290804862976074, -77690.8125, -346533.65625, -459889.78125, 437745.5625, 945576.8125, -108194.7578125, -72307.015625, -86711.765625, 485500.90625, -122063.6953125, -431349.875, -135791.484375, 377319.71875, 89551.625, 513928.84375, 858603.125, -349594.09375, -734840.3125, -174789.421875, 151454.390625, 159874.671875, 369879.9375, -124582.171875, -140043.40625, 398624.78125, 102083.7265625, -152505.609375, -1051706.75, -171934.8125, -581.1828002929688, -7.301376172108576e-06, 2290.82958984375, 1.8283361669091391e-06, 28.538408279418945, -2315.85546875, 572.8096923828125, 2243.560302734375]], "PMT_dist_dense_1_1/bias:0": [-202189760.0, -27817610.0, -34033020.0, -184517040.0, -8308780.5, -96110056.0, -144033408.0, -70703808.0, -205954064.0, -29935944.0, -16791784.0, -2502797.75, -186788160.0, -154635008.0, -127073712.0, -45945536.0, -14448832.0, -172898288.0, 54490984.0, -192343168.0, -107993272.0, -79493816.0, -89680088.0, -122611384.0, -180189664.0, -93708840.0, -92148800.0, -178285712.0, 363631.96875, 70165352.0, -4132843.25, 2383279.0, 31957724.0, 843249.0, 21402048.0, -167172.0, 559539.0, 16288149.0, 32873316.0, -3941751.75, 496247.1875, 16298222.0, 20648582.0, -62385316.0, 1568753.75, -3840781.0, -3602961.25, 94004200.0, -55295944.0, -1489953.875, 49276320.0, 30569434.0, 61683288.0, 60299340.0, -20192962.0, 44165944.0, 6638.29150390625, -15341.244140625, 4036.044189453125, 4396.12451171875, 21343.412109375, -2272.705810546875, -22994.283203125, 4811.6103515625], "PMT_dist_dense_1_1/kernel:0": [[4439.23876953125, 1.5211249589920044, 1800.440673828125, -3011.317626953125, 6.679672515019774e-05, -4732.48779296875, 4421.2763671875, 5050.13671875, -5787.15869140625, 3980.568115234375, -0.4736204445362091, -3274.269287109375, 4898.326171875, -4669.54248046875, -3733.543212890625, -4495.5478515625, -0.00016732540098018944, 4365.9794921875, -4127.18408203125, 4823.78125, 8872.8837890625, 3053.984375, 3013.100341796875, 6228.91845703125, -6753.54248046875, 5759.37158203125, -0.00013155321357771754, 3621.419921875, 0.03918726369738579, -0.003491302253678441, 7.533731937408447, 10.880298614501953, -0.15193936228752136, -23.17084312438965, -4.975621777703054e-05, -20.226089477539062, 11.437454223632812, 1.5390269756317139, -0.5147106051445007, 0.0015603285282850266, -6.049318790435791, -8.119170188903809, 5.952054977416992, -149.62603759765625, -4.125036239624023, -1.2279633283615112, 11.612013816833496, 0.6984314918518066, -65.6277847290039, -17.115360260009766, -0.15302525460720062, -2.248076915740967, -0.37902554869651794, 0.17610624432563782, -53.69196319580078, -0.0023902689572423697, -5.210872650146484, -5.184085845947266, 1.834065556526184, -12.092488288879395, -7.4489240646362305, -7.7440972328186035, 7.774118423461914, 9.986352920532227], [-1154.5633544921875, 1.8069490194320679, -945.7798461914062, 888.3746337890625, 0.9793579578399658, 1863.1732177734375, 39.02055358886719, 0.04144121706485748, 1476.5628662109375, 2207.330322265625, 1.150534808402881e-05, 2073.56591796875, 566.93701171875, 1389.401123046875, 1906.7412109375, -2028.37744140625, -3.701614332385361e-05, -1770.8699951171875, 2170.245361328125, -1152.926513671875, -17275.462890625, 1108.2630615234375, 531.1206665039062, -2272.7412109375, 3976.946044921875, -2380.900146484375, 0.0003302496043033898, 750.4890747070312, -4.481201171875, 0.002265036106109619, 2.953953981399536, 5.4852166175842285, -0.9692072868347168, 6.623520374298096, -0.07010691612958908, 249.69871520996094, 103.01431274414062, -0.46909642219543457, -0.4812076687812805, 218.29685974121094, -2.1881251335144043, -1.9597538709640503, -1.3380696773529053, 11820.5673828125, -1.047528862953186, 0.9442436695098877, 3.0482325553894043, -0.6997618675231934, -8756.4091796875, 117.0397720336914, -2.48979115486145, 0.3681753873825073, -20.4141845703125, 0.2992210388183594, -3922.363525390625, 0.002466525649651885, -0.8652517795562744, 0.24047605693340302, -0.1673930287361145, -2.8061985969543457, -1.372618317604065, 1.1617205142974854, 0.8119039535522461, -0.9300174713134766], [-251.14622497558594, -0.1367296725511551, -71.06053924560547, 91.63601684570312, 0.9139261245727539, -156.7314453125, -147.9832000732422, -392.9742431640625, -188.9650421142578, -87.15779113769531, 0.04345346987247467, -100.14395141601562, 134.0028076171875, -127.00265502929688, 159.73052978515625, -93.7437744140625, -3.848307187581668e-06, 326.25811767578125, -122.75096130371094, 202.03712463378906, 319.3239440917969, 179.92384338378906, 93.80301666259766, -199.7860870361328, 121.64900207519531, 207.25294494628906, 5.894821879337542e-05, 104.21321105957031, 1.4850904335617088e-05, -0.003825134364888072, -2.456040620803833, -3.6926283836364746, 0.2230575680732727, -6.582888126373291, -3.20006838592235e-05, -5.461236953735352, -3.2157845497131348, -0.31010058522224426, -0.55861496925354, -0.0007659385446459055, 2.017949342727661, 1.8821518421173096, 1.403944730758667, -0.0023086401633918285, 1.4827674627304077, -0.7694382667541504, -3.378279685974121, -0.7013405561447144, -17.58102798461914, 4.549315452575684, 0.17219007015228271, -0.2338027060031891, -0.426226943731308, -0.17579057812690735, 19.12141227722168, -0.00011023366823792458, -0.7798385620117188, -0.7984163165092468, 0.06387317925691605, -2.7006702423095703, 0.3675785958766937, -1.3351914882659912, 0.27399998903274536, -1.722699761390686], [0.0010304279858246446, 7.912403816590086e-07, -0.0001600376417627558, 0.0007652068161405623, -1.0672787311705179e-06, -0.0010230649495497346, -9.308360858995002e-06, 0.00048157808487303555, 0.0005052470951341093, -0.0011816412443295121, 3.958783167945512e-08, 0.0003024785837624222, -0.0007798462174832821, -0.0010163519764319062, -0.001042893622070551, -0.0007319811847992241, 8.323508993157702e-09, 0.0006967656081542373, -0.00011436770000727847, -0.0005765974055975676, -0.0029625489842146635, 0.0005599662545137107, 0.0015232742298394442, 0.0029007531702518463, -0.00295809144154191, 0.0031304177828133106, -2.4434479439783274e-10, 0.000769247068092227, -1.4301618023182527e-07, 0.0006221343064680696, -7.403417839668691e-06, -1.1807722330559045e-05, 0.0003720392705872655, 2.0917821530019864e-05, 0.008796065114438534, 7.42942074793973e-06, -3.236964766983874e-05, 0.0022978137712925673, -0.001100623281672597, -7.216226549644489e-06, 8.113695366773754e-05, 0.004203277640044689, -2.220461965407594e-06, 1.5179606634774245e-05, -3.48712237610016e-05, 2.3811635401216336e-05, -5.4908891797822434e-06, -0.0012592906132340431, 0.00028323198785074055, 6.590047263443921e-08, -0.00761597091332078, 0.013439521193504333, 0.00020787159155588597, -0.00021964691404718906, 8.121578866848722e-05, 0.0013333760434761643, 0.008396022953093052, -0.04551749303936958, 0.04981928691267967, -0.012791105546057224, 0.0058865235187113285, -0.005518815945833921, 0.007268044166266918, -0.012612235732376575], [4633.1923828125, 9.796447557164356e-05, -898.7615966796875, 3668.1220703125, -3.21518109558383e-06, 1253.6954345703125, -1096.0855712890625, -1243.062744140625, -4302.1767578125, -872.8271484375, 4.553437975118868e-05, 958.3214721679688, -1225.3787841796875, 2770.22509765625, 1444.6903076171875, -1007.1023559570312, -2.1411020497907884e-05, 2018.1141357421875, 1075.3511962890625, -3477.566650390625, 1956.7911376953125, -1152.71240234375, 1356.158935546875, 1467.7431640625, 1950.1085205078125, 1424.897216796875, 0.00016009845421649516, 4046.3388671875, 1.5256770893756766e-05, 0.005941868294030428, -0.9788697361946106, 2.490471363067627, 0.3778643310070038, 4.383883953094482, -4.191112020635046e-05, -3.5952165126800537, -1.972773551940918, -0.05503600835800171, -0.48871272802352905, 0.001266087288968265, -1.3657894134521484, -1.14993155002594, -0.8594653606414795, 28.195165634155273, 0.9871093034744263, 0.5859897136688232, 2.2340755462646484, 0.6473398208618164, -13.16893482208252, 3.032273054122925, -0.16313126683235168, -0.00021555094281211495, -0.4259292781352997, -0.176883727312088, -11.100364685058594, 0.002359229838475585, -0.541250467300415, -0.5445151925086975, 0.04089995101094246, 1.803135633468628, 0.4696149528026581, 0.7408626675605774, 0.21120567619800568, 0.8111207485198975], [-467.7435302734375, -4.386057480587624e-05, 580.9129028320312, -513.5257568359375, 1.3708427104575094e-05, -4633.62939453125, 64.34746551513672, 0.09007416665554047, 780.856689453125, -1509.2166748046875, -4.013968467712402, 2020.147216796875, -458.4132385253906, -871.35107421875, -4607.85546875, 2746.048828125, -1.7084707021713257, -808.6167602539062, 8507.00390625, -337.926513671875, -11351.2138671875, -570.3849487304688, -160.5830535888672, -4310.3955078125, 6253.6689453125, -5733.86572265625, 20.28038787841797, -577.0548095703125, -2298.79150390625, 6401.00390625, -11070.85546875, -4356.9365234375, 10514.8876953125, 4478.490234375, 1389.416259765625, -3933.501953125, -4184.67529296875, -3175.348388671875, 14030.7392578125, -13661.8154296875, -4389.5126953125, -2794.96435546875, 3341.123291015625, -14122.365234375, 4481.080078125, 7203.3916015625, -3504.426025390625, 6652.60400390625, 11355.384765625, -3386.103271484375, 3935.24365234375, -3229.69384765625, -5585.2568359375, 13017.87890625, -10466.4462890625, 4177.02978515625, 10.613668441772461, 3.3826093673706055, 9.130366325378418, 13.558072090148926, 13.850279808044434, 15.101312637329102, 4.538054466247559, 10.794441223144531], [4804.61181640625, 9.530011448077857e-05, -918.6610107421875, -3823.04296875, 2.0707414150238037, -1270.7662353515625, -1107.7105712890625, 1242.133056640625, 4442.064453125, -915.7777709960938, 0.14701712131500244, 989.5399780273438, 1242.7998046875, -2958.473876953125, 1476.48388671875, -1037.9716796875, -1.8629152691573836e-05, -2235.693359375, 1145.2010498046875, 3601.87451171875, -2018.557373046875, -1170.40771484375, 1405.5501708984375, 1538.43408203125, -1933.0279541015625, -1459.0482177734375, 0.00018431722128298134, 4120.04443359375, 0.00025461215409450233, 0.0021758796647191048, 1.770690679550171, 3.186674118041992, 0.3045966923236847, 5.618546962738037, 4.981192250852473e-05, -4.66416072845459, 3.2231502532958984, -0.14316760003566742, -0.5730212926864624, 0.0007544959662482142, -1.7307186126708984, 1.533467173576355, 1.1251285076141357, -92.75969696044922, 1.1816846132278442, 0.6256070137023926, -2.8240184783935547, -0.569037675857544, -15.459807395935059, -3.8641140460968018, -0.1499231606721878, -0.1490963101387024, -0.426154762506485, 0.17736569046974182, -15.011470794677734, 0.00013545539695769548, -0.7295525074005127, 0.664611279964447, -0.05858780816197395, -2.377387046813965, 0.29129457473754883, -1.0274080038070679, -0.27589359879493713, 1.4089782238006592], [-887.2464599609375, -43.57477951049805, 293.1675109863281, -663.3007202148438, -18.771207809448242, -563.2730712890625, 601.9664306640625, 1225.7264404296875, 673.3919067382812, -409.23553466796875, -38.87068176269531, -424.1801452636719, -1117.4962158203125, 565.6443481445312, 577.8921508789062, 453.2908935546875, 54.9559211730957, 587.373046875, -555.2193603515625, 603.0172729492188, -1463.1884765625, 399.4740295410156, -567.20263671875, 820.090087890625, 1171.3787841796875, -795.3219604492188, -27.72687339782715, 823.8142700195312, -0.0037798683624714613, -0.0050042495131492615, 7.732109069824219, -10.761533737182617, 0.05324765667319298, -22.732515335083008, 5.090483682579361e-05, 19.74344253540039, 11.274364471435547, -1.4162797927856445, 0.5352537035942078, 0.0015151347033679485, -6.00890588760376, -7.672729969024658, -5.7900543212890625, -149.72198486328125, 4.078041076660156, 1.1533623933792114, 11.2686185836792, 0.6587882041931152, -65.32352447509766, 16.724533081054688, -0.1630937159061432, -2.096527576446533, 0.42534980177879333, -0.22055107355117798, 54.71127700805664, 0.00011335567978676409, -4.974257469177246, 4.849706172943115, 1.6522216796875, -12.224542617797852, -7.210782527923584, -7.758403301239014, 7.6837310791015625, 9.664255142211914], [5400.83837890625, 0.00011739665205823258, -1013.0170288085938, -4305.37060546875, 0.2904675602912903, -1407.3037109375, -1233.0521240234375, 1289.9434814453125, 5070.783203125, -1025.6968994140625, 0.4581831693649292, 1094.6326904296875, -1340.06298828125, -3324.369140625, -1577.7989501953125, 1148.0548095703125, 2.6417921617394313e-05, 2377.44287109375, 1178.3060302734375, 4156.626953125, 2098.519287109375, 1321.5770263671875, 1503.0869140625, -1646.01171875, 2048.30126953125, -1559.881591796875, -7.139166355133057, -4624.537109375, 0.0002694687573239207, -0.0021551502868533134, -0.9770625233650208, 2.4081292152404785, -0.043224234133958817, -4.1769185066223145, 3.660866423160769e-05, 3.651068925857544, 1.8698878288269043, -0.15143848955631256, -0.5939725637435913, 0.0007664563599973917, 1.3851418495178223, -1.156579852104187, -0.8054787516593933, -177.3258056640625, -0.9137698411941528, -0.6111654043197632, 2.2064647674560547, -0.6469342708587646, -136.41622924804688, -2.8313405513763428, -0.15685182809829712, -0.0003095413267146796, -0.4020002782344818, 0.204645574092865, -24.271203994750977, -0.00011409616854507476, 0.46415236592292786, 0.45806795358657837, -0.03742510452866554, 1.4267394542694092, 0.5403274893760681, 0.6636921763420105, -0.2133391797542572, 0.6288169622421265], [-58.27825164794922, 1.5791449546813965, 16.323719024658203, 41.604026794433594, 0.41416212916374207, 30.7946720123291, -36.60578155517578, 74.59969329833984, -43.197357177734375, -22.022628784179688, 0.46836820244789124, -20.734838485717773, -70.96118927001953, -35.379920959472656, -34.24704360961914, 24.469392776489258, -1.3272342681884766, -37.043792724609375, 22.15310287475586, -39.21360778808594, -88.1312026977539, -24.380640029907227, -35.09212112426758, -49.54338836669922, -71.50385284423828, -46.15541458129883, -1.6822630167007446, 52.41507339477539, 1.7784110241336748e-05, 0.002117701806128025, -0.7193564772605896, -1.4930007457733154, -0.4833366870880127, 3.0446043014526367, 4.108150824322365e-05, 2.9705235958099365, -1.595538854598999, -3.916660716640763e-05, -0.4888882339000702, -2.88137149810791, -0.584499180316925, 0.00010651353659341112, -8.995025169156179e-09, -37.75901412963867, 0.9689997434616089, 0.37632161378860474, 0.5948090553283691, 0.6986554861068726, 15.025060653686523, 1.7123699188232422, 0.1630101054906845, 0.00027660559862852097, 0.42525556683540344, -0.32137179374694824, -9.555112838745117, -0.00010860944166779518, 0.38992175459861755, 0.32726243138313293, -0.061590492725372314, 0.363369882106781, 0.0635855495929718, -0.8893743753433228, 0.47434794902801514, -0.6639406085014343], [-2334.590576171875, -0.00021563393238466233, -1580.588134765625, 1786.7117919921875, 2.451139152981341e-05, 2747.11083984375, -4405.298828125, 3462.857666015625, -4593.56494140625, 2609.864501953125, -7.347471714019775, -1837.55419921875, 4161.85302734375, -3476.285400390625, 2350.128662109375, -2598.700927734375, -0.00012705054541584104, -4289.1103515625, -2563.58740234375, -4779.947265625, -9744.5595703125, 2445.7001953125, -2613.0400390625, -3391.597412109375, 3341.921142578125, -3546.26123046875, -176.65762329101562, 2228.926513671875, 2.155694346583914e-05, -0.0022336915135383606, 5.054734230041504, 7.01991605758667, 0.2710069715976715, 13.70451545715332, -4.137752330279909e-05, -11.563924789428711, -6.459322452545166, 0.7026382684707642, -0.4761040508747101, 0.0007054423913359642, -3.7512831687927246, 4.371275424957275, 3.160820484161377, 97.4748764038086, 2.483473777770996, 0.611299991607666, 6.736449241638184, -0.7008994817733765, 41.47400665283203, 9.99866771697998, 0.1533106118440628, 1.0398401021957397, 0.4263598620891571, 0.23007559776306152, -38.25993347167969, -0.0024156812578439713, -2.3996477127075195, 2.4275832176208496, -0.9066394567489624, -9.275538444519043, -4.760656833648682, -4.670425891876221, 5.047275543212891, 5.764153480529785], [-4530.5771484375, -0.02295037731528282, 1383.4112548828125, -3062.3359375, 12.841856002807617, -4601.125, 4315.02880859375, -5468.32568359375, -4131.18701171875, -3282.353271484375, -0.00013544005923904479, -2456.66015625, -6193.603515625, 3508.132080078125, -2946.22900390625, 3238.4521484375, -4.743562385556288e-05, -3838.468994140625, -3414.934814453125, -4678.92626953125, -8774.775390625, -2630.66748046875, -3174.58544921875, 5009.73876953125, -6475.47119140625, 4843.29345703125, -0.0008148154010996222, 4334.49755859375, -1.9016284568351693e-05, 0.0022463612258434296, -5.642722129821777, -7.563554286956787, -0.4778035581111908, 15.372783660888672, 4.28758685302455e-05, -12.936334609985352, -7.386314868927002, -0.6900659799575806, 0.4974563717842102, -0.0008369282586500049, -3.98793888092041, -4.7348198890686035, 3.526595115661621, 107.28324127197266, -2.587643623352051, 0.6773914098739624, 7.426403045654297, 0.6962409019470215, 45.06605529785156, 10.852459907531738, -0.1720815896987915, -1.0965632200241089, 0.4264889061450958, 0.2307969331741333, -41.09037780761719, 0.00011569587513804436, 3.15580415725708, -2.9809911251068115, 0.9722797870635986, -9.006688117980957, 5.180150985717773, -5.231093406677246, 5.249392986297607, -5.950912952423096], [-115.58417510986328, 1.1468976736068726, -34.57326889038086, 83.2791748046875, -0.22408568859100342, -65.97178649902344, 73.68144989013672, 158.36183166503906, -85.72321319580078, 47.078125, 0.15750296413898468, -45.763545989990234, 143.17495727539062, -71.64346313476562, 70.87731170654297, 52.817100524902344, 0.584976851940155, -73.94559478759766, -53.212501525878906, -75.79627227783203, -183.149658203125, -50.03313446044922, -71.25260162353516, 100.7397689819336, -149.7753143310547, 96.63346099853516, 3.2460018246638356e-06, -102.74798583984375, 1.4395327525562607e-05, 0.0037909920793026686, -0.06427501887083054, 1.0814242362976074, 0.29183000326156616, -2.513923168182373, -4.969894143869169e-05, -2.171767473220825, 1.2357370853424072, -3.934635242330842e-05, 0.5356988310813904, -3.715998411178589, 0.09830883890390396, 6.899923027958721e-05, -8.806518181359024e-09, 25.485675811767578, -0.6286847591400146, -0.21398510038852692, -0.6453343629837036, 0.6468325853347778, -10.42931842803955, -1.3709924221038818, -0.16415557265281677, -0.0003117569722235203, -0.3804972469806671, -0.2332744598388672, -7.325310707092285, 0.0001173986674984917, 0.06370846927165985, -0.12957818806171417, 0.038081612437963486, 0.11804161220788956, 0.036690838634967804, -0.2394724041223526, -0.09312836080789566, 0.13184550404548645], [1411.435791015625, 5.7038523664232343e-05, -419.4734802246094, 1011.9866943359375, -0.7083560824394226, 1009.8579711914062, 1070.953369140625, -1979.2181396484375, 1158.9866943359375, 691.7266235351562, 1.6367685794830322, 622.9639282226562, -1918.8734130859375, 907.5022583007812, -908.8873901367188, -756.053466796875, -4.344622720964253e-05, 985.2353515625, -847.3413696289062, -1035.2523193359375, 2533.943359375, 660.3605346679688, -927.567626953125, -1380.4388427734375, -1880.0303955078125, 1347.0106201171875, -3.103828191757202, 1261.9378662109375, -2.1569167074630968e-05, 0.008196895010769367, -6.274256706237793, 7.901126384735107, -0.03575736656785011, -16.419523239135742, 3.4749431506497785e-05, 13.641901016235352, 7.648232936859131, -0.6299905776977539, 0.5595238208770752, -0.0015014562522992492, -4.144188404083252, -4.905616283416748, 3.6666393280029297, 117.20355987548828, 2.7568016052246094, -0.6319652795791626, -7.695932388305664, -0.6469048261642456, 48.317543029785156, 11.47624683380127, -0.14895963668823242, 1.0275517702102661, -0.4037117660045624, -0.23054051399230957, 44.1531982421875, 0.00011095668014604598, 3.203500270843506, -2.8854854106903076, -0.4167124032974243, -9.53861141204834, -5.26988410949707, -5.304173469543457, -5.484434127807617, -6.072682857513428], [1045.560302734375, -2.4111666679382324, 1169.965576171875, -924.248779296875, -1.615242217667401e-05, -1669.2000732421875, 3730.6416015625, -2332.880126953125, 1656.0496826171875, 1477.7933349609375, 5.8058366775512695, -1547.5810546875, -1050.3116455078125, 1525.2967529296875, 1636.2984619140625, -1417.33935546875, 7.418190216412768e-05, -6379.32470703125, 1479.586669921875, -2035.1920166015625, 5580.20556640625, -1912.8648681640625, -1097.7677001953125, -1879.18017578125, 1030.9146728515625, -1992.791259765625, 0.0016991245793178678, -1468.763916015625, 1.874480767583009e-05, -0.00801361445337534, 4.285402297973633, -5.836023807525635, 0.3093521296977997, 11.897880554199219, -4.2502204451011494e-05, 9.817724227905273, 5.538351535797119, 0.511054277420044, 0.47645121812820435, 0.0007652010535821319, 3.171665668487549, 3.4852418899536133, -2.650144577026367, 153.52728271484375, -2.140517234802246, -0.4632038474082947, 5.66966438293457, 0.586272120475769, -34.27320098876953, 8.2620267868042, -0.14999909698963165, -0.7965465188026428, -0.4202548563480377, -0.30209338665008545, 32.140506744384766, -0.00014064151037018746, 2.4665985107421875, -2.2450430393218994, 0.80311518907547, 7.240555763244629, 3.894289016723633, 4.060357570648193, -4.110014915466309, 4.562140464782715], [-7.799010199960321e-05, -1.1099216656873523e-08, 7.737976375210565e-06, 6.0884052800247446e-05, -1.1815750440291595e-06, -6.577235762961209e-05, 0.00011434195766923949, -0.0001167140799225308, 3.366011878824793e-05, -0.00010406698856968433, 2.0930617949943553e-07, 2.4727718482608907e-05, -5.705031435354613e-05, 7.643564458703622e-05, 8.033364429138601e-05, -5.809833237435669e-05, 1.113523558160523e-05, -6.742298864992335e-05, 1.589321436767932e-05, -4.572802936309017e-05, -0.0002667248190846294, 4.39935211034026e-05, 0.00015107075159903616, -0.00026852337759919465, 0.0002228873927379027, -0.0002871907490771264, 3.107271329128025e-09, 6.219498027348891e-05, -1.245073999456281e-08, -0.0005261424230411649, -9.71411964201252e-07, 0.00040087479283101857, 3.3208871172973886e-05, 5.13904296894907e-06, -0.0017660914454609156, 8.919121796679974e-07, 2.8964318516955245e-06, 0.0011846903944388032, -9.918615978676826e-05, -6.489279371635348e-07, -7.40474069971242e-06, -0.0007585787680000067, -1.8679234869978245e-07, 2.197125013481127e-06, 3.314897185191512e-06, 3.031526603081147e-06, -1.9405322859711305e-07, -0.00011117015674244612, -1.977196370717138e-05, -5.882592635231276e-09, -0.0013080632779747248, 0.0026121679693460464, -1.7184793250635266e-05, 2.3402857550536282e-05, 7.003700829955051e-06, -0.0005651948158629239, 0.15072745084762573, -0.10447344928979874, -0.10171861201524734, -0.01742672733962536, 0.013358362019062042, 0.1383896768093109, -0.08846922963857651, 0.17870399355888367], [0.4488412141799927, 6.25740909576416, -1.0472073554992676, 0.08603043109178543, 0.00015216709289234132, 641.5150756835938, -7134.70458984375, 12671.4404296875, 22.88096046447754, -1770.8201904296875, 4.770211307913996e-05, -0.4235363006591797, -0.5972368121147156, -1.0208545923233032, 41.455936431884766, -0.33739596605300903, -0.00036819075467064977, -406.4055480957031, -5132.9365234375, 28.496488571166992, 9162.2216796875, -38.12730026245117, -0.07788962125778198, 357.7315979003906, 0.043692413717508316, 5285.203125, -0.0014315061271190643, -0.2052072286605835, -3511.361083984375, -15852.771484375, -17362.244140625, -8419.2607421875, -16304.884765625, 7880.53076171875, -7795.8330078125, -5549.15869140625, 5842.18359375, -6102.46044921875, -15917.9970703125, -18461.611328125, 8662.1728515625, -5553.26416015625, -7225.81982421875, -18421.796875, 8654.62109375, -12512.7880859375, 5065.1083984375, -45812.1953125, -14796.21875, 4538.802734375, 18753.404296875, 5434.16943359375, 26353.060546875, 13224.0146484375, 14567.2783203125, 11492.4921875, -12.45269775390625, 5.97982931137085, -9.672606468200684, -14.661293983459473, -10.88605785369873, 10.729622840881348, 3.0478975772857666, -10.783065795898438], [50.12199783325195, -42.621707916259766, -41.864036560058594, 49.04568099975586, -16.764753341674805, 44.44716262817383, -45.27239227294922, 29.440336227416992, 48.35146713256836, -29.98657989501953, -41.8216438293457, -30.417024612426758, -39.329219818115234, 39.375099182128906, -29.943214416503906, -36.104129791259766, 38.05974197387695, 39.90447235107422, 39.87661361694336, -33.9555778503418, -286.4140319824219, -29.764339447021484, 35.855411529541016, 64.89166259765625, 40.812034606933594, -51.25141906738281, 47.0601806640625, 35.5782356262207, -1.3491864592651837e-05, -0.0021865898743271828, 4.877945899963379, 6.14926290512085, 0.12296454608440399, -12.629545211791992, -4.130413071834482e-05, -10.506036758422852, 5.9915032386779785, -0.362392395734787, -0.5010671615600586, 0.0021618399769067764, 3.3272948265075684, 3.6326441764831543, -2.695957660675049, -91.69513702392578, -2.0707807540893555, 0.5107595920562744, -6.0395402908325195, -0.6607869863510132, 37.81275939941406, 8.739628791809082, 0.1500197947025299, -0.6639307141304016, -0.4264209568500519, 0.2999439239501953, -35.92562484741211, -0.002358954166993499, -2.3120369911193848, 2.0515029430389404, -0.15418854355812073, -7.384510040283203, 3.8061130046844482, 4.146035671234131, 4.103858470916748, -4.540554046630859], [-2160.419677734375, 1.6272681951522827, 848.94189453125, 1429.7301025390625, -8.278400491690263e-05, 1904.7275390625, 953.2797241210938, 1442.0643310546875, 1836.2506103515625, 1715.1129150390625, 4.308356285095215, 1323.583740234375, 557.6693725585938, -2824.0224609375, 1416.339599609375, -1142.1578369140625, 0.0005125583847984672, 4828.8935546875, 1728.4990234375, 1727.43701171875, -12258.9970703125, 1983.1710205078125, 839.552978515625, 2129.802978515625, 116.48529052734375, -1627.252197265625, -0.0037649909500032663, 877.3260498046875, -1.4159409999847412, 0.006618383340537548, -185.11529541015625, -13.50433349609375, 763.48681640625, 41.00399398803711, 3.42960593116004e-05, 826.7675170898438, -428.66912841796875, -4.733172416687012, 14.383211135864258, 2859.977294921875, -38.71571731567383, -3.393747568130493, 29.39870262145996, 12523.076171875, 12.850341796875, 0.4988320469856262, -13.942740440368652, -0.5861835479736328, -4776.23583984375, 389.340576171875, -0.15679585933685303, 5.219063758850098, 0.42612364888191223, 0.17737308144569397, 1288.182373046875, 0.0005836133495904505, -0.6713010668754578, 0.8221365213394165, 0.0634177103638649, -2.4070613384246826, 0.4042169749736786, -1.5581128597259521, 0.33103224635124207, 1.3294047117233276], [-7.97586727142334, 40.5356559753418, -36.62617492675781, 6.182523727416992, -16.652387619018555, -0.64500492811203, -6.573288440704346, -14.659880638122559, 9.580164909362793, 12.465883255004883, -41.18769454956055, 18.91193962097168, 5.269087791442871, -4.822763919830322, -4.492671966552734, -0.46963760256767273, -40.303672790527344, 9.454177856445312, 13.08411693572998, 5.8035173416137695, -7.409330368041992, 10.62328815460205, -2.1848256587982178, -22.8386287689209, 35.469783782958984, -24.6635799407959, -36.41708755493164, 16.595829010009766, -1.7772390492609702e-05, 0.002784721553325653, 4.882071495056152, 6.574079990386963, 0.15302996337413788, -13.385377883911133, 3.932261097361334e-05, 11.104394912719727, -6.327010631561279, -0.5160685777664185, -0.4888966977596283, 0.002065685810521245, 3.6402902603149414, -4.1478800773620605, -3.003787040710449, 93.3501205444336, 2.430509090423584, -0.6685996055603027, -6.442011833190918, -0.5694540143013, 39.06465148925781, 9.292906761169434, -0.15322819352149963, -0.8160143494606018, 0.4252525866031647, 0.20165613293647766, -36.08332443237305, 0.00014309764083009213, 2.8857545852661133, 2.5052621364593506, -0.9505499601364136, -7.946217060089111, -4.419864177703857, -4.531541347503662, -4.768778324127197, -5.065707683563232], [1.3335046844531462e-08, 2.776610408261604e-08, 2.7666048936225707e-06, 6.166152477504738e-09, -6.859045953433451e-08, -6.846325106835138e-08, 6.24926133241388e-06, -5.545228418668557e-07, -1.1981424904661253e-05, 2.465911563831469e-07, -8.685610453085246e-08, -2.343219421163667e-05, -1.2104296231996159e-08, -4.830880584449915e-08, -3.878011511915247e-08, 2.2488848117063753e-08, 1.657713255553972e-07, 9.662371667218395e-06, -3.518512676237151e-05, 2.5302102635293977e-09, 4.837552296521608e-06, 5.2553325247117755e-08, -3.7020586596270277e-10, -6.17392430513064e-08, 4.3021412210464405e-08, 8.706510925549082e-07, -7.185007797061438e-16, -1.128932808569516e-06, 5.6141196580483665e-08, 3.1953281904861797e-06, 4.017203173134476e-05, -2.8825072604377056e-06, 1.5662124496884644e-05, 1.7055817806976847e-06, -6.591328565264121e-05, -4.552687641989905e-06, 7.83594647502106e-11, -1.594519562786445e-05, -8.133895335049601e-08, -9.832103387452662e-05, -2.1046926121925935e-06, -3.973213824792765e-05, 2.1355073442919092e-07, -9.789568866835907e-05, -2.975172947117244e-06, -4.226531927997712e-06, -3.1972003853297792e-06, 9.933764033576153e-08, -1.6508960470673628e-05, -8.647313975984616e-09, 4.4686752517009154e-05, -0.0001125174094340764, 2.557863467700372e-07, -1.3940282769908663e-05, 2.9972225092933513e-05, -1.8231514332001098e-05, -0.26499345898628235, -0.3319520354270935, -0.42959916591644287, -0.031053682789206505, 0.07904156297445297, -0.5862793326377869, -0.23604941368103027, -0.48298463225364685], [438.3081359863281, 0.0006417885888367891, -512.522216796875, 11.12566089630127, -4.851075209444389e-05, 5102.228515625, -953.4618530273438, -1688.4853515625, -182.47283935546875, 3357.88671875, -0.0004218424728605896, 2710.399169921875, -117.9238052368164, -818.0504760742188, -4661.552734375, -1828.1201171875, 3.3784537315368652, -49.2390251159668, 6541.076171875, -434.83575439453125, 7986.5537109375, -826.475341796875, 246.0888671875, 6471.453125, 2199.369873046875, 8231.3642578125, -0.0013050201814621687, -0.04362642019987106, -10.659406661987305, 0.008129854686558247, -6190.8427734375, 1439.6092529296875, 2864.88623046875, 1727.38916015625, 2.5830020604189485e-05, 658.0512084960938, 599.3429565429688, 0.3170418441295624, 442.1899719238281, -7498.0654296875, -2556.12841796875, 1.783323884010315, 1.6926069259643555, -8995.1044921875, 1855.05224609375, -3449.430419921875, 676.0438842773438, -0.6321922540664673, 8129.71923828125, -364.5028991699219, -0.15188546478748322, -0.15385162830352783, 0.4263836443424225, -43.97529220581055, 5298.98388671875, 0.00011678333976306021, -0.7546114325523376, 0.06452909857034683, 0.1975068747997284, -2.431600332260132, -0.25124385952949524, 1.3712012767791748, -1.2863526344299316, -1.276058554649353], [4149.21923828125, 0.758151113986969, 820.728271484375, -3207.69580078125, -0.5225441455841064, -1233.5992431640625, 995.0799560546875, 1213.2607421875, -3810.888671875, -795.9429931640625, -4.1202154534403235e-05, -895.1094360351562, 1132.5572509765625, 2436.54541015625, 1317.2890625, 921.0513305664062, 5.073879219708033e-05, 1845.1868896484375, -996.0051879882812, -3136.037109375, 1923.446533203125, 1057.093505859375, -1243.929931640625, 1422.292236328125, -1887.4227294921875, -1277.35888671875, -0.00015732157044112682, -3480.494140625, -1.3440401744446717e-05, -0.006643044762313366, 2.608067750930786, -3.870237350463867, 0.3644035756587982, -6.752788066864014, 4.447697210707702e-05, -5.620443344116211, 3.2805285453796387, -0.23468539118766785, 0.5596038103103638, 0.0007146904245018959, 2.0779476165771484, -1.916412591934204, 1.4311444759368896, 6.9513702392578125, -1.395168423652649, -0.7501697540283203, -3.3986101150512695, 0.6981477737426758, 16.824115753173828, -4.676616668701172, -0.1518177092075348, -0.1751948595046997, -0.3945668637752533, 0.1944163739681244, 16.59330177307129, 0.00010882550850510597, 0.8417091369628906, -0.7603034377098083, -0.06324023008346558, -2.688464403152466, -0.2505272924900055, -1.3378722667694092, 0.7476685643196106, 1.9007198810577393], [2.9658733247117652e-09, 1.7047892697519273e-07, -3.7226880067464663e-06, -5.034516803448241e-09, -1.666738711492144e-07, -5.553802751023795e-08, 0.0001678010739851743, -8.982898407339235e-07, -9.011322617880069e-06, 1.9730767064629617e-07, 1.0915679382605958e-07, 3.9464175642933697e-05, -1.3814656085742172e-09, 1.719402042965612e-08, 1.0095087077388598e-07, -1.8803712009685114e-07, -3.444417018272361e-07, -1.0377547368989326e-05, -4.6843393647577614e-05, -4.903556227731087e-09, 6.226479854376521e-06, 1.1072142314105804e-07, 2.0080541673905827e-09, -1.7595353085653187e-07, 5.082823051338892e-08, -4.6289156330203696e-07, 5.189346673727113e-14, -2.1110002634827651e-10, -2.129133136463679e-08, -4.987423949387448e-07, 5.284043072606437e-05, 3.8759740164096e-06, 2.1383146304287948e-05, -2.2312658529699547e-06, 0.0009236462647095323, -5.895142294320976e-06, -1.4687157046111565e-09, -0.0006060927407816052, -1.5337705860929418e-07, -0.00013455112639348954, -2.2471319880423835e-06, -0.000584426277782768, 5.933268099056477e-08, -0.000142401855555363, -3.400503373995889e-06, -6.9256698225217406e-06, 4.6104601096885744e-06, 2.4923858177317015e-07, 2.107967338815797e-05, -1.393280868455804e-08, -0.0008753410074859858, 0.0015835171798244119, -3.950941902530758e-07, -2.2166336748341564e-06, -4.2197621951345354e-05, -0.0001872983411885798, -0.7648200392723083, 0.30824416875839233, -0.020252957940101624, 0.3181702196598053, -0.3446007966995239, 0.9625234603881836, -0.838811993598938, -0.9295084476470947], [-9037.8115234375, -0.8719068765640259, -2939.614990234375, 6650.94482421875, -4.661457538604736, -7116.6904296875, 7567.03515625, 9870.783203125, 7342.66064453125, -6832.1826171875, -0.00013812450924888253, 5487.47412109375, -11152.2529296875, -6674.96337890625, -6773.7412109375, -6696.66259765625, -0.00015730287123005837, -6860.86083984375, 6605.45849609375, -7677.9755859375, -15327.498046875, 4895.24755859375, 5987.86865234375, -9902.443359375, -11010.67578125, -8675.064453125, 9.128727106144652e-05, 9189.375, -1.3469089026330039e-05, -0.0046021658927202225, 7.019247531890869, 9.122873306274414, -0.12831105291843414, 18.93169593811035, 4.428843021742068e-05, 15.960826873779297, -9.128396987915039, 0.8656619191169739, -0.4984821081161499, -0.0013337819837033749, -4.8964524269104, 6.032224178314209, 4.464890480041504, 131.91595458984375, -3.2972664833068848, -0.8966107368469238, -9.17914867401123, -0.6470012664794922, 55.90992736816406, 13.485325813293457, -0.17218303680419922, 1.4044843912124634, 0.4251668155193329, -0.24029359221458435, 50.08135223388672, 0.00011983545846305788, 3.8362860679626465, -3.576096534729004, 0.8450000286102295, 10.761697769165039, -6.017022132873535, 6.22053861618042, 6.423149585723877, 7.357248306274414], [-985.2290649414062, -43.33433532714844, -303.2919006347656, -731.6245727539062, -12.524486541748047, 628.3536376953125, -699.93994140625, -1373.001220703125, -775.8718872070312, -465.4949035644531, 37.25453186035156, 451.537353515625, 1279.09912109375, 622.7174682617188, -637.6917724609375, 516.6954956054688, 41.91130447387695, 661.3668823242188, -587.66455078125, -694.155517578125, 1684.0169677734375, 450.4018859863281, -647.6212158203125, -919.573974609375, -1284.9228515625, -910.1338500976562, -0.0001480727078160271, 899.1656494140625, -1.3625071005662903e-05, 0.0038045558612793684, 6.2711591720581055, -8.25605583190918, -0.06810112297534943, -16.883459091186523, 4.299189095036127e-05, -14.273262023925781, -8.016865730285645, -0.7868999242782593, 0.5582427978515625, 0.0020792828872799873, -4.411911487579346, 5.251444339752197, 3.9318056106567383, 118.1004867553711, -2.9623608589172363, -0.7378716468811035, -8.112456321716309, 0.6083639860153198, 49.72888946533203, 11.960808753967285, -0.15864084661006927, 1.321494698524475, -0.42502835392951965, 0.20247864723205566, -44.94641876220703, -0.00013914372539147735, -3.5599076747894287, -3.22520112991333, -0.9252227544784546, 9.749590873718262, -5.50106143951416, 5.701843738555908, 5.792588710784912, 6.6229729652404785], [-58.90876770019531, -53.299434661865234, 50.733951568603516, -60.5800666809082, -20.630271911621094, 54.775020599365234, -56.25916290283203, 36.537696838378906, -60.24339294433594, -36.705074310302734, -51.001644134521484, -39.292518615722656, 49.865989685058594, 48.346317291259766, -37.932151794433594, 47.36763381958008, 47.59012222290039, 48.53374099731445, -48.99296951293945, 41.94537353515625, 339.4662170410156, 37.3273811340332, 42.43398666381836, 80.42240142822266, -49.546531677246094, -63.34607696533203, 56.79627990722656, 37.812599182128906, -0.00015556119615212083, 0.0021495437249541283, -5.732168197631836, 7.398778438568115, -0.3062082827091217, 15.395444869995117, -4.964859181200154e-05, 12.716690063476562, -7.1104607582092285, 0.7229858636856079, -0.4888182580471039, 0.0011079228715971112, -3.997838258743286, 4.563809871673584, -3.3890318870544434, -108.39469146728516, -2.584085464477539, -0.6578117609024048, 7.357142448425293, 0.6470731496810913, 45.15534973144531, 10.628443717956543, -0.17200955748558044, 1.0437670946121216, -0.4201289713382721, -0.20798823237419128, -41.61558151245117, -0.00011490921315271407, -2.8861117362976074, -2.712651491165161, 0.5747952461242676, 8.69202709197998, -4.838260173797607, -5.013254642486572, -5.0900373458862305, 5.667693138122559], [1951.50537109375, -0.00020330365805421025, -1472.5970458984375, 1569.6448974609375, -2.9065704438835382e-05, -1798.327392578125, 3217.99755859375, 2225.857421875, -4241.85546875, 2325.485595703125, 0.00013162120012566447, -1584.868408203125, -2010.4739990234375, -2086.286865234375, 1955.4248046875, 2448.756103515625, -7.689363956451416, 3115.412109375, -1664.37939453125, 3924.4111328125, 8211.708984375, -1975.31396484375, -1679.0863037109375, -2034.73583984375, 2758.063232421875, 2154.64111328125, -51.81966018676758, -2303.279296875, -1.3664652215084061e-05, -0.008192350156605244, -5.483216285705566, 7.077937602996826, -0.2791503071784973, -14.628423690795898, 4.257657928974368e-05, 12.05079460144043, -6.94806432723999, 0.7215842008590698, -0.5152692794799805, 0.002134540816769004, 3.928738594055176, 4.397520542144775, 3.341519355773926, 102.87218475341797, -2.5983200073242188, 0.7677249908447266, 6.894260406494141, -0.6471500396728516, -42.768157958984375, 10.172490119934082, -0.15185073018074036, 1.0944916009902954, -0.4265173375606537, -0.218941330909729, -39.696266174316406, 0.00014073343481868505, 2.7788524627685547, 2.601679801940918, -0.645149827003479, 8.813653945922852, -4.7654547691345215, -4.805211544036865, -4.944553375244141, -5.451831340789795], [1020.4575805664062, -629.114501953125, 416.5430603027344, -1003.9716186523438, -215.2470703125, 1022.711669921875, -1083.0833740234375, -1073.97998046875, 358.95172119140625, -974.302001953125, -408.5510559082031, 1935.5615234375, 765.5059204101562, -968.1063842773438, 960.4307250976562, -6442.06103515625, -468.07281494140625, -773.1959228515625, -534.8701171875, -626.7799072265625, 3430.805908203125, -306.3844909667969, 803.3455200195312, -867.6985473632812, -494.30859375, 2612.662841796875, 1172.7056884765625, -421.2598571777344, -0.07684395462274551, 50.061988830566406, 2085.6875, -1188.8905029296875, -1741.5152587890625, 843.1477661132812, -0.19088555872440338, -427.4031677246094, 232.9049530029297, -0.2585412561893463, 1714.61181640625, 2927.89892578125, 783.1787719726562, 0.34421637654304504, -5.565907486015931e-05, -670.5769653320312, 994.363525390625, -1998.699462890625, 621.0137939453125, -550.5000610351562, -309.19439697265625, -0.6570001840591431, 293.3576965332031, -2.223647117614746, -439.0436096191406, 65.46421813964844, -1095.03076171875, -0.7889769673347473, 0.14013314247131348, -1.7425203323364258, 0.8051631450653076, -0.5454643368721008, -1.4038844108581543, 3.8669047355651855, -2.7298879623413086, -1.4691822528839111], [-8.625303962617181e-06, 1.3360416232899297e-05, 0.00860692746937275, -4.0654784243088216e-05, 0.0003607759135775268, 1.1168906688690186, 0.36311423778533936, -4.442982196807861, -0.00016335265536326915, -33.756961822509766, -7.00591385793814e-07, 1.5982444286346436, 4.383280611364171e-06, 7.734688551863655e-05, 0.00024241686332970858, -1.811315655708313, -0.00023135394440032542, -0.0002880399115383625, 370.19329833984375, 2.958972254418768e-05, 7.456958293914795, 0.0003408831835258752, 3.6847859519184567e-07, 0.0005630572559311986, 5.753474397351965e-06, 0.25389525294303894, -0.0006988500826992095, 3.2760281101218425e-06, -0.0114384014159441, 5.402863025665283, 3086.40478515625, 531.7780151367188, -7543.8564453125, 512.5043334960938, -7.186844348907471, -13.118195533752441, -522.99462890625, -0.2607251703739166, 6606.24560546875, 5380.39306640625, 465.3695068359375, -0.1579717993736267, 227.35081481933594, 5123.6376953125, -375.5119323730469, 1679.787353515625, -405.9199523925781, -3926.11767578125, -2326.05078125, -194.17416381835938, 1977.690185546875, 2.281838893890381, 2447.058837890625, -6992.326171875, -1806.75830078125, 0.4982445538043976, 0.7186221480369568, -0.2700001001358032, 1.4181138277053833, 0.6661741137504578, 0.8581541776657104, 0.1607470065355301, 0.036567289382219315, -0.5717622637748718], [-1638.6766357421875, 1472.6768798828125, 441.967529296875, 2157.163330078125, 280.707763671875, 6459.9248046875, 3333.609130859375, -2598.077392578125, -1436.6446533203125, -2259.474853515625, -636.7335815429688, 4283.69482421875, 1815.6844482421875, 1092.638427734375, -2530.931396484375, -1567.305419921875, 638.5279541015625, -376.0000305175781, -202.94053649902344, -1914.9913330078125, 33.596744537353516, 60.174129486083984, 1448.1905517578125, -6158.52294921875, 1599.6256103515625, -5690.0478515625, 1848.5750732421875, 1727.9298095703125, 0.09855978935956955, 51.44423294067383, -3605.951171875, 1553.5841064453125, 2154.619140625, 1527.81494140625, 0.3609715402126312, -1175.0872802734375, -398.9155578613281, -0.552498996257782, -1028.87060546875, 5122.0400390625, 1422.279296875, -0.789166271686554, -0.00016421955660916865, 4175.5830078125, 1308.916259765625, -2187.025634765625, 1005.4441528320312, -823.2188720703125, 4661.3603515625, 0.691697359085083, 579.3613891601562, 3.033021926879883, 724.77001953125, 110.41522979736328, 3158.662841796875, 1.0141202211380005, -0.15868790447711945, -3.3828933238983154, 0.13556775450706482, 0.5283879637718201, -2.303145170211792, -5.5353851318359375, -3.7493860721588135, -2.4347808361053467], [8.084966793830972e-06, -1.710406104393769e-05, 0.007382170297205448, -7.75647731643403e-06, 0.0003267204447183758, -1.2110137939453125, -0.3664935231208801, -4.425032615661621, 6.93200490786694e-05, 1.5956902503967285, 0.002209072234109044, 1.5886073112487793, -7.953709427965805e-06, -7.976048073032871e-05, 0.00015707816055510193, 1.8065308332443237, -0.0004858959000557661, -0.0003867163904942572, 7.184225082397461, 5.513497853826266e-06, 7.463203430175781, 0.00018061022274196148, 4.135106792091392e-06, -0.0001562541292514652, -0.00017319766629952937, 0.48324236273765564, -1.217705450362594e-11, 2.792322220557253e-06, -4083.077392578125, -9049.0458984375, -14282.916015625, -7493.8125, 30144.287109375, 7034.53662109375, 5431.55078125, 5627.94580078125, 5710.66162109375, 5031.83984375, -21674.533203125, 21649.177734375, 7140.97216796875, -5068.8427734375, -6054.42431640625, -16924.087890625, -7325.41943359375, -10613.197265625, -6722.20947265625, -19550.349609375, -10863.546875, 5049.72412109375, -11448.87109375, 4023.224365234375, -14135.8671875, 24996.064453125, 9506.052734375, -6539.7138671875, -0.48498404026031494, 0.02017001435160637, -1.655582308769226, -0.9667044878005981, -0.7733699679374695, -0.20365509390830994, 0.05407591909170151, -0.1644825041294098], [-1.4927404663467314e-05, -5.777130354545079e-06, 0.007383984513580799, -1.209514266520273e-05, 0.0002819790388457477, -1.087231159210205, -0.3633483052253723, -4.436463832855225, 0.00015969001105986536, -0.0014518818352371454, 0.00055359659017995, 1.5949692726135254, 7.109713351383107e-06, -0.00023290564422495663, 0.00018023619486484677, -1.804801106452942, 0.00018980821187142283, -0.00024316355120390654, -6.686881065368652, -1.1930624168599024e-05, 19.51146697998047, -0.00034043382038362324, -4.116494892514311e-06, -0.00016686422168277204, -0.00012070435332134366, -0.3673621118068695, 0.0068361335434019566, 1.9925985270674573e-06, -0.21694524586200714, 15.086142539978027, 2.898669719696045, 0.5909695625305176, -192.59854125976562, -0.16498389840126038, -0.13701480627059937, 0.10861843824386597, 0.26400226354599, 0.1616317480802536, 601.0363159179688, -699.752197265625, 0.5054085850715637, -0.4332364797592163, 36.24640655517578, -1687.869140625, -0.2539730966091156, 0.5856574773788452, 0.13493748009204865, 0.2967064082622528, 371.97509765625, 0.16911917924880981, 1.834761381149292, 1.8584758043289185, -1.8629823923110962, 633.784912109375, 171.03944396972656, 13.972146034240723, 0.9304878115653992, -0.7709999680519104, 0.7560481429100037, -0.32541632652282715, 0.4711233675479889, 1.094643235206604, 0.2311144471168518, 0.5799394249916077], [-1.3551032679970376e-05, 5.671406122509381e-10, -0.0073828669264912605, 3.997930616606027e-05, 0.0006046447670087218, 1.161482334136963, -0.3632602095603943, -4.440020561218262, -0.000159259740030393, 1.6231845617294312, -0.0006269705481827259, -1.5815277099609375, 2.236199361504987e-05, 0.00011033521150238812, 0.00016219574899878353, -1.7984215021133423, -0.0007327704224735498, 0.0002999079879373312, 7.178928375244141, 2.562973168096505e-05, -7.575918197631836, 0.00010238371760351583, 1.3052476788288914e-07, 0.00015874067321419716, -6.077574653318152e-06, -0.25431105494499207, -0.0008646358037367463, -8.00366160547128e-06, -244.70472717285156, -460.636962890625, 900.0800170898438, 494.68377685546875, -1307.1927490234375, 444.73291015625, -315.6769104003906, 353.52532958984375, 351.1503601074219, 271.7929992675781, -1283.210693359375, 1080.43701171875, 437.52484130859375, -326.4454040527344, 390.24072265625, 1416.618896484375, -408.4593505859375, 719.8560180664062, -476.5003662109375, 1100.9896240234375, -741.24658203125, -310.77984619140625, 688.4365844726562, 234.36341857910156, -845.075439453125, -1394.190673828125, -733.0921630859375, -344.0237731933594, -0.4978064298629761, 0.5389710664749146, -0.6209725737571716, 0.7353709936141968, -0.8307212591171265, -1.1053720712661743, 0.09278329461812973, -0.147584468126297], [1.8685592294787057e-05, -2.268020216433797e-05, 0.008437391370534897, 4.2148385546170175e-06, 6.87688443576917e-05, -1.2125239372253418, -0.3907022476196289, -4.429280757904053, -0.00015928767970763147, -0.0006580179906450212, -8.948198228608817e-05, -1.582732915878296, 1.8728125041889143e-06, -0.00013848156959284097, 0.00011493249621707946, -1.8171137571334839, 0.00083174864994362, 0.000386750849429518, -8.375415802001953, -1.5793926650076173e-05, -7.545022964477539, 0.0003143850190099329, -1.8811283553077374e-07, -6.638374907197431e-05, -0.00012186291860416532, -0.39197397232055664, 0.0029591992497444153, -8.35498849482974e-06, -66.59026336669922, 6.533985137939453, -201.8675537109375, -86.77686309814453, 199.77188110351562, 6.316585540771484, -80.83863067626953, 10.492219924926758, 17.106136322021484, -40.209434509277344, 450.2242126464844, -270.52008056640625, -0.4385527968406677, -81.09922790527344, 109.81271362304688, -601.246337890625, -3.946817398071289, 140.06939697265625, 140.50729370117188, 129.00706481933594, 36.645042419433594, -26.30716323852539, 3.1790220737457275, -29.278972625732422, -0.12345065176486969, 476.63385009765625, 164.753662109375, 0.42328351736068726, 0.6162638664245605, -0.30052754282951355, -0.3379303514957428, 0.6676486134529114, 0.6541558504104614, 0.5549253821372986, -0.08668789267539978, -0.0385010726749897], [1.1231635653530248e-05, 1.4916957297828048e-05, 0.007389637641608715, 1.1911817637155764e-05, 0.0002473424538038671, 1.126124382019043, 0.4211353063583374, -4.439125061035156, -9.180491178994998e-05, -58.5988883972168, -2.292130651948554e-10, -1.582594871520996, 9.292709364672191e-06, -0.0001899714261526242, -0.00010880691115744412, 1.7820736169815063, 0.0002556004037614912, 0.000289154180791229, -373.9789733886719, 1.3374559785006568e-05, 7.527898788452148, 0.00018565758364275098, -8.11573499959195e-07, 3.2320531317964196e-07, 5.3295188990887254e-06, -0.25397631525993347, -1.8257090284024002e-10, -2.3248921934282407e-06, -0.008418544195592403, 7.538716793060303, 3224.058349609375, 724.7299194335938, -8154.322265625, -653.2410888671875, -283.37139892578125, 211.26971435546875, 528.37939453125, -0.05348142236471176, -6441.21484375, 5544.4306640625, -644.2144165039062, -136.16024780273438, 416.15380859375, 5164.6279296875, 555.4605102539062, 2035.8360595703125, 650.583984375, -4772.25927734375, 2395.183349609375, 328.9842529296875, 2287.474853515625, 2.3913426399230957, -2813.325927734375, -7125.447265625, 1903.708740234375, -0.7881004810333252, 1.204143762588501, 0.29079365730285645, -1.599835991859436, 0.6598261594772339, 0.7338451147079468, -0.15130825340747833, -0.040811046957969666, -0.2479395866394043], [8.74649686011253e-06, 3.930304765701294, -5.016687393188477, -6.80149507522583, 0.6243692636489868, -10.919676780700684, 13.078365325927734, -20.0020809173584, -2.6698262691497803, -1.6121165752410889, 6.981001853942871, 45.537071228027344, 29.692325592041016, -6.5144219398498535, -4.157868385314941, -88.34152221679688, -7.480320453643799, 5.529465198516846, 13.42137336730957, -2.752096652984619, 195.16085815429688, 9.191408157348633, -5.237170696258545, -12.73030948638916, -22.026975631713867, -14.589618682861328, -4.748892784118652, -2.1592929363250732, -0.1269633024930954, 18.342344284057617, 103.18183898925781, 5.910435676574707, 105.0183334350586, -7.3611159324646, -0.14079952239990234, 3.341398000717163, 3.2016947269439697, -0.130838543176651, -379.90496826171875, -471.0698547363281, -3.4704179763793945, -0.23252463340759277, -0.6022256016731262, -1719.24609375, -5.44136905670166, -44.68412780761719, 4.663224697113037, -15.312681198120117, -15.66391658782959, -2.4767510890960693, -5.884303569793701, 5.121735095977783, -15.956010818481445, 216.20645141601562, 126.91434478759766, -4.934314727783203, 0.4893484115600586, -1.3923090696334839, 0.8012837767601013, 0.31562575697898865, -0.15048260986804962, 1.3285233974456787, -0.7643029093742371, -0.7506598830223083], [11434.1201171875, 1373.519287109375, -2341.72412109375, -12392.5439453125, 339.0321350097656, -1081.9744873046875, -9633.94140625, -11122.0, 506.4009094238281, -1225.4395751953125, 633.8941040039062, -1933.5294189453125, 15641.4677734375, -5577.41845703125, -11711.3203125, 1018.253173828125, -779.4403076171875, 1.353907585144043, -1594.917236328125, 1801.8193359375, 2658.370361328125, 346.02313232421875, 4573.6279296875, -858.4720458984375, -13810.7109375, -2784.222412109375, -2310.648193359375, 14929.107421875, -0.6048553586006165, 100.16446685791016, 4228.02783203125, 1867.4879150390625, -2126.888427734375, 1837.1773681640625, 0.3988489508628845, 1637.723388671875, 318.1482849121094, 0.6075628399848938, -1065.746337890625, -5346.15673828125, -1828.969482421875, 1.6200778484344482, -4.5558241254184395e-05, -7029.10400390625, -1855.1646728515625, 2567.400634765625, -1286.5557861328125, 1167.1756591796875, 5797.71240234375, -3.537750005722046, -758.4865112304688, 5.770190715789795, -1013.317138671875, -175.19239807128906, 3702.20703125, -1.902421474456787, 0.3615817129611969, -10.883496284484863, -0.21893835067749023, 0.05585748329758644, 3.9220035076141357, 4.532076358795166, 7.6440815925598145, -3.2192447185516357], [5.515152224688791e-06, -5.9501508076209575e-06, -0.007604854181408882, 2.877414590329863e-05, 0.0003188408736605197, 1.053530216217041, 0.3612048029899597, -5.609314918518066, 0.00011903756239917129, 1.00436270236969, -8.131854701787233e-05, 160.99063110351562, 3.259172444813885e-06, 0.0002329163544345647, 5.080213668406941e-05, -979.8916015625, -0.0004490659630391747, 0.0002426676219329238, 82.93355560302734, -4.181701115157921e-06, 47.04078674316406, 0.0003098485467489809, 1.1473518952698214e-06, -0.0001938708301167935, 0.000256369705311954, -0.3772934675216675, -0.002450006315484643, 7.87329099694034e-06, -0.3774260878562927, -19.723365783691406, -381.6150207519531, 115.86616516113281, 549.67529296875, 25.846309661865234, -1.5583465099334717, -21.71422576904297, -14.352102279663086, 0.8152980804443359, 949.3492431640625, 529.65478515625, -26.518213272094727, -1.9010151624679565, -4.350503921508789, 733.98583984375, 103.60562133789062, 413.139404296875, 10.047028541564941, 71.0685043334961, -34.73423767089844, 6.74431848526001, 33.39881134033203, -3.2863357067108154, -44.31041717529297, -759.5006713867188, 115.89594268798828, 17.947118759155273, -0.3904927670955658, -0.7250010371208191, 1.1235942840576172, -0.4851563274860382, 0.0806683823466301, 0.6709213852882385, 0.2619131803512573, 0.3252377212047577], [1.1082523087679874e-05, -5.107534395420998e-10, 0.008606767281889915, -2.8381506126606837e-05, 0.0004099049256183207, 1.081176519393921, -0.3663240075111389, -4.439048767089844, -0.00024892264627851546, 166.45741271972656, 6.0438052132405495e-12, 1.5849463939666748, 3.3097257983172312e-06, 8.527451427653432e-05, 0.00028263943386264145, 1.7839618921279907, -3.643444142653607e-05, -0.00029811973217874765, 247.60650634765625, 3.288241714471951e-05, -7.447408676147461, -0.00025632540928199887, 4.077393896295689e-06, -6.573415157618001e-05, -5.6901735661085695e-06, 0.36586520075798035, 0.00820997916162014, -1.5111148968571797e-05, -0.27212750911712646, -9.417478561401367, 1652.3477783203125, -52.30377197265625, 5941.92333984375, 0.6225306987762451, 0.08345191925764084, -31.82139015197754, 207.1467742919922, -0.3932671546936035, -4300.7861328125, -3967.958984375, 0.7583518028259277, 0.1447935551404953, 6.255496828089235e-06, 3911.220703125, 0.7382124662399292, 872.6378784179688, 11.859756469726562, -2247.47119140625, 1341.700439453125, 0.5028092265129089, 917.4727783203125, -1.9494327306747437, 878.57763671875, 4451.54296875, 869.9819946289062, 0.789494514465332, 0.18783630430698395, -0.49336865544319153, 1.0729501247406006, -0.7976928353309631, -1.0848084688186646, 0.39491167664527893, 0.04731634631752968, 1.2370309829711914], [-1.363485171168577e-05, 8.967984967966913e-07, 0.007388935424387455, -6.336555088637397e-06, -0.00013481533096637577, 1.0690116882324219, -0.363705575466156, 4.423516750335693, -0.00011274514690740034, 0.302839994430542, -0.0005867748986929655, -1.5809526443481445, 6.828788173152134e-06, 8.544593583792448e-05, 0.0002784054377116263, 1.7986799478530884, -0.00010529349674470723, -0.0002948744222521782, 6.120760917663574, -2.195793786086142e-05, -28.28548812866211, -0.00018043466843664646, -7.021355031611165e-06, 0.0001404142822138965, -0.0002512483624741435, -0.25055551528930664, 0.0004209593462292105, -6.629364179389086e-06, 0.27809715270996094, -2.963174819946289, -85.7900619506836, -2.167457103729248, -6.990464210510254, -1.9654159545898438, -0.3333452343940735, 1.4984862804412842, 0.9690001010894775, 0.2900763154029846, -482.1956787109375, 260.06658935546875, -2.863365650177002, -0.3304603397846222, -0.5762351155281067, 862.9654541015625, -1.3366299867630005, 4.375472068786621, 6.855302810668945, -8.270069122314453, -89.7389907836914, 1.1262259483337402, -2.5880355834960938, 0.7413555979728699, 5.863390922546387, 437.1390380859375, -186.99581909179688, -1.821081519126892, 0.9299502372741699, -0.8488354086875916, 0.546051561832428, -0.7578592896461487, 0.7946504354476929, 1.0933669805526733, -0.46856561303138733, 0.48845234513282776], [-10010.2060546875, -1576.6829833984375, -2043.2659912109375, -11910.728515625, -404.9333801269531, -915.5769653320312, 8164.86474609375, 11424.6767578125, 315.6725158691406, 1169.1729736328125, -885.0040893554688, -3383.333251953125, 14645.2080078125, -3935.808349609375, -9151.7373046875, -921.6112670898438, 891.154296875, -99.67757415771484, 2181.74462890625, 203.07447814941406, 4008.5673828125, -320.6026611328125, 4633.27978515625, 423.7527160644531, -8747.201171875, -3415.196533203125, -2945.4140625, 13873.9052734375, -0.201967254281044, 41.50203323364258, -4951.60205078125, 2137.3583984375, -2614.39697265625, 2182.555908203125, -0.5518327951431274, -1932.752197265625, 630.1187744140625, 1.167838215827942, -1474.9530029296875, 5735.2919921875, 2103.51220703125, -1.7301040887832642, 4.265428287908435e-06, 7926.51806640625, 2142.759765625, -3097.957275390625, 1499.771728515625, -1237.2943115234375, 5515.3955078125, -3.3251025676727295, 773.776611328125, 6.452436447143555, -951.3971557617188, 260.2237243652344, -3500.18310546875, 2.3988592624664307, -0.3712603747844696, 11.143485069274902, -0.20011606812477112, -0.06567679345607758, 4.259502410888672, 5.276082992553711, 7.107413291931152, 3.5963144302368164], [-2.0749976101797074e-05, 3.680791996885091e-05, 0.008480632677674294, -2.8017417207593098e-05, -0.0005033476045355201, 1.1815094947814941, -0.36107349395751953, 4.45184326171875, 0.0002403964608674869, -0.0006930684321559966, 0.001410589786246419, -1.590057611465454, -2.327109541511163e-06, 4.8221820179605857e-05, 0.00011352352157700807, -1.8837085962295532, 0.0019893657881766558, -0.00030796622741036117, -262.01629638671875, 3.05013163597323e-05, 7.456751346588135, 0.000318523176247254, -7.193140390882036e-06, 0.0003053871332667768, -0.0002560926368460059, -0.2895185053348541, 0.002540147863328457, 7.962639756442513e-06, 3126.601806640625, 8447.583984375, -8828.1318359375, -4546.47998046875, 18138.42578125, -3524.8779296875, -4197.96435546875, 3381.648193359375, 3926.857666015625, 3827.808349609375, -14973.1162109375, 12527.427734375, 3625.99462890625, 3921.955810546875, -4804.7373046875, -10774.1455078125, 3597.2421875, 6513.787109375, 4922.5087890625, -13875.6220703125, -4986.349609375, -3762.60791015625, -8026.6572265625, -3929.15087890625, 9223.4990234375, 17173.966796875, -4989.21875, 6157.3681640625, -0.9345689415931702, -0.9915307760238647, -3.7052340507507324, -1.2251479625701904, 2.3758857250213623, -0.7664077281951904, -0.1007460430264473, 0.29185473918914795], [6.049570401955862e-06, -1.5602344092258136e-06, -0.007382201962172985, -9.62322792474879e-06, -0.00046084928908385336, 1.095557451248169, 0.38605570793151855, 4.638627052307129, 0.0002714750589802861, -103.20240783691406, -3.723586632986553e-05, -1.5849883556365967, 3.8560260691156145e-06, -6.83184334775433e-05, -0.00018057938723359257, 1.8058735132217407, 0.00012663665984291583, -0.00012181555212009698, 92.77928161621094, 1.4219781405699905e-05, 7.690228462219238, 0.0003144152869936079, 3.2734174055804033e-06, 0.00016446542576886714, 0.0005861116806045175, -0.27489396929740906, 0.009152121841907501, -7.333662324526813e-06, -0.07796362042427063, 9.852021217346191, -2055.0771484375, -416.91748046875, -5922.4873046875, 431.03533935546875, 0.311003178358078, 15.658867835998535, -451.04620361328125, 0.30183058977127075, 4227.40185546875, 3873.494140625, 0.5420789122581482, 0.21037116646766663, -1.2685239198617637e-05, 2591.265869140625, 479.9798583984375, 1162.448974609375, 132.17201232910156, -1385.0987548828125, -239.7321319580078, 16.34972381591797, 700.0806884765625, -1.882690191268921, -1275.0771484375, -4152.05859375, -411.6169128417969, -0.8495548963546753, 0.15233741700649261, 0.6634534001350403, -1.087715983390808, 0.7515050768852234, -1.0427660942077637, 0.5387545824050903, -0.03356535732746124, -1.2076244354248047], [-3.7546848034253344e-05, 9.58556938712718e-06, -0.0073823099955916405, -7.75453827372985e-06, 0.00045745811075903475, 1.2127208709716797, 0.39048105478286743, -4.438089847564697, 1.0648343959474005e-05, 4.5048017501831055, 0.0001139695305027999, 1.6090595722198486, 2.4221335479523987e-06, 0.00011170079960720614, 5.2642579248640686e-05, -1.816269040107727, -0.000355009688064456, 0.00030886332388035953, -395.7703552246094, 4.1662178773549385e-06, -7.568700313568115, 0.000309491966618225, 4.234001607983373e-06, -0.0001403593923896551, 0.0002756969188340008, 0.4858890473842621, -0.0013029588153585792, -7.886504135967698e-06, 826.4758911132812, 1789.2208251953125, -5300.41015625, 1892.7357177734375, 12876.947265625, 1549.562744140625, 1761.8480224609375, 1176.30029296875, -1563.7742919921875, 1057.556884765625, 9162.8818359375, 8675.0302734375, 1575.79443359375, 1341.13916015625, -1905.6744384765625, -7880.935546875, 1479.6546630859375, -3643.38037109375, -2004.442138671875, -11230.783203125, -3693.340576171875, -1425.063720703125, 6002.85302734375, -738.7967529296875, -7646.50341796875, 10753.193359375, -3130.68017578125, 1593.6326904296875, -1.9885149002075195, 1.9492063522338867, 1.9556316137313843, -1.8032810688018799, -1.2717641592025757, 1.0424357652664185, -0.05782213807106018, 0.06377784162759781], [24.08885955810547, -26.301639556884766, 46.55083084106445, 32.970863342285156, 20.578554153442383, 32.347652435302734, 40.17863464355469, -46.3685302734375, -92.70423889160156, -92.18681335449219, 63.062416076660156, -147.3894805908203, -23.5313663482666, -30.165193557739258, -15.769208908081055, -820.5562744140625, -46.757530212402344, -66.62336730957031, -229.59991455078125, 14.588406562805176, 7.791207313537598, -36.19274139404297, 73.31865692138672, -81.67772674560547, -26.603116989135742, -106.78975677490234, 31.683351516723633, -79.94515228271484, 0.004376623779535294, 2.032179355621338, 0.5146467685699463, -0.1439095288515091, -0.948949933052063, -0.19107161462306976, -0.06320438534021378, 0.059523601084947586, -0.021082976832985878, -0.05843342840671539, 99.07891845703125, 125.24659729003906, 0.2202618271112442, 0.026087583974003792, -4.602337639880716e-07, -267.8467102050781, 0.22792628407478333, -0.3182254731655121, -0.05251651629805565, 27.38558578491211, -0.635789155960083, -1.0276423692703247, 6.161020755767822, -0.9147936105728149, -0.20794932544231415, -90.00617218017578, -0.34689417481422424, -0.2746059000492096, 0.6623638868331909, -2.6482527256011963, -1.7760716676712036, 0.95232093334198, 0.6318385601043701, -3.3535783290863037, -2.431286573410034, 1.064868688583374], [1.029430677590426e-05, -2.997214494371292e-07, -0.0073828669264912605, 1.2450092981453054e-05, 0.00014424264372792095, -2.0941054821014404, -0.5167706608772278, 8.118586540222168, 0.0002458505623508245, -9.313399314880371, 3.8613728975178674e-05, -76.32442474365234, 4.448282197699882e-06, 0.0002324363449588418, 6.9083871494513e-05, -553.515625, 0.00011699548485921696, 0.0002463032433297485, 28.23077392578125, -6.603946076211287e-06, -71.54852294921875, 0.0003412184596527368, 4.179824827588163e-06, -0.0003028443898074329, -2.741576827247627e-05, 0.3315410912036896, -0.003601578762754798, 7.452871614077594e-06, 0.15319673717021942, 18.823925018310547, -66.41620635986328, -0.1737223118543625, 4.305803298950195, 0.8792891502380371, 0.12531517446041107, -0.31407296657562256, 0.22143429517745972, -0.16225913166999817, -50.01790237426758, 357.3616943359375, 0.5993537902832031, 0.12565764784812927, 0.2930726706981659, -1389.3489990234375, 1.262555480003357, 1.4512697458267212, 0.5553765892982483, -1.631760835647583, -2.143805742263794, -0.06953941285610199, -0.5150837302207947, 6.4395551681518555, -0.5398139953613281, 2.882370710372925, -2.274462938308716, -8.712300300598145, -0.4909036457538605, -0.5103203654289246, -0.8074319958686829, 0.39646288752555847, 0.16892381012439728, -0.6611565947532654, 0.3190743625164032, -0.43046125769615173], [3.0264323868323117e-05, 1.4628609505962231e-06, -0.007389708422124386, 2.9759688914055005e-05, 1.789341331459582e-05, -0.9984472393989563, 0.37976235151290894, -4.451352119445801, 0.0002781168732326478, -16.382627487182617, 2.6514311684877612e-05, 248.21385192871094, 7.84567600931041e-06, -0.00020804262021556497, -0.00010895499144680798, 2065.51220703125, -0.0002223170449724421, -0.00028636661591008306, 32.72535705566406, 3.134060898446478e-05, -95.58495330810547, -0.0003173682780470699, 7.668697890039766e-07, -0.00025160019868053496, -4.3192911107325926e-05, -2.2011971473693848, 0.00010123031097464263, 2.2648546291748062e-05, 0.06853612512350082, -40.36323547363281, -196.43064880371094, -0.975974440574646, -352.6426086425781, 0.38474512100219727, -0.14827533066272736, -1.132991075515747, 0.3981316089630127, 0.1083342507481575, 407.8382873535156, -481.9111633300781, -1.3253979682922363, 0.11445161700248718, 0.18019932508468628, -8.6016845703125, -1.5898807048797607, 228.285400390625, 0.15147928893566132, 8.461637496948242, -4.453778266906738, -0.07241593301296234, 8.308744145324454e-05, -14.870468139648438, 0.9279364943504333, 320.63818359375, 4.588537216186523, 4.392839431762695, 0.2300589680671692, -0.34056586027145386, -0.7171770930290222, 0.7435140609741211, -0.10876525193452835, -0.24782979488372803, 0.04595589637756348, 0.2429620921611786], [1.4438005564443301e-05, -2.9780167096760124e-06, -0.007604874670505524, 7.373398148047272e-06, -5.1614591939141974e-05, -1.0094830989837646, 0.3900301456451416, -4.436526775360107, 4.099239595234394e-05, 27.47105598449707, 0.00031867792131379247, 1.5817983150482178, -6.857262633275241e-07, -7.97773027443327e-05, -0.0001406131050316617, 1.7963331937789917, -0.0002668865490704775, -0.00011955268564634025, 30.37261390686035, 1.601338772161398e-05, -7.487796306610107, -0.00026136060478165746, 2.6822326617548242e-06, 2.4893961381167173e-06, -4.074549724464305e-05, -0.26051661372184753, 0.0003849971108138561, 1.5607595287292497e-06, -0.13806283473968506, -6.778071403503418, 1322.8314208984375, 0.48351749777793884, -4942.09033203125, 0.32844024896621704, 0.09592559188604355, 17.257017135620117, -88.68875122070312, -0.14202602207660675, -4578.97412109375, -2939.2158203125, -0.673158586025238, -0.34046298265457153, 1.5604122381773777e-05, 2962.259765625, -0.7152870893478394, -403.4072570800781, 4.90979528427124, -2385.361572265625, -841.9183959960938, 0.011083410121500492, -1097.1209716796875, 1.7111356258392334, 1535.996337890625, -4822.9755859375, -484.6766052246094, 0.9467411637306213, -0.41004103422164917, 0.3954048156738281, 0.9438113570213318, 0.5825772285461426, 0.9955434203147888, -0.15365321934223175, 0.03713700920343399, 0.7428027987480164], [8.176440132956486e-06, -2.0233082977938466e-06, -0.007390403188765049, 7.3117826104862615e-06, -0.00010401307372376323, 1.0223822593688965, -0.3904186487197876, -4.428781032562256, 7.838582678232342e-05, -0.15327946841716766, 0.0001425501104677096, -26.78550910949707, -6.856393611087697e-06, 8.111939678201452e-05, -4.996998541173525e-05, -56.40201950073242, 0.0004255892417859286, -0.00011859703226946294, -8.54112720489502, 4.118865945201833e-06, -68.20880126953125, -0.0003199546772520989, -1.5915361473162193e-08, 0.0003027048078365624, 7.876904419390485e-06, 0.29649093747138977, 0.0003640131908468902, -3.890058906108607e-06, 0.09209597855806351, 26.102785110473633, -3.9674928188323975, 0.4933268129825592, 1.436936378479004, 4.96450138092041, 0.08987568318843842, 0.029550161212682724, 2.0734126567840576, -0.09123089164495468, 201.61502075195312, -26.933937072753906, 5.215111255645752, -0.11186067759990692, -0.2978760004043579, -1599.7452392578125, -0.20373259484767914, 1.3812975883483887, 0.21501567959785461, -0.000169059494510293, -2.8161356449127197, 0.14898882806301117, -0.18494024872779846, 8.270635604858398, 1.9048577547073364, -248.21484375, 2.0509934425354004, 0.06265906244516373, -0.6022694706916809, -0.5309310555458069, 1.0674835443496704, 0.34578582644462585, -0.45474961400032043, 0.7660005688667297, -0.2970890700817108, 0.34224122762680054], [2.4180597392842174e-05, 1.0533020713410224e-06, 0.00738882552832365, -4.053563316119835e-05, 0.00011182037997059524, -1.096099853515625, 0.39398717880249023, 4.452056884765625, 0.00011198986612726003, -0.0008489996544085443, 6.412195216398686e-05, 11.203070640563965, 1.6641315596643835e-06, -0.00013363879406824708, -0.00027733418392017484, 22.243518829345703, 0.00013052775466348976, 0.00029232160886749625, 6.266571998596191, 7.643944627488963e-06, 15.497871398925781, -0.0001734468387439847, -1.094454728445271e-05, 4.574831109493971e-07, -0.0002198927104473114, -0.2600855529308319, 0.0014896244974806905, 7.282177648448851e-06, 0.2239157110452652, 26.43252182006836, 445.1376647949219, 167.03240966796875, 659.9426879882812, -8.072301864624023, 1.027056336402893, 0.2080698311328888, 0.6037574410438538, 83.40654754638672, 1210.427734375, -482.8437805175781, 6.28068208694458, -47.60985565185547, 169.53378295898438, -1986.62255859375, -265.186279296875, -367.81658935546875, 0.10704203695058823, -7.726799488067627, -531.2677612304688, 0.17045457661151886, 4.754236221313477, -8.04867172241211, -0.00462124589830637, -1045.443603515625, -517.2564086914062, 7.4627180099487305, -0.5602985620498657, 0.5997088551521301, 0.9823903441429138, -0.308121919631958, -0.718003511428833, 0.5845453143119812, -0.29704272747039795, 0.21515171229839325], [6.18920057604555e-06, -6.938669230294181e-06, -0.00860641896724701, 2.8159589419374242e-05, -0.0003541352634783834, -1.1166877746582031, 0.38674408197402954, 4.428866386413574, 1.024554694595281e-05, 232.42843627929688, 1.633634565223474e-05, -0.9227026104927063, -1.2540222087409347e-06, -0.00011202842142665759, -0.00010904812370426953, -1.4303449392318726, 0.0004425882361829281, 0.0002572799567133188, 0.6074457764625549, 3.10147697746288e-05, 243.17633056640625, -0.0001019479168462567, -4.2220399336656556e-06, -0.0005623566685244441, 0.0006358771352097392, 0.7112178802490234, -0.0006972136325202882, -1.9703229554579593e-05, -0.559552013874054, -7.508942604064941, -4554.56298828125, -1828.9693603515625, 8192.7705078125, 1595.9185791015625, 0.11670258641242981, 854.8599853515625, -991.024169921875, 0.5417748689651489, 5864.69189453125, -6370.01171875, 1484.1507568359375, 0.248784139752388, -7.809306407580152e-05, 525.3140869140625, -2212.614013671875, 3774.066650390625, -1048.3931884765625, 2884.456787109375, 18.674896240234375, 291.5978088378906, -1240.242431640625, -3.2770936489105225, -2030.3428955078125, -6319.7822265625, 2991.85693359375, -1.0710182189941406, -0.1779457926750183, -1.3694854974746704, 1.1090869903564453, 0.9005692601203918, 1.550507664680481, 1.028989553451538, 0.03835882991552353, -1.6505745649337769], [2.8722851276397705, 5.680576801300049, 18.233121871948242, -7.075987339019775, -8.281882286071777, -9.82487964630127, -13.110528945922852, 25.673288345336914, 49.227569580078125, -0.0008464124402962625, 26.758955001831055, 27.51291847229004, -27.02836036682129, -6.931400775909424, -5.304595947265625, 67.91622924804688, -18.92889404296875, -27.950206756591797, 5.981712341308594, -2.5426931381225586, -210.544921875, 14.617270469665527, -21.986326217651367, 18.50555419921875, 26.539796829223633, 44.83733367919922, -6.913403511047363, -42.44289779663086, -0.23776279389858246, 8.602555274963379, 86.02527618408203, -7.407722473144531, -95.61815643310547, -2.2442378997802734, 0.2183956354856491, 5.046142578125, -0.20258253812789917, 0.2997327744960785, -599.731689453125, -487.62042236328125, 5.790761470794678, 0.6138168573379517, 26.44677734375, 1633.7366943359375, 0.25433847308158875, -83.68667602539062, 0.6732574701309204, -0.04249966889619827, 334.9042053222656, -1.0852210521697998, 0.8225066661834717, -1.7799495458602905, 5.558624267578125, -471.7402648925781, 298.7532958984375, 4.577164173126221, 0.6132148504257202, 1.7107930183410645, -1.0758124589920044, -0.21188706159591675, 0.17294475436210632, 2.024564266204834, -1.3809856176376343, 0.8593393564224243], [5.633463842968922e-06, 7.294391366485797e-07, 0.007387236692011356, 3.2046659725892823e-07, -9.685916302260011e-05, -104.34872436523438, -24.30237579345703, 39.88395309448242, 9.15144664759282e-06, -22.96453285217285, 0.00036312543670646846, -907.3809204101562, -0.866888701915741, 7.76565502746962e-05, -1.7174829244613647, 3148.4541015625, 0.00018306968559045345, 42.769309997558594, 105.1044692993164, -3.108182500000112e-05, 324.0567321777344, -3.756989002227783, 6.14337523074937e-08, 0.0004110037407372147, 0.00025735015515238047, -414.68817138671875, -0.0013416741276159883, 8.291920494229998e-06, 0.045787397772073746, 126.41828155517578, 63.90534591674805, -18.34110450744629, 99.22590637207031, -21.813228607177734, 0.2948938310146332, -8.001165390014648, 6.467080116271973, 0.18201905488967896, 365.7633972167969, 70.97660827636719, 20.113567352294922, 0.2154054194688797, -0.26622274518013, 64.17535400390625, 19.119356155395508, -40.77385330200195, 5.406256198883057, 66.37324523925781, -54.60512161254883, -0.4153335988521576, 20.396940231323242, 21.428316116333008, -38.70085906982422, 71.88461303710938, -47.10945510864258, 51.74510192871094, 0.19894468784332275, -0.1360618621110916, -0.529653787612915, 0.5140664577484131, -0.09900057315826416, -0.32371577620506287, -0.129923477768898, -0.14540821313858032], [-7.129671757866163e-06, 2.4682321964064613e-06, 0.008608037605881691, -6.739875971106812e-06, 3.5875655157724395e-05, -1.1799790859222412, -0.3867482542991638, -4.4240922927856445, 0.00013114590547047555, -1.6237329244613647, -0.0001752479438437149, -1.5816254615783691, 3.216355253243819e-06, 6.8481414928101e-05, 0.00016245675215031952, -1.8254929780960083, -7.103756797732785e-05, 0.0002808056597132236, -7.172223091125488, -4.872320005233632e-06, 7.633975982666016, 0.0002613159012980759, 3.081652266700985e-08, 6.75895789754577e-05, -4.395749419927597e-05, 0.26961037516593933, 0.003865031059831381, -2.2864558104629396e-06, 2923.155517578125, 7282.3974609375, 10671.3837890625, 5843.001953125, 21509.296875, -5560.60595703125, 3981.503662109375, 4493.31591796875, 4598.83935546875, -3583.28564453125, 15731.1552734375, -15499.119140625, 5674.7861328125, 3751.908447265625, 4603.89892578125, -13752.591796875, -5628.4892578125, -8426.009765625, 5335.79736328125, -15335.26171875, -8729.1982421875, 4013.458251953125, -9379.53125, -3175.201416015625, 11376.8623046875, 18014.697265625, 7739.34228515625, -5084.81201171875, 0.42379018664360046, -0.0173068568110466, -1.5610824823379517, 1.1081467866897583, -0.7190274000167847, 0.18465930223464966, -0.04938540235161781, -0.14966964721679688], [2.2833004550193436e-05, 0.7650619745254517, 0.008476683869957924, 1.208351841341937e-05, -0.00025806797202676535, 1.0132472515106201, -0.37554484605789185, -4.42916202545166, 0.00011154588719364256, -0.7239211797714233, 3.985839066444896e-05, -1.5894074440002441, -0.024461543187499046, 0.00014292076230049133, 0.0002431746106594801, -1.9579583406448364, 0.00021401973208412528, -0.0002522677823435515, 6.533503532409668, -1.4364427443069872e-05, -80.12313842773438, 0.00010589946032268927, 7.502345852117287e-06, -0.0005601402372121811, 2.3011562824249268, 0.259061723947525, 8.265237383398016e-10, -2.310776835656725e-06, 0.12837223708629608, -35.032649993896484, 196.8196563720703, 3.026576042175293, -16.413434982299805, 0.2953258156776428, -0.11750544607639313, -0.04730245843529701, -1.1054540872573853, 0.09259076416492462, 727.6935424804688, 743.8696899414062, -0.7418890595436096, 0.14960236847400665, 0.18030832707881927, 2470.87060546875, 0.21168597042560577, 7.428995132446289, 0.27836576104164124, 0.8684228658676147, -604.9192504882812, -0.2232249528169632, 0.2472897320985794, 3.7497997283935547, -1.3864773511886597, -639.6163940429688, -346.77593994140625, 22.526168823242188, 0.7065306305885315, -0.6555954813957214, -1.0056116580963135, 0.41356703639030457, -0.2955290973186493, 0.9197007417678833, -0.48984649777412415, 0.5467858910560608], [2.2575663024326786e-05, 7.606944564031437e-05, 0.017211752012372017, -1.3090194443066139e-05, 0.0030316307675093412, 3.6393961906433105, 0.7272727489471436, 9.761710166931152, -7.852660201024264e-05, -2.4188005924224854, 0.0010932516306638718, -4.216183662414551, 6.653850505244918e-06, 0.00013708110782317817, -0.09699011594057083, 4.324265956878662, -0.0001283574238186702, 0.0005357727059163153, -12.487075805664062, -1.120350952987792e-05, 18.703184127807617, 0.00020294598652981222, -5.197125574341044e-07, 0.0003297638613730669, -0.0002970675996039063, -4.053812026977539, -0.0005905410507693887, 4.046733465656871e-06, -3.2999978065490723, -5.317110538482666, 14.110029220581055, 5.769930839538574, -11.83057975769043, -5.890705585479736, 2.887187957763672, 4.417346954345703, 4.723372459411621, 4.519542217254639, 12.990736961364746, -17.413925170898438, 6.474812984466553, -4.362191677093506, -5.232561111450195, 18.77401351928711, 4.569056987762451, -8.413386344909668, -5.4728593826293945, 9.303818702697754, -5.869992256164551, -3.7891547679901123, 8.258981704711914, 3.2556939125061035, -10.618768692016602, -11.661826133728027, -9.139986991882324, 3.8621041774749756, -0.0468541644513607, -0.04936887323856354, -0.046467412263154984, -0.016377218067646027, -0.021050523966550827, -0.05868886783719063, -0.05689637362957001, -0.06008574739098549], [-5.05568204971496e-05, 9.696121594515716e-08, -4.984578481526114e-06, -3.6585905036190525e-05, 1.0876481155719375e-06, -4.81826500617899e-05, 0.00011582251318031922, -7.54416614654474e-05, 1.437032642570557e-05, -7.598952652188018e-05, 7.360175402482128e-08, -1.8980446839123033e-05, 4.0700757381273434e-05, -4.9643422244116664e-05, -6.219166971277446e-05, 4.391779293655418e-05, -4.448196122552872e-08, -2.4323542675119825e-05, -2.5416566131752916e-06, 2.9069793527014554e-05, -0.00019212576444260776, -2.841442619683221e-05, -8.672978583490476e-05, -0.00019174112821929157, 0.00015372065536212176, -0.00021141328033991158, -2.3733190968044937e-09, -0.00010730488429544494, -6.473660363326417e-08, -4.1634513763710856e-05, -4.209104247365758e-07, -2.5082163119805045e-06, 1.926665208884515e-05, 2.138734316758928e-06, -0.0012494352413341403, 8.84439373294299e-07, -2.1242287857603515e-06, 0.00029091828037053347, -7.248312613228336e-05, -1.059354872268159e-06, -5.130681529408321e-06, -0.0007637807284481823, 2.2537325605753722e-07, 1.3441032251648721e-06, 1.7388330206813407e-06, -2.682245394680649e-06, 2.2755652651085256e-07, -7.979268411872908e-05, 1.3580947779701091e-05, -4.311707435533663e-09, 0.0010246135061606765, -0.00701878871768713, -1.2392231838020962e-05, -1.6714033336029388e-05, -5.603613317362033e-06, -0.00012745898857247084, -0.008895969949662685, 0.010118035599589348, -0.0240327175706625, -0.00102714030072093, -0.00546200992539525, 0.0017431785818189383, 0.00709544075652957, -0.00703524611890316], [1.065281503542792e-05, 2.3306904495257186e-06, -0.015208079479634762, 5.649803642882034e-05, 0.0007391348481178284, -2.3615803718566895, 0.8409853577613831, -8.905254364013672, 0.00022381571761798114, 3.5759806632995605, -0.002328417729586363, 3.238311767578125, 1.771974712028168e-05, 0.0001324043987551704, -0.12556681036949158, 4.075075149536133, 9.763806156115606e-05, -0.0005550303612835705, 14.58889102935791, -1.5678795534768142e-05, 89.29637908935547, -0.00036548703792504966, -6.295891580521129e-06, 0.0005113767110742629, 1.107742718886584e-06, 0.8927873969078064, 0.03910977393388748, 1.5804171198396944e-05, -4.225280284881592, -10.079602241516113, 20.841724395751953, -14.387959480285645, 20.462400436401367, -21.609272003173828, -5.737834930419922, -16.234752655029297, 12.452783584594727, -6.2370758056640625, -20.506662368774414, 42.90273666381836, 8.588889122009277, 9.851632118225098, 11.8416748046875, 164.99815368652344, 9.920124053955078, 9.800737380981445, -13.013384819030762, -22.575563430786133, -53.88292694091797, 13.359472274780273, -15.311758041381836, 4.511280536651611, -18.61680793762207, -19.07964324951172, -49.835731506347656, -6.716161727905273, 0.10851678997278214, -0.5361340641975403, -0.1355564445257187, -0.694232165813446, 0.2439357340335846, 0.6199506521224976, 0.2161308377981186, 0.337951123714447], [-1.2221952601976227e-05, -4.8146208797561485e-08, 1.5254501022354816e-06, 9.123048585024662e-06, -5.067490178589651e-07, -1.3542449778469745e-05, 6.974663119763136e-05, 2.08158580790041e-05, -4.2839060370170046e-06, -2.149019746866543e-05, -1.33232769261582e-09, -4.8545603021921124e-06, -1.135030652221758e-05, 1.2930083357787225e-05, 1.4457352335739415e-05, 1.202389375976054e-05, 4.470757097863043e-09, 7.71645409258781e-06, 8.495014753862051e-07, 7.56844610805274e-06, -5.0585324061103165e-05, -7.806532266840804e-06, 2.9133769203326665e-05, -5.374809188651852e-05, -4.118518336326815e-05, -5.7845951232593507e-05, -5.787119117250938e-10, 4.811629332834855e-05, -2.583687930268752e-09, 0.00011147217446705326, -2.0113733967264125e-07, -6.730430612833516e-08, -5.8237460507371e-06, -5.272297016745142e-07, 0.00047645781887695193, -2.4974971779556654e-07, -6.039023219273076e-07, 0.00013184365525376052, 2.015372047026176e-05, 2.9393930844889837e-07, -1.4192163462212193e-06, 0.00012076029815943912, -8.815032970233005e-08, -3.8680909142385644e-07, -3.7546544717770303e-07, -5.903710302845866e-07, -8.862292588673881e-08, -2.2280564735410735e-05, -3.905550784111256e-06, 1.258683157701057e-09, -0.0004651858180295676, -0.0008408725843764842, 3.4840138596337056e-06, 4.3100130824313965e-06, -1.596313950358308e-06, 1.3182410839363001e-05, 0.0056843203492462635, -0.0019491685088723898, -0.024414032697677612, 0.0005674096755683422, -0.007889225147664547, -0.003989322576671839, -0.02907935157418251, -0.018242184072732925], [-4.474728484638035e-05, -8.257182160242849e-10, -0.015202462673187256, 5.6752665841486305e-05, -1.217648759599399e-10, 1.6568853855133057, -0.7834802865982056, 8.709746360778809, -0.00021654315060004592, 1.144025444984436, -4.88506568530056e-10, -2.9468994140625, 4.7563298721797764e-06, -0.0003993687278125435, 0.0003978148743044585, 2.3399436473846436, -2.289811118494356e-10, 0.0005367555422708392, 12.069795608520508, -4.302870820538374e-06, -11.306549072265625, 0.000511322810780257, -6.8886847657267936e-06, 0.00045129741192795336, 0.0008497459348291159, -0.004888612311333418, 3.230368861295574e-09, 2.5976289180107415e-05, -0.9416109323501587, -2.3027539253234863, -5.655753135681152, 0.32317617535591125, 2.3837101459503174, 0.7197657823562622, 0.6800650358200073, 0.6267302632331848, -0.8525367379188538, 1.1154755353927612, 0.7699556946754456, 8.910067558288574, -0.880530059337616, 1.034574031829834, -1.203392744064331, -15.7167329788208, -0.41208499670028687, 1.4003745317459106, -0.42591771483421326, -2.05312180519104, 5.668456077575684, 0.7942202091217041, 1.9277167320251465, -0.901768684387207, -2.5646517276763916, 0.9842886924743652, 5.608349800109863, -1.355248212814331, -0.4123705327510834, 0.24538175761699677, -2.6526193618774414, 0.023228324949741364, 0.06277918815612793, 0.5549600720405579, 2.3621132373809814, 1.7991912364959717], [16.21019172668457, 7.858261585235596, 10.62901782989502, 12.726278305053711, -6.103439807891846, 28.434890747070312, -20.065752029418945, 4.8848185539245605, -12.915785789489746, 21.678606033325195, -10.096626281738281, -21.771581649780273, 17.679250717163086, -7.345670700073242, 17.795114517211914, 25.706836700439453, -8.892566680908203, 13.778277397155762, 42.212215423583984, -9.260107040405273, -226.11260986328125, -11.740842819213867, -7.295536994934082, 38.547176361083984, 35.8317756652832, 37.48717498779297, -1.358216643333435, 14.80242919921875, 0.24310578405857086, -0.16473233699798584, 23.753524780273438, 11.571316719055176, -7.293797492980957, 23.087852478027344, 0.23873132467269897, -19.93074607849121, 15.408483505249023, 0.20094875991344452, -0.9671337008476257, -46.609840393066406, 6.1060099601745605, 7.753231048583984, 6.304343223571777, 178.17706298828125, -7.22636604309082, -4.713754653930664, -9.942683219909668, 0.8924899101257324, 67.02050018310547, -14.176249504089355, 4.527541750576347e-05, -0.03674360737204552, 0.39730948209762573, -2.3642547130584717, -58.89232635498047, 0.08492712676525116, 0.12541314959526062, 0.6105923652648926, -0.1677093803882599, 0.8547516465187073, -0.29987218976020813, -0.7656965255737305, 0.3609316051006317, -0.37445470690727234], [-13.63464641571045, -4.488028935156763e-06, 1.277003288269043, -9.935240745544434, -1.816010397615031e-10, -13.25644302368164, -2.951866626739502, -4.677528381347656, -10.801709175109863, -3.8215744495391846, -3.392443250049837e-05, 4.0658674240112305, -12.62603759765625, 9.366790771484375, -6.0767388343811035, 4.712116241455078, 8.584793431687388e-10, -7.965086460113525, -19.721111297607422, 8.572064399719238, -24.923213958740234, 5.283456325531006, 4.15434455871582, -12.735668182373047, 23.020219802856445, 6.785577297210693, 8.131402218225503e-10, 12.351116180419922, -0.13563454151153564, -0.17745371162891388, -7.8020524978637695, 1.1945013999938965, -3.1771132946014404, -0.4066973030567169, 0.14095570147037506, -0.09842689335346222, 0.08282774686813354, -0.10410097986459732, 1.073824167251587, -8.966957092285156, 1.3018269538879395, -0.17161574959754944, 0.4552263617515564, -11.345987319946289, -1.6111727952957153, 1.6224138736724854, -0.6043913960456848, -0.0008500496041961014, 3.9512128829956055, -0.1657687872648239, 0.00018220656784251332, 0.02576921321451664, -0.010680056177079678, -2.1706385612487793, -4.096905708312988, -0.08660700917243958, -0.2693069279193878, -0.5486703515052795, -0.2642483413219452, 0.21719753742218018, -0.18190734088420868, -0.4192666709423065, -0.17255912721157074, 1.2847728729248047], [-13.432208061218262, -5.783273696899414, -6.84192419052124, -9.96366024017334, 2.102973461151123, 30.583526611328125, -18.340423583984375, -4.942454814910889, 14.89222240447998, -24.01957893371582, 4.797379493713379, 21.143198013305664, 9.947879791259766, -9.61713695526123, 19.798995971679688, 24.309329986572266, 3.9461350440979004, -8.329720497131348, 44.946510314941406, 8.84850025177002, -179.93194580078125, -6.075704574584961, -3.890381336212158, -40.247161865234375, -47.359169006347656, -45.682289123535156, 5.2038421630859375, -9.77975082397461, 0.12312880903482437, -0.21796979010105133, -10.868999481201172, -4.436112880706787, -4.035874843597412, 7.2507452964782715, 0.1354508250951767, -6.82698392868042, 4.277655601501465, 0.5875123739242554, -0.37878701090812683, -12.2132568359375, 3.587461233139038, 2.3209190368652344, -1.8186426162719727, -60.8062629699707, -3.0432956218719482, -3.941830635070801, -3.5257346630096436, 0.0844680443406105, -24.032352447509766, 5.732884883880615, -0.06385526061058044, 0.009845199063420296, -0.00930473580956459, -2.5767199993133545, 23.30419158935547, -0.08984235674142838, -0.9278010725975037, -0.9281501173973083, -0.22959254682064056, -2.5921459197998047, -1.375928282737732, 1.8175874948501587, 1.7672812938690186, 1.9122895002365112]], "PMT_dist_dense_1_2/bias:0": [-56480468992.0, -42155360256.0, 744208512.0, 239056784.0, 1013540608.0, -504687328.0, 836339392.0, 1889466240.0, 550901440.0, 1277609984.0, 793789376.0, -27993757696.0, -20692688896.0, 553888000.0, 1674844160.0, 1050588928.0, 298185728.0, -51490635776.0, 5829940.0, -26894132.0, 224755248.0, 639093312.0, 1273137792.0, 267300320.0, -98479996928.0, -87369310208.0, -74471424000.0, -20065505280.0, -3596342016.0, -1744382336.0, -3507527424.0, -231559568.0, -3624598784.0, -3699039232.0, -5242478080.0, -3342829056.0, -2715170048.0, -2583609600.0, -4038568960.0, -4911211520.0, -3047722496.0, -3188675840.0, -4066728704.0, -895402432.0, -1317374208.0, -3123475200.0, -1955570688.0, -4038324736.0, -8230273536.0, -589122688.0, -3476252160.0, -1625005568.0, -3890533632.0, -1441003648.0, -1888638208.0, -3991855872.0, -752.5845336914062, -14459.3994140625, -369.9751892089844, -92.04181671142578, -1477.9918212890625, 875.70458984375, -3454.350341796875, -233.26133728027344], "PMT_dist_dense_1_2/kernel:0": [[-69.66278839111328, 48.12296676635742, -12.262089729309082, 13.43061637878418, -14.560078620910645, -13.840601921081543, 12.43189811706543, -13.464737892150879, -12.352063179016113, 11.171168327331543, -12.122590065002441, 16.644798278808594, -13.899221420288086, -13.621825218200684, -14.137914657592773, -11.533430099487305, 14.330191612243652, -46.704383850097656, 11.886967658996582, 12.59931468963623, 13.69146728515625, -14.651403427124023, 14.642477035522461, -13.521380424499512, -26.14652442932129, 63.58831024169922, 71.86541748046875, -33.20753479003906, 0.5389457941055298, 0.2477113902568817, -0.9682250022888184, 0.3411372900009155, -0.6564232707023621, 0.841690182685852, 1.1736598014831543, -0.34211692214012146, -0.5252505540847778, -0.41806450486183167, 0.424938440322876, 1.0589702129364014, -0.6524103283882141, -0.33419662714004517, 0.7376906871795654, 0.46017757058143616, -1.0637823343276978, -0.638393223285675, 0.7444809079170227, 0.08716704696416855, 1.26033353805542, -0.08766188472509384, 2.6702725887298584, -0.5131400227546692, -0.3550979793071747, -0.0661885142326355, 0.18378517031669617, -3.9350409507751465, -0.6281833052635193, 0.5488767027854919, 0.6900860667228699, 0.24480228126049042, -0.2190731316804886, -0.6367888450622559, 0.5254097580909729, 0.6460409760475159], [0.07092875242233276, -0.18051916360855103, 0.3631637394428253, -0.52625972032547, -0.8084707856178284, 0.14240677654743195, -1.1631447076797485, -0.6140105128288269, 2.374344825744629, 2.390247106552124, -0.0039550671353936195, -0.25940030813217163, -0.12730352580547333, -0.4819328784942627, 0.5426232218742371, -0.5377084612846375, -0.0055457958951592445, 0.07834314554929733, -0.13224175572395325, 0.25467780232429504, 0.07317877560853958, 0.7544852495193481, 0.38596412539482117, 0.5288861989974976, -0.5199618339538574, -0.030420253053307533, -0.588725745677948, 0.5246729254722595, 0.14763954281806946, 0.04079335927963257, -0.09614391624927521, 0.12234346568584442, -0.34716057777404785, 0.2824883759021759, -0.45068737864494324, 0.04464387893676758, -0.04686955362558365, -0.2708335518836975, 0.2633014917373657, -0.25642067193984985, 0.26436424255371094, 0.04570774361491203, -0.2308414727449417, -0.12642821669578552, 0.15714098513126373, 0.16849592328071594, 0.14203707873821259, -0.2823815941810608, -0.8653261661529541, 0.3348822295665741, 0.35033851861953735, 0.04356827959418297, 0.07059185206890106, 0.03183256834745407, -0.06235956400632858, 0.21127992868423462, 0.7745099067687988, -0.4030457139015198, -0.4170869290828705, -0.20567259192466736, -0.11774700880050659, 0.41244399547576904, -0.4739844501018524, -0.3720828890800476], [-8.150619506835938, 12.267154693603516, 13.424054145812988, 12.621857643127441, 12.425168991088867, -12.82865047454834, -12.017769813537598, -12.732805252075195, 12.321020126342773, -11.920165061950684, 12.94698429107666, -14.461711883544922, -13.456320762634277, -12.766533851623535, 12.271980285644531, -11.627138137817383, -13.302268981933594, 11.903285026550293, -12.711625099182129, -12.908313751220703, 14.09531307220459, 12.874740600585938, 13.782914161682129, 12.907303810119629, 0.020808355882763863, -0.30686742067337036, -2.0421769618988037, 14.008131980895996, 1.8655283451080322, -0.9381585717201233, 6.397998332977295, -3.833427906036377, 2.3028435707092285, 1.9930974245071411, -1.3177151679992676, -0.3223683834075928, -0.037400100380182266, -0.5774610042572021, -1.1520684957504272, -0.09748850017786026, -1.688841700553894, 2.632720470428467, -1.1556432247161865, 2.502288818359375, -0.26545819640159607, -1.7099558115005493, 0.18305271863937378, -0.3733226954936981, 2.1011009216308594, -1.2845953702926636, 0.2672002911567688, 3.4236152172088623, 0.7474269270896912, 0.29930925369262695, 0.0339096300303936, -1.1849329471588135, 0.280840128660202, -0.876754641532898, 0.86368727684021, 0.11555767059326172, 0.3967338800430298, 0.5653613209724426, -0.4723304212093353, -0.0792955607175827], [44.46995544433594, -17.741743087768555, -12.738868713378906, 15.109484672546387, -15.334786415100098, -15.350312232971191, 13.06493854522705, 13.23778247833252, 13.58406925201416, 11.617838859558105, 13.145159721374512, -16.447872161865234, 15.152148246765137, 13.80496597290039, 15.342494010925293, 12.413412094116211, -15.260579109191895, -30.223997116088867, -12.616506576538086, 12.411100387573242, -14.684234619140625, -15.152961730957031, 14.565279960632324, -14.113187789916992, 38.37537384033203, 58.81047058105469, -50.80830764770508, -15.964916229248047, -6.487973213195801, 6.389221668243408, 3.7213985919952393, -8.38479995727539, 6.473529815673828, 18.167879104614258, -2.140995740890503, -4.012382507324219, 3.2351653575897217, 14.561287879943848, 10.310949325561523, 16.9127140045166, -19.95338249206543, -4.780932426452637, -11.78499984741211, 10.262731552124023, -3.422236680984497, 8.532049179077148, -2.5022096633911133, -8.112780570983887, 32.96477127075195, 6.31949520111084, -15.915040016174316, -3.1295101642608643, 10.105642318725586, 8.206330299377441, -7.514915466308594, -2.470336675643921, 0.8563358783721924, -0.6626878380775452, 0.7344723343849182, -0.32414883375167847, -0.21224121749401093, 0.6768081784248352, -0.6797274947166443, 0.8818248510360718], [-0.07989797741174698, 0.025242308154702187, 0.007248912006616592, 0.46434226632118225, 1.231353521347046, -0.012261235155165195, -0.07609543949365616, -0.1427685022354126, -0.03963687643408775, 0.167962908744812, 0.9618699550628662, -0.09682096540927887, -0.505897045135498, 0.3920538127422333, -0.08132047951221466, -0.18763792514801025, 0.3110916018486023, 0.8357143402099609, -1.6264265775680542, 0.525702953338623, -0.03992800787091255, -0.014280644245445728, -0.30219632387161255, 0.16876007616519928, 0.07625843584537506, -0.3774533271789551, 0.38215258717536926, 0.22875747084617615, 0.21047814190387726, -0.08947065472602844, -0.06197899207472801, 0.1455368846654892, 0.09759539365768433, 0.00262019713409245, -0.2222323715686798, -0.15482652187347412, 0.04162190109491348, 0.1384292095899582, -0.1526835411787033, -0.09674014151096344, -0.06979237496852875, -0.027376288548111916, 0.024250078946352005, -0.09724186360836029, -0.07569616287946701, -0.14902079105377197, 0.24235260486602783, -0.0209162849932909, -0.2197471410036087, 0.003425447503104806, 0.019130000844597816, 0.040963511914014816, -0.040391985327005386, 0.060335274785757065, -0.008691247552633286, 0.015991300344467163, -0.5025087594985962, -0.8867131471633911, -0.9318190217018127, 0.5673241019248962, -0.6067629456520081, 0.7254543304443359, 0.3357974886894226, 0.2526514232158661], [-0.9502779245376587, -4.4727091789245605, -17.083221435546875, -11.630566596984863, -20.97294807434082, -10.898139953613281, 14.09512996673584, -18.72244644165039, -10.877197265625, 11.245813369750977, 11.437399864196777, 7.401583194732666, -11.872766494750977, -11.317900657653809, -22.623231887817383, 27.969470977783203, 20.009042739868164, 2.1911232471466064, 11.402215957641602, -9.5525541305542, 11.491334915161133, -11.732870101928711, -38.14878845214844, 11.133380889892578, 1.2882122993469238, -2.5272445678710938, -1.6207115650177002, 13.66076946258545, -26.706289291381836, -22.43576431274414, 21.759010314941406, 16.938915252685547, 32.94257736206055, -23.38398551940918, -46.79671859741211, 15.79410457611084, 20.829662322998047, -16.99103355407715, -13.976547241210938, 19.75741195678711, -27.772924423217773, -30.965173721313477, 25.18526268005371, -22.864402770996094, -5.069888114929199, 9.165698051452637, -5.728855133056641, 40.97197341918945, -39.501712799072266, -42.74482345581055, 36.01066207885742, 12.959577560424805, 13.806070327758789, 17.330793380737305, -1.9342650175094604, -38.95151901245117, -0.9307088851928711, -0.6563007831573486, -0.5151329636573792, 0.5843357443809509, 0.34498193860054016, -0.9726133346557617, -0.6072049140930176, -0.43783774971961975], [7.6082305908203125, 14.582444190979004, -10.926918029785156, -7.905242443084717, 10.065834999084473, 6.755809307098389, -10.789556503295898, -8.603174209594727, -9.810141563415527, 7.758467197418213, -9.161842346191406, 38.79373550415039, 28.915952682495117, 7.443395614624023, 8.156301498413086, 9.813825607299805, -7.258702754974365, 1.7385993003845215, -8.449718475341797, -7.935332775115967, 7.944802761077881, -7.332616329193115, -8.420504570007324, 9.252470016479492, 23.723155975341797, 18.308103561401367, -40.27716064453125, 23.699806213378906, 1.707715630531311, -7.989542007446289, -9.680662155151367, -0.7774158120155334, 0.08645829558372498, 0.705405056476593, -0.5730128884315491, -0.030030980706214905, -2.84962797164917, 5.931615829467773, 2.173232316970825, 3.2273993492126465, 2.0480146408081055, 11.682174682617188, 13.925714492797852, 1.023235559463501, -11.852765083312988, 0.061925746500492096, -20.62220001220703, -4.548195838928223, -14.59234619140625, 2.0759339332580566, -26.432165145874023, -8.01960563659668, 0.8034975528717041, 7.954708576202393, 10.81554889678955, 20.000112533569336, -0.23361648619174957, -0.7085196375846863, 0.6356227397918701, -0.34243044257164, -0.2605001926422119, -0.7071043252944946, 0.3307078778743744, -0.25030040740966797], [10.317038536071777, -21.70876693725586, 38.150272369384766, -35.275394439697266, -44.77165985107422, -24.85850715637207, 35.73078155517578, 46.6296501159668, 29.454984664916992, -37.807315826416016, 35.36305236816406, 17.434675216674805, 39.97545623779297, 33.632568359375, 41.403282165527344, 40.021915435791016, -28.185012817382812, -21.508602142333984, -34.711124420166016, 27.05660629272461, -31.618732452392578, 36.86119079589844, -43.77412033081055, -36.74812316894531, 