{"PMT_dist_dense_1/bias:0": [-31936.857421875, -22372.73046875, -682.6853637695312, -0.000612231669947505, -13400.4296875, -167.94549560546875, -13971.8115234375, -4160.810546875, -15970.486328125, -244.78329467773438, -28864.568359375, -27644.41015625, -505.8765869140625, -7073.51611328125, -17155.05859375, -4.6238194045145065e-05, -5129.8876953125, -119.59068298339844, -16529.626953125, -153.8294677734375, 2.5570525963303226e-07, -6149.54345703125, -11689.638671875, 2.7485998543852475e-06, -49629.05859375, -4698.42578125, -143.5436553955078, -25185.701171875, -5505.587890625, -5953.3447265625, -8774.423828125, 237.3232421875, 27.9736270904541, 24.853675842285156, 12.126303672790527, -5734.62890625, 14.57618236541748, -16196.0703125, 5.956099033355713, -6453.30419921875, 21.75210952758789, -17359.58203125, -4022.82080078125, -6086.12646484375, -6214.841796875, -1959.793701171875, 6.182199954986572, 16.56505012512207, -6395.8408203125, 5.15652322769165, 31.88818359375, -9209.046875, 30.331714630126953, 3.823314905166626, -1415.1202392578125, 5.5592193603515625, 7.936936378479004, -3.743982961168513e-05, 20.390005111694336, -1.4131116586213466e-05, 5.976196765899658, 7.6653594970703125, 4.990537643432617, 7.745728969573975], "PMT_dist_dense_1/kernel:0": [[128303.5546875, 220.9268798828125, -6009.8525390625, -0.00021448485495056957, 49092.30078125, 196.49766540527344, -51239.53125, 12116.404296875, -58501.3671875, 727.4779052734375, -111367.4296875, 74845.125, -1502.8603515625, -20350.09765625, 153744.078125, -1.4084381291468162e-05, 782678.9375, -26.843887329101562, -376705.71875, 36.515193939208984, -1.4963243302190676e-06, -422719.6875, -43549.35546875, 1.573108420416247e-05, 133229.4375, 13677.8720703125, -7.432496070861816, -129576.8125, -82234.4609375, 312808.75, 30880.455078125, 468954.875, -78996.8828125, 49556.20703125, -57176.16015625, 331611.75, 82767.09375, 181.49757385253906, 76777.9921875, 245537.4375, -60996.56640625, -11.458633422851562, 426822.59375, 245300.578125, 475927.03125, -126043.9375, -98618.0546875, 85652.75, -259762.46875, 92230.984375, 101713.6640625, 296779.21875, 72676.15625, 48664.015625, -232636.21875, 124026.671875, 10.861992835998535, -2.28989556489978e-05, -168.27366638183594, -5.757203325629234e-05, -0.05365719646215439, 249.4272003173828, 43.118064880371094, -192.8175506591797], [-67981.1640625, -624452.6875, 840.9024658203125, -0.009808046743273735, -40639.33984375, 589569.8125, -42362.3359375, -2422.825927734375, -48430.72265625, -146.7393341064453, -32338.841796875, 15618.81640625, -303.40863037109375, 4150.41943359375, 16665.060546875, 0.00013312831288203597, -64.5278549194336, 20.287145614624023, 10574.533203125, -39.90351867675781, 0.00039536747499369085, -594.8954467773438, 35973.515625, -0.0003123162023257464, -28189.263671875, 2766.08251953125, 3.290804862976074, -67293.875, -345043.125, -461883.34375, 438486.875, 945576.8125, -108194.7578125, -72307.015625, -86711.765625, 485289.6875, -122063.6953125, -434264.625, -135791.484375, 368048.53125, 89551.625, 494612.0, 863917.5625, -341000.71875, -731566.375, -174657.671875, 151454.390625, 159874.671875, 362980.8125, -124582.171875, -140043.40625, 390329.375, 102083.7265625, -152505.609375, -1050134.375, -171934.8125, -581.1828002929688, 3.389094490557909e-05, 2290.82958984375, 3.110442776232958e-05, 28.362871170043945, -2315.85546875, 572.8302612304688, 2243.560302734375]], "PMT_dist_dense_1_1/bias:0": [-200569008.0, -27817610.0, -33719100.0, -183337440.0, -8308766.0, -95843320.0, -144474560.0, -67811120.0, -205233920.0, -26660108.0, -16791784.0, -4407223.5, -185303168.0, -152916208.0, -125441032.0, -44337436.0, -14448832.0, -171906832.0, 53122864.0, -191282912.0, -99214880.0, -78462312.0, -88650440.0, -115273200.0, -174980480.0, -84581872.0, -92148800.0, -177069952.0, 363397.53125, 70165352.0, -7239221.0, 2906822.75, 31532290.0, 1532338.25, 21402122.0, -114399.8984375, 634998.25, 16288310.0, 35929280.0, -11639186.0, 1076355.0, 16298503.0, 20646702.0, -67973928.0, 2137795.0, -2921949.25, -3438019.25, 97319912.0, -51822308.0, -1490437.75, 49713132.0, 30569434.0, 62357316.0, 60331560.0, -22832600.0, 44165944.0, 6573.076171875, -15246.767578125, 4055.86083984375, 4317.830078125, 21536.083984375, -3790.569091796875, -22837.990234375, 4460.92529296875], "PMT_dist_dense_1_1/kernel:0": [[3570.58056640625, 1.5705459117889404, 1098.63232421875, -2252.27001953125, -0.0005507029127329588, -4046.812744140625, 3837.754638671875, 4190.01318359375, -4949.95849609375, 3338.926513671875, -0.8551226258277893, -2599.9765625, 4072.06689453125, -3852.45458984375, -3019.2490234375, -3832.7197265625, 0.0036821975372731686, 3604.486328125, -3580.782958984375, 3997.275390625, 8038.51953125, 2327.3564453125, 2155.128662109375, 5485.77294921875, -5923.11767578125, 5023.98095703125, -0.008262285962700844, 2878.663330078125, 0.03922393545508385, -0.003491302253678441, 7.950479030609131, 10.8495512008667, -0.3535979986190796, -23.129865646362305, -4.045673267683014e-05, -20.22557830810547, 11.43155288696289, 1.5390104055404663, -0.2832568883895874, 0.045057978481054306, -6.022663593292236, -8.119187355041504, 5.952188014984131, -150.439453125, -4.097631931304932, -1.1974878311157227, 11.600794792175293, 0.4103636145591736, -65.45375061035156, -17.115388870239258, -0.11790117621421814, -2.248076915740967, -0.3289410173892975, 0.22554220259189606, -54.03839111328125, -0.0023902689572423697, -5.210871696472168, -5.184078693389893, 1.8340604305267334, -12.092488288879395, -7.44890832901001, -7.744223117828369, 7.77410888671875, 9.986383438110352], [-1088.5394287109375, 1.8182724714279175, -281.58074951171875, 830.4337768554688, 1.6292083263397217, 1338.9869384765625, 8.069414138793945, -0.7112821936607361, 1145.6319580078125, 1430.7203369140625, -0.0970214381814003, 1345.644287109375, 561.2470092773438, 1242.2593994140625, 1581.6881103515625, -1380.440185546875, 0.001383958151564002, -1054.5626220703125, 1570.79345703125, -1116.3802490234375, -16963.03125, 849.4324951171875, 438.4518737792969, -1843.1824951171875, 3758.703125, -1720.0712890625, -0.006478536408394575, 631.7247314453125, -4.48123836517334, 0.002265036106109619, 3.37070369720459, 5.4544830322265625, -1.1708650588989258, 6.582515716552734, -0.07009751349687576, 249.69845581054688, 103.00923919677734, -0.46907997131347656, -0.24975432455539703, 219.2095184326172, -2.1614739894866943, -1.9597243070602417, -1.3382539749145508, 11821.3701171875, -1.0201294422149658, 0.9137646555900574, 3.037022352218628, -0.4116939902305603, -8756.21875, 117.0397720336914, -2.45467209815979, 0.3681753873825073, -20.36406707763672, 0.3486565351486206, -3922.7099609375, 0.002466525649651885, -0.8652563095092773, 0.24047070741653442, -0.16739001870155334, -2.806199550628662, -1.372603178024292, 1.161861777305603, 0.8118905425071716, -0.9300503134727478], [-199.787109375, -0.13949857652187347, -33.266048431396484, 53.394805908203125, 1.0241588354110718, -101.58009338378906, -104.37252044677734, -263.9524230957031, -145.5255584716797, -44.449771881103516, 0.06322821229696274, -52.39973068237305, 66.37372589111328, -76.57608032226562, 101.9782485961914, -48.613121032714844, 0.0001512574963271618, 262.49053955078125, -83.0570297241211, 157.1732177734375, 212.7009735107422, 129.78086853027344, 49.82833480834961, -127.19550323486328, 73.9876480102539, 135.73098754882812, 0.003179552499204874, 69.44698333740234, -4.1021823562914506e-05, -0.003825134364888072, -2.8727903366088867, -3.661891460418701, 0.42471611499786377, -6.54188346862793, -2.2700529370922595e-05, -5.460758209228516, -3.20985746383667, -0.31008413434028625, -0.3271614909172058, 0.040081802755594254, 1.9912974834442139, 1.882122278213501, 1.4041290283203125, -0.023688478395342827, 1.4553680419921875, -0.7389592528343201, -3.3670694828033447, -0.4132726192474365, -17.407066345214844, 4.549385070800781, 0.13706600666046143, -0.2338027060031891, -0.3761424124240875, -0.2252265363931656, 19.467937469482422, -0.00011023366823792458, -0.7798430919647217, -0.7984104752540588, 0.06387029588222504, -2.7006711959838867, 0.36756205558776855, -1.3353327512741089, 0.27398645877838135, -1.7227314710617065], [0.0004215017252136022, 7.907165695542062e-07, -3.9828777516959235e-05, 0.00028477920568548143, -1.0586236385279335e-06, -0.0003059579466935247, -6.638596005359432e-06, 5.808636615256546e-06, 0.00024045455211307853, -6.159307667985559e-05, 3.884716548441247e-08, 3.9317783375736326e-05, -0.00020230654627084732, -0.000308612099615857, -0.0002171245141653344, -8.159122080542147e-05, 7.532812595911764e-09, 0.00025484245270490646, -1.0657536222424824e-05, -0.00018609924882184714, -0.00015056777920108289, 0.0001263877347810194, 0.0011124995071440935, 6.183810910442844e-05, -0.0006652952288277447, 7.483559602405876e-05, -2.6767196792398806e-10, 0.00021925457986071706, -1.1266085842009943e-08, 0.0006221343064680696, -1.351506398350466e-05, 3.90902596336673e-06, -1.9332637748448178e-05, 4.875895683653653e-06, 0.008795990608632565, 2.700571940295049e-06, -3.0993840027804254e-07, 0.0022976987529546022, -1.427064671588596e-05, -8.684457861818373e-05, -7.605976861668751e-06, 0.004203076008707285, -2.889731831601239e-06, 1.9918097677873448e-05, -2.4493142518622335e-06, -8.24707603896968e-06, -2.1800933609483764e-06, -1.8324642951483838e-05, 6.262931856326759e-05, -6.518696693547099e-08, -0.007434784900397062, 0.013439521193504333, 1.6443855201941915e-05, -6.308359388640383e-06, -8.821735718811397e-06, 0.0013333760434761643, 0.008395999670028687, -0.0455174446105957, 0.04981926456093788, -0.012791121378540993, 0.005886490922421217, -0.005519411526620388, 0.007268001791089773, -0.012612339109182358], [4001.1328125, -0.0016543377423658967, -503.80517578125, 3146.502685546875, -0.002058658516034484, 847.778564453125, -800.6611938476562, -751.7628784179688, -3709.915771484375, -518.4103393554688, -0.0024746484123170376, 577.577880859375, -672.3507690429688, 2239.369384765625, 1004.5580444335938, -630.0419311523438, -0.0024368413724005222, 1519.5777587890625, 763.6585083007812, -2910.049560546875, 1356.7833251953125, -721.4954223632812, 816.9461059570312, 1002.4677124023438, 1374.2119140625, 973.00146484375, 0.02686375007033348, 3553.4150390625, -1.3282461623020936e-05, 0.005941868294030428, -1.3956190347671509, 2.4597344398498535, 0.5795229077339172, 4.342879295349121, -3.261019810452126e-05, -3.5947365760803223, -1.9668447971343994, -0.055019278079271317, -0.25725942850112915, -0.019031615927815437, -1.3391380310058594, -1.1499019861221313, -0.8596524000167847, 29.008724212646484, 0.9597120881080627, 0.5555106997489929, 2.222865343093872, 0.3592722415924072, -12.994952201843262, 3.0323565006256104, -0.1280072033405304, -0.00021555094281211495, -0.3758447468280792, -0.22631968557834625, -11.446863174438477, 0.002359229838475585, -0.541254997253418, -0.5445093512535095, 0.040897201746702194, 1.8031408786773682, 0.4695984125137329, 0.7410071492195129, 0.21119186282157898, 0.8111535906791687], [-531.8568115234375, -4.72764513688162e-05, 148.31622314453125, -569.9863891601562, -0.0016355374827980995, -4361.544921875, -0.41389942169189453, 7.144743919372559, 543.6224365234375, -1534.5892333984375, -4.149434566497803, 1431.27001953125, -574.561279296875, -958.6532592773438, -4588.85205078125, 2572.387939453125, -1.8539563417434692, -342.7224426269531, 8097.87744140625, -431.99249267578125, -11357.4814453125, -597.9440307617188, -242.1802215576172, -4643.04833984375, 6337.67529296875, -6056.326171875, 24.84730339050293, -562.1854858398438, -2298.819091796875, 6401.00390625, -10616.9814453125, -4577.1640625, 10622.4609375, 4633.4248046875, 1389.4051513671875, -3585.669189453125, -4224.40625, -3175.348388671875, 14588.85546875, -12431.34375, -4575.27099609375, -2794.9501953125, 3340.955078125, -13543.8740234375, 4753.72900390625, 7597.9892578125, -3287.6015625, 6745.77880859375, 11161.4873046875, -3386.49755859375, 3977.25830078125, -3229.69384765625, -5516.88623046875, 13018.1123046875, -9967.3125, 4177.02978515625, 10.616398811340332, 3.4967589378356934, 9.133102416992188, 13.546314239501953, 13.910630226135254, 14.620043754577637, 4.759536266326904, 10.66053581237793], [4163.1572265625, -0.0029624311719089746, -511.9798583984375, -3292.2177734375, 2.930117130279541, -854.9590454101562, -805.8442993164062, 744.1974487304688, 3838.86572265625, -551.1119384765625, 0.30392515659332275, 598.1287231445312, 681.4996337890625, -2415.4345703125, 1026.3909912109375, -650.3985595703125, 0.0009069876978173852, -1726.33349609375, 825.5975341796875, 3022.73828125, -1411.77783203125, -727.597900390625, 854.689453125, 1063.8773193359375, -1349.1483154296875, -997.87158203125, -0.028217094019055367, 3619.381591796875, 0.00029126304434612393, 0.0021758796647191048, 2.18744158744812, 3.1559371948242188, 0.5062549114227295, 5.577542304992676, 4.051243740832433e-05, -4.663681983947754, 3.2172231674194336, -0.14315088093280792, -0.3415679931640625, 0.013220016844570637, -1.7040672302246094, 1.5334376096725464, 1.1253128051757812, -93.5734634399414, 1.154285192489624, 0.5951279997825623, -2.8128082752227783, -0.28096914291381836, -15.2858247756958, -3.8641974925994873, -0.11479915678501129, -0.1490963101387024, -0.3760702311992645, 0.22680164873600006, -15.357969284057617, 0.00013545539695769548, -0.7295570373535156, 0.664605438709259, -0.05858505889773369, -2.3773880004882812, 0.29127803444862366, -1.0275492668151855, -0.2758800685405731, 1.4090099334716797], [-630.4747924804688, -43.581417083740234, 165.5797119140625, -466.4272155761719, -19.031187057495117, -405.2847595214844, 434.4878845214844, 860.0934448242188, 454.1701965332031, -284.3011474609375, -38.917030334472656, -289.85577392578125, -845.4876098632812, 383.68798828125, 405.2332763671875, 322.2602844238281, 55.011417388916016, 407.2033386230469, -436.5059509277344, 403.4747009277344, -1118.697998046875, 254.30197143554688, -351.9378356933594, 608.838134765625, 877.7680053710938, -590.8201904296875, -28.11789321899414, 613.8344116210938, -0.0038165191654115915, -0.0050042495131492615, 8.148859024047852, -10.730786323547363, 0.25490623712539673, -22.691537857055664, 4.160535172559321e-05, 19.742931365966797, 11.268463134765625, -1.416263222694397, 0.30379945039749146, -0.02395610883831978, -5.982250690460205, -7.672722816467285, -5.790187358856201, -150.535400390625, 4.0506367683410645, 1.1228868961334229, 11.257399559020996, 0.37072092294692993, -65.14949035644531, 16.72456169128418, -0.1279696524143219, -2.096527576446533, 0.3752652704715729, -0.26998692750930786, 55.05770492553711, 0.00011335567978676409, -4.97425651550293, 4.849699020385742, 1.6522165536880493, -12.224542617797852, -7.210766792297363, -7.758529186248779, 7.683721542358398, 9.664285659790039], [4727.91943359375, 0.00039725395618006587, -568.5901489257812, -3741.979248046875, 1.2661888599395752, -959.7321166992188, -906.7432861328125, 767.800537109375, 4431.30078125, -627.5849609375, 0.6364877820014954, 668.7180786132812, -748.6334228515625, -2743.08544921875, -1096.06982421875, 726.3662109375, 0.002409945009276271, 1833.0804443359375, 833.1497802734375, 3539.41943359375, 1469.42333984375, 841.7092895507812, 913.5452270507812, -1141.491455078125, 1438.4217529296875, -1069.171875, -8.816580772399902, -4093.623779296875, 0.0003061196766793728, -0.0021551502868533134, -1.393811821937561, 2.377392292022705, -0.20525342226028442, -4.135913848876953, 2.730767118919175e-05, 3.6505889892578125, 1.8639590740203857, -0.15142177045345306, -0.36251914501190186, 0.03233896940946579, 1.3584904670715332, -1.1565502882003784, -0.8056657910346985, -178.13922119140625, -0.8863725066184998, -0.5806863903999329, 2.1952545642852783, -0.35886675119400024, -136.242431640625, -2.8314239978790283, -0.12172767519950867, -0.0003095413267146796, -0.35191574692726135, 0.25408148765563965, -24.61772918701172, -0.00011409616854507476, 0.4641571044921875, 0.45806288719177246, -0.03742235526442528, 1.4267446994781494, 0.5403120517730713, 0.663836658000946, -0.2133253663778305, 0.6288498044013977], [-40.63042449951172, 1.5795446634292603, 8.247191429138184, 28.3823184967041, 0.4298727810382843, 20.65354347229004, -25.71084976196289, 48.71260452270508, -28.550588607788086, -13.823878288269043, 0.47117212414741516, -12.39560604095459, -51.85463333129883, -23.431346893310547, -22.953813552856445, 16.018157958984375, -1.3305963277816772, -25.231847763061523, 15.029172897338867, -25.99974822998047, -62.96504211425781, -15.053759574890137, -20.917268753051758, -35.04765319824219, -50.917972564697266, -31.915056228637695, -1.7062476873397827, 38.12794876098633, -3.3223782338609453e-06, 0.002117701806128025, -1.1361054182052612, -1.4622647762298584, -0.6849947571754456, 3.003593921661377, 3.1780618883203715e-05, 2.970043659210205, -1.5896100997924805, -2.2364951291820034e-05, -0.2574349343776703, -3.79365873336792, -0.5578507781028748, 7.664436270715669e-05, 1.4475602938546217e-06, -38.57246398925781, 0.9416024088859558, 0.3458433449268341, 0.583597719669342, 0.4105876088142395, 14.851078033447266, 1.7124483585357666, 0.12788604199886322, 0.00027660559862852097, 0.375171035528183, -0.3708072602748871, -9.901611328125, -0.00010860944166779518, 0.3899264931678772, 0.327257364988327, -0.06158774346113205, 0.36337459087371826, 0.06356950849294662, -0.8895188570022583, 0.4743344187736511, -0.6639734506607056], [-1516.64892578125, -1.677880936767906e-05, -928.53271484375, 1085.678955078125, -0.0005371844163164496, 2072.46875, -3775.0, 2532.83349609375, -3799.41796875, 1992.083740234375, -7.678265571594238, -1187.7744140625, 3361.02099609375, -2708.828125, 1650.6595458984375, -1965.7938232421875, 0.00218032393604517, -3565.7880859375, -2036.26513671875, -4000.991943359375, -8884.21484375, 1760.4566650390625, -1763.9578857421875, -2631.426025390625, 2499.9140625, -2796.583984375, -179.45899963378906, 1535.7796630859375, 5.820662045152858e-05, -0.0022336915135383606, 5.4714813232421875, 6.989182472229004, 0.4726654887199402, 13.663506507873535, -3.2076633942779154e-05, -11.563419342041016, -6.453391075134277, 0.702621579170227, -0.24465078115463257, -0.13411317765712738, -3.7246320247650146, 4.371268272399902, 3.1610026359558105, 98.28864288330078, 2.456075429916382, 0.5808209776878357, 6.72524356842041, -0.4128316044807434, 41.300106048583984, 9.998759269714355, 0.11818651854991913, 1.0398401021957397, 0.37627533078193665, 0.2795115113258362, -38.606361389160156, -0.0024156812578439713, -2.3996503353118896, 2.4275753498077393, -0.906635046005249, -9.275538444519043, -4.760641098022461, -4.670551776885986, 5.047266006469727, 5.764189720153809], [-3602.347412109375, -0.059851787984371185, 789.135009765625, -2260.3876953125, 14.21807861328125, -3921.88916015625, 3633.684814453125, -4316.125, -3294.1171875, -2703.359130859375, -0.0003825702879112214, -1843.9727783203125, -5200.38232421875, 2761.313720703125, -2229.941650390625, 2642.15625, 0.002303983084857464, -3105.83984375, -2890.991943359375, -3887.006591796875, -7699.947265625, -1985.363525390625, -2297.11328125, 4177.2099609375, -5469.0146484375, 4032.775390625, -0.02220781333744526, 3492.36083984375, -1.297279686696129e-05, 0.0022463612258434296, -6.059469223022461, -7.532820701599121, -0.679461658000946, 15.331774711608887, 3.357493915245868e-05, -12.935829162597656, -7.380383491516113, -0.6900492906570435, 0.2660030722618103, 0.3684020936489105, -3.961289167404175, -4.7348127365112305, 3.5267772674560547, 108.09700775146484, -2.5602452754974365, 0.6469123959541321, 7.415197372436523, 0.40817296504974365, 44.892154693603516, 10.852551460266113, -0.13695752620697021, -1.0965632200241089, 0.37640437483787537, 0.28023284673690796, -41.436805725097656, 0.00011569587513804436, 3.15580677986145, -2.980983257293701, 0.9722753763198853, -9.006688117980957, 5.180135250091553, -5.231219291687012, 5.249383449554443, -5.950949192047119], [-79.66153717041016, 1.1477210521697998, -17.986108779907227, 56.33268737792969, -0.25659045577049255, -45.153045654296875, 51.30276107788086, 105.77635192871094, -55.80320739746094, 30.574996948242188, 0.16330382227897644, -28.426738739013672, 104.3221435546875, -47.27055740356445, 47.841033935546875, 35.60972213745117, 0.5919287204742432, -49.79631042480469, -38.095237731933594, -48.81293487548828, -132.84259033203125, -30.94895362854004, -42.2626838684082, 71.7373046875, -108.20076751708984, 68.40997314453125, -0.00035826535895466805, -73.65623474121094, 3.4143959055654705e-05, 0.0037909920793026686, -0.48102617263793945, 1.0506882667541504, 0.49348825216293335, -2.4729127883911133, -4.039945633849129e-05, -2.1712875366210938, 1.2298083305358887, -2.2544696548720822e-05, 0.3042445778846741, -4.628284931182861, 0.07165977358818054, 3.912994725396857e-05, -2.745300662354566e-07, 26.29923439025879, -0.6012874245643616, -0.18350641429424286, -0.6341230273246765, 0.3587650656700134, -10.255335807800293, -1.3710708618164062, -0.12903150916099548, -0.0003117569722235203, -0.33041271567344666, -0.2827104330062866, -7.671810150146484, 0.0001173986674984917, 0.06371293216943741, -0.12957283854484558, 0.03807886317372322, 0.11804667115211487, 0.03667474538087845, -0.23961736261844635, -0.09311483055353165, 0.1318792700767517], [1015.8547973632812, -0.002886813832446933, -212.0345001220703, 703.4052734375, -1.139831304550171, 755.7382202148438, 804.7791748046875, -1424.504638671875, 815.5994873046875, 488.5985412597656, 1.713716983795166, 404.9464416503906, -1504.6309814453125, 618.1458740234375, -632.9823608398438, -543.7105102539062, 0.000674998969770968, 699.05419921875, -655.2667236328125, -720.3204345703125, 2013.12646484375, 426.0934753417969, -586.0850830078125, -1045.86376953125, -1428.6888427734375, 1022.755615234375, -3.7432191371917725, 935.2151489257812, -5.821884406032041e-05, 0.008196895010769367, -6.691003799438477, 7.870392799377441, -0.23741593956947327, -16.3785457611084, 2.5450053726672195e-05, 13.641395568847656, 7.642301559448242, -0.6299738883972168, 0.32807034254074097, -0.7479715943336487, -4.117533206939697, -4.905609130859375, 3.6668214797973633, 118.01732635498047, 2.729403257369995, -0.6014862656593323, -7.684726715087891, -0.3588373064994812, 48.14364242553711, 11.476338386535645, -0.11383560299873352, 1.0275517702102661, -0.3536272346973419, -0.27997642755508423, 44.49962615966797, 0.00011095668014604598, 3.203502893447876, -2.8854775428771973, -0.4167088568210602, -9.53861141204834, -5.26986837387085, -5.304299354553223, -5.484424591064453, -6.072719097137451], [757.8643188476562, -2.471674680709839, 684.3557739257812, -657.6954345703125, -0.006456071510910988, -1132.7200927734375, 3438.62353515625, -1720.538818359375, 1365.998779296875, 950.4448852539062, 6.2649922370910645, -979.1636962890625, -634.1971435546875, 1077.2586669921875, 1120.1124267578125, -896.0025634765625, 0.002750921528786421, -5900.13037109375, 1068.4404296875, -1690.4849853515625, 5131.41943359375, -1357.242431640625, -713.0052490234375, -1330.4940185546875, 784.1248779296875, -1426.398681640625, 0.02310442179441452, -1244.082275390625, -1.3428682905214373e-05, -0.00801361445337534, 4.702149391174316, -5.805290222167969, 0.5110104084014893, 11.856871604919434, -3.320126415928826e-05, 9.817218780517578, 5.5324201583862305, 0.5110375881195068, 0.24499791860580444, -0.010574368759989738, 3.145014524459839, 3.485222816467285, -2.650326728820801, 154.3406982421875, -2.113118886947632, -0.43272560834884644, 5.658458709716797, 0.2982037663459778, -34.099300384521484, 8.262118339538574, -0.11487509310245514, -0.7965465188026428, -0.37017032504081726, -0.3515288531780243, 32.486934661865234, -0.00014064151037018746, 2.4666011333465576, -2.245035171508789, 0.8031107783317566, 7.240561485290527, 3.8942790031433105, 4.060483455657959, -4.1100053787231445, 4.562176704406738], [-2.1806650693179108e-05, -1.1037749381159756e-08, 1.1411323157517472e-06, 1.7064994608517736e-05, -1.1799786534538725e-06, -5.85597217650502e-06, 0.00013060194032732397, -1.5035035175969824e-05, 1.5274184988811612e-05, -5.45677858099225e-06, 2.0908763076477044e-07, -2.181076524720993e-06, -3.1969593692338094e-06, 1.2344014066911768e-05, 8.55818871059455e-06, -3.91093408325105e-06, 1.113512280426221e-05, -3.727096918737516e-05, -2.254211494800984e-06, -9.463310561841354e-06, -1.797199911379721e-05, 5.352444077288965e-06, 0.00011353685113135725, -9.368363862449769e-06, 1.7677741197985597e-05, -8.090656592685264e-06, -4.224530881363764e-12, 1.4611258848162834e-05, 7.951485025969873e-10, -0.0005261424230411649, -2.750687997377099e-07, 0.00040229043224826455, -2.4677833607711364e-06, -2.8488986458796717e-07, -0.0017660867888480425, 2.021856744249817e-07, 2.3276664151694604e-08, 0.0011846829438582063, -1.3337516975298058e-06, 1.3210457154855249e-06, 7.533750476795831e-07, -0.0007585614803247154, -2.459468362303596e-07, 1.581673814143869e-06, -3.3486713846286875e-07, -7.854800969653297e-07, -3.440648583818984e-07, -1.92635229723237e-06, 6.62096113046573e-07, -4.338628567523983e-09, -0.001292062341235578, 0.0026121679693460464, -6.970885237933544e-07, 8.93251410616358e-07, 6.120276339061093e-07, -0.0005651948158629239, 0.15072745084762573, -0.10447344928979874, -0.10171861201524734, -0.01742672733962536, 0.013358362019062042, 0.1383896768093109, -0.08846922963857651, 0.17870399355888367], [-74.39769744873047, 6.5614399909973145, -126.1090087890625, 38.78011703491211, -0.023939743638038635, 802.30712890625, -7025.025390625, 12445.1923828125, -30.22452735900879, -1700.20068359375, 0.04132514446973801, -111.2726058959961, -134.67852783203125, 90.41022491455078, -36.099979400634766, -130.84950256347656, 0.014904655516147614, -611.84033203125, -5014.51513671875, -57.59675979614258, 9363.201171875, -28.593870162963867, 103.35930633544922, 668.6846923828125, 6.476811408996582, 5164.47998046875, 0.3749646842479706, -5.313623428344727, -3511.34912109375, -15852.771484375, -16836.5859375, -8017.45849609375, -14903.0107421875, 7563.953125, -7795.8330078125, -5887.1943359375, 5812.97705078125, -6102.46044921875, -15091.9833984375, -18612.138671875, 8124.15478515625, -5553.26416015625, -7225.81982421875, -18039.82421875, 8107.63916015625, -11727.8623046875, 5308.21875, -45633.23828125, -15066.861328125, 4538.48291015625, 18701.736328125, 5434.16943359375, 26175.083984375, 12384.3740234375, 14093.607421875, 11492.4921875, -12.4410400390625, 5.924020767211914, -9.67641544342041, -14.661757469177246, -10.955814361572266, 8.29516315460205, 3.0605671405792236, -10.525959968566895], [49.96421813964844, -42.621707916259766, -41.82197189331055, 48.930259704589844, -16.764753341674805, 44.400943756103516, -45.296112060546875, 29.12466812133789, 48.275970458984375, -29.621274948120117, -41.8216438293457, -30.569576263427734, -39.18503189086914, 39.21121597290039, -29.76803970336914, -35.92081069946289, 38.05974197387695, 39.80719757080078, 40.29576873779297, -33.85116195678711, -285.35211181640625, -29.661514282226562, 35.755680084228516, 64.15534210205078, 40.28472137451172, -50.259361267089844, 47.0601806640625, 35.46050262451172, 6.010810466250405e-06, -0.0021865898743271828, 5.2946929931640625, 6.118529319763184, 0.32462310791015625, -12.588536262512207, -3.200323408236727e-05, -10.505531311035156, 5.98557186126709, -0.362375944852829, -0.2696136236190796, -0.7693468332290649, 3.3006436824798584, 3.632625102996826, -2.6961398124694824, -92.50890350341797, -2.043382406234741, 0.480280339717865, -6.028334617614746, -0.3727196455001831, 37.638858795166016, 8.739720344543457, 0.1148957908153534, -0.6639307141304016, -0.3763364255428314, 0.34937942028045654, -36.27205276489258, -0.002358954166993499, -2.312039613723755, 2.05149507522583, -0.15418553352355957, -7.384515762329102, 3.806102991104126, 4.1461615562438965, 4.103848934173584, -4.540590286254883], [-1912.8275146484375, 1.7759798765182495, 450.5604553222656, 1268.7344970703125, 0.001989374402910471, 1215.357666015625, 835.3007202148438, 1084.3526611328125, 1520.0999755859375, 1114.270263671875, 5.444578170776367, 882.5992431640625, 387.0877685546875, -2380.3251953125, 850.0082397460938, -751.8966064453125, 0.014299944043159485, 4673.53857421875, 1291.3203125, 1421.0205078125, -11974.38671875, 1406.03466796875, 583.9534301757812, 1417.2076416015625, 207.46331787109375, -1124.9913330078125, 0.05845873802900314, 840.72900390625, -1.415981650352478, 0.006618383340537548, -185.53244018554688, -13.473586082458496, 763.6870727539062, 40.96303176879883, 2.4995486455736682e-05, 826.7666015625, -428.6678466796875, -4.733169078826904, 14.151761054992676, 2860.88330078125, -38.68904113769531, -3.393728494644165, 29.39871597290039, 12523.87890625, 12.822964668273926, 0.46835339069366455, -13.93152141571045, -0.29811519384384155, -4776.0517578125, 389.340576171875, -0.12167173624038696, 5.219063758850098, 0.3760391175746918, 0.2268090397119522, 1288.52978515625, 0.0005836133495904505, -0.6713055968284607, 0.8330739140510559, 0.06341482698917389, -2.407062292098999, 0.4042004346847534, -1.5581198930740356, 0.309486448764801, 1.3294364213943481], [-7.818061828613281, 40.5356559753418, -36.584110260009766, 6.067139625549316, -16.652387619018555, -0.5988842844963074, -6.597049236297607, -14.344236373901367, 9.504573822021484, 12.100577354431152, -41.18769454956055, 19.064491271972656, 5.124904632568359, -4.658895492553711, -4.317514896392822, -0.2863314747810364, -40.303672790527344, 9.356901168823242, 13.503335952758789, 5.699136734008789, -6.347728252410889, 10.520462989807129, -2.085075616836548, -22.102380752563477, 34.94247055053711, -23.671566009521484, -36.41708755493164, 16.478113174438477, 4.348441507318057e-05, 0.002784721553325653, 5.298818588256836, 6.543346405029297, 0.35468852519989014, -13.344368934631348, 3.0021878046682104e-05, 11.103889465332031, -6.321079254150391, -0.5160518884658813, -0.2574433982372284, 0.02125641331076622, 3.6136391162872314, -4.1478729248046875, -3.003969192504883, 94.16388702392578, 2.4031107425689697, -0.6381205916404724, -6.4308061599731445, -0.28138548135757446, 38.890750885009766, 9.292998313903809, -0.11810411512851715, -0.8160143494606018, 0.3751680552959442, 0.25109201669692993, -36.429752349853516, 0.00014309764083009213, 2.8857572078704834, 2.5052542686462402, -0.9505455493927002, -7.94622278213501, -4.419848442077637, -4.531667232513428, -4.768768787384033, -5.065743923187256], [-1.9295130186947063e-05, 2.7803650937130442e-08, -2.2078509118728107e-06, -1.3758408385911025e-05, -6.998646995270974e-08, -4.174329660600051e-06, 1.2046840538459946e-06, 1.6967848637250427e-07, -1.5843619621591642e-05, 1.77966410319641e-06, -8.70913368089532e-08, -6.7295295593794435e-06, -8.07802007329883e-06, 1.1627862477325834e-05, 7.089193786669057e-06, -6.1835689848521724e-06, 1.6603421215677372e-07, 1.4352567632158753e-05, -3.045823632419342e-06, -1.1310889931337442e-05, -5.318424882716499e-06, -6.102638963056961e-06, 4.560699380817823e-06, -1.148465889855288e-05, -1.0269208360114135e-05, -2.4730707082198933e-06, 4.187696196755741e-12, -1.6171401512110606e-05, 5.4058940435197655e-08, 3.1953281904861797e-06, 3.0376615995919565e-06, 1.0904716418735916e-06, 5.667610821546987e-06, 2.2680660549667664e-07, -6.591562851099297e-05, -4.300735270135192e-07, 1.7113258365952788e-08, -1.594851892150473e-05, -6.036909326212481e-06, -2.3764948764437577e-06, -1.2359472520984127e-06, -3.973778075305745e-05, 1.925954649095729e-07, -4.702915248344652e-06, 7.945466222736286e-07, 3.0182602586137364e-06, 3.7027686516921676e-07, 2.194708258684841e-06, 3.37188930643606e-06, -2.970432788629296e-09, 4.9944002967095e-05, -0.0001125174094340764, 2.6120889629055455e-07, -1.5566602087346837e-05, 8.384997727262089e-07, -1.8231514332001098e-05, -0.26499345898628235, -0.3319520354270935, -0.42959916591644287, -0.031053682789206505, 0.07904156297445297, -0.5862793326377869, -0.23604941368103027, -0.48298463225364685], [416.3238830566406, -0.03310844674706459, -212.1566619873047, 107.31869506835938, -0.01646152324974537, 4558.189453125, -838.2799072265625, -1388.9766845703125, -91.7373275756836, 2765.6337890625, 0.0025833132676780224, 2112.836181640625, -218.80599975585938, -728.9519653320312, -3789.79345703125, -1267.637451171875, 4.92879056930542, -102.44651794433594, 6873.203125, -337.2936706542969, 7714.642578125, -411.9498291015625, 248.08209228515625, 6075.54296875, 2132.89990234375, 7538.455078125, -0.19581301510334015, 30.71177101135254, -10.65943717956543, 0.008129854686558247, -6384.06103515625, 1482.2703857421875, 2931.7919921875, 1765.8790283203125, 1.6530611901544034e-05, 753.938720703125, 599.3429565429688, 0.31702539324760437, 444.69146728515625, -8413.658203125, -2602.420654296875, 1.7832943201065063, 1.692791223526001, -9665.0322265625, 1906.5469970703125, -3513.48583984375, 722.3863525390625, -0.3441242575645447, 9206.169921875, -364.5028991699219, -0.11676141619682312, -0.15385162830352783, 0.376299113035202, -44.02437210083008, 5453.236328125, 0.00011678333976306021, -0.7546159625053406, 0.07140734046697617, 0.19750386476516724, -2.4316012859344482, -0.26391562819480896, 0.4835597276687622, -1.2661235332489014, -1.2253179550170898], [3539.4755859375, 0.7761420011520386, 447.5669250488281, -2729.67724609375, -1.2667077779769897, -848.1510009765625, 752.101318359375, 777.2940673828125, -3248.6142578125, -464.4776611328125, -0.07212667167186737, -536.005126953125, 643.0158081054688, 1921.3873291015625, 894.9730224609375, 566.589599609375, -0.0006715279305353761, 1370.2215576171875, -701.4232788085938, -2596.892333984375, 1339.435791015625, 645.924072265625, -739.9437255859375, 979.2100830078125, -1328.3438720703125, -844.232177734375, 0.0235675647854805, -3050.783447265625, -3.730919343070127e-05, -0.006643044762313366, 3.02481746673584, -3.8395004272460938, 0.5660623908042908, -6.711783409118652, 3.5175427910871804e-05, -5.619964599609375, 3.274601459503174, -0.23466867208480835, 0.32815033197402954, 0.4841206967830658, 2.0512964725494385, -1.9163830280303955, 1.4313287734985352, 7.764923095703125, -1.3677690029144287, -0.71969074010849, -3.387399911880493, 0.4100798964500427, 16.65015411376953, -4.6766862869262695, -0.1166936606168747, -0.1751948595046997, -0.34448233246803284, 0.24385233223438263, 16.93982696533203, 0.00010882550850510597, 0.8417136669158936, -0.7602975964546204, -0.06323734670877457, -2.6884653568267822, -0.2505107522010803, -1.3380135297775269, 0.7476551532745361, 1.9007515907287598], [2.47557236434659e-05, 1.7053042711268063e-07, 1.4407359003598685e-06, -1.4435318007599562e-05, -1.6838686178743956e-07, 3.0654209695057943e-06, 0.00016282818978652358, 3.891182132065296e-07, -1.6780059013399296e-05, 4.424214694154216e-06, 1.0944039274818351e-07, 1.9109311324427836e-05, -3.7394863738882123e-06, -1.2398701983329374e-05, 6.0514494180097245e-06, 3.077557721553603e-06, -3.447646861332032e-07, -2.0796525859623216e-05, -6.439917797251837e-06, 1.2177736607554834e-05, 2.0412904632394202e-05, -5.709129254682921e-06, -4.585874648910249e-06, 3.536053918651305e-05, 5.7129841479763854e-06, 7.929356797831133e-06, 5.7705116726647354e-12, 1.7702128388918936e-05, -1.843061880890673e-08, -4.987423949387448e-07, 1.476085230933677e-06, 1.124784489547892e-06, 7.396241016977001e-06, -2.2170183910930064e-06, 0.0009236483019776642, 7.189123039097467e-07, 1.5524877028383344e-07, -0.0006060966406948864, 1.8329416207052418e-06, -3.4980475902557373e-06, -7.74266254666145e-07, -0.0005844328552484512, 2.982494962111559e-08, -1.5421579519170336e-05, -9.260117508347321e-07, -4.369070666143671e-06, 1.013934252114268e-06, 5.357267127692467e-06, -1.5884208551142365e-05, -5.908968869761111e-09, -0.0008828566060401499, 0.0015835171798244119, 3.234561745557585e-06, 5.548540116251388e-07, -1.7579901623321348e-06, -0.0001872983411885798, -0.7648200392723083, 0.30824416875839233, -0.020252957940101624, 0.3181702196598053, -0.3446007966995239, 0.9625234603881836, -0.838811993598938, -0.9295084476470947], [-7874.32421875, -0.9209010601043701, -2109.879638671875, 5531.99609375, -6.69782018661499, -6226.54736328125, 6691.939453125, 8583.9052734375, 6281.0908203125, -6030.7265625, -0.2988526225090027, 4647.77294921875, -9814.5849609375, -5700.2841796875, -5851.80517578125, -5878.84619140625, 0.00378171494230628, -5912.341796875, 5917.04052734375, -6653.1904296875, -14130.3125, 4018.360107421875, 4847.86474609375, -8866.796875, -9832.505859375, -7667.203125, -0.008581992238759995, 8034.88818359375, -3.388058394193649e-05, -0.0046021658927202225, 7.435994625091553, 9.09212589263916, -0.3299696445465088, 18.890718460083008, 3.498689693515189e-05, 15.960321426391602, -9.122495651245117, 0.8656452298164368, -0.26702880859375, 0.3825640380382538, -4.869797229766846, 6.032217025756836, 4.465023517608643, 132.7293701171875, -3.2698681354522705, -0.8661317229270935, -9.167929649353027, -0.358933687210083, 55.736026763916016, 13.485417366027832, -0.13705897331237793, 1.4044843912124634, 0.3750822842121124, -0.2897294759750366, 50.42778015136719, 0.00011983545846305788, 3.8362886905670166, -3.5760886669158936, 0.8449956178665161, 10.761697769165039, -6.0170063972473145, 6.2206645011901855, 6.423140048980713, 7.3572845458984375], [-701.1198120117188, -43.3416862487793, -159.8459930419922, -513.2041015625, -12.816920280456543, 450.90399169921875, -512.7548217773438, -967.0391235351562, -532.2113647460938, -324.88330078125, 37.306705474853516, 300.43609619140625, 979.1045532226562, 419.51531982421875, -444.1547546386719, 369.4350280761719, 41.97379684448242, 460.1560363769531, -454.2074279785156, -471.92437744140625, 1302.404541015625, 287.5079650878906, -407.0284729003906, -682.9238891601562, -958.740478515625, -680.9998168945312, -0.003120933659374714, 666.6282348632812, -4.30524414696265e-06, 0.0038045558612793684, 6.687906265258789, -8.225308418273926, -0.2697595953941345, -16.84248161315918, 3.369096157257445e-05, -14.272756576538086, -8.010964393615723, -0.7868832349777222, 0.3267892003059387, 0.30601176619529724, -4.385256290435791, 5.251437187194824, 3.931987762451172, 118.91425323486328, -2.934962511062622, -0.7073926329612732, -8.101237297058105, 0.3202959895133972, 49.554988861083984, 11.96090030670166, -0.12351679801940918, 1.321494698524475, -0.3749438226222992, 0.2519145607948303, -45.2928466796875, -0.00013914372539147735, -3.559910297393799, -3.2251932621002197, -0.9252183437347412, 9.749590873718262, -5.5010457038879395, 5.701969623565674, 5.792579174041748, 6.623009204864502], [-58.7509880065918, -53.299434661865234, 50.69188690185547, -60.46464538574219, -20.630271911621094, 54.72880172729492, -56.28288269042969, 36.22188186645508, -60.16789627075195, -36.339622497558594, -51.001644134521484, -39.445011138916016, 49.7218017578125, 48.18243408203125, -37.756988525390625, 47.1843147277832, 47.59012222290039, 48.436466217041016, -49.41212463378906, 41.84095764160156, 338.404296875, 37.22456359863281, 42.33425521850586, 79.68608093261719, -49.01921844482422, -62.35401916503906, 56.79627990722656, 37.69486618041992, -0.00019221162074245512, 0.0021495437249541283, -6.1489152908325195, 7.368044853210449, -0.5078665018081665, 15.354435920715332, -4.034910671180114e-05, 12.716184616088867, -7.10452938079834, 0.7229691743850708, -0.257364958524704, 0.22851908206939697, -3.9711849689483643, 4.563802719116211, -3.389214038848877, -109.20845794677734, -2.556687116622925, -0.6273327469825745, 7.3459367752075195, 0.35900557041168213, 44.981449127197266, 10.628535270690918, -0.13688549399375916, 1.0437670946121216, -0.37004444003105164, -0.25742414593696594, -41.96200942993164, -0.00011490921315271407, -2.8861143589019775, -2.712643623352051, 0.5747908353805542, 8.69202709197998, -4.838244438171387, -5.013380527496338, -5.090027809143066, 5.667729377746582], [1346.898681640625, -0.009822976775467396, -874.1815795898438, 1051.417724609375, 0.0005136133404448628, -1232.1790771484375, 2868.2197265625, 1595.4842529296875, -3667.19091796875, 1776.4173583984375, 0.07804552465677261, -1004.158203125, -1463.4942626953125, -1426.4765625, 1376.7664794921875, 1890.3349609375, -8.152974128723145, 2535.324462890625, -1216.1458740234375, 3326.920166015625, 7614.61279296875, -1351.095458984375, -1051.2039794921875, -1448.0853271484375, 2186.076904296875, 1556.7255859375, -55.1644401550293, -1836.7574462890625, -4.975168849341571e-06, -0.008192350156605244, -5.89996337890625, 7.04720401763916, -0.48080867528915405, -14.587414741516113, 3.327564991195686e-05, 12.050289154052734, -6.942132949829102, 0.7215675115585327, -0.28381550312042236, 0.10530024766921997, 3.902087450027466, 4.397513389587402, 3.3417015075683594, 103.68595123291016, -2.5709216594696045, 0.7372459769248962, 6.883054733276367, -0.3590824604034424, -42.59425735473633, 10.172581672668457, -0.11672668159008026, 1.0944916009902954, -0.3764328062534332, -0.26837724447250366, -40.042694091796875, 0.00014073343481868505, 2.778855085372925, 2.6016719341278076, -0.6451454162597656, 8.813653945922852, -4.765439033508301, -4.805337429046631, -4.944543838500977, -5.451867580413818], [1020.6080322265625, -629.114501953125, 416.58612060546875, -1004.080078125, -215.2470703125, 1028.15625, -1083.0609130859375, -548.3116455078125, 359.0272216796875, -834.4932250976562, -408.5510559082031, 1935.4068603515625, 765.6399536132812, -968.2657470703125, 960.6058349609375, -6442.228515625, -468.07281494140625, -773.291015625, -218.5236053466797, -626.8784790039062, 3087.573486328125, -306.4875183105469, 803.436767578125, -866.8846435546875, -494.83526611328125, 2656.697021484375, 1172.7056884765625, -421.376220703125, -0.1886116862297058, 50.061988830566406, 2279.77099609375, -1302.0546875, -1898.44677734375, 923.4655151367188, -0.15960004925727844, -215.87228393554688, 226.46774291992188, -0.18746910989284515, 1657.528564453125, 2917.603271484375, 914.8771362304688, 0.20642246305942535, 0.01724051684141159, -668.542724609375, 1152.2681884765625, -2232.98095703125, 463.6446228027344, -293.95758056640625, -108.5576171875, -1.3713592290878296, 217.4654541015625, -2.223647117614746, -374.1593933105469, 128.1565399169922, -1261.6524658203125, -0.7889769673347473, 0.16139686107635498, -1.7425259351730347, 0.7937105894088745, -0.5663437843322754, -1.3635821342468262, 4.088441848754883, -2.72989821434021, -1.5423551797866821], [0.00017458308138884604, 1.3472674254444428e-05, -0.00033003007411025465, -0.00017439111252315342, 0.00036598293809220195, 1.163012146949768, 0.3393569588661194, -4.758627891540527, 0.0010248578619211912, -34.122413635253906, -1.6102839026643778e-06, 1.4456837177276611, 0.003981139976531267, -0.0005815808544866741, -0.08871795982122421, -1.9946250915527344, -0.00023244923795573413, 0.013421015813946724, 63.5140495300293, 0.0004081584047526121, 8.518563270568848, 0.00704415375366807, -0.0011206730268895626, 0.21267692744731903, 0.18291255831718445, 1.245916485786438, -0.0007073601009324193, -0.003480102401226759, -0.044256750494241714, 5.402863025665283, 3312.290283203125, 665.840087890625, -7799.5, 654.8436889648438, -7.256701469421387, -84.66947937011719, -527.6350708007812, -0.2707037329673767, 6715.1484375, 5624.08349609375, 617.0171508789062, -0.18739557266235352, 228.5121612548828, 5361.8876953125, -526.9065551757812, 1880.2159423828125, -462.15435791015625, -3846.882080078125, -2552.2275390625, -195.11395263671875, 1970.5126953125, 2.281838893890381, 2510.602783203125, -7159.3330078125, -2014.51025390625, 0.4982445538043976, 0.7293658256530762, -0.27000516653060913, 1.4105905294418335, 0.6807043552398682, 0.8600103259086609, 0.16060204803943634, 0.03658091649413109, -0.5717294216156006], [-1642.7484130859375, 1472.6768798828125, 451.0865478515625, 2157.22998046875, 280.707763671875, 6951.6552734375, 2849.150390625, -2284.220947265625, -1430.460693359375, -1891.7904052734375, -636.7335815429688, 4188.00244140625, 1815.8125, 1100.6123046875, -2548.6689453125, -1443.051513671875, 638.5279541015625, -240.4456329345703, -188.00439453125, -1916.3291015625, 48.33628463745117, 41.99011993408203, 1456.5146484375, -6776.0, 1606.1876220703125, -5518.83203125, 1848.5750732421875, 1728.0360107421875, -0.2813664674758911, 51.44423294067383, -3776.649658203125, 1601.4727783203125, 2280.283203125, 1519.0169677734375, 0.2742556631565094, -866.0451049804688, -381.1630554199219, -0.4098108410835266, -910.8767700195312, 5148.27587890625, 1477.1580810546875, -0.5109525322914124, 0.13423511385917664, 4274.7724609375, 1400.346435546875, -2334.805908203125, 729.0642700195312, -499.2896423339844, 4342.4189453125, 1.6735177040100098, 458.05609130859375, 3.033021926879883, 618.4026489257812, 150.03871154785156, 3317.614990234375, 1.0141202211380005, -0.19812294840812683, -3.378411293029785, 0.11526698619127274, 0.5644731521606445, -2.213996648788452, -6.345108509063721, -3.755059242248535, -2.622163772583008], [0.0009709300938993692, -1.7216309061041102e-05, -0.0007990502053871751, 0.0021316215861588717, 0.00033192746923305094, -1.257135272026062, -0.34273624420166016, -4.740678310394287, -0.00013670112821273506, 1.961002230644226, 0.0022099576890468597, 1.4360466003417969, -0.0021567405201494694, 0.00018825341248884797, -0.07775882631540298, 1.9898402690887451, -0.00048699212493374944, 0.00073012470966205, 6.765007495880127, 2.632821269799024e-05, 8.524807929992676, -0.0005038160597905517, -0.0001873064029496163, -0.1799723505973816, -0.005734289530664682, 1.4752646684646606, -1.2822565054193547e-07, 0.0015214764280244708, -4083.077392578125, -9049.0458984375, -14282.4970703125, -7493.8310546875, 30144.080078125, 7034.564453125, 5431.55078125, 5627.9228515625, 5710.66162109375, 5031.83984375, -21674.564453125, 21648.25390625, 7140.9921875, -5068.8427734375, -6054.42431640625, -16923.294921875, -7325.4423828125, -10613.21875, -6722.19873046875, -19550.373046875, -10863.7373046875, 5049.72412109375, -11448.87109375, 4023.224365234375, -14135.8720703125, 24996.056640625, 9505.6845703125, -6539.7138671875, -0.4849793016910553, 0.020175505429506302, -1.6555874347686768, -0.9666993618011475, -0.7733854055404663, -0.2035101354122162, 0.05408954620361328, -0.16444873809814453], [-0.00017933655180968344, -5.889408384973649e-06, -0.0007972350576892495, 0.0005556481191888452, 0.00028718606336042285, -1.1333526372909546, -0.33959102630615234, -4.752109527587891, -0.0006796777015551925, -0.014788655564188957, 0.0005545062595047057, 1.442408561706543, 0.004251871723681688, -0.00466288672760129, 0.08439473062753677, -1.9881104230880737, 0.00019090350542683154, -0.0016950068529695272, -6.267663478851318, -2.8713169740512967e-05, 20.57306671142578, 0.0027538167778402567, 0.00018732502940110862, 0.19187653064727783, 0.002713077235966921, -1.3593837022781372, 0.006844639778137207, -9.008220513351262e-05, -0.21690869331359863, 15.086142539978027, 2.481920003890991, 0.6217069625854492, -192.3966064453125, -0.20599670708179474, -0.1370241492986679, 0.1091029942035675, 0.26993146538734436, 0.1616484671831131, 601.2682495117188, -698.8405151367188, 0.5320571064949036, -0.43326613306999207, 36.24640655517578, -1687.0562744140625, -0.2813718020915985, 0.6161364912986755, 0.14614880084991455, 0.5847760438919067, 372.14935302734375, 0.16904348134994507, 1.869884967803955, 1.8584758043289185, -1.913069725036621, 633.7353515625, 170.6926727294922, 13.972146034240723, 0.9304832816123962, -0.7710058093070984, 0.756052553653717, -0.3254116177558899, 0.47113990783691406, 1.0945019721984863, 0.2311282604932785, 0.5799065828323364], [-0.0003133916179649532, -2.9920698807472945e-08, 0.0007983526447787881, 0.0004629757022485137, 0.0006098520243540406, 1.207603931427002, -0.3395029306411743, -4.755666255950928, 0.0006801079725846648, 1.9884965419769287, -0.0006278802175074816, -1.428966999053955, -0.0043190536089241505, -0.009381101466715336, 0.08615151792764664, -1.9817308187484741, -0.0007338649593293667, 0.009052613750100136, 6.759710788726807, 0.0004241472342982888, -8.637524604797363, 0.0027410725597292185, -0.0012821562122553587, 0.32478252053260803, -0.19268867373466492, -1.2463322877883911, -0.0008731458219699562, 0.003266628598794341, -244.70472717285156, -460.636962890625, 899.6644287109375, 494.7139587402344, -1306.990478515625, 444.77398681640625, -315.6769104003906, 353.52655029296875, 351.1516418457031, 271.7929992675781, -1283.4385986328125, 1079.523681640625, 437.55133056640625, -326.4454040527344, 390.24072265625, 1415.8060302734375, -408.486328125, 719.88720703125, -476.51214599609375, 1101.2740478515625, -741.4213256835938, -310.77984619140625, 688.4671020507812, 234.36341857910156, -845.1259765625, -1394.1385498046875, -732.747314453125, -344.0237731933594, -0.49780169129371643, 0.5389769077301025, -0.620976984500885, 0.7353658676147461, -0.8307366967201233, -1.1052308082580566, 0.09279682487249374, -0.14755070209503174], [0.0010408209636807442, -2.279245018144138e-05, -0.0003324018034618348, -0.0021204755175858736, 7.397538865916431e-05, -1.2586454153060913, -0.36694496870040894, -4.744926452636719, 0.0006800800329074264, 0.008360619656741619, -9.039170981850475e-05, -1.4301722049713135, 0.005579217802733183, -0.004649013746529818, -0.06759535521268845, -2.0004234313964844, 0.0008328431867994368, 0.013424532487988472, -7.95619535446167, -4.748377250507474e-06, -8.606630325317383, 0.0020426639821380377, -0.00024214964651037008, -0.14291754364967346, -0.00048790124128572643, -1.3839958906173706, 0.002967702690511942, -0.0003327800950501114, -66.59026336669922, 6.533985137939453, -201.45040893554688, -86.80753326416016, 199.56996154785156, 6.3575897216796875, -80.83863067626953, 10.492725372314453, 17.11204719543457, -40.209434509277344, 450.455810546875, -269.607177734375, -0.4652019739151001, -81.09922790527344, 109.81271362304688, -600.4317626953125, -3.9742159843444824, 140.09934997558594, 140.51800537109375, 129.29534912109375, 36.81894302368164, -26.3071346282959, 3.2141411304473877, -29.278972625732422, -0.1735353171825409, 476.585205078125, 164.40689086914062, 0.42328351736068726, 0.6162593364715576, -0.30053260922431946, -0.33793389797210693, 0.6676434874534607, 0.6541712880134583, 0.554780900478363, -0.0867014229297638, -0.038466691970825195], [-0.0009819718543440104, 1.502921531937318e-05, 2.3482069082092494e-05, -0.0021595393773168325, 0.00025254947831854224, 1.1722458600997925, 0.39737802743911743, -4.754770755767822, -0.0006837159162387252, -58.96434020996094, 4.829402655559534e-09, -1.4300341606140137, -0.004327953327447176, -0.0046632965095341206, -0.08568946272134781, 1.9653829336166382, 0.0002566966286394745, -0.0017418301431462169, -130.7747802734375, 0.00043474382255226374, 8.589509010314941, 0.0070478045381605625, -0.0012826460879296064, 0.15904945135116577, 0.013656992465257645, -1.2459975481033325, -1.6648389333795421e-09, -2.3679371224716306e-05, 0.11208003759384155, 7.538716793060303, 3480.10595703125, 871.0701293945312, -8449.4248046875, -808.9514770507812, -283.453125, 287.15032958984375, 536.9072265625, -0.07616250216960907, -6605.50341796875, 5822.92236328125, -811.2034301757812, -136.2137908935547, 417.2684631347656, 5436.15625, 721.843017578125, 2260.639404296875, 710.1116333007812, -4728.90478515625, 2651.563720703125, 329.9344787597656, 2294.924560546875, 2.3913426399230957, -2897.312255859375, -7314.39501953125, 2137.237548828125, -0.7881004810333252, 1.213404893875122, 0.29079872369766235, -1.5935598611831665, 0.6718029379844666, 0.7336889505386353, -0.15116329491138458, -0.04082467406988144, -0.24790582060813904], [4.8906251322478056e-05, 3.930304765701294, -5.058747291564941, -6.916879177093506, 0.6243703961372375, -10.965803146362305, 13.054597854614258, -20.3177490234375, -2.745408296585083, -1.9774285554885864, 6.981001853942871, 45.384578704833984, 29.836563110351562, -6.678290843963623, -4.3330254554748535, -88.52486419677734, -7.480320453643799, 5.6267781257629395, 13.002154350280762, -2.8564810752868652, 196.22268676757812, 9.294233322143555, -5.336914539337158, -13.466570854187012, -22.554153442382812, -15.581656455993652, -4.748892784118652, -2.2769827842712402, -0.1269267499446869, 18.342344284057617, 102.76521301269531, 5.941169261932373, 104.81668090820312, -7.402120590209961, -0.1408088654279709, 3.3418779373168945, 3.2076218128204346, -0.1308552622795105, -380.1365661621094, -470.1569519042969, -3.4970691204071045, -0.23255448043346405, -0.602038562297821, -1718.4332275390625, -5.468773365020752, -44.71453857421875, 4.6744303703308105, -15.600743293762207, -15.837899208068848, -2.476667642593384, -5.919431686401367, 5.121735095977783, -16.006078720092773, 216.15719604492188, 126.56787109375, -4.934314727783203, 0.48934367299079895, -1.3923146724700928, 0.8012881875038147, 0.3156210482120514, -0.15049903094768524, 1.328382134437561, -0.7643163204193115, -0.7506270408630371], [11412.7724609375, 1373.519287109375, -2303.663818359375, -12201.275390625, 339.0321350097656, -940.3414916992188, -9664.6533203125, -10910.0302734375, 310.4808044433594, -902.9734497070312, 633.8941040039062, -2154.9365234375, 15271.994140625, -5599.814453125, -12031.3046875, 513.2631225585938, -779.4403076171875, -69.80363464355469, -1648.94580078125, 1689.2318115234375, 2486.75244140625, 575.6513061523438, 4624.7080078125, -506.11053466796875, -13610.271484375, -2413.1884765625, -2310.648193359375, 14702.2734375, -1.2027112245559692, 100.16446685791016, 4454.1455078125, 1856.3299560546875, -2225.46435546875, 1781.847900390625, 0.23275227844715118, 1436.5601806640625, 267.87469482421875, 0.3340160548686981, -873.4674072265625, -5578.17138671875, -1827.953125, 1.1075608730316162, 0.26241981983184814, -7253.88818359375, -1875.2147216796875, 2621.98974609375, -1072.3316650390625, 801.9456176757812, 5591.28955078125, -4.995412826538086, -585.1422119140625, 5.770190715789795, -891.9692993164062, -206.1428680419922, 3933.51123046875, -1.902421474456787, 0.43675798177719116, -10.87619400024414, -0.1784059703350067, -0.12354810535907745, 3.7082467079162598, 6.515647888183594, 7.584720611572266, -3.675910711288452], [0.0008686926448717713, -6.062428838049527e-06, -0.0002160918083973229, 0.0009910293156281114, 0.00032404789817519486, 1.0996516942977905, 0.33744752407073975, -5.924960613250732, -0.000677666044794023, 1.3696746826171875, -8.222827455028892e-05, 160.83831787109375, 0.0030128953512758017, -0.0014477052027359605, -0.09745610505342484, -980.0762329101562, -0.000450162187917158, -0.0016441120533272624, 82.5143814086914, 0.0003866292827297002, 48.102474212646484, 0.002761069918051362, 0.0011177933774888515, -0.1425810158252716, -0.1746869683265686, -1.369315266609192, -0.0024585097562521696, 0.0012441761791706085, -0.3773888945579529, -19.723365783691406, -381.19744873046875, 115.89680480957031, 549.4749145507812, 25.887279510498047, -1.5583547353744507, -21.714733123779297, -14.358002662658691, 0.8153147101402283, 949.5810546875, 528.7430419921875, -26.54479217529297, -1.9010446071624756, -4.35037088394165, 733.1712646484375, 103.63288879394531, 413.1697692871094, 10.058243751525879, 71.3565444946289, -34.908084869384766, 6.744248867034912, 33.43388748168945, -3.2863357067108154, -44.3604736328125, -759.4510498046875, 115.54942321777344, 17.947118759155273, -0.39048802852630615, -0.7250068783760071, 1.1235994100570679, -0.48515161871910095, 0.08068442344665527, 0.670776903629303, 0.26192671060562134, 0.3252045810222626], [0.0009795429650694132, -2.8362634907352913e-08, -0.0003301911929156631, 0.002121004508808255, 0.00041511195013299584, 1.1272979974746704, -0.34256672859191895, -4.75469446182251, -0.0006087577203288674, 166.82244873046875, -1.6555613768787225e-08, 1.4323856830596924, 0.004235174972563982, 0.004852898418903351, -0.08892347663640976, 1.9672712087631226, -3.7529771361732855e-05, -0.0026301899924874306, 322.9297790527344, -0.0007092069718055427, -8.509013175964355, 0.0022106098476797342, 0.001118797343224287, -0.19158077239990234, 0.19211086630821228, 1.3578869104385376, 0.008218455128371716, -0.0015289232833310962, -0.8287243843078613, -9.417478561401367, 1978.7047119140625, -248.83262634277344, 6141.16162109375, 219.01605224609375, 0.12383383512496948, -12.42703914642334, 202.94467163085938, -0.37505269050598145, -4303.5654296875, -4234.681640625, -7.1053266525268555, 0.12106162309646606, 0.016599632799625397, 4239.15478515625, 184.68678283691406, 1167.330322265625, 0.10247254371643066, -2099.38720703125, 1639.3486328125, 1.3702950477600098, 879.8711547851562, -1.9494327306747437, 895.8369750976562, 4571.33349609375, 1174.02880859375, 0.789494514465332, 0.2058667689561844, -0.49337372183799744, 1.0626426935195923, -0.8171437978744507, -1.0672723054885864, 0.393245667219162, 0.04732997342944145, 1.244588851928711], [-0.004875724203884602, 1.0090632258652477e-06, 0.0003307974839117378, -0.002116485731676221, -0.00014002232637722045, 1.1151331663131714, -0.33994829654693604, 4.739162445068359, -0.0010502419900149107, 0.6681488156318665, -0.0005876845680177212, -1.428391933441162, 0.003011060645803809, 0.008147225715219975, 0.07876888662576675, 1.9819892644882202, -0.00010638883395586163, -0.008991645649075508, 5.70154333114624, 1.8371763871982694e-05, -29.347087860107422, 0.0026212811935693026, 0.0011303568026050925, -0.1451074779033661, -0.17812952399253845, -1.2425767183303833, 0.0004294679674785584, -0.0004698277625720948, 0.27805987000465393, -2.963174819946289, -85.3734359741211, -2.1981940269470215, -6.788806438446045, -2.0064313411712646, -0.333354115486145, 1.4989718198776245, 0.9749295115470886, 0.2900927662849426, -482.4272766113281, 259.1536865234375, -2.890016794204712, -0.33048999309539795, -0.5760480761528015, 862.15087890625, -1.3640294075012207, 4.405953884124756, 6.866508483886719, -8.558131217956543, -89.91302490234375, 1.1261475086212158, -2.623154640197754, 0.7413555979728699, 5.9134697914123535, 437.09039306640625, -186.6490478515625, -1.821081519126892, 0.929945707321167, -0.8488412499427795, 0.5460559725761414, -0.757854163646698, 0.7946658730506897, 1.0932257175445557, -0.46857914328575134, 0.48841920495033264], [-10048.94921875, -1576.6829833984375, -2050.1279296875, -11747.08984375, -404.9333801269531, -907.9446411132812, 8163.7001953125, 11155.9931640625, 164.33665466308594, 924.2774658203125, -885.0040893554688, -3669.42431640625, 14311.759765625, -4006.790771484375, -9489.048828125, -561.3155517578125, 891.154296875, -214.98422241210938, 2236.432373046875, 127.68321990966797, 3855.1875, -577.833251953125, 4735.767578125, 206.5765380859375, -8717.361328125, -3158.647216796875, -2945.4140625, 13676.134765625, -0.49125105142593384, 41.50203323364258, -5173.54931640625, 2129.458740234375, -2716.516357421875, 2126.537841796875, -0.3760162889957428, -1695.885009765625, 580.1180419921875, 0.8790807723999023, -1289.22021484375, 5946.35791015625, 2105.572998046875, -1.1870672702789307, 0.0592915304005146, 8140.6220703125, 2169.12353515625, -3161.481201171875, 1253.337646484375, -871.8941040039062, 5287.92529296875, -4.904133319854736, 598.9468383789062, 6.452436447143555, -828.133544921875, 292.2060852050781, -3726.949462890625, 2.3988592624664307, -0.45350754261016846, 11.14890193939209, -0.1569211483001709, -0.10438437014818192, 4.03633975982666, 7.349771976470947, 7.059990406036377, 4.0723137855529785], [-0.0005857398500666022, 3.6920118873240426e-05, -0.0008006967836990952, 0.0003897222923114896, -0.0005085548618808389, 1.2276309728622437, -0.33731621503829956, 4.767488956451416, 0.0006183466175571084, 0.2377089112997055, 0.0014114895602688193, -1.4374969005584717, -0.003982525784522295, 0.0004216619418002665, 0.08477131277322769, -2.0670182704925537, 0.0019904321525245905, 0.0011640406446531415, -20.274810791015625, 0.0007605357095599174, 8.518355369567871, -0.0070457556284964085, 0.00017481922986917198, -0.5725719332695007, 0.10435165464878082, -1.281540036201477, 0.0025486513040959835, -9.405336459167302e-05, 3127.3349609375, 8447.583984375, -9119.5810546875, -4672.63427734375, 18519.7421875, -3661.3251953125, -4198.07763671875, 3437.100341796875, 3938.599609375, 3827.88623046875, -15275.75390625, 12867.23828125, 3776.46044921875, 3922.1123046875, -4805.45556640625, -11098.6611328125, 3747.31103515625, 6748.5361328125, 4965.60107421875, -14177.6298828125, -5278.58837890625, -3763.674560546875, -8134.34130859375, -3929.15087890625, 9450.083984375, 17488.21875, -5237.912109375, 6157.3681640625, -0.9337221384048462, -0.9915366172790527, -3.70524263381958, -1.2234457731246948, 2.3758957386016846, -0.7662632465362549, -0.10075957328081131, 0.29182159900665283], [-0.00013051569112576544, -1.6724989109206945e-06, 0.0007990176090970635, -0.00018098126747645438, -0.0004660563135985285, 1.1416789293289185, 0.3622984290122986, 4.954272747039795, 0.0010411597322672606, -103.56755828857422, -3.814556839643046e-05, -1.4324276447296143, -0.003011600812897086, -0.009399660862982273, -0.08956172317266464, 1.9891828298568726, 0.00012773195339832455, 0.013398388400673866, 137.54794311523438, 0.0007616644725203514, 8.7518310546875, -0.002761181676760316, 0.0011186483316123486, 0.13761703670024872, -0.03285234048962593, -1.2669154405593872, 0.009160597808659077, -0.0010123521788045764, -0.6205363273620605, 9.852021217346191, -2378.432861328125, -604.3690185546875, -6125.52392578125, 638.9871826171875, 0.3574472963809967, -41.67298126220703, -447.4593811035156, 0.291981041431427, 4238.1650390625, 4172.92431640625, -102.9472885131836, 0.2034878432750702, -0.10065383464097977, 2912.760498046875, 693.520263671875, 1443.7894287109375, 220.04977416992188, -1253.5238037109375, -542.3403930664062, 17.169570922851562, 669.361083984375, -1.882690191268921, -1302.0701904296875, -4277.755859375, -714.0536499023438, -0.8495548963546753, 0.16890428960323334, 0.6634592413902283, -1.0782122611999512, 0.7691333889961243, -1.0285546779632568, 0.5372064113616943, -0.033578984439373016, -1.212095856666565], [0.004590617027133703, 9.69782740867231e-06, 0.0007989105070009828, -0.00012971973046660423, 0.0004626651352737099, 1.2588423490524292, 0.36672377586364746, -4.753735542297363, -0.0010914357844740152, 4.8701090812683105, 0.00011487925803521648, 1.4564988613128662, 0.004250798840075731, -0.0014496572548523545, 0.08677724748849869, -1.999578595161438, -0.0003561059129424393, 0.0007298266864381731, -71.77571868896484, -0.0007757199928164482, -8.630306243896484, -0.0022075737360864878, -0.0017609500791877508, -0.2692742645740509, 0.0001518565695732832, 1.4779115915298462, -0.0013114706380292773, 0.0015320078236982226, 827.3374633789062, 1789.2208251953125, -5582.9697265625, 2047.962158203125, 13207.927734375, 1715.0078125, 1761.98095703125, 1254.39208984375, -1581.7489013671875, 1057.622802734375, 9450.9013671875, 8985.2333984375, 1754.10009765625, 1341.27001953125, -1906.8751220703125, -8182.34765625, 1657.447998046875, -3888.681396484375, -2065.722412109375, -11310.3125, -3976.35498046875, -1426.3052978515625, 6061.583984375, -738.7967529296875, -7806.35791015625, 11036.8662109375, -3385.9921875, 1593.6326904296875, -1.9929354190826416, 1.9492119550704956, 1.9533096551895142, -1.8092882633209229, -1.2717792987823486, 1.0422945022583008, -0.057835765182971954, 0.06374378502368927], [24.246688842773438, -26.301639556884766, 46.5928955078125, 33.08628463745117, 20.578554153442383, 32.39387130737305, 40.15491485595703, -46.68434524536133, -92.77981567382812, -92.55196380615234, 63.062416076660156, -147.23716735839844, -23.67560386657715, -30.3290958404541, -15.944340705871582, -820.7409057617188, -46.757530212402344, -66.72071075439453, -97.43753051757812, 14.692784309387207, 8.852806091308594, -36.29555892944336, 73.41822052001953, -82.41404724121094, -27.130294799804688, -107.78197479248047, 31.683351516723633, -80.06266784667969, 0.1983741819858551, 2.032179355621338, 10.747260093688965, -4.998754024505615, -1.2519625425338745, -4.659712791442871, -0.09712860733270645, 3.4007067680358887, 0.2541552782058716, -0.07128120958805084, 249.05580139160156, 341.30084228515625, -27.239011764526367, 0.054576609283685684, -0.020399820059537888, -472.8194885253906, 26.206724166870117, 1.107128620147705, -3.024247169494629, -10.572694778442383, 0.5115970969200134, -1.3697941303253174, 16.805185317993164, -0.9147936105728149, -29.483970642089844, -241.87643432617188, 71.30519104003906, -0.2746059000492096, 0.6648953557014465, -2.6482605934143066, -1.7741869688034058, 0.9558515548706055, 0.6318539977073669, -3.3534324169158936, -2.4312968254089355, 1.0648369789123535], [0.0045987083576619625, -4.119855816497875e-07, 0.0007983526447787881, -0.00017296851729042828, 0.00014944963913876563, -2.140223741531372, -0.4930137097835541, 8.43423080444336, -0.0006057257414795458, -9.678705215454102, 3.9523431041743606e-05, -76.17173767089844, 0.003031633561477065, 0.0046326820738613605, 0.06756054610013962, -553.7002563476562, 0.00011809082207037136, -3.5969074815511703e-05, 27.811540603637695, 0.0007702140137553215, -72.6100845336914, 0.007044489029794931, -0.001120224129408598, -0.12513606250286102, 0.1742534637451172, 1.3235629796981812, -0.0036100822035223246, 0.0010124713880941272, 0.15316015481948853, 18.823925018310547, -65.99956512451172, -0.2044529765844345, 4.1041035652160645, 0.9202967882156372, 0.1253245323896408, -0.31455594301223755, 0.2273617386817932, -0.16227580606937408, -50.24935531616211, 356.44879150390625, 0.625995397567749, 0.12568750977516174, 0.292883962392807, -1388.5360107421875, 1.2899446487426758, 1.4817301034927368, 0.5665863156318665, -1.9198009967803955, -2.3177545070648193, -0.06946361064910889, -0.5502037405967712, 6.4395551681518555, -0.5898834466934204, 2.832914352416992, -1.927933692932129, -8.712300300598145, -0.49089890718460083, -0.5103262066841125, -0.8074364066123962, 0.3964581787586212, 0.1689402312040329, -0.6610121130943298, 0.3190878927707672, -0.4304281175136566], [0.0005906199803575873, 1.575125452291104e-06, -2.355284959776327e-05, -0.00041117623914033175, 2.3100394173525274e-05, -1.044568419456482, 0.35600507259368896, -4.766997814178467, -0.0010096344631165266, -16.74793243408203, 2.7423966457718052e-05, 248.06153869628906, -7.700426067458466e-05, -0.003852223977446556, 0.09372957795858383, 2065.695556640625, -0.0002234123385278508, -0.0013708251062780619, 32.30620193481445, 0.0006498722941614687, -96.64651489257812, 0.007046910468488932, 0.001282601384446025, -0.12479356676340103, 0.19367638230323792, -3.1932199001312256, 0.00010973947064485401, -0.0015193753642961383, 0.0684993714094162, -40.36323547363281, -196.0135040283203, -1.006711721420288, -352.4400329589844, 0.42575761675834656, -0.1482846736907959, -1.1334766149520874, 0.40406081080436707, 0.10835094749927521, 408.06988525390625, -480.9982604980469, -1.3520493507385254, 0.114481121301651, 0.18001079559326172, -7.788139343261719, -1.617280125617981, 228.3153533935547, 0.16269075870513916, 8.749699592590332, -4.627763748168945, -0.07234016805887222, -0.02584727667272091, -14.870468139648438, 0.978018581867218, 320.58953857421875, 4.242037773132324, 4.392839431762695, 0.23005442321300507, -0.34057092666625977, -0.7171815037727356, 0.7435089349746704, -0.10878129303455353, -0.24768483638763428, 0.04596952348947525, 0.24292832612991333], [-0.004970833659172058, -3.090277687078924e-06, -0.00021611136617138982, -0.0003903257893398404, -5.682172559318133e-05, -1.0556045770645142, 0.36627286672592163, -4.752172470092773, 0.0006088996888138354, 27.836360931396484, 0.00031958759063854814, 1.4292376041412354, -0.002862880937755108, -0.00938266608864069, -0.08832422643899918, 1.9796425104141235, -0.0002679827739484608, 0.0016464664367958903, 73.61358642578125, 2.9491755412891507e-05, -8.54940414428711, 0.0027787911240011454, -0.0009149053948931396, -0.14260855317115784, 0.001805806183256209, -1.2525378465652466, 0.00039350573206320405, 0.0045832241885364056, -0.7114673852920532, -6.778071403503418, 1661.355224609375, 2.24692964553833, -5153.42822265625, 7.7861223220825195, 0.1447547972202301, -8.784979820251465, -84.88821411132812, -0.13129669427871704, -4590.63623046875, -3251.645263671875, 7.668863296508789, -0.3325252830982208, 0.03598128259181976, 3297.650634765625, -9.707879066467285, -701.0322875976562, 2.7032501697540283, -2249.8720703125, -1157.6441650390625, -0.15361307561397552, -1064.9522705078125, 1.7111356258392334, 1564.2833251953125, -4953.35791015625, -800.9340209960938, 0.9467411637306213, -0.42707791924476624, 0.39540988206863403, 0.9338530898094177, 0.6012656092643738, 0.9809396266937256, -0.15200412273406982, 0.037150636315345764, 0.7475417256355286], [-0.0005866041174158454, -2.135569275196758e-06, -2.42466849158518e-05, -0.00012709712609648705, -0.00010921961074927822, 1.0685038566589355, -0.3666613698005676, -4.744426727294922, 0.00012183049693703651, -0.5185889601707458, 0.00014346018724609166, -26.632957458496094, 0.01656903512775898, 0.00938632432371378, 0.09708989411592484, -56.5853385925293, 0.00042668546666391194, 0.013401607051491737, -8.121908187866211, -0.0012619434855878353, -69.2703628540039, -0.004155682399868965, 0.00018748521688394248, 0.17167295515537262, 0.1963902711868286, 1.2885123491287231, 0.00037252181209623814, -0.00046904172631911933, 0.0920591875910759, 26.102785110473633, -3.550663709640503, 0.5240429639816284, 1.2351168394088745, 5.005488872528076, 0.08988508582115173, 0.030026888474822044, 2.079338788986206, -0.09124752879142761, 201.8465576171875, -26.02153778076172, 5.241739273071289, -0.11189012229442596, -0.2976873219013214, -1598.93212890625, -0.23110640048980713, 1.4117236137390137, 0.2262212336063385, -0.1537531614303589, -2.9900271892547607, 0.14891304075717926, -0.2200479805469513, 8.270635604858398, 1.9548927545547485, -248.16543579101562, 1.7044256925582886, 0.06265906244516373, -0.602264940738678, -0.5309368968009949, 1.067488670349121, 0.3457811176776886, -0.4547661542892456, 0.7658560872077942, -0.29710260033607483, 0.3422080874443054], [-0.00031009101076051593, 1.1655665730359033e-06, 0.0003306885191705078, 0.001631575170904398, 0.00011702691699611023, -1.1422213315963745, 0.37022989988327026, 4.767702579498291, -0.00017155238310806453, 0.027526937425136566, 6.503167969640344e-05, 11.050514221191406, 0.004319761414080858, 0.009385772980749607, -0.08450368791818619, 22.42687225341797, 0.00013162304821889848, -0.013628499582409859, 5.847354412078857, 0.00023536109074484557, 16.559484481811523, -0.0022146778646856546, 0.00017423808458261192, 0.1413065493106842, 0.18244531750679016, -1.252106785774231, 0.0014981363201513886, 0.0015284389955922961, 0.2238791584968567, 26.43252182006836, 444.7201232910156, 167.06314086914062, 659.742431640625, -8.113310813903809, 1.0270644426345825, 0.20855391025543213, 0.6096868515014648, 83.40654754638672, 1210.6556396484375, -481.9308776855469, 6.307337284088135, -47.60985565185547, 169.53378295898438, -1985.8096923828125, -265.2132568359375, -367.8470153808594, 0.11825315654277802, -8.014870643615723, -531.4425048828125, 0.1703788787126541, 4.789364337921143, -8.04867172241211, 0.01875796914100647, -1045.3914794921875, -516.9115600585938, 7.4627180099487305, -0.5602940320968628, 0.5997146964073181, 0.9823947548866272, -0.30811721086502075, -0.7180189490318298, 0.5844008326530457, -0.29705625772476196, 0.215117946267128], [-0.004965096712112427, -7.050947260722751e-06, 0.0003305395075585693, -0.00017631336231715977, -0.00035934228799305856, -1.1628092527389526, 0.36298680305480957, 4.74451208114624, -0.0010918381158262491, 232.79347229003906, 1.724600042507518e-05, -0.7701422572135925, -0.00432821037247777, -0.006496268790215254, 0.06627608090639114, -1.613654375076294, 0.0004436844610609114, -0.013632269576191902, -63.94629669189453, 1.7139551346190274e-05, 0.38616296648979187, -0.0027406367007642984, -0.0011199596337974072, -0.21253949403762817, -2.615881385281682e-05, 1.7032393217086792, -0.0007057236507534981, 0.0037365041207522154, -1.2698115110397339, -7.508942604064941, -4939.0654296875, -2023.286376953125, 8365.9482421875, 1818.091552734375, 0.043951913714408875, 925.0739135742188, -974.941162109375, 0.49521806836128235, 5799.1142578125, -6744.134765625, 1718.3822021484375, 0.17902901768684387, 0.023565227165818214, 844.3433837890625, -2439.155517578125, 4054.216552734375, -1182.875, 2686.530029296875, -8.866738319396973, 292.696533203125, -1172.934814453125, -3.2770936489105225, -2029.9044189453125, -6427.56298828125, 3350.5078125, -1.0710182189941406, -0.2054850310087204, -1.3694911003112793, 1.0925722122192383, 0.932583212852478, 1.501505732536316, 1.0302551984786987, 0.0383724570274353, -1.7207539081573486], [3.030088424682617, 5.680576801300049, 18.275177001953125, -7.191371440887451, -8.281882286071777, -9.87100601196289, -13.086761474609375, 25.988956451416016, 49.30306625366211, -0.017034832388162613, 26.758955001831055, 27.360366821289062, -27.172597885131836, -7.095269680023193, -5.479753017425537, 68.09957122802734, -18.92889404296875, -28.047542572021484, 5.56249475479126, -2.6470775604248047, -211.60675048828125, 14.72009563446045, -22.086109161376953, 19.241802215576172, 27.066974639892578, 45.82939147949219, -6.913403511047363, -42.560630798339844, -0.23772624135017395, 8.602555274963379, 85.60865020751953, -7.438456058502197, -95.41650390625, -2.285248279571533, 0.21840497851371765, 5.046621799468994, -0.20851048827171326, 0.2997492253780365, -599.963623046875, -486.70751953125, 5.817416667938232, 0.6138444542884827, 26.44676399230957, 1632.923828125, 0.28173717856407166, -83.71717071533203, 0.6844688057899475, -0.33056944608688354, 335.0784606933594, -1.0851426124572754, 0.8576306700706482, -1.7799495458602905, 5.608703136444092, -471.6916198730469, 298.4067077636719, 4.577164173126221, 0.6132103204727173, 1.7107986211776733, -1.075817584991455, -0.21188198029994965, 0.17296117544174194, 2.024418354034424, -1.380999207496643, 0.8593065142631531], [-0.00016877162852324545, 8.41705116272351e-07, 2.1080188162159175e-05, -0.002116340445354581, -0.0001020657000481151, -104.39463806152344, -24.278640747070312, 40.19976806640625, -0.0006066570640541613, -23.329837799072266, 0.00036403510603122413, -907.2294921875, -1.0110689401626587, 0.009351626969873905, -1.8926388025283813, 3148.637451171875, 0.00018416497914586216, 42.86658477783203, 104.68529510498047, -1.7206606571562588e-05, 325.11865234375, -3.859812021255493, 0.00017406113329343498, -0.30874618887901306, 0.0013744138414040208, -415.6800842285156, -0.0013501859502866864, -0.0001149969466496259, 0.04575038701295853, 126.41828155517578, 63.4880485534668, -18.371700286865234, 99.02304077148438, -21.85404396057129, 0.2949025332927704, -8.001583099365234, 6.472995758056641, 0.18203558027744293, 365.99432373046875, 70.0636978149414, 20.139997482299805, 0.2154349982738495, -0.26603367924690247, 63.36096954345703, 19.14657974243164, -40.8038330078125, 5.417425632476807, 66.66053771972656, -54.77851486206055, -0.415257066488266, 20.431928634643555, 21.428316116333008, -38.75048065185547, 71.83432006835938, -46.76261520385742, 51.74510192871094, 0.19894014298915863, -0.1360672116279602, -0.5296581983566284, 0.5140613317489624, -0.09901661425828934, -0.32357150316238403, -0.1299372911453247, -0.14537444710731506], [0.0003119238535873592, 2.5804929464356974e-06, 0.00024004698207136244, -0.000728045532014221, 4.108278881176375e-05, -1.2261006832122803, -0.36299097537994385, -4.7397379875183105, -0.00014757970348000526, -1.9890449047088623, -0.00017615802062209696, -1.4290647506713867, 7.447467214660719e-05, -0.004685350228101015, 0.08511463552713394, -2.0088024139404297, -7.213290518848225e-05, 0.0013672339264303446, -6.753005504608154, -0.0006914632394909859, 8.695579528808594, -0.002778835827484727, -0.0011204327456653118, 0.24389806389808655, -0.001327929669059813, 1.2616316080093384, 0.0038735345005989075, 0.0016872171545401216, 2923.228759765625, 7282.3974609375, 10678.3173828125, 5845.63720703125, 21520.537109375, -5563.41943359375, 3981.541259765625, 4494.20751953125, 4599.0556640625, -3583.31396484375, 15739.337890625, -15507.7060546875, 5677.947265625, 3751.958984375, 4603.9404296875, -13760.662109375, -5631.74951171875, -8431.5634765625, 5336.7939453125, -15344.9296875, -8736.7763671875, 4013.560791015625, -9382.4921875, -3175.201416015625, 11382.9638671875, 18023.021484375, 7744.80615234375, -5084.81201171875, 0.4237854480743408, -0.017312347888946533, -1.5610876083374023, 1.108141541481018, -0.7190428376197815, 0.1845143437385559, -0.04939902946352959, -0.14963588118553162], [-6.0272112023085356e-05, 0.7650619745254517, -3.3996700949501246e-05, 0.0005537406541407108, -0.0002632749965414405, 1.0593688488006592, -0.3517875671386719, -4.744807720184326, -0.0010960849467664957, -1.089228630065918, 4.0768092731013894e-05, -1.4368467330932617, -0.16864177584648132, -0.0005802322993986309, -0.09524580091238022, -2.141268730163574, 0.000215115025639534, 0.009037474170327187, 6.114285945892334, -0.0001685267052380368, -81.18470001220703, -0.002763401949778199, -0.0011191326193511486, 0.14760266244411469, 2.828373670578003, 1.2510830163955688, -1.282947721392702e-07, -0.00011983237345702946, 0.1283356249332428, -35.032649993896484, 196.40243530273438, 3.057297706604004, -16.21165657043457, 0.33632194995880127, -0.11751482635736465, -0.04778096824884415, -1.1113817691802979, 0.09260741621255875, 727.9254150390625, 742.9578857421875, -0.7685189843177795, 0.14963223040103912, 0.18011976778507233, 2470.0498046875, 0.23906509578227997, 7.459435939788818, 0.28957226872444153, 1.1564170122146606, -605.093994140625, -0.22314922511577606, 0.28240159153938293, 3.7497997283935547, -1.4365234375, -639.5667724609375, -346.4293518066406, 22.526168823242188, 0.7065261006355286, -0.6556013226509094, -1.0056167840957642, 0.4135623276233673, -0.29554563760757446, 0.9195562601089478, -0.48986002802848816, 0.5467530488967896], [0.009750202298164368, 7.62938434490934e-05, -0.0006601992063224316, -0.001455548801459372, 0.003042046446353197, 3.731626033782959, 0.6797446012496948, 10.392154693603516, 0.00023733481066301465, -3.14892315864563, 0.001095070969313383, -3.911214590072632, -0.007962347939610481, -0.009293990209698677, -0.4471694827079773, 4.690730094909668, -0.00013054809824097902, 0.01787656731903553, -11.65158748626709, -0.0025243035051971674, 20.815143585205078, 0.014063470996916294, -0.0014381050132215023, 0.6048979759216309, -0.3673252463340759, -6.035027027130127, -0.0006075582932680845, 0.002286306582391262, -3.299916982650757, -5.317110538482666, 13.278078079223633, 5.83145809173584, -11.429056167602539, -5.972789287567139, 2.8872039318084717, 4.418320655822754, 4.7352294921875, 4.519571781158447, 13.453547477722168, -15.593505859375, 6.528175354003906, -4.362229347229004, -5.2321977615356445, 17.150928497314453, 4.623939514160156, -8.474523544311523, -5.495302200317383, 9.879508972167969, -6.217231273651123, -3.7889981269836426, 8.329246520996094, 3.2556939125061035, -10.718929290771484, -11.56340217590332, -8.447998046875, 3.8621041774749756, -0.04684489965438843, -0.0493798553943634, -0.04647284001111984, -0.01636694185435772, -0.02108270488679409, -0.05839873477816582, -0.05692373588681221, -0.06001679599285126], [-9.778555067896377e-06, 9.691593305660717e-08, -3.4542122762104555e-07, -4.828727924177656e-06, 1.086444399334141e-06, 1.6328650644936715e-06, 0.00012761879770550877, 6.875724523069948e-08, 1.1798199466284132e-06, -4.7496287152171135e-06, 7.343593466657694e-08, 1.9861247437802376e-06, 1.6593669442954706e-06, -3.1795746053830953e-06, -1.0010938240156975e-05, 4.585584974847734e-06, -4.430469147109761e-08, -2.5739052489370806e-06, -4.636280664271908e-06, 2.7643593512038933e-06, -1.4962433851906098e-05, -4.014221417492081e-07, -5.950420745648444e-05, -4.05012906412594e-06, 4.574206741381204e-06, -1.0417893463454675e-05, 4.114954470918475e-12, -7.296152762137353e-05, -6.533141316822366e-08, -4.1634513763710856e-05, -1.2782151088686078e-06, -3.2070756788016297e-06, -5.082177267468069e-06, 9.453788152313791e-07, -0.0012494329130277038, -3.4032274243145366e-07, -3.042858764956691e-08, 0.0002909111208282411, -1.71030785622861e-06, 1.4084369013289688e-06, 3.4466364695617813e-07, -0.0007637687376700342, 2.683266302483389e-07, -1.3975109141028952e-06, -3.505074346321635e-07, -1.394047103531193e-06, -3.658035723219655e-07, -7.406956115119101e-07, 1.5341114476541406e-06, 5.827252458345811e-09, 0.0010130144655704498, -0.00701878871768713, -5.053933591625537e-07, -1.272638542104687e-06, 3.50850058339347e-07, -0.00012745898857247084, -0.008895969949662685, 0.010118035599589348, -0.0240327175706625, -0.0010271394858136773, -0.00546200992539525, 0.001743212342262268, 0.00709544075652957, -0.00703524611890316], [0.001740299048833549, 2.5552194529154804e-06, -0.00043213414028286934, -0.004241700284183025, 0.0007495488971471786, -2.4537954330444336, 0.7934855222702026, -9.535861015319824, 0.002171653788536787, 4.306150913238525, -0.0023302172776311636, 2.9333457946777344, -0.00865917094051838, 0.015848394483327866, -0.47574582695961, 4.4415459632873535, 9.982872143154964e-05, 0.0014568435726687312, 13.754019737243652, 0.0008259242749772966, 91.40941619873047, 0.005495326593518257, 0.0035252005327492952, -0.4651952385902405, 0.38718295097351074, 2.873978614807129, 0.03912651166319847, -0.007028146646916866, -4.225204944610596, -10.079602241516113, 20.00947380065918, -14.4494047164917, 20.060138702392578, -21.691259384155273, -5.737844467163086, -16.235780715942383, 12.464646339416504, -6.237105369567871, -20.96916389465332, 41.08208465576172, 8.642181396484375, 9.851646423339844, 11.841408729553223, 163.37477111816406, 9.97489070892334, 9.861664772033691, -13.035788536071777, -23.151268005371094, -54.23020553588867, 13.359333038330078, -15.382004737854004, 4.511280536651611, -18.71696662902832, -18.98090171813965, -49.14350509643555, -6.716161727905273, 0.10850778222084045, -0.5361441969871521, -0.1355622112751007, -0.6942227482795715, 0.24396781623363495, 0.6196621060371399, 0.21615789830684662, 0.3378835916519165], [-8.620691573923978e-07, -4.813162490791001e-08, 2.401490064585232e-07, 2.840868944531394e-07, -5.06559558743902e-07, 2.2484721284854459e-07, 7.310690125450492e-05, -4.1067671929795324e-08, -6.046877842891263e-07, -1.4771356973142247e-06, -1.327762344516259e-09, 2.4906350404307886e-07, -4.5555989913736994e-07, 2.7996547302677754e-08, 2.3805374382845912e-07, 1.2927135912832455e-06, 4.47722126040162e-09, 1.6215522009588312e-06, 2.1822245344083058e-07, 2.3645038993436174e-07, -1.1407128113205545e-06, -2.8750827496537568e-08, 2.1540397938224487e-05, -1.520012347100419e-06, -5.440784889287897e-07, -1.5577534213662148e-06, -7.607991493741029e-12, 3.859612115775235e-05, 2.806811172373358e-10, 0.00011147217446705326, -6.208812237673556e-07, 1.1647363606925865e-07, 1.1135185786770307e-06, -1.7902239335398917e-07, 0.0004764571785926819, 7.074115870864262e-08, -1.8858560935086643e-08, 0.00013184153067413718, 4.6130006126077205e-07, 4.45273968807669e-07, 1.0639166703185765e-07, 0.0001207567984238267, -1.0040136544375855e-07, -5.012335009269009e-07, -3.445651088895829e-07, 1.5368681260952144e-07, -9.87595285550924e-08, -2.3957124994922196e-07, 3.4152731132053304e-07, 1.6074480635452915e-09, -0.0004619679821189493, -0.0008408725843764842, 2.477279679169442e-07, -4.216505260501435e-07, -1.1360810958649381e-07, 1.3182410839363001e-05, 0.0056843203492462635, -0.001949167693965137, -0.024414032697677612, 0.0005674103740602732, -0.007889225147664547, -0.003989322576671839, -0.02907935157418251, -0.018242184072732925], [-0.0013749015051871538, -5.900619015619668e-08, -0.00020253629190847278, -0.003809227840974927, 4.454409285870042e-09, 1.748945951461792, -0.7354221343994141, 9.340590476989746, -0.001267396379262209, 1.8726372718811035, -1.0795083653647453e-06, -2.6421656608581543, -0.008439610712230206, -0.01327110268175602, 0.2258499711751938, 2.7056126594543457, -1.7972830335111212e-08, -0.002724012825638056, 11.235800743103027, -3.196531906723976e-06, -13.414260864257812, 0.0021975471172481775, 0.0003589397529140115, -0.19720523059368134, -0.3751574754714966, 1.6576493978500366, 2.573915196535381e-07, -0.007429454009979963, -0.9415366053581238, -2.3027539253234863, -4.825746536254883, 0.38457560539245605, 1.9831773042678833, 0.8016150593757629, 0.6800827980041504, 0.6274997591972351, -0.8643648028373718, 1.1155086755752563, 1.2312923669815063, 7.093059062957764, -0.9337984323501587, 1.0346286296844482, -1.2030200958251953, -14.097115516662598, -0.4668845534324646, 1.4615330696105957, -0.4481378197669983, -2.626831293106079, 6.013906478881836, 0.7940691709518433, 1.9977202415466309, -0.901768684387207, -2.6644041538238525, 0.8859374523162842, 4.917932033538818, -1.355248212814331, -0.4123615324497223, 0.2453927844762802, -2.652630090713501, 0.02321808785200119, 0.0628112182021141, 0.5546727776527405, 2.362140417098999, 1.7991260290145874], [16.525718688964844, 7.858261585235596, 10.713133811950684, 12.957027435302734, -6.103439807891846, 28.527097702026367, -20.01826286315918, 5.515452861785889, -13.066926956176758, 22.408723831176758, -10.096626281738281, -21.466651916503906, 17.967601776123047, -7.673384666442871, 18.145246505737305, 26.07326316833496, -8.892566680908203, 13.97285270690918, 41.37738800048828, -9.468847274780273, -228.22576904296875, -11.946467399597168, -7.495022773742676, 40.01878356933594, 36.885406494140625, 39.46830749511719, -1.3582195043563843, 15.037757873535156, 0.24303239583969116, -0.16473233699798584, 22.921403884887695, 11.63280200958252, -6.891767978668213, 23.169858932495117, 0.23875029385089874, -19.931787490844727, 15.420347213745117, 0.20098215341567993, -1.4297512769699097, -44.78936767578125, 6.159313201904297, 7.753269195556641, 6.303979873657227, 176.55381774902344, -7.281169414520264, -4.774730205535889, -9.965096473693848, 1.4683037996292114, 67.36753845214844, -14.17611026763916, -0.04751639813184738, -0.03674360737204552, 0.4974939823150635, -2.2656497955322266, -58.200164794921875, 0.08492712676525116, 0.1254042237997055, 0.6106024980545044, -0.1677151471376419, 0.8547422289848328, -0.29990503191947937, -0.7654079794883728, 0.3609592318534851, -0.3743871748447418], [-13.950209617614746, -4.712550435215235e-06, 1.3611259460449219, -10.165989875793457, 3.1093612129495796e-09, -13.348669052124023, -2.9043309688568115, -5.307453155517578, -10.952850341796875, -4.551534175872803, -3.574374204617925e-05, 3.7608957290649414, -12.914373397827148, 9.694493293762207, -6.426915645599365, 5.078580856323242, 3.72371573575947e-08, -8.15964126586914, -18.882102966308594, 8.780804634094238, -27.03024673461914, 5.489074230194092, 4.353830337524414, -14.207425117492676, 24.073881149291992, 8.766894340515137, -3.0607878898081253e-07, 12.586444854736328, -0.13556253910064697, -0.17745371162891388, -6.974952697753906, 1.257259726524353, -2.7856526374816895, -0.49017274379730225, 0.14097470045089722, -0.09973885118961334, 0.09477327018976212, -0.10413440316915512, 1.541414737701416, -7.151179313659668, 1.3567681312561035, -0.17167410254478455, 0.4548516571521759, -9.72497844696045, -1.667597770690918, 1.6867743730545044, -0.6271389722824097, -0.46462565660476685, 4.300249099731445, -0.16562150418758392, 0.05119634047150612, 0.02576921321451664, -0.1116199865937233, -2.0766055583953857, -3.4084811210632324, -0.08660700917243958, -0.2692979574203491, -0.5486804842948914, -0.26425421237945557, 0.21718737483024597, -0.18193946778774261, -0.41897693276405334, -0.17258618772029877, 1.2847071886062622], [-13.747771263122559, -5.783273696899414, -6.9260358810424805, -10.194409370422363, 2.1029739379882812, 30.67573356628418, -18.29293441772461, -5.573089122772217, 15.043363571166992, -24.749696731567383, 4.797379493713379, 20.838268280029297, 10.236215591430664, -9.944839477539062, 20.149127960205078, 24.675756454467773, 3.9461350440979004, -8.524295806884766, 44.11168670654297, 9.05724048614502, -182.04510498046875, -6.281322956085205, -4.089869499206543, -41.71876907348633, -48.41279983520508, -47.66341781616211, 5.2038421630859375, -10.015079498291016, 0.12305554002523422, -0.21796979010105133, -10.036850929260254, -4.497591018676758, -3.6338629722595215, 7.332766532897949, 0.1354697346687317, -6.827946662902832, 4.2895097732543945, 0.5875452756881714, -0.8414050936698914, -10.392702102661133, 3.6407642364501953, 2.3209781646728516, -1.8182687759399414, -59.1833381652832, -3.09809947013855, -4.002813339233398, -3.548163652420044, 0.6602633595466614, -24.379751205444336, 5.732717990875244, -0.13411074876785278, 0.009845199063420296, 0.0721469596028328, -2.47811222076416, 22.612045288085938, -0.08984235674142838, -0.9277915954589844, -0.9281602501869202, -0.22959831357002258, -2.592135429382324, -1.3759591579437256, 1.8172985315322876, 1.7673081159591675, 1.9122238159179688]], "PMT_dist_dense_1_2/bias:0": [-56412438528.0, -42013495296.0, 1102288512.0, 358884544.0, 1384345344.0, -251511792.0, 1279785216.0, 1728695680.0, 526431072.0, 1243516416.0, 810892736.0, -27401904128.0, -20580683776.0, 964997824.0, 1452073472.0, 1180637184.0, 550899520.0, -51574595584.0, 360971808.0, -105485600.0, -36632068.0, 274261984.0, 1684369280.0, 873080320.0, -98563473408.0, -87432052736.0, -74632339456.0, -19958441984.0, -3842675456.0, -1950029824.0, -3737302784.0, -146707104.0, -3844069120.0, -3719343104.0, -5526851072.0, -3319214848.0, -2778018048.0, -2544662016.0, -4049189632.0, -4960196096.0, -3178265856.0, -3312363264.0, -4116861184.0, -828588672.0, -1261579008.0, -3348218112.0, -2105823488.0, -4094857216.0, -8398926848.0, -561164928.0, -3719940608.0, -1842506880.0, -4143110400.0, -1450264704.0, -1853596672.0, -4036591360.0, -752.5845336914062, -14459.3994140625, -369.9753723144531, -92.04181671142578, -1477.9918212890625, 875.70458984375, -3454.350341796875, -233.26133728027344], "PMT_dist_dense_1_2/kernel:0": [[-64.93562316894531, 43.4759635925293, -8.371880531311035, 9.328632354736328, -10.388540267944336, -9.651803016662598, 8.555641174316406, -9.381845474243164, -8.358003616333008, 7.437865257263184, -8.522883415222168, 12.471179008483887, -9.685600280761719, -9.626766204833984, -10.039878845214844, -7.647930145263672, 9.916187286376953, -41.98021697998047, 8.081171035766602, 8.61763858795166, 9.647088050842285, -10.508736610412598, 10.651944160461426, -9.487445831298828, -25.812883377075195, 60.51251220703125, 67.30501556396484, -29.04244613647461, 0.5389457941055298, 0.2477113902568817, -0.9682250022888184, 0.3411372900009155, -0.6564232707023621, 0.841690182685852, 1.1736598014831543, -0.34211692214012146, -0.5252505540847778, -0.41806450486183167, 0.424938440322876, 1.0589702129364014, -0.6524103283882141, -0.33419662714004517, 0.7376906871795654, 0.46017757058143616, -1.0637823343276978, -0.638393223285675, 0.7444809079170227, 0.0871674120426178, 1.26033353805542, -0.08766204118728638, 2.6702725887298584, -0.5131400227546692, -0.3550979793071747, -0.06618864089250565, 0.18378517031669617, -3.9350409507751465, -0.6281833052635193, 0.5488767027854919, 0.6900860667228699, 0.24480228126049042, -0.2190731316804886, -0.6367888450622559, 0.5254097580909729, 0.6460409760475159], [0.070943683385849, -0.18051403760910034, 0.36317795515060425, -0.5262742042541504, -0.8084881901741028, 0.14240506291389465, -1.1631513833999634, -0.6140267252922058, 2.3743410110473633, 2.390259027481079, -0.003971669357270002, -0.2594149112701416, -0.12732113897800446, -0.48194247484207153, 0.5425868630409241, -0.5377123951911926, -0.00555467139929533, 0.07835515588521957, -0.1322559416294098, 0.2546845078468323, 0.07320784777402878, 0.7544998526573181, 0.3859097361564636, 0.52890545129776, -0.519971489906311, -0.030418524518609047, -0.5887444019317627, 0.5246734619140625, 0.14763954281806946, 0.040795039385557175, -0.09614437073469162, 0.12234360724687576, -0.34716057777404785, 0.2824883759021759, -0.45068737864494324, 0.04464391991496086, -0.04687036573886871, -0.2708335518836975, 0.2633014917373657, -0.25642067193984985, 0.26436424255371094, 0.045708946883678436, -0.2308414727449417, -0.12642821669578552, 0.15714098513126373, 0.16849592328071594, 0.14203707873821259, -0.2823815941810608, -0.8653261661529541, 0.3348822295665741, 0.35033851861953735, 0.04356977343559265, 0.07059253007173538, 0.03183291479945183, -0.062359727919101715, 0.2112799733877182, 0.7745099067687988, -0.4030457139015198, -0.4170869290828705, -0.20567259192466736, -0.11774700880050659, 0.41244399547576904, -0.4739844501018524, -0.3720828890800476], [-5.357739448547363, 7.952822685241699, 8.289070129394531, 7.378735542297363, 6.869758129119873, -7.393909454345703, -6.841159343719482, -7.33324670791626, 7.091650485992432, -6.906731128692627, 8.106673240661621, -8.811534881591797, -7.158923149108887, -7.446406841278076, 6.906555652618408, -6.395266056060791, -7.707225322723389, 8.626667976379395, -7.714248180389404, -7.637362480163574, 8.802718162536621, 7.508851051330566, 8.433133125305176, 7.622498512268066, -0.12246672064065933, -0.3889811635017395, -0.9754369258880615, 7.950779914855957, 1.8655283451080322, -0.9381585717201233, 6.397998332977295, -3.833427906036377, 2.3028435707092285, 1.9930974245071411, -1.3177151679992676, -0.3223683834075928, -0.03740091249346733, -0.5774610042572021, -1.1520684957504272, -0.09748878329992294, -1.688841700553894, 2.632720470428467, -1.1556432247161865, 2.502288818359375, -0.26545819640159607, -1.7099558115005493, 0.18305271863937378, -0.3733226954936981, 2.1011009216308594, -1.2845953702926636, 0.2672002911567688, 3.4236152172088623, 0.7474269270896912, 0.29930925369262695, 0.03390979394316673, -1.1849329471588135, 0.280840128660202, -0.876754641532898, 0.86368727684021, 0.11555767059326172, 0.3967338800430298, 0.5653613209724426, -0.4723304212093353, -0.0792955607175827], [39.20967483520508, -12.638643264770508, -8.66663932800293, 10.735067367553711, -10.88891887664795, -10.85512638092041, 8.953194618225098, 8.915850639343262, 9.34294605255127, 7.681537628173828, 9.393383979797363, -11.95002555847168, 10.662418365478516, 9.536890029907227, 10.953598976135254, 8.34593677520752, -10.487846374511719, -24.935121536254883, -8.620409965515137, 8.136955261230469, -10.382482528686523, -10.701186180114746, 10.291144371032715, -9.839738845825195, 36.96603012084961, 54.870208740234375, -45.64682388305664, -11.44775676727295, -6.487973213195801, 6.389221668243408, 3.7213985919952393, -8.38479995727539, 6.473529815673828, 18.167879104614258, -2.140995740890503, -4.012382507324219, 3.2351653575897217, 14.561287879943848, 10.310949325561523, 16.9127140045166, -19.95338249206543, -4.780932426452637, -11.78499984741211, 10.262731552124023, -3.422236680984497, 8.532049179077148, -2.5022096633911133, -8.112780570983887, 32.96477127075195, 6.31949520111084, -15.915040016174316, -3.1295101642608643, 10.105642318725586, 8.206330299377441, -7.514915466308594, -2.470336675643921, 0.8563358783721924, -0.6626878380775452, 0.7344723343849182, -0.32414883375167847, -0.21224121749401093, 0.6768081784248352, -0.6797274947166443, 0.8818248510360718], [-0.08112532645463943, 0.02651522308588028, 0.008469205349683762, 0.4655829668045044, 1.2326916456222534, -0.01337736751884222, -0.0773380845785141, -0.14440575242042542, -0.04077007248997688, 0.16945967078208923, 0.9633275866508484, -0.09817425161600113, -0.5070505142211914, 0.39336836338043213, -0.08264199644327164, -0.18888702988624573, 0.3123699426651001, 0.8371783494949341, -1.6276718378067017, 0.5267326235771179, -0.04130582883954048, -0.015478849411010742, -0.30363568663597107, 0.170099139213562, 0.07794189453125, -0.37863123416900635, 0.38353466987609863, 0.23015481233596802, 0.21047814190387726, -0.08947132527828217, -0.061980631202459335, 0.1455368846654892, 0.09759591519832611, 0.002620639279484749, -0.2222323715686798, -0.15482652187347412, 0.04162271320819855, 0.1384292095899582, -0.1526835411787033, -0.09674042463302612, -0.0697927474975586, -0.027377499267458916, 0.024250755086541176, -0.09724206477403641, -0.07569630444049835, -0.14902079105377197, 0.24235260486602783, -0.020917018875479698, -0.2197471410036087, 0.0034254787024110556, 0.019131990149617195, 0.0409650057554245, -0.04039391130208969, 0.06033562123775482, -0.008691213093698025, 0.015991944819688797, -0.5025087594985962, -0.8867131471633911, -0.9318190217018127, 0.5673241019248962, -0.6067629456520081, 0.7254543304443359, 0.3357974886894226, 0.2526514232158661], [-1.0394097566604614, -3.9946975708007812, -14.06110668182373, -8.640642166137695, -18.45171546936035, -7.783085823059082, 11.186819076538086, -15.687809944152832, -7.807363033294678, 8.119580268859863, 8.577788352966309, 6.772787570953369, -10.8809814453125, -8.273994445800781, -19.78395652770996, 25.152528762817383, 16.995906829833984, 1.815292239189148, 8.34742546081543, -6.52855920791626, 8.383084297180176, -8.657438278198242, -35.96623992919922, 8.172341346740723, 1.5744516849517822, -2.737642288208008, -1.6090643405914307, 13.713537216186523, -26.706289291381836, -22.43576431274414, 21.759010314941406, 16.938915252685547, 32.94257736206055, -23.38398551940918, -46.79671859741211, 15.79410457611084, 20.829662322998047, -16.99103355407715, -13.976547241210938, 19.75741195678711, -27.772924423217773, -30.965173721313477, 25.18526268005371, -22.864402770996094, -5.069888114929199, 9.165698051452637, -5.728855133056641, 40.97197341918945, -39.501712799072266, -42.74482345581055, 36.01066207885742, 12.959577560424805, 13.806070327758789, 17.330793380737305, -1.9342650175094604, -38.95151901245117, -0.9307088851928711, -0.6563007831573486, -0.5151329636573792, 0.5843357443809509, 0.34498193860054016, -0.9726133346557617, -0.6072049140930176, -0.43783774971961975], [8.406744956970215, 13.607913970947266, -8.531881332397461, -5.836248397827148, 7.820648193359375, 4.734090805053711, -8.569598197937012, -6.286788463592529, -7.667230606079102, 5.514327049255371, -6.8815083503723145, 37.6711540222168, 27.51128578186035, 5.4557647705078125, 6.0544610023498535, 7.259120464324951, -5.271684646606445, 2.1032259464263916, -6.177057266235352, -5.900155067443848, 5.846813201904297, -5.276310920715332, -6.164217472076416, 6.982937812805176, 23.626981735229492, 17.31927490234375, -40.00010681152344, 24.97944450378418, 1.707715630531311, -7.989542007446289, -9.680662155151367, -0.7774158120155334, 0.08645881712436676, 0.705405056476593, -0.5730128884315491, -0.030031023547053337, -2.84962797164917, 5.931615829467773, 2.173232316970825, 3.2273993492126465, 2.0480146408081055, 11.682174682617188, 13.925714492797852, 1.023235559463501, -11.852765083312988, 0.06192760169506073, -20.62220001220703, -4.548195838928223, -14.59234619140625, 2.0759339332580566, -26.432165145874023, -8.01960563659668, 0.8034975528717041, 7.954708576202393, 10.81554889678955, 20.000112533569336, -0.23361648619174957, -0.7085196375846863, 0.6356227397918701, -0.34243044257164, -0.2605001926422119, -0.7071043252944946, 0.3307078778743744, -0.25030040740966797], [11.161904335021973, -21.387737274169922, 35.761295318603516, -33.17792892456055, -42.93450164794922, -22.703678131103516, 33.74980163574219, 44.43284606933594, 27.108362197875977, -35.46243667602539, 33.026004791259766, 15.454902648925781, 37.58501052856445, 31.612215042114258, 39.29315948486328, 37.534324645996094, -25.974937438964844, -22.303146362304688, -32.34788131713867, 24.866779327392578, -29.42532730102539, 34.7833366394043, -41.97755432128906, -34.4918098449707, -5.605345726013184, 4.745176315307617, -2.126056671142578, 24.512786865234375, 16.035343170166016, 15.651680946350098, -9.034934997558594, -6.984803199768066, -10.554572105407715, 11.921117782592773, 13.975354194641113, -9.810959815979004, -9.633929252624512, -15.766717910766602, 12.343470573425293, -13.212394714355469, 9.622233390808105, 4.504592418670654, -7.514773845672607, -17.59410858154297, -10.411091804504395, -12.472552299499512, 7.733917713165283, 17.14278793334961, 31.33548355102539, 