{"PMT_dist_dense_1/bias:0": [-0.02022627927362919, 0.10622406005859375, 0.04329796880483627, -0.01260294672101736, 0.06890109181404114, -0.004464280791580677, 0.05165349692106247, -0.020686637610197067, 0.07639636099338531, -0.021207259967923164, -0.028589066118001938, -0.024884039536118507, 0.021752487868070602, -0.02333534136414528, -0.0348709411919117, 0.01523528527468443, -0.004897949751466513, -0.03086424618959427, 0.050908464938402176, -0.02974286489188671, 0.004813016392290592, 0.044953398406505585, 0.040315985679626465, -0.022264687344431877, -0.02321006916463375, -0.02848314307630062, -0.02943398989737034, -0.02752997912466526, -0.09759271144866943, -0.020374709740281105, -0.10256437957286835, -0.026645425707101822, -0.04751884192228317, -0.03105151280760765, -0.06824427098035812, -0.02282891795039177, -0.08011799305677414, -0.11273099482059479, -0.06592019647359848, -0.023004988208413124, -0.059722356498241425, -0.10917317867279053, -0.01666990853846073, -0.024081630632281303, -0.01578293927013874, -0.06909489631652832, -0.08704125136137009, -0.019342217594385147, -0.021980898454785347, -0.06549958884716034, -0.073126420378685, -0.01882937364280224, -0.05363200977444649, -0.022868966683745384, -0.018909024074673653, -0.08064882457256317, 0.019144318997859955, 0.0060655795969069, 0.03603751212358475, -0.019322402775287628, -0.010997463017702103, 0.025063641369342804, -0.008223872631788254, -0.11383360624313354], "PMT_dist_dense_1/kernel:0": [[1.3893219232559204, 0.23735938966274261, 0.1228334829211235, -0.663455605506897, -0.1604526937007904, -0.6821292638778687, 0.1546744704246521, 1.441421389579773, 0.21711620688438416, -0.8444566130638123, 1.1408897638320923, 1.0550490617752075, 0.16384941339492798, -0.9807518720626831, -1.4122483730316162, 0.129996657371521, -0.4843832850456238, 1.1935162544250488, -0.14449414610862732, -1.2254034280776978, 0.5462298393249512, -0.06517868489027023, 0.03358376398682594, 1.5303560495376587, 1.2734147310256958, 1.6006544828414917, -1.4780776500701904, -1.1556264162063599, 0.19425521790981293, 2.241654634475708, 0.19080200791358948, -0.7230967879295349, -0.16914400458335876, -0.09534726291894913, -2.2140960693359375, 2.2943122386932373, 0.48456770181655884, 0.19903036952018738, 0.2192278504371643, 4.073632717132568, -0.3925163149833679, -0.19381499290466309, 1.0637515783309937, 2.8772666454315186, 1.3712667226791382, -0.17593492567539215, 0.18230071663856506, 8.263154983520508, -4.951811790466309, 0.18605709075927734, 0.8165984749794006, 2.9010982513427734, -0.06103881821036339, 10.025735855102539, -1.7468832731246948, 0.30701130628585815, 0.07492727786302567, -0.07006970047950745, -0.0727803185582161, -0.03850719705224037, 0.15958793461322784, -0.010977629572153091, 0.0318472683429718, 0.9776479601860046], [-0.2803405821323395, 0.061692044138908386, 0.48928242921829224, 0.047659941017627716, 0.35308700799942017, 0.28203892707824707, -0.3380732238292694, -0.07371245324611664, 0.07456894218921661, 0.005499125458300114, -0.05400162190198898, -0.05810045823454857, -1.2558263540267944, 0.014533495530486107, -0.007693455554544926, -0.8907627463340759, -1.0023566484451294, -0.026967426761984825, 0.7137348651885986, 0.00296622421592474, -0.8127342462539673, -0.48369327187538147, -0.7250885367393494, 0.0737733468413353, -0.05964168161153793, 0.09080276638269424, -0.0028870231471955776, 0.00190380634739995, 0.06566514819860458, -5.915092945098877, -0.04428526386618614, 6.558130741119385, -0.05681395158171654, 0.32862862944602966, 2.590106725692749, 5.857804775238037, 0.881890594959259, 0.05843539535999298, -0.5066107511520386, 5.203206539154053, 0.9055079221725464, -0.06985906511545181, 3.4364027976989746, -6.41857385635376, -4.333793640136719, -0.007305743172764778, -0.036147087812423706, 9.407079696655273, 5.440944671630859, -0.0515848845243454, -1.0056908130645752, 4.689825057983398, -0.34942811727523804, -12.257739067077637, -4.942618370056152, 0.6759619116783142, -2.0394654273986816, -1.4931532144546509, 0.6805829405784607, -2.1894419193267822, 2.166234016418457, 0.7182884216308594, -1.9954191446304321, 0.016856573522090912]], "PMT_dist_dense_2/bias:0": [-0.09296417236328125, -0.0881364569067955, -0.07353334128856659, -0.0874849408864975, -0.08860018849372864, -0.09567151218652725, -0.10438185930252075, -0.07083415985107422, -0.08227570354938507, -0.09094689786434174, -0.06219914183020592, -0.08862229436635971, -0.08449190109968185, -0.08335079997777939, -0.022213749587535858, -0.09424318373203278, -0.08963274955749512, -0.08352061361074448, -0.0716860294342041, -0.09302499890327454, -0.09006427228450775, -0.07789710909128189, -0.10698524117469788, -0.0795048177242279, -0.10174479335546494, -0.08114805072546005, -0.1135282814502716, -0.09156233072280884, -0.20714420080184937, -0.23464363813400269, -0.1752803474664688, -0.1553531289100647, -0.19431385397911072, -0.2943056523799896, -0.226266011595726, -0.15858624875545502, -0.17552736401557922, -0.30121713876724243, -0.17692095041275024, -0.23996320366859436, -0.20249837636947632, -0.18677794933319092, -0.17544256150722504, -0.2521938383579254, -0.19161903858184814, -0.21809616684913635, -0.22214145958423615, -0.31473591923713684, -0.2192845642566681, -0.1799197793006897, -0.29142239689826965, -0.2065470665693283, -0.2922450304031372, -0.18436528742313385, -0.24887290596961975, -0.20549020171165466, 0.17528603971004486, 0.12268047779798508, 0.17854070663452148, 0.17321151494979858, 0.16970409452915192, 0.16202719509601593, 0.21549858152866364, 0.11958366632461548], "PMT_dist_dense_2/kernel:0": [[-0.07403404265642166, -0.07259070128202438, 0.08367004245519638, 0.09246966242790222, -0.07519125193357468, 0.0950174480676651, 0.08136606216430664, -0.08378452062606812, 0.08236988633871078, 0.07917819917201996, -0.08553680777549744, 0.08395909518003464, 0.09678380191326141, -0.07894952595233917, -0.08192715048789978, -0.06608042120933533, 0.10412871092557907, -0.09177016466856003, -0.08231388032436371, -0.08070831745862961, -0.08127613365650177, 0.08785473555326462, -0.08937187492847443, 0.09358328580856323, -0.08854655176401138, -0.08604780584573746, -0.06911613792181015, -0.06325452029705048, -0.43999066948890686, 0.4766539931297302, 0.025279788300395012, -0.03246027231216431, -0.029743719846010208, -0.11980640143156052, 0.4205949604511261, 0.009077945724129677, 0.17924022674560547, -0.25508904457092285, -0.15845784544944763, -0.4535139799118042, -0.19769442081451416, -0.06684532016515732, 0.07009164243936539, -0.526224672794342, -0.06691288948059082, -0.4559660255908966, 0.5011712908744812, -0.1437174379825592, -0.5855926871299744, -0.06794098019599915, 0.11359378695487976, 0.24762873351573944, 0.26968488097190857, -0.029010562226176262, 0.3531327545642853, -0.3569551408290863, 0.026267159730196, -0.6154164671897888, 0.10635065287351608, -0.14807480573654175, -0.03302980959415436, -0.03307227045297623, -0.027911853045225143, -0.5191761255264282], [0.007728110533207655, -0.006474444642663002, -0.03249408304691315, -0.013119153678417206, 0.01603500358760357, 0.015360278077423573, -0.017425652593374252, 0.010475102812051773, -0.006229107268154621, 0.008833448402583599, -0.01929241046309471, 0.019708145409822464, 0.002952457871288061, 0.030256811529397964, 0.022309349849820137, -0.022787008434534073, -0.01367888692766428, -0.022372286766767502, 0.004854187369346619, -0.01017092540860176, -0.028481094166636467, 0.009711788035929203, 0.0018707200651988387, 0.01796131767332554, -0.014030319638550282, -0.01304332073777914, -0.006078291684389114, -0.001113059464842081, -0.4372677505016327, 0.44610604643821716, 0.36231473088264465, -0.22108915448188782, -0.2279047667980194, 0.487067848443985, -0.4983232021331787, 0.32918184995651245, -0.3295963704586029, -0.37729454040527344, 0.3551243245601654, -0.4385991096496582, -0.3780966103076935, -0.30592265725135803, -0.21684402227401733, 0.4043239951133728, 0.25807905197143555, 0.3844090700149536, -0.4435407817363739, -0.3833547532558441, 0.3907493054866791, -0.2272777557373047, 0.37924426794052124, 0.27544113993644714, -0.3597743809223175, -0.31237488985061646, 0.31561216711997986, 0.5069090723991394, 0.03414514288306236, 0.018881957978010178, 0.05648418143391609, 0.04897681623697281, 0.01895333081483841, 0.03581913933157921, -0.09780646860599518, -0.002408267930150032], [0.009541158564388752, 0.002995726652443409, 0.003980693407356739, 0.0044651334173977375, -0.0016712927026674151, -0.007286079693585634, 0.0057997992262244225, -0.0016402937471866608, 0.0027368187438696623, -0.011362585239112377, 0.0013279495760798454, -0.00678904028609395, -0.006136618554592133, -0.011462090536952019, 0.0032602129504084587, -0.005128428805619478, 0.0038237343542277813, -0.005477920640259981, 0.0030723735690116882, 0.006789931561797857, -0.006239802110940218, -0.0012487375643104315, 0.0025304993614554405, 0.00915677659213543, -0.006560937035828829, 0.0024484863970428705, -0.0010292080696672201, -0.0050866855308413506, 0.6624450087547302, -0.5572584867477417, 0.15317781269550323, -0.210151806473732, -0.2877836525440216, -0.922421395778656, -0.5812588334083557, 0.3144705295562744, -0.39907512068748474, -1.0577812194824219, -0.34125253558158875, -0.5114507675170898, 0.4741560220718384, 0.4418753683567047, -0.10203150659799576, -0.7637022137641907, 0.4894099533557892, -0.6335088014602661, -0.7897051572799683, -0.9270380139350891, -0.7076934576034546, 0.19853048026561737, 0.9208964109420776, -0.5852558612823486, -0.7799881100654602, -0.2532537281513214, 0.8290227055549622, -0.5504477024078369, -0.06327156722545624, -0.09024985134601593, 0.061516646295785904, -0.03799041733145714, -0.05611489340662956, -0.0690721869468689, 0.07480712234973907, 0.013823512941598892], [0.08229618519544601, -0.06473802030086517, -0.05693311616778374, 0.06984910368919373, -0.07587326318025589, 0.0731615275144577, -0.0883895680308342, -0.08574699610471725, -0.09181122481822968, 0.07361578941345215, 0.07829998433589935, 0.05622632056474686, 0.08281470835208893, 0.07496844232082367, -0.057142335921525955, 0.07797036319971085, 0.08317117393016815, -0.0694698914885521, -0.07548969238996506, 0.0736003965139389, 0.07248707115650177, 0.07075780630111694, 0.09441472589969635, 0.06516934931278229, 0.09317533671855927, -0.08024562895298004, 0.07153025269508362, 0.08488395810127258, -0.29969727993011475, 0.47420555353164673, -0.0994446724653244, 0.15766920149326324, -0.10456586629152298, 1.107424020767212, 0.5074231028556824, 0.17609794437885284, 0.2869773805141449, -1.0724045038223267, 0.13047991693019867, 0.4096693694591522, -0.1721351444721222, 0.2326805740594864, -0.031222963705658913, -0.7520044445991516, -0.2700808346271515, -0.3386828899383545, -0.43220457434654236, 1.0829273462295532, 0.44072797894477844, 0.015689298510551453, 1.0226746797561646, -0.3711320161819458, -0.9825013279914856, 0.02534686215221882, 0.853598415851593, -0.41897284984588623, 0.021468330174684525, -0.5612912774085999, -0.24411091208457947, -0.13531506061553955, -0.022623982280492783, 0.020801225677132607, -0.02375555783510208, 0.3960859179496765], [0.013374090194702148, -0.010035164654254913, -0.016306040808558464, -0.004346510861068964, 0.011572281830012798, 0.00822699535638094, -0.002699265955016017, 0.002569792792201042, 0.00325780943967402, -0.006623145192861557, 0.008088866248726845, -0.00552632799372077, -0.006224785465747118, -0.015685630962252617, -0.009795978665351868, 0.010798607021570206, -0.0014630832010880113, -0.006973183248192072, 0.002431885339319706, 0.018413932994008064, 0.009790552780032158, 0.005355881992727518, 0.007071938831359148, 0.01995139755308628, 0.00036386161809787154, -0.006009508389979601, -0.008711081929504871, 0.004874557722359896, -0.4522247612476349, -0.4467022120952606, -0.2577049434185028, 0.1448773294687271, 0.33000361919403076, 0.779191255569458, 0.5769872069358826, -0.459067702293396, 0.39919108152389526, 0.733411967754364, -0.48507148027420044, -0.5606756210327148, 0.4154021143913269, -0.44769546389579773, -0.25620347261428833, -0.5930224657058716, 0.44075992703437805, 0.5675562620162964, -0.5219866037368774, 0.6605396270751953, -0.5534270405769348, 0.3304952085018158, 0.7572505474090576, 0.40486565232276917, 0.5462208986282349, 0.30905675888061523, 0.5293253660202026, -0.5781465768814087, 0.07107716798782349, -0.010979535058140755, -0.046045780181884766, 0.0503661185503006, 0.061066098511219025, 0.07775146514177322, -0.13944485783576965, -0.006062294822186232], [-0.03792854771018028, 0.022058557718992233, -0.020856428891420364, -0.030581528320908546, 0.036850858479738235, -0.04229716584086418, -0.05822219327092171, 0.05544111877679825, -0.04088551551103592, 0.04552533105015755, 0.043059684336185455, 0.022827545180916786, -0.040046852082014084, 0.04257450997829437, -0.023833483457565308, -0.02078113704919815, 0.05049236863851547, 0.04521936550736427, 0.03551635891199112, -0.04512662813067436, 0.04360245168209076, -0.036590758711099625, -0.04379677027463913, -0.0472789891064167, 0.06615576893091202, -0.04972746595740318, -0.04297493025660515, 0.029514353722333908, -0.4091898798942566, -0.6209807991981506, -0.022178566083312035, 0.041955456137657166, 0.15192896127700806, 1.2455793619155884, 0.4847535789012909, -0.17693352699279785, -0.17304161190986633, -1.4369196891784668, 0.12915430963039398, -0.4776601493358612, 0.20862723886966705, 0.16011235117912292, 0.021757328882813454, -0.8796452879905701, -0.2131192535161972, -0.5213321447372437, -0.6465325355529785, 1.2827733755111694, -0.5172434449195862, -0.02138608507812023, -1.447805643081665, 0.25414764881134033, 1.1360965967178345, 0.18634852766990662, -1.068519949913025, -0.3264693021774292, 0.025484053418040276, -0.5587033629417419, 0.25416675209999084, -0.06368526816368103, -0.034873656928539276, 0.03155538812279701, -0.022590236738324165, -0.3007403612136841], [0.011875214986503124, 0.003172148484736681, -0.0033899005502462387, -0.0006332731572911143, -0.004591437056660652, -0.007544232066720724, 0.00659768795594573, -0.012966690585017204, 0.0061179110780358315, 0.007759833708405495, 0.0102069191634655, -0.0010624900460243225, 0.00464730616658926, -0.011577093042433262, 0.0016963736852630973, -0.009969756938517094, 0.0025122882798314095, 0.0027254740707576275, 0.00853584986180067, 0.009985106997191906, 0.01700095646083355, 0.004579971544444561, -0.0075071388855576515, 0.022454610094428062, 0.0030643257778137922, -0.009323684498667717, 0.016178354620933533, -0.0033187218941748142, 0.5455729365348816, -0.6945582628250122, 0.3061543107032776, 0.31599047780036926, -0.2980504333972931, -0.7235548496246338, 0.7114356756210327, -0.4833947718143463, 0.4378911852836609, 0.7215651869773865, -0.5616171956062317, 0.5232996344566345, 0.46788063645362854, 0.4849304258823395, 0.1796138882637024, -0.7519315481185913, -0.3526443541049957, 0.643517255783081, -0.5852158665657043, -0.8925086259841919, -0.6990787386894226, -0.31783419847488403, -0.8979101777076721, -0.6173309087753296, -0.693169891834259, 0.3269016146659851, -0.6809066534042358, -0.4522891938686371, 0.09235167503356934, 0.06966160237789154, -0.054274607449769974, 0.05300898104906082, 0.08030874282121658, 0.0967741385102272, 0.1315709352493286, -0.011019553057849407], [-0.1409563571214676, -0.12120518833398819, -0.14710120856761932, -0.1413542628288269, -0.13612058758735657, -0.1374930739402771, 0.13134601712226868, -0.13775108754634857, -0.13856032490730286, -0.1353868693113327, -0.13019709289073944, -0.13640207052230835, -0.15143054723739624, -0.13190290331840515, 0.1366540789604187, 0.11723551154136658, 0.14341333508491516, -0.14862647652626038, -0.14089231193065643, -0.14077116549015045, -0.1380082219839096, -0.12918919324874878, -0.14660166203975677, -0.1389203518629074, 0.14846709370613098, 0.13146185874938965, 0.12903928756713867, -0.14235049486160278, -0.5521397590637207, 0.49242904782295227, 0.044644296169281006, -0.08856742084026337, 0.13185718655586243, 0.074099600315094, -0.5730999112129211, 0.22244612872600555, 0.3281745910644531, 0.01567002758383751, -0.32148438692092896, 0.48406726121902466, -0.3256136178970337, 0.10142973810434341, -0.1621241569519043, -0.2966023087501526, 0.31003156304359436, 0.43580272793769836, 0.4866478443145752, -0.03150315210223198, -0.6219885945320129, 0.1774047613143921, -0.03770492970943451, -0.3483853340148926, 0.035380300134420395, 0.1661437600851059, 0.23218749463558197, 0.4275638461112976, 0.03950047865509987, 0.6130908727645874, 0.33808037638664246, -0.34803643822669983, -0.03983474522829056, -0.08237022906541824, -0.05518961325287819, -0.5018558502197266], [-0.016852006316184998, -0.00045848157606087625, -0.028087712824344635, 0.008196936920285225, -0.014709945768117905, -0.01375583466142416, -0.010785679332911968, 0.0012045351322740316, -0.01548286434262991, 0.0059282113797962666, -0.010677026584744453, -0.01155004184693098, 0.002037152647972107, -0.026540160179138184, 0.014068126678466797, 0.010577869601547718, -0.006697357632219791, 0.020788120105862617, 0.0023779578041285276, 0.012973392382264137, 0.028359638527035713, 7.012952119112015e-05, -0.010636681690812111, -0.01521721575409174, 0.0025527793914079666, 0.013214562088251114, 0.012880031950771809, 0.007043095305562019, -0.4097101390361786, 0.3537086248397827, -0.3784714639186859, -0.227676123380661, 0.4129165709018707, -0.5323914885520935, -0.43302032351493835, 0.3605731725692749, 0.4077116847038269, -0.5811195969581604, -0.3461718261241913, -0.3951989412307739, 0.4466027617454529, -0.44881829619407654, -0.2033056616783142, 0.45801061391830444, -0.34707289934158325, 0.36990299820899963, 0.558277428150177, 0.5690963864326477, 0.43870270252227783, -0.27419039607048035, -0.564353883266449, 0.318106085062027, 0.4031885862350464, -0.35806721448898315, 0.3733794689178467, 0.4052736461162567, -0.014235515147447586, -0.009132427163422108, -0.04620441421866417, 0.08562768250703812, 0.03672574833035469, 0.03978359326720238, 0.08281983435153961, -0.0025751953944563866], [0.0820368155837059, -0.0887785330414772, -0.08147481828927994, -0.10493329167366028, 0.1003628820180893, 0.08994724601507187, -0.09438677132129669, 0.09509231895208359, 0.09742365777492523, -0.11462713032960892, 0.09018155932426453, -0.07918085157871246, 0.10807264596223831, 0.08404702693223953, -0.09093091636896133, 0.07250005751848221, -0.1148509830236435, 0.09711486101150513, -0.10593545436859131, 0.11097333580255508, -0.11337361484766006, -0.10399079322814941, -0.10411954671144485, 0.10381302982568741, 0.10258718580007553, 0.1157851368188858, -0.08973836153745651, -0.0881623774766922, 0.5098315477371216, 0.590813159942627, -0.11450635641813278, -0.03114520013332367, 0.026598894968628883, 1.3092575073242188, 0.5018225312232971, 0.19909407198429108, -0.28117796778678894, -1.4940401315689087, 0.12440542131662369, 0.5650647282600403, 0.17155632376670837, -0.20570014417171478, 0.04996335878968239, -1.0296751260757446, -0.2537083923816681, 0.6232656240463257, 0.603869616985321, 1.3440192937850952, 0.6199420094490051, -0.09666358679533005, 1.517825961112976, 0.33193275332450867, 1.1558756828308105, 0.13782918453216553, -1.0038660764694214, -0.2561763525009155, 0.04980708286166191, 0.7770020365715027, -0.41495877504348755, -0.3018064498901367, -0.028698327019810677, -0.13047760725021362, 0.03160594403743744, -0.6144475340843201], [0.15346422791481018, 0.11656579375267029, -0.11217916756868362, 0.11787626147270203, -0.14719246327877045, -0.130970299243927, -0.12793108820915222, -0.13843116164207458, -0.13361574709415436, -0.13938821852207184, 0.1269422471523285, 0.1246291995048523, 0.14563234150409698, -0.12319885194301605, 0.1267297863960266, -0.11730822175741196, -0.1354103833436966, 0.12726281583309174, 0.13631507754325867, 0.14224061369895935, 0.13716936111450195, -0.12595802545547485, -0.14741669595241547, 0.12589876353740692, 0.14899082481861115, 0.13031519949436188, 0.13254781067371368, -0.12582442164421082, -0.4231715500354767, -0.47404152154922485, 0.1050809845328331, 0.18622292578220367, 0.20798134803771973, 0.04694167524576187, 0.49482396245002747, -0.05308541655540466, -0.12084081768989563, -0.055096376687288284, 0.1986730843782425, 0.4677753448486328, -0.28692299127578735, 0.21757550537586212, 0.051972828805446625, 0.1153830960392952, 0.20030716061592102, -0.39637550711631775, 0.4744938910007477, 0.08316757529973984, 0.3948492705821991, 0.14685674011707306, -0.011248182505369186, 0.3778996765613556, 0.03946647793054581, 0.1874905228614807, 0.12804661691188812, 0.4470355212688446, 0.04464447498321533, 0.8068683743476868, -0.29390573501586914, -0.25506842136383057, -0.04691653326153755, -0.09478208422660828, -0.0649055540561676, -0.5675361752510071], [0.10277403891086578, -0.10305353999137878, 0.08270263671875, -0.1029118001461029, -0.10438726097345352, 0.10392298549413681, 0.09488879889249802, 0.10658258199691772, 0.11670074611902237, 0.11968506872653961, 0.11420556902885437, 0.10827839374542236, 0.12535768747329712, 0.0938456803560257, -0.10652826726436615, 0.09210154414176941, -0.12099110335111618, -0.10381249338388443, -0.11173857748508453, 0.10977049171924591, 0.10862845182418823, 0.10963587462902069, 0.1215638667345047, 0.10737878084182739, -0.11546951532363892, -0.10972105711698532, -0.10165819525718689, -0.08771470189094543, 0.4742724299430847, 0.48423099517822266, 0.02551998198032379, -0.15070189535617828, 0.04459000751376152, 0.626716673374176, -0.37641391158103943, -0.19214817881584167, -0.26840445399284363, -0.9457635879516602, 0.1439463049173355, 0.5065302848815918, -0.1783951371908188, -0.12615104019641876, 0.08867587149143219, 0.7016928791999817, 0.11104391515254974, -0.41273799538612366, 0.5143957734107971, 0.6892107725143433, 0.5578272938728333, 0.12923027575016022, 0.9185497760772705, -0.31320908665657043, 0.5629316568374634, -0.034897580742836, -0.7947987914085388, 0.3438175916671753, 0.029951417818665504, -0.7321314215660095, 0.3061164319515228, -0.17123767733573914, 0.05034898594021797, 0.03325021266937256, -0.03890998661518097, 0.5272845029830933], [-0.0009010871290229261, 0.008910680189728737, -0.0034197394270449877, 0.005236120894551277, -0.0042614866979420185, 0.010635864920914173, -0.0033280556090176105, -0.011840441264212132, 0.005827146116644144, -0.0013291120994836092, 0.004778555128723383, -0.0061140176840126514, -0.004861640278249979, 0.0039095282554626465, 0.011598487384617329, -0.0024987910874187946, 0.007139679975807667, 0.0034894156269729137, -0.0030160031747072935, -0.008914259262382984, -0.006697134114801884, -6.476120324805379e-05, -0.005864367820322514, -0.007673201151192188, 0.004413722548633814, 0.00696314312517643, -0.005253288894891739, -0.0009913818212226033, -0.5640890002250671, 0.7818354368209839, 0.0670267716050148, -0.055698197335004807, 0.1494765281677246, -1.370061993598938, 0.8203010559082031, -0.21183618903160095, -0.2516286373138428, 1.3669298887252808, 0.16704919934272766, -0.7207841277122498, 0.5003127455711365, 0.2716080844402313, 0.14420463144779205, -1.0284093618392944, -0.37292027473449707, -0.6529431343078613, -0.7568486928939819, 1.4366482496261597, -0.7782824635505676, -0.057514987885951996, -1.302255392074585, 0.5564125180244446, 1.1275253295898438, -0.1206979975104332, -1.1055431365966797, 0.4113411605358124, 0.06908849626779556, -0.08353932201862335, 0.02944140136241913, 0.018787965178489685, -0.06576420366764069, -0.07933539897203445, -0.06732920557260513, 0.10032396763563156], [-0.09615521878004074, 0.10319770872592926, 0.09303361177444458, -0.10844888538122177, -0.11377781629562378, 0.09478919208049774, 0.09241929650306702, 0.10922811180353165, -0.11482492834329605, -0.10606921464204788, 0.09759828448295593, 0.10692298412322998, 0.11192397773265839, -0.1082199364900589, 0.09861400723457336, -0.08568695187568665, 0.12608803808689117, -0.11638228595256805, -0.10408776253461838, -0.10939474403858185, -0.09875156730413437, -0.10321194678544998, -0.1183260828256607, 0.11197954416275024, -0.11572984606027603, 0.11139754205942154, 0.08941849321126938, -0.08508096635341644, -0.4208650290966034, -0.5632088780403137, -0.12586595118045807, 0.04140010103583336, 0.143204003572464, -0.8705877661705017, -0.49218425154685974, 0.19056449830532074, 0.17979560792446136, -1.0965688228607178, 0.20676366984844208, -0.5263038873672485, -0.18244776129722595, -0.13086296617984772, 0.10961630195379257, 0.7924398183822632, 0.22029200196266174, -0.48534223437309265, 0.4169287383556366, -0.8676748871803284, 0.49386024475097656, 0.15095014870166779, 0.9981081485748291, -0.2534065842628479, 0.7491201758384705, 0.028124844655394554, 0.7435587644577026, 0.2588086426258087, -0.026724431663751602, -0.6466976404190063, -0.20163190364837646, -0.3234090507030487, -0.06030803918838501, 0.030482642352581024, 0.028825733810663223, 0.531076967716217], [-0.1533358097076416, -0.13210511207580566, -0.1304118037223816, -0.14080467820167542, 0.1513204574584961, 0.141061931848526, -0.14671142399311066, 0.16327890753746033, -0.14579589664936066, 0.14310236275196075, 0.14702947437763214, 0.1303447186946869, 0.16545547544956207, 0.12944312393665314, 0.13560567796230316, 0.12508681416511536, 0.15193317830562592, -0.1460631787776947, -0.15715070068836212, -0.1410694122314453, 0.15571774542331696, 0.13640083372592926, -0.15556761622428894, -0.14415085315704346, 0.15691404044628143, -0.14289245009422302, -0.1419355422258377, -0.1338285654783249, 0.5046555995941162, -0.548040509223938, 0.20847401022911072, -0.1555979996919632, -0.07558470964431763, -0.053190771490335464, 0.48104581236839294, 0.209233358502388, 0.23882527649402618, -0.061150114983320236, 0.16135312616825104, -0.5314925909042358, 0.3293418884277344, 0.13761267066001892, -0.1583673357963562, 0.1344410926103592, -0.3007509708404541, -0.4302069842815399, 0.472954124212265, -0.029041266068816185, -0.5617477893829346, 0.19828946888446808, -0.02223937213420868, -0.4159318208694458, -0.029622700065374374, -0.15666550397872925, 0.17196804285049438, -0.35758888721466064, -0.05069254711270332, -0.741084098815918, 0.3893738389015198, 0.3737141788005829, -0.05038341507315636, -0.054921917617321014, -0.058145154267549515, 0.6873700618743896], [-0.012618171982467175, -0.00575990229845047, 0.006020843517035246, -0.00490534259006381, 0.0021129020024091005, -0.003862597281113267, 0.0036153753753751516, -0.0032932788599282503, 0.009310499764978886, -0.004732937086373568, -0.004821113310754299, 0.006199585273861885, -0.00011941546108573675, 0.002625596709549427, 0.010010681115090847, -0.0032223425805568695, 0.006551907863467932, 0.00533853005617857, 0.003987716510891914, 0.0014477104414254427, -0.009344934485852718, 0.00021874031517654657, 0.0011202696477994323, 0.005983985029160976, -0.010446937754750252, -0.005860158242285252, -0.008566395379602909, -0.006112158298492432, 0.6025296449661255, -0.6893893480300903, 0.14004045724868774, 0.058241721242666245, 0.23492196202278137, -1.4145323038101196, -0.7482672929763794, -0.18085573613643646, -0.20695814490318298, -1.4345755577087402, 0.13294726610183716, 0.7202908992767334, -0.22664867341518402, -0.16783875226974487, 0.06553859263658524, -0.9126534461975098, -0.23425309360027313, -0.7149856090545654, -0.7805072069168091, -1.398067831993103, -0.7043423056602478, -0.15356044471263885, 1.379510521888733, 0.33980685472488403, 1.1665279865264893, 0.22302362322807312, -1.0346888303756714, 0.4458439350128174, -0.05217275768518448, -0.13550256192684174, -0.019415976479649544, 0.013634245842695236, -0.050191983580589294, -0.061559420078992844, -0.05569980666041374, -0.0737476572394371], [0.004573014564812183, -0.0034023765474557877, 0.000763315474614501, -0.001692668185569346, -0.0054753972217440605, 0.008055615238845348, -0.0038499156944453716, 0.0030336424242705107, 0.009077596478164196, 0.0141269750893116, 0.004024028778076172, 0.003606269136071205, 0.006139067932963371, -0.0004874691367149353, 0.005487360991537571, 0.00532482611015439, -0.005493286065757275, 0.0027138306759297848, 0.001152176526375115, 0.003594899782910943, -0.01295435894280672, 0.004087080713361502, 0.004153506364673376, 0.0028224412817507982, -0.004478409420698881, -0.011672435328364372, 0.005685559939593077, -0.008049444295465946, 0.46080586314201355, -0.6595256328582764, 0.03637125343084335, 0.03477342799305916, 0.05997117981314659, 1.772230863571167, -0.6641286611557007, 0.06212630867958069, -0.18008919060230255, -1.975305438041687, 0.05033140257000923, -0.6223230957984924, 0.23281461000442505, -0.09315059334039688, 0.03468773141503334, -1.2533445358276367, -0.13868141174316406, -0.5182938575744629, 0.7211081385612488, -1.9230095148086548, -0.49650534987449646, 0.12912169098854065, 1.8226691484451294, 0.32841765880584717, -1.4117238521575928, 0.04290482774376869, -1.2070103883743286, -0.24495066702365875, -0.03811512514948845, 0.3789772093296051, 0.09051499515771866, 0.0031054290011525154, -0.03681320324540138, 0.047733329236507416, -0.038466472178697586, 0.29709067940711975], [-0.19001568853855133, -0.1430816799402237, -0.1425408273935318, -0.142727792263031, 0.17409615218639374, 0.153351292014122, 0.16163116693496704, -0.1762830913066864, -0.1666717231273651, -0.16957160830497742, -0.1416613608598709, 0.11480210721492767, -0.16346539556980133, 0.13457942008972168, -0.13306443393230438, 0.13381056487560272, -0.1445692628622055, 0.14286451041698456, -0.1559309959411621, 0.15386344492435455, -0.15155881643295288, -0.1530478447675705, -0.1827399730682373, 0.13169343769550323, 0.16752395033836365, 0.13767246901988983, -0.15498214960098267, 0.15719075500965118, -0.36120620369911194, 0.44495731592178345, 0.23252269625663757, 0.08060706406831741, -0.11937651038169861, 0.03021891973912716, -0.34178104996681213, -0.1977514624595642, 0.290574848651886, 0.057590749114751816, -0.1615663766860962, -0.5298683047294617, 0.31546974182128906, -0.10565297305583954, -0.16177386045455933, -0.16024751961231232, -0.1458977311849594, 0.5319948196411133, -0.4546237885951996, -0.0036591088864952326, 0.43717190623283386, 0.12114135175943375, -0.027147389948368073, -0.3118847906589508, 0.02966521680355072, -0.04919078201055527, -0.14190803468227386, -0.2915511727333069, 0.04999581351876259, 0.7067914009094238, -0.3390546143054962, -0.2897433936595917, -0.05270781368017197, 0.1210930198431015, 0.07434606552124023, -0.5509757399559021], [-0.0021181167103350163, 0.0007053976878523827, 0.003933244850486517, 0.0009968201629817486, 0.00048230530228465796, -0.005122060421854258, 0.006773552391678095, 0.0028658853843808174, -0.0007451754645444453, 0.0033707707189023495, 0.014599050395190716, 0.002778999274596572, -0.004367804154753685, 0.0012760707177221775, 0.0047245025634765625, -0.00874091126024723, 0.006738424766808748, -0.007956815883517265, 0.010917031206190586, -0.003481712192296982, 0.009787088260054588, -0.0006317588849924505, 0.006198055110871792, 0.014181187376379967, 0.00244252965785563, 0.0070516979321837425, 0.003931553568691015, 0.00035132953780703247, 0.524620771408081, 0.49173152446746826, 0.14220742881298065, 0.15861086547374725, -0.17021876573562622, 0.9323551654815674, 0.508721113204956, -0.3072982728481293, -0.39773672819137573, -1.0594326257705688, 0.46325817704200745, -0.619724690914154, -0.5590798258781433, 0.32806792855262756, -0.19693949818611145, 0.8485081195831299, 0.40245524048805237, -0.5002337098121643, -0.6551698446273804, -0.9159512519836426, 0.5236499905586243, 0.09239444136619568, 0.9418638348579407, 0.5513015985488892, -0.7294583320617676, 0.1412147432565689, 0.8685502409934998, -0.4219532012939453, 0.06550171226263046, -0.017542311921715736, -0.06388703733682632, 0.036164943128824234, -0.06004348769783974, 0.07086469233036041, -0.0815562903881073, -0.018540438264608383], [-0.14904078841209412, -0.11629344522953033, -0.13075405359268188, -0.13045822083950043, 0.1566341072320938, 0.13045044243335724, -0.12909458577632904, -0.13254660367965698, -0.13838902115821838, 0.15042071044445038, 0.13348644971847534, -0.1300785392522812, -0.15404777228832245, -0.12438645958900452, -0.12860769033432007, 0.11488252878189087, 0.1431652158498764, 0.13880139589309692, 0.14501018822193146, -0.13068407773971558, -0.14363175630569458, 0.1250232756137848, -0.14552688598632812, -0.12920910120010376, 0.1448075920343399, 0.13676504790782928, 0.13606633245944977, 0.12491419911384583, 0.40157321095466614, 0.5642876625061035, 0.16632424294948578, 0.1518435776233673, 0.08718182891607285, -0.04941705986857414, 0.43117842078208923, 0.14373014867305756, -0.2425592541694641, 0.037170350551605225, 0.12674595415592194, 0.5697143077850342, 0.3787100315093994, -0.25830984115600586, -0.10196572542190552, 0.1181657463312149, 0.3114578425884247, -0.5414592027664185, -0.47761890292167664, 0.024106815457344055, 0.5893615484237671, 0.07668351382017136, -0.015985839068889618, -0.26390933990478516, -0.027275994420051575, 0.07064741849899292, 0.17210005223751068, 0.4440040588378906, 0.05945221334695816, -0.6516149044036865, -0.4687871038913727, -0.2797262370586395, 0.050420328974723816, -0.052381593734025955, -0.08880645036697388, -0.5517933964729309], [-0.003924336284399033, 0.0017074929783120751, -0.005028342362493277, -0.0048330407589674, -0.006404561456292868, 0.0015330166788771749, 0.005520435981452465, -0.002996159950271249, -0.003358691930770874, 0.003810978028923273, -0.002078962279483676, 0.012837985530495644, 0.003954138141125441, 0.005139834247529507, -0.0008365669054910541, -0.0025582544039934874, -0.0061235809698700905, 0.000804352923296392, 0.008499400690197945, 0.0007346485508605838, 0.004776687826961279, 0.004171936772763729, -0.006551021244376898, 0.0071980333887040615, 0.005445252638310194, -0.002300014952197671, 0.0042244805954396725, 0.015328358858823776, -0.59731125831604, -0.639595091342926, 0.07613708823919296, 0.09452886879444122, 0.16487252712249756, 1.265773057937622, 0.5289613008499146, 0.05619429796934128, -0.1352616548538208, 1.4819751977920532, 0.048735111951828, -0.7054769992828369, 0.14788243174552917, 0.17256923019886017, 0.12501609325408936, 1.0087039470672607, -0.016507219523191452, -0.628337025642395, -0.7802436351776123, -1.487257957458496, 0.7176676988601685, 0.041292332112789154, -1.4781343936920166, 0.24497143924236298, 1.1012626886367798, 0.052787113934755325, -1.0062280893325806, -0.22209514677524567, 0.03792685270309448, -0.45388779044151306, -0.03350910171866417, 0.010605947114527225, 0.03562650829553604, 0.04571215808391571, -0.03506583347916603, -0.2898339033126831], [0.01671639084815979, -0.005868405569344759, -0.004039602354168892, -0.0027646932285279036, -0.0048070307821035385, -0.0004640919214580208, -0.005868024192750454, -0.004101675469428301, -0.0027715074829757214, 0.01193372905254364, -0.00013448484241962433, -0.0023297197185456753, -0.0038498342037200928, -0.0032828093972057104, 0.0032895486801862717, -0.004907639697194099, -0.003070543985813856, 0.004688176792114973, -0.012955558486282825, 0.005019704811275005, -0.00831114873290062, 0.006214442662894726, -0.00226128869690001, 0.013949435204267502, -0.0007931464351713657, -0.007020657416433096, -0.005134763196110725, 0.002476411173120141, 0.49177470803260803, -0.6066550016403198, -0.2226743847131729, -0.1590867042541504, -0.30033454298973083, 0.9761574864387512, 0.6509242653846741, 0.3804733157157898, 0.5423782467842102, 0.9679255485534668, -0.5195273160934448, -0.5113590359687805, -0.5205382704734802, -0.33582133054733276, 0.26530471444129944, 0.6748088002204895, 0.4150085747241974, 0.6647747755050659, -0.6821128726005554, -0.8934133052825928, 0.6951580047607422, -0.2430502027273178, 0.8894209265708923, 0.44272565841674805, -0.7272759079933167, -0.29749760031700134, 0.7027854919433594, 0.4610733091831207, 0.07346335053443909, -0.01976197585463524, -0.058403924107551575, -0.042732711881399155, 0.06485645473003387, 0.08043336123228073, 0.0932248905301094, -0.016526222229003906], [-0.007126640994101763, 0.008435201831161976, -0.002899184823036194, 0.004467169754207134, -0.00601137476041913, -0.010476998053491116, 0.005307027604430914, -0.0020460346713662148, 0.001305810292251408, 0.009097550064325333, -0.001244016457349062, -0.005891373846679926, 0.004353053867816925, 0.0011086566373705864, 0.006277367006987333, 0.002306482056155801, -0.001208324683830142, -0.010280318558216095, 0.0031983747612684965, 0.0026947837322950363, -0.00450335955247283, -0.0008547066827304661, -0.0088028684258461, -0.005115054547786713, -0.00545160798355937, -0.009162011556327343, -0.000938570243306458, 0.00543106347322464, 0.551480233669281, 0.6912032961845398, 0.19352850317955017, -0.23964694142341614, 0.22912392020225525, 0.940391480922699, 0.6282605528831482, 0.36266061663627625, 0.5259390473365784, 1.0528017282485962, 0.41381555795669556, -0.6901529431343079, 0.47298169136047363, -0.27695801854133606, 0.11182297766208649, -0.8100602030754089, 0.34808945655822754, -0.6485187411308289, 0.7376179099082947, 1.1395667791366577, 0.5667535066604614, 0.14745590090751648, -0.9640102386474609, -0.4981990456581116, -0.9365199208259583, 0.1995353400707245, 0.8006647229194641, 0.48674502968788147, 0.07895634323358536, -0.013710222207009792, 0.07719883322715759, -0.05196315050125122, -0.06953172385692596, -0.0845581442117691, 0.08900061249732971, 0.029684318229556084], [-0.12544578313827515, 0.13350826501846313, -0.11349385976791382, 0.14784759283065796, 0.1365073025226593, 0.1272723525762558, 0.1263890266418457, 0.1229662373661995, 0.14338643848896027, -0.14135125279426575, -0.13819465041160583, -0.11795132607221603, -0.15147452056407928, 0.1309434473514557, -0.13924728333950043, -0.13283538818359375, -0.157230943441391, -0.14936479926109314, 0.14141127467155457, -0.14508002996444702, 0.13809433579444885, -0.12635774910449982, -0.1393297165632248, 0.13743488490581512, -0.14130806922912598, -0.1397579163312912, -0.11885721236467361, 0.11881593614816666, -0.4191034138202667, 0.544003963470459, -0.13447540998458862, -0.04150953143835068, 0.12620796263217926, -0.0719122588634491, 0.6057654023170471, -0.15679365396499634, -0.20398138463497162, 0.030177542939782143, 0.13165713846683502, 0.6016982793807983, -0.3921959102153778, -0.2956433594226837, -0.13878630101680756, -0.28636908531188965, -0.1999111771583557, -0.5959870219230652, -0.5962796807289124, 0.0022046826779842377, -0.4668945074081421, 0.12137312442064285, -0.026678210124373436, 0.3836078941822052, -0.047097790986299515, -0.03670686483383179, -0.22401005029678345, 0.37954992055892944, -0.036736465990543365, -0.5966894030570984, -0.439119815826416, 0.26627856492996216, 0.03675239533185959, 0.04176389425992966, -0.04141610488295555, 0.496568500995636], [-0.09168736636638641, 0.09612803906202316, 0.10644882917404175, -0.1046033650636673, -0.1030210554599762, 0.09812331944704056, 0.10228758305311203, 0.1131158396601677, -0.10934638231992722, 0.10364813357591629, -0.10442957282066345, 0.0944732055068016, 0.10874693840742111, 0.10156828910112381, 0.1223568543791771, -0.1027054712176323, -0.12232086062431335, -0.10192592442035675, -0.11218965798616409, 0.11892089247703552, -0.12011461704969406, 0.10339967161417007, 0.11527098715305328, -0.11441011726856232, 0.10010958462953568, 0.11128164827823639, 0.09655630588531494, -0.07950259000062943, 0.3131941556930542, 0.4045591950416565, 0.04777860268950462, -0.03663932532072067, -0.06743134558200836, 0.03131476044654846, 0.40429428219795227, 0.0962895080447197, -0.25614264607429504, 0.046101298183202744, 0.2358090877532959, 0.477522075176239, -0.18984292447566986, 0.22205129265785217, 0.11470009386539459, 0.5038824677467346, -0.26167523860931396, -0.5628038644790649, -0.5441749095916748, 0.0008433682378381491, 0.44391298294067383, 0.02648429572582245, -0.03472458943724632, 0.2939942479133606, -0.19211672246456146, -0.029196806252002716, 0.3747800290584564, -0.39930155873298645, -0.03061080537736416, -0.5402742028236389, 0.17772997915744781, 0.14013922214508057, 0.02736409567296505, 0.03289294242858887, -0.0349065363407135, -0.40856343507766724], [-0.1643172949552536, -0.13078349828720093, -0.12751752138137817, 0.1384178102016449, -0.14868634939193726, 0.14371147751808167, 0.1505865901708603, -0.1537206470966339, 0.1490829437971115, 0.149140864610672, 0.14314255118370056, -0.12199272215366364, 0.16648729145526886, -0.1351815015077591, 0.14211948215961456, 0.1263541728258133, -0.15499097108840942, -0.14752806723117828, 0.14843682944774628, 0.14076893031597137, -0.14343398809432983, 0.1407480686903, -0.15575723350048065, 0.1364118903875351, 0.16506549715995789, -0.15345680713653564, -0.14426827430725098, 0.13453960418701172, -0.4608207046985626, -0.565537691116333, 0.10736069083213806, -0.1961425244808197, 0.059898827224969864, -0.07534101605415344, 0.4042236804962158, -0.22011008858680725, -0.13694506883621216, 0.051655594259500504, -0.19111625850200653, 0.5620276927947998, -0.25623345375061035, 0.175044983625412, 0.12866392731666565, -0.2473507523536682, -0.2830362915992737, -0.4097274839878082, -0.43662792444229126, -0.013114787638187408, 0.5036869049072266, 0.04095834866166115, -0.009920109063386917, 0.42945247888565063, -0.028617126867175102, 0.08078905194997787, 0.20445998013019562, 0.36913397908210754, -0.04072123020887375, -0.6384246349334717, -0.30834653973579407, 0.31421932578086853, -0.0465230867266655, -0.0474027618765831, 0.04926978051662445, 0.5229429602622986], [-0.12575381994247437, 0.10604853183031082, 0.10025396198034286, 0.12759259343147278, -0.1093621477484703, -0.11996690183877945, -0.11657214909791946, 0.1158304214477539, 0.12559795379638672, -0.1190173402428627, 0.12082736194133759, -0.12425316870212555, 0.1385539174079895, -0.11350136995315552, 0.1215800791978836, 0.11508794128894806, 0.13213340938091278, -0.11880683153867722, 0.1293204426765442, -0.12154167145490646, 0.12364812195301056, 0.12247391790151596, 0.1347627490758896, 0.13423466682434082, -0.1253693848848343, 0.13765840232372284, 0.11028492450714111, -0.10395652055740356, -0.3656497597694397, 0.5633172988891602, -0.031125383451581, 0.04185457155108452, -0.03723854571580887, -0.03997441381216049, 0.47125959396362305, 0.1378060281276703, -0.11563660204410553, 0.12090163677930832, 0.2787149250507355, -0.39215734601020813, -0.2902268171310425, -0.049159303307533264, -0.05432586371898651, -0.4381876289844513, -0.20648708939552307, -0.5278336405754089, 0.5397971272468567, 0.020687604323029518, 0.4601985812187195, 0.029159873723983765, 0.014006277546286583, 0.36171919107437134, 0.304004967212677, -0.07037197053432465, -0.29783686995506287, -0.2416837513446808, 0.03275390341877937, -0.6890295743942261, 0.2853606641292572, 0.18225602805614471, -0.032126620411872864, 0.036729902029037476, -0.03557564318180084, 0.5558621883392334], [0.10124082118272781, -0.10344168543815613, 0.07653459161520004, 0.107636459171772, 0.11619200557470322, -0.10071560740470886, 0.09632358700037003, 0.10882897675037384, 0.11833849549293518, -0.12615174055099487, 0.0995597168803215, -0.07775168865919113, 0.1345306783914566, -0.10080699622631073, -0.10132209211587906, 0.0879693403840065, -0.12951771914958954, -0.13430635631084442, 0.10801952332258224, 0.10620387643575668, 0.10086073726415634, 0.10073012113571167, -0.12342251092195511, -0.12445516139268875, 0.1187015026807785, -0.11908725649118423, -0.09173482656478882, 0.10923405736684799, 0.3734787702560425, -0.44611814618110657, 0.02562064118683338, -0.032846298068761826, 0.0308699831366539, -1.1739825010299683, 0.448476642370224, 0.0035996821243315935, -0.1995040774345398, 1.5282621383666992, -0.10391008108854294, -0.46235916018486023, 0.287333220243454, 0.03144484758377075, 0.09606081247329712, 0.8716679215431213, -0.232705220580101, 0.5354776382446289, 0.3372602164745331, -1.279647707939148, -0.3835300803184509, 0.06549815833568573, 1.3548945188522339, 0.35670197010040283, -1.111919641494751, 0.03289487212896347, -0.9454938769340515, 0.17703692615032196, -0.02980058081448078, 0.591181755065918, -0.20311036705970764, 0.26596829295158386, 0.027045588940382004, -0.029450170695781708, -0.032184209674596786, -0.6174560785293579], [0.5187852382659912, 0.4894142746925354, -0.41826915740966797, -0.48312056064605713, -0.5190446376800537, -0.42335817217826843, 0.3955353796482086, 0.5319879651069641, 0.46010875701904297, 0.5395331382751465, -0.41057726740837097, 0.5042738914489746, 0.5159435272216797, -0.394144207239151, 0.4389772117137909, -0.4899827837944031, -0.4222911298274994, 0.45347097516059875, 0.42345741391181946, -0.5491122603416443, -0.45658814907073975, -0.5454162955284119, 0.5501124262809753, -0.5768741965293884, -0.39158064126968384, -0.4600890874862671, 0.4196530282497406, -0.44679689407348633, 0.5354412794113159, -0.683638334274292, 0.2869509756565094, -0.09521198272705078, 0.14463885128498077, 1.013411521911621, 0.7774319052696228, -0.2893123924732208, 0.5535399913787842, 1.0570118427276611, 0.5073310732841492, -0.6090486645698547, 0.5714426040649414, 0.33179041743278503, 0.2511143982410431, -0.9564744234085083, 0.3508443236351013, -0.6487391591072083, 0.7640973925590515, -0.9578714370727539, -0.7784996032714844, 0.0818193182349205, -1.0955865383148193, -0.4755174219608307, -0.9205374717712402, -0.264308899641037, -1.0283128023147583, 0.46216994524002075, -0.5485361814498901, -1.0993025302886963, -0.9589622616767883, -0.8989458084106445, 0.5165737867355347, 0.502763032913208, -0.754724383354187, -1.0256297588348389], [0.008506444282829762, 0.003994069527834654, 0.003413027385249734, -0.004172811284661293, -0.005184045527130365, -0.00448665302246809, 0.0015915536787360907, 0.008378837257623672, 0.006089542061090469, -0.006295053754001856, 0.008011692203581333, 0.007706606760621071, -0.0004040595958940685, -0.00023993864306248724, 0.007504693698137999, 0.001557801733724773, 0.005905630998313427, -0.005543877836316824, 0.00011861402890644968, -0.005579142831265926, -0.0009335189824923873, -0.008542993105947971, 0.006689845584332943, 0.011221617460250854, -0.0022684906143695116, -0.000355829979525879, 0.0037523808423429728, -0.0009580358164384961, -0.42994698882102966, 0.8234781622886658, 0.003607455873861909, 0.008487663231790066, -0.0035759378224611282, 3.3298909664154053, 0.8140773773193359, -0.17859600484371185, 0.0978802740573883, 3.6912193298339844, 0.074061818420887, 0.83903968334198, 0.30758070945739746, 0.16602924466133118, 0.014045312069356441, -2.1010677814483643, -0.18610000610351562, -0.6599794626235962, -0.7762366533279419, 3.4987621307373047, 0.735932469367981, 0.010007203556597233, -3.7442216873168945, 0.38618001341819763, 2.7860801219940186, 0.004260263405740261, -2.3030548095703125, -0.4716588854789734, -0.0028204398695379496, -0.7655685544013977, -0.24393397569656372, 0.2829911708831787, -0.007947125472128391, 0.002755043562501669, -0.002050377195701003, 0.5972080826759338], [-0.47275757789611816, 0.4497491419315338, 0.43801823258399963, -0.44303661584854126, 0.44129788875579834, 0.5363958477973938, 0.4535803198814392, 0.46846532821655273, -0.49166440963745117, 0.41400226950645447, -0.44645678997039795, 0.3674355745315552, 0.5193015336990356, 0.5236585140228271, -0.6055468320846558, -0.3480386435985565, 0.4448360204696655, 0.48341020941734314, -0.5380666255950928, -0.4056512713432312, 0.4713372588157654, 0.5407256484031677, 0.4815746545791626, -0.4803529381752014, 0.5271086692810059, 0.5594739317893982, 0.41052696108818054, 0.4378597140312195, 0.5041185617446899, 0.8110520243644714, -0.05814699828624725, 0.18220454454421997, 0.14159473776817322, 1.078861951828003, 0.7667564153671265, -0.3655966520309448, -0.3805389702320099, 1.0099252462387085, -0.3979683816432953, 0.7311899662017822, 0.4601097106933594, -0.36780932545661926, 0.057463161647319794, 1.0251802206039429, 0.3718503713607788, 0.757151186466217, 0.6174265742301941, -1.13638174533844, 0.8007725477218628, 0.14060890674591064, -1.1910313367843628, -0.4596233069896698, 0.9344704747200012, 0.2759949266910553, 1.0231579542160034, 0.5488755106925964, -0.5095508694648743, -1.059267282485962, -0.8474306464195251, -0.7870261073112488, 0.41372132301330566, -0.387040376663208, -0.7185486555099487, -1.006102204322815], [-0.00862115528434515, -0.0005918361712247133, -0.005844705272465944, 0.0034363341983407736, 0.0009238754864782095, 0.0035893041640520096, -0.0037584006786346436, 0.0067597804591059685, -0.0005769662093371153, -0.009541500359773636, 0.011113394983112812, -0.0032018707133829594, -0.0012997656594961882, -0.006657321937382221, -0.00023342191707342863, 0.003655390115454793, 0.005137076135724783, -0.003442193614318967, 0.0022080319467931986, 0.0010760016739368439, -0.0028819635044783354, 0.002923893742263317, 0.0007364873890765011, -0.001342021394520998, 0.004046113695949316, 0.000645999563857913, 0.003967595286667347, 0.004595919977873564, 0.31474417448043823, -0.6820058822631836, 0.0001339194132015109, 0.005611316300928593, -0.006100915372371674, 6.301000118255615, 0.5133116841316223, 0.013724311254918575, 0.01118534430861473, 7.440261363983154, -0.006863289978355169, 0.5659928321838379, 0.016917843371629715, -0.009830696508288383, -0.0009006152395159006, 2.851792097091675, 0.002490089740604162, 0.5157636404037476, -0.5013220310211182, -6.936114311218262, 0.5117384791374207, -0.0006976420409046113, -7.234562397003174, 0.018423549830913544, 4.5428876876831055, 0.0023011788725852966, -3.050920248031616, -0.18308810889720917, 0.0019379555014893413, 0.570058286190033, -0.14667078852653503, -0.00019062214414589107, -0.00021723948884755373, 0.005542390514165163, -0.013503317721188068, 0.4660985767841339], [0.2774149477481842, -0.20768097043037415, 0.05922409147024155, 0.06780940294265747, -0.07609596103429794, 0.2212343066930771, 0.1954129934310913, -0.0819154605269432, 0.07695402204990387, -0.09341928362846375, 0.08508912473917007, 0.0799880251288414, -0.13777707517147064, 0.06319030374288559, 0.134585440158844, 0.07337015122175217, 0.07446718215942383, -0.16208875179290771, -0.1387024223804474, -0.10195889323949814, -0.24623356759548187, -0.16318291425704956, -0.14800766110420227, 0.10095632076263428, 0.18054993450641632, -0.17732620239257812, 0.09177561849355698, -0.11817481368780136, 0.515849769115448, -0.7381371259689331, -0.2197018414735794, -0.09889664500951767, 0.2099817544221878, 1.216303825378418, -0.6675118207931519, 0.2624608278274536, -0.3258146047592163, 1.3116165399551392, 0.4029969573020935, -0.7192673087120056, -0.5565740466117859, 0.3069494366645813, 0.18742097914218903, -0.896868109703064, -0.38699445128440857, 0.811198353767395, -0.6294767260551453, 1.1486965417861938, 0.7797507643699646, -0.014390234835445881, -1.0819171667099, -0.5813312530517578, 0.9725868701934814, -0.2174786478281021, 1.1295851469039917, 0.521060585975647, -0.3351282775402069, -0.8929413557052612, 0.7130817174911499, -0.7722198963165283, -0.3768855929374695, 0.326585054397583, -0.4673922061920166, 0.9593752026557922], [0.008220142684876919, -0.008198327384889126, 0.0011938471579924226, -0.01016385480761528, -0.008082163520157337, 0.005073755048215389, 0.005132562015205622, -0.006108873523771763, 0.004507153294980526, -0.002588853472843766, 0.0010649333707988262, -0.007600995246320963, 0.011194384656846523, 0.006569899618625641, 0.0052762445993721485, 0.008564412593841553, 0.007496865466237068, 0.0049949041567742825, -0.006740902550518513, 0.002598410937935114, -0.005312206689268351, 0.008190680295228958, -0.0050300671719014645, -0.009794903919100761, 0.01214680541306734, 0.012953205965459347, 0.008291318081319332, 0.008138859644532204, 0.5267574191093445, 0.7156457304954529, 0.15948699414730072, 0.05198431760072708, 0.0661628320813179, 1.626133680343628, -0.7676118016242981, 0.22423531115055084, 0.46978759765625, 1.6427372694015503, -0.33821284770965576, 0.8090145587921143, 0.4985145032405853, -0.2713570296764374, 0.05015815421938896, 1.2808419466018677, -0.34768739342689514, 0.8556383848190308, -0.8323429822921753, 1.6475684642791748, -0.7489318251609802, -0.010469259694218636, 1.6400316953659058, 0.5448465347290039, -1.4132806062698364, 0.011818786151707172, -1.2511152029037476, -0.5281776189804077, -0.35617750883102417, -1.0053826570510864, -0.7056981921195984, 0.5304479002952576, -0.21788465976715088, 0.36154332756996155, -0.4105031490325928, 0.8797228336334229], [0.0199274942278862, -0.004485955461859703, -0.1725284457206726, 0.16650430858135223, 0.033775463700294495, -0.12356390058994293, 0.08367770165205002, 0.002857084618881345, 0.056366052478551865, 0.018745671957731247, -0.00992265623062849, -0.13147911429405212, -0.01665436662733555, 0.03643755242228508, 0.03585081174969673, 0.09628558158874512, 0.0018481835722923279, -0.13720689713954926, -0.007833383977413177, 0.008454861119389534, 0.007257649675011635, 0.0035289276856929064, -0.007858713157474995, 0.0597849003970623, 0.128467857837677, 0.005813880357891321, 0.020652031525969505, -0.0645260438323021, -0.3845681846141815, 0.4830905795097351, 0.005498913582414389, 0.0061621586792171, 0.012000838294625282, 1.6998097896575928, -0.5898114442825317, 0.13406157493591309, 0.007733707316219807, 1.6725943088531494, 0.006425467785447836, -0.5881020426750183, -0.1134357899427414, -0.0743102952837944, -0.012274336069822311, -1.3302028179168701, -0.02618258073925972, 0.5675359964370728, 0.5135824680328369, 1.7283698320388794, -0.4972306191921234, -0.0031616713386029005, -1.6661370992660522, -0.23172365128993988, 1.4203572273254395, -0.010659624822437763, 1.3718854188919067, 0.16361640393733978, -0.08206982165575027, -0.8028099536895752, -0.37642207741737366, 0.39410465955734253, 0.15133297443389893, 0.05296555906534195, 0.007309800013899803, 0.7845113277435303], [0.010376821272075176, -0.00042806388228200376, 0.002441381337121129, 0.005731230601668358, 0.0050980341620743275, -0.006298196502029896, -0.0026292952243238688, 0.0002948995097540319, 0.003435302758589387, 0.001782354898750782, 0.0025089725386351347, 0.007714484818279743, 0.0001079024514183402, -0.00095210230210796, -0.0029390151612460613, 0.005016767885535955, 0.0057248305529356, 0.0034428536891937256, 0.0025412063114345074, -0.00011410584556870162, -0.006601957604289055, 0.008494331501424313, -0.007498465944081545, -0.006863342132419348, -0.0013780317967757583, 0.003987135365605354, 0.0008736312738619745, -0.008481458760797977, -0.4187763035297394, -0.5076174736022949, -0.010661810636520386, -0.009406725876033306, -0.00704114930704236, -2.6545116901397705, -0.6142876148223877, 0.010782046243548393, 0.12981221079826355, -3.0349011421203613, -0.05949503183364868, 0.4942816495895386, -0.11324287950992584, 0.00435755867511034, 0.00616112444549799, 1.550426959991455, 0.05482316389679909, 0.5939351916313171, 0.6634561419487, -2.9624834060668945, -0.5022753477096558, -0.012873779982328415, 2.996150255203247, -0.18412938714027405, 1.9714715480804443, 0.004013129975646734, 1.5230053663253784, 0.2971990704536438, 0.0033298141788691282, -0.5287814736366272, 0.17655986547470093, -0.31726592779159546, 0.008544265292584896, -0.002253482583910227, -0.00018447355250827968, -0.506641685962677], [0.126212015748024, -0.041380625218153, -0.07014927268028259, 0.0559745654463768, -0.06061016395688057, 0.10536018759012222, -0.17272697389125824, -0.14171229302883148, 0.17694316804409027, 0.03727647662162781, -0.10718323290348053, -0.08897542953491211, -0.12783800065517426, 0.029595166444778442, 0.0713857114315033, 0.1585085093975067, 0.031485751271247864, -0.0961499810218811, 0.15538334846496582, 0.14842188358306885, 0.035984378308057785, -0.09013058245182037, 0.07425162941217422, 0.09851112216711044, -0.03687229007482529, -0.13059817254543304, -0.04204268380999565, -0.1413368433713913, 0.4771052598953247, 0.6908175349235535, 0.013504398986697197, 0.012418343685567379, 0.007853194139897823, -1.4725520610809326, -0.6420769691467285, -0.24801450967788696, 0.3178386092185974, 1.4815459251403809, -0.30323484539985657, -0.7871242761611938, -0.4252018332481384, 0.29446229338645935, -0.1104319766163826, -1.121483564376831, -0.3314082622528076, -0.6357821226119995, -0.7573323845863342, -1.3774690628051758, -0.7127766609191895, 0.009043585509061813, 1.3347405195236206, -0.453810453414917, -1.3615212440490723, 0.013240279629826546, 1.230470895767212, -0.46652689576148987, 0.117125503718853, -0.9589914679527283, -0.5266898274421692, -0.5909380316734314, -0.1481221318244934, 0.052620548754930496, -0.21545296907424927, -0.7741842269897461], [0.4651898443698883, 0.5258998870849609, -0.5097589492797852, -0.4464465379714966, 0.46751806139945984, -0.399301677942276, -0.5053110718727112, -0.481361448764801, 0.4384501576423645, -0.39146366715431213, 0.5394194722175598, -0.5235903263092041, 0.5278685688972473, -0.40068644285202026, -0.6003749370574951, -0.4473455548286438, -0.5543789863586426, -0.5364015698432922, 0.5404528975486755, 0.37552037835121155, -0.4323948919773102, -0.5298141837120056, 0.3987354636192322, -0.41182732582092285, -0.35168054699897766, -0.43313026428222656, -0.4506179988384247, 0.5460248589515686, -0.671765923500061, -0.6841288805007935, 0.23145435750484467, 0.21151147782802582, -0.1953541487455368, 1.0488229990005493, -0.6838849782943726, 0.3617630898952484, 0.479332834482193, 1.1498380899429321, -0.4705253541469574, -0.6587153077125549, -0.41981369256973267, 0.30108383297920227, -0.14247529208660126, -0.9284911155700684, -0.40458887815475464, 0.6954525709152222, -0.6965682506561279, 0.9613897800445557, 0.6714575290679932, -0.20161497592926025, 0.9987868070602417, 0.5424838662147522, -0.9765452146530151, -0.08589814603328705, 1.0147662162780762, 0.42132115364074707, 0.48062074184417725, -0.9878903031349182, 0.8873598575592041, -0.7638958096504211, 0.4190385639667511, 0.43524664640426636, 0.5650635361671448, 1.0246907472610474], [0.06629371643066406, -0.05716000869870186, -0.018666870892047882, 0.025220897048711777, 0.020627835765480995, -0.018151521682739258, 0.030344603583216667, -0.03177318722009659, 0.0279947929084301, -0.010976205579936504, 0.15028022229671478, -0.06830418854951859, -0.1390363723039627, 0.014842528849840164, 0.08419101685285568, 0.04823882877826691, -0.09458925575017929, -0.08502312004566193, -0.030666131526231766, 0.1308431774377823, -0.09410513937473297, -0.036224160343408585, 0.013875167816877365, 0.14382871985435486, -0.023477355018258095, 0.034016598016023636, -0.013286408968269825, 0.034862250089645386, 0.6784557104110718, -0.7420399785041809, -0.060640204697847366, 0.028455689549446106, -0.01742394082248211, 1.0967988967895508, -0.6262112855911255, -0.3051433861255646, 0.3224256634712219, 1.1446398496627808, 0.3024916350841522, 0.7335571050643921, 0.33199670910835266, 0.3764757215976715, -0.08001618832349777, 1.0425841808319092, 0.36913707852363586, 0.635797917842865, 0.6787790656089783, 1.101048469543457, 0.7376378774642944, -0.09610336273908615, -1.2499479055404663, -0.597252368927002, 1.098132848739624, -0.08158916234970093, 1.0551904439926147, 0.47120583057403564, -0.24934589862823486, -0.977012574672699, 0.5594795942306519, -0.6842214465141296, -0.3053705394268036, 0.3607766032218933, 0.3968958854675293, -0.7919302582740784], [-0.07297629117965698, 0.09523866325616837, -0.04934817552566528, 0.05943509563803673, -0.05010319873690605, -0.089979387819767, 0.05375175178050995, 0.00584326172247529, -0.020419413223862648, 0.028171930462121964, -0.030936390161514282, -0.18057917058467865, 0.14953605830669403, -0.2076951265335083, -0.17835591733455658, 0.07264727354049683, 0.134968101978302, 0.10999177396297455, 0.08410243690013885, -0.0515260323882103, 0.10279178619384766, 0.1678014099597931, 0.03217292204499245, 0.08282491564750671, -0.003437372390180826, 0.1120777502655983, 0.09012448787689209, 0.08737186342477798, -0.42710262537002563, -0.6197962760925293, 0.07246443629264832, -0.058021049946546555, -0.0004506096011027694, -1.9759559631347656, 0.5956153869628906, 0.31585824489593506, -0.26215511560440063, 1.8557811975479126, -0.34376996755599976, -0.6552958488464355, -0.23775027692317963, 0.168954536318779, -0.007655352354049683, 1.4756443500518799, -0.2861526906490326, -0.5064336061477661, 0.6605383157730103, -1.92494535446167, 0.632594645023346, 0.0012471089139580727, -1.8858649730682373, 0.3349173963069916, -1.664399266242981, 0.15740779042243958, 1.5283113718032837, -0.333747923374176, 0.1296820044517517, 0.8207597136497498, -0.5231783986091614, -0.43745487928390503, -0.007269702851772308, 0.09912434220314026, -0.12145066261291504, -0.6791846752166748], [-0.01844559982419014, -0.02598848007619381, 0.015204649418592453, -0.020126456394791603, -0.03451056033372879, -0.02167687378823757, 0.016500521451234818, -0.020340995863080025, -0.02446131221950054, -0.03564537316560745, -0.0290189478546381, -0.020855411887168884, 0.07490251213312149, -0.020663509145379066, -0.053613997995853424, -0.010902385227382183, -0.019448120146989822, 0.0820460319519043, 0.026507539674639702, 0.017989138141274452, 0.029562760144472122, -0.02784598618745804, 0.026578737422823906, -0.023996559903025627, -0.02756430208683014, -0.02840043231844902, -0.026911994442343712, 0.021331988275051117, -0.6155878305435181, 0.831208348274231, -0.037268199026584625, -0.018055418506264687, 0.043645359575748444, 1.5397045612335205, -0.7337096929550171, -0.13595862686634064, -0.2884032726287842, -1.5679317712783813, -0.26832327246665955, -0.6555649042129517, -0.3962423503398895, 0.27220335602760315, -0.009101781994104385, -1.2495019435882568, -0.310430109500885, 0.651233434677124, 0.6724681854248047, -1.3408201932907104, -0.7955771088600159, -0.019417349249124527, 1.4673707485198975, 0.5231596231460571, 1.2668886184692383, -0.0215946976095438, -1.283084511756897, 0.5966150760650635, -0.06853388994932175, -0.9845751523971558, 0.5670560598373413, -0.5163018107414246, 0.08334417641162872, 0.008476843126118183, -0.06686881184577942, -0.7330194115638733], [-0.5921111702919006, -0.4710206985473633, -0.4328310489654541, -0.43108558654785156, -0.49133405089378357, -0.4368109703063965, 0.4591616690158844, -0.3911202847957611, 0.6049426198005676, -0.5088779926300049, -0.5579569935798645, -0.4408208429813385, 0.5044736266136169, -0.531913161277771, -0.4697721302509308, 0.38478466868400574, 0.5721579194068909, -0.47349002957344055, -0.5962468385696411, -0.5306310653686523, 0.4269629716873169, -0.5788187384605408, 0.3857707977294922, -0.500021755695343, 0.3939865827560425, -0.49595773220062256, 0.3911120593547821, 0.489034503698349, -0.5977298021316528, 0.5977663993835449, -0.1687527894973755, 0.08081118017435074, -0.15383052825927734, 1.1587066650390625, 0.7485283017158508, -0.4405743479728699, 0.43027716875076294, -1.0250252485275269, -0.30037742853164673, 0.717779278755188, 0.39858606457710266, -0.3631444573402405, -0.07150548696517944, 1.0255769491195679, 0.43889227509498596, -0.7768210172653198, 0.5703065395355225, -1.1177743673324585, 0.656593918800354, 0.13029488921165466, 1.1776394844055176, -0.573550283908844, -0.902635931968689, 0.1502338945865631, -0.8816150426864624, 0.5566388368606567, 0.5638291835784912, 1.019209861755371, 0.7749326825141907, 0.8172531723976135, -0.532184898853302, 0.5995008945465088, 0.6187248826026917, 0.9582007527351379], [0.004482962656766176, 0.009776749648153782, -0.008936410769820213, 0.008319394662976265, 0.004937917925417423, -0.00639750063419342, -0.004658582620322704, 0.006690041162073612, -0.005629677325487137, 0.008708122186362743, 0.006632419768720865, -0.005174551159143448, -0.004899220075458288, 0.0019340341677889228, 0.0038424415979534388, 0.004996126983314753, -0.007138661574572325, -0.0012805396690964699, -0.001707212533801794, 0.00031037459848448634, -0.007984098978340626, -0.003827834501862526, 0.002756324363872409, 0.0032103941775858402, -0.008205235004425049, -0.008934397250413895, -0.0055028293281793594, 0.004177866969257593, -0.3786362409591675, 0.5109584331512451, -0.007838110439479351, 0.008287113159894943, 0.00332905282266438, 3.247407913208008, -0.4312736690044403, 0.011532291769981384, 0.14281149208545685, 3.842083215713501, -0.03339764103293419, 0.6134487986564636, 0.15342144668102264, 0.035534925758838654, 0.00783799309283495, -1.7118993997573853, -0.1983262449502945, -0.595241904258728, 0.6539440751075745, -3.6450107097625732, 0.6194860935211182, 0.010845082812011242, 3.794567823410034, 0.3171854615211487, -2.386573076248169, 0.011481123976409435, -1.785310983657837, -0.21598613262176514, 0.000523695140145719, 0.704652726650238, 0.26884371042251587, 0.23704269528388977, -0.006190930027514696, -0.004148346837610006, -0.011332913301885128, -0.6276010870933533], [0.002995495218783617, 0.0057963537983596325, -0.003916861489415169, 0.0015673686284571886, 0.0039768824353814125, 0.00791143998503685, 0.006273504812270403, -0.008783958852291107, 0.0062498170882463455, 0.00856918003410101, 0.009926418773829937, 0.004947922192513943, 0.0004927316913381219, -0.004925152286887169, 0.010172711685299873, -0.00939931534230709, 0.0009532706462778151, -0.00017038267105817795, -0.005523510742932558, -0.0015255582984536886, 0.0013328776694834232, -0.002757047303020954, -0.003478561993688345, -0.008770344778895378, -0.004157629795372486, 0.0015546579379588366, 0.0014216945273801684, 0.00818614847958088, 0.5654489994049072, -0.7016476392745972, 0.0015570719260722399, -0.00866646133363247, -0.00519271194934845, -2.757079601287842, -0.6185774803161621, -0.054923634976148605, 0.14572685956954956, 3.1529147624969482, 0.16914787888526917, 0.6195911765098572, -0.23714353144168854, -0.14300189912319183, 0.00023409846471622586, 1.758044719696045, -0.1738060712814331, -0.5904856324195862, -0.7182700037956238, 2.881795644760132, 0.7330122590065002, -0.0022466222289949656, -3.0740532875061035, -0.4508914053440094, 2.1991055011749268, -0.009187587536871433, 1.7990126609802246, -0.2719942331314087, 0.002819690853357315, 0.6411521434783936, 0.37708818912506104, 0.26443415880203247, 0.006406476721167564, 0.0014281605836004019, -0.0022364319302141666, -0.6028609275817871], [-9.460793808102608e-05, -0.002287649316713214, -0.002413512207567692, 0.008642296306788921, 0.002863152651116252, -0.006397627294063568, 0.004405810963362455, 0.003595212707296014, 0.005855863448232412, -0.007593176327645779, 0.00037587800761684775, -0.007859336212277412, -0.0006237091147340834, -0.00586079154163599, -0.013803348876535892, 0.0023463168181478977, -0.007019133772701025, -0.004037956241518259, 0.0038984136190265417, 0.0013411289546638727, 0.007934237830340862, 0.0007860070909373462, -0.005598537158221006, 0.006905420683324337, -0.006777637638151646, -0.00287608802318573, 0.003236425807699561, -0.003958810120820999, -0.4507008492946625, 0.8422456979751587, -0.012530638836324215, 0.013508445583283901, -0.008124997839331627, 3.658907175064087, -0.7684314250946045, -0.03920738026499748, -0.153603196144104, -3.9705095291137695, 0.1446172595024109, 0.7618281841278076, 0.09859799593687057, -0.07473529130220413, -0.004555854946374893, 2.0791802406311035, -0.058796316385269165, -0.7467721700668335, -0.838324248790741, -3.635582685470581, -0.8921725153923035, 0.01109050028026104, -3.7814950942993164, 0.4728286564350128, -2.920140266418457, -0.0010508534032851458, -2.3284389972686768, -0.3060365915298462, 0.0031234133057296276, -0.7186810374259949, 0.24881210923194885, 0.21018724143505096, -0.00840086955577135, -0.0015910326037555933, 0.012959235347807407, 0.48066118359565735], [-0.36049556732177734, -0.3805377185344696, -0.24021221697330475, -0.2828243672847748, 0.3074781000614166, -0.2415468692779541, 0.3893583416938782, -0.33785805106163025, 0.3469686806201935, -0.3668486177921295, -0.3054942786693573, -0.26209506392478943, -0.3845650553703308, -0.25642716884613037, -0.3075033724308014, 0.315202534198761, 0.30716824531555176, 0.3086611330509186, 0.37639740109443665, 0.32152000069618225, 0.3462260365486145, -0.34345147013664246, -0.20578846335411072, -0.38274118304252625, -0.3570011556148529, 0.2739904522895813, 0.3451240360736847, -0.41870418190956116, -0.63935786485672, -0.6527215838432312, -0.08870235085487366, -0.12540145218372345, -0.16864973306655884, 1.002907633781433, -0.6130083799362183, -0.4536033272743225, -0.3824029266834259, 1.1599806547164917, 0.5089057683944702, -0.6360316276550293, 0.39104169607162476, 0.4037088453769684, 0.16683833301067352, -0.9019715189933777, -0.4530406594276428, -0.6042281985282898, -0.8021861910820007, 1.0534573793411255, 0.7972163558006287, -0.1341167390346527, 1.168290376663208, -0.5530041456222534, 0.9636412262916565, -0.1353611946105957, 1.0983840227127075, 0.5111210346221924, 0.31625431776046753, -1.0398892164230347, 0.8212499618530273, -0.8098238110542297, -0.49675169587135315, -0.3107740581035614, -0.6071528792381287, 0.930616021156311], [0.5100598335266113, 0.31307682394981384, -0.3031967282295227, 0.4069824516773224, -0.29043900966644287, -0.3516246974468231, 0.4639933705329895, 0.3198094666004181, -0.33047837018966675, 0.45319271087646484, 0.4271486699581146, -0.37576577067375183, 0.364701509475708, -0.29852792620658875, -0.4924063980579376, -0.4155091941356659, 0.3394252061843872, 0.36763492226600647, -0.31393998861312866, 0.3350999355316162, -0.2968432605266571, -0.37540146708488464, 0.39726635813713074, 0.33574193716049194, 0.36275815963745117, -0.32792192697525024, -0.3411254286766052, -0.3689504563808441, 0.61351078748703, -0.7853227257728577, -0.10889517515897751, -0.1849822998046875, 0.15769852697849274, 1.0679889917373657, -0.7268812656402588, 0.3570373058319092, 0.4856812357902527, -1.0938420295715332, -0.4629523456096649, -0.6135002374649048, 0.4129226803779602, -0.26696285605430603, -0.02034095674753189, -1.0246775150299072, 0.4161033034324646, 0.729321300983429, -0.6693689823150635, 0.9807472229003906, -0.7568750977516174, 0.14397229254245758, 1.1366065740585327, -0.4308006763458252, -0.9874777793884277, 0.1646401733160019, -0.947679877281189, -0.5242159962654114, 0.5110310316085815, -1.017868161201477, -0.7525936365127563, 0.769634485244751, 0.3827294409275055, -0.41737714409828186, -0.6273680329322815, -0.8251523971557617], [-0.4003297984600067, 0.49645471572875977, 0.49019473791122437, -0.5270822048187256, 0.505279004573822, -0.47667860984802246, -0.4854012429714203, -0.41333577036857605, -0.4933171272277832, 0.4352295398712158, -0.4432517886161804, -0.4168112277984619, 0.4109496772289276, 0.4421420693397522, 0.46519964933395386, -0.5100476145744324, -0.44496244192123413, 0.49843576550483704, -0.4496723413467407, 0.41067418456077576, 0.40975436568260193, 0.4877225458621979, 0.44807368516921997, 0.5449332594871521, 0.4568541347980499, 0.5218766331672668, -0.3711381256580353, -0.464720219373703, 0.3630389869213104, 0.47951146960258484, -0.2043188512325287, -0.10201875120401382, -0.09538313746452332, -1.5586209297180176, 0.5568755269050598, 0.2487369030714035, 0.29636186361312866, 1.610061526298523, 0.2271796464920044, 0.34600943326950073, -0.22092029452323914, 0.3045364022254944, 0.1258859485387802, 1.1676372289657593, -0.3130165934562683, 0.5497402548789978, -0.40668168663978577, -1.586039423942566, -0.5291736721992493, 0.12136033922433853, 1.6757017374038696, 0.30950605869293213, 1.4631757736206055, 0.1340702772140503, -1.162859320640564, 0.3217445909976959, -0.2848663032054901, -0.7907912135124207, -0.6492112874984741, 0.627162754535675, 0.23396682739257812, 0.11035379022359848, 0.29780229926109314, -0.721407949924469], [-0.23112140595912933, -0.17148540914058685, -0.13228057324886322, -0.05846753716468811, -0.018522877246141434, -0.03084886632859707, 0.18534992635250092, -0.0707131028175354, -0.13955256342887878, -0.1357964128255844, -0.09793480485677719, 0.1018582433462143, -0.059287890791893005, 0.19019921123981476, -0.07661854475736618, 0.10571534931659698, -0.0867193415760994, -0.13531792163848877, -0.22002780437469482, 0.11225882917642593, -0.1489826887845993, 0.05206668749451637, -0.11791148036718369, 0.12214725464582443, -0.05752381682395935, 0.11079441010951996, -0.19070620834827423, 0.13003601133823395, -0.2926482856273651, -0.36949414014816284, -0.0024557621218264103, -0.028148191049695015, 0.0018105439376085997, 0.9252582788467407, 0.34946462512016296, 0.046256374567747116, -0.08610710501670837, -0.6007579565048218, 0.017670955508947372, -0.4173501133918762, -0.25153541564941406, -0.0736532062292099, -0.011505390517413616, 0.8293706178665161, 0.16247650980949402, -0.3825863301753998, 0.29903867840766907, -0.6180592775344849, -0.452749639749527, 0.039251215755939484, 0.5965460538864136, -0.14777952432632446, 0.9706082940101624, -0.001683554146438837, 0.7353427410125732, 0.2338394671678543, 0.005204321350902319, -0.5578664541244507, -0.38488176465034485, 0.4294099509716034, -0.014668390154838562, 0.1651509553194046, 0.10887248069047928, 0.6637013554573059], [-0.38965943455696106, -0.4448555111885071, -0.3292122185230255, 0.3735761344432831, 0.33373329043388367, -0.3336026966571808, -0.3146476447582245, 0.30420368909835815, 0.4039166569709778, 0.3148852288722992, -0.3253903090953827, -0.3245546817779541, -0.36732083559036255, -0.3475865423679352, -0.4319508373737335, 0.3327101767063141, -0.3683120608329773, 0.38437536358833313, 0.4065437614917755, -0.32118868827819824, -0.3594791889190674, -0.3410383462905884, -0.39900100231170654, -0.37629133462905884, -0.3060552477836609, -0.36402469873428345, -0.32495826482772827, 0.38375693559646606, 0.7083612084388733, -0.8016852140426636, -0.3455440104007721, -0.2678302526473999, 0.21758393943309784, -1.1591482162475586, -0.8465235829353333, -0.42075487971305847, -0.472756564617157, -1.2413846254348755, 0.5597188472747803, -0.8769877552986145, 0.5046532154083252, 0.5195265412330627, 0.09569930285215378, -0.9196071028709412, -0.6029238700866699, -0.7505521774291992, -0.6849894523620605, -1.0330924987792969, -0.811032235622406, 0.1450435072183609, 1.153444528579712, -0.5325794816017151, 0.9710754156112671, -0.214559406042099, 1.089202880859375, 0.6079177260398865, -0.7128157019615173, -1.2668191194534302, 1.112902045249939, -1.012565016746521, 0.6318681836128235, 0.5448199510574341, -0.7296890020370483, -1.1318384408950806], [0.13640613853931427, 0.06776723265647888, 0.16307710111141205, 0.23309002816677094, 0.13833175599575043, 0.052938010543584824, -0.2197100967168808, 0.20183692872524261, -0.06822606921195984, -0.03457175940275192, 0.22408713400363922, -0.1292763203382492, 0.2537922263145447, 0.16341418027877808, 0.24524123966693878, -0.16513678431510925, -0.2077013999223709, -0.13322164118289948, -0.16554652154445648, -0.17278169095516205, -0.20686756074428558, -0.17430858314037323, 0.10581353306770325, -0.19319193065166473, -0.16528470814228058, -0.1278388351202011, -0.07818527519702911, 0.11674237996339798, -0.4967339038848877, 0.6237529516220093, 0.00787739735096693, 0.030255036428570747, -0.032976310700178146, -1.2586735486984253, -0.5760189890861511, 0.2680850028991699, -0.2833465039730072, 1.3156347274780273, 0.22093582153320312, 0.5554158687591553, 0.27134236693382263, -0.14432057738304138, 0.012080819346010685, -1.1605290174484253, -0.11477506160736084, -0.7383817434310913, -0.6130455732345581, -1.3485064506530762, -0.5628264546394348, -0.07799359411001205, 1.2506532669067383, 0.320330947637558, 1.2271946668624878, -0.031101347878575325, -1.033530592918396, 0.3451831638813019, 0.23721377551555634, 0.8144145607948303, 0.5610594749450684, -0.5829547643661499, 0.25872763991355896, 0.19861069321632385, -0.2663320302963257, 0.8187336921691895], [-0.008239052258431911, 0.001947689102962613, -0.022510509938001633, 0.005107797682285309, 0.04092489182949066, 0.09687592834234238, -0.00018265281687490642, -0.06770408898591995, -0.0027034226804971695, -0.02076246589422226, -0.025923913344740868, 0.008096039295196533, 0.002379761077463627, -0.08231563121080399, -0.07222115993499756, -0.014193885028362274, -0.028122559189796448, 0.026488639414310455, -0.00725946668535471, -0.0006833532825112343, -0.06269209831953049, 0.004072507843375206, 0.005165496841073036, -0.015938162803649902, 0.012435108423233032, 0.011755606159567833, -0.007839127443730831, 0.007840845733880997, 0.6679467558860779, -0.7808523774147034, -0.0062956116162240505, -0.055247627198696136, 0.03016534261405468, 2.2829480171203613, 0.8347434401512146, -0.32224366068840027, -0.38255807757377625, -2.438513994216919, 0.38714084029197693, -0.8506305813789368, 0.4550168216228485, 0.207585409283638, -0.0015925425104796886, -1.7335205078125, 0.405942440032959, 0.8621666431427002, -0.9699773788452148, 2.3977367877960205, 0.9414892792701721, -0.007685018703341484, 2.5290119647979736, -0.5109730958938599, 1.9879940748214722, -0.07226647436618805, 1.7910125255584717, 0.5652883648872375, 0.0037529482506215572, 0.8711497783660889, -0.4976327419281006, 0.42617976665496826, -0.0021550587844103575, 0.021968195214867592, 0.02723364531993866, 0.7913225293159485], [0.025730347260832787, 0.007948247715830803, -0.0014520896365866065, -0.011885269545018673, 0.020718248561024666, 0.012102236039936543, 0.010528710670769215, 0.015313897281885147, -0.006941877771168947, 0.03261993080377579, -0.010120227001607418, -0.007260112091898918, 0.017231419682502747, -0.010991142131388187, -0.00867258571088314, -0.017128441482782364, 0.00833255797624588, 0.017926987260580063, -0.02444034442305565, -0.011095046997070312, -0.00407364359125495, -0.009673667140305042, 0.009007507003843784, 0.0061293700709939, -0.018739089369773865, -0.002734611975029111, 0.004585269372910261, 0.009104415774345398, 0.5607616305351257, 0.696979284286499, 0.009793764911592007, 0.008700162172317505, 0.031319692730903625, -1.2603776454925537, 0.7557854056358337, -0.31773650646209717, -0.42274022102355957, 1.4598443508148193, -0.30387812852859497, -0.7541497349739075, -0.3614949584007263, -0.3421599566936493, -0.016566552221775055, 1.1052947044372559, -0.4344775080680847, -0.6293718814849854, -0.7799756526947021, 1.3865565061569214, 0.7787113189697266, 0.03298144042491913, -1.354001760482788, 0.5134125351905823, -1.2699997425079346, 0.026899009943008423, 1.2284308671951294, 0.46852433681488037, -0.3503651022911072, 0.9545837640762329, -0.5574188828468323, 0.6241055130958557, 0.37398970127105713, 0.21610313653945923, -0.33336320519447327, -0.7659337520599365], [0.6864349246025085, 0.6572118401527405, 0.6182491779327393, 0.6512203812599182, -0.607451856136322, -0.6094772815704346, 0.7196024060249329, 0.690635621547699, 0.6294373869895935, -0.6225228905677795, -0.6818509697914124, 0.6432787179946899, 0.7228983640670776, -0.5855479836463928, 0.5973140001296997, 0.5560571551322937, -0.7106385827064514, -0.6106472611427307, -0.6185148358345032, -0.7034801840782166, 0.6758173108100891, -0.7026751041412354, -0.6644930243492126, -0.6291013956069946, -0.6461083889007568, -0.6377590298652649, -0.6647727489471436, 0.6672945618629456, -0.44241058826446533, -0.7138544917106628, -0.22473624348640442, -0.23272600769996643, 0.3345394730567932, -2.1702373027801514, 0.6145362854003906, 0.3927077054977417, 0.38767769932746887, 2.31726336479187, 0.46573570370674133, 0.6056293845176697, -0.3289053738117218, 0.3812907040119171, 0.23251155018806458, -1.4934269189834595, -0.31933778524398804, 0.6315441131591797, 0.6350878477096558, -2.166764736175537, -0.5786068439483643, -0.19166964292526245, -2.2726938724517822, -0.5070728659629822, 1.8782020807266235, -0.23598772287368774, -1.6339489221572876, -0.3717300593852997, -0.24559281766414642, 0.847958505153656, -0.8016135096549988, -0.7622060179710388, -0.2796226441860199, 0.2395273745059967, -0.47832489013671875, 0.9128303527832031], [-0.005297853145748377, -0.003257966600358486, 0.009108644910156727, 4.868453834205866e-05, -0.005823955405503511, 0.006044898182153702, -0.0064685107208788395, 0.009697903878986835, 0.0067940354347229, 0.001988536212593317, -0.0024719072971493006, -0.008372272364795208, 0.0011117326794192195, -0.0035833243746310472, -0.008164403960108757, 0.0014644030015915632, 0.007003817241638899, -0.00026894541224464774, -0.012218301184475422, 0.00602766964584589, 0.0004937831545248628, 0.006068508606404066, 0.003785166423767805, 0.0038929765578359365, 0.008132163435220718, -0.004520338959991932, 0.0015153666026890278, -0.006457685027271509, -0.5174486041069031, -0.717991292476654, -0.007846197113394737, 0.01450255885720253, -0.016238095238804817, 3.1954119205474854, -0.6694589853286743, 0.06963988393545151, -0.11598502844572067, -3.616239309310913, 0.06026254966855049, -0.6513587832450867, -0.18763506412506104, 0.007350539788603783, 0.013738720677793026, -1.7765883207321167, 0.24043291807174683, 0.5200105309486389, -0.6617995500564575, 3.3028197288513184, -0.6332900524139404, -0.006076555699110031, -3.5606210231781006, 0.24624046683311462, -2.4224460124969482, -0.005669506266713142, -1.811551809310913, 0.41244202852249146, 0.0072296131402254105, -0.7463266253471375, 0.24947227537631989, -0.16146937012672424, -0.004653844516724348, 0.004589974880218506, 0.0010857176966965199, 0.5942310690879822], [-0.13051077723503113, 0.19592490792274475, 0.144562765955925, 0.2009459286928177, 0.104045569896698, -0.07876516133546829, -0.06665889918804169, -0.21307803690433502, 0.05493690073490143, 0.13172896206378937, 0.20213210582733154, 0.2218841016292572, 0.07610254734754562, 0.08482152223587036, -0.23510880768299103, -0.10488389432430267, 0.18603919446468353, -0.1730325073003769, 0.05759085342288017, 0.08216255903244019, 0.1010366827249527, 0.1134219765663147, -0.10702189058065414, -0.07360029220581055, -0.07701113075017929, -0.11008168756961823, -0.10323122143745422, 0.21937209367752075, 0.6245036721229553, -0.638386070728302, 0.07503564655780792, -0.006141643039882183, 0.0022124862298369408, 1.2504680156707764, -0.6348237991333008, -0.2874099016189575, 0.2911449372768402, 1.194584846496582, 0.37980785965919495, 0.6844748854637146, 0.378520667552948, 0.25381943583488464, -0.030334005132317543, 1.0765619277954102, -0.26886099576950073, 0.7130207419395447, -0.7677839398384094, -1.1558575630187988, -0.7672648429870605, 0.014307196252048016, 1.3242243528366089, 0.4212454557418823, -1.2308595180511475, -0.16992069780826569, -1.170074462890625, -0.4908069372177124, 0.2316758781671524, -0.8740358352661133, -0.5290921330451965, 0.6831355094909668, -0.29873302578926086, 0.32502371072769165, -0.3315163552761078, 0.8181462287902832], [0.20729008316993713, 0.23137646913528442, 0.22819918394088745, 0.21121111512184143, 0.23044104874134064, -0.22445495426654816, -0.22408798336982727, 0.2318568378686905, -0.20926152169704437, 0.22570079565048218, -0.21244679391384125, 0.2131521850824356, 0.2200251668691635, -0.22981636226177216, 0.2259150743484497, -0.19647681713104248, 0.22230394184589386, -0.23344984650611877, -0.21401306986808777, 0.2097761034965515, -0.22036686539649963, 0.22419008612632751, 0.21985086798667908, 0.23562586307525635, -0.23521436750888824, 0.24038858711719513, -0.21765533089637756, 0.21087141335010529, -0.7036750316619873, 0.8317113518714905, -0.1642652153968811, -0.08052024990320206, -0.0683133602142334, -1.331343173980713, 0.7193781733512878, 0.30428892374038696, 0.3980759382247925, 1.566202998161316, 0.2820882797241211, -0.71739661693573, 0.4000808596611023, -0.19351454079151154, 0.15701356530189514, 1.101116418838501, -0.21001866459846497, 0.7378966212272644, 0.7612529993057251, 1.4114453792572021, -0.6986289024353027, 0.10068608075380325, -1.4468556642532349, 0.42681121826171875, 1.3190854787826538, -0.15247458219528198, 1.0082908868789673, -0.5145357847213745, 0.12006567418575287, -0.10086777061223984, -0.05910807102918625, -0.02019198052585125, 0.08969978243112564, -0.1287834495306015, 0.10443578660488129, 0.13043533265590668], [0.07790958881378174, -0.09553416073322296, 0.08950258046388626, 0.06324920803308487, 0.09700645506381989, 0.10521381348371506, -0.07028058916330338, 0.09669698029756546, 0.06904415786266327, 0.0895223319530487, 0.08356250077486038, 0.09605647623538971, -0.06340424716472626, -0.10382461547851562, -0.10954372584819794, -0.08552546054124832, 0.08037402480840683, 0.10008560121059418, 0.08777111768722534, 0.06479305028915405, 0.06966227293014526, 0.10559191554784775, 0.09708406031131744, 0.10259885340929031, 0.10607229918241501, 0.09441910684108734, -0.08742612600326538, -0.09602898359298706, 0.6476262807846069, -0.5754217505455017, 0.27316248416900635, -0.22203387320041656, 0.23577752709388733, 1.4398597478866577, 0.5661885738372803, 0.06124060973525047, -0.029032917693257332, 1.329587459564209, 0.0016233407659456134, -0.6169293522834778, -0.26585155725479126, -0.057763952761888504, 0.13144993782043457, 1.093725323677063, -0.1607288122177124, -0.6152108311653137, -0.8031838536262512, 1.2992546558380127, -0.613045334815979, -0.13141503930091858, -1.4555150270462036, -0.457333505153656, 1.1416298151016235, 0.08039529621601105, -1.0288431644439697, -0.27418944239616394, 0.1290358155965805, 0.19014963507652283, -0.03544197231531143, 0.016277922317385674, 0.2095423936843872, -0.1513994187116623, -0.13504987955093384, -0.24611960351467133], [0.011541705578565598, 0.001965426607057452, 0.015091110952198505, 0.010569119825959206, 0.013152516447007656, 0.001171795418485999, 0.003898193594068289, -0.0070791239850223064, -0.005799572914838791, 0.004349852446466684, 0.019352294504642487, -0.009602195583283901, 0.005418979097157717, 0.022087223827838898, -0.007952014915645123, -0.00466295937076211, 0.009487331844866276, 0.006316700484603643, 0.0030549135990440845, -0.007213891018182039, 0.014027999714016914, 0.011269894428551197, 0.01683288812637329, 0.0061186267994344234, -0.01685262843966484, 0.0066621932201087475, 0.012978390790522099, -0.010526576079428196, 0.5746328234672546, -0.7875820398330688, 0.3462620973587036, 0.23325300216674805, -0.2853253185749054, -1.1021543741226196, -0.6323312520980835, -0.490525484085083, 0.61125248670578, -1.2007811069488525, 0.48851144313812256, 0.7744095325469971, 0.5567927956581116, 0.5049214959144592, -0.2489517331123352, -0.8232842683792114, -0.3662356436252594, 0.6264218091964722, 0.6886669993400574, -1.0457578897476196, -0.6200920939445496, -0.22245573997497559, -0.986940860748291, 0.4975321292877197, 0.8381453156471252, -0.28392449021339417, 0.7782655954360962, -0.5026935338973999, -0.10691933333873749, 0.01090596616268158, -0.08910965174436569, 0.051853619515895844, -0.09349275380373001, -0.1163560077548027, 0.11055844277143478, 0.069684237241745], [-0.2132798433303833, 0.23901499807834625, -0.22569788992404938, 0.21013309061527252, 0.24272221326828003, -0.2376355677843094, 0.2206975668668747, -0.2543850541114807, 0.21564999222755432, 0.23817814886569977, -0.2072248011827469, 0.2140866070985794, -0.23600701987743378, -0.22058819234371185, -0.23318487405776978, 0.202726811170578, -0.23591026663780212, -0.24133379757404327, 0.20418396592140198, -0.2236088067293167, -0.22428853809833527, -0.2377757430076599, -0.23811005055904388, -0.24672101438045502, 0.25424155592918396, -0.25221970677375793, 0.22494567930698395, -0.21382682025432587, -0.13503918051719666, 0.1970953345298767, 0.07245057821273804, 0.07208623737096786, 0.13513214886188507, 4.742972373962402, 0.25948843359947205, -0.013313804753124714, -0.02327204868197441, 5.2376580238342285, 0.03268091753125191, -0.23043714463710785, 0.01247328333556652, -0.05124189332127571, -0.19252438843250275, 2.321169376373291, 0.030582623556256294, -0.3045320212841034, 0.2747810184955597, -5.143612861633301, 0.29004186391830444, -0.10494877398014069, -5.108952522277832, 0.06702667474746704, -3.632915735244751, -0.1206941232085228, -2.7460062503814697, -0.04581274464726448, -0.09099407494068146, -0.39400067925453186, -0.03983219712972641, -0.010697474703192711, 0.08041797578334808, -0.1584906429052353, 0.075516477227211, -0.27671945095062256], [0.23072503507137299, -0.24728383123874664, 0.23946616053581238, 0.23193159699440002, 0.25090518593788147, -0.24374635517597198, 0.24167877435684204, 0.2588276267051697, 0.2315393090248108, -0.2493501752614975, 0.2299620658159256, -0.2303624153137207, -0.242067351937294, -0.24666711688041687, 0.2404334843158722, -0.21896089613437653, 0.24626533687114716, -0.2427777200937271, 0.23482929170131683, -0.2329113930463791, 0.24489948153495789, -0.2519216537475586, -0.24815633893013, -0.25240349769592285, 0.25980257987976074, -0.25831738114356995, -0.23807987570762634, -0.227146714925766, 0.09517752379179001, 0.5164080262184143, -0.1429712176322937, -0.08488256484270096, -0.01543058268725872, 2.5887653827667236, -0.44328632950782776, 0.03329920768737793, 0.03042490966618061, -2.761352062225342, 0.007331495173275471, -0.4887090027332306, -0.0413653738796711, -0.059386443346738815, 0.05752060189843178, -1.5397166013717651, -0.028878899291157722, -0.5919669270515442, 0.6149742603302002, -2.5160372257232666, -0.5263028740882874, -0.12924005091190338, 2.7275779247283936, 0.03486096113920212, -2.023913860321045, -0.01331536564975977, 1.7346240282058716, 0.11421617120504379, -0.08480391651391983, -0.2757580876350403, -0.023356597870588303, 0.010325162671506405, 0.05907321721315384, -0.09342194348573685, 0.07740380614995956, 0.22170446813106537], [-0.015234856866300106, 0.006902254652231932, 0.006165113765746355, -0.012652363628149033, 0.0039975750260055065, 0.010008743032813072, -0.006318592932075262, 0.00939944013953209, 0.011915639974176884, -0.006735243834555149, -0.01885872893035412, -0.00791439600288868, 0.014275769703090191, -0.025120580568909645, 0.021383294835686684, -0.003414351725950837, -0.012553204782307148, 0.007837007753551006, -0.018670570105314255, 0.009823123924434185, 0.008747880347073078, 0.012742239981889725, -0.01532013900578022, 0.017512690275907516, -0.005129940342158079, -0.013478116132318974, -0.007380038499832153, -0.012775633484125137, 0.7144272923469543, -0.6390059590339661, 0.25255081057548523, 0.2531845271587372, 0.23663581907749176, -1.0716010332107544, -0.6348274946212769, -0.34784844517707825, -0.42292603850364685, 1.0990653038024902, -0.5239104628562927, 0.6265648603439331, 0.6219457387924194, -0.3626883029937744, 0.2754409611225128, 1.020862340927124, 0.4090949296951294, 0.6968221664428711, 0.7183189988136292, -1.182332158088684, 0.7873374223709106, -0.27361223101615906, -1.1627291440963745, -0.5537834167480469, 1.054612636566162, -0.3164873421192169, -0.9424755573272705, 0.46103477478027344, -0.10640984773635864, 0.10344790667295456, -0.08057750761508942, 0.03857571259140968, 0.09731201827526093, -0.12096086144447327, -0.11073380708694458, 0.018195100128650665], [0.16934479773044586, 0.19575513899326324, -0.19103533029556274, -0.16738702356815338, 0.18940241634845734, 0.19301995635032654, -0.18048295378684998, 0.19948498904705048, 0.1829703003168106, -0.19074192643165588, 0.17107133567333221, -0.17287905514240265, 0.1910262554883957, 0.1920415312051773, -0.19636256992816925, 0.16179393231868744, 0.18328788876533508, -0.2005072683095932, -0.1732444018125534, -0.1785663515329361, -0.18063569068908691, 0.19662943482398987, 0.18062861263751984, 0.19793951511383057, -0.20555870234966278, -0.20201702415943146, 0.18051157891750336, 0.16959969699382782, 0.1315029412508011, -0.5291919112205505, 0.1241687759757042, 0.1642598956823349, -0.02767925336956978, -2.1531453132629395, 0.3746757209300995, 0.046153318136930466, 0.023011917248368263, -2.3669090270996094, 0.01821049116551876, 0.39931249618530273, 0.0422854982316494, 0.07462731003761292, 0.13105140626430511, 1.3117103576660156, -0.03249411657452583, 0.5211290717124939, -0.5244066715240479, -2.258992910385132, -0.6418039202690125, 0.09983793646097183, 2.3540046215057373, 0.05548855662345886, -1.7369500398635864, -0.04285252466797829, -1.2502567768096924, -0.06530563533306122, -0.10180560499429703, 0.2920237183570862, -0.015351383946835995, 0.01238908153027296, -0.11174783110618591, -0.11608617007732391, -0.08743692189455032, -0.3834209740161896], [-0.710438072681427, 0.8210167288780212, 0.7935659885406494, -0.8941187262535095, 0.7594254016876221, -0.7489017248153687, -0.7426288723945618, -0.8280929923057556, -0.7725128531455994, 0.6821924448013306, 0.7087469100952148, 0.7334031462669373, -0.7940270304679871, 0.7435414791107178, -0.815661609172821, -0.69610196352005, -0.7814084887504578, -0.8563712239265442, -0.7200513482093811, 0.7988990545272827, -0.7771987318992615, 0.7581780552864075, 0.7316992878913879, 0.796256422996521, -0.6928374767303467, -0.8838145732879639, -0.8075467348098755, 0.7956783771514893, 0.5381401777267456, -0.5434228181838989, -0.311922162771225, -0.26607388257980347, 0.23002482950687408, 0.9175097346305847, 0.5229361653327942, -0.31733131408691406, 0.5149468779563904, 1.0145320892333984, 0.35257548093795776, 0.5569764971733093, 0.5060867667198181, 0.46432700753211975, -0.31040823459625244, -0.8576996922492981, -0.4266411364078522, -0.5676320195198059, -0.6675052642822266, 0.7917664051055908, -0.5237852334976196, 0.22715777158737183, 0.8466044664382935, -0.40541622042655945, -0.9587237238883972, -0.3470709025859833, 0.8874070048332214, -0.4605253338813782, -0.627092719078064, -1.194751501083374, -1.1334712505340576, -0.9851194024085999, -0.5647972226142883, 0.5008314847946167, 0.8481937646865845, 1.1159741878509521]], "PMT_dist_dense_3/bias:0": [-15.460943222045898], "PMT_dist_dense_3/kernel:0": [[0.036511678248643875], [0.03641839325428009], [-0.036150235682725906], [0.03541075810790062], [0.03871527314186096], [-0.03713466227054596], [0.03388061374425888], [0.03687138855457306], [-0.03762974217534065], [-0.038333408534526825], [0.03672809526324272], [0.037578001618385315], [-0.0364355593919754], [0.034026850014925], [0.03639981150627136], [0.038697339594364166], [-0.03512180969119072], [0.03548704832792282], [-0.03753252327442169], [0.03751157969236374], [0.03650577366352081], [-0.03540365770459175], [-0.0383802130818367], [0.036320630460977554], [-0.03835809975862503], [0.036198940128088], [-0.037849776446819305], [0.03598619997501373], [-0.03159032389521599], [0.02578713558614254], [-0.08143628388643265], [-0.08656550198793411], [-0.08444797247648239], [-0.018187865614891052], [0.027532177045941353], [-0.049267176538705826], [-0.043506138026714325], [-0.01695900410413742], [-0.04582709074020386], [-0.026639597490429878], [0.04030342027544975], [0.05067962408065796], [-0.08986194431781769], [0.018845373764634132], [0.044393390417099], [0.026199977844953537], [0.026279371231794357], [0.016577482223510742], [0.02786078304052353], [0.09116225689649582], [0.016891062259674072], [0.034950871020555496], [-0.01849980652332306], [-0.07941307872533798], [-0.019222533330321312], [-0.0345953144133091], [-0.05634092167019844], [-0.01638058014214039], [0.019926557317376137], [-0.021441437304019928], [0.059758130460977554], [0.05966685712337494], [-0.04491171985864639], [0.01692974381148815]], "PMT_wall_dense_1/bias:0": [0.0032296234276145697, -0.0036031599156558514, 0.028382806107401848, 0.026469578966498375, 0.028055571019649506, -0.0031850554514676332, 0.006014588754624128, 0.02732277475297451, -0.003444054862484336, -0.003050335915759206, 0.0005416857311502099, 0.028965510427951813, -0.0024506959598511457, 0.026125701144337654, 0.02686530537903309, -0.003361283103004098, -0.0027421689592301846, 0.02457606792449951, 0.003442206187173724, 0.0014236819697543979, -0.0031794586684554815, -0.0030484667513519526, -0.002603258239105344, -0.0033928880002349615, -0.002535585081204772, -0.0022670645266771317, 0.006396038923412561, -0.0033765879925340414, 0.02076876349747181, 0.016844451427459717, 0.01586754620075226, 0.019022276625037193, 0.017921622842550278, 0.01912698708474636, 0.01666424795985222, 0.020106319338083267, 0.01617133803665638, 0.01911645196378231, 0.018811320886015892, 0.01563047617673874, 0.0182382520288229, 0.018281910568475723, 0.01885341666638851, 0.0182892307639122, 0.02064322680234909, 0.01609303615987301, 0.017146756872534752, 0.014549619518220425, 0.01977132447063923, 0.02125832438468933, 0.019220950081944466, 0.017410025000572205, 0.0189252570271492, 0.019380271434783936, 0.01900317706167698, 0.016495337709784508, 0.01778331585228443, 0.014674212783575058, 0.016747670248150826, 0.018528560176491737, 0.01579776033759117, 0.019178442656993866, 0.014613071456551552, 0.022648736834526062], "PMT_wall_dense_1/kernel:0": [[-0.16866643726825714, 0.5511069297790527, -0.049048274755477905, -0.021663738414645195, 0.051201120018959045, -0.4481045603752136, 0.1718984693288803, -0.056448277086019516, 0.5605027079582214, -0.5223820209503174, -0.24032121896743774, -0.03359685838222504, -0.28723543882369995, -0.06973028928041458, 0.047253355383872986, 0.5211061239242554, -0.4163556694984436, -0.031245702877640724, -0.2249024212360382, -0.16759823262691498, -0.5812657475471497, 0.30707573890686035, 0.5283735394477844, 0.40300825238227844, -0.6771951913833618, 0.24784210324287415, -0.20116664469242096, 0.22864840924739838, 0.11167695373296738, 0.26935091614723206, 0.06803451478481293, -0.3826831877231598, -0.22768671810626984, -0.321014404296875, -0.044851601123809814, 0.17684103548526764, -0.1688348948955536, 0.22706791758537292, -0.35761210322380066, 0.11602768301963806, -0.199758380651474, -0.3441525101661682, 0.29363739490509033, 0.3306093215942383, 0.16305822134017944, -0.2256348431110382, 0.1699753850698471, 0.056426987051963806, -0.057983603328466415, -0.0932539701461792, -0.24898220598697662, -0.13918285071849823, -0.3002854287624359, 0.21281398832798004, -0.1628100574016571, 0.2024804651737213, 0.25657519698143005, -0.07203967124223709, 0.04575048387050629, 0.26289474964141846, -0.07673235982656479, 0.2312210500240326, 0.06833608448505402, -0.07839551568031311], [-0.13250358402729034, 0.531378984451294, -0.09985160827636719, -0.0637882724404335, 0.10438943654298782, 0.427010715007782, 0.13001474738121033, -0.10271643102169037, -0.5397641062736511, -0.5012657642364502, 0.21303848922252655, -0.07645459473133087, -0.26372969150543213, -0.10873695462942123, 0.0969134271144867, 0.5001369118690491, -0.3938533067703247, -0.07216673344373703, 0.19333001971244812, -0.13752113282680511, -0.5605260133743286, -0.28453919291496277, -0.5068509578704834, -0.3807096481323242, -0.6598179340362549, -0.2229238897562027, 0.1667785942554474, -0.20387840270996094, 0.12309537082910538, -0.30539199709892273, -0.39566147327423096, -0.07342633605003357, 0.28056782484054565, -0.07652469724416733, 0.3731085956096649, 0.06570643931627274, -0.3885575830936432, 0.1553015112876892, 0.07159533351659775, -0.3717411756515503, -0.2158692181110382, -0.22384366393089294, -0.18188917636871338, 0.1629110872745514, 0.0754578486084938, -0.3557724952697754, -0.2994983494281769, -0.49975791573524475, -0.26300060749053955, 0.1351199448108673, 0.11625700443983078, 0.28881269693374634, 0.08019492030143738, 0.11756554991006851, -0.1971481591463089, -0.32108554244041443, 0.2925436794757843, -0.4426586329936981, 0.4010184407234192, 0.1920800656080246, -0.3903031349182129, -0.16936908662319183, -0.45133882761001587, -0.12216895818710327]], "PMT_wall_dense_2/bias:0": [0.10699889063835144, 0.11243733763694763, 0.11125720292329788, 0.11388698220252991, 0.11147020012140274, 0.11320828646421432, 0.11308617144823074, 0.11049091815948486, 0.1135752871632576, 0.11317037791013718, 0.10971104353666306, 0.11381696164608002, 0.11350937187671661, 0.11203943938016891, 0.11193149536848068, 0.11112629622220993, 0.11357137560844421, 0.10501798987388611, 0.10923159122467041, 0.11048059165477753, 0.10301753878593445, 0.10959385335445404, 0.11330035328865051, 0.11214260011911392, 0.11121998727321625, 0.11356361210346222, 0.11081190407276154, 0.11125025153160095, 0.024761289358139038, 0.024167900905013084, 0.019438084214925766, 0.027107998728752136, 0.02569148689508438, 0.004616163671016693, 0.023359429091215134, 0.025844862684607506, 0.025609096512198448, 0.0033056288957595825, 0.003798991208896041, 0.01985199563205242, 0.02540237084031105, 0.020924149081110954, 0.004119137302041054, 0.022947553545236588, 0.02295280434191227, 0.026357237249612808, 0.021081961691379547, 0.025493299588561058, 0.024246472865343094, 0.0006401503342203796, 0.001306296675466001, 0.02621249109506607, 0.02399672195315361, 0.024292925372719765, 0.023996669799089432, 0.01117247249931097, 0.044064030051231384, 