{"PMT_dist_dense_1/bias:0": [-0.005298598203808069, -0.008585347793996334, -0.09584932029247284, -0.08508627116680145, -0.0118557745590806, -0.03663162887096405, -0.005203950684517622, -0.10535635054111481, -0.006795660126954317, -0.10560417920351028, -0.006977278273552656, -0.10469753295183182, -0.01016143150627613, -0.11407202482223511, -0.027670234441757202, -0.007646182086318731, -0.011250569485127926, -0.10508160293102264, -0.014699037186801434, -0.05302644148468971, -0.05138900876045227, -0.007327470928430557, -0.006271379999816418, -0.0496508851647377, -0.09760487079620361, -0.10474541038274765, -0.00359296309761703, -0.0053592887707054615, -0.17878399789333344, -0.009731295518577099, -0.02133195847272873, -0.0026160802226513624, -0.05955769866704941, -0.15643182396888733, -0.43048450350761414, -0.006779123563319445, -0.017711523920297623, -0.014896868728101254, -0.08941172808408737, -0.0031785950995981693, -0.0858905017375946, -1.4309784173965454, -0.09011547267436981, -0.0050359792076051235, -0.05688241496682167, -0.06191203370690346, -0.00487946905195713, -0.3628185987472534, -0.007062240038067102, -0.1633530706167221, -0.004514553118497133, -0.00423563364893198, -0.10408543050289154, -0.05751104652881622, -0.0709017962217331, -0.005290148314088583, -0.029056644067168236, -0.22965876758098602, -0.17588064074516296, -0.22238223254680634, -0.022857658565044403, -0.00481597613543272, -0.23180529475212097, -0.12912797927856445], "PMT_dist_dense_1/kernel:0": [[0.011664928868412971, 0.019683167338371277, 0.12749387323856354, -0.084068663418293, -0.02544715441763401, -0.0005770574789494276, 0.010733292438089848, 0.1702483743429184, -0.015532445162534714, -0.22371965646743774, 0.004325095098465681, 0.2155766785144806, 0.0225654449313879, 0.2352220118045807, 0.0037296179216355085, -0.013784280978143215, -0.025702212005853653, 0.15838944911956787, -0.029358064755797386, -0.0018286793492734432, 0.0042118895798921585, 0.0023515592329204082, -0.0013433153508231044, -0.0026076629292219877, 0.19589178264141083, 0.1609300822019577, -0.002060518367215991, -0.008867252618074417, 0.012088789604604244, 7.566685962956399e-05, -0.00011508444731589407, -0.0021871288772672415, -0.055598191916942596, 0.03977116569876671, -1.1125785112380981, -0.013101705349981785, 0.0018469624919816852, -0.004234498832374811, 0.159424290060997, 0.00667470833286643, 0.14944177865982056, -14.595673561096191, 0.16437965631484985, -0.009864164516329765, 0.05211722105741501, -0.06363338977098465, 0.010832971893250942, 0.7637534737586975, -0.008629344403743744, -0.01957765407860279, -0.0005272760172374547, 0.008084948174655437, -0.19664783775806427, 0.002392759546637535, -0.10080783814191818, 0.005645465571433306, -0.002095954492688179, -0.2109975665807724, -0.3134167492389679, 0.20527522265911102, 0.0015312856994569302, -0.00469699501991272, 0.21122372150421143, 0.21039777994155884]], "PMT_dist_dense_2/bias:0": [-0.014160996302962303, -0.014372946694493294, -0.016136109828948975, -0.01644296757876873, -0.015010717324912548, -0.022344764322042465, -0.026846107095479965, -0.013857949525117874, -0.024278806522488594, -0.016805633902549744, -0.027773672714829445, -0.026353728026151657, -0.01846407912671566, -0.00844018254429102, -0.004835848230868578, -0.019849540665745735, -0.018550872802734375, -0.024892648681998253, -0.02331758290529251, -0.018327750265598297, -0.020295854657888412, -0.001313889166340232, -0.01851690746843815, -0.031569186598062515, -0.02075975574553013, -0.012298457324504852, -0.037476327270269394, -0.027949178591370583, -0.36107146739959717, -0.5282140970230103, -0.3053748607635498, -0.3016076385974884, -0.33813536167144775, 0.03987643122673035, -0.33532512187957764, -0.3818964660167694, -0.3386095464229584, 0.11534929275512695, -0.32798677682876587, -0.2689008116722107, -0.3270137310028076, -0.31241098046302795, -0.3012707233428955, -0.2662704586982727, -0.34386906027793884, -0.36605536937713623, -0.5078582763671875, -0.04221963882446289, -0.3546420633792877, -0.2971530854701996, -0.11541115492582321, -0.4976356327533722, -0.3031882047653198, -0.34102004766464233, -0.049739331007003784, -0.3341691792011261, -0.0558166429400444, -0.006067206617444754, 0.008621950633823872, -0.013488776981830597, -0.02466312237083912, -0.0669046938419342, -0.033404361456632614, -0.021092066541314125], "PMT_dist_dense_2/kernel:0": [[0.002682123798877001, 0.003713201964274049, 0.002075295429676771, -0.0035699305590242147, 0.0026642936281859875, 0.0010176452342420816, -0.0033947722986340523, -0.003214019350707531, 0.002884796354919672, -0.0019898847676813602, -0.0027083619497716427, 0.003862975863739848, 0.0025236434303224087, 0.0022067271638661623, -0.0020769231487065554, -0.0014858606737107038, -0.0011734010186046362, -0.003185100154951215, -0.0038000736385583878, -0.003328928956761956, 0.003417514031752944, -0.0018210159614682198, 0.00368834612891078, 0.003868337254971266, -0.001458992948755622, 0.003780763130635023, 0.001463988795876503, 0.0009208880364894867, -0.003388009499758482, 0.0033843708224594593, -0.004444833379238844, 0.002673166571184993, 0.00633523752912879, -4.330163478851318, 0.0038460022769868374, 0.005864760372787714, -0.0006187768885865808, -4.501348495483398, -0.006945373490452766, -2.5195069313049316, -0.005000431556254625, 0.002086726250126958, 0.009046440944075584, -2.459087371826172, 0.007538200821727514, -0.010287346318364143, -0.0031592007726430893, -3.8399953842163086, -0.9871687889099121, 0.004880099091678858, 3.197944402694702, 0.005699214059859514, 1.8942502737045288, -0.005492575000971556, 3.3913702964782715, -0.0033326530829072, -0.0022290078923106194, 0.0018797171069309115, 0.0023768984246999025, -0.005095209460705519, -0.011981740593910217, -0.0038523974362760782, -0.004655077587813139, 0.005750186275690794], [0.007178658153861761, 0.002482415409758687, 0.004593785852193832, 0.0051489477045834064, 0.006811012979596853, 0.006662264931946993, -0.0021912662778049707, -0.003440432483330369, 0.0032292602118104696, -0.0034743687137961388, -0.004105237312614918, -0.006484108977019787, 0.004676188807934523, 0.0034290789626538754, -0.003368175821378827, -0.006419580429792404, -0.006288299802690744, -0.00351693551056087, 0.002831379882991314, -0.005834383890032768, 0.0029376796446740627, 0.0045621623285114765, -0.005448831710964441, -0.002944809617474675, -0.005639947950839996, -0.001832906506024301, -0.0014509783359244466, 0.004511779639869928, -0.007402678951621056, 0.0037494245916604996, 0.008582799695432186, -0.0034446960780769587, -0.015287826769053936, 3.2232754230499268, 0.007735417224466801, -0.00784046296030283, -0.004265536554157734, -2.5205893516540527, 0.0068785822950303555, -2.524244546890259, 0.003814276773482561, -0.005275965202599764, -0.015348756685853004, 2.3223471641540527, -0.015833672136068344, 0.011478513479232788, -0.00198336667381227, -3.2295680046081543, 0.15870429575443268, 0.004369188565760851, 3.2239389419555664, 0.0068565174005925655, -1.2566730976104736, -0.008556253276765347, 3.0796899795532227, 0.01141267828643322, -0.0006833423976786435, 0.003006727434694767, 0.0026120292022824287, -0.007118054665625095, -0.008462437428534031, -0.004687319044023752, 0.008989979512989521, -0.0077107870019972324], [-0.014831791631877422, 0.009615715593099594, 0.013125280849635601, -0.0152754420414567, 0.005987911019474268, 0.004070588853210211, -0.014393475838005543, 0.003503952408209443, -0.006842941511422396, -0.0016234172508120537, -0.005582238547503948, -0.0034386843908578157, 0.009696290828287601, -0.0027194907888770103, -0.0020659901201725006, 0.0034602205269038677, -0.007760911714285612, 0.009746873751282692, -0.006544549483805895, -0.006365063134580851, -0.01533826906234026, 0.004122444894164801, -0.01040792465209961, 0.007454030681401491, -0.010560648515820503, -0.0021318148355931044, -0.004551786929368973, 0.005756755825132132, 0.01898585632443428, -1.1063060760498047, 0.0991596132516861, 0.07463053613901138, 0.08866892009973526, -6.625868320465088, 0.1713169813156128, -0.050965987145900726, 0.07377757877111435, -7.763903617858887, -0.07259048521518707, -4.527401447296143, 0.10361314564943314, -0.12536869943141937, 0.09256963431835175, -4.452815055847168, 0.05396909639239311, -0.06245487928390503, -1.8734337091445923, -5.695047378540039, -3.355320453643799, 0.17794498801231384, 4.779660224914551, -1.9168577194213867, -3.844541549682617, -0.08366917073726654, 5.21846342086792, 0.09303030371665955, 0.019390350207686424, 0.02304787002503872, 0.037307851016521454, 0.007909629493951797, 0.04801248759031296, 0.04447120428085327, -0.06249113753437996, -0.043113552033901215], [0.015061328187584877, 0.016412746161222458, -0.024864258244633675, 0.005394683685153723, 0.009480315260589123, 0.0083553371950984, 0.01377176959067583, 0.005327116698026657, 0.007434466853737831, -0.008295898325741291, -0.004509050399065018, -0.006868981756269932, 0.010863501578569412, 0.0024620473850518465, -0.00782953854650259, -0.0040244050323963165, 0.004079283215105534, -0.008852878585457802, 0.010188327170908451, 0.007162746507674456, -0.009701430797576904, 0.006348945200443268, 0.012155009433627129, 0.00871675182133913, -0.006806444376707077, 0.03342680260539055, 0.004812858998775482, -0.014666572213172913, 0.025513537228107452, 1.3049988746643066, -0.08508992940187454, 0.05120367556810379, -0.02216370217502117, 6.322391033172607, -0.042560677975416183, -0.01606988161802292, 0.020623305812478065, -7.053865432739258, -0.02483847178518772, 4.560689449310303, 0.02485821768641472, -0.09546688944101334, -0.06467610597610474, -4.316355228424072, 0.036710891872644424, -0.026263289153575897, -1.9037399291992188, 5.4304327964782715, 3.314182758331299, 0.08911792933940887, 4.552988529205322, -1.9941980838775635, -3.8636186122894287, -0.022213904187083244, 4.899894714355469, -0.053321149200201035, -0.0505995973944664, 0.02731015905737877, 0.023538611829280853, -0.019875457510352135, -0.049504637718200684, -0.0388323999941349, 0.03738340362906456, -0.042357705533504486], [-0.007672720123082399, -0.005482373293489218, 0.005942163988947868, -0.005786168854683638, -0.007453997153788805, 0.004280656110495329, -0.004020040389150381, -0.005858651828020811, -0.0022910742554813623, -0.00430177291855216, 0.0048230430111289024, -0.007294483482837677, 0.00450835982337594, -0.0012095867423340678, 0.002899921964854002, -0.0031913244165480137, -0.00174515915568918, -0.003031656611710787, 0.0035925954580307007, -0.007226692978292704, -0.004212778992950916, -0.00484466552734375, -0.005776847712695599, 0.0017650517402216792, -0.00517771253362298, 0.007035368122160435, -0.003466331632807851, -0.004115622024983168, -0.01281912624835968, 0.003083414165303111, 0.01393775176256895, -0.0037039685994386673, -0.012349936179816723, 3.4264402389526367, 0.008049811236560345, -0.010743374936282635, -0.005553440190851688, 3.1064116954803467, 0.00921985786408186, -3.0223348140716553, -0.00515500595793128, -0.00777791254222393, 0.016240814700722694, -2.7307095527648926, -0.015303021296858788, -0.016663184389472008, -0.0023414387833327055, 3.457139015197754, -0.3234110474586487, 0.008839751593768597, 3.1163320541381836, 0.014738854952156544, 1.5258516073226929, 0.01116908062249422, 3.1885063648223877, -0.014704492874443531, 0.003708824049681425, -0.0028669857420027256, -0.003345071105286479, -0.008816109038889408, 0.013451888225972652, 0.006346621084958315, -0.006661770865321159, 0.011944092810153961], [0.0263045821338892, 0.024299750104546547, -0.014822731725871563, 0.033790163695812225, 0.016303226351737976, -0.011745790019631386, -0.028071822598576546, 0.0111160296946764, -0.014456717297434807, -0.015804145485162735, -0.01467022206634283, -0.011321806348860264, 0.029414597898721695, 0.018202362582087517, -0.015376213937997818, -0.009639452211558819, -0.012634366750717163, 0.02317488193511963, 0.01950238272547722, -0.012728318572044373, -0.03010863997042179, 0.011949747800827026, -0.013563510030508041, 0.012673595920205116, -0.010051091201603413, 0.019999060779809952, 0.016407610848546028, 0.013133494183421135, -0.012428629212081432, -1.278419852256775, -0.016169952228665352, -0.002943091094493866, 0.010927350260317326, 4.706698894500732, 0.013974646106362343, 0.012663322500884533, 0.014870347455143929, -5.252257823944092, -0.011615341529250145, -3.847757577896118, 0.006530947983264923, -0.014264795929193497, -0.010997490026056767, -3.5841281414031982, -0.010970454663038254, -0.01856940984725952, -1.9087337255477905, 3.9982669353485107, -2.966801643371582, 0.01394813135266304, -3.7177109718322754, 1.809492826461792, 3.281956911087036, 0.024567142128944397, -3.7947540283203125, 0.015037864446640015, 0.005587984342128038, 0.009485782124102116, 0.008279689587652683, -0.014206994324922562, -0.008398574776947498, 0.023504413664340973, 0.02998928166925907, -0.00853638257831335], [0.006395479664206505, -0.0023816456086933613, 0.004733698908239603, 0.0064072031527757645, -0.0037480166647583246, -0.002802534494549036, -0.002914231503382325, 0.005367177538573742, -0.003576447255909443, 0.0017834322061389685, 0.00209501339122653, -0.004942068364471197, -0.0029611035715788603, -0.003687247633934021, -0.004448551684617996, -0.003347957506775856, -0.0012730826856568456, 0.0026441446971148252, 0.0029529898893088102, -0.0039953263476490974, -0.0043689594604074955, -0.002660976955667138, -0.0025316495448350906, 0.003001145552843809, 0.003114242572337389, -0.003367216559126973, 0.002941607963293791, -0.002417478244751692, -0.009245656430721283, -0.004047499969601631, 0.009085838682949543, 0.00174809864256531, 0.01104633416980505, -3.435981512069702, 0.005474609322845936, 0.008776554837822914, 0.0028461238835006952, 3.1236395835876465, -0.006309472024440765, 2.4812235832214355, 0.007712870836257935, 0.003287075785920024, 0.010018279775977135, -2.3937649726867676, 0.008028880693018436, 0.013234291225671768, 0.003828270360827446, -3.534666061401367, -0.6690177917480469, -0.004645560402423143, -3.1504526138305664, -0.0093631437048316, -1.8961927890777588, 0.009571604430675507, -3.296921491622925, -0.0014188636559993029, 0.0008232667460106313, -0.0025296995881944895, -0.0035979985259473324, -0.0050085666589438915, 0.006832343991845846, 0.0022740820422768593, 0.004558292683213949, 0.006951499730348587], [-0.009394899010658264, -0.0027662059292197227, -0.006852640304714441, -0.00893938448280096, -0.002627736423164606, -0.0048080673441290855, -0.004506572149693966, 0.004843974951654673, -0.004986914340406656, -0.003997535444796085, 0.00273683643899858, 0.0029547736048698425, 0.00755550991743803, 0.005078209098428488, -0.0012832371285185218, -0.0060371048748493195, 0.003983873408287764, -0.007400745991617441, -0.0034728534519672394, 0.007101244293153286, -0.010857073590159416, 0.003195140976458788, -0.011479456909000874, 0.016288472339510918, 0.005767438095062971, -0.0034548568073660135, -0.004778804257512093, 0.004513416439294815, 0.13898208737373352, 1.1861435174942017, 0.20932190120220184, 0.18853123486042023, -0.17454960942268372, -7.411242961883545, -0.21614353358745575, 0.06312082707881927, 0.19307492673397064, 8.401209831237793, -0.13091430068016052, 5.11361026763916, 0.21987952291965485, -0.26317745447158813, -0.20698201656341553, -5.0683135986328125, 0.11048684269189835, -0.168070450425148, 1.8730285167694092, -6.597968101501465, -3.638631582260132, 0.2635430693626404, -5.559963226318359, -1.9082075357437134, 4.371234893798828, -0.17144277691841125, 6.02643346786499, 0.2361735701560974, 0.04103294014930725, -0.022517520934343338, 0.03922199457883835, -0.02460937760770321, 0.08269520103931427, -0.07795798778533936, 0.07200025767087936, 0.052102796733379364], [-0.005011595319956541, 0.002826506504788995, -0.0037503689527511597, -0.005103511735796928, 0.0032050441950559616, -0.00192172487732023, -0.002184620127081871, -0.004011665936559439, -0.004038033075630665, 0.0023772278800606728, 0.004327604081481695, -0.004404726438224316, 0.003945702686905861, 0.0031286547891795635, 0.0007950475555844605, -0.002070116810500622, 0.0030187363736331463, -0.0011473558843135834, -0.003478757804259658, 0.003763753455132246, -0.00406973622739315, -0.0028647819999605417, 0.005147193558514118, 0.0009922414319589734, -0.003999065607786179, -0.0011801556684076786, -0.0015572569100186229, 0.001082335482351482, 0.0031576096080243587, 0.003888671286404133, 0.005273780785501003, -0.0027150188107043505, -0.008887985721230507, -4.285892486572266, -0.005872351583093405, 0.008098188787698746, 0.002925101201981306, -4.526749610900879, -0.003909453749656677, -2.4982476234436035, 0.0038393079303205013, 0.003502484643831849, 0.009445597417652607, 2.4240336418151855, -0.00799800455570221, -0.009954574517905712, -0.003616501111537218, 3.8158462047576904, 0.8719666004180908, 0.004000104498118162, -3.1243112087249756, 0.012319873087108135, 1.6534337997436523, -0.00762584526091814, 3.314410448074341, 0.0028747590258717537, -0.0024815259966999292, 0.0009266298147849739, -0.0040525393560528755, -0.0055531649850308895, -0.010627427138388157, -0.0035092716570943594, -0.006011728197336197, 0.004502321593463421], [0.0049889287911355495, -0.003517764387652278, -0.004322805441915989, -0.0071653081104159355, 0.004840598441660404, -0.004165894351899624, 0.0062484946101903915, -0.0046515739522874355, 0.00471144262701273, 0.00389135186560452, 0.002094097202643752, -0.00305445259436965, -0.00303164916113019, 0.0030537904240190983, 0.00540007883682847, 0.0022364521864801645, -0.004655101336538792, 0.005300948861986399, 0.0035680332221090794, 0.007367563433945179, -0.0018065532203763723, -0.0051408978179097176, 0.01129249855875969, -0.005180052947252989, -0.004043578635901213, 0.0021290637087076902, 0.004087948240339756, 0.004054289776831865, 2.293656349182129, 1.7869759798049927, -1.9769506454467773, -1.9583379030227661, 1.993314504623413, -0.042433347553014755, 1.9195506572723389, 2.4773929119110107, -2.184509515762329, -0.0608585961163044, 2.021343469619751, 1.5053738355636597, 1.9177942276000977, -2.0120720863342285, 2.000180721282959, -1.540820598602295, -2.279573440551758, 2.428748846054077, 1.6965712308883667, 0.09052243083715439, 1.5516091585159302, -1.902422308921814, 0.7303511500358582, 1.6306333541870117, 1.330977201461792, 2.2018260955810547, -0.40685638785362244, -1.98183274269104, 0.30842143297195435, 0.4098074734210968, -0.26024746894836426, -0.3350837528705597, 0.16713164746761322, -0.36674627661705017, 0.32329389452934265, -0.36668241024017334], [0.007873164489865303, 0.0033380992244929075, 0.00597499031573534, -0.0016437242738902569, -0.003877522423863411, -0.0017583450535312295, 0.00462883897125721, 0.004980870056897402, 0.0025255021173506975, -0.0015367175219580531, 0.0019202829571440816, 0.001840829267166555, 0.004797315690666437, -0.0020282885525375605, 0.0011879568919539452, 0.0028780645225197077, -0.0031148844864219427, -0.00857562106102705, 0.003979221452027559, 0.004090895410627127, -0.0033474431838840246, -0.005574951879680157, -0.007033247966319323, -0.005133363883942366, -0.002783428877592087, -0.0027268659323453903, -0.0013026847736909986, 0.007854745723307133, 0.005156083032488823, -0.7660796642303467, -0.0038143324200063944, -0.003427369985729456, -0.010323654860258102, 3.6618738174438477, 0.005322362296283245, 0.007552457507699728, 0.0013742127921432257, 3.998793840408325, -0.008487568236887455, 3.264483690261841, 0.00305341393686831, 0.0049954550340771675, -0.009484084323048592, 3.1331355571746826, 0.006696865428239107, -0.011943849734961987, 1.3208304643630981, -3.2870731353759766, 2.3314177989959717, 0.011100457981228828, -3.081496238708496, 1.3205021619796753, -2.506072759628296, -0.007150493562221527, -3.1881682872772217, -0.005297472234815359, -0.005003383848816156, 0.0009330484317615628, -0.0032458556815981865, -0.003738829167559743, -0.010073482990264893, -0.0031923758797347546, -0.005620915442705154, 0.005085926502943039], [-0.0061668409034609795, 0.003495703684166074, -0.005723639857023954, -0.011505085043609142, 0.004536111373454332, 0.004934320691972971, 0.004208626691251993, -0.00682670995593071, 0.004251434467732906, -0.004198179114609957, 0.002729867585003376, -0.007304779719561338, -0.0026647679042071104, -0.0015856466488912702, 0.002366210799664259, 0.004616270307451487, -0.004933502990752459, -0.003464894136413932, 0.003469254355877638, 0.005556620657444, 0.0034058925230056047, -0.003791781608015299, -0.008179942145943642, 0.004097405355423689, 0.0028469779063016176, -0.0033536425326019526, -0.0034344743471592665, -0.0016973953461274505, 1.4764958620071411, 0.8721767663955688, -1.1551790237426758, -1.3984754085540771, 1.3554000854492188, -0.054289236664772034, -1.197301983833313, -1.601993441581726, -1.4631693363189697, 0.028048478066921234, 1.3415346145629883, 1.625428557395935, -1.256417155265808, -1.2753530740737915, 1.3515212535858154, 1.6370512247085571, 1.3796257972717285, -1.4323831796646118, 1.012643575668335, 0.2399149090051651, 1.2964421510696411, 1.2740992307662964, 1.0021119117736816, -0.9650161266326904, 1.1973917484283447, -1.3586283922195435, -0.7437150478363037, 1.4121487140655518, -0.03589928522706032, -0.026931757107377052, 0.04876898229122162, 0.013538364320993423, -0.07415761798620224, -0.048731472343206406, -0.03470716252923012, 0.033375248312950134], [-0.004651361610740423, -0.0031840938609093428, 0.0051786708645522594, 0.00820092111825943, 0.004096406977623701, -0.0031117352191358805, 0.00292215496301651, -0.004792411811649799, -0.001674346742220223, -0.002771537285298109, -0.004679395351558924, 0.003596620401367545, 0.006901973858475685, 0.002378597389906645, 0.0048472220078110695, -0.0013715832028537989, -0.002653552684932947, 0.005172880832105875, -0.004764041397720575, -0.0032366509549319744, 0.003434599842876196, 0.0038547057192772627, -0.004021019209176302, -0.005029695574194193, 0.0025030276738107204, 0.005345158278942108, 0.001881333882920444, -0.0011188490316271782, 0.008614244870841503, 0.004244460724294186, -0.016859857365489006, 0.004778082948178053, -0.008369291201233864, -3.1124250888824463, -0.008697442710399628, 0.010392663069069386, -0.000948524393606931, 2.8364787101745605, -0.007415881380438805, -2.574640989303589, 0.0053419554606080055, 0.0057290601544082165, 0.015574175864458084, -2.277764081954956, 0.014321009628474712, -0.01566241681575775, -0.0025138896889984608, 3.3157639503479004, -0.31183868646621704, 0.007811909541487694, -2.987058162689209, -0.007778461091220379, 1.2468504905700684, 0.011192885227501392, -3.0522069931030273, -0.012666180729866028, 0.002288484713062644, 0.0013819981832057238, 0.0029910532757639885, -0.010869674384593964, 0.013863783329725266, -0.008499168790876865, 0.004340685438364744, -0.006256464868783951], [0.006409475114196539, 0.005900832824409008, 0.005452703218907118, 0.00805620476603508, -0.005826025269925594, -0.004215726163238287, 0.003915315959602594, 0.004904202651232481, 0.003683001734316349, 0.0017564842710271478, 0.00298397452570498, -0.008281371556222439, 0.006024843547493219, -0.005997776985168457, -0.00528537854552269, -0.006100130267441273, 0.0050997426733374596, -0.005342875607311726, 0.005078461021184921, -0.005183651577681303, 0.0021316418424248695, 0.004311246797442436, -0.007452696096152067, 0.003554957453161478, 0.0045824721455574036, -0.004852346610277891, 0.0053790113888680935, -0.003708776319399476, -2.4300718307495117, -2.1827359199523926, -2.2255170345306396, 2.1937475204467773, 2.3715221881866455, 0.02742157131433487, -2.1609013080596924, 2.676464080810547, 2.2989680767059326, 0.032224155962467194, 2.3077409267425537, -1.4262378215789795, -2.1519362926483154, -2.1495521068573, 2.2838640213012695, 1.481894612312317, 2.4452638626098633, -2.5316901206970215, 1.854938268661499, 0.063951276242733, 1.5549297332763672, 2.207038402557373, 0.5599154233932495, -1.878794550895691, 1.32853102684021, -2.296579122543335, 0.24546726047992706, 2.2105026245117188, 0.5988001227378845, -0.7067336440086365, -0.3698526620864868, -0.7933530211448669, -0.544863760471344, -0.5677165389060974, 0.6223291158676147, 0.7169765830039978], [0.013523353263735771, -0.016770578920841217, -0.010277357883751392, -0.01117024663835764, 0.021580243483185768, 0.012979974038898945, 0.016546910628676414, 0.022327587008476257, 0.009538805112242699, 0.013437123037874699, 0.016732266172766685, -0.012169294990599155, -0.018327828496694565, 0.016615379601716995, 0.009523142129182816, 0.006911382544785738, -0.0217253640294075, 0.021480847150087357, -0.020135467872023582, 0.009098143316805363, -0.012156571261584759, 0.010576183907687664, 0.010790597647428513, 0.01565232314169407, 0.01104582566767931, 0.016465269029140472, 0.01246302854269743, 0.017678622156381607, 0.009730318561196327, -1.3186897039413452, -0.01779176853597164, -0.002398275537416339, 0.013004623353481293, 4.610561847686768, 0.014439567923545837, -0.01219104416668415, -0.008717548102140427, 4.9595866203308105, 0.010259894654154778, -3.8333182334899902, 0.006702175363898277, 0.014973730780184269, -0.008789535611867905, 3.5466811656951904, -0.01135166734457016, -0.020463410764932632, 1.9021044969558716, 3.9067022800445557, -3.035235643386841, 0.01161271519958973, -3.596376895904541, -1.9692505598068237, -3.271941900253296, 0.020857814699411392, 3.67142391204834, -0.01773352362215519, -0.005275856237858534, 0.004704660270363092, -0.0050516133196651936, -0.006911526434123516, 0.007848545908927917, -0.023271188139915466, 0.030518556013703346, -0.010900565423071384], [0.006398324854671955, 0.0036356307100504637, 0.0028610641602426767, -0.005230125971138477, 0.004034547600895166, -0.0017325056251138449, -0.00268720556050539, -0.002599449595436454, -0.006236768327653408, -0.004176797810941935, 0.0014007129939273, -0.0065638418309390545, -0.0031788800843060017, -0.0013429555110633373, 0.006369255017489195, -0.006495077628642321, 0.0017017715144902468, -0.0052459100261330605, 0.005937167443335056, -0.006095066666603088, -0.00858369842171669, 0.00461303535848856, -0.007787665352225304, -0.004737387411296368, -0.0025190096348524094, -0.004873037338256836, -0.0019542037043720484, -0.00206992169842124, -0.008619380183517933, -0.00511397048830986, 0.014026056975126266, 0.002514767926186323, 0.010002234019339085, -3.198347568511963, -0.005900413729250431, -0.010463978163897991, -0.0036394712515175343, -2.791555881500244, -0.011159813031554222, 2.841663360595703, 0.00625454680994153, 0.006002018693834543, 0.014624075032770634, -2.499743938446045, -0.011707576923072338, 0.012826049700379372, 0.00326987961307168, -3.1894702911376953, -0.814826250076294, -0.010426846332848072, 3.02746319770813, -0.012540103867650032, 1.735789179801941, -0.011033343151211739, -3.127612352371216, 0.011543305590748787, -0.0015188232064247131, -0.004583022091537714, 0.006654393393546343, -0.008683055639266968, -0.009852111339569092, -0.003738029859960079, -0.0060665542259812355, -0.00851541105657816], [0.006091750226914883, -0.0010817068396136165, 0.006365275010466576, -0.00489311758428812, -0.004854884464293718, 0.006077285390347242, -0.002614884404465556, 0.005451242905110121, -0.002720038639381528, -0.0020542878191918135, -0.004433842841535807, -0.0032348623499274254, 0.0019544728565961123, 0.0012796975206583738, 0.004937875084578991, -0.006663674023002386, -0.003971213940531015, -0.001298181596212089, -0.004212060943245888, 0.007439683191478252, 0.003555197501555085, -0.0013819769956171513, -0.0035646341275423765, -0.003861436853185296, -0.006903433706611395, -0.006372322328388691, 0.0034232214093208313, 0.002092215698212385, 0.00895395502448082, -0.005188761278986931, -0.013657709583640099, -0.0019412762485444546, 0.008246301673352718, 3.46709942817688, -0.006123648956418037, 0.01376875676214695, -0.003917981870472431, -3.231112241744995, -0.00846527423709631, -2.9518496990203857, -0.0030763742979615927, -0.003124181879684329, -0.016189904883503914, -2.797654628753662, -0.015480948612093925, 0.011991177685558796, 0.00404462730512023, -3.5910520553588867, -0.15737709403038025, -0.010088561102747917, 3.1981143951416016, 0.0073146214708685875, -1.407362461090088, 0.00938237551599741, -3.369765043258667, -0.012721499428153038, -0.001971480203792453, -0.0012189415283501148, 0.0060976468957960606, 0.007364918943494558, 0.01722925715148449, 0.008485076017677784, -0.00847216509282589, 0.011302740313112736], [-0.005271835718303919, 0.006744041107594967, -0.011905190534889698, 0.004624944180250168, -0.004854497034102678, 0.006629663053900003, 0.004176232498139143, -0.00298688979819417, -0.007554969284683466, -0.0025307314936071634, 0.003059415379539132, -0.004086016211658716, 0.007443983573466539, 0.005252854432910681, -0.001921201590448618, 0.00478234002366662, 0.0021117895375937223, -0.004408140201121569, 0.010482954792678356, -0.006318468134850264, -0.007548760622739792, 0.004394947551190853, 0.00862902496010065, -0.013291917741298676, -0.005959049332886934, -0.0038118974771350622, 0.0040181465446949005, -0.005405841860920191, -0.16134868562221527, 1.2300101518630981, -0.19041556119918823, -0.21464455127716064, -0.16138015687465668, -6.74845027923584, 0.2077895700931549, -0.021477891132235527, -0.13513344526290894, -7.752076625823975, -0.13635767996311188, -4.943833351135254, -0.1509775072336197, -0.20953765511512756, -0.22378641366958618, -4.732546329498291, -0.08435431867837906, -0.13716855645179749, -1.892217993736267, -5.928293704986572, 3.3862948417663574, 0.2650313675403595, 5.05514669418335, -1.8727762699127197, -4.1238884925842285, -0.19800719618797302, -5.525152206420898, -0.17510293424129486, -0.04102194309234619, -0.026176970452070236, 0.03399970009922981, 0.012027638033032417, -0.07021751254796982, -0.05542335659265518, 0.0592932403087616, -0.02233857288956642], [0.004558488726615906, -0.001386886928230524, 0.0026883231475949287, -0.007437452208250761, 0.0038687896449118853, -0.0020326334051787853, 0.00613361643627286, -0.006365057080984116, -0.007240472361445427, -0.0035807108506560326, -0.0017141782445833087, -0.002596035599708557, -0.0061334832571446896, 0.002923249965533614, 0.005802108906209469, -0.0012970982352271676, 0.0017080089310184121, 0.002217006403952837, 0.00578275416046381, -0.005722645670175552, 0.0071518803015351295, -0.0033776029013097286, 0.004271729849278927, -0.0052466741763055325, -0.00177537661511451, -0.006115331314504147, -0.003787633730098605, -0.001848543994128704, -0.013337947428226471, 0.005000114906579256, -0.016111327335238457, 0.003219438251107931, 0.013622465543448925, 4.0953898429870605, -0.01155066303908825, 0.01092414278537035, 0.00295461667701602, -4.477738380432129, 0.010848515667021275, -2.7550230026245117, -0.005364914424717426, 0.004249992314726114, 0.013794932514429092, 2.7707901000976562, 0.016239196062088013, 0.017255866900086403, -0.00508747436106205, -3.4343974590301514, 1.0756741762161255, 0.009518763981759548, 2.8531551361083984, -0.009594568982720375, -1.6383966207504272, 0.015107732266187668, 3.1148035526275635, 0.015664419159293175, 0.00911716092377901, -0.004944640677422285, 0.005106186494231224, 0.00540589727461338, 0.020785599946975708, -0.003921082708984613, 0.004532294347882271, -0.004991479683667421], [0.01730491779744625, -0.03350907191634178, -0.017956983298063278, 0.02280021831393242, 0.01902969554066658, -0.017481667920947075, 0.01836654171347618, 0.014985669404268265, -0.025682883337140083, 0.014505134895443916, 0.020067919045686722, 0.014074668288230896, 0.019100474193692207, -0.011503520421683788, 0.01573670469224453, -0.01430088747292757, 0.011698535643517971, 0.02476959116756916, -0.013752760365605354, -0.012449568137526512, 0.017030812799930573, 0.012948350980877876, -0.0180944986641407, 0.023898184299468994, 0.013462074100971222, -0.024062395095825195, 0.011867322027683258, -0.018783709034323692, 0.013073530979454517, 1.3918391466140747, 0.016402358189225197, 0.003947405610233545, 0.02027488313615322, -5.349034309387207, 0.016072111204266548, 0.017129894345998764, 0.013388384133577347, -5.85941219329834, 0.012752801179885864, 4.352574825286865, -0.009907879866659641, -0.02286357246339321, 0.01877765543758869, 4.02177619934082, 0.03151749446988106, -0.01868141070008278, -1.9846330881118774, -4.626296520233154, 3.313586950302124, -0.06837405264377594, 4.021644592285156, -1.9085478782653809, -3.664708137512207, -0.021157018840312958, -4.346480369567871, 0.019284002482891083, 0.008467495441436768, -0.017483187839388847, -0.012266513891518116, 0.021980229765176773, -0.019354959949851036, -0.039288248866796494, -0.02796288952231407, 0.02006678283214569], [0.016112783923745155, -0.015362653881311417, -0.025789974257349968, 0.01657917909324169, -0.025354251265525818, 0.011414972133934498, -0.016944801434874535, -0.01728609949350357, 0.0078258216381073, -0.009679089300334454, 0.008433355018496513, 0.015740010887384415, 0.028266720473766327, -0.013643473386764526, 0.014923352748155594, -0.015881778672337532, 0.01195430662482977, 0.023795582354068756, -0.017450282350182533, -0.012933953665196896, -0.017407510429620743, 0.01238005980849266, 0.013530387543141842, -0.032425668090581894, -0.008986225351691246, 0.018452569842338562, 0.03453617915511131, -0.014857049100100994, 0.01268579252064228, -1.2842674255371094, -0.04085219278931618, 0.004409462679177523, -0.019769318401813507, 5.3752055168151855, 0.020286789163947105, 0.013845192268490791, -0.015868747606873512, 6.161409378051758, -0.011861711740493774, -4.355259895324707, 0.009710174985229969, 0.021958190947771072, -0.012364755384624004, 4.038028717041016, 0.04974384605884552, 0.018601233139634132, -2.025815725326538, -4.777791500091553, 3.280864953994751, 0.06729193031787872, -4.189745903015137, 1.8981454372406006, 3.4970710277557373, -0.02192862145602703, -4.285183429718018, -0.015930581837892532, 0.026611406356096268, -0.014707334339618683, 0.03530898690223694, 0.01442740298807621, 0.023317299783229828, 0.025886936113238335, -0.028458962216973305, 0.01300080120563507], [0.004441412631422281, 0.0030238842591643333, 0.0063798073679208755, -0.0027294736355543137, -0.00459913769736886, 0.006263594143092632, 0.0046997880563139915, 0.0018219754565507174, 0.002936943667009473, -0.003563907230272889, 0.0016393419355154037, -0.002990544540807605, 0.005074596963822842, 0.0022878560703247786, 0.00338273704983294, 0.0028526203241199255, -0.0007541598752140999, -0.004853024613112211, 0.005760061554610729, -0.0060620554722845554, -0.004101970698684454, -0.0025621375534683466, -0.00711365882307291, -0.002179147209972143, -0.005688951350748539, 0.003445819253101945, 0.002419740427285433, -0.002424918580800295, 0.006484867539256811, -1.0862922668457031, 0.006996105425059795, 0.002931708935648203, 0.005447952076792717, 4.733095169067383, 0.005232459865510464, 0.008590681478381157, 0.0027229213155806065, 5.208681583404541, -0.006922069005668163, -3.3118648529052734, -0.00662862928584218, -0.005289959255605936, 0.011318948119878769, 3.1780202388763428, 0.006632815580815077, -0.006581539753824472, -1.6540876626968384, -3.898221492767334, 2.782437562942505, 0.008319610729813576, 3.338142156600952, 1.60171639919281, -2.8566601276397705, -0.011413536965847015, 3.4884512424468994, -0.006623546592891216, 0.004479947499930859, 0.001400101580657065, 0.004475289955735207, 0.009891963563859463, 0.005771010648459196, 0.003560383804142475, 0.0035697645507752895, 0.003777228994295001], [0.003633731510490179, 0.0015921562444418669, -0.0038343509659171104, 0.0026801209896802902, -0.0016154166078194976, -0.0017828313866630197, 0.0042200698517262936, 0.0018040358554571867, -0.002238751854747534, -0.00101341656409204, -0.003575277980417013, -0.002002607798203826, -0.0035474502947181463, -0.0019395387498661876, -0.0009607897372916341, -0.001730558229610324, 0.0008813239983282983, 0.0035488465800881386, -0.0037484809290617704, -0.0044397469609975815, -0.002738918410614133, -0.002191424835473299, -0.007358351722359657, -0.0026898374781012535, -0.0038547073490917683, 0.007722500711679459, -0.0024030765052884817, -0.0034845343325287104, -0.003434112761169672, 1.1679184436798096, 0.007789070717990398, -0.00455669779330492, 0.0071410429663956165, 4.6253790855407715, 0.004205944947898388, -0.006185834761708975, -0.004256874788552523, 5.194713115692139, -0.00886231753975153, -3.435274600982666, 0.0029435306787490845, -0.003180107567459345, -0.008458755910396576, -3.232192039489746, 0.006855991668999195, 0.008024244569242, 1.7052686214447021, 4.058130741119385, 2.682325839996338, 0.007017028518021107, -3.332507610321045, -1.6806974411010742, -3.072174310684204, 0.009632122702896595, 3.563326597213745, -0.00775660527870059, -0.006505240220576525, -0.00042801658855751157, 0.0024678041227161884, -0.004868122283369303, -0.00590160395950079, 0.0015797389205545187, -0.004797866567969322, 0.0052673546597361565], [-0.02888147160410881, -0.024533893913030624, 0.01473451778292656, 0.015748824924230576, 0.02827807329595089, 0.013498741202056408, 0.01851307600736618, 0.02902062050998211, 0.01162341795861721, -0.012660558335483074, -0.01187671534717083, 0.01830066367983818, 0.02023439109325409, 0.014681707136332989, 0.011641770601272583, -0.012954110279679298, 0.013546712696552277, 0.02527558244764805, -0.013643297366797924, 0.01490549836307764, -0.019466832280158997, 0.012681568041443825, -0.026822466403245926, -0.019651740789413452, 0.01175509300082922, -0.023880094289779663, 0.04126226529479027, 0.031005460768938065, -0.016257455572485924, 1.2885656356811523, -0.014587334357202053, -0.0020028287544846535, -0.011858093552291393, 5.141078948974609, -0.014776780270040035, -0.017887691035866737, 0.011059045791625977, 5.725001811981201, 0.014677558094263077, 4.239055156707764, 0.007613854017108679, 0.022061457857489586, 0.017127100378274918, 3.92148756980896, -0.011407224461436272, -0.020134612917900085, -2.0132100582122803, -4.491300106048584, -3.0871071815490723, -0.07303169369697571, -3.924746036529541, 1.980484962463379, -3.5961947441101074, 0.023209478706121445, 4.081915378570557, 0.017419610172510147, 0.02311316318809986, 0.0104367695748806, -0.015169703401625156, 0.02276972495019436, 0.012697849422693253, 0.022717438638210297, -0.028010500594973564, -0.02174854837357998], [0.008092292584478855, 0.0022060468327254057, -0.005906323902308941, -0.008231976069509983, -0.007250922732055187, -0.009241851046681404, -0.0070715900510549545, -0.004730314947664738, -0.0073942337185144424, -0.0014849203871563077, -0.002494773594662547, -0.006718474440276623, -0.004019325599074364, -0.0019528644625097513, -0.0019313442753627896, -0.0049231392331421375, 0.0024548822548240423, 0.0031944499351084232, 0.002469911938533187, -0.00556181138381362, -0.0036732428707182407, -0.0037612267769873142, -0.01092281099408865, 0.006409682333469391, -0.005013087764382362, -0.002402606653049588, -0.0025059832260012627, 0.002417096169665456, 1.0464751720428467, 0.6838359832763672, 1.0056703090667725, 1.0189104080200195, -1.1307058334350586, -0.053475093096494675, 0.9700691103935242, 1.2196805477142334, -1.1926379203796387, -0.027061471715569496, 1.1710834503173828, 1.650006651878357, -1.0171761512756348, 1.1172863245010376, 1.1259660720825195, 1.7369258403778076, -1.2669283151626587, -1.312498688697815, -0.9751017093658447, 0.4176603853702545, 1.1707385778427124, -0.8743398785591125, -1.0889946222305298, 0.8790799379348755, -1.3920828104019165, -1.045283555984497, 0.7129462361335754, -1.2089015245437622, 0.05130492523312569, -0.024053549394011497, 0.02107260376214981, -0.023738127201795578, 0.041791997849941254, -0.07302644103765488, 0.03432273492217064, -0.02735653892159462], [0.006004714872688055, 0.005541496444493532, -0.0074125612154603004, -0.007354285567998886, 0.0019820944871753454, -0.0043788934126496315, 0.0041761682368814945, -0.0061986627988517284, -0.006983262952417135, 0.002124806633219123, -0.0028650660533457994, 0.0072930362075567245, 0.011183890514075756, -0.0022194974590092897, -0.00145054142922163, -0.006562409456819296, -0.004097979515790939, 0.008396865800023079, -0.009158582426607609, 0.0065425545908510685, -0.005002123769372702, -0.0035285474732518196, 0.007767031900584698, 0.021843649446964264, 0.0039491718634963036, 0.0022842756006866693, -0.0035830738488584757, -0.004684129264205694, 0.1707102656364441, -1.2532918453216553, -0.19682666659355164, 0.2165556252002716, -0.17694732546806335, -6.822176933288574, 0.23484158515930176, 0.02764415740966797, 0.190726637840271, -7.88694429397583, -0.15254254639148712, 4.939706802368164, 0.1911364644765854, -0.24522246420383453, -0.20340444147586823, 4.721714973449707, -0.08042891323566437, -0.10054875165224075, -1.7908375263214111, -6.157262325286865, 3.3927721977233887, 0.24515852332115173, -5.0292792320251465, 1.9435831308364868, 4.148013591766357, -0.1819184422492981, -5.530477523803711, -0.1912653148174286, 0.049759045243263245, 0.026571981608867645, -0.06038714572787285, 0.010760750621557236, 0.05494135245680809, 0.05450499430298805, -0.04898097738623619, -0.038880255073308945], [0.0068960292264819145, -0.0030055539682507515, 0.0016358004650101066, 0.0027027721516788006, -0.003917964641004801, -0.0020227162167429924, 0.002608707407489419, 0.002010409953072667, -0.003299300791695714, 0.0010000349720939994, -0.001994362333789468, -0.0026181035209447145, 0.005045936908572912, 0.000925488886423409, -0.0016676898812875152, -0.002031284850090742, 0.0022456380538642406, -0.007304652128368616, -0.004006756469607353, -0.006747575476765633, 0.0056469920091331005, -0.00152109086047858, 0.004332034382969141, -0.0015652592992410064, -0.00375150004401803, 0.007628324907273054, -0.003601419972255826, 0.0016157595673575997, 0.006000318098813295, 0.607979953289032, 0.0035780740436166525, -0.0017431993037462234, -0.003542328253388405, 3.722419261932373, 0.00429634191095829, 0.007168228272348642, 0.002909653587266803, 3.7932398319244385, -0.0030728464480489492, -2.9880669116973877, -0.004406880121678114, -0.0037177575286477804, -0.008161930367350578, -2.9791922569274902, -0.004377202596515417, 0.009446928277611732, 1.1947414875030518, 3.2337563037872314, 2.1627719402313232, -0.005312760826200247, 3.111276149749756, 1.1029691696166992, 2.545548439025879, -0.008453542366623878, -2.9865448474884033, 0.004679385107010603, -0.0022775819525122643, 0.001341281458735466, -0.001246651983819902, -0.006934090051800013, 0.005152932833880186, 0.002985995262861252, 0.003225337713956833, 0.0014526582090184093], [-0.005667151417583227, -0.002357038902118802, 0.005818103905767202, 0.007513579446822405, 0.005598071962594986, -0.004906482994556427, -0.004783262498676777, -0.006441571284085512, -0.002622729167342186, 0.004089674446731806, 0.005365469958633184, 0.004066644702106714, -0.004497705027461052, -0.004362303763628006, 0.000986591912806034, 0.005077812820672989, -0.004654838237911463, 0.0025752615183591843, 0.0033085811883211136, 0.00438032066449523, 0.005064530298113823, 0.005313011817634106, 0.008984126150608063, 0.008075019344687462, -0.0043283854611217976, -0.0045047905296087265, -0.00460828049108386, 0.0022343723103404045, -0.009673550724983215, 0.008392457850277424, 0.006020209286361933, 0.004265685100108385, 0.007611003238707781, -2.1600725650787354, 0.013437096029520035, 0.009994630701839924, 0.0015474323881790042, 1.6183677911758423, -0.005449380725622177, -2.611423969268799, 0.006455312017351389, 0.0070625352673232555, -0.012674964964389801, 2.3689279556274414, 0.00851818360388279, -0.01579631306231022, 0.0032660341821610928, -2.5013322830200195, -0.5699633359909058, 0.00474647618830204, 2.5348823070526123, 0.012754003517329693, -1.49996018409729, 0.008306187577545643, -2.5734314918518066, 0.004260954447090626, 0.00500650005415082, -0.002973878523334861, 0.0037711472250521183, -0.007269101217389107, 0.006232006475329399, -0.0021511747036129236, 0.0035945950075984, -0.00569215789437294], [0.6687225103378296, 0.5784608721733093, 0.5685446262359619, -0.6188963651657104, -0.6756126284599304, 0.5844043493270874, -0.6411958336830139, 0.7051745653152466, 0.5705664157867432, 0.6575331091880798, -0.5882181525230408, 0.6166681051254272, 0.6470285654067993, -0.6404029130935669, 0.5556092262268066, -0.5957756638526917, -0.5705604553222656, 0.5997903943061829, -0.5926600098609924, -0.6733404397964478, -0.6155825853347778, -0.7098195552825928, 0.6530076265335083, -0.6883658170700073, -0.5480188131332397, -0.5490147471427917, -0.5493174195289612, 0.598828136920929, 2.55798077583313, -3.778795003890991, 2.4001083374023438, -2.341543674468994, 2.399380922317505, -0.0015496962005272508, 2.4209887981414795, -2.708996295928955, 2.569563865661621, 8.306595555040985e-05, 2.518632173538208, -1.23524808883667, 2.459230899810791, 2.2798070907592773, 2.5235352516174316, -1.46450674533844, 2.502932548522949, -2.717097520828247, 3.617302894592285, -0.006290470249950886, -2.3498194217681885, 2.2863540649414062, -0.185665100812912, -3.5055623054504395, -1.5919045209884644, -2.559070348739624, -0.02314377762377262, 2.3590331077575684, -1.2959353923797607, -1.3246210813522339, -1.2830783128738403, -1.363669991493225, 1.2442409992218018, 1.24448823928833, -1.3533320426940918, -1.3768017292022705], [0.004841462709009647, 0.0027296277694404125, 0.0069884308613836765, -0.0027647241950035095, -0.0030314915347844362, -0.0017415608745068312, -0.0032799660693854094, 0.001990597927942872, -0.003796161152422428, 0.003911268897354603, -0.002118502976372838, 0.0024957021232694387, -0.00716257793828845, 0.0035831350833177567, 0.001528245978988707, 0.0014688757946714759, -0.0022758576087653637, 0.00840737670660019, 0.006091568153351545, -0.006525723729282618, -0.0044009629637002945, 0.0024188433308154345, -0.006998706609010696, -0.002776684006676078, -0.0018823730060830712, -0.0029314158018678427, 0.0018418912077322602, 0.0026321583427488804, 0.00770073477178812, 0.17605437338352203, -0.011332441121339798, -0.002495119348168373, 0.007712212856858969, 0.6156582236289978, -0.00992981344461441, -0.008931233547627926, 0.0010870611295104027, 0.19946949183940887, 0.006789862178266048, 2.319389820098877, 0.007187225390225649, -0.0071057225577533245, -0.008341662585735321, -2.1246795654296875, 0.005052667576819658, -0.012002221308648586, -0.643354594707489, 1.0739402770996094, 1.1794764995574951, -0.0073692104779183865, -1.6764395236968994, 0.5807931423187256, 1.364213228225708, 0.011588501743972301, -1.5554543733596802, 0.019052617251873016, -0.004640608094632626, -0.0014301008777692914, 0.005682972259819508, 0.00277741439640522, 0.009129291400313377, 0.0019756038673222065, 0.008284227922558784, -0.005570967681705952], [-0.009156599640846252, -0.01498683076351881, -0.019092442467808723, 0.012837818823754787, 0.01553040649741888, -0.008954525925219059, -0.014974362216889858, 0.009195389226078987, -0.009953704662621021, 0.008631669916212559, -0.015657316893339157, -0.009391902945935726, -0.011927044950425625, -0.00973996426910162, -0.005888224113732576, 0.004376662895083427, -0.008652055636048317, -0.022356167435646057, -0.00808064267039299, -0.007863187231123447, 0.01346722710877657, 0.0075224475003778934, 0.007320172619074583, 0.017451653257012367, 0.015497064217925072, -0.010853528045117855, 0.0068099237978458405, 0.011632919311523438, 0.013802348636090755, 2.2080583572387695, 0.01329971943050623, 0.002034787554293871, -0.0118406405672431, 9.062033653259277, 0.011713891290128231, -0.013224482536315918, -0.0013968085404485464, 11.627283096313477, 0.007122734561562538, 5.176074981689453, -0.004742484539747238, -0.012875957414507866, -0.010087826289236546, 5.062272071838379, -0.009647412225604057, 0.015955211594700813, 2.715320110321045, -7.576491832733154, 4.006472587585449, -0.010554395616054535, -5.749686241149902, -2.7609493732452393, 4.4149651527404785, 0.016433829441666603, 6.375685214996338, -0.013095277361571789, 0.0060456846840679646, -0.00515693100169301, -0.005497156176716089, 0.00782544631510973, -0.0065177930518984795, 0.008535492233932018, -0.007117219269275665, -0.005356420297175646], [0.0025283030699938536, -0.004663486499339342, 0.006148201413452625, -0.003544695908203721, -0.0035883982200175524, 0.0034489512909203768, 0.0026639215648174286, 0.004501968156546354, -0.003499280894175172, 0.0017682374455034733, -0.0009448691853322089, 0.002626692643389106, -0.003517750883474946, -0.006107046734541655, -0.0027028401382267475, -0.0037898621521890163, 0.003910892177373171, -0.006574447266757488, -0.00384947145357728, 0.007424840237945318, 0.0028645212296396494, -0.001255047507584095, -0.004432719200849533, -0.005365806166082621, -0.0063360887579619884, 0.002027152804657817, -0.0033129912335425615, -0.0012646254617720842, -0.007969840429723263, -0.004005558788776398, -0.009012862108647823, -0.0027986629866063595, 0.002935999073088169, 1.21713125705719, 0.0033773949835449457, 0.004862998146563768, -0.0019251712365075946, 0.5671180486679077, -0.0013143440010026097, 2.259263753890991, 0.006402295548468828, -0.0067017944529652596, 0.00855228491127491, 2.0976345539093018, 0.0010681651765480638, 0.00693474430590868, -0.002194569678977132, -1.6404813528060913, 0.6127810478210449, 0.00314680696465075, -1.9759262800216675, 0.009547192603349686, 1.7911773920059204, -0.005397496744990349, -1.923271894454956, -0.001774954842403531, 0.003185194218531251, 0.0045284368097782135, -0.0014591271756216884, -0.009172824211418629, 0.006605435628443956, 0.0015686068218201399, 0.0008364291861653328, 0.0011540570994839072], [-0.0046117049641907215, -0.0074687134474515915, 0.011293523944914341, -0.007136825937777758, -0.0050863889046013355, 0.005376038141548634, -0.00974339060485363, -0.005954455118626356, 0.01295675989240408, 0.004326385445892811, 0.006716958712786436, -0.0050817979499697685, -0.010270277969539165, -0.008093037642538548, 0.007373036816716194, 0.004508554004132748, 0.0029874960891902447, -0.010693015530705452, 0.00928075797855854, 0.012410374358296394, -0.008266906253993511, -0.004221954382956028, -0.010449507273733616, -0.00907111819833517, 0.007709131110459566, -0.00937625952064991, 0.0026712415274232626, 0.007858692668378353, 0.13629019260406494, -0.7266301512718201, -0.18895673751831055, -0.14167699217796326, 0.22217302024364471, 0.21424344182014465, -0.12322762608528137, 0.16047701239585876, -0.13989202678203583, -0.004529970232397318, 0.15259592235088348, -1.9890286922454834, -0.24474787712097168, 0.11060190945863724, 0.2611042857170105, -1.816117525100708, -0.1915750652551651, 0.35787639021873474, -0.9200354218482971, 0.7681680917739868, 1.5271530151367188, 0.031153280287981033, -1.2331886291503906, -1.0826386213302612, 1.4865015745162964, -0.22940905392169952, 1.213215708732605, 0.2694382071495056, -0.013895010575652122, -0.010120128281414509, -0.012399575673043728, 0.008197854273021221, -0.013332786038517952, -0.018702076748013496, -0.025322571396827698, -0.02424236573278904], [-0.3626902401447296, 0.37437698245048523, -0.47110575437545776, -0.3171740472316742, -0.455642431974411, -0.40904632210731506, -0.3547431528568268, 0.3229748010635376, 0.35121092200279236, -0.42390528321266174, -0.3479951024055481, 0.40402963757514954, -0.46330446004867554, 0.3571033775806427, 0.4107232093811035, 0.4523386061191559, 0.4599359929561615, -0.39396217465400696, -0.33491307497024536, -0.4226219058036804, -0.3253518044948578, 0.4638328552246094, 0.3079332709312439, -0.30330681800842285, -0.39920178055763245, 0.38030093908309937, -0.36225399374961853, -0.39048928022384644, 2.5551514625549316, 3.60741925239563, 2.374317169189453, 2.392786741256714, 2.465236186981201, -0.0021665238309651613, -2.3254387378692627, 2.8059284687042236, 2.6058645248413086, -0.0014192060334607959, -2.488499641418457, 1.4063674211502075, 2.483247995376587, -2.3539602756500244, 2.4006123542785645, 1.4653959274291992, -2.6230506896972656, 2.8493661880493164, -3.481889247894287, -0.012060013599693775, -2.2118940353393555, -2.2729508876800537, 0.2181258350610733, 3.5098140239715576, -1.666297435760498, 2.4416213035583496, 0.025342438369989395, -2.490966558456421, -1.1302393674850464, -1.158421516418457, -1.1120586395263672, 1.1194249391555786, -0.9457934498786926, 1.137516975402832, -1.1376055479049683, 1.149093747138977], [0.004676294047385454, 0.0007730968063697219, -0.006385128013789654, -0.004366465378552675, 0.0029201426077634096, -0.0029730594251304865, 0.0021987254731357098, -0.0018107462674379349, -0.0029691806994378567, -0.003928328398615122, -0.0024774486664682627, -0.005130063276737928, 0.0017711115069687366, -0.0030123444739729166, 0.0010588264558464289, -0.0034333383664488792, 0.002202186267822981, 0.003619374241679907, -0.0026606954634189606, 0.0031907884404063225, 0.005468529183417559, 0.0032669336069375277, 0.0030681078787893057, 0.0024481876753270626, 0.0013303336454555392, -0.004734635818749666, -0.0017186675686389208, -0.0025768710765987635, -0.19014863669872284, 0.47573891282081604, -0.2622688114643097, -0.25201094150543213, 0.21457050740718842, 16.480178833007812, -0.26632726192474365, 0.18236836791038513, 0.14231322705745697, 18.59682846069336, 0.20235666632652283, -9.4674072265625, -0.21640504896640778, -0.22303980588912964, -0.2026735246181488, -9.506921768188477, -0.1654272824525833, 0.1442524492740631, 0.9469775557518005, 14.94019889831543, -3.7438910007476807, 0.14928913116455078, -11.89456844329834, -0.8842970728874207, 6.4801812171936035, -0.20558667182922363, 13.149456977844238, 0.1669737994670868, 0.00292025925591588, -0.002353691030293703, -0.003784232772886753, -0.006131566595286131, 0.0066900732927024364, 0.005265488289296627, -0.004951358772814274, -0.006426955107599497], [0.003180720377713442, 0.003585238242521882, -0.0023962119594216347, -0.006735140923410654, -0.0048566535115242004, -0.0029758845921605825, -0.0032577503006905317, -0.002692652400583029, 0.004027132410556078, 0.003486751113086939, -0.0012531261891126633, -0.0032923738472163677, -0.004050827585160732, 0.003823444712907076, -0.0012186408275738358, 0.00238229613751173, 0.0015483117895200849, 0.0024125429335981607, -0.004634519573301077, -0.006460665259510279, -0.00551422405987978, 0.0035106416326016188, 0.0029319904278963804, 0.005235777702182531, 0.0023021246306598186, 0.003337674308568239, 0.0032352779526263475, -0.002911790506914258, -0.005508110858500004, -0.00796962808817625, 0.012606662698090076, 0.002428060630336404, -0.0076607041992247105, -3.461627244949341, -0.004121584817767143, 0.006613017991185188, 0.005116922315210104, -3.492403984069824, -0.005640973802655935, 2.60007905960083, 0.006374577060341835, 0.005966902710497379, -0.011589415371418, 2.5161783695220947, 0.010137825272977352, 0.01258795615285635, 0.0013422080082818866, -3.4059934616088867, -0.8242485523223877, -0.005957928020507097, 2.898444890975952, -0.010511920787394047, 2.116926431655884, -0.009655239060521126, 3.1176068782806396, -0.0058582983911037445, 0.001707047107629478, 0.0025149830617010593, 0.0027496053371578455, -0.005207831040024757, 0.009361157193779945, -0.005645578261464834, 0.008001153357326984, -0.008533586747944355], [-0.003894094843417406, 0.010077196173369884, -0.003894717199727893, 0.006495388690382242, 0.008438832126557827, -0.0030876395758241415, -0.01141393557190895, -0.011677398346364498, -0.003166085109114647, -0.007838806137442589, 0.008009887300431728, -0.007158798631280661, 0.016812482848763466, -0.0062495507299900055, 0.01309841126203537, 0.00823754258453846, 0.009061909280717373, 0.015596161596477032, -0.010378576815128326, 0.006626641843467951, -0.010097591206431389, 0.00861379411071539, -0.005805348511785269, 0.004384109750390053, 0.0075919413939118385, -0.014577076770365238, -0.004639956168830395, -0.014029150828719139, 0.009492685087025166, 2.0418429374694824, 0.014028905890882015, 0.0018763025291264057, 0.011491537094116211, -8.956941604614258, 0.011221075430512428, -0.012789442203938961, -0.0011288258247077465, 11.465635299682617, 0.0067771621979773045, -5.109053611755371, 0.004092484246939421, -0.01245065312832594, 0.010753962211310863, -4.842607021331787, 0.01136812660843134, -0.012886214070022106, -2.7915425300598145, -7.33236026763916, -3.833585500717163, -0.011858448386192322, 5.430064678192139, -2.782963514328003, -4.497555732727051, 0.014376728795468807, 6.254775524139404, -0.019511764869093895, 0.005010892637073994, 0.005890571046620607, -0.005914193112403154, -0.005474201403558254, 0.005483345128595829, -0.008375192992389202, 0.006487667560577393, -0.0068630618043243885], [0.007325952872633934, 0.0045885201543569565, -0.005782808642834425, -0.003549557877704501, 0.007466611918061972, -0.002579521620646119, 0.005289255175739527, 0.01321294717490673, 0.004368283320218325, 0.004271382931619883, -0.004737115930765867, -0.0050851632840931416, 0.005649916362017393, 0.004686716478317976, 0.0032104195561259985, -0.002871776930987835, 0.0028266138397157192, -0.011699127964675426, 0.008444457314908504, -0.009078310802578926, 0.020553385838866234, 0.003126183757558465, -0.006518264766782522, -0.003582093631848693, -0.010909684002399445, -0.023324009031057358, -0.006724798120558262, -0.008808108977973461, -0.00818770844489336, -2.0108635425567627, 0.011957693845033646, -0.001614691922441125, 0.010164222680032253, 8.741134643554688, -0.013263718225061893, 0.015741942450404167, 0.001786613604053855, 11.367514610290527, 0.013539155013859272, -4.89715051651001, 0.0063234600238502026, -0.009851348586380482, -0.009509950876235962, -4.756590366363525, -0.0054282150231301785, 0.009970673359930515, -2.6999564170837402, 7.116948127746582, 3.746337652206421, -0.010717719793319702, 5.346717834472656, 2.7540130615234375, -4.303420066833496, -0.014533063396811485, 6.133113384246826, 0.01441209577023983, -0.004770452622324228, -0.0020356217864900827, 0.0035288301296532154, -0.00450478820130229, 0.006667479872703552, -0.004464602097868919, -0.008598331362009048, 0.008846071548759937], [-0.00873556174337864, -0.0042486232705414295, -0.0075467173010110855, -0.006520431023091078, -0.00805650558322668, -0.006623164284974337, 0.005345502402633429, -0.008209861814975739, -0.004729588516056538, 0.0011717185843735933, -0.00260990671813488, -0.005203483626246452, -0.005624276585876942, -0.003206794848665595, 0.00344694871455431, 0.005009251646697521, 0.0024550980888307095, -0.0016092750011011958, -0.0036899906117469072, -0.004985949955880642, 0.00721401022747159, 0.005063394550234079, -0.007435949519276619, -0.008747497573494911, -0.006075086072087288, -0.00703459745272994, -0.0022054011933505535, -0.0014039898524060845, 1.1843236684799194, -0.7812221050262451, -0.8687933087348938, 0.9372483491897583, -0.9087674021720886, -0.0393926203250885, -0.8739043474197388, -1.151402235031128, 0.9668775796890259, 0.01899542845785618, 0.9253467321395874, 1.846441388130188, 0.867287278175354, 0.9871113896369934, -0.9729822278022766, 1.8211369514465332, 1.067470669746399, 1.091971755027771, 0.9174059629440308, 0.5136190056800842, 1.353095531463623, -0.8950238227844238, -1.2470057010650635, -1.045641303062439, 1.444318175315857, -0.974327027797699, 0.956391453742981, 1.034979224205017, 0.005013720132410526, 0.011054071597754955, 0.01223070826381445, 0.007433469407260418, 0.021343136206269264, 0.007010553032159805, 0.00734577514231205, 0.012658048421144485], [0.006410576403141022, -0.0033150261733680964, 0.0028111115097999573, 0.005292146932333708, 0.0031769743654876947, 0.001304788514971733, 0.0029101006221026182, -0.0036621217150241137, 0.003755148034542799, 0.0031718837562948465, -0.0034244945272803307, -0.0034058380406349897, 0.0015297961654141545, -0.0017787967808544636, -0.004615148063749075, 0.001846395549364388, -0.0011321288766339421, -0.0040542432107031345, -0.001543364953249693, -0.0048250555992126465, 0.003433862468227744, -0.0008268342935480177, -0.00534520298242569, 0.003282437799498439, 0.003435815917328, 0.0015851750504225492, -0.0011515433434396982, 0.0014413823373615742, -0.0026104699354618788, -0.003333254251629114, -0.003591046668589115, -0.0009622565703466535, -0.0034092399291694164, -5.792342662811279, -0.0024086586199700832, -0.004096828866750002, -0.0037592987064272165, 6.777917861938477, 0.0023017018102109432, -3.071615219116211, 0.0031021160539239645, -0.0030148590449243784, 0.004849109798669815, 2.8443925380706787, -0.0020581497810781, 0.00742320204153657, 0.10558486729860306, -4.438816070556641, 1.5762971639633179, -0.003891972592100501, -3.4657931327819824, 0.00816136971116066, -2.3936145305633545, -0.0033880225382745266, 3.720263957977295, 0.0012406473979353905, -0.0011592382797971368, 0.0016561594093218446, 0.0016108709387481213, -0.005183968227356672, 0.007250011432915926, -0.0020874873735010624, 0.0018814835930243134, 0.0037838872522115707], [0.0067930882796645164, -0.0029234541580080986, -0.005551210138946772, 0.007681588176637888, 0.002458559349179268, -0.0048562935553491116, -0.007035332266241312, -0.0038160434924066067, -0.004384045023471117, 0.002909217495471239, 0.001402834546752274, -0.00592754315584898, 0.005002178251743317, 0.0029847347177565098, 0.004584887996315956, -0.004596184007823467, -0.0024742993991822004, -0.00265864678658545, -0.006727590225636959, -0.0041838521137833595, 0.005383073352277279, 0.0033151679672300816, -0.00605046097189188, -0.004824318457394838, -0.0034314352087676525, 0.0017641615122556686, 0.0028148184064775705, 0.0014348722761496902, -0.963580846786499, 0.7887446880340576, -0.7864301204681396, -0.7352633476257324, 0.9044512510299683, 0.09485660493373871, -0.7963650822639465, -0.8717371821403503, -0.8149899244308472, 0.01047535240650177, -0.7899246215820312, -1.7571736574172974, -0.8201090097427368, 0.7794247269630432, -0.8042286038398743, -1.8819561004638672, -0.8780561685562134, 0.9171152114868164, 0.8407355546951294, -0.5346161127090454, -1.3823202848434448, -0.6692618727684021, 1.2146034240722656, 0.9455989003181458, 1.4110159873962402, -0.7755267024040222, -1.0470962524414062, 1.0161621570587158, 0.004904153756797314, -0.00641664257273078, -0.00912970770150423, 0.011111191473901272, -0.017792770639061928, 0.01983058825135231, -0.01020586397498846, 0.014210779219865799], [-0.6246276497840881, -0.6208930015563965, 0.6163299083709717, -0.6163473129272461, -0.6215181946754456, 0.6180934309959412, 0.6185714602470398, -0.6175888776779175, 0.6220439672470093, -0.6173530220985413, -0.6159993410110474, 0.6216759085655212, 0.617000162601471, -0.6226792931556702, 0.6171982884407043, -0.618299126625061, 0.620250403881073, -0.6114295125007629, -0.6203169226646423, -0.6229254603385925, 0.611661970615387, -0.6216956973075867, 0.621277928352356, -0.623484194278717, 0.6126598715782166, -0.6153609156608582, -0.6194373369216919, -0.6151689291000366, -2.3176238536834717, 5.060017108917236, -2.0890800952911377, 2.1300265789031982, -2.1733133792877197, 16.215850830078125, 2.1385977268218994, -2.4611432552337646, 2.2674784660339355, -17.990365982055664, -2.174879550933838, 10.323960304260254, 2.1727442741394043, -2.104583263397217, -2.1269123554229736, 10.050981521606445, 2.3276641368865967, -2.44667911529541, 5.487061977386475, -15.123132705688477, 7.27833890914917, 2.0853445529937744, 13.281572341918945, -5.493581771850586, -8.411614418029785, 2.204101800918579, -13.775571823120117, 2.2098934650421143, 1.0535768270492554, 1.001226544380188, 1.0021556615829468, 1.0076230764389038, -0.9870141744613647, 1.0410995483398438, 1.0214468240737915, 1.0222162008285522], [0.0067039113491773605, 0.0010016015730798244, -0.007365708239376545, 0.010955148376524448, 0.0044003757648169994, 0.0029272749088704586, -0.006151954177767038, 0.005219328682869673, 0.003339743008837104, 0.005754516460001469, -0.005301091354340315, -0.005114151164889336, 0.005426060874015093, 0.003682557260617614, -0.0015967629151418805, -0.0016993634635582566, -0.00201432011090219, -0.0013705278979614377, -0.004216750618070364, 0.003789042355492711, 0.0028124672826379538, 0.00334234070032835, 0.005511124152690172, 0.008301998488605022, 0.002763892523944378, -0.002299202373251319, -0.003130922559648752, -0.0015292201424017549, -1.1419610977172852, 0.718826174736023, -1.0281507968902588, -1.1048680543899536, 1.0234434604644775, 0.045252569019794464, -0.9006834626197815, 1.2131236791610718, 1.1657228469848633, -0.03919421136379242, -1.028274416923523, 1.9212075471878052, 1.0158987045288086, 0.9800723791122437, 1.056252360343933, -1.8278194665908813, -1.2220947742462158, -1.3000134229660034, 0.9948568344116211, -0.7096257209777832, 1.367341160774231, -0.8186199069023132, 1.3040717840194702, 0.9729853868484497, -1.3704813718795776, -1.02785325050354, -0.9441292881965637, -1.060350775718689, -0.009697425179183483, 0.009028458967804909, -0.0072324820794165134, 0.012004499323666096, -0.019860224798321724, 0.018149476498365402, 0.011724703013896942, 0.011293466202914715], [0.002935635857284069, 0.0038442667573690414, -0.0026954803615808487, 0.007091946434229612, -0.003850910346955061, -0.0026319571770727634, 0.0029726705979555845, 0.006429864093661308, 0.0036504294257611036, 0.0017138092080131173, -0.002543857553973794, -0.003563095349818468, 0.0035926366690546274, 0.0008459177915938199, -0.002057808917015791, 0.003624560544267297, 0.0042650653049349785, 0.0012705133995041251, -0.003694606712087989, -0.005642313044518232, 0.0034563643857836723, -0.002802446484565735, 0.0034249790478497744, 0.0031775846146047115, -0.004225832875818014, 0.0038155114743858576, -0.0029321180190891027, -0.0031070499680936337, 0.005217773374170065, -0.0036973385140299797, -0.00557903666049242, -0.0039646215736866, 0.009543269872665405, -3.2842180728912354, -0.00952464435249567, -0.008133139461278915, -0.0011421238305047154, 3.2091901302337646, -0.0049148001708090305, 2.5222716331481934, -0.003914480097591877, 0.004125948529690504, -0.01363398041576147, 2.382941246032715, -0.00918436050415039, -0.00769637618213892, 0.0019509318517521024, 3.062255620956421, 0.770210325717926, 0.004613505210727453, -2.8481438159942627, -0.01558688934892416, 1.5626941919326782, -0.007681621704250574, 2.982485055923462, 0.005559381563216448, -0.004365773871541023, -0.00212600314989686, 0.0027380904648452997, -0.007964170537889004, 0.006728453561663628, -0.002412497065961361, 0.008286138996481895, -0.002623556647449732], [0.0068706669844686985, -0.006892906501889229, -0.004684645216912031, -0.010186522267758846, -0.005706639960408211, -0.008051147684454918, 0.00586745236068964, 0.006219558883458376, -0.005741997621953487, -0.0050971535965800285, 0.0062706549651920795, -0.004614143632352352, -0.008092225529253483, -0.0021684695966541767, 0.003963650204241276, 0.002564918017014861, -0.004411519039422274, 0.005816172808408737, -0.00863031204789877, 0.006590935401618481, 0.008814641274511814, 0.0052629797719419, 0.008559783920645714, 0.005009711720049381, -0.004714799579232931, 0.005743735004216433, 0.005196447484195232, -0.006861735135316849, -0.2870599925518036, 0.7606773376464844, 0.11613248288631439, 0.1376730054616928, 0.2836221754550934, 0.10484383255243301, -0.2403264343738556, -0.35911720991134644, -0.3342125415802002, -0.0045026615262031555, 0.3096618950366974, 1.9044233560562134, 0.1365496814250946, -0.22788672149181366, -0.26828503608703613, 1.8090667724609375, -0.21974514424800873, -0.3812539577484131, -0.9937237501144409, -0.5424299836158752, -1.507106065750122, -0.1737615317106247, -1.147542119026184, 1.1574028730392456, -1.6464098691940308, -0.30135583877563477, -1.0729963779449463, -0.26967653632164, -0.011115209199488163, -0.009005652740597725, 0.016634218394756317, -0.011359751224517822, -0.020177146419882774, -0.020850498229265213, 0.025738108903169632, -0.02618892677128315], [0.00940063875168562, -0.0028425841592252254, 0.009786635637283325, -0.004068587440997362, -0.004865899682044983, -0.0041549247689545155, 0.006381640676409006, 0.004334722179919481, 0.006882847752422094, 0.0035839881747961044, 0.005905111785978079, -0.002357421675696969, 0.006709266919642687, 0.0026800506748259068, -0.002588365226984024, 0.002571318531408906, -0.005556944757699966, -0.005485167261213064, -0.010547345504164696, 0.005847143940627575, 0.010021520778536797, 0.0058820839039981365, 0.011538561433553696, -0.007410186808556318, -0.006001854315400124, 0.0076195113360881805, 0.002652637893334031, -0.00916680134832859, -0.331430584192276, -0.673890233039856, -0.14602452516555786, -0.2747322916984558, -0.26248306035995483, -0.003786529414355755, -0.1579199880361557, -0.3998904228210449, -0.23694661259651184, -0.003102157963439822, 0.30780506134033203, -1.84152352809906, 0.1393432766199112, 0.2442723959684372, 0.32980862259864807, -1.8164044618606567, -0.31564655900001526, -0.2692268192768097, -1.1145352125167847, 0.6283721327781677, 1.5157525539398193, -0.22332663834095, 1.304452896118164, -1.0377426147460938, 1.4850285053253174, -0.22916840016841888, 1.1175010204315186, 0.2916801869869232, -0.009437707252800465, 0.013294732198119164, 0.033089909702539444, 0.028117423877120018, -0.015569412149488926, 0.023173995316028595, 0.021062806248664856, -0.01568642258644104], [-0.0041057635098695755, 0.0040062544867396355, 0.002789439633488655, 0.005275500472635031, -0.002640704158693552, 0.004307003226131201, -0.002151960041373968, 0.003243435872718692, 0.0023547541350126266, -0.0022252723574638367, 0.0025318569969385862, -0.004879671148955822, -0.0011285506188869476, 0.0027444553561508656, 0.0036368619184941053, -0.0018416395178064704, -0.002081510843709111, 0.0012756825890392065, 0.002496817847713828, 0.0029792492277920246, -0.0022698913235217333, 0.002371013630181551, -0.00553729385137558, -0.004073420073837042, -0.004176663234829903, 0.0036888401955366135, 0.0025714337825775146, 0.001948050339706242, -0.005463180597871542, -0.0017349516274407506, -0.006864551454782486, -0.002634715521708131, -0.004332811571657658, 5.554490089416504, 0.0026569997426122427, 0.005402117036283016, -0.0006682589882984757, -6.620420455932617, -0.005681793205440044, -2.8484251499176025, -0.00346738169901073, -0.004691074136644602, -0.007130701094865799, -2.837019205093384, -0.004311006516218185, -0.008379549719393253, 0.00442646024748683, 4.2393083572387695, -1.5081169605255127, -0.00336617068387568, 3.4091506004333496, 0.007596581242978573, -2.2515954971313477, -0.007255228701978922, -3.4484074115753174, -0.0035779718309640884, -0.0024017628747969866, 0.002167814178392291, -0.0014042562106624246, 0.005851773079484701, -0.012028452940285206, 0.002857065526768565, 0.006183625664561987, -0.0027572272811084986], [0.006642569787800312, -0.005366167984902859, 0.0052924673072993755, -0.007646810729056597, 0.0052565899677574635, -0.0048127626068890095, -0.0025507663376629353, 0.008016741834580898, 0.0013790582306683064, 0.0028364139143377542, -0.004375590942800045, -0.006498787086457014, -0.0020898538641631603, -0.0011928962776437402, -0.0022255955263972282, 0.004427524749189615, 0.0016160638770088553, 0.003091881750151515, -0.004046563059091568, -0.0036341138184070587, 0.003022951539605856, -0.004239547532051802, 0.008165228180587292, 0.004907969385385513, 0.0027155978605151176, -0.005588146857917309, -0.003925011958926916, -0.0033945629838854074, 0.24878378212451935, 1.3007138967514038, -0.3573525547981262, -0.3289629817008972, -0.3412013351917267, -14.226001739501953, 0.3305187523365021, 0.20222292840480804, 0.36011895537376404, 16.764657974243164, 0.37631136178970337, 8.047218322753906, -0.2884904444217682, 0.31371331214904785, 0.33423686027526855, 8.2431058883667, -0.38206595182418823, 0.3182939291000366, -1.7867696285247803, -12.496589660644531, -4.9846954345703125, 0.3132740259170532, 10.009440422058105, 1.7757023572921753, 6.91519021987915, 0.3192402124404907, -10.934164047241211, 0.3335552215576172, 0.004373497329652309, 0.003111277474090457, -0.007373233325779438, -0.007961418479681015, 0.013716326095163822, -0.005602155812084675, 0.011170432902872562, -0.008457665331661701], [-0.0067251198925077915, -0.003970067948102951, -0.003733513643965125, -0.002818392589688301, 0.0019125081598758698, -0.0022826071362942457, -0.0027833550702780485, -0.002720187185332179, 0.0048257834278047085, 0.0015591656556352973, 0.0009365631267428398, -0.0021201721392571926, 0.003971396945416927, -0.0020049496088176966, 0.0010964673710986972, 0.0008993416558951139, 0.0024813648778945208, 0.002364299725741148, -0.004278603009879589, 0.004608802031725645, -0.004093232564628124, 0.0010831981198862195, -0.007341254968196154, -0.004462901968508959, -0.003956958185881376, -0.002711633685976267, 0.001424536807462573, 0.0013266679598018527, 0.005966144613921642, -0.5065844058990479, -0.004772834945470095, 0.0025895906146615744, -0.005568158347159624, 6.590909957885742, 0.00866228062659502, -0.007070821709930897, -0.002340237144380808, -8.066314697265625, -0.00439035426825285, -3.86957049369812, 0.0076101296581327915, -0.0053155142813920975, 0.008521940559148788, 3.4765424728393555, 0.006912384182214737, -0.008819895796477795, 1.136875867843628, -4.975184440612793, -2.33671498298645, -0.0050871712155640125, 3.9685256481170654, -1.0853030681610107, 2.9045000076293945, -0.007686237338930368, 4.079988956451416, 0.009139125235378742, 0.0033244648948311806, -0.001911275670863688, 0.0032232722733169794, 0.005493371747434139, -0.007398101966828108, -0.0027930999640375376, 0.008413068950176239, 0.008885208517313004], [-0.4898405373096466, -0.5313512086868286, -0.4228271245956421, -0.4354062080383301, 0.39995938539505005, 0.4252844750881195, -0.40791040658950806, -0.45214053988456726, 0.5436373949050903, -0.31586310267448425, 0.5059752464294434, -0.41140639781951904, -0.38410165905952454, -0.5221341252326965, -0.5678394436836243, -0.40256017446517944, -0.5118045806884766, -0.39191967248916626, 0.5448312759399414, -0.3760646879673004, 0.4025796949863434, 0.4317969083786011, -0.5084280371665955, 0.3964558243751526, -0.4423023760318756, -0.46751144528388977, 0.3936580419540405, 0.39703381061553955, 2.650418281555176, -3.8228230476379395, -2.3852694034576416, -2.4583523273468018, 2.3936595916748047, -0.002141164382919669, -2.3919754028320312, -2.776945114135742, -2.411929130554199, 0.0010087518021464348, 2.48504638671875, -1.482789397239685, 2.3087260723114014, 2.3818960189819336, 2.316323757171631, -1.3894351720809937, -2.682952880859375, -2.743100166320801, -3.465719699859619, -0.0068502724170684814, -2.3409342765808105, 2.28893780708313, 0.21810075640678406, -3.4910902976989746, 1.6035468578338623, -2.4352495670318604, 0.0206266101449728, 2.416259765625, -1.2280552387237549, -1.1853300333023071, 1.1081864833831787, -1.1700587272644043, 1.0730167627334595, 1.056357979774475, -1.0495630502700806, -1.1883928775787354], [0.005371588282287121, 0.006063112989068031, 0.005014666821807623, -0.0020397761836647987, -0.0017450099112465978, -0.002405964769423008, 0.0023207056801766157, -0.004559370223432779, -0.004679631907492876, 0.0013729389756917953, -0.0022820071317255497, -0.001994060119614005, -0.003767970483750105, 0.0011702103074640036, 0.001908161211758852, 0.002830491866916418, 0.0017279674066230655, 0.0047428361140191555, -0.002917279489338398, 0.005511231254786253, 0.004432662855833769, 0.002412326168268919, 0.003707979805767536, 0.0017106554005295038, 0.0026096105575561523, 0.002474568085744977, -0.002658303128555417, 0.0033929285127669573, -0.005002845078706741, 1.1286901235580444, -0.004053485579788685, 0.0019955907482653856, -0.007089714519679546, -6.894263744354248, 0.008486519567668438, -0.004037815146148205, 0.003434936748817563, 8.694021224975586, -0.004912558943033218, 3.850104808807373, -0.0022546311374753714, 0.0036243514623492956, -0.005575203336775303, -3.9031972885131836, -0.006672218441963196, 0.006031262222677469, -1.735872745513916, -5.500951766967773, -2.6738250255584717, -0.0071892207488417625, 4.118219375610352, 1.732689380645752, 3.166093111038208, 0.006686363369226456, -4.473651885986328, -0.003988940268754959, -0.0024436586536467075, 0.0012440960854291916, 0.0042585451155900955, 0.005494166165590286, 0.0038888081908226013, 0.0031224037520587444, -0.0037551168352365494, -0.0036041138228029013], [-0.0034472064580768347, 0.004096433985978365, 0.00213274615816772, 0.006049519870430231, -0.003616609377786517, 0.0018218631157651544, 0.0018662873189896345, 0.002083907835185528, 0.0009249762515537441, 0.0024764901027083397, 0.004127912689000368, -0.003982543013989925, 0.0022439726162701845, 0.0012698598438873887, 0.0015179424080997705, 0.0008192435489036143, -0.0023144518490880728, -0.003321806900203228, -0.0021526070777326822, -0.0034940100740641356, -0.004335971549153328, -0.002766861580312252, -0.0038240167777985334, -0.001597595401108265, 0.0011386494152247906, 0.0017633625539019704, -0.0031296503730118275, -0.0029338495805859566, 0.00951786432415247, 0.005055467132478952, 0.005858309101313353, -0.0027555145788937807, -0.007696676068007946, 4.091022968292236, 0.003955425228923559, 0.0051320637576282024, -0.002464962424710393, -4.422545909881592, 0.0071486542001366615, -2.537533760070801, 0.0020276610739529133, -0.002696205163374543, 0.007463627029210329, -2.32939076423645, -0.003511773655191064, 0.011446485295891762, 0.004776079673320055, 3.3881702423095703, 1.102471947669983, 0.004334269557148218, 2.952016592025757, 0.011075153946876526, 2.1199047565460205, 0.006445057690143585, 2.9967756271362305, 0.0028740568086504936, -0.0032846287358552217, 0.0013336403062567115, 0.0013400916941463947, -0.00485032144933939, 0.0071694087237119675, -0.002085218671709299, -0.0043814517557621, -0.006076921243220568], [0.007770818192511797, -0.002709438791498542, 0.0043084691278636456, 0.009139892645180225, 0.004532399587333202, -0.00220537674613297, -0.005466183181852102, 0.004844021052122116, 0.005201795604079962, 0.003821263089776039, 0.004333288408815861, 0.006006207317113876, -0.004245880991220474, -0.0017460561357438564, -0.001701386529020965, -0.0034041726030409336, 0.006773023866117001, 0.002569457981735468, 0.007249637506902218, -0.004366926848888397, 0.0038357845041900873, -0.0036335685290396214, -0.005133169237524271, -0.0032870457507669926, -0.0029936430510133505, -0.0016770929796621203, -0.004423785954713821, -0.005011481698602438, 1.6117808818817139, 1.0556316375732422, 1.3088926076889038, -1.334425926208496, 1.439705729484558, 0.0416964553296566, 1.4433544874191284, -1.8059263229370117, -1.5947409868240356, 0.015018106438219547, -1.4741034507751465, -1.7849582433700562, -1.410688042640686, -1.4658044576644897, -1.363486886024475, 1.713011622428894, -1.7059518098831177, -1.6301279067993164, -1.2420332431793213, 0.5324586629867554, 1.462764859199524, 1.3032797574996948, -1.1008707284927368, 1.234760046005249, -1.476447582244873, -1.448641061782837, 0.9228157997131348, 1.5451468229293823, 0.006929912604391575, -0.005086406599730253, 0.006844960153102875, 0.0072049107402563095, 0.018412452191114426, 0.008848939090967178, -0.007478429935872555, 0.014050477184355259], [0.02685047872364521, -0.02414163015782833, 0.020667359232902527, 0.02160663902759552, -0.026659885421395302, 0.024317074567079544, 0.03630338981747627, -0.017177361994981766, -0.02170637808740139, -0.01918894052505493, -0.022674212232232094, 0.01677633449435234, 0.023107320070266724, 0.019152812659740448, -0.0224019605666399, 0.01857662759721279, 0.020563270896673203, 0.02814353257417679, 0.02229919843375683, -0.021797599270939827, 0.024254607036709785, -0.019617298617959023, -0.02708856202661991, 0.024423357099294662, 0.021321259438991547, -0.03446196764707565, 0.026155943050980568, -0.03296452760696411, 0.012782463803887367, -2.4653103351593018, 0.01703607477247715, 0.002804436255246401, -0.019713658839464188, -10.31098747253418, -0.015619534999132156, -0.01771426759660244, 0.013616922311484814, 13.2769193649292, -0.015195487067103386, 5.920371055603027, 0.005774557590484619, -0.015212887898087502, 0.011454526335000992, -5.7562255859375, 0.022493377327919006, 0.018639571964740753, 3.1422343254089355, -8.752825736999512, -4.4014573097229, 0.01080893725156784, -6.65169095993042, -3.17645263671875, 5.125890254974365, -0.024616669863462448, -7.480552673339844, -0.014365023002028465, 0.008849848993122578, -0.01527516357600689, 0.011270764283835888, -0.01289881207048893, 0.007497689686715603, -0.021585451439023018, 0.033033955842256546, -0.01247322279959917], [0.010999022051692009, 0.006516605615615845, 0.005519812926650047, -0.006008059252053499, -0.00547746242955327, -0.0068067400716245174, 0.007420037407428026, 0.004577156156301498, -0.005367438308894634, -0.001501507475040853, -0.0040078433230519295, 0.0038312808610498905, 0.004748936742544174, 0.00152682326734066, 0.004572775214910507, -0.003246244275942445, 0.0032757858280092478, -0.008999296464025974, -0.005458648782223463, -0.006962964776903391, -0.004526734817773104, -0.0009287440916523337, -0.008566890843212605, -0.005760334897786379, 0.006592627614736557, 0.005282310768961906, -0.004276074934750795, -0.004497679881751537, -0.5587020516395569, -0.720122754573822, -0.2815050780773163, -0.33868974447250366, 0.4123639762401581, 0.1728360652923584, -0.46508628129959106, 0.5094829797744751, -0.45919427275657654, 0.00564494589343667, 0.3666323125362396, -1.9972741603851318, -0.3826393485069275, 0.3043801188468933, -0.3838263154029846, -1.8574773073196411, 0.5414287447929382, 0.47110825777053833, -0.8661825656890869, 0.7240701913833618, -1.3677009344100952, -0.24487091600894928, -1.4287127256393433, 0.7977429628372192, -1.4914255142211914, 0.4673835039138794, -1.0352314710617065, 0.5896040797233582, -0.009103585965931416, 0.005831441376358271, 0.012188651598989964, 0.00814610905945301, -0.016564803197979927, 0.01784878969192505, -0.014615410007536411, -0.014106480404734612], [0.005431583616882563, 0.0007191702025011182, 0.003978720400482416, -0.008443247526884079, 0.0020463145337998867, -0.0010888584656640887, 0.0034957043826580048, -0.004420151934027672, -0.0037425567861646414, -0.003866998478770256, 0.0025215367786586285, -0.0030115069821476936, 0.005519929341971874, 0.0008782651275396347, 0.0028735792730003595, -0.0022633697371929884, -0.0030872952193021774, 0.0074657560326159, 0.002369674388319254, -0.00457412376999855, -0.00755486823618412, 0.0030749959405511618, 0.005801462568342686, -0.001229780027642846, 0.0013186887372285128, -0.004430519416928291, 0.0019415754359215498, -0.01030055247247219, -0.011076430790126324, -0.003254417097195983, -0.009005682542920113, 0.004389116074889898, -0.006628133822232485, 1.0829721689224243, -0.007495896425098181, -0.007164527662098408, -0.003196834120899439, 0.41175079345703125, -0.004365658853203058, 2.054673671722412, 0.007031755056232214, -0.005759869702160358, 0.00960476603358984, 1.977443814277649, 0.009991479106247425, -0.017736390233039856, -0.0011360490461811423, -1.4323712587356567, -0.8409860730171204, 0.004481559153646231, 1.8426278829574585, -0.007840391248464584, -1.3970143795013428, -0.010326014831662178, -1.7875487804412842, 0.009882285259664059, 0.003934774547815323, 0.0021526373457163572, 0.0047761513851583, -0.005383654497563839, 0.00688774511218071, -0.0019762939773499966, 0.0045736851170659065, 0.002378269098699093], [0.02392050065100193, 0.01709706149995327, 0.011286095716059208, -0.011871827766299248, 0.01752825826406479, -0.010166927240788937, -0.026835300028324127, 0.01026538573205471, -0.009914877824485302, 0.015481945127248764, 0.02056979574263096, -0.011565285734832287, -0.012485404498875141, -0.013468228280544281, -0.010429360903799534, 0.010014357976615429, -0.01146741583943367, 0.02643621899187565, 0.009012166410684586, -0.027877118438482285, -0.017106520012021065, 0.010211016982793808, -0.00896043423563242, -0.011838569305837154, 0.01959891989827156, -0.01610797829926014, 0.011636910028755665, 0.01985526643693447, 0.012567617930471897, 1.2411166429519653, 0.015238619409501553, -0.0021114940755069256, 0.008642219007015228, -0.9580782055854797, -0.012931817211210728, -0.016313929110765457, 0.008423947729170322, 0.596931517124176, 0.009871315211057663, -2.567735195159912, 0.006859546061605215, 0.015682345256209373, 0.013647624291479588, 2.4984943866729736, -0.010642039589583874, -0.013757159002125263, 1.49309504032135, 1.5302536487579346, -1.9674575328826904, 0.007539663463830948, -2.052088499069214, 1.4856306314468384, 2.194025993347168, 0.016943542286753654, 1.849153995513916, 0.014595887623727322, 0.007922828197479248, -0.009047835133969784, -0.004804077558219433, 0.009440294466912746, 0.009067630395293236, -0.020048266276717186, 0.025117598474025726, 0.00805452186614275], [0.6875044703483582, 0.7796742916107178, 0.7149969935417175, -0.7193387150764465, -0.7366500496864319, 0.7581456899642944, 0.7191025614738464, -0.7293800115585327, 0.7647653818130493, -0.777427613735199, 0.7327592968940735, 0.7067228555679321, 0.7991145849227905, 0.7103479504585266, 0.7273198962211609, 0.7430974245071411, 0.7225649356842041, -0.7935722470283508, 0.7253588438034058, -0.6903825402259827, -0.7888491153717041, -0.7581620216369629, 0.8118773102760315, 0.7412330508232117, 0.72222900390625, 0.7154124975204468, 0.8249036073684692, 0.7362743020057678, 0.39452823996543884, -2.474891185760498, 0.2915676534175873, -0.33966898918151855, -0.34317195415496826, 1.3771733045578003, 0.31978875398635864, 0.3573603332042694, 0.3208737373352051, 0.667602002620697, 0.22013874351978302, -2.6622776985168457, 0.32290542125701904, 0.30174410343170166, 0.3017246723175049, 2.754603385925293, -0.4216986894607544, -0.30996954441070557, -2.626155376434326, 1.6614022254943848, -2.4728527069091797, -0.3449772298336029, -2.2203140258789062, -2.68424654006958, 2.455012798309326, -0.3492993712425232, -2.057551383972168, -0.36863142251968384, -0.6315205097198486, -0.6738114356994629, -0.7890862822532654, -0.6978910565376282, -0.7648990750312805, 0.6983786821365356, -0.7073074579238892, 0.6424607038497925], [-0.02378053404390812, 0.0067956894636154175, -0.038414835929870605, -0.009314154274761677, -0.10436112433671951, 0.007353017572313547, -0.06538644433021545, -0.015381861478090286, 0.02918940968811512, 0.0020293020643293858, 0.0860845074057579, -0.07227382063865662, -0.06682617217302322, 0.08092864602804184, -0.010243818163871765, 0.007457142695784569, 0.1324695199728012, -0.08577194064855576, -0.026820890605449677, 0.03530844300985336, 0.02152498997747898, -0.06668714433908463, -0.05982310324907303, 0.08107109367847443, -0.05427952855825424, 0.0663531944155693, -0.0784117728471756, -0.04921390116214752, -0.25547510385513306, -1.2522908449172974, 0.3593183755874634, 0.3645685911178589, 0.3151101768016815, -2.454284906387329, 0.3089343011379242, 0.2831622362136841, 0.31786924600601196, -2.157104253768921, 0.29952192306518555, 2.975240468978882, 0.3417636752128601, -0.3917984068393707, 0.3440283536911011, -2.7974369525909424, 0.25354593992233276, 0.2727973461151123, 1.2881842851638794, -2.6797266006469727, -2.1526997089385986, -0.38049808144569397, -2.701089859008789, 1.34426748752594, 2.34112286567688, 0.2993704676628113, 2.7635486125946045, -0.33004334568977356, 0.4961489140987396, -0.36015695333480835, -0.4221632778644562, 0.35293078422546387, -0.40371978282928467, -0.4230288565158844, 0.46191516518592834, -0.4638805687427521], [0.7852007150650024, -0.7496429681777954, -0.7481186389923096, 0.7524059414863586, -0.654212236404419, -0.6969480514526367, -0.649346649646759, -0.7075603604316711, -0.7603483200073242, -0.7435672879219055, -0.6945853233337402, -0.7383493781089783, 0.6668501496315002, 0.6629871726036072, 0.6794072389602661, 0.7403138875961304, 0.6675386428833008, -0.6869999766349792, 0.7831593155860901, 0.7757024765014648, -0.6501199007034302, 0.6642952561378479, 0.6646522283554077, 0.6544612050056458, 0.674705445766449, -0.8089484572410583, -0.6467019319534302, 0.658249020576477, -0.3440525531768799, 2.496795177459717, -0.2870286703109741, -0.29237422347068787, 0.27393969893455505, 1.1733602285385132, 0.2730322480201721, 0.41541481018066406, -0.31285715103149414, 0.4765031635761261, -0.26604995131492615, -2.5623106956481934, 0.36041024327278137, 0.2999880611896515, 0.280709832906723, 2.6384801864624023, 0.42490944266319275, -0.421529620885849, 2.4984638690948486, -1.697151780128479, 2.460357904434204, -0.37917184829711914, -1.949589729309082, 2.6382064819335938, -2.398925304412842, 0.32676219940185547, -1.8968042135238647, 0.33232206106185913, 0.6272934079170227, 0.6284446120262146, -0.7586002945899963, -0.6499805450439453, 0.7287976741790771, 0.6422185301780701, 0.6326181888580322, 0.6047091484069824], [0.0031379179563373327, -0.005608004052191973, 0.01081068068742752, -0.00759819196537137, 0.006528419442474842, 0.008048397488892078, -0.012988775968551636, 0.005340810865163803, -0.004083967301994562, -0.005604882724583149, -0.006470149382948875, 0.00638333847746253, -0.009849636815488338, 0.0043723625130951405, -0.004810331854969263, 0.00631258450448513, 0.005332320928573608, -0.015802472829818726, -0.010113132186233997, -0.006198176648467779, -0.008798408322036266, -0.0073534236289560795, -0.007797849364578724, 0.005986419506371021, 0.00656537851318717, -0.012755541130900383, -0.005203973967581987, -0.009714304469525814, -0.014040150679647923, 0.2577632665634155, -0.012579363770782948, 0.003839664626866579, -0.012650594115257263, 0.8714925646781921, -0.013680247589945793, -0.01595548912882805, -0.006512074265629053, -0.31819218397140503, 0.008750112727284431, -2.401968240737915, 0.005857718642801046, 0.019517958164215088, -0.01064147800207138, -2.418067455291748, 0.01311274990439415, 0.019190935418009758, 0.8500726222991943, -1.225787878036499, -1.4029103517532349, 0.008836708962917328, 1.8398618698120117, 0.8424991965293884, -1.523553729057312, 0.021501291543245316, 1.6257946491241455, 0.023772183805704117, 0.011817529797554016, -0.0031157878693193197, 0.003977417480200529, -0.009032162837684155, -0.006502965465188026, -0.008213994093239307, 0.011358325369656086, -0.006921353284269571], [0.006207969505339861, 0.005231039598584175, 0.006800653412938118, 0.0060556745156645775, -0.006657755002379417, -0.003958076238632202, 0.006049997638911009, 0.005503607448190451, -0.00496447179466486, -0.002423195168375969, -0.002174501772969961, 0.0024201059713959694, 0.005571909714490175, -0.0019146630074828863, -0.0031346576288342476, 0.0020842321682721376, 0.0035548009909689426, -0.0096620824187994, 0.004854893311858177, 0.008789842948317528, 0.003484598360955715, 0.004850453697144985, 0.00756995752453804, 0.006424953695386648, -0.0016617219662293792, 0.0014909524470567703, 0.0037231214810162783, -0.005599318537861109, 0.009815334342420101, 0.0019178626826032996, 0.006799702532589436, -0.005053781438618898, 0.013849195092916489, -1.5133618116378784, 0.006015389692038298, 0.009497802704572678, -0.0033548325300216675, 0.9698241949081421, -0.003096716944128275, 2.3368141651153564, -0.006354041863232851, 0.0063629476353526115, 0.01102207787334919, 2.509993553161621, -0.007279658690094948, -0.016396688297390938, 0.0020311002153903246, -2.037982940673828, 1.0394952297210693, -0.0055274334736168385, -2.3085498809814453, 0.01521464716643095, 1.7915211915969849, 0.008230345323681831, -2.123904228210449, -0.008397958241403103, -0.007596782874315977, -0.004195319022983313, -0.003640994895249605, -0.006052978336811066, -0.004538810346275568, -0.0011875963537022471, 0.0044429609552025795, -0.0028371016960591078], [0.7064380049705505, 0.6876164674758911, -0.7439882755279541, 0.8366797566413879, 0.7502460479736328, -0.7564078569412231, -0.8175787925720215, -0.7695184350013733, -0.6921149492263794, -0.7915663719177246, -0.6940169930458069, 0.7484840154647827, 0.7245005965232849, 0.827717125415802, -0.8122065663337708, -0.7636905908584595, 0.708217978477478, 0.7230029702186584, 0.698875367641449, 0.774922788143158, -0.8492639064788818, -0.7554113268852234, -0.720847487449646, 0.7672892212867737, -0.8359234929084778, -0.7681495547294617, -0.7163913249969482, -0.7995554208755493, 0.3051709234714508, -2.5930557250976562, -0.35393768548965454, -0.278228759765625, -0.33604350686073303, -1.311888575553894, 0.335463285446167, -0.5093246102333069, 0.3245067000389099, -0.8144001364707947, 0.34674227237701416, 2.586686134338379, -0.3768225610256195, -0.3204929530620575, -0.3062766492366791, 2.75020170211792, 0.313959002494812, 0.3759673237800598, -2.497959613800049, -1.7715195417404175, -2.6097238063812256, -0.3997112214565277, 2.2417633533477783, -2.6160988807678223, -2.506131887435913, -0.3352428078651428, -1.9441933631896973, 0.39169740676879883, 0.6715365052223206, 0.6890420317649841, -0.7816385626792908, -0.6917023658752441, 0.7554047107696533, -0.6793906688690186, 0.696133017539978, 0.6484519243240356], [0.004372928757220507, -0.021204594522714615, -0.007846011780202389, 0.009994160383939743, -0.003645975375548005, 0.004512327257543802, 0.021825045347213745, 0.004370400216430426, 0.007092742715030909, -0.001398896099999547, -0.0013885459629818797, 0.0052030449733138084, -0.01014766190201044, 0.0048517207615077496, 0.0013972870074212551, -0.0017323727952316403, 0.0027964829932898283, 0.004526620265096426, 0.005439482629299164, 0.010572543367743492, -0.01284368522465229, -0.0024895761162042618, -0.007644203025847673, -0.033627063035964966, 0.004597660154104233, 0.0018884699093177915, 0.003056876128539443, -0.0027789664454758167, 0.28498372435569763, -0.9944508671760559, 0.3222882151603699, 0.3473302721977234, -0.30243417620658875, 0.47044605016708374, -0.3085891306400299, -0.3210808336734772, 0.41978517174720764, 0.020181315019726753, -0.288966566324234, 2.0804688930511475, 0.3494432270526886, 0.3120734691619873, -0.3801230788230896, -2.1725101470947266, -0.35073670744895935, -0.3145724833011627, -1.331801414489746, 0.9177514314651489, -1.6172363758087158, 0.3248090147972107, 1.5155476331710815, -1.1868045330047607, -1.8905130624771118, -0.3549651801586151, 1.3764369487762451, -0.412092000246048, -0.19830098748207092, -0.09379518777132034, -0.12735870480537415, -0.03321528807282448, 0.0872618705034256, 0.08605369180440903, 0.1513727754354477, -0.18306343257427216]], "PMT_dist_dense_3/bias:0": [-0.00969454925507307], "PMT_dist_dense_3/kernel:0": [[0.25131821632385254], [0.2533920407295227], [-0.2507694363594055], [0.2544201612472534], [0.25353294610977173], [-0.25462979078292847], [0.25164470076560974], [0.2541567087173462], [-0.25151219964027405], [-0.25415825843811035], [0.25488728284835815], [0.25698941946029663], [-0.25563332438468933], [0.25375261902809143], [0.25380030274391174], [0.2547343373298645], [-0.2543952763080597], [0.2527812719345093], [-0.25770264863967896], [0.2547815144062042], [0.25294023752212524], [-0.25242215394973755], [-0.2529018223285675], [0.2527393698692322], [-0.2552383840084076], [0.24793125689029694], [-0.2507752776145935], [0.25431928038597107], [-0.04974714294075966], [0.023013852536678314], [-0.05417034402489662], [-0.05239596962928772], [-0.05217941477894783], [-0.010788609273731709], [0.05235208943486214], [-0.047247499227523804], [-0.04998820275068283], [-0.010189158841967583], [-0.05190074071288109], [-0.01139811985194683], [0.052271489053964615], [0.05265021324157715], [-0.05038243532180786], [0.011775997467339039], [0.04908740147948265], [0.047130633145570755], [0.020094631239771843], [0.01084265485405922], [0.015378575772047043], [0.05506068468093872], [0.011786346323788166], [0.020792121067643166], [-0.013493704609572887], [-0.049912527203559875], [-0.011806403286755085], [-0.05036093667149544], [-0.13016338646411896], [-0.13566140830516815], [0.13550181686878204], [-0.13491852581501007], [0.1364000141620636], [0.1335306018590927], [-0.13360176980495453], [0.1311269998550415]], "PMT_wall_dense_1/bias:0": [-0.013263837434351444, -0.01834552362561226, 0.130152627825737, 0.0765882283449173, 0.09698900580406189, -0.009590365923941135, 0.028036143630743027, 0.11275290697813034, -0.023029739037156105, -0.017031501978635788, 0.026416542008519173, 0.04861575365066528, -0.003268013009801507, 0.11706094443798065, 0.10777927935123444, -0.018052512779831886, -0.010811278596520424, 0.09021735191345215, 0.035749174654483795, -0.012817010283470154, -0.019690096378326416, -0.009985354728996754, -0.013467936776578426, -0.013391122221946716, -0.03549375385046005, -0.01357656717300415, 0.04249144718050957, -0.015934720635414124, 0.03438364714384079, 0.02509349025785923, 0.07414823770523071, -0.020075270906090736, 0.010958883911371231, -0.006255854852497578, 0.11020691692829132, 0.02191931940615177, 0.02879629284143448, 0.008563919924199581, -0.012190770357847214, 0.03317137807607651, 0.014224585145711899, -0.005298833828419447, -0.0003252312308177352, -0.004762447904795408, 0.005579513963311911, 0.036105673760175705, 0.022834857925772667, 0.034794554114341736, 0.09488728642463684, 0.04014508053660393, -0.0017330270493403077, 0.02970375493168831, -0.0163760744035244, 0.005994465667754412, 0.0059812795370817184, 0.032855939120054245, 0.0007261979044415057, 0.09190741181373596, 0.09091633558273315, 0.01456786785274744, 0.0866616889834404, 0.00266257137991488, 0.09435497969388962, 0.09208609163761139], "PMT_wall_dense_1/kernel:0": [[-0.12374848872423172, 0.462636798620224, -0.10485433042049408, 0.06502793729305267, 0.08014170825481415, -0.3351339101791382, 0.09814531356096268, -0.09120894223451614, 0.4767815172672272, -0.44496360421180725, -0.10573950409889221, -0.054289333522319794, -0.15055599808692932, -0.0953207015991211, -0.08872378617525101, 0.4549817740917206, -0.3373749852180481, 0.07608219236135483, -0.1190309152007103, -0.11008651554584503, -0.5080238580703735, 0.2001264989376068, 0.436266154050827, 0.32930442690849304, -0.5950780510902405, 0.10013534873723984, -0.08373820036649704, 0.10053561627864838, 0.1462431102991104, 0.2587272822856903, 0.08394477516412735, -0.44852861762046814, -0.2728515863418579, -0.3601338565349579, 0.07571069896221161, 0.2070370763540268, -0.12730930745601654, 0.28140655159950256, -0.41528576612472534, 0.10919379442930222, -0.22009199857711792, -0.38811904191970825, 0.3713139593601227, 0.37181851267814636, 0.2211553305387497, -0.20100541412830353, 0.18485403060913086, -0.07710520178079605, -0.06648650020360947, -0.13130132853984833, -0.31155332922935486, -0.13345246016979218, -0.35569602251052856, 0.25444063544273376, -0.2281917929649353, 0.1844874769449234, 0.32113659381866455, -0.09019137918949127, 0.04870693013072014, 0.2957211136817932, -0.07703480869531631, 0.30451706051826477, -0.0818326398730278, -0.07651861011981964], [-0.12684060633182526, 0.4560825526714325, -0.09772185236215591, -0.06595534831285477, 0.07883252948522568, 0.3304178714752197, 0.0980999618768692, -0.08757127076387405, -0.47136756777763367, -0.4391319453716278, 0.10544224083423615, -0.044480688869953156, 0.14979557693004608, 0.08950670808553696, 0.08443040400743484, 0.4485379457473755, -0.33289796113967896, 0.07442214339971542, 0.11629439890384674, -0.11340384930372238, -0.500026524066925, -0.20020008087158203, -0.4286954402923584, -0.3257392644882202, -0.5890814661979675, -0.10607949644327164, -0.08078651130199432, -0.10467435419559479, -0.29744648933410645, -0.4311887323856354, -0.6175327897071838, -0.09641488641500473, 0.40670302510261536, -0.08060594648122787, 0.4523097276687622, -0.13785557448863983, -0.7561144828796387, 0.18436062335968018, -0.10503033548593521, -0.795640230178833, -0.31401801109313965, -0.27413398027420044, -0.2164505124092102, 0.18979619443416595, -0.12330512702465057, -0.59458988904953, -0.4822752773761749, -1.1373785734176636, -0.2793349325656891, 0.2363205850124359, 0.17977014183998108, 0.5857876539230347, 0.09894348680973053, -0.2209564447402954, -0.2867501676082611, -0.5324518084526062, 0.36040207743644714, -0.6769075393676758, 0.5370520949363708, 0.23821455240249634, -0.5811921954154968, -0.22993741929531097, -0.669144332408905, 0.11263418942689896]], "PMT_wall_dense_2/bias:0": [-0.03508641570806503, -0.028234511613845825, -0.032339908182621, -0.03483530133962631, -0.028174541890621185, -0.02827000990509987, -0.028050849214196205, -0.038874488323926926, -0.025803619995713234, -0.03277821093797684, -0.02529972419142723, -0.03401261568069458, -0.02735210955142975, -0.029017774388194084, -0.03372250497341156, -0.026661818847060204, 