{"PMT_dist_dense_1/bias:0": [-0.025686398148536682, 0.0066466862335801125, -0.03551509603857994, -0.03534300625324249, -0.0018989352975040674, -0.03295069932937622, -0.021944591775536537, -0.04034699127078056, -0.019123157486319542, -0.06253335624933243, -0.02960723638534546, -0.06787987053394318, 1.3589210539066698e-05, -0.06352253258228302, -0.03419271111488342, -0.024841943755745888, -0.022005686536431313, -0.04054853320121765, -0.01085643656551838, -0.033854492008686066, -0.03132752701640129, -0.022079046815633774, -0.02438351698219776, -0.03531457111239433, -0.06689172983169556, -0.04120424762368202, -0.030946210026741028, -0.04140728339552879, -0.10682634264230728, -0.07781791687011719, -0.06760939210653305, -0.04256407171487808, -0.09489160776138306, -0.09324758499860764, -0.07373815774917603, -0.04902666062116623, -0.069358691573143, -0.06694912910461426, -0.09180501103401184, -0.05649164319038391, -0.09262008219957352, -0.07348708808422089, -0.08889112621545792, -0.046307522803545, -0.07595010846853256, -0.08604858815670013, -0.05777259171009064, -0.0718696117401123, -0.061764977872371674, -0.09756860882043839, -0.0641837790608406, -0.05413753539323807, -0.08961154520511627, -0.0698712095618248, -0.09534266591072083, -0.05088328942656517, -0.03293738141655922, -0.05281856283545494, -0.02621912583708763, -0.05690624564886093, -0.05141298100352287, -0.04106755182147026, -0.055531490594148636, -0.07584746927022934], "PMT_dist_dense_1/kernel:0": [[0.29717814922332764, -0.1374359428882599, 0.4219539165496826, -0.3883259892463684, -0.17439235746860504, -0.35597220063209534, -0.25130975246429443, 0.43287393450737, 0.2866430878639221, -0.016694337129592896, 0.2757014334201813, -0.015515845268964767, 0.10710056126117706, -0.009405835531651974, -0.3472270667552948, 0.22958166897296906, -0.2260144203901291, 0.4439218044281006, -0.3741227388381958, -0.34559711813926697, 0.33782869577407837, 0.3104531466960907, 0.3401954472064972, 0.3611074984073639, -0.01653112843632698, 0.44104284048080444, -0.3075426518917084, -0.1061149314045906, 0.008029405027627945, 0.2137598842382431, 0.8287482857704163, -0.10434189438819885, -0.24799872934818268, -0.012167278677225113, -0.9150823354721069, 0.5584606528282166, 0.8535711765289307, 0.815761923789978, 0.20151594281196594, 0.6717529296875, 0.21615754067897797, -0.914555549621582, 0.20318825542926788, 0.5101809501647949, 0.16962867975234985, -0.18991148471832275, 0.6799507141113281, 0.8932222127914429, -0.7435771822929382, 0.01100493036210537, 0.7815203666687012, 0.62758469581604, -0.19119243323802948, 0.8592076897621155, -0.2542381286621094, 0.5517371892929077, -0.17728398740291595, -0.3742136061191559, -0.3538984954357147, 0.3569455146789551, -0.12475918233394623, 0.10414544492959976, 0.37564516067504883, 0.20815294981002808]], "PMT_dist_dense_2/bias:0": [0.02521444670855999, 0.031993649899959564, 0.02173554338514805, 0.03448320925235748, 0.024325579404830933, 0.027042986825108528, 0.02424575947225094, 0.03208224102854729, 0.02244301326572895, 0.0198520477861166, 0.021966950967907906, 0.018705444410443306, 0.028957011178135872, 0.03730178624391556, 0.0654217079281807, 0.02597844786942005, 0.020233292132616043, 0.02280261367559433, 0.03149961307644844, 0.01988433115184307, 0.02924528531730175, 0.04912180081009865, 0.023617373779416084, 0.02214709483087063, 0.03141849488019943, 0.0413372665643692, 0.008951209485530853, 0.0185014046728611, -0.12740276753902435, -0.12829715013504028, -0.09650599211454391, -0.091798335313797, -0.11406464129686356, -0.16073653101921082, -0.1395348161458969, -0.11447474360466003, -0.11136846989393234, -0.16575904190540314, -0.11210436373949051, -0.14712923765182495, -0.12893779575824738, -0.1080738827586174, -0.0948222428560257, -0.14926499128341675, -0.12688060104846954, -0.13475774228572845, -0.11843252927064896, -0.16751107573509216, -0.12217386066913605, -0.0905158668756485, -0.16102643311023712, -0.13168954849243164, -0.1626569926738739, -0.11375416070222855, -0.1409245878458023, -0.12863031029701233, 0.04116186499595642, 0.10447610169649124, 0.09747741371393204, 0.09574629366397858, 0.0717393085360527, 0.047866132110357285, 0.09203335642814636, 0.08708882331848145], "PMT_dist_dense_2/kernel:0": [[0.021935125812888145, 0.01555781438946724, -0.018090208992362022, 0.011388261802494526, 0.014600268565118313, -0.016858592629432678, 0.017145128920674324, 0.03231034800410271, -0.011807960458099842, -0.018443899229168892, 0.02935326099395752, -0.056522153317928314, 0.021560663357377052, -0.03094596602022648, 0.019750678911805153, 0.034562934190034866, -0.04925164952874184, -0.02071288973093033, -0.01765480637550354, 0.01468831766396761, -0.012574912048876286, 0.02404252626001835, 0.020137978717684746, 0.021442722529172897, 0.017031213268637657, 0.012745004147291183, 0.02106950804591179, 0.01920381188392639, -0.39593514800071716, 0.3066977858543396, -0.11663690954446793, 0.18088899552822113, 0.22470034658908844, -2.194530487060547, 0.4527132511138916, 0.1675555258989334, 0.35148343443870544, -1.8478704690933228, -0.3184865117073059, -1.2089499235153198, -0.3592192530632019, -0.2008763700723648, 0.25091755390167236, -0.9933879375457764, -0.22338257730007172, -0.723336398601532, 0.3464314341545105, -2.177471399307251, -0.5035228133201599, -0.23254865407943726, 1.8862628936767578, 0.6594784259796143, 1.7278363704681396, 0.19308385252952576, 1.8133606910705566, -0.4368193447589874, 0.22647875547409058, -0.20372450351715088, 0.08423324674367905, -0.18308758735656738, -0.27906832098960876, -0.18786749243736267, -0.1954098343849182, -0.26082953810691833], [0.011250583454966545, -0.025289388373494148, 0.012892787344753742, -0.01878175139427185, -0.0171708595007658, -0.01055382564663887, 0.00885168369859457, -0.012637313455343246, 0.017803514376282692, -0.017869390547275543, 0.00986016821116209, -0.019326219335198402, -0.011204906739294529, 0.004761748015880585, -0.018827833235263824, -0.012492851354181767, 0.009648377075791359, -0.01681625284254551, 0.019145425409078598, 0.016809452325105667, 0.01742364466190338, -0.017862852662801743, -0.012680068612098694, -0.014803297817707062, 0.014535900205373764, 0.017232457175850868, 0.02282426506280899, -0.015787258744239807, -0.28587934374809265, 0.32347261905670166, 0.29947057366371155, -0.1091763898730278, -0.09066897630691528, 0.9443572163581848, -0.4350365400314331, 0.13215497136116028, -0.17765940725803375, -0.7493649125099182, 0.20491908490657806, -0.6186554431915283, -0.23214462399482727, -0.16073016822338104, -0.148417130112648, 0.4729829430580139, 0.18330815434455872, 0.3774981200695038, -0.24521760642528534, -0.8543862104415894, 0.28780609369277954, -0.1420123279094696, 0.7659889459609985, 0.27941879630088806, -0.747137188911438, -0.1998634785413742, 0.7122037410736084, 0.39233455061912537, 0.01907743327319622, -0.03003103844821453, -0.007277990225702524, -0.011502173729240894, -0.009024194441735744, 0.004812959581613541, -0.015662405639886856, 0.0028716973029077053], [-0.029171202331781387, 0.023127246648073196, -0.026886383071541786, 0.051956918090581894, 0.014549926854670048, 0.09010286629199982, -0.010995463468134403, 0.01644110679626465, -0.10896976292133331, 0.014857110567390919, 0.09809340536594391, -0.013828004710376263, 0.06806117296218872, -0.01187180820852518, 0.012080899439752102, 0.015172546729445457, 0.018277114257216454, -0.08285820484161377, 0.0996963381767273, 0.02770993486046791, -0.0386306457221508, -0.012546852231025696, -0.010578570887446404, -0.04057447984814644, -0.09431878477334976, 0.0043794624507427216, -0.07407446205615997, -0.05236479640007019, 0.46715253591537476, -0.2993110418319702, 0.17187950015068054, -0.22081682085990906, -0.2793768644332886, -1.9845842123031616, -0.4816409647464752, 0.1734725832939148, -0.29104718565940857, -1.8170456886291504, -0.23738335072994232, -1.1064894199371338, 0.3769865334033966, 0.3208254277706146, -0.1557391881942749, -0.9233813881874084, 0.45156824588775635, -0.7422143816947937, -0.45815229415893555, -1.9642220735549927, -0.5272889137268066, 0.2036888152360916, 1.763540267944336, -0.8092465400695801, -1.6955944299697876, -0.2740398049354553, 1.8833807706832886, -0.46266183257102966, 0.1952378749847412, -0.14272350072860718, 0.12210803478956223, -0.11597108840942383, 0.048598311841487885, -0.16820533573627472, 0.061446815729141235, -0.10879611223936081], [0.05953448265790939, -0.15608355402946472, 0.15090978145599365, 0.1291830688714981, 0.01584639400243759, -0.12672699987888336, -0.026360616087913513, 0.01603810302913189, -0.01741793379187584, -0.006032041739672422, -0.01365133561193943, -0.07579279690980911, -0.08310692012310028, 0.11175855994224548, 0.034544557332992554, -0.07103753089904785, -0.013409297913312912, 0.01661301776766777, 0.03636886179447174, 0.021489158272743225, -0.01020283717662096, -0.019378164783120155, 0.04540414363145828, 0.10063938051462173, -0.048795975744724274, -0.08514836430549622, 0.09143329411745071, 0.017424726858735085, -0.22011816501617432, 0.36422646045684814, -0.22136414051055908, 0.25306054949760437, -0.21952366828918457, 1.8725450038909912, 0.5492495894432068, 0.30534592270851135, 0.38687053322792053, -1.4748727083206177, 0.24236617982387543, 1.0886588096618652, -0.2697070837020874, 0.33297762274742126, -0.14910879731178284, -0.7630892992019653, -0.38829031586647034, -0.5847283601760864, -0.33432525396347046, 1.8080172538757324, 0.3866460621356964, 0.08119271695613861, 1.5465294122695923, -0.7243557572364807, -1.5829941034317017, 0.1453290432691574, 1.6291993856430054, -0.4632166922092438, 0.1063564196228981, -0.19768565893173218, -0.17414088547229767, -0.13081976771354675, -0.17150446772575378, -0.20890885591506958, 0.1829056590795517, 0.1453816145658493], [0.012053774669766426, -0.024621302261948586, -0.012936458922922611, 0.020341219380497932, 0.019176755100488663, -0.014093647710978985, 0.014074651524424553, -0.013061264529824257, -0.021169645711779594, 0.012388094328343868, 0.008833818137645721, -0.01589156500995159, 0.008273701183497906, -0.006432431749999523, 0.015096965245902538, -0.010542207397520542, 0.008019166067242622, -0.012119157239794731, -0.0146555844694376, -0.007142764050513506, -0.013328435830771923, 0.01371673308312893, -0.021319152787327766, 0.013665241189301014, 0.016565140336751938, 0.004878758452832699, -0.029596859589219093, -0.015802500769495964, -0.230989471077919, -0.20415164530277252, -0.21632422506809235, 0.061818793416023254, 0.2222173511981964, 1.1953459978103638, 0.4394981265068054, -0.24115866422653198, 0.22651684284210205, 1.0138604640960693, -0.3019254207611084, -0.74901282787323, 0.2225581407546997, -0.2680419981479645, -0.20061181485652924, -0.55967777967453, 0.3293030560016632, 0.5149052739143372, -0.19416265189647675, 1.0925723314285278, -0.3516088128089905, 0.27574893832206726, 1.084334373474121, 0.408497154712677, 0.8951635360717773, 0.2341281920671463, 0.9343629479408264, -0.41796204447746277, -0.023113014176487923, 0.025442786514759064, 0.011561437509953976, -0.005757536739110947, -0.012378879822790623, 0.006461752112954855, -0.01950676180422306, 0.00443670991808176], [-0.01863044500350952, -0.06822959333658218, -0.016218557953834534, 0.013175668194890022, 0.05802541598677635, 0.016565030440688133, 0.05271034687757492, -0.09835578501224518, -0.013594339601695538, -0.02912536822259426, 0.017400719225406647, 0.0384879931807518, 0.0662703588604927, 0.04897258058190346, 0.011066080071032047, 0.011658262461423874, -0.013612103648483753, 0.11636711657047272, -0.0719698965549469, -0.021211648359894753, -0.07956144213676453, 0.014189784415066242, 0.06121391803026199, 0.09634524583816528, 0.03344603627920151, 0.016895528882741928, 0.12652994692325592, 0.01353117823600769, -0.3059888482093811, -0.3806014060974121, 0.10116919130086899, 0.14028097689151764, 0.2736646234989166, 1.730913519859314, 0.4234464764595032, -0.29054853320121765, -0.2677254378795624, -1.5663824081420898, 0.24251645803451538, -1.0611474514007568, 0.3045390546321869, 0.2445540577173233, 0.08206162601709366, -0.7373282313346863, -0.33171576261520386, -0.6718162298202515, -0.3801702558994293, 1.7175014019012451, -0.351529598236084, -0.10882916301488876, -1.6979825496673584, 0.5979017615318298, 1.5303030014038086, 0.31144875288009644, -1.6845488548278809, -0.35937076807022095, -0.2726861536502838, -0.2648792266845703, 0.26963961124420166, -0.1522512137889862, 0.20800481736660004, 0.19283898174762726, 0.14316532015800476, -0.12146609276533127], [0.013546847738325596, -0.019906146451830864, -0.0165536031126976, -0.018581541255116463, -0.013986296951770782, -0.01651131547987461, 0.007203515153378248, 0.02202083170413971, 0.02092888578772545, 0.013172036968171597, -0.02015129290521145, 0.014706333167850971, -0.02309967577457428, 0.02883405052125454, -0.021958598867058754, 0.015479893423616886, 0.012241791002452374, 0.01858161948621273, -0.020886514335870743, 0.008214873261749744, 0.016679391264915466, 0.012770935893058777, 0.010367733426392078, 0.024807849898934364, 0.027390720322728157, -0.01458296924829483, -0.015465625561773777, 0.014165840111672878, 0.2776252329349518, -0.3962814211845398, 0.1979835033416748, 0.19084538519382477, -0.18837407231330872, -1.801032304763794, 0.5747289657592773, -0.2207774817943573, 0.21625833213329315, 1.5013198852539062, -0.34231823682785034, 1.0741353034973145, 0.26167866587638855, 0.2535943388938904, 0.14256924390792847, -0.9197596311569214, -0.19467751681804657, 0.7041709423065186, -0.18775242567062378, -2.0098717212677, -0.4604264497756958, -0.23210026323795319, -1.8257842063903809, -0.7488489151000977, -1.657037377357483, 0.21007034182548523, -1.6809664964675903, -0.26710137724876404, 0.279002845287323, 0.14839456975460052, -0.05097554996609688, -0.15167906880378723, 0.1640394926071167, -0.203897625207901, -0.1547236442565918, 0.0979064404964447], [0.13412292301654816, -0.04134167358279228, -0.0148099260404706, 0.11276725679636002, -0.129388689994812, -0.09491100162267685, -0.08601965755224228, -0.08923565596342087, -0.013716003857553005, 0.03500334173440933, -0.09599561989307404, 0.015685515478253365, -0.15196305513381958, 0.0435786247253418, -0.00890952069312334, 0.012691954150795937, 0.16703686118125916, 0.048372574150562286, -0.030993573367595673, -0.11748728156089783, -0.10234251618385315, 0.09272392839193344, 0.00971932802349329, -0.04340759292244911, 0.10149625688791275, -0.043294019997119904, -0.1619621217250824, 0.15993459522724152, -0.37930426001548767, 0.26152321696281433, 0.12726359069347382, -0.140118807554245, 0.19607724249362946, -1.651435375213623, -0.49904191493988037, 0.2841663956642151, 0.3570610582828522, 1.38554847240448, -0.349700391292572, 1.0209203958511353, -0.35158854722976685, 0.12367018312215805, -0.261568158864975, -0.8817054629325867, 0.35491320490837097, 0.5352070927619934, 0.2764078378677368, -1.673087477684021, -0.4403606653213501, 0.24582462012767792, -1.5634732246398926, -0.5834940671920776, 1.5282334089279175, 0.25300922989845276, 1.6039478778839111, 0.3790460526943207, 0.1399216651916504, 0.17054735124111176, 0.21452921628952026, -0.2701319456100464, -0.15662622451782227, -0.32260066270828247, 0.24648785591125488, -0.17179198563098907], [-0.04234301671385765, 0.013379947282373905, -0.024335961788892746, 0.013980276882648468, -0.01725420542061329, -0.031821109354496, -0.011457376182079315, -0.014476211741566658, -0.024479402229189873, -0.017704617232084274, 0.038009412586688995, -0.010948660783469677, 0.025637252256274223, -0.012303639203310013, 0.011636202223598957, 0.010531337931752205, 0.05165651813149452, -0.01956227980554104, -0.022630052641034126, -0.02808770164847374, -0.012208234518766403, 0.037733957171440125, 0.01420383807271719, 0.020735152065753937, -0.018345562741160393, -0.012318843975663185, -0.030997468158602715, -0.01003758143633604, -0.3589281737804413, 0.31754010915756226, -0.3595045208930969, -0.16352486610412598, 0.35769304633140564, -1.887630581855774, -0.508272111415863, 0.2442939728498459, 0.3443678617477417, -1.6771363019943237, -0.27981987595558167, -1.1150754690170288, 0.41795483231544495, -0.36066022515296936, -0.20713923871517181, 0.8930853605270386, -0.3577238917350769, 0.6360081434249878, 0.4334438145160675, 1.9380968809127808, 0.4514564871788025, -0.23817600309848785, -1.7446917295455933, 0.6089723706245422, 1.5603047609329224, -0.31591707468032837, 1.6038013696670532, 0.407000869512558, 0.04084646329283714, -0.033061835914850235, 0.044644877314567566, -0.03885521739721298, -0.04092932865023613, -0.03928668051958084, 0.025422388687729836, 0.04313431680202484], [0.25224506855010986, -0.1571534425020218, -0.22765818238258362, -0.35552236437797546, 0.3296218514442444, 0.19299080967903137, -0.40013787150382996, 0.3109510540962219, -0.22901612520217896, -0.24104353785514832, -0.21784576773643494, -0.18563920259475708, -0.1767350286245346, 0.2708209156990051, -0.33617478609085083, 0.3116890490055084, 0.26870283484458923, -0.34812262654304504, 0.2773256301879883, 0.17081709206104279, -0.35347092151641846, -0.3636799156665802, 0.32812586426734924, -0.2145937979221344, -0.24315528571605682, -0.3120168447494507, -0.19163767993450165, 0.21974602341651917, 0.41171061992645264, 0.3924678862094879, -0.32058385014533997, -0.2568233013153076, 0.2346039116382599, 0.48817506432533264, 0.3937644362449646, 0.42297473549842834, -0.4231356382369995, -0.3435869812965393, 0.2910296618938446, 0.5551803112030029, 0.29241353273391724, -0.34652069211006165, 0.21819579601287842, -0.5727713704109192, -0.40681445598602295, 0.5506868958473206, 0.40709221363067627, 0.46060600876808167, 0.43700098991394043, -0.2808187007904053, 0.48978543281555176, 0.46232813596725464, 0.540125846862793, 0.39360201358795166, -0.4720523953437805, -0.29490411281585693, 0.5494222044944763, 0.6699205636978149, -0.6704434156417847, -0.6457806825637817, 0.5339440703392029, -0.6594396233558655, 0.5879635214805603, -0.6385613083839417], [-0.011263355612754822, 0.0979156494140625, -0.14795461297035217, -0.03995703533291817, -0.014766785316169262, -0.035704053938388824, 0.008058509789407253, 0.01615380495786667, 0.0436251275241375, 0.06984379887580872, 0.06722420454025269, 0.06638214737176895, 0.019104037433862686, 0.12565377354621887, 0.018102876842021942, 0.12806306779384613, -0.012735354714095592, 0.030003784224390984, 0.14853185415267944, 0.04147276654839516, 0.008539572358131409, 0.14008831977844238, 0.012969003058969975, 0.01407137792557478, -0.14947660267353058, 0.015365161933004856, -0.16651669144630432, 0.06295441091060638, -0.25480568408966064, -0.27721837162971497, 0.17021548748016357, 0.22674646973609924, 0.25869354605674744, 1.4562013149261475, 0.4480181932449341, -0.12791989743709564, -0.1679227203130722, 1.451460361480713, 0.2474171221256256, 0.9899924993515015, -0.3245515823364258, 0.25793924927711487, 0.13209876418113708, 0.7612393498420715, 0.2514107823371887, -0.5059986710548401, 0.2917405962944031, -1.4731694459915161, 0.22754411399364471, 0.19401918351650238, -1.4253369569778442, 0.6338097453117371, -1.3087059259414673, 0.27154701948165894, -1.4967734813690186, 0.4172404706478119, 0.17803315818309784, 0.36161619424819946, -0.18898949027061462, -0.19925379753112793, -0.15481449663639069, -0.3305085301399231, 0.2172890603542328, -0.22206942737102509], [0.21415485441684723, -0.23251311480998993, 0.24251407384872437, -0.2281641960144043, -0.24033984541893005, -0.19851616024971008, 0.40446925163269043, 0.20104801654815674, -0.1999218463897705, -0.3499737083911896, -0.2554417848587036, -0.22146497666835785, -0.2686980068683624, 0.3419454097747803, 0.3649662137031555, 0.23158740997314453, 0.19420750439167023, 0.23395836353302002, 0.38098689913749695, -0.37013551592826843, -0.25818201899528503, -0.2936995327472687, 0.35183876752853394, -0.28774362802505493, 0.3666747808456421, -0.2937506139278412, -0.2504346966743469, -0.38908055424690247, 0.4049755930900574, 0.3403778076171875, -0.15426002442836761, -0.3669309616088867, 0.27633851766586304, 0.4213219881057739, -0.306874543428421, -0.423816055059433, -0.4185020327568054, -0.450489342212677, 0.3163943588733673, 0.5354931354522705, -0.31056660413742065, -0.2686111330986023, 0.24837790429592133, 0.5328059792518616, 0.2665805220603943, -0.3846825361251831, 0.37225648760795593, 0.4616459608078003, 0.42603594064712524, 0.3082451820373535, 0.5521546602249146, -0.45319345593452454, 0.4334929883480072, -0.2705862522125244, -0.5857996940612793, 0.39841774106025696, -0.5022987127304077, -0.6966862678527832, 0.6358434557914734, -0.5847278237342834, 0.6551073789596558, -0.5526246428489685, 0.5612863898277283, 0.6265845894813538], [-0.009018462151288986, -0.009652980603277683, -0.017715666443109512, -0.011014850810170174, 0.017848145216703415, -0.01025119237601757, -0.006426818668842316, -0.0130308223888278, 0.0180414617061615, -0.007501967716962099, 0.011379942297935486, -0.014522720128297806, -0.0066114626824855804, 0.009928401559591293, -0.01250466052442789, -0.01616116426885128, 0.007419445551931858, -0.012253674678504467, 0.017385751008987427, 0.022642159834504128, 0.014981471002101898, -0.01456475630402565, 0.02026551216840744, -0.014345583505928516, -0.007985435426235199, 0.005096438340842724, 0.02360101230442524, -0.011661279015243053, -0.24491919577121735, 0.33482545614242554, 0.13870982825756073, 0.06378068774938583, 0.2436590939760208, -1.0160094499588013, 0.48610883951187134, -0.20753832161426544, -0.23411497473716736, 0.8536811470985413, 0.1845845729112625, -0.6403594017028809, 0.3700164556503296, 0.3413489758968353, 0.2194172739982605, -0.5128700137138367, -0.3613412082195282, -0.40258193016052246, -0.23439717292785645, 1.063801646232605, -0.38066747784614563, 0.13296526670455933, -0.8395412564277649, 0.4828977882862091, 0.7791777849197388, -0.20802684128284454, -0.9302881956100464, 0.21268148720264435, -0.016363689675927162, -0.026515983045101166, -0.018786270171403885, -0.013533027842640877, -0.004936525132507086, -0.0070607163943350315, -0.019203942269086838, 0.0049701291136443615], [0.2122146636247635, 0.282195121049881, -0.23092171549797058, -0.2649167776107788, -0.28761914372444153, 0.3123944103717804, 0.33101508021354675, -0.32467663288116455, 0.214801624417305, -0.17021992802619934, 0.30482473969459534, -0.35402390360832214, -0.3839695155620575, -0.3903222978115082, 0.41215813159942627, -0.29234904050827026, -0.35700830817222595, -0.2925966680049896, 0.2472565770149231, -0.23452219367027283, 0.28672459721565247, 0.3141699731349945, 0.3068593740463257, -0.258234441280365, -0.21808232367038727, 0.29286208748817444, 0.2533775866031647, 0.2969663739204407, -0.34101682901382446, -0.40857425332069397, -0.34906086325645447, 0.2786264419555664, 0.39985212683677673, -0.4740000367164612, -0.4169243574142456, 0.4181824326515198, 0.3254307210445404, -0.3954964280128479, 0.37697678804397583, -0.536012589931488, -0.30805760622024536, -0.26586782932281494, 0.28803524374961853, 0.5464359521865845, 0.3658986985683441, -0.4422130882740021, 0.2614635229110718, -0.4416082203388214, 0.34991011023521423, 0.36254677176475525, 0.4274252653121948, -0.3797565996646881, 0.4867296516895294, -0.2896580100059509, 0.42934733629226685, 0.30475056171417236, 0.5674919486045837, -0.6764636635780334, -0.6001932621002197, -0.8120363354682922, -0.7385838031768799, -0.5896240472793579, 0.6266059875488281, 0.7075940370559692], [-0.10464026778936386, 0.16162735223770142, -0.05244677513837814, -0.16527768969535828, 0.012951484881341457, 0.049383554607629776, 0.04731263592839241, 0.030918193981051445, 0.06624213606119156, 0.1429775208234787, -0.027439100667834282, 0.032377976924180984, -0.033781323581933975, -0.10416994988918304, 0.018881889060139656, -0.01171405054628849, 0.08180908113718033, 0.081560418009758, 0.013107960112392902, -0.1163412556052208, 0.11652708798646927, -0.010977095924317837, -0.020772283896803856, -0.05902382358908653, -0.013836286962032318, -0.10530627518892288, 0.040179722011089325, 0.014660115353763103, 0.3152303397655487, -0.32609879970550537, 0.27067580819129944, -0.19600026309490204, -0.12277421355247498, 1.6629177331924438, 0.4056236743927002, 0.26453709602355957, 0.2579021453857422, 1.408637523651123, 0.18167541921138763, -1.025781512260437, 0.3456359803676605, 0.14945636689662933, -0.23747216165065765, 0.6737826466560364, -0.3254368007183075, -0.5173895955085754, 0.26950204372406006, 1.5821272134780884, -0.36861830949783325, 0.24638360738754272, -1.5225186347961426, -0.6371430158615112, -1.3916469812393188, -0.2254609316587448, 1.530165195465088, -0.29685699939727783, 0.2556629478931427, -0.2947511374950409, 0.2948361039161682, 0.3287178575992584, 0.15115611255168915, 0.22034952044487, -0.2041100561618805, 0.35536497831344604], [0.1259685754776001, 0.0798923671245575, -0.06372842937707901, 0.03687973693013191, 0.0854375958442688, 0.029133431613445282, -0.0721958726644516, -0.09411701560020447, -0.08367642760276794, -0.07891907542943954, 0.09683659672737122, 0.08266080915927887, 0.022348202764987946, -0.05375322699546814, -0.1101456955075264, -0.11772385239601135, -0.006614916492253542, 0.02047917991876602, -0.011284825392067432, 0.03785952180624008, 0.032961998134851456, 0.014801125973463058, -0.014781365171074867, 0.01378913689404726, -0.13504336774349213, 0.00889714527875185, 0.030617499724030495, -0.015333563089370728, 0.31418153643608093, -0.27569279074668884, 0.18891556560993195, 0.09399628639221191, 0.2833409905433655, -1.8061447143554688, -0.51671302318573, -0.23644869029521942, -0.23733724653720856, -1.530193567276001, 0.22021211683750153, 1.143302083015442, -0.20318876206874847, -0.25146982073783875, 0.12738019227981567, -0.7313007116317749, -0.3106549084186554, -0.6806573867797852, -0.2858451008796692, -1.770190954208374, -0.36489951610565186, -0.17167618870735168, 1.5871020555496216, 0.5330138206481934, 1.5756585597991943, 0.27311667799949646, -1.5800591707229614, 0.33273249864578247, -0.2067067176103592, -0.23512820899486542, 0.21599306166172028, -0.22143515944480896, 0.2693237364292145, 0.2668452560901642, -0.19496336579322815, -0.22476604580879211], [0.014279077760875225, -0.05917410925030708, -0.048443421721458435, 0.061952609568834305, 0.014340780675411224, 0.009340097196400166, -0.008685885928571224, -0.06018694490194321, -0.015062674880027771, 0.008626515977084637, 0.015385989099740982, 0.0134597048163414, -0.05856144428253174, -0.02064358815550804, -0.012576629407703876, -0.06468575447797775, -0.009226664900779724, 0.014359875582158566, 0.01571575738489628, -0.038529228419065475, 0.02654150314629078, 0.022597813978791237, 0.022136317566037178, -0.06719225645065308, -0.010635637678205967, 0.006134816911071539, -0.024210799485445023, -0.011619025841355324, 0.34592023491859436, -0.34023967385292053, -0.16797392070293427, 0.15450452268123627, 0.23114624619483948, 1.9305957555770874, -0.558071494102478, 0.17658036947250366, -0.298867791891098, -1.6791034936904907, 0.18410982191562653, -1.2180842161178589, 0.3435666263103485, -0.1732219010591507, 0.09111178666353226, -0.9052903652191162, -0.2638449966907501, -0.6464055180549622, 0.34703329205513, -2.0060250759124756, -0.2617534101009369, 0.24219070374965668, 1.673993468284607, 0.7103719711303711, -1.577383279800415, 0.19994479417800903, -1.67820143699646, -0.28558748960494995, -0.3362378478050232, 0.22570425271987915, 0.2813894748687744, 0.2371789813041687, 0.2891838550567627, -0.3825080096721649, -0.26827001571655273, 0.2649710178375244], [0.044498465955257416, -0.017001774162054062, 0.01764083281159401, 0.04770646616816521, -0.15885652601718903, 0.03714067488908768, -0.030915234237909317, 0.018743788823485374, 0.08697684109210968, -0.012383848428726196, -0.04471209645271301, -0.026500878855586052, 0.009513447061181068, 0.1701071411371231, -0.02054707333445549, -0.006804043892771006, 0.04785847291350365, 0.15374340116977692, 0.06830184161663055, -0.06655313074588776, 0.0112239895388484, 0.019387925043702126, 0.075676828622818, 0.11714618653059006, 0.14887945353984833, -0.09303046017885208, 0.034520674496889114, 0.15777233242988586, -0.24290458858013153, 0.32919344305992126, 0.28123900294303894, 0.08468970656394958, -0.1366301327943802, -1.589866280555725, -0.3760375678539276, -0.28480201959609985, 0.37776070833206177, -1.3970797061920166, -0.2282090038061142, -1.1535450220108032, 0.3786153495311737, -0.16657429933547974, -0.22274033725261688, -0.8583984375, -0.22393757104873657, 0.716586172580719, -0.3602519929409027, -1.5934598445892334, 0.34799623489379883, 0.14450323581695557, 1.519611120223999, -0.6087896823883057, -1.5458753108978271, 0.11249477416276932, -1.632557988166809, -0.30450308322906494, -0.17229722440242767, 0.24908311665058136, -0.17132218182086945, -0.17997147142887115, 0.13269449770450592, 0.3068881630897522, 0.25088852643966675, -0.16625671088695526], [0.0159496758133173, 0.019297750666737556, -0.014050583355128765, -0.019185662269592285, -0.013673150911927223, 0.018077317625284195, -0.012875383719801903, -0.0918864756822586, -0.04461682587862015, -0.009847183711826801, -0.015578098595142365, 0.027821671217679977, 0.0301341749727726, 0.019944848492741585, -0.026032960042357445, -0.015195396728813648, -0.021397707983851433, -0.01994638331234455, -0.013667053543031216, 0.012838369235396385, -0.02052089013159275, -0.02144164964556694, 0.021009039133787155, 0.04861084744334221, 0.01876114495098591, 0.014143994078040123, 0.028942378237843513, -0.016318384557962418, 0.37181568145751953, 0.2833970785140991, 0.21391892433166504, 0.18806634843349457, -0.2102690488100052, 1.6057510375976562, 0.4427407681941986, -0.2061242312192917, -0.36788704991340637, -1.5070762634277344, 0.4061494767665863, -1.037990689277649, -0.4809163808822632, 0.2615562677383423, -0.23666562139987946, 0.8814598321914673, 0.40630796551704407, -0.5829082727432251, -0.37286922335624695, -1.5790506601333618, 0.3802792727947235, 0.11138209700584412, 1.4561713933944702, 0.732515275478363, -1.2890890836715698, 0.21949030458927155, 1.5548312664031982, -0.3774392306804657, -0.0400921031832695, 0.023205962032079697, -0.03366350010037422, 0.02895021252334118, -0.017242416739463806, 0.033445004373788834, -0.024308331310749054, 0.02021339349448681], [0.13101139664649963, 0.06754668802022934, -0.16588473320007324, -0.013955438509583473, 0.011689823120832443, -0.009302242659032345, -0.09386757761240005, -0.11501408368349075, -0.09630665928125381, -0.013254307210445404, -0.011270295828580856, 0.055909235030412674, 0.033658504486083984, 0.13133469223976135, -0.14584460854530334, -0.06281057745218277, -0.15504449605941772, -0.021036015823483467, 0.056015774607658386, -0.14877377450466156, 0.008601556532084942, -0.019882725551724434, -0.12623144686222076, -0.10681689530611038, 0.009751393459737301, -0.09141877293586731, -0.024516547098755836, -0.1101599931716919, 0.23822416365146637, 0.36998748779296875, 0.24308201670646667, 0.20205235481262207, 0.14799915254116058, -1.6521615982055664, 0.3870120942592621, 0.22178547084331512, -0.2890203297138214, -1.323219656944275, 0.1727912873029709, 1.1118381023406982, 0.4208326041698456, -0.2959073483943939, -0.18673448264598846, 0.7387237548828125, 0.3617976903915405, -0.6663509607315063, -0.3014218509197235, -1.6410653591156006, 0.4289015233516693, 0.13604921102523804, 1.443765640258789, -0.5245382785797119, -1.4967832565307617, 0.15648266673088074, -1.621397614479065, 0.41832029819488525, 0.2812179625034332, -0.16612455248832703, -0.32482293248176575, -0.18594595789909363, -0.14197313785552979, -0.14344757795333862, -0.3194311261177063, -0.1811642050743103], [0.06876230984926224, -0.1257958710193634, 0.015297039411962032, 0.021445704624056816, 0.020824311301112175, -0.11956460028886795, 0.049428295344114304, 0.13115741312503815, 0.05082370340824127, -0.007439808454364538, 0.012062888592481613, 0.011441299691796303, 0.019826050847768784, -0.09327197074890137, -0.1344037652015686, -0.010692262090742588, 0.08613795042037964, 0.01666024699807167, -0.01488160714507103, 0.01050807349383831, -0.01345736999064684, -0.07358662784099579, -0.011311269365251064, 0.0465489886701107, -0.05137985199689865, -0.12345841526985168, -0.07685282081365585, -0.040833115577697754, -0.4443768262863159, -0.33328142762184143, 0.18775194883346558, 0.18957757949829102, 0.2789895534515381, 1.8331995010375977, 0.4106573760509491, 0.20836488902568817, -0.31149953603744507, 1.6858984231948853, 0.23460406064987183, -1.269673466682434, 0.32942134141921997, 0.2935577630996704, 0.22653964161872864, 0.8919097185134888, -0.21809738874435425, -0.7343255877494812, -0.4323805868625641, -1.9912571907043457, 0.495697021484375, 0.1178109347820282, -1.7928894758224487, 0.6355141401290894, 1.571069359779358, 0.1678629368543625, -1.7221782207489014, -0.2898898422718048, 0.11746088415384293, -0.20261916518211365, 0.06131543964147568, 0.0573914535343647, 0.15234610438346863, 0.21202360093593597, 0.05622611194849014, -0.14373575150966644], [-0.012987983413040638, 0.015094853937625885, -0.02029896154999733, 0.021575983613729477, -0.02054072730243206, 0.05564585700631142, 0.04106263816356659, -0.01285609696060419, 0.01247512735426426, 0.09349306672811508, 0.02982453443109989, 0.08517835289239883, 0.019900979474186897, -0.01259370893239975, -0.012206248007714748, -0.026955703273415565, -0.06933983415365219, 0.014782169833779335, -0.04919017106294632, 0.010146607644855976, 0.014694061130285263, -0.06152775511145592, 0.05121857672929764, -0.06881639361381531, -0.014494664967060089, -0.005312936380505562, -0.01577533222734928, -0.00889613851904869, 0.33305031061172485, -0.3910531997680664, -0.24389731884002686, -0.1580023318529129, -0.2918494641780853, 1.9196391105651855, 0.5747905373573303, 0.25638818740844727, 0.4658634662628174, 1.644539713859558, -0.430859237909317, -1.0536130666732788, -0.4381661117076874, -0.23560814559459686, 0.29427871108055115, 0.8188122510910034, 0.39388856291770935, 0.7762060165405273, -0.3922334313392639, -1.8308786153793335, 0.5515292882919312, -0.23308402299880981, 1.6505857706069946, 0.6569006443023682, -1.5372611284255981, -0.315700888633728, 1.6415668725967407, 0.3997873365879059, -0.03755190595984459, 0.03350168094038963, 0.05744870379567146, 0.023231515660881996, 0.03877977654337883, 0.03867076337337494, -0.03432425856590271, -0.03435542806982994], [0.06493742018938065, 0.016160376369953156, 0.020526940003037453, -0.04536619409918785, 0.01074536144733429, -0.015422036871314049, -0.012627690099179745, -0.021313168108463287, 0.09626961499452591, 0.01564646326005459, -0.022522326558828354, 0.053610991686582565, 0.01632528193295002, 0.08445532619953156, -0.018728192895650864, 0.012564710341393948, -0.04228755459189415, -0.05489569157361984, -0.0198564063757658, 0.009038303978741169, 0.01267970073968172, -0.055226437747478485, -0.01919432356953621, 0.015926256775856018, 0.011602732352912426, -0.01707136631011963, -0.02049466408789158, 0.07562118768692017, 0.38294437527656555, 0.44272318482398987, 0.26386716961860657, -0.2934335172176361, 0.29245489835739136, 1.8128293752670288, 0.5314674973487854, 0.2715644836425781, 0.48043107986450195, 1.6376802921295166, 0.3561645746231079, -1.2229340076446533, 0.40552589297294617, -0.2100173532962799, 0.160640150308609, -0.8879885077476501, 0.34860002994537354, -0.745909571647644, 0.41861507296562195, 1.9936177730560303, 0.3942790925502777, 0.16817542910575867, -1.636141300201416, -0.7240050435066223, -1.6741414070129395, 0.2885558307170868, 1.6995936632156372, 0.4295215606689453, -0.11424686014652252, 0.04907533898949623, 0.04072383791208267, -0.031013213098049164, 0.03703675419092178, -0.05011215806007385, 0.03548396751284599, -0.04180639609694481], [0.0667237862944603, 0.03935332968831062, 0.09262293577194214, -0.0732979029417038, -0.08693964779376984, -0.09830714762210846, -0.1173374354839325, -0.15847648680210114, 0.10877964645624161, -0.1383906751871109, 0.08872094750404358, 0.13225623965263367, -0.07637561112642288, -0.054489899426698685, 0.021453840658068657, 0.006870975252240896, 0.022774873301386833, -0.01212492398917675, 0.09749216586351395, -0.0702136680483818, 0.016843751072883606, -0.011218134313821793, -0.01494243461638689, -0.11365364491939545, -0.012030803598463535, -0.004870348144322634, -0.12904098629951477, -0.00980220828205347, -0.22726044058799744, 0.27457374334335327, -0.2242206186056137, -0.11161673814058304, 0.20369969308376312, 1.6008154153823853, 0.49128732085227966, -0.21157413721084595, -0.21330522000789642, 1.3885341882705688, 0.1504015177488327, 1.0947083234786987, -0.4102071523666382, -0.3080586791038513, -0.24282126128673553, 0.739782452583313, -0.2293214648962021, -0.6724125742912292, -0.3459969162940979, -1.6687037944793701, -0.2503080666065216, 0.19750365614891052, -1.4789437055587769, 0.6008026003837585, -1.4862536191940308, -0.12536780536174774, 1.5049136877059937, 0.3139113485813141, 0.2852861285209656, -0.1564592719078064, -0.3439261317253113, 0.21346017718315125, 0.12939453125, 0.15142352879047394, -0.29812300205230713, 0.18317455053329468], [-0.3236677646636963, 0.17407818138599396, -0.36646798253059387, -0.2962716221809387, -0.20906035602092743, -0.2748149037361145, 0.36227133870124817, -0.36710333824157715, 0.31515124440193176, -0.3288284242153168, -0.2500198185443878, 0.2565881609916687, -0.1941365897655487, -0.3776482045650482, 0.3055754005908966, 0.19253429770469666, 0.2913399636745453, -0.34051886200904846, 0.2929941713809967, -0.14801491796970367, -0.2844897508621216, 0.38189730048179626, 0.2610143721103668, -0.3003040552139282, 0.20172972977161407, 0.2822970449924469, -0.24702602624893188, 0.3120814859867096, 0.2448304146528244, 0.251791387796402, 0.2582036554813385, 0.24209514260292053, -0.3127080500125885, 0.4199129343032837, 0.33529943227767944, 0.3301328718662262, -0.4023187458515167, -0.42027077078819275, 0.408775269985199, 0.520470142364502, -0.3276734948158264, 0.3634311556816101, 0.28085067868232727, 0.5910823345184326, -0.4208393096923828, -0.5479620099067688, -0.39726051688194275, 0.58709716796875, 0.3155670464038849, -0.15466167032718658, -0.6029475927352905, 0.4392341673374176, -0.6171151399612427, -0.21767154335975647, 0.5075539350509644, -0.4579816162586212, 0.601025402545929, -0.5140314102172852, 0.5216538906097412, 0.5711368322372437, -0.5294232964515686, 0.4908498227596283, 0.6743903756141663, -0.5273008346557617], [-0.13122619688510895, -0.09505420923233032, 0.016966579481959343, -0.008393578231334686, -0.020761264488101006, 0.009994945488870144, 0.02755715325474739, -0.07166755944490433, 0.024626340717077255, -0.013571610674262047, 0.150878444314003, 0.01521395519375801, 0.06963241845369339, 0.043512966483831406, -0.019519155845046043, 0.1635902225971222, 0.17519451677799225, -0.09917069226503372, -0.059666313230991364, 0.06513907760381699, -0.17643722891807556, 0.055706437677145004, -0.1212301030755043, 0.0930761769413948, -0.010173121467232704, -0.00755825312808156, 0.018320346251130104, -0.04202675446867943, -0.29689547419548035, -0.35425928235054016, 0.1873571127653122, -0.24794407188892365, 0.12015919387340546, -1.5794353485107422, 0.34185791015625, -0.2868078649044037, -0.16782371699810028, -1.4459478855133057, -0.222533717751503, 1.1083396673202515, -0.2866661250591278, 0.2003151923418045, 0.22072704136371613, 0.8089901208877563, -0.32672128081321716, -0.5252442955970764, -0.24647164344787598, -1.7441352605819702, 0.33260777592658997, 0.0999329686164856, -1.4329860210418701, 0.6680641770362854, 1.5332717895507812, 0.16554753482341766, -1.5687856674194336, 0.3240205645561218, 0.18964919447898865, -0.18195943534374237, -0.18440979719161987, 0.23619551956653595, -0.15674155950546265, 0.17227810621261597, 0.1705850064754486, 0.1789027899503708], [-0.018738985061645508, 0.011295964010059834, -0.013854190707206726, 0.020996395498514175, -0.09736111760139465, 0.02994694747030735, -0.09486913681030273, 0.013829803094267845, 0.008400443010032177, -0.1233653724193573, -0.11452546715736389, -0.1300428807735443, 0.015211657620966434, 0.04054081439971924, -0.014142795465886593, 0.009864458814263344, 0.024714767932891846, 0.013825241476297379, -0.027535751461982727, 0.1248040646314621, 0.10397005081176758, 0.07490772008895874, -0.02174391970038414, 0.08145727217197418, 0.014909093268215656, -0.1272573322057724, -0.02141757495701313, -0.01074130367487669, -0.23319746553897858, 0.35211172699928284, -0.14008013904094696, 0.13768166303634644, -0.1181413009762764, 1.7586838006973267, 0.4309198260307312, 0.2149471938610077, -0.16997452080249786, 1.5299888849258423, 0.3383113145828247, -0.954652726650238, -0.3472784161567688, -0.08907437324523926, -0.16151538491249084, -0.8247349262237549, -0.264897882938385, -0.6796483993530273, 0.34309878945350647, 1.6132228374481201, 0.30754223465919495, 0.09054414182901382, 1.5786938667297363, 0.622154951095581, 1.5526164770126343, -0.18136687576770782, -1.4318450689315796, -0.22249861061573029, -0.21516452729701996, -0.2570653259754181, 0.2219761461019516, 0.164268359541893, -0.24897678196430206, -0.22955338656902313, -0.27033358812332153, 0.25102484226226807], [-0.04033423215150833, -0.05755995213985443, -0.11773071438074112, 0.0749722570180893, -0.05984525382518768, -0.042713794857263565, -0.1292378455400467, -0.04486764594912529, -0.03295394405722618, 0.10796942561864853, 0.11348726600408554, 0.1129569336771965, -0.050275012850761414, 0.06845864653587341, 0.06316773593425751, -0.1643485724925995, -0.10201811790466309, 0.1144346371293068, 0.04341622069478035, -0.1023770421743393, 0.03287675604224205, -0.02286447584629059, 0.04039468243718147, -0.12994416058063507, 0.025205319747328758, -0.031191959977149963, 0.09347479045391083, 0.07041756808757782, 0.310262531042099, -0.2834504246711731, 0.0729999989271164, 0.13428586721420288, -0.1375330686569214, -0.8378016948699951, 0.4305356442928314, 0.18539492785930634, -0.33656421303749084, 0.8273215293884277, -0.2644122540950775, -0.7200409173965454, 0.43138420581817627, 0.15063299238681793, 0.21244072914123535, 0.6521036624908447, -0.39041829109191895, 0.6203374266624451, 0.1749596893787384, -0.885176956653595, -0.26949161291122437, 0.16534268856048584, 0.7943748235702515, 0.6089805364608765, -0.9028941988945007, 0.21876952052116394, -0.8418348431587219, 0.24806496500968933, 0.42068928480148315, 0.36395102739334106, -0.3471642732620239, 0.46930184960365295, -0.3493933379650116, -0.32929378747940063, -0.44854462146759033, -0.49710163474082947], [0.5517892837524414, 0.46605995297431946, -0.45438647270202637, -0.510158896446228, -0.5309281349182129, 0.49889901280403137, -0.51362544298172, 0.5538504719734192, 0.47623410820961, 0.5389980673789978, -0.44295403361320496, 0.5126162767410278, 0.5802053809165955, -0.49257975816726685, -0.4400086998939514, -0.45735761523246765, -0.41764596104621887, 0.4968246519565582, -0.45209801197052, -0.5615853071212769, -0.4455293118953705, -0.6015840768814087, 0.5540562868118286, -0.5897122621536255, -0.42401641607284546, -0.4263887107372284, -0.4215850830078125, 0.4925515353679657, 0.28424251079559326, -0.33012157678604126, 0.3741852045059204, -0.26983746886253357, 0.2565208077430725, 0.39416325092315674, 0.502210795879364, -0.2431190460920334, 0.4269236922264099, 0.40431129932403564, 0.4045220613479614, -0.39849209785461426, 0.4501414895057678, 0.22507868707180023, 0.35654932260513306, -0.5236018896102905, 0.24251240491867065, -0.4068535566329956, 0.4178595542907715, -0.3691101372241974, -0.45268845558166504, 0.25460681319236755, -0.4986751973628998, -0.3821288049221039, -0.44748392701148987, -0.3694218695163727, -0.5128210783004761, 0.30716609954833984, -0.7341417074203491, -0.7640143036842346, -0.796948254108429, -0.7999624013900757, 0.7477837800979614, 0.7252660989761353, -0.8732900619506836, -0.8374922275543213], [0.17379038035869598, 0.1154870092868805, 0.2826189696788788, -0.17782926559448242, -0.16775088012218475, 0.22287645936012268, -0.026615766808390617, 0.2223282754421234, -0.2697243392467499, 0.04939389228820801, 0.1715169996023178, 0.12955264747142792, 0.13646623492240906, 0.21405065059661865, 0.21933065354824066, -0.18053561449050903, -0.09614452719688416, 0.20210139453411102, 0.1806383579969406, 0.19267575442790985, 0.18787601590156555, -0.20571288466453552, -0.20614111423492432, -0.143412247300148, 0.14400869607925415, 0.24331773817539215, 0.07533950358629227, 0.10493610799312592, -0.2469664067029953, 0.33571726083755493, 0.30006834864616394, -0.27428367733955383, 0.15252773463726044, 0.8758717179298401, 0.5272036790847778, -0.3534359931945801, 0.2144305557012558, 0.829232931137085, 0.2559426724910736, 0.8907625675201416, 0.4361708164215088, 0.28362712264060974, -0.16616007685661316, -0.6950400471687317, -0.3169083595275879, -0.5272641181945801, -0.2256069779396057, 0.9124056696891785, 0.3126072585582733, 0.16707058250904083, -1.0067304372787476, 0.5846555829048157, 1.0008230209350586, -0.252754807472229, -1.0565941333770752, -0.46624836325645447, -0.5376837849617004, -0.5425581932067871, -0.3962950110435486, 0.4825039803981781, -0.35429123044013977, 0.4135092496871948, 0.4700010120868683, 0.46048495173454285], [-0.18029536306858063, 0.20987474918365479, 0.20749250054359436, -0.16579729318618774, 0.18813090026378632, 0.2891751825809479, 0.18262027204036713, 0.25771573185920715, -0.25614264607429504, 0.18416306376457214, -0.17448899149894714, 0.1291365623474121, 0.24312792718410492, 0.2455156445503235, -0.31158891320228577, -0.11347876489162445, 0.19427496194839478, 0.18033212423324585, -0.2661116421222687, -0.16992773115634918, 0.2072748839855194, 0.28626659512519836, 0.27447476983070374, -0.2079222947359085, 0.2829837501049042, 0.2819713354110718, 0.19365955889225006, 0.1524406224489212, 0.31292128562927246, 0.48736417293548584, -0.19347472488880157, 0.36322811245918274, 0.28647559881210327, 1.7747547626495361, 0.6444045305252075, -0.3365170359611511, -0.32186564803123474, 1.4387929439544678, -0.36446961760520935, 1.1897748708724976, 0.4374023377895355, -0.3345378637313843, 0.23192198574543, 0.9909584522247314, 0.3438536524772644, 0.8123117089271545, 0.3102168142795563, -1.8569917678833008, 0.5614680051803589, 0.3242076337337494, -1.7233773469924927, -0.6651132106781006, 1.4768098592758179, 0.4028017222881317, 1.6622023582458496, 0.48054006695747375, -0.44939011335372925, -0.40332725644111633, -0.38610756397247314, -0.3254251778125763, 0.30911651253700256, -0.31490907073020935, -0.49285387992858887, -0.44479408860206604], [-0.12990692257881165, 0.044987719506025314, -0.17942014336585999, 0.03503839671611786, -0.15138685703277588, -0.025311540812253952, -0.06232553720474243, 0.1819257140159607, 0.1208229511976242, 0.1327345222234726, -0.19154450297355652, -0.1422232687473297, -0.0693703219294548, -0.16663247346878052, 0.056099142879247665, 0.15947362780570984, 0.012663668021559715, 0.09103624522686005, 0.08164523541927338, -0.13577428460121155, -0.14897339046001434, -0.08505997806787491, -0.03331703320145607, -0.01243219617754221, 0.05165748670697212, 0.13703222572803497, -0.1274597942829132, -0.015839096158742905, 0.4016112983226776, -0.4066525995731354, -0.29790782928466797, -0.15449772775173187, -0.218802809715271, 0.8957177996635437, 0.43142521381378174, -0.24795708060264587, 0.2237580120563507, 0.8486332297325134, 0.24185076355934143, 0.8056969046592712, -0.31017622351646423, 0.24436317384243011, -0.14980247616767883, 0.6834306120872498, 0.2477089911699295, 0.605717658996582, -0.1944453865289688, -0.9122687578201294, 0.3143867552280426, 0.2099505364894867, -0.8428104519844055, 0.5034780502319336, 0.8301118612289429, -0.2069709151983261, -0.729175329208374, -0.47406184673309326, 0.45017746090888977, 0.6217418313026428, -0.5726388096809387, -0.44670572876930237, 0.5286536812782288, 0.539717972278595, 0.5451634526252747, 0.5636485815048218], [0.257970929145813, -0.25185534358024597, 0.1652144342660904, -0.06650882214307785, -0.12074671685695648, 0.2894589602947235, 0.2506510615348816, -0.14104518294334412, -0.13943304121494293, -0.14548029005527496, -0.10208730399608612, 0.15539370477199554, -0.14005181193351746, 0.1330925077199936, 0.18095313012599945, -0.1596006453037262, -0.08441131561994553, -0.16296708583831787, -0.17867334187030792, -0.14787675440311432, -0.2956647574901581, -0.2316882312297821, -0.2182488590478897, 0.13346201181411743, 0.2212962955236435, -0.22034969925880432, 0.1627858728170395, -0.1123695969581604, 0.2488444745540619, -0.3355397880077362, -0.2844855487346649, -0.2446673959493637, 0.2958589792251587, 0.9474358558654785, -0.4188351035118103, 0.2118910253047943, -0.21120256185531616, 0.9334306120872498, 0.32869434356689453, -0.7740893959999084, -0.4740568995475769, 0.22609218955039978, 0.3155418336391449, -0.5750266313552856, -0.32519060373306274, 0.6716110110282898, -0.2226402461528778, 0.9106376767158508, 0.43758276104927063, -0.11336644738912582, -0.7938758134841919, -0.6536774635314941, 0.8017197251319885, -0.3046424686908722, 0.9629440903663635, 0.39882126450538635, -0.5184963345527649, -0.4670604169368744, 0.4812161922454834, -0.5591214299201965, -0.5123425126075745, 0.5310678482055664, -0.5205181837081909, 0.6298709511756897], [-0.41019558906555176, 0.41780802607536316, -0.506675660610199, -0.36397483944892883, -0.4637681543827057, -0.4826681315898895, -0.3850591778755188, 0.32746410369873047, 0.40821120142936707, -0.4597007632255554, -0.3696572184562683, 0.4571685492992401, -0.5288878679275513, 0.38017842173576355, 0.45449724793434143, 0.480450838804245, 0.4717910885810852, -0.4339379370212555, -0.35174837708473206, -0.473591148853302, -0.310741126537323, 0.5229331851005554, 0.3594423234462738, -0.3688528537750244, -0.4317053258419037, 0.4185188114643097, -0.39057615399360657, -0.4469253122806549, 0.2605751156806946, 0.2665758728981018, 0.3437904715538025, 0.31855082511901855, 0.31789737939834595, 0.48783645033836365, -0.40875110030174255, 0.31627020239830017, 0.44526800513267517, 0.39809826016426086, -0.3710213601589203, 0.5263912081718445, 0.4673922061920166, -0.29669415950775146, 0.22837364673614502, 0.4903097450733185, -0.34956246614456177, 0.5286183953285217, -0.38450029492378235, 0.5283265709877014, -0.3314169943332672, -0.24115683138370514, 0.46549269556999207, 0.511857807636261, -0.526665985584259, 0.24418435990810394, -0.3769480288028717, -0.4211312532424927, -0.7337304949760437, -0.744978666305542, -0.82386714220047, 0.7123684883117676, -0.6384248733520508, 0.7728940844535828, -0.8028281331062317, 0.7643760442733765], [0.16357724368572235, 0.11473521590232849, -0.32861340045928955, 0.32183074951171875, 0.20734769105911255, -0.31368201971054077, 0.24480745196342468, 0.14537562429904938, 0.22888880968093872, 0.21045167744159698, -0.16131767630577087, -0.3104807734489441, -0.1927242875099182, 0.1883658915758133, 0.15915724635124207, 0.30272752046585083, 0.12881863117218018, -0.2966589033603668, -0.14491015672683716, 0.16477501392364502, -0.14083749055862427, 0.1473112255334854, -0.20671658217906952, 0.22729261219501495, 0.3009742796421051, 0.12305210530757904, 0.20881487429141998, -0.24737168848514557, -0.46169450879096985, 0.33267077803611755, -0.36282551288604736, -0.3185649514198303, 0.29753202199935913, 1.8680849075317383, -0.6445275545120239, 0.42235898971557617, 0.320024698972702, 1.470327615737915, 0.30906426906585693, -1.2584699392318726, -0.4022482931613922, -0.3657999336719513, -0.24284355342388153, -1.0112876892089844, -0.3351614773273468, 0.7870305180549622, 0.379071980714798, 1.888140082359314, -0.4140998125076294, 0.2282877266407013, -1.5765279531478882, -0.7529367804527283, 1.582269310951233, -0.2979455292224884, 1.744478702545166, 0.4091086685657501, -0.39961203932762146, -0.4877128303050995, -0.33433520793914795, 0.388668954372406, 0.4551255702972412, 0.3678729236125946, 0.29061073064804077, 0.48152464628219604], [0.16057424247264862, -0.12595774233341217, 0.2628032863140106, 0.17217354476451874, -0.2588696777820587, 0.2498568743467331, 0.1846512407064438, 0.2560771405696869, -0.22438666224479675, -0.1656470149755478, -0.19379913806915283, 0.17870213091373444, 0.14612993597984314, 0.18591059744358063, -0.2494346648454666, 0.2225148230791092, -0.23832206428050995, 0.28106629848480225, 0.19994290173053741, 0.11417653411626816, 0.0811527743935585, 0.13672123849391937, -0.16751502454280853, -0.2466631829738617, -0.14691540598869324, -0.17012903094291687, 0.1683846116065979, 0.1326545625925064, -0.4075870215892792, -0.28717854619026184, 0.27539560198783875, 0.25528740882873535, -0.26081281900405884, -1.631868600845337, -0.5916026830673218, 0.2670873701572418, 0.4175320565700531, -1.4147193431854248, -0.3712426424026489, 1.1255334615707397, -0.36291617155075073, 0.22667495906352997, -0.15481151640415192, 0.9172711968421936, 0.3210155665874481, 0.7566518187522888, 0.4131638705730438, -1.7896932363510132, -0.3226652145385742, 0.300174355506897, 1.5262562036514282, -0.628214955329895, 1.4363436698913574, 0.2177055925130844, 1.5807899236679077, 0.476057231426239, 0.3985828459262848, -0.34203246235847473, 0.27972549200057983, -0.4661126136779785, 0.4136489927768707, 0.4674117863178253, 0.29617199301719666, -0.3001497983932495], [0.29866823554039, 0.14189790189266205, -0.2340618222951889, 0.17436957359313965, -0.22071631252765656, 0.2748303711414337, -0.2934291362762451, -0.29461362957954407, 0.33471059799194336, -0.11010424047708511, -0.22025758028030396, -0.21847674250602722, -0.2644977271556854, -0.16635876893997192, 0.16380178928375244, 0.31015545129776, 0.12364179641008377, -0.22622206807136536, 0.30004167556762695, 0.30074113607406616, 0.14996154606342316, -0.23377174139022827, 0.24410699307918549, 0.21993190050125122, -0.11230380088090897, -0.26000863313674927, 0.11593075841665268, -0.30670249462127686, 0.3581678867340088, 0.3752079904079437, 0.2252773493528366, 0.3312414288520813, -0.22604836523532867, -1.8741973638534546, -0.5204139947891235, -0.3703613579273224, 0.38833382725715637, 1.5831741094589233, -0.42269524931907654, -1.2517706155776978, -0.5217423439025879, 0.39903807640075684, -0.39974287152290344, -0.9071760177612305, -0.4342677593231201, -0.7016739845275879, -0.4527265727519989, -1.792080283164978, -0.47749075293540955, 0.23936986923217773, 1.540231466293335, -0.7549317479133606, -1.6663082838058472, 0.2707214653491974, 1.6830319166183472, -0.494106262922287, 0.3806823790073395, -0.48540613055229187, -0.41898787021636963, -0.48973506689071655, -0.4201544225215912, 0.3177459239959717, -0.3876853287220001, -0.39534711837768555], [0.1857098788022995, 0.2542516887187958, -0.2724783718585968, -0.1737409234046936, 0.22061356902122498, -0.14564092457294464, -0.23007602989673615, -0.24113187193870544, -0.13841380178928375, -0.1660563349723816, 0.2804950475692749, -0.28476816415786743, 0.2439296841621399, -0.13845211267471313, -0.31092584133148193, -0.19875849783420563, -0.29224836826324463, -0.25281959772109985, 0.2762027680873871, 0.13524334132671356, -0.18484783172607422, -0.2637593448162079, 0.16146646440029144, -0.1118519976735115, -0.12846359610557556, -0.13250155746936798, -0.23028160631656647, 0.2684306204319, -0.4918562173843384, -0.3723602592945099, 0.3614453673362732, 0.3794829547405243, -0.3381216526031494, 1.747936725616455, -0.5667552351951599, 0.34102532267570496, 0.425466924905777, 1.5923669338226318, -0.4394891858100891, -1.1188137531280518, -0.3976433575153351, 0.26927587389945984, -0.2978556454181671, -0.9058908224105835, -0.38246098160743713, 0.7589020133018494, -0.40021011233329773, 1.6834471225738525, 0.44039851427078247, -0.3653479516506195, 1.5402286052703857, 0.7517769932746887, -1.521641731262207, -0.2100493460893631, 1.6581467390060425, 0.3589187264442444, 0.40138208866119385, -0.39533376693725586, 0.48067721724510193, -0.3493979871273041, 0.33460167050361633, 0.3599877953529358, 0.36890676617622375, 0.498892605304718], [0.29423439502716064, -0.2140221744775772, -0.27229180932044983, -0.10827478021383286, -0.19855739176273346, 0.1628858745098114, 0.16084499657154083, 0.19504402577877045, 0.23048175871372223, -0.13236428797245026, 0.32239705324172974, -0.19956164062023163, -0.30021166801452637, -0.21078482270240784, 0.2624547779560089, 0.24309059977531433, -0.26530134677886963, -0.2531260848045349, -0.1846502274274826, 0.301570326089859, -0.24842683970928192, 0.19830377399921417, -0.20596644282341003, 0.26962023973464966, -0.1833067536354065, 0.19768784940242767, -0.1358010172843933, 0.26087355613708496, 0.4357036054134369, -0.3489048182964325, -0.17408522963523865, 0.23446236550807953, -0.1737920492887497, 0.6840384006500244, -0.3710576593875885, -0.2993961274623871, 0.23070061206817627, 0.6388082504272461, 0.2604040205478668, 0.7230983972549438, 0.27046748995780945, 0.31402936577796936, -0.21098275482654572, 0.6689390540122986, 0.32479387521743774, 0.4824977517127991, 0.2878739535808563, 0.7144684791564941, 0.40559399127960205, -0.2725861370563507, -0.820658266544342, -0.6494192481040955, 0.8023717403411865, -0.21398508548736572, 0.7711020112037659, 0.35572493076324463, -0.45444658398628235, -0.624302864074707, 0.47540196776390076, -0.631475567817688, -0.541499674320221, 0.5856993198394775, 0.5351004600524902, -0.5661166906356812], [-0.1685754954814911, 0.2063426375389099, -0.14121966063976288, 0.1355346143245697, -0.17328110337257385, -0.1989685595035553, 0.13543452322483063, 0.08734393864870071, -0.12167187035083771, 0.14374829828739166, -0.0783567726612091, -0.24754729866981506, 0.2495468407869339, -0.29400402307510376, -0.21297824382781982, 0.16344402730464935, 0.20261551439762115, 0.19376209378242493, 0.15877442061901093, -0.15385393798351288, 0.2182840257883072, 0.2767796218395233, 0.16855336725711823, 0.1687791496515274, -0.1310427486896515, 0.23011888563632965, 0.20809191465377808, 0.21087928116321564, -0.32987701892852783, -0.3344929814338684, 0.2966410517692566, -0.32689815759658813, -0.18486247956752777, -1.8380661010742188, 0.4926767945289612, 0.37948253750801086, -0.3491658568382263, 1.4523199796676636, -0.45248547196388245, -1.2188841104507446, -0.3410668969154358, 0.20196345448493958, -0.16256453096866608, 0.9218205809593201, -0.3577696681022644, -0.6410679221153259, 0.3536277115345001, -1.8242331743240356, 0.4146481156349182, 0.22681669890880585, -1.6121009588241577, 0.6341359615325928, -1.5035033226013184, 0.3870772123336792, 1.741475224494934, -0.3507215678691864, 0.4855469763278961, 0.4257640242576599, -0.4186401665210724, -0.3666917681694031, -0.3891408443450928, 0.44703149795532227, -0.41573256254196167, -0.3338667154312134], [-0.3033325672149658, -0.21127894520759583, -0.13944968581199646, 0.1953762322664261, -0.2911185622215271, 0.2633609175682068, -0.14495626091957092, -0.15958984196186066, 0.11740351468324661, -0.27015259861946106, -0.24255087971687317, -0.0952596366405487, 0.2965068519115448, -0.12381281703710556, -0.2783049941062927, -0.19037795066833496, -0.14996467530727386, 0.3150780498981476, -0.12760795652866364, 0.18703491985797882, -0.17574548721313477, 0.14270761609077454, 0.23471833765506744, 0.15857768058776855, -0.2748594880104065, 0.21980354189872742, -0.2193235158920288, -0.24880559742450714, -0.3756679892539978, 0.4017200469970703, -0.24166308343410492, -0.18065229058265686, 0.3236663341522217, 0.8970521092414856, -0.4451931118965149, -0.18611691892147064, -0.22788311541080475, -0.8018216490745544, -0.28387731313705444, -0.6289854645729065, -0.37920764088630676, 0.2570192515850067, -0.19491161406040192, -0.7193294167518616, -0.2984118163585663, 0.4845212996006012, 0.24132700264453888, -0.7241914868354797, -0.43274930119514465, -0.19242796301841736, 0.7862713932991028, 0.5910140872001648, 0.7823521494865417, -0.16637440025806427, -0.8483418822288513, 0.487714558839798, -0.5014846324920654, -0.5795575976371765, 0.6005022525787354, -0.5733731389045715, 0.5625216364860535, 0.45926910638809204, -0.45797690749168396, -0.49875205755233765], [-0.27171826362609863, -0.206429585814476, -0.15925131738185883, -0.1255761682987213, -0.21630464494228363, 0.13005827367305756, 0.1622648537158966, 0.13368910551071167, 0.3390166759490967, -0.2615199387073517, -0.27735766768455505, -0.193945050239563, 0.2072041928768158, -0.23930689692497253, -0.14294587075710297, -0.11523564904928207, 0.30122360587120056, -0.12490233778953552, -0.3053925633430481, -0.28265005350112915, 0.15348367393016815, -0.30616024136543274, 0.14852158725261688, -0.20959123969078064, -0.12467993050813675, -0.19542604684829712, 0.1367247998714447, 0.17948943376541138, -0.4240543246269226, 0.28941431641578674, -0.30468130111694336, 0.25647494196891785, -0.30256399512290955, 1.8683931827545166, 0.6414512991905212, -0.4267033040523529, 0.38716983795166016, -1.4689074754714966, -0.2810091972351074, 1.1901109218597412, 0.3902961015701294, -0.34422439336776733, -0.24310459196567535, 1.0045092105865479, 0.4262208342552185, -0.8453236818313599, 0.2773905396461487, -1.8514412641525269, 0.43165311217308044, 0.3064028322696686, 1.7236733436584473, -0.7959163188934326, -1.4573283195495605, 0.2798722982406616, -1.535094141960144, 0.5051673054695129, 0.4917168617248535, 0.38223913311958313, 0.32840466499328613, 0.36764290928840637, -0.42574387788772583, 0.5175727605819702, 0.3961057662963867, 0.39832228422164917], [0.26787838339805603, 0.2719026505947113, 0.2679055333137512, 0.28620147705078125, 0.16605044901371002, -0.1468893140554428, -0.20833003520965576, 0.24195849895477295, -0.16991055011749268, -0.1700313538312912, 0.26997068524360657, -0.20793049037456512, -0.272350937128067, -0.25136977434158325, -0.271342396736145, 0.21865878999233246, 0.24339500069618225, 0.20879879593849182, 0.22366058826446533, -0.1182587593793869, -0.11228057742118835, -0.17022638022899628, 0.1603051871061325, 0.2309422492980957, -0.26949405670166016, 0.1530744433403015, 0.2744094729423523, -0.1626579761505127, -0.3182765543460846, 0.27037325501441956, -0.2799273729324341, -0.3479306995868683, 0.23319114744663239, 0.7498170137405396, -0.349589079618454, 0.2790575921535492, 0.3697102963924408, 0.7960639595985413, -0.30565574765205383, 0.807647705078125, 0.3645647168159485, 0.2531946897506714, 0.2385045737028122, -0.6837307214736938, -0.4161762297153473, -0.6296012997627258, 0.35941949486732483, -0.9276702404022217, 0.4158778786659241, -0.1403745710849762, 0.8937186002731323, 0.5833900570869446, -0.7530215382575989, -0.20136645436286926, -0.7713037133216858, -0.3209950625896454, 0.5027939081192017, 0.6302592158317566, 0.5577509999275208, 0.5992100834846497, 0.5335222482681274, -0.5212292075157166, -0.5763319730758667, -0.6201882362365723], [0.24029916524887085, 0.21444350481033325, -0.24535444378852844, -0.22917135059833527, 0.2144460827112198, 0.1203257367014885, -0.24771223962306976, 0.1771746128797531, -0.16665664315223694, 0.12985792756080627, -0.18037378787994385, 0.11937807500362396, 0.24454468488693237, 0.10165386646986008, -0.2616365849971771, 0.08769042044878006, 0.10948498547077179, 0.2766174376010895, 0.2711106240749359, -0.11106742173433304, 0.16948342323303223, 0.14478284120559692, -0.2016727477312088, -0.2606092095375061, -0.23142893612384796, 0.15082475543022156, 0.10668504238128662, -0.1968466341495514, 0.44775891304016113, -0.354880154132843, -0.25248172879219055, -0.12918692827224731, -0.28438615798950195, -1.5645430088043213, -0.4698828160762787, -0.20715147256851196, 0.29377323389053345, 1.4897048473358154, 0.3556997776031494, 1.1056182384490967, -0.3746502995491028, -0.27097877860069275, 0.21509210765361786, 0.8923159241676331, -0.3053867220878601, -0.6562131643295288, -0.3369523286819458, 1.5923727750778198, 0.4438408315181732, -0.16663381457328796, -1.547893762588501, -0.7596492171287537, 1.4078834056854248, -0.3433184325695038, 1.5894436836242676, -0.31259194016456604, -0.34107670187950134, 0.3678300976753235, 0.42125916481018066, 0.35287904739379883, 0.42973875999450684, 0.4267089366912842, -0.33052387833595276, -0.35889363288879395], [0.12507443130016327, -0.25493955612182617, -0.15159641206264496, 0.26230186223983765, 0.10902496427297592, 0.17294149100780487, -0.2927035391330719, 0.24936799705028534, -0.2598034143447876, 0.08467792719602585, -0.29154714941978455, -0.22718344628810883, -0.09092610329389572, 0.109464131295681, 0.2612474858760834, -0.17886552214622498, -0.18156753480434418, 0.11620883643627167, 0.2505621910095215, 0.1636040359735489, -0.289030522108078, 0.15885090827941895, -0.09529183804988861, -0.0630415752530098, -0.06400588154792786, -0.18884283304214478, -0.0958845466375351, 0.1281069666147232, -0.27659863233566284, 0.3141229748725891, 0.13420577347278595, 0.15688306093215942, 0.2730751633644104, 0.8839252591133118, -0.44548559188842773, -0.2914763391017914, -0.31989532709121704, -0.7685948014259338, 0.38813507556915283, 0.6677021384239197, 0.2649969756603241, -0.25634145736694336, -0.23089979588985443, 0.5514116287231445, -0.23280861973762512, -0.5316315293312073, -0.2444593459367752, -0.702648401260376, -0.4154667258262634, -0.257991760969162, -0.7014973759651184, 0.6497564911842346, -0.9040844440460205, -0.281127393245697, -0.8448572158813477, -0.32292601466178894, -0.5067070126533508, -0.6331349015235901, 0.5692858099937439, 0.6056677103042603, -0.6102155447006226, 0.5159267783164978, 0.6442208290100098, 0.5060169100761414], [-0.22874096035957336, -0.268090158700943, -0.14585812389850616, -0.09110511094331741, 0.20263904333114624, -0.10988971590995789, 0.306353896856308, -0.2751047909259796, 0.2575402855873108, -0.26256057620048523, -0.21181263029575348, -0.14763212203979492, -0.23797577619552612, -0.12151271849870682, -0.19470000267028809, 0.24894730746746063, 0.1711934506893158, -0.1312888264656067, 0.2689571678638458, 0.21094779670238495, 0.21908257901668549, -0.2541140913963318, 0.1032821387052536, -0.2148474007844925, -0.25364747643470764, 0.16222983598709106, 0.26991382241249084, -0.3098037838935852, -0.3489375114440918, -0.2463594228029251, -0.15409806370735168, -0.28856971859931946, -0.24454906582832336, 0.6990021467208862, -0.3491075932979584, -0.3615289628505707, -0.22219741344451904, 0.7698951363563538, 0.3817930817604065, -0.6271852850914001, 0.2632656693458557, 0.2671245038509369, 0.2868815064430237, -0.5804657936096191, -0.33814382553100586, -0.4401794373989105, -0.3966251015663147, 0.7830609679222107, 0.4502648115158081, -0.2928885519504547, 0.8583808541297913, -0.5566936135292053, 0.7571946978569031, -0.20957288146018982, 0.881750762462616, 0.34195128083229065, 0.44602182507514954, -0.5202879309654236, 0.49319639801979065, -0.5134754180908203, -0.5816330313682556, -0.4535355269908905, -0.576089084148407, 0.5572669506072998], [0.3070466220378876, -0.10252494364976883, -0.1544836163520813, 0.21384017169475555, 0.11019835621118546, -0.19706499576568604, 0.2857062518596649, 0.15495015680789948, -0.14760465919971466, 0.29837924242019653, 0.25731295347213745, -0.2114538848400116, 0.16093464195728302, -0.13751649856567383, -0.2894139587879181, -0.25245141983032227, 0.15891438722610474, 0.16751201450824738, -0.10912121087312698, 0.1669602394104004, 0.10153112560510635, -0.18972277641296387, 0.23973974585533142, 0.1394856870174408, 0.21416369080543518, 0.12013989686965942, -0.19390179216861725, -0.17372846603393555, 0.3857116997241974, -0.4257792830467224, -0.2138165831565857, -0.3345052897930145, 0.27019569277763367, 1.6594328880310059, -0.5603653788566589, 0.3003435432910919, 0.3869974613189697, -1.443172574043274, -0.3937390446662903, -1.0190843343734741, 0.3445342481136322, -0.19270119071006775, -0.15573224425315857, -0.9426348209381104, 0.34584522247314453, 0.7404100894927979, -0.32565367221832275, 1.5968629121780396, -0.47358042001724243, 0.29690366983413696, 1.5834040641784668, -0.5899665951728821, -1.4543448686599731, 0.2584629952907562, -1.5016084909439087, -0.41375699639320374, 0.5053234100341797, -0.46241918206214905, -0.3794174790382385, 0.40047013759613037, 0.351438969373703, -0.4158729612827301, -0.48270419239997864, -0.3461320996284485], [-0.12942533195018768, 0.2629304826259613, 0.20398090779781342, -0.2367211878299713, 0.27483537793159485, -0.2239348441362381, -0.21163833141326904, -0.16010622680187225, -0.22864118218421936, 0.2161969095468521, -0.12679389119148254, -0.13175208866596222, 0.1631905883550644, 0.15753474831581116, 0.14376863837242126, -0.2549617886543274, -0.16248251497745514, 0.22030209004878998, -0.15469208359718323, 0.1802988499403, 0.18762193620204926, 0.24125003814697266, 0.2520819306373596, 0.28231823444366455, 0.24747231602668762, 0.2874429225921631, -0.15562905371189117, -0.22932660579681396, 0.42147162556648254, 0.381123423576355, -0.36177292466163635, -0.3021218478679657, -0.30863824486732483, -1.7601913213729858, 0.6170864105224609, 0.3212072551250458, 0.4428829848766327, 1.5437769889831543, 0.37592560052871704, 1.1194913387298584, -0.3823997378349304, 0.3554098606109619, 0.26695743203163147, 0.8679351806640625, -0.4369160830974579, 0.8599257469177246, -0.2981962561607361, -1.8270320892333984, -0.4988957643508911, 0.2748520076274872, 1.740534782409668, 0.7207220792770386, 1.6330891847610474, 0.30824539065361023, -1.6752530336380005, 0.4494096040725708, -0.47988033294677734, -0.40316101908683777, -0.4120456278324127, 0.4122920036315918, 0.45875003933906555, 0.2916032373905182, 0.4184513986110687, -0.31604862213134766], [-0.28433579206466675, -0.2691357135772705, -0.19014137983322144, -0.11187528818845749, -0.11500329524278641, -0.12627513706684113, 0.25786858797073364, -0.1394515186548233, -0.21934598684310913, -0.2374378889799118, -0.13241271674633026, 0.16649533808231354, -0.15151049196720123, 0.23657318949699402, -0.10253070294857025, 0.20859861373901367, -0.13090607523918152, -0.2018098533153534, -0.275275319814682, 0.2099568247795105, -0.2651280164718628, 0.16343416273593903, -0.24305616319179535, 0.19978474080562592, -0.15389403700828552, 0.18806859850883484, -0.28865331411361694, 0.23005209863185883, -0.41207218170166016, -0.33248481154441833, -0.19336995482444763, -0.329107403755188, -0.24195195734500885, 1.8696131706237793, 0.49430134892463684, 0.2648989260196686, -0.3788711428642273, -1.4821282625198364, 0.2984241843223572, -1.2475961446762085, -0.5231505632400513, -0.2911803424358368, -0.27077287435531616, 0.7996371388435364, 0.4205532968044281, -0.7262598872184753, 0.2599307894706726, -1.6824694871902466, -0.46774613857269287, 0.3004039525985718, 1.6003129482269287, -0.6604503393173218, 1.6392450332641602, 0.2318658083677292, 1.5431808233261108, 0.4731573164463043, 0.2936250865459442, -0.3269752562046051, -0.35164618492126465, 0.42872628569602966, -0.26060351729393005, 0.4822613596916199, 0.4236695468425751, 0.3955886960029602], [-0.47032544016838074, -0.5053709149360657, -0.39278697967529297, -0.4228110611438751, 0.3393596410751343, 0.4287174940109253, 0.37095192074775696, -0.38903337717056274, 0.5345450639724731, -0.27931952476501465, 0.46067014336586, -0.39993759989738464, -0.37894490361213684, -0.48235881328582764, -0.5447452664375305, -0.3644721508026123, -0.46112871170043945, -0.36397185921669006, 0.4966924786567688, -0.35760945081710815, 0.32451099157333374, 0.42452263832092285, -0.49498963356018066, 0.3972601592540741, -0.40907683968544006, -0.4423042833805084, 0.358859121799469, 0.3852766752243042, 0.37464606761932373, -0.3690558671951294, -0.3622640371322632, -0.39429035782814026, 0.2543427050113678, -0.4912120997905731, -0.49451038241386414, -0.2997487485408783, -0.26931431889533997, -0.5266393423080444, 0.3814718723297119, -0.6074248552322388, 0.3133157789707184, 0.3376352787017822, 0.1556333750486374, -0.4170418679714203, -0.4284462034702301, -0.43981966376304626, -0.2555813193321228, -0.3930867910385132, -0.4099839925765991, 0.2673478424549103, 0.49940013885498047, -0.37673068046569824, 0.4459143280982971, -0.24661985039710999, 0.5238513350486755, 0.37465226650238037, -0.7862188816070557, -0.7309951186180115, 0.7555388808250427, -0.721872866153717, 0.7016072869300842, 0.6451083421707153, -0.6680221557617188, -0.7596994638442993], [0.09498495608568192, 0.09189033508300781, 0.20597094297409058, 0.3006860315799713, 0.15228809416294098, 0.12788787484169006, -0.2811042368412018, 0.19924484193325043, 0.1271095871925354, 0.09350354224443436, 0.30034714937210083, -0.2505374848842621, 0.29459941387176514, 0.21370257437229156, 0.279206782579422, -0.3019714951515198, -0.24434615671634674, -0.16666705906391144, -0.19828099012374878, -0.2486874759197235, -0.3024774193763733, -0.2595880329608917, 0.16219797730445862, -0.2729611396789551, -0.18211030960083008, -0.16739855706691742, -0.14164504408836365, 0.1587522029876709, -0.4150250554084778, 0.3706114888191223, 0.23350706696510315, 0.2740507423877716, -0.257500022649765, -1.7468284368515015, -0.5184078812599182, 0.41942572593688965, -0.42985278367996216, 1.491573691368103, 0.38114243745803833, 1.0992352962493896, 0.4011225402355194, -0.3042933940887451, 0.266548216342926, -1.0085771083831787, -0.28267940878868103, -0.8415042161941528, -0.3689252734184265, -1.8428009748458862, -0.3725322484970093, -0.316511869430542, 1.535115122795105, 0.6976327300071716, 1.6271976232528687, -0.30080360174179077, -1.5715802907943726, 0.4462625980377197, 0.3563317358493805, 0.4144342839717865, 0.37111055850982666, -0.42320623993873596, 0.30770382285118103, 0.32318323850631714, -0.3383544981479645, 0.4257894456386566], [-0.2023823857307434, -0.1195555180311203, -0.21286499500274658, -0.15400370955467224, 0.24997740983963013, 0.29252976179122925, -0.12647201120853424, -0.242823988199234, -0.11842244118452072, -0.21358610689640045, -0.16165798902511597, 0.08030050247907639, 0.10977746546268463, -0.2698049545288086, -0.20055578649044037, -0.17603908479213715, -0.18915487825870514, 0.20488694310188293, 0.1211768388748169, 0.07922825217247009, -0.25921890139579773, -0.17160546779632568, 0.18154700100421906, -0.15759196877479553, 0.22146537899971008, 0.21995697915554047, 0.18928319215774536, -0.12564200162887573, 0.4110282063484192, -0.22871288657188416, 0.1882663518190384, -0.30529776215553284, 0.27694597840309143, 1.5822052955627441, 0.5004061460494995, -0.322719931602478, -0.3688032925128937, -1.4023175239562988, 0.41992640495300293, -1.1089060306549072, 0.46981456875801086, 0.16361486911773682, 0.14925743639469147, -0.8153702616691589, 0.3772087097167969, 0.7400468587875366, -0.3765111565589905, 1.6907079219818115, 0.4594302773475647, 0.18127839267253876, 1.6261926889419556, -0.6635866761207581, 1.398080825805664, -0.2595997452735901, 1.5524461269378662, 0.45427727699279785, 0.37542930245399475, 0.46301764249801636, -0.44683945178985596, 0.4179208278656006, 0.44460371136665344, 0.4472624957561493, 0.42035433650016785, 0.47606074810028076], [-0.1936209499835968, -0.19737696647644043, 0.1879768669605255, 0.22795350849628448, 0.28764572739601135, -0.23124776780605316, 0.16879944503307343, -0.22211016714572906, 0.28757041692733765, -0.28235936164855957, -0.24935775995254517, -0.17745497822761536, 0.30153146386146545, 0.25446590781211853, 0.3407028913497925, 0.23856008052825928, 0.24314044415950775, 0.14218811690807343, -0.2922654449939728, -0.2573798596858978, 0.28187260031700134, 0.299123615026474, -0.2264207899570465, 0.31177228689193726, -0.2436988204717636, -0.2586870789527893, -0.14752475917339325, -0.3217710852622986, 0.3329585790634155, 0.29508301615715027, 0.1621435582637787, -0.16372615098953247, 0.22716392576694489, -0.6978252530097961, 0.4948565363883972, -0.3648729622364044, -0.37958306074142456, 0.7882166504859924, -0.3138895630836487, -0.7340819239616394, -0.34073784947395325, -0.33836472034454346, -0.13136103749275208, 0.6331682205200195, -0.43683692812919617, -0.4617334008216858, -0.37938764691352844, 0.8507322072982788, 0.43392184376716614, 0.23004724085330963, -0.7641301155090332, 0.6005876660346985, -0.8594017028808594, -0.18936122953891754, 0.8412874937057495, 0.3903179168701172, -0.5904073715209961, 0.62130206823349, -0.5298746824264526, 0.6276195049285889, 0.6341192722320557, 0.4838012158870697, -0.5340155959129333, -0.5565545558929443], [0.23870544135570526, 0.24128925800323486, 0.15445517003536224, 0.18402117490768433, -0.19728697836399078, -0.16826142370700836, 0.2672341465950012, 0.26294687390327454, 0.18214750289916992, -0.22262774407863617, -0.1803894340991974, 0.1719064861536026, 0.2948107123374939, -0.1266438364982605, 0.09864214062690735, 0.10383402556180954, -0.2584744989871979, -0.15275610983371735, -0.14032284915447235, -0.290630042552948, 0.26948070526123047, -0.26976174116134644, -0.2873893082141876, -0.18653781712055206, -0.26240459084510803, -0.23544728755950928, -0.27392449975013733, 0.25510910153388977, -0.38253653049468994, -0.49190402030944824, 0.22502075135707855, -0.3105042576789856, 0.42606133222579956, -1.834184169769287, 0.5420637726783752, 0.3196798264980316, 0.38608530163764954, 1.6423414945602417, 0.4748474955558777, 1.252569556236267, -0.35871654748916626, 0.2761954367160797, -0.21506401896476746, -0.8498769998550415, -0.30011966824531555, 0.8320015072822571, 0.39141610264778137, -1.8399561643600464, -0.4296945631504059, -0.21992748975753784, -1.737219214439392, -0.7839627265930176, 1.609865427017212, -0.27329131960868835, -1.770966649055481, -0.3691489100456238, -0.321389377117157, 0.3534134030342102, -0.4394374489784241, -0.41324383020401, -0.39371687173843384, 0.29870906472206116, -0.47385433316230774, 0.407175749540329], [-0.10258345305919647, -0.11626724153757095, 0.2289387583732605, -0.19483911991119385, -0.14189012348651886, 0.2958972454071045, 0.1681838035583496, -0.10462754219770432, -0.16150926053524017, 0.11337782442569733, -0.13867388665676117, -0.2018543779850006, 0.07426273077726364, 0.1291666328907013, -0.13689811527729034, 0.2673323452472687, 0.22296060621738434, -0.1592169553041458, -0.18578587472438812, -0.11791711300611496, -0.13352619111537933, -0.12806576490402222, 0.14205890893936157, -0.2617662847042084, -0.24704022705554962, -0.2481459081172943, 0.22813066840171814, 0.11603590846061707, -0.40594398975372314, -0.3958858847618103, -0.12229122221469879, -0.18586498498916626, 0.2341809719800949, 0.9133031368255615, -0.517691433429718, 0.28208401799201965, -0.28141653537750244, -0.9142662286758423, 0.28175464272499084, -0.8255768418312073, -0.35437291860580444, 0.17275626957416534, -0.18157140910625458, -0.650061845779419, 0.4091286063194275, 0.510560929775238, -0.2785643935203552, 0.8713809251785278, -0.3601086735725403, -0.15990972518920898, -0.9851431250572205, 0.4777177572250366, -0.8581917881965637, 0.28070297837257385, -0.7919723391532898, 0.4619829058647156, -0.4936280846595764, -0.6166597604751587, 0.4812939465045929, -0.45134490728378296, 0.5294985175132751, -0.5911977887153625, -0.576787531375885, 0.5328292846679688], [-0.20804451406002045, 0.24435707926750183, 0.25214067101478577, 0.24459020793437958, 0.1763637214899063, 0.13027331233024597, -0.08990269154310226, -0.2848604619503021, 0.11677515506744385, 0.20735350251197815, 0.25133708119392395, 0.2736973762512207, 0.08308468759059906, 0.16277240216732025, -0.26362958550453186, -0.18478569388389587, 0.23711512982845306, -0.2204764187335968, 0.07859466224908829, 0.14311563968658447, 0.15440276265144348, 0.1656094342470169, -0.184992253780365, -0.07519470900297165, -0.14871083199977875, -0.14387710392475128, -0.18013033270835876, 0.297813355922699, 0.3995601534843445, -0.233748197555542, 0.23428793251514435, -0.1764148324728012, -0.1648915857076645, 1.5527607202529907, -0.4263942837715149, -0.2986644506454468, 0.2437630444765091, 1.2614318132400513, 0.3793800473213196, 1.0298936367034912, 0.3523609936237335, 0.24191558361053467, 0.15336701273918152, 0.8477852940559387, -0.25288015604019165, 0.6818205118179321, -0.38041427731513977, -1.4794362783432007, -0.43925175070762634, 0.17518720030784607, 1.485726237297058, 0.6083795428276062, -1.4819607734680176, -0.33190926909446716, -1.5155189037322998, -0.40737563371658325, 0.3231422007083893, -0.3939433991909027, -0.3199545443058014, 0.48991885781288147, -0.4003148376941681, 0.4185951352119446, -0.3231879472732544, 0.4161092936992645], [0.0605858638882637, 0.09279980510473251, 0.06642896682024002, 0.08130866289138794, -0.031477395445108414, 0.08849035203456879, -0.008413491770625114, 0.026592599228024483, 0.019596178084611893, -0.04819355905056, -0.019741514697670937, -0.1091618537902832, 0.03318503871560097, -0.02616094797849655, -0.025489434599876404, -0.06871498376131058, 0.015856463462114334, -0.0645446628332138, -0.015177766792476177, -0.019273947924375534, 0.02099701762199402, -0.036985572427511215, -0.009028737433254719, 0.01409844495356083, -0.046240415424108505, -0.006557352375239134, 0.04444591701030731, -0.014722774736583233, -0.39048007130622864, 0.3548199236392975, -0.14340052008628845, -0.1416836529970169, -0.14997820556163788, -1.4441492557525635, 0.4535675346851349, 0.23899014294147491, 0.3634493350982666, 1.4377210140228271, 0.30710554122924805, -1.0594797134399414, 0.33710289001464844, -0.1584344357252121, 0.11302894353866577, 0.8841758370399475, -0.20884092152118683, 0.6838400363922119, 0.21621060371398926, 1.4940696954727173, -0.32246044278144836, -0.04574858024716377, -1.439627766609192, 0.6167705059051514, 1.5277596712112427, -0.22230790555477142, 1.3649086952209473, -0.39033907651901245, 0.17543543875217438, -0.1973787248134613, 0.1596875786781311, 0.1821061670780182, -0.23721705377101898, -0.23046594858169556, -0.3152199983596802, 0.25442442297935486], [-0.019325613975524902, 0.09612852334976196, -0.020038483664393425, -0.032815780490636826, -0.040179647505283356, 0.09253884851932526, 0.015912750735878944, -0.061587296426296234, 0.09835197031497955, -0.1358284056186676, 0.04021168500185013, 0.016598347574472427, 0.07210515439510345, 0.012955413199961185, 0.014385698363184929, 0.06727834045886993, 0.03501207008957863, -0.06756973266601562, 0.030367620289325714, -0.022147471085190773, -0.10656112432479858, -0.048881832510232925, 0.09441905468702316, 0.04675266146659851, 0.012950392439961433, -0.009899653494358063, 0.1263781487941742, 0.04485118016600609, 0.42176783084869385, -0.2055964469909668, 0.29110994935035706, -0.26236408948898315, 0.29646313190460205, 1.7677695751190186, 0.38852348923683167, 0.12243145704269409, -0.29073280096054077, 1.392027735710144, -0.2534674108028412, -1.0665473937988281, -0.42799267172813416, -0.2701907753944397, 0.13881702721118927, 0.9582334756851196, -0.40227311849594116, -0.6252893805503845, -0.36132684350013733, 1.5864384174346924, -0.3102875351905823, -0.12191504240036011, -1.6184046268463135, -0.7560535669326782, 1.485048532485962, -0.11403507739305496, -1.579009771347046, -0.2784632742404938, -0.20831991732120514, 0.12141817063093185, -0.21494032442569733, 0.1432001292705536, 0.22620917856693268, -0.2073644995689392, -0.16771818697452545, -0.12483412027359009], [-0.020639678463339806, -0.018354201689362526, 0.02595275640487671, 0.009118963964283466, -0.11184956878423691, 0.018477868288755417, 0.010500949807465076, 0.01774180866777897, -0.013682273216545582, 0.0417819507420063, 0.08141613751649857, -0.01942850835621357, 0.021273119375109673, -0.02832106500864029, -0.011693855747580528, 0.029362883418798447, 0.09846365451812744, -0.044750846922397614, -0.025299228727817535, 0.01722625084221363, -0.012552953325212002, 0.02166590467095375, 0.0126554686576128, -0.026349570602178574, -0.012615706771612167, -0.004958788398653269, -0.029958026483654976, -0.01588924415409565, 0.2998643219470978, -0.42669323086738586, 0.30438464879989624, 0.1887146383523941, -0.23883967101573944, -1.9645428657531738, -0.42226725816726685, -0.3035593330860138, 0.44561636447906494, -1.7621793746948242, 0.32438305020332336, 1.215096116065979, 0.3873618543148041, 0.3342704474925995, -0.2217799574136734, -0.8293161392211914, -0.2539132535457611, 0.6196231842041016, 0.2685292363166809, -1.8716644048690796, -0.3390306830406189, -0.1386912763118744, -1.6295112371444702, 0.6269093751907349, 1.523761510848999, -0.24450574815273285, 1.6514674425125122, -0.3378007411956787, 0.06977317482233047, -0.046605296432971954, 0.04991171509027481, -0.11960387229919434, -0.04528890922665596, -0.05533026158809662, -0.07194513827562332, 0.10117965191602707], [0.1511520892381668, -0.11557615548372269, -0.09184211492538452, 0.11591044068336487, -0.025728855282068253, -0.07882394641637802, -0.01802097074687481, -0.08647032827138901, -0.14317633211612701, -0.15117323398590088, -0.049140434712171555, -0.08129296451807022, 0.02281232737004757, 0.02385833114385605, -0.021671373397111893, 0.11411147564649582, 0.024763161316514015, 0.016028737649321556, 0.13780999183654785, 0.15998448431491852, -0.03276132419705391, -0.0128757543861866, 0.008420532569289207, 0.016045697033405304, -0.018592528998851776, -0.14143268764019012, 0.02456703409552574, 0.013788314536213875, -0.3451897203922272, 0.2218453586101532, -0.0966600850224495, 0.19333632290363312, 0.27219825983047485, 1.6240073442459106, 0.5318727493286133, 0.14986920356750488, -0.33866748213768005, 1.3033218383789062, -0.25221744179725647, -0.9985339045524597, 0.26164400577545166, 0.24837951362133026, -0.25135481357574463, 0.891470193862915, 0.3826906085014343, -0.7060155272483826, 0.2247837334871292, -1.6708731651306152, 0.32873407006263733, -0.17394398152828217, -1.374861240386963, 0.7063159942626953, -1.3973137140274048, -0.2610434591770172, -1.4612030982971191, -0.2589033544063568, 0.12592653930187225, -0.24882163107395172, 0.2441173791885376, 0.1750883311033249, 0.15663301944732666, -0.25312376022338867, -0.11577020585536957, -0.12072214484214783], [0.06566639989614487, -0.12237285077571869, -0.13268643617630005, -0.17804288864135742, 0.1640787124633789, -0.052480727434158325, 0.16372962296009064, 0.20339904725551605, 0.04832487925887108, -0.044413965195417404, -0.09141046553850174, -0.06798439472913742, 0.10184632986783981, 0.16428595781326294, -0.138305202126503, 0.1146511510014534, 0.2065240442752838, 0.02770283818244934, -0.06721728295087814, 0.04875786602497101, 0.21909397840499878, -0.17025013267993927, 0.05584317445755005, 0.10339220613241196, -0.025303933769464493, -0.19426192343235016, -0.21954277157783508, 0.08436597138643265, -0.2938293218612671, 0.21617844700813293, -0.29485806822776794, -0.3050837814807892, -0.16642700135707855, 0.8982247710227966, -0.35876190662384033, -0.19204628467559814, -0.26852062344551086, -0.8155933618545532, 0.21804773807525635, -0.6375078558921814, 0.337812602519989, -0.25984787940979004, -0.15597209334373474, -0.6560472249984741, 0.41332778334617615, -0.608923077583313, 0.24439921975135803, -0.7347272038459778, -0.2850683927536011, -0.26157835125923157, 0.8765815496444702, 0.5680388808250427, -0.8231304883956909, -0.21057982742786407, 0.9103753566741943, -0.403970330953598, -0.41262510418891907, 0.45263001322746277, -0.5040063261985779, 0.4115191102027893, 0.38744887709617615, 0.4568719267845154, 0.5901262760162354, -0.45813509821891785], [0.1245124563574791, 0.01683993451297283, -0.18399490416049957, 0.07510515302419662, -0.15514439344406128, -0.12982670962810516, -0.05839064344763756, 0.06857481598854065, 0.03874754533171654, 0.11694660037755966, -0.038634851574897766, 0.14922596514225006, 0.04818243905901909, 0.056366413831710815, -0.1770683228969574, -0.1610407531261444, 0.045021165162324905, 0.017077114433050156, 0.1061691865324974, 0.06101706624031067, -0.0440778024494648, -0.1598907709121704, -0.1736225038766861, -0.0225214883685112, 0.02738753892481327, -0.1499919593334198, -0.08768001943826675, -0.026961226016283035, 0.3967670798301697, -0.23790103197097778, 0.2115948349237442, 0.27555322647094727, 0.2612531781196594, -0.7919514775276184, -0.37598177790641785, -0.2067021131515503, -0.24539075791835785, 0.7132039666175842, -0.3917739987373352, 0.677895188331604, 0.46289172768592834, -0.17955568432807922, 0.24243149161338806, 0.756014883518219, 0.3155578374862671, 0.5410647988319397, 0.22705747187137604, -0.909240186214447, 0.4484475553035736, -0.23514047265052795, -0.8645840883255005, -0.5891281962394714, 0.9807535409927368, -0.3412768244743347, -0.8648014068603516, 0.2966727912425995, -0.39961275458335876, 0.46205562353134155, -0.4361732304096222, -0.5386557579040527, 0.49679288268089294, -0.45873937010765076, 0.4906625747680664, 0.36905714869499207], [-0.019721394404768944, 0.019101355224847794, -0.03193344920873642, 0.14427131414413452, 0.04642323777079582, -0.08207831531763077, -0.10928111523389816, -0.09521210938692093, -0.016369851306080818, -0.1412581205368042, -0.015129739418625832, 0.03504543751478195, 0.02053135633468628, 0.10631724447011948, -0.07925499975681305, -0.08201590180397034, 0.013179364614188671, 0.016928130760788918, 0.013500778935849667, 0.10025615990161896, -0.1622031331062317, -0.038740456104278564, -0.012282725423574448, 0.06395864486694336, -0.09891302138566971, -0.04556378349661827, -0.017999310046434402, -0.10437231510877609, 0.3454059958457947, -0.3010956645011902, 0.18528451025485992, 0.2606532573699951, -0.14794838428497314, -1.6794912815093994, 0.39238524436950684, -0.2838493585586548, 0.24973197281360626, -1.5231099128723145, -0.2836000621318817, 0.9769060611724854, 0.33048224449157715, 0.26103031635284424, 0.1761423796415329, 0.9546844959259033, 0.30400341749191284, 0.7046079635620117, -0.20826175808906555, -1.6701468229293823, -0.440958708524704, 0.1452225148677826, 1.6196099519729614, -0.6700792908668518, -1.5018709897994995, 0.13518781960010529, -1.4439611434936523, 0.4414444863796234, -0.1304372400045395, -0.16938473284244537, 0.16374430060386658, -0.23812484741210938, -0.1748015284538269, 0.19234387576580048, 0.10087187588214874, -0.27649638056755066], [-0.09266568720340729, 0.164907306432724, -0.11498086899518967, -0.1649131327867508, -0.060888953506946564, -0.1296108514070511, 0.027701485902071, -0.24643076956272125, -0.16656553745269775, 0.05590682476758957, -0.10123384743928909, 0.10570034384727478, -0.1406225562095642, 0.12015101313591003, 0.14899280667304993, 0.09991022944450378, -0.10355493426322937, -0.1318628042936325, -0.09719633311033249, 0.19187705218791962, -0.1421166956424713, 0.04762096703052521, -0.09191041439771652, 0.06371578574180603, -0.08748532086610794, -0.19316256046295166, -0.19732902944087982, 0.08172030001878738, 0.3189651668071747, -0.21546229720115662, -0.2267579436302185, -0.25730907917022705, 0.14560480415821075, 0.8821294903755188, 0.34618574380874634, -0.18846222758293152, 0.3679899573326111, 0.8965861201286316, 0.2223631739616394, 0.6718767285346985, 0.40086039900779724, 0.29373371601104736, -0.2730640470981598, -0.6967089176177979, -0.301883727312088, -0.5093033909797668, -0.35151687264442444, 0.7803508043289185, -0.2679184675216675, 0.22077232599258423, 0.7997002005577087, -0.4598148763179779, -0.9465638995170593, -0.2774522006511688, 0.8795838952064514, -0.32418274879455566, -0.477700412273407, -0.41422170400619507, -0.5498515963554382, -0.43473637104034424, -0.38746437430381775, 0.36841100454330444, 0.5666030049324036, 0.46708953380584717]], "PMT_dist_dense_3/bias:0": [-0.8129794597625732], "PMT_dist_dense_3/kernel:0": [[0.0866137370467186], [0.08743370324373245], [-0.08587591350078583], [0.08714616298675537], [0.08954445272684097], [-0.0877659022808075], [0.0859011560678482], [0.08590171486139297], [-0.08869638293981552], [-0.09012126922607422], [0.08656458556652069], [0.08793407678604126], [-0.08761248737573624], [0.08693432062864304], [0.08948733657598495], [0.08804988861083984], [-0.09025361388921738], [0.08809224516153336], [-0.08743131905794144], [0.08895641565322876], [0.09015396237373352], [-0.08561050146818161], [-0.09035956859588623], [0.08530054986476898], [-0.08900366723537445], [0.08676741272211075], [-0.08883525431156158], [0.08794711530208588], [-0.05264058709144592], [0.0530284121632576], [-0.06837078928947449], [-0.06940484791994095], [-0.06508984416723251], [-0.026708368211984634], [0.042567700147628784], [-0.05957554653286934], [-0.05460665747523308], [-0.028033610433340073], [-0.05513119697570801], [-0.030162977054715157], [0.05005323141813278], [0.0627988800406456], [-0.07397199422121048], [0.0331699438393116], [0.05377890169620514], [0.036622095853090286], [0.055537525564432144], [0.02667524851858616], [0.048068564385175705], [0.07371814548969269], [0.026404868811368942], [0.037292543798685074], [-0.028025703504681587], [-0.06421312689781189], [-0.02752414345741272], [-0.050126343965530396], [-0.04086277633905411], [-0.038637321442365646], [0.04216090217232704], [-0.039689384400844574], [0.04214238375425339], [0.04010561853647232], [-0.041533514857292175], [0.040961213409900665]], "PMT_wall_dense_1/bias:0": [0.01805686578154564, 0.010523857548832893, 0.019733434543013573, 0.02121531032025814, 0.02079254388809204, 0.01161394827067852, 0.013065368868410587, 0.022019455209374428, 0.012926402501761913, 0.011968798004090786, 0.008132212795317173, 0.020314447581768036, 0.007683370728045702, 0.022824903950095177, 0.02144131250679493, 0.011410003527998924, 0.009559204801917076, 0.02158333919942379, 0.007548006251454353, 0.02001662738621235, 0.012775350362062454, 0.013847069814801216, 0.012794389389455318, 0.008767197839915752, 0.01465232577174902, 0.021232178434729576, 0.008142620325088501, 0.007588579785078764, 0.020131468772888184, 0.0184576865285635, 0.017339764162898064, 0.020506398752331734, 0.019116204231977463, 0.01999664679169655, 0.01800972782075405, 0.02097315341234207, 0.01806657947599888, 0.0195456650108099, 0.020449018105864525, 0.017501769587397575, 0.018898850306868553, 0.019770631566643715, 0.019653361290693283, 0.01938745193183422, 0.020258566364645958, 0.017744699493050575, 0.018004080280661583, 0.01657322235405445, 0.019792692735791206, 0.021607084199786186, 0.01993403397500515, 0.018227694556117058, 0.021110273897647858, 0.019924553111195564, 0.019566981121897697, 0.018077634274959564, 0.01906767673790455, 0.017427410930395126, 0.018193256109952927, 0.01914423704147339, 0.017028624191880226, 0.019729170948266983, 0.017250675708055496, 0.01991407573223114], "PMT_wall_dense_1/kernel:0": [[0.09179288893938065, 0.8534637689590454, -0.04723178222775459, 0.05618799850344658, -0.04768458008766174, -0.9602974057197571, 0.194489985704422, 0.058835070580244064, 1.0414506196975708, -0.960001528263092, -0.5401419401168823, 0.05634792149066925, -0.5523812174797058, -0.06413590908050537, -0.06208096444606781, 0.9227585196495056, -0.7545555233955383, 0.058787453919649124, -0.48620831966400146, 0.07687848061323166, -1.0351283550262451, 0.19719305634498596, 1.0811409950256348, 0.6334609985351562, -1.1201547384262085, 0.05954185500741005, -0.5440710783004761, 0.4765635132789612, -0.09940548986196518, 0.24036240577697754, 0.05314928665757179, -0.3417052626609802, -0.26188740134239197, -0.264129638671875, 0.0726979449391365, 0.12901762127876282, -0.17202603816986084, 0.21727678179740906, -0.32682859897613525, 0.10692968964576721, -0.15389594435691833, -0.3540053963661194, 0.30808356404304504, 0.2909720540046692, 0.1186605915427208, -0.2141007035970688, 0.12416455149650574, 0.023565879091620445, 0.10143205523490906, 0.1614149659872055, -0.22422820329666138, -0.12148812413215637, -0.2249917834997177, 0.1567041426897049, -0.1707136482000351, 0.18287284672260284, 0.27857717871665955, 0.028471926227211952, 0.06305139511823654, 0.24504533410072327, -0.04134267941117287, 0.2542358636856079, 0.03920809179544449, -0.10447275638580322], [-0.33465415239334106, 0.4389575123786926, -0.3364342749118805, -0.2477479726076126, 0.3220001459121704, 0.3886965215206146, 0.27792349457740784, 0.20878984034061432, -0.4590829610824585, -0.4378550350666046, -0.22344675660133362, -0.33397144079208374, 0.24359890818595886, 0.17347298562526703, 0.21856915950775146, 0.4326793849468231, -0.3473110795021057, 0.1823103129863739, -0.19332066178321838, -0.27952486276626587, -0.4825803339481354, -0.2598161995410919, -0.4325942397117615, -0.3761042058467865, -0.548405647277832, -0.29568296670913696, -0.22949440777301788, -0.31064045429229736, -0.22321221232414246, -0.4391269385814667, -0.5135049819946289, -0.17492631077766418, 0.3557949662208557, -0.22310341894626617, 0.4274701178073883, -0.15857498347759247, -0.49349236488342285, 0.28520604968070984, 0.15889175236225128, -0.5177773237228394, -0.356471449136734, -0.29788148403167725, -0.2888277471065521, 0.29768675565719604, 0.22356194257736206, -0.5116046071052551, -0.45954328775405884, -0.5843185782432556, -0.2686816155910492, -0.10098955780267715, -0.2307131588459015, 0.4279478192329407, 0.1094864159822464, -0.23248113691806793, -0.2864394783973694, -0.4712495803833008, 0.39678722620010376, -0.48769688606262207, 0.43455007672309875, 0.3116039037704468, -0.5375348329544067, 0.2539917826652527, -0.5354939103126526, -0.2217208296060562]], "PMT_wall_dense_2/bias:0": [0.2941349744796753, 0.3034326136112213, 0.30057647824287415, 0.30399370193481445, 0.3020803928375244, 0.3035690486431122, 0.3046855032444, 0.2986173927783966, 0.30375421047210693, 0.3035365641117096, 0.2986805737018585, 0.3040274977684021, 0.3029933571815491, 0.3021962344646454, 0.30093783140182495, 0.299641489982605, 0.3039972484111786, 0.2930299937725067, 0.2971920371055603, 0.29985690116882324, 0.28859370946884155, 0.29807496070861816, 0.30405423045158386, 0.3011181950569153, 0.3001432418823242, 0.30424171686172485, 0.2989635765552521, 0.301678329706192, 0.05848309397697449, 0.04259210824966431, 0.07883366197347641, 0.04662896320223808, 0.04355555772781372, 0.022775180637836456, 0.05801869183778763, 0.042234838008880615, 0.04490525275468826, 0.023791726678609848, 0.022657664492726326, 0.04723307117819786, 0.05733248218894005, 0.07655166834592819, 0.023102791979908943, 0.06669413298368454, 0.05188225209712982, 0.07520919293165207, 0.04041830077767372, 0.05242392048239708, 0.04434524476528168, 0.02085760049521923, 0.020875345915555954, 0.05975201353430748, 0.06792385876178741, 0.0584234856069088, 0.06539663672447205, 0.033206384629011154, 0.16256816685199738, 0.16253845393657684, 0.16463467478752136, 0.1626102775335312, 0.1642153114080429, 0.16390223801136017, 0.16412681341171265, 0.1604912281036377], "PMT_wall_dense_2/kernel:0": [[-0.01095306035131216, 0.00013850124378222972, 0.008468253538012505, -0.00017644553736317903, 4.843189526582137e-05, -0.0001898646296467632, -4.4468681153375655e-05, 0.0002343812957406044, 0.0001273278467124328, -0.016093602403998375, -0.0006744884885847569, 0.00012108700320823118, -0.00015949018415994942, 6.820432463428006e-05, -0.0853767991065979, -0.11395138502120972, 0.00014587790064979345, 0.05417660251259804, -0.05782037600874901, -0.00025005266070365906, 0.18146638572216034, 0.0021137616131454706, 0.00023072499607224017, -0.045238006860017776, 0.11251071095466614, -0.0001424167858203873, 0.11685585975646973, 0.0007568569271825254, 0.04392945393919945, -0.2002391517162323, -0.25808659195899963, 9.30039313971065e-05, -0.00034394467365927994, 0.28573736548423767, -0.0024931433144956827, -0.06975854933261871, -0.07051100581884384, 0.2746763527393341, 0.34978434443473816, 0.00168423296418041, -0.16281844675540924, -0.13749493658542633, 0.273861289024353, 0.01675317995250225, -0.029145417734980583, 0.0005923584685660899, -0.11829257011413574, -0.05877158045768738, 0.15846914052963257, 0.2608291506767273, 0.2455928474664688, 0.004177122842520475, -0.0002517896064091474, -0.00026871092268265784, 0.0003863099555019289, 0.18316349387168884, 0.5202535390853882, -0.5233369469642639, -0.47305193543434143, 0.3966011106967926, 0.464312881231308, 0.3990628719329834, 0.4207872748374939, 0.49284136295318604], [-2.927026798715815e-05, 4.104779509361833e-05, -1.03674792626407e-05, 7.4698687058116775e-06, 9.701976523501799e-06, 4.886423266725615e-05, -1.5068739230628125e-05, 8.572234946768731e-05, 1.4531433407682925e-05, 3.631409072113456e-06, 4.24595282311202e-06, 2.6569772671791725e-05, -2.807089185807854e-05, -2.389733344898559e-05, 7.255808304762468e-05, -2.7521498850546777e-05, 9.159349247056525e-06, 1.081156710824871e-06, 2.3092896299203858e-05, 5.100645921629621e-06, 3.0692899599671364e-05, 7.88811594247818e-05, -1.323780566053756e-06, -9.50896446738625e-06, -1.1980480849160813e-05, -6.422538717743009e-06, 4.5190186938270926e-05, 