{"PMT_dist_dense_1/bias:0": [-0.04716465249657631, -0.03230221942067146, -0.057930827140808105, -0.05811865255236626, -0.041108131408691406, -0.05708456039428711, -0.04520580545067787, -0.061491578817367554, -0.04610476642847061, -0.0904923528432846, -0.050227198749780655, -0.09109101444482803, -0.04345548897981644, -0.09204494208097458, -0.05554480478167534, -0.04495387151837349, -0.04562194645404816, -0.06333950906991959, -0.05328158289194107, -0.05599324405193329, -0.05197589844465256, -0.05000487342476845, -0.05078605189919472, -0.0569986067712307, -0.0985388234257698, -0.06272399425506592, -0.054726142436265945, -0.043622683733701706, -0.1490059792995453, -0.10882264375686646, -0.07092740386724472, -0.08677391707897186, -0.1224936917424202, -0.1387721449136734, -0.06967273354530334, -0.11057843267917633, -0.08300516754388809, -0.11231588572263718, -0.12312266230583191, -0.0967521145939827, -0.11819963157176971, -0.07335031777620316, -0.1141132339835167, -0.10953803360462189, -0.10984911024570465, -0.12451453506946564, -0.11280938237905502, -0.06894026696681976, -0.1099332645535469, -0.14064757525920868, -0.11131183803081512, -0.11558002233505249, -0.13214941322803497, -0.06445875018835068, -0.11741381138563156, -0.11862790584564209, -0.07886940985918045, -0.08594837039709091, -0.060001567006111145, -0.08905317634344101, -0.10989222675561905, -0.10081475973129272, -0.08632319420576096, -0.1255618780851364], "PMT_dist_dense_1/kernel:0": [[0.5251027345657349, -0.6652349829673767, 0.6125298738479614, -0.5921970009803772, -0.6603411436080933, -0.5931239724159241, -0.6413995027542114, 0.6375848650932312, 0.48228079080581665, -0.15671344101428986, 0.5032185912132263, 0.16896457970142365, 0.6546740531921387, -0.12524749338626862, -0.5736610293388367, 0.44405949115753174, -0.47688812017440796, 0.6601498126983643, -0.6168360710144043, -0.5646397471427917, 0.5311360955238342, 0.5119670629501343, 0.5225883722305298, 0.5821657776832581, 0.10762669891119003, 0.6581240296363831, -0.5642237663269043, -0.4163287580013275, 0.006057014223188162, 0.19614365696907043, 0.5813090205192566, -0.17159433662891388, -0.33113351464271545, -0.013272101059556007, -0.7412857413291931, 0.23767651617527008, 0.5421883463859558, 0.4427468478679657, 0.17562198638916016, 0.42003363370895386, 0.23718154430389404, -0.787352979183197, 0.21710218489170074, 0.2356487214565277, 0.20829403400421143, -0.122566819190979, 0.4464203715324402, 0.7437446713447571, -0.3882503807544708, 0.0333707295358181, 0.3907012641429901, 0.37663891911506653, -0.08781144767999649, 0.6778153777122498, -0.39070525765419006, 0.2805662155151367, -0.35329288244247437, -0.6095341444015503, -0.5681878328323364, 0.5875487327575684, -0.25103095173835754, 0.24543559551239014, 0.6164548397064209, 0.40807005763053894]], "PMT_dist_dense_2/bias:0": [-0.02997865155339241, -0.023735400289297104, -0.037186793982982635, -0.0291148591786623, -0.028132447972893715, -0.04720716178417206, -0.03405468165874481, -0.023265404626727104, -0.04841453209519386, -0.037312690168619156, -0.046932533383369446, -0.03239840269088745, -0.0348515622317791, -0.03213366121053696, -0.006091651506721973, -0.04392598941922188, -0.04160883277654648, -0.03829522430896759, -0.030786335468292236, -0.03625163435935974, -0.04483240842819214, -0.025369049981236458, -0.029457811266183853, -0.029512988403439522, -0.02323128655552864, -0.033214323222637177, -0.04893913120031357, -0.04029517248272896, -0.10083741694688797, -0.09714069217443466, -0.10472752153873444, -0.0912136361002922, -0.11747031658887863, -0.07652590423822403, -0.11642790585756302, -0.10616470873355865, -0.1011618971824646, -0.06052344664931297, -0.10139059275388718, -0.07918482273817062, -0.12408754229545593, -0.10970199853181839, -0.11268621683120728, -0.06779266148805618, -0.11090084165334702, -0.08769721537828445, -0.08691149950027466, -0.07738476991653442, -0.09456118196249008, -0.10591857880353928, -0.05331176519393921, -0.11524734646081924, -0.08099281042814255, -0.12036948651075363, -0.05205143615603447, -0.10438705235719681, -0.026740537956357002, 0.0077528031542897224, -0.00034396222326904535, 0.003971459344029427, -0.017338119447231293, -0.031852710992097855, -0.006884295493364334, -0.0041253697127103806], "PMT_dist_dense_2/kernel:0": [[-0.0013409277889877558, -0.04070467874407768, -0.008060269989073277, -0.00526686804369092, -0.008200486190617085, 0.0030568167567253113, 0.02580861933529377, -0.01530278567224741, -0.035197749733924866, 0.0017819415079429746, 0.0682644248008728, -0.09669328480958939, -0.006903356406837702, -0.07267927378416061, -0.09177440404891968, 0.07325074821710587, -0.08773654699325562, -0.024050360545516014, -0.06863103061914444, 0.05223986878991127, -0.01841432973742485, 0.08043868839740753, 0.000366409047273919, -0.03807402774691582, 0.0073217726312577724, -0.019915400072932243, 0.013646588660776615, -0.011343438178300858, -0.674355149269104, 0.917247474193573, -0.16357755661010742, 0.24006307125091553, 0.2624055743217468, -1.5567837953567505, 0.44195041060447693, 0.31585901975631714, 0.37428098917007446, -1.5654407739639282, -0.32992318272590637, -1.0102362632751465, -0.40849408507347107, -0.2558823227882385, 0.3011995255947113, -1.1884080171585083, -0.3352765738964081, -0.7399405241012573, 0.8095893263816833, -1.5266118049621582, -0.8030823469161987, -0.29808923602104187, 1.5084198713302612, 0.3669089674949646, 1.3118743896484375, 0.2235569953918457, 1.141258955001831, -0.47001054883003235, 0.29757124185562134, -0.3050273060798645, 0.20006975531578064, -0.2864646017551422, -0.3799651563167572, -0.2688647210597992, -0.30582016706466675, -0.3550587296485901], [-0.12186147272586823, -0.00817620474845171, 0.10833892226219177, 0.10193115472793579, -0.0013755119871348143, 0.061793774366378784, 0.00924838799983263, -0.0347745381295681, -0.10772369056940079, 0.08633017539978027, 0.07075487077236176, 0.008055583573877811, 0.003306215861812234, -0.012004965916275978, 0.005677551496773958, 0.01069839857518673, -0.01361881848424673, -0.08725252747535706, -0.003331104526296258, -0.05719780549407005, 0.004891083110123873, 0.04754325747489929, -0.12824559211730957, 0.10532119125127792, -0.06423351168632507, -0.006738183554261923, -0.07408926635980606, -0.03968009725213051, -0.5274274945259094, 0.9162788391113281, 0.19898352026939392, -0.04704560339450836, 0.008945747278630733, 1.669797420501709, -0.4356767237186432, 0.14463891088962555, -0.07636459171772003, -1.6125410795211792, 0.09828337281942368, -1.0601611137390137, -0.21938037872314453, -0.05330776795744896, -0.10522782802581787, 1.1615629196166992, 0.18978352844715118, 0.6056279540061951, -0.6843480467796326, -1.5297598838806152, 0.6026309728622437, -0.09587936848402023, 1.6398556232452393, 0.1508176326751709, -1.4940391778945923, -0.09777625650167465, 1.1995221376419067, 0.3634065091609955, -0.16195012629032135, -0.03035273775458336, -0.06496118754148483, -0.08196783810853958, 0.043937020003795624, 0.1375681608915329, 0.03789082542061806, -0.160183385014534], [-0.07099130004644394, 0.00033752256422303617, 0.031216885894536972, 0.10440035164356232, -0.03584704548120499, 0.14140300452709198, -0.05276832729578018, -0.002750579733401537, -0.15637147426605225, -0.006120803765952587, 0.1462422013282776, 0.002215589163824916, 0.14230044186115265, -0.017202157527208328, -0.030784644186496735, -0.006284261588007212, 0.007840179838240147, -0.14274144172668457, 0.15432876348495483, 0.06925275921821594, -0.09092110395431519, -0.004326910246163607, 0.0001259248238056898, -0.08191710710525513, -0.14251574873924255, 0.0028125110547989607, -0.11832374334335327, -0.10867884010076523, 0.6554948091506958, -0.7511019110679626, 0.2098766565322876, -0.27388614416122437, -0.3259521424770355, -1.2069014310836792, -0.4211621582508087, 0.2936602234840393, -0.2979374825954437, -1.3359909057617188, -0.2514365613460541, -0.8020747303962708, 0.3866824209690094, 0.3769679069519043, -0.19922010600566864, -0.9692544341087341, 0.5082160234451294, -0.6699761748313904, -0.7943859696388245, -1.1943700313568115, -0.7202044129371643, 0.2591852843761444, 1.235371708869934, -0.5090318918228149, -1.1496273279190063, -0.30464980006217957, 1.0978540182113647, -0.4645161032676697, 0.2588404417037964, -0.26022574305534363, 0.25965094566345215, -0.22749915719032288, 0.14471708238124847, -0.2417319267988205, 0.06810782849788666, -0.21105673909187317], [0.08792705833911896, -0.192522794008255, 0.18514379858970642, 0.1659134328365326, 0.005143548361957073, -0.16298146545886993, -0.07206499576568604, 0.02529163286089897, -0.04825734347105026, -0.03973667696118355, -0.01757301390171051, -0.11235738545656204, -0.1404518336057663, 0.14738956093788147, 0.10008612275123596, -0.10449724644422531, -0.013161336071789265, -0.04568392410874367, 0.0778675302863121, 0.051434971392154694, -0.016102027148008347, 0.017462851479649544, 0.09175186604261398, 0.12770147621631622, -0.08595355600118637, -0.1258222609758377, 0.12288595736026764, -0.031578678637742996, -0.43483519554138184, 0.825420618057251, -0.29281672835350037, 0.3281254172325134, -0.2978762090206146, 1.1943793296813965, 0.5199848413467407, 0.4445267915725708, 0.4457181990146637, -1.062185287475586, 0.286183625459671, 0.8114339113235474, -0.3153347074985504, 0.4257017970085144, -0.21354080736637115, -0.8174127340316772, -0.48552244901657104, -0.5400711894035339, -0.688854455947876, 1.1256778240203857, 0.6049200296401978, 0.15319693088531494, 1.0700182914733887, -0.46983686089515686, -1.0816220045089722, 0.21119144558906555, 0.944938600063324, -0.5013738870620728, 0.10945551842451096, -0.22224394977092743, -0.21494010090827942, -0.15287263691425323, -0.2004338502883911, -0.21354849636554718, 0.22193554043769836, 0.16731150448322296], [0.08430065959692001, 0.00292949634604156, -0.0998108983039856, -0.004956452175974846, -0.005564350169152021, -0.013159572146832943, -0.0345153845846653, -0.017150016501545906, 0.02466101199388504, 0.015088959597051144, -0.01779399812221527, 0.00645174365490675, 0.009297790937125683, 0.009773427620530128, -0.015456289984285831, 0.10462359338998795, -0.006341461557894945, -0.006582131143659353, 0.02797846309840679, 0.01302400417625904, 0.044104672968387604, -0.11099445074796677, -0.030694589018821716, 0.005669036414474249, 0.012784737162292004, 0.033439092338085175, 0.032512206584215164, 0.0730857253074646, -0.4691011607646942, -0.8097379207611084, -0.11354990303516388, 0.017642367631196976, 0.12463784962892532, 1.679309606552124, 0.4202420711517334, -0.2754766345024109, 0.12197524309158325, 1.6718144416809082, -0.1963355541229248, -1.0757750272750854, 0.2117757350206375, -0.1743120700120926, -0.17229005694389343, -1.160313606262207, 0.3463505208492279, 0.6918125748634338, -0.6485168933868408, 1.5298357009887695, -0.6613316535949707, 0.23008842766284943, 1.7331154346466064, 0.22968050837516785, 1.449989676475525, 0.12104247510433197, 1.2137361764907837, -0.389981210231781, -0.1569579690694809, -0.17551308870315552, 0.05833156406879425, 0.11081527918577194, -0.20185069739818573, 0.08332056552171707, -0.09716180711984634, 0.1415003091096878], [-0.04272553324699402, -0.09988681972026825, 0.030723189935088158, -0.005723508540540934, 0.10192781686782837, 0.0014876073691993952, 0.09240547567605972, -0.12786321341991425, 0.007780386600643396, -0.059566009789705276, 0.04647061973810196, 0.07088364660739899, 0.11871066689491272, 0.08016879856586456, -0.05916966125369072, 0.0402030348777771, -0.008705941960215569, 0.15498001873493195, -0.11060674488544464, -0.04766850546002388, -0.11540225893259048, 0.0038338645827025175, 0.10425233840942383, 0.1185995414853096, 0.06629488617181778, 0.05330988019704819, 0.15436841547489166, 0.028288498520851135, -0.5399326086044312, -0.8670427799224854, 0.17273852229118347, 0.21672101318836212, 0.3508250117301941, 1.1140605211257935, 0.40569326281547546, -0.43612322211265564, -0.33377358317375183, -1.2106729745864868, 0.29062512516975403, -0.8171170353889465, 0.3618074953556061, 0.3410322070121765, 0.1452118456363678, -0.824436604976654, -0.4394911527633667, -0.65048748254776, -0.7579236626625061, 1.0902844667434692, -0.5905519127845764, -0.18230238556861877, -1.2739568948745728, 0.35845649242401123, 1.080187201499939, 0.37955236434936523, -1.0524426698684692, -0.40519341826438904, -0.27037349343299866, -0.2761876583099365, 0.29539451003074646, -0.16175174713134766, 0.2259562760591507, 0.19173674285411835, 0.16991640627384186, -0.13225388526916504], [0.010672671720385551, 0.0036921417340636253, 0.007043122313916683, 0.007517213933169842, -0.05695255845785141, 0.019646678119897842, 0.0028100137133151293, -0.013085560873150826, 0.0008925952715799212, -0.002365478780120611, -0.016887245699763298, -0.015910599380731583, -0.0011820157524198294, -0.012492448091506958, 0.012214652262628078, -0.015055620111525059, 0.0008827581768855453, 0.02809567004442215, 0.023882562294602394, -0.008853443898260593, -0.0071531031280756, -0.012688915245234966, -0.05182697996497154, 0.015918584540486336, 0.010852093808352947, 0.0005755781312473118, 0.010490057989954948, -0.003480784362182021, 0.5889829993247986, -1.0912065505981445, 0.19330842792987823, 0.20533247292041779, -0.15162500739097595, -1.5644252300262451, 0.5779812335968018, -0.3520626425743103, 0.19293664395809174, 1.590016484260559, -0.31320920586586, 1.0622472763061523, 0.31272614002227783, 0.2564532160758972, 0.14348816871643066, -1.3075989484786987, -0.30326271057128906, 0.7919276356697083, -0.7293239235877991, -1.712196946144104, -0.8276270031929016, -0.24771395325660706, -1.798626184463501, -0.4824037551879883, -1.5685293674468994, 0.1756998598575592, -1.328383445739746, -0.3027024567127228, 0.4035602807998657, 0.3371634781360626, 0.2328549027442932, -0.3427688479423523, 0.3364270031452179, -0.35125604271888733, -0.3421342670917511, 0.26036036014556885], [0.15397898852825165, -0.06869928538799286, -0.037368662655353546, 0.1409802883863449, -0.1678040623664856, -0.11955427378416061, -0.1236000657081604, -0.11366238445043564, 0.009703411720693111, 0.060576703399419785, -0.12189147621393204, -0.030058855190873146, -0.19677992165088654, 0.06998968124389648, -0.04146689549088478, -0.0008267860393971205, 0.1906919926404953, 0.08245153725147247, -0.06290629506111145, -0.13987858593463898, -0.13234537839889526, 0.12910187244415283, -0.007590943947434425, -0.06229039281606674, 0.13071925938129425, -0.07560649514198303, -0.18537075817584991, 0.18766824901103973, -0.5792604684829712, 0.6937018632888794, 0.19802774488925934, -0.20909613370895386, 0.2688770294189453, -1.04275643825531, -0.468036949634552, 0.410574734210968, 0.41980692744255066, 1.0079673528671265, -0.39399832487106323, 0.758000373840332, -0.39485645294189453, 0.21465353667736053, -0.3152812719345093, -0.9251320958137512, 0.44673585891723633, 0.49071434140205383, 0.6125478744506836, -1.0449044704437256, -0.6462514996528625, 0.3101394474506378, -1.1171125173568726, -0.3484607934951782, 1.0671526193618774, 0.31957167387008667, 0.983779788017273, 0.4151988923549652, 0.10744011402130127, 0.1434040665626526, 0.19938692450523376, -0.24534423649311066, -0.14067472517490387, -0.29036906361579895, 0.23501254618167877, -0.14769622683525085], [-0.1187056377530098, 0.0017234425758942962, 0.03751372545957565, -0.002511260099709034, 0.00853700190782547, 0.012571507133543491, 0.03724539279937744, -0.03663700446486473, 0.0699128732085228, 0.03185039386153221, 0.12324082106351852, 0.042263515293598175, 0.14203935861587524, -0.04206540063023567, -0.08478184789419174, 0.022380104288458824, 0.13473345339298248, 0.02252199500799179, 0.050367895513772964, -0.10653834789991379, 0.02621717005968094, 0.13706281781196594, 0.09171318262815475, 0.07397677004337311, 0.026197807863354683, -0.053788941353559494, -0.07980819046497345, 0.029009202495217323, -0.5433134436607361, 0.8233970999717712, -0.3386645019054413, -0.18103650212287903, 0.3476082384586334, -1.407214641571045, -0.4468797743320465, 0.332335501909256, 0.2860178053379059, -1.4785571098327637, -0.23500607907772064, -0.9716668725013733, 0.41022130846977234, -0.3547112047672272, -0.22792677581310272, 1.0877403020858765, -0.4000667929649353, 0.6191492080688477, 0.8043344616889954, 1.4365053176879883, 0.6674458980560303, -0.2595551609992981, -1.4851133823394775, 0.31546148657798767, 1.3077901601791382, -0.28394195437431335, 1.0726406574249268, 0.38283872604370117, 0.19908465445041656, 0.19186970591545105, 0.1522887647151947, 0.20145660638809204, -0.2700803875923157, -0.14034049212932587, 0.19011138379573822, 0.18685345351696014], [0.11238368600606918, -0.026596901938319206, -0.08068808913230896, -0.21642085909843445, 0.19388289749622345, 0.04502556473016739, -0.22030727565288544, 0.16745737195014954, -0.09530739486217499, -0.12937594950199127, -0.06176803261041641, -0.05573873221874237, -0.027872487902641296, 0.12070021033287048, -0.14831802248954773, 0.17143940925598145, 0.12572501599788666, -0.19148656725883484, 0.14138032495975494, 0.053365983068943024, -0.21970927715301514, -0.19975273311138153, 0.2004443258047104, -0.08052124828100204, -0.13068169355392456, -0.15443752706050873, -0.06599444895982742, 0.05821944773197174, 0.614813506603241, 0.6479492783546448, -0.4151289165019989, -0.3279755413532257, 0.33420804142951965, 0.656545877456665, 0.5361891388893127, 0.6037293076515198, -0.5592350363731384, -0.5231165289878845, 0.36981266736984253, 0.6226599216461182, 0.4368651509284973, -0.5109601616859436, 0.3431411385536194, -0.6625435948371887, -0.5788492560386658, 0.6622220277786255, 0.6523666381835938, 0.6223514080047607, 0.622429609298706, -0.37142062187194824, 0.6264481544494629, 0.5208045840263367, 0.610280454158783, 0.4671913683414459, -0.5674089193344116, -0.42450737953186035, 0.40438130497932434, 0.47791391611099243, -0.497191458940506, -0.4399723410606384, 0.3622434735298157, -0.49385780096054077, 0.3868781626224518, -0.4378557503223419], [-4.4759992306353524e-05, 0.13532014191150665, -0.1790761798620224, -0.07867900282144547, 0.04304422810673714, -0.07023649662733078, 0.05386969819664955, 0.024901531636714935, 0.07160306721925735, 0.10647762566804886, 0.10201934725046158, 0.1034087985754013, -0.011777070350944996, 0.16212405264377594, -0.02349443919956684, 0.16275088489055634, 0.0397113636136055, 0.07308155298233032, 0.191151961684227, 0.07361848652362823, -0.01994543895125389, 0.18668611347675323, -0.03677985444664955, -0.00027582221082411706, -0.18949243426322937, 0.05700700357556343, -0.2004125565290451, 0.10038205236196518, -0.4811182916164398, -0.7433067560195923, 0.2641438841819763, 0.3169946074485779, 0.3555881679058075, 0.9367533922195435, 0.4445040225982666, -0.27889660000801086, -0.2559444010257721, 1.1424624919891357, 0.31368139386177063, 0.7667608857154846, -0.3936842381954193, 0.37552258372306824, 0.2095785140991211, 0.8330215215682983, 0.37117335200309753, -0.4899807870388031, 0.6613271236419678, -0.9321869611740112, 0.45938393473625183, 0.28429558873176575, -1.0445915460586548, 0.42292580008506775, -0.9060760736465454, 0.3611026406288147, -0.951349675655365, 0.4791928827762604, 0.16064554452896118, 0.34432026743888855, -0.1803928017616272, -0.18511946499347687, -0.15040281414985657, -0.3119673430919647, 0.2139495313167572, -0.2078561931848526], [0.05864601582288742, -0.0871470496058464, 0.07603994011878967, -0.07166171818971634, -0.0883675143122673, -0.03363065421581268, 0.2044243961572647, 0.04216604307293892, -0.04911985248327255, -0.22122237086296082, -0.08148139715194702, -0.07334008812904358, -0.10321632027626038, 0.17382843792438507, 0.15964031219482422, 0.0760054886341095, 0.032833587378263474, 0.057465050369501114, 0.22786107659339905, -0.2366214096546173, -0.10787984728813171, -0.11308556795120239, 0.20679563283920288, -0.13580653071403503, 0.23886047303676605, -0.11745890229940414, -0.10715825110673904, -0.21029789745807648, 0.5953596234321594, 0.5834118127822876, -0.2401616871356964, -0.4284959137439728, 0.36433401703834534, 0.5906427502632141, -0.43828439712524414, -0.5877953767776489, -0.5426504015922546, -0.6280481219291687, 0.384488582611084, 0.5992772579193115, -0.4410687983036041, -0.4172259271144867, 0.3604723811149597, 0.6163069009780884, 0.42473775148391724, -0.48831698298454285, 0.6051583886146545, 0.6228981018066406, 0.5979292988777161, 0.38933441042900085, 0.6868077516555786, -0.5024802088737488, 0.5038732886314392, -0.3345959186553955, -0.6802235245704651, 0.5152032375335693, -0.3419003486633301, -0.49128299951553345, 0.44755035638809204, -0.365047425031662, 0.4680153727531433, -0.36929085850715637, 0.34404483437538147, 0.4100731909275055], [-0.06369635462760925, 0.03513176739215851, -0.03504464030265808, -0.011754985898733139, 0.01538124494254589, -0.00938504934310913, 0.02047547698020935, 0.007220745552331209, 0.017536548897624016, -0.01670859195291996, 0.05537253990769386, -0.007926293648779392, 0.03553022816777229, -0.014657625928521156, 0.04207129031419754, 0.019282950088381767, 0.005791447125375271, 0.0069759502075612545, 0.007148279808461666, 0.009091592393815517, 0.013808859512209892, 0.0041173286736011505, 0.012972819618880749, -0.0364542081952095, 0.010945858433842659, 0.035424329340457916, -0.03239306062459946, 0.018920008093118668, -0.5142313838005066, 1.0220136642456055, 0.01780601032078266, 0.014124676585197449, 0.11240485310554504, -1.7883782386779785, 0.5072406530380249, -0.21981145441532135, -0.11611621081829071, 1.7801473140716553, 0.03935611620545387, -1.1384230852127075, 0.35830286145210266, 0.1998232901096344, 0.14989420771598816, -1.267526388168335, -0.3824361264705658, -0.6677005290985107, -0.7523805499076843, 1.7834608554840088, -0.7434382438659668, 0.05767815560102463, -1.7649811506271362, 0.3421698808670044, 1.5861165523529053, -0.06947695463895798, -1.456810712814331, 0.18781065940856934, 0.19658906757831573, -0.15041135251522064, 0.2527352571487427, 0.2662249207496643, 0.2554454207420349, -0.30273330211639404, -0.2749873995780945, 0.2547641098499298], [0.046379994601011276, 0.12937937676906586, -0.05560014024376869, -0.09670660644769669, -0.12953248620033264, 0.13384553790092468, 0.12943808734416962, -0.16089317202568054, 0.05475018173456192, 0.025862524285912514, 0.12249420583248138, -0.19995926320552826, -0.19754916429519653, -0.21678394079208374, 0.19657915830612183, -0.1309901773929596, -0.18870766460895538, -0.10445483773946762, 0.08690615743398666, -0.09464039653539658, 0.12876810133457184, 0.12562769651412964, 0.1512313038110733, -0.09527336061000824, -0.08336081355810165, 0.10889624059200287, 0.10721345990896225, 0.1099471002817154, -0.5547053813934326, -0.6597185134887695, -0.45029398798942566, 0.3635135293006897, 0.5133611559867859, -0.6513830423355103, -0.5827367305755615, 0.6209091544151306, 0.4859761893749237, -0.5780763626098633, 0.4760322570800781, -0.6094642877578735, -0.47655025124549866, -0.4535629451274872, 0.4278404116630554, 0.6373096704483032, 0.5634697675704956, -0.5683073997497559, 0.508713960647583, -0.6119199991226196, 0.5432010889053345, 0.4643215537071228, 0.5661052465438843, -0.4710472524166107, 0.5570624470710754, -0.3779493570327759, 0.5372046232223511, 0.45691007375717163, 0.4277987480163574, -0.4755780100822449, -0.41576865315437317, -0.5966174006462097, -0.565015435218811, -0.42807915806770325, 0.4161972403526306, 0.4987231194972992], [-0.1247556060552597, 0.19095157086849213, -0.07473548501729965, -0.19462621212005615, -0.035169150680303574, 0.07543793320655823, 0.08519435673952103, 0.0577157586812973, 0.08485479652881622, 0.17030635476112366, -0.05383308604359627, 0.06132292374968529, -0.0785813257098198, -0.13247232139110565, -0.03457970917224884, -0.009245788678526878, 0.10569503903388977, 0.11549519002437592, -0.030685346573591232, -0.14073170721530914, 0.14765028655529022, -0.04848290979862213, -0.06008458510041237, -0.07919826358556747, -0.011370985768735409, -0.1384868174791336, 0.06478691846132278, 0.0430256649851799, 0.5303793549537659, -0.7787769436836243, 0.3545026481151581, -0.2741346061229706, -0.20630817115306854, 1.1121755838394165, 0.3897912800312042, 0.40128806233406067, 0.33442988991737366, 1.077000379562378, 0.23678584396839142, -0.7897281646728516, 0.4015805125236511, 0.25203409790992737, -0.3018404543399811, 0.7384065985679626, -0.4334956705570221, -0.4902109205722809, 0.6239303350448608, 1.0095139741897583, -0.5914574861526489, 0.3226078748703003, -1.1184468269348145, -0.4201272130012512, -0.9699975252151489, -0.3038083016872406, 0.9619695544242859, -0.34743770956993103, 0.22330456972122192, -0.2597755491733551, 0.2704079747200012, 0.29667484760284424, 0.12950274348258972, 0.18579863011837006, -0.18432089686393738, 0.3256532549858093], [0.17094455659389496, 0.13456620275974274, -0.11434261500835419, 0.09279323369264603, 0.14970596134662628, 0.08071669191122055, -0.13489991426467896, -0.14501208066940308, -0.13174167275428772, -0.1318361461162567, 0.14758314192295074, 0.13559356331825256, 0.0019132739398628473, -0.107623390853405, -0.19452261924743652, -0.16777540743350983, 0.03803875669836998, -0.03649606183171272, 0.004328055307269096, 0.08648567646741867, 0.08906231075525284, -0.014980741776525974, 0.06152699142694473, 0.01935303583741188, -0.18903066217899323, -0.027048654854297638, -0.02192050963640213, -0.03309759497642517, 0.5746919512748718, -0.7921814918518066, 0.2967957556247711, 0.20645931363105774, 0.3960343301296234, -1.238561749458313, -0.5196135640144348, -0.4126426875591278, -0.3290943503379822, -1.2090895175933838, 0.29488179087638855, 0.9167537093162537, -0.2856697142124176, -0.3811197280883789, 0.23195844888687134, -0.8264940977096558, -0.4466065764427185, -0.6774142384529114, -0.6898145079612732, -1.191439151763916, -0.6266037225723267, -0.28811028599739075, 1.192578911781311, 0.30464109778404236, 1.1462453603744507, 0.3784191608428955, -0.9848961234092712, 0.40128257870674133, -0.23033103346824646, -0.2686823904514313, 0.2611803710460663, -0.2538556456565857, 0.31187811493873596, 0.29192787408828735, -0.24040691554546356, -0.25806427001953125], [0.006641075946390629, -0.10240018367767334, -0.08714818209409714, 0.10566528141498566, -0.013641957193613052, -0.01385416742414236, 0.008396351709961891, -0.10197922587394714, -0.002598036313429475, 0.006221499759703875, 0.016492275521159172, 0.004517826251685619, -0.12350036203861237, -0.037530239671468735, 0.05957093462347984, -0.10437414050102234, 0.03194770589470863, -0.051582422107458115, 0.0029724237974733114, -0.07511109858751297, 0.07560013979673386, -0.011023268103599548, -0.013574168086051941, -0.09610200673341751, -0.006087664980441332, 0.01724970154464245, 0.035248052328825, 0.02383774146437645, 0.6763397455215454, -0.9797907471656799, -0.2736433446407318, 0.2663726806640625, 0.3259732127189636, 1.386165976524353, -0.5999590754508972, 0.3771933317184448, -0.3925267159938812, -1.4527117013931274, 0.26083430647850037, -1.0580646991729736, 0.452542781829834, -0.2994561791419983, 0.18934647738933563, -1.1220040321350098, -0.4327291250228882, -0.7078468799591064, 0.8535504937171936, -1.4475611448287964, -0.6004647016525269, 0.3562479317188263, 1.3572357892990112, 0.48381173610687256, -1.2071750164031982, 0.29008790850639343, -1.0941672325134277, -0.3757670223712921, -0.37816178798675537, 0.27387040853500366, 0.341311514377594, 0.2875458002090454, 0.3515249192714691, -0.4327890872955322, -0.33034124970436096, 0.31335729360580444], [0.061345089226961136, -0.04233686253428459, 0.026467399671673775, 0.07251770794391632, -0.19516704976558685, 0.059858500957489014, -0.06439432501792908, 0.023461278527975082, 0.10326176881790161, -0.021363776177167892, -0.06789905577898026, -0.051819588989019394, 0.014174074865877628, 0.1944422721862793, -0.031008150428533554, -0.02912072278559208, 0.06923605501651764, 0.18466734886169434, 0.09842120110988617, -0.0858011543750763, -0.016278663650155067, -0.0009949665982276201, 0.11140848696231842, 0.1325061023235321, 0.1756463199853897, -0.12262982130050659, 0.05474827066063881, 0.18267570436000824, -0.4504023790359497, 0.7743905782699585, 0.3503154516220093, 0.14933325350284576, -0.20694397389888763, -0.9819889068603516, -0.3477782607078552, -0.41376936435699463, 0.4392862021923065, -1.030415415763855, -0.2715578079223633, -0.8997876644134521, 0.423260897397995, -0.25435715913772583, -0.2737610340118408, -0.9173573851585388, -0.31766876578330994, 0.6796327829360962, -0.7067875862121582, -0.9695872664451599, 0.5634323358535767, 0.20500719547271729, 1.0813486576080322, -0.372972697019577, -1.0908801555633545, 0.1744234263896942, -1.0149650573730469, -0.3427962362766266, -0.14123480021953583, 0.22250649333000183, -0.15738260746002197, -0.15572859346866608, 0.11685778200626373, 0.27476444840431213, 0.24006307125091553, -0.14287421107292175], [-0.05164889246225357, 0.043234433978796005, -0.0013442384079098701, -0.04886302351951599, 0.001953351544216275, 0.0996469184756279, 0.05983426421880722, -0.16376841068267822, -0.12479835748672485, 0.0050502498634159565, -0.09222235530614853, -0.08250068128108978, 0.13598038256168365, 0.09431682527065277, -0.014116938225924969, 0.06817267835140228, -0.09620599448680878, 0.08954492956399918, -0.09619715809822083, 0.012792265973985195, 0.0028736668173223734, 0.0040022702887654305, -0.09859757870435715, 0.1152452826499939, -0.0796169713139534, 0.0978153720498085, 0.038947030901908875, -0.08551821857690811, 0.533181369304657, 0.7389589548110962, 0.15352585911750793, 0.17907026410102844, -0.15767130255699158, 1.374229907989502, 0.35177549719810486, -0.2679766118526459, -0.27107128500938416, -1.5078699588775635, 0.3414880931377411, -0.9896832704544067, -0.4531003534793854, 0.22690869867801666, -0.24133458733558655, 1.1449414491653442, 0.4087894856929779, -0.5670208930969238, -0.700948178768158, -1.330457091331482, 0.567783772945404, 0.10405410826206207, 1.4299007654190063, 0.45775431394577026, -1.2366042137145996, 0.1457533985376358, 1.2475024461746216, -0.3193420171737671, -0.11935807019472122, -0.08983715623617172, 0.028321070596575737, 0.12810789048671722, -0.18560083210468292, -0.08588860183954239, -0.044896189123392105, 0.050469569861888885], [0.15737436711788177, 0.1021801307797432, -0.19631525874137878, 0.015302472747862339, -0.027287723496556282, -0.009018885903060436, -0.13812030851840973, -0.14699316024780273, -0.12201061099767685, 0.023847447708249092, -0.008301842957735062, 0.09066670387983322, 0.08604566752910614, 0.1656382828950882, -0.20829647779464722, -0.0944872722029686, -0.1868765652179718, -0.0027595499996095896, 0.09579235315322876, -0.17862392961978912, 0.0009113578707911074, 0.02075667306780815, -0.1707240790128708, -0.13355565071105957, 0.023362932726740837, -0.1304750144481659, -0.05436697602272034, -0.1469181627035141, 0.45720142126083374, 0.8268784880638123, 0.327858030796051, 0.28412774205207825, 0.2346782088279724, -1.0614336729049683, 0.36910074949264526, 0.36129486560821533, -0.3633197546005249, -0.9636693596839905, 0.2265506088733673, 0.861760675907135, 0.475998193025589, -0.39983439445495605, -0.2580978572368622, 0.7965302467346191, 0.470176637172699, -0.63348788022995, -0.6591273546218872, -1.0372898578643799, 0.6507775783538818, 0.21327528357505798, 1.0139775276184082, -0.2943919599056244, -1.0484960079193115, 0.23405109345912933, -1.0182324647903442, 0.46546852588653564, 0.26229891180992126, -0.1532779186964035, -0.3240484893321991, -0.17443439364433289, -0.13960373401641846, -0.12353257089853287, -0.3213842511177063, -0.17099995911121368], [0.10969443619251251, -0.17417778074741364, -0.04757017269730568, 0.048209428787231445, 0.013014771975576878, -0.17115695774555206, 0.10778757184743881, 0.1755542755126953, 0.09753843396902084, -0.003535283263772726, -0.053664546459913254, 0.00018583152268547565, 0.013731315732002258, -0.141108438372612, -0.21308954060077667, -0.007776671554893255, 0.13189810514450073, 0.07414374500513077, 0.0032806196250021458, -0.02728620357811451, -0.0647430494427681, -0.13221105933189392, -0.0013133493484929204, 0.0881037712097168, -0.09975297003984451, -0.17740710079669952, -0.12092923372983932, -0.093802310526371, -0.6633710861206055, -0.8134446144104004, 0.2544759213924408, 0.2646195590496063, 0.3527613878250122, 1.1136924028396606, 0.37061670422554016, 0.3460785448551178, -0.3526400029659271, 1.255445957183838, 0.26800912618637085, -0.9833067059516907, 0.3668651282787323, 0.37516891956329346, 0.29538220167160034, 0.9501674175262451, -0.3059872090816498, -0.686556875705719, -0.7943626046180725, -1.2720650434494019, 0.7175441384315491, 0.1950598508119583, -1.2977206707000732, 0.35740405321121216, 1.0524877309799194, 0.22661025822162628, -0.9948905110359192, -0.314352422952652, 0.15740251541137695, -0.2757725119590759, -0.14161746203899384, 0.11840922385454178, 0.22223150730133057, 0.2573620676994324, -0.12547774612903595, -0.20906130969524384], [0.0008391020819544792, -0.00422273762524128, 0.0726739689707756, -0.0223375391215086, 0.09099247306585312, 0.13458742201328278, 0.12878334522247314, -0.014023802243173122, 0.0003341996925882995, 0.16113780438899994, 0.10264050215482712, 0.1543605774641037, 0.04576250538229942, 0.006853378377854824, 0.043145373463630676, -0.04319394379854202, -0.14111661911010742, -0.013444716110825539, -0.12828609347343445, 0.0016505465609952807, 0.050242722034454346, -0.14824341237545013, 0.13468992710113525, -0.13607394695281982, -0.08518431335687637, -0.03938985988497734, -0.024610865861177444, -0.0954059287905693, 0.5006534457206726, -0.8435707688331604, -0.2408992350101471, -0.18980322778224945, -0.3040789067745209, 1.352084755897522, 0.5104491710662842, 0.3557398021221161, 0.4277227222919464, 1.3457386493682861, -0.41552314162254333, -0.8516932725906372, -0.43046146631240845, -0.25334641337394714, 0.32927727699279785, 0.9432992339134216, 0.434074729681015, 0.7296875715255737, -0.7197272777557373, -1.2539408206939697, 0.7359175682067871, -0.2707616984844208, 1.3043557405471802, 0.369890421628952, -1.1862915754318237, -0.30900466442108154, 1.0362968444824219, 0.3770391047000885, 0.09646987169981003, -0.10769037157297134, -0.19735316932201385, 0.21887417137622833, 0.24707917869091034, 0.18037880957126617, -0.13852724432945251, -0.13997985422611237], [0.13077954947948456, -0.0047575500793755054, 0.07495442777872086, -0.1223885715007782, 0.009428247809410095, -0.0053638131357729435, -0.05904090777039528, -0.036908894777297974, 0.1719403862953186, 0.015917619690299034, -0.017308514565229416, 0.12388891726732254, 0.11750151216983795, 0.15638038516044617, 0.04148603230714798, 0.021011479198932648, -0.11364424228668213, -0.14074203372001648, 0.034401554614305496, -0.059598159044981, 0.0741327553987503, -0.14142654836177826, -0.0415947400033474, 0.014304904267191887, 0.03418350592255592, 0.0060295467264950275, 0.001876539085060358, 0.16199404001235962, 0.55047607421875, 0.896432101726532, 0.26165875792503357, -0.32456132769584656, 0.30337217450141907, 1.199797511100769, 0.45930853486061096, 0.3658995032310486, 0.4369867444038391, 1.3044352531433105, 0.3355286419391632, -1.0014981031417847, 0.3941575288772583, -0.22405260801315308, 0.19336402416229248, -1.002282977104187, 0.3822965919971466, -0.6901968121528625, 0.7461546063423157, 1.3751318454742432, 0.5769975185394287, 0.20372821390628815, -1.2544792890548706, -0.4235043227672577, -1.2887585163116455, 0.27793487906455994, 1.0564439296722412, 0.4030725359916687, -0.2683722972869873, 0.11339671164751053, 0.13928602635860443, 0.07377944886684418, 0.22182004153728485, -0.22283759713172913, 0.057011254131793976, 0.21742430329322815], [0.08821003884077072, 0.06906850636005402, 0.1172051802277565, -0.1033802255988121, -0.12740087509155273, -0.12600043416023254, -0.1564597189426422, -0.1862708479166031, 0.12930934131145477, -0.16736501455307007, 0.11633645743131638, 0.16216257214546204, -0.12385641783475876, -0.08317065984010696, 0.08032392710447311, -0.0039038038812577724, -0.032231707125902176, 0.009389635175466537, 0.1321485936641693, -0.0950281023979187, 0.012559494934976101, 0.01441162545233965, -0.020362740382552147, -0.1350012868642807, -0.04346448555588722, 0.004163436125963926, -0.154912069439888, 0.02358553744852543, -0.44235438108444214, 0.7287868857383728, -0.30362483859062195, -0.18598854541778564, 0.2852613925933838, 1.0317386388778687, 0.47408291697502136, -0.3470103144645691, -0.2865981161594391, 1.0420572757720947, 0.20081749558448792, 0.8526070713996887, -0.46451687812805176, -0.408441424369812, -0.30475568771362305, 0.8017078638076782, -0.33253172039985657, -0.6413429379463196, -0.7018598318099976, -1.081289529800415, -0.4708317816257477, 0.2716442942619324, -1.065002202987671, 0.3750871419906616, -1.0545367002487183, -0.19883620738983154, 0.9168795943260193, 0.3591706454753876, 0.2577819526195526, -0.13058139383792877, -0.3283085525035858, 0.19033248722553253, 0.1161278635263443, 0.12303818017244339, -0.2881855070590973, 0.16153301298618317], [-0.21777261793613434, 0.06972838938236237, -0.2513636350631714, -0.18740735948085785, -0.10178972035646439, -0.16415461897850037, 0.22040607035160065, -0.24908043444156647, 0.21558324992656708, -0.2416364699602127, -0.12827003002166748, 0.15381772816181183, -0.07757791876792908, -0.25913941860198975, 0.13766436278820038, 0.07948517799377441, 0.1804162710905075, -0.2196023166179657, 0.18027517199516296, -0.06410012394189835, -0.1692322939634323, 0.2475675493478775, 0.15759015083312988, -0.20305135846138, 0.11596441268920898, 0.1524670571088791, -0.1522863358259201, 0.18837246298789978, 0.4235195815563202, 0.46402958035469055, 0.3617410957813263, 0.3270775079727173, -0.42651692032814026, 0.48751673102378845, 0.46605971455574036, 0.5130963325500488, -0.5412055850028992, -0.500672459602356, 0.4924020767211914, 0.5285670757293701, -0.4683675467967987, 0.532570481300354, 0.4201216995716095, 0.6132516264915466, -0.5881818532943726, -0.623141884803772, -0.6074860692024231, 0.6512289643287659, 0.4685788154602051, -0.2639271318912506, -0.6366977095603943, 0.4902837574481964, -0.6015719175338745, -0.3027540147304535, 0.521558403968811, -0.5820841789245605, 0.4750623106956482, -0.35201334953308105, 0.37876519560813904, 0.395702600479126, -0.38061773777008057, 0.3457958996295929, 0.5012527108192444, -0.35577380657196045], [-0.14921441674232483, -0.12095904350280762, -0.006937718950212002, -0.03531977906823158, -0.0440976656973362, 0.03360455855727196, 0.06251692026853561, -0.09495525807142258, 0.04226294159889221, 0.025247884914278984, 0.1749727427959442, 0.04146413132548332, 0.11383670568466187, 0.06790681183338165, -0.023585686460137367, 0.1861625760793686, 0.19721977412700653, -0.13101144134998322, -0.09024110436439514, 0.08580060303211212, -0.20550225675106049, 0.09114944934844971, -0.1577400416135788, 0.11039762943983078, -0.011575272306799889, -0.011133699677884579, -0.00633909972384572, -0.0688127651810646, -0.5006847977638245, -0.7961446046829224, 0.2538190186023712, -0.3121073246002197, 0.18955011665821075, -0.9789960384368896, 0.31310173869132996, -0.41003918647766113, -0.22958549857139587, -1.0806055068969727, -0.2618567645549774, 0.8528599739074707, -0.3281552195549011, 0.28773006796836853, 0.2717869281768799, 0.8616088032722473, -0.41982442140579224, -0.48473095893859863, -0.5895164012908936, -1.1256569623947144, 0.5444560647010803, 0.15956440567970276, -0.9962319731712341, 0.4324716329574585, 1.082384705543518, 0.22748370468616486, -0.9575183987617493, 0.3593176007270813, 0.15874220430850983, -0.15549738705158234, -0.16892099380493164, 0.2117207795381546, -0.14076757431030273, 0.14010575413703918, 0.1593858301639557, 0.1555618792772293], [-0.006719227414578199, 9.840604616329074e-05, 0.01370305847376585, -0.0001424511574441567, -0.14200423657894135, 0.06150578334927559, -0.1362375020980835, 0.028956223279237747, -0.024846283718943596, -0.15694846212863922, -0.145767942070961, -0.16415327787399292, 0.06757088005542755, 0.07405435293912888, -0.06511759012937546, 0.02793445624411106, 0.05429026111960411, 0.005052916239947081, -0.0679236501455307, 0.1538742333650589, 0.141268789768219, 0.11814865469932556, 0.048162274062633514, 0.1052783951163292, 0.0010874526342377067, -0.16641739010810852, 0.0346086360514164, 0.03693120926618576, -0.4722132980823517, 0.845025360584259, -0.22447934746742249, 0.21805891394615173, -0.20126226544380188, 1.2215557098388672, 0.42301541566848755, 0.3626781404018402, -0.24449719488620758, 1.2268555164337158, 0.3939639925956726, -0.738208532333374, -0.41273361444473267, -0.1919606328010559, -0.2301841676235199, -0.924272358417511, -0.38075897097587585, -0.6712917685508728, 0.7301162481307983, 1.059420108795166, 0.5553819537162781, 0.17067080736160278, 1.2067303657531738, 0.40061458945274353, 1.1524198055267334, -0.259122759103775, -0.8666369318962097, -0.27619653940200806, -0.20313963294029236, -0.24696803092956543, 0.22276678681373596, 0.1563872992992401, -0.25153034925460815, -0.21757560968399048, -0.2758964002132416, 0.24515071511268616], [-0.04569021239876747, -0.09976113587617874, -0.13710905611515045, 0.13815005123615265, -0.09834973514080048, 0.034858934581279755, -0.1798211932182312, -0.04092039540410042, -0.008208268322050571, 0.15752004086971283, 0.1499127894639969, 0.16780231893062592, 0.08501383662223816, 0.10649991780519485, 0.03571082651615143, -0.18027310073375702, -0.15219005942344666, 0.16818445920944214, 0.08181674778461456, -0.151405930519104, 0.039014674723148346, 0.04179806262254715, 0.08299418538808823, -0.1892460584640503, 0.08007560670375824, -0.04085958003997803, 0.12329818308353424, 0.09992184489965439, 0.49097350239753723, -0.6998530030250549, 0.1713055670261383, 0.2045760452747345, -0.21851003170013428, -1.0315055847167969, 0.4168331027030945, 0.27380815148353577, -0.38881707191467285, 1.0883015394210815, -0.28512755036354065, -0.7838932275772095, 0.456289142370224, 0.24120208621025085, 0.3155617415904999, 0.8504714369773865, -0.45491331815719604, 0.6661416888237, 0.5019159913063049, -1.055540919303894, -0.4566178023815155, 0.2652093172073364, 1.0007643699645996, 0.44022253155708313, -1.0316773653030396, 0.28185200691223145, -0.9105095267295837, 0.2552383840084076, 0.32019850611686707, 0.2460271269083023, -0.24367597699165344, 0.34834879636764526, -0.2464916855096817, -0.2113996148109436, -0.32128971815109253, -0.37259867787361145], [0.5001888871192932, 0.4222600758075714, 0.3605746626853943, -0.4638218581676483, -0.4381956458091736, 0.4243023693561554, -0.5130929350852966, 0.4663040041923523, 0.378324031829834, 0.48640176653862, -0.38058704137802124, 0.44530972838401794, 0.44744938611984253, -0.444168359041214, 0.25226184725761414, -0.3845176696777344, -0.359774649143219, 0.4387631118297577, -0.3712675869464874, -0.5406404137611389, -0.338703453540802, -0.49217745661735535, 0.47674545645713806, -0.5972455143928528, -0.40279513597488403, -0.3477361798286438, -0.40267130732536316, 0.4350989758968353, 0.4330478310585022, -0.437805712223053, 0.5582148432731628, -0.4436799883842468, 0.47295430302619934, 0.2911357283592224, 0.6786977052688599, -0.48981016874313354, 0.6464725136756897, 0.290228933095932, 0.5837591290473938, -0.3186970353126526, 0.6500972509384155, 0.49023348093032837, 0.5925498008728027, -0.4073096215724945, 0.4583498239517212, -0.4524826109409332, 0.556662380695343, -0.2747707664966583, -0.5577907562255859, 0.45197781920433044, -0.33728817105293274, -0.5226129293441772, -0.26667076349258423, -0.564639687538147, -0.40930166840553284, 0.49271655082702637, -0.824359118938446, -0.7389529347419739, -0.7944636344909668, -0.8036790490150452, 0.7811902165412903, 0.8230694532394409, -0.8487830758094788, -0.8671188950538635], [0.1137317642569542, 0.06806252896785736, 0.21503899991512299, -0.14648395776748657, -0.11170999705791473, 0.1795695424079895, -0.005845473613590002, 0.1553964465856552, -0.21478740870952606, 0.00015646556857973337, 0.11917902529239655, 0.08364017307758331, 0.10017760843038559, 0.15880322456359863, 0.14884795248508453, -0.10584168136119843, -0.050336502492427826, 0.17116136848926544, 0.1237473413348198, 0.1507471650838852, 0.12380215525627136, -0.1550724059343338, -0.15562313795089722, -0.12269222736358643, 0.11022235453128815, 0.19724801182746887, 0.019052594900131226, 0.057397082448005676, -0.4353484809398651, 0.5817869305610657, 0.457741916179657, -0.40436017513275146, 0.3223295509815216, 0.5088550448417664, 0.5873436331748962, -0.5740936398506165, 0.36379849910736084, 0.5328079462051392, 0.35872331261634827, 0.643805205821991, 0.5572643280029297, 0.476367712020874, -0.31601789593696594, -0.5404029488563538, -0.4833674728870392, -0.4761514663696289, -0.4707734286785126, 0.5386090278625488, 0.4561288058757782, 0.31632328033447266, -0.6398464441299438, 0.4911724030971527, 0.6249182820320129, -0.3983994424343109, -0.6714215278625488, -0.5759965777397156, -0.4760831892490387, -0.46256670355796814, -0.3270934522151947, 0.41285043954849243, -0.2962038516998291, 0.3333868980407715, 0.3865523338317871, 0.37474074959754944], [-0.019363731145858765, 0.061224039644002914, 0.0496954508125782, -0.010223299264907837, 0.04580552875995636, 0.12667368352413177, 0.04276898503303528, 0.10592792183160782, -0.08928844332695007, 0.029461588710546494, -0.018601300194859505, 0.0019900572951883078, 0.09140507876873016, 0.08900856971740723, -0.1746116429567337, -0.00011765184899559245, 0.027349360287189484, 0.027351772412657738, -0.11733279377222061, -0.018728679046034813, 0.057945337146520615, 0.14369674026966095, 0.13187634944915771, -0.05718638002872467, 0.13382521271705627, 0.13342000544071198, 0.03580315038561821, 0.004054369404911995, 0.38979053497314453, 0.7551871538162231, -0.21739515662193298, 0.3886171877384186, 0.3194616436958313, 0.8338385224342346, 0.5098044276237488, -0.39268967509269714, -0.31400561332702637, 0.7334297895431519, -0.3408394157886505, 0.7123922109603882, 0.39169788360595703, -0.3775339126586914, 0.25082364678382874, 0.7982853651046753, 0.35123151540756226, 0.6190385222434998, 0.506043016910553, -0.9075798988342285, 0.6275467872619629, 0.3543987274169922, -0.9334771633148193, -0.33947136998176575, 0.7257791757583618, 0.42828765511512756, 0.7755053043365479, 0.4272107779979706, -0.3707619607448578, -0.3124963045120239, -0.3128036856651306, -0.24642133712768555, 0.24421316385269165, -0.23630093038082123, -0.4273536503314972, -0.3674868941307068], [-0.11288359761238098, 0.043223440647125244, -0.15985894203186035, 0.042108017951250076, -0.13803239166736603, 0.0050688027404248714, -0.057124365121126175, 0.15972596406936646, 0.12160457670688629, 0.1376851499080658, -0.18063420057296753, -0.14516042172908783, -0.00035960754030384123, -0.15327595174312592, 0.0004834638093598187, 0.13023653626441956, 0.009809720329940319, 0.09635110199451447, 0.07043357193470001, -0.13921934366226196, -0.13272759318351746, -0.063125841319561, -0.025850119069218636, 0.0003287065483164042, 0.06308314204216003, 0.1304151713848114, -0.12112776935100555, -0.0008955076336860657, 0.6587151288986206, -0.7310343384742737, -0.4766034185886383, -0.32191792130470276, -0.41025611758232117, 0.759518027305603, 0.5630231499671936, -0.5160082578659058, 0.41011354327201843, 0.7743890285491943, 0.3824009299278259, 0.6979930400848389, -0.4942934215068817, 0.49300050735473633, -0.36380529403686523, 0.6754136681556702, 0.4754384458065033, 0.6532835364341736, -0.505729079246521, -0.7731972932815552, 0.5283733010292053, 0.3927063047885895, -0.7137433290481567, 0.4919980466365814, 0.646032989025116, -0.36954015493392944, -0.5464749932289124, -0.6289077401161194, 0.38472267985343933, 0.5352592468261719, -0.5066229104995728, -0.3460279107093811, 0.4627779722213745, 0.4601669907569885, 0.4501938223838806, 0.468257337808609], [0.12009290605783463, -0.13109754025936127, 0.016531839966773987, -0.0004672229406423867, -0.00011294150317553431, 0.16388465464115143, 0.13692714273929596, -0.0006349450559355319, -0.006740972865372896, -0.02204693667590618, 0.0001924064417835325, 0.034751664847135544, -0.0258391834795475, 0.00033435385557822883, 0.03761385753750801, -0.008650216273963451, -8.111127681331709e-05, -0.04859774932265282, -0.04747018963098526, -0.028334474191069603, -0.1631990224123001, -0.10160724073648453, -0.09422506392002106, 0.028508007526397705, 0.11364031583070755, -0.09371814876794815, 0.029134618118405342, 0.0003125359071418643, 0.43596625328063965, -0.6096518039703369, -0.401082843542099, -0.3280907869338989, 0.42025795578956604, 0.7350624799728394, -0.4713189899921417, 0.39111563563346863, -0.3309122622013092, 0.7787002325057983, 0.3956074118614197, -0.6050522327423096, -0.5703007578849792, 0.3780681788921356, 0.4190486967563629, -0.5013786554336548, -0.4688746929168701, 0.6503590941429138, -0.4838373363018036, 0.6837643980979919, 0.5971226096153259, -0.21498140692710876, -0.5732383131980896, -0.5568857192993164, 0.5591245889663696, -0.40449172258377075, 0.703169584274292, 0.48813578486442566, -0.40279462933540344, -0.32175371050834656, 0.34764236211776733, -0.41950950026512146, -0.38967832922935486, 0.393366277217865, -0.371023952960968, 0.47930893301963806], [-0.3676008880138397, 0.3844614624977112, -0.43111658096313477, -0.32879725098609924, -0.38987666368484497, -0.41965004801750183, -0.37289825081825256, 0.2503224015235901, 0.34132906794548035, -0.4155036509037018, -0.31744810938835144, 0.40219536423683167, -0.4295613169670105, 0.33292996883392334, 0.28505784273147583, 0.4160939157009125, 0.4234374463558197, -0.3888646066188812, -0.28704652190208435, -0.45365166664123535, -0.22313113510608673, 0.42672520875930786, 0.300671249628067, -0.37145593762397766, -0.41949307918548584, 0.3512915372848511, -0.3765076994895935, -0.39667561650276184, 0.4222024977207184, 0.39807453751564026, 0.5202391147613525, 0.4823327958583832, 0.5190701484680176, 0.40215426683425903, -0.5817665457725525, 0.5620555281639099, 0.6556892991065979, 0.3093336820602417, -0.5376229882240295, 0.4566497802734375, 0.6643377542495728, -0.5559561848640442, 0.45423486828804016, 0.3970024585723877, -0.5634416937828064, 0.5797954797744751, -0.5402741432189941, 0.4513216018676758, -0.4482940435409546, -0.42811843752861023, 0.33175110816955566, 0.6359530091285706, -0.3635338544845581, 0.4235438406467438, -0.28427523374557495, -0.6003965735435486, -0.7583465576171875, -0.6805133819580078, -0.7804628610610962, 0.6590028405189514, -0.6171209812164307, 0.7930071949958801, -0.7342621684074402, 0.732107400894165], [-0.005470555741339922, 0.0008399342186748981, -0.1683100014925003, 0.16340021789073944, 0.06334686279296875, -0.1485004872083664, 0.0982666090130806, -0.00261373701505363, 0.06031682342290878, 0.055421940982341766, -0.002252423670142889, -0.15524764358997345, -0.03916313871741295, 0.030118782073259354, 0.022977082058787346, 0.14264804124832153, 0.004514044616371393, -0.13918577134609222, 0.009583016857504845, 0.009683108888566494, -0.00960349477827549, 0.0030574912670999765, -0.06256365776062012, 0.07198099792003632, 0.14857672154903412, 0.005294505041092634, 0.04712684825062752, -0.09427851438522339, -0.5298933982849121, 0.6136345863342285, -0.3776361048221588, -0.3359110951423645, 0.3152175545692444, 0.9668596982955933, -0.487130343914032, 0.45698094367980957, 0.29112371802330017, 0.8142988085746765, 0.2660619616508484, -0.8009558916091919, -0.33535271883010864, -0.38705840706825256, -0.25631922483444214, -0.8519839644432068, -0.3199441730976105, 0.5871919989585876, 0.5764765739440918, 0.9772718548774719, -0.47379955649375916, 0.2549643814563751, -0.8370698690414429, -0.4002071022987366, 0.872501015663147, -0.31001269817352295, 0.8867886066436768, 0.33522510528564453, -0.32222068309783936, -0.40130555629730225, -0.26628613471984863, 0.3132742643356323, 0.392882376909256, 0.2906351387500763, 0.22856441140174866, 0.4069012701511383], [0.06723321974277496, -0.04133119061589241, 0.17204712331295013, 0.0832703486084938, -0.1791294664144516, 0.1553407460451126, 0.11896676570177078, 0.1644088178873062, -0.1256553679704666, -0.0738605409860611, -0.10720132291316986, 0.08687742799520493, 0.06179060414433479, 0.09765734523534775, -0.1673964560031891, 0.12870223820209503, -0.1413245052099228, 0.19903835654258728, 0.11385686695575714, 0.02925705723464489, 7.265986641868949e-05, 0.056712862104177475, -0.08814837038516998, -0.16369862854480743, -0.06678284704685211, -0.08704639226198196, 0.07981356978416443, 0.05428942292928696, -0.5761792063713074, -0.5277664661407471, 0.36801964044570923, 0.35300710797309875, -0.3782781660556793, -0.5531570911407471, -0.597310483455658, 0.4643900692462921, 0.5266799926757812, -0.5602719783782959, -0.4382021129131317, 0.5812703967094421, -0.45584836602211, 0.3737158477306366, -0.247303768992424, 0.632219135761261, 0.4714552164077759, 0.6042898893356323, 0.6360036134719849, -0.7105094194412231, -0.44783711433410645, 0.3967732787132263, 0.5860636830329895, -0.44282960891723633, 0.5475709438323975, 0.3229192793369293, 0.5882700681686401, 0.5604994297027588, 0.3595469295978546, -0.29640811681747437, 0.24812813103199005, -0.4316288232803345, 0.3952203392982483, 0.4280998706817627, 0.2726166844367981, -0.2654067575931549], [0.13074080646038055, 0.013221322558820248, -0.0699731782078743, 0.012039203196763992, -0.0709877610206604, 0.1049983948469162, -0.1472744345664978, -0.13584007322788239, 0.1611642986536026, 0.00259205000475049, -0.05750300735235214, -0.05740761011838913, -0.10572688281536102, -0.003450732445344329, 0.01933276280760765, 0.1457495391368866, 0.008508429862558842, -0.06662864238023758, 0.14414221048355103, 0.1418154537677765, -0.0067311557941138744, -0.08439534157514572, 0.0948878824710846, 0.06195177882909775, -0.00021135418501216918, -0.1048988625407219, 0.001051390659995377, -0.15166345238685608, 0.4420738220214844, 0.6277966499328613, 0.24304687976837158, 0.3501577377319336, -0.2544027864933014, -0.8995596170425415, -0.397990345954895, -0.4338781237602234, 0.38205674290657043, 0.8426030278205872, -0.39499732851982117, -0.7533031105995178, -0.48286956548690796, 0.4403262734413147, -0.41276654601097107, -0.6909865736961365, -0.4503416121006012, -0.5063697099685669, -0.6442825794219971, -0.8108923435211182, -0.5453745126724243, 0.26343995332717896, 0.7172362208366394, -0.4386291801929474, -0.8837276697158813, 0.2899381220340729, 0.7672164440155029, -0.44746139645576477, 0.297809362411499, -0.39041072130203247, -0.3407509922981262, -0.4060482382774353, -0.35162150859832764, 0.2350316047668457, -0.3183576166629791, -0.3142627477645874], [0.013712333515286446, 0.09467978030443192, -0.1027996614575386, -0.006022441666573286, 0.06628043204545975, -0.00077466742368415, -0.07960531115531921, -0.0778801366686821, 0.00040867304778657854, -2.445003883622121e-05, 0.11319197714328766, -0.11817286908626556, 0.08005667477846146, -0.004174507688730955, -0.16183586418628693, -0.029985863715410233, -0.1133810356259346, -0.08755379915237427, 0.11633878946304321, 0.00037219791556708515, -0.023572083562612534, -0.10991501063108444, 0.008651336655020714, 5.04730487591587e-05, -8.607465133536607e-06, 0.0004695552634075284, -0.06148476153612137, 0.10905621945858002, -0.601990818977356, -0.6083589196205139, 0.378765732049942, 0.3971569836139679, -0.3685051202774048, 0.7481691837310791, -0.4879186749458313, 0.43786731362342834, 0.4410395622253418, 0.8191074728965759, -0.4191400110721588, -0.6037088632583618, -0.3948482573032379, 0.3225417137145996, -0.30801427364349365, -0.6620031595230103, -0.4370756149291992, 0.5753518342971802, -0.5956279039382935, 0.6771477460861206, 0.5261410474777222, -0.38647598028182983, 0.684660017490387, 0.4789399802684784, -0.7109397053718567, -0.23036731779575348, 0.7228828072547913, 0.35078465938568115, 0.31877216696739197, -0.29545801877975464, 0.3969005346298218, -0.26319313049316406, 0.26425740122795105, 0.27592727541923523, 0.2955314815044403, 0.41449689865112305], [0.17359395325183868, -0.10320493578910828, -0.13835963606834412, -0.012909394688904285, -0.07685864716768265, 0.051366813480854034, 0.054148443043231964, 0.0606989748775959, 0.11576087772846222, -0.02673277258872986, 0.2029230296611786, -0.09201325476169586, -0.19661055505275726, -0.08786550164222717, 0.09984734654426575, 0.1000053659081459, -0.15438412129878998, -0.15000654757022858, -0.058722447603940964, 0.20706690847873688, -0.11908755451440811, 0.06821831315755844, -0.09050297737121582, 0.18581713736057281, -0.09221284091472626, 0.07655995339155197, -0.02176864631474018, 0.14091052114963531, 0.6045182347297668, -0.5617505311965942, -0.30389365553855896, 0.337123841047287, -0.3175925612449646, 0.4635392129421234, -0.4466553032398224, -0.48779019713401794, 0.36939090490341187, 0.4583403170108795, 0.3460397720336914, 0.5477754473686218, 0.3888975977897644, 0.48897746205329895, -0.3479742109775543, 0.5560610294342041, 0.4829333424568176, 0.4602539837360382, 0.5031297206878662, 0.4880196154117584, 0.5377650260925293, -0.3927207291126251, -0.5788556337356567, -0.6044461727142334, 0.5433212518692017, -0.33085766434669495, 0.5202367305755615, 0.46481379866600037, -0.31809112429618835, -0.46626487374305725, 0.32956451177597046, -0.4750213325023651, -0.40360283851623535, 0.43275588750839233, 0.36545097827911377, -0.4004782736301422], [-0.035419292747974396, 0.08534858375787735, -0.011665432713925838, 0.007327081635594368, -0.05810084939002991, -0.0647425726056099, 0.0241550300270319, -0.00886800978332758, 0.0002202837640652433, 0.015638412907719612, 0.005019915755838156, -0.12035247683525085, 0.12727850675582886, -0.16717424988746643, -0.10252368450164795, 0.03347978740930557, 0.06553245335817337, 0.07044992595911026, 0.03804491460323334, -0.02848746068775654, 0.09545096755027771, 0.15998348593711853, 0.05375117436051369, 0.04350558668375015, -0.010645820759236813, 0.10898851603269577, 0.0791919082403183, 0.09050113707780838, -0.4700731635093689, -0.609591543674469, 0.34090274572372437, -0.3752429187297821, -0.24300558865070343, -0.8424365520477295, 0.43121907114982605, 0.5014145970344543, -0.38589316606521606, 0.6977922320365906, -0.45981401205062866, -0.7213094830513, -0.360666960477829, 0.28204989433288574, -0.20445463061332703, 0.7076778411865234, -0.4351408779621124, -0.4819837212562561, 0.5817438364028931, -0.8253623247146606, 0.5297950506210327, 0.2773159146308899, -0.7726185917854309, 0.36938971281051636, -0.6991980671882629, 0.4359140396118164, 0.8095380067825317, -0.36230698227882385, 0.42309242486953735, 0.35198071599006653, -0.36186516284942627, -0.3033531904220581, -0.34177395701408386, 0.3838479816913605, -0.3668636679649353, -0.272256076335907], [-0.18163980543613434, -0.10090062767267227, -0.0039313780143857, 0.09903975576162338, -0.1709325611591339, 0.1516832858324051, -0.04068025201559067, -0.026558250188827515, 0.0006448033964261413, -0.16309478878974915, -0.1214984729886055, -0.00011207202624063939, 0.19505757093429565, 0.00014903798000887036, -0.12715892493724823, -0.04779674857854843, -0.0377371720969677, 0.21524293720722198, -0.003562371013686061, 0.08678725361824036, -0.048773832619190216, 0.016041036695241928, 0.12042984366416931, 0.07135320454835892, -0.18230043351650238, 0.10140171647071838, -0.10180564969778061, -0.127629354596138, -0.5459687113761902, 0.6322211623191833, -0.3649553656578064, -0.2764461040496826, 0.458307147026062, 0.6775843501091003, -0.507542610168457, -0.36572664976119995, -0.35514333844184875, -0.6285441517829895, -0.359043151140213, -0.4527609944343567, -0.4845719635486603, 0.4201078414916992, -0.3204728662967682, -0.6172249913215637, -0.4463503956794739, 0.4590205252170563, 0.4678192734718323, -0.4963250160217285, -0.5701149106025696, -0.3062936067581177, 0.5501584410667419, 0.5231232643127441, 0.5279476642608643, -0.27600201964378357, -0.5922816395759583, 0.5852144360542297, -0.3704206347465515, -0.42669960856437683, 0.45971426367759705, -0.4222881495952606, 0.42911267280578613, 0.3098422884941101, -0.29452329874038696, -0.33729973435401917], [-0.09929400682449341, -0.04770711436867714, -0.00960469339042902, -0.0059218453243374825, -0.06563980877399445, -0.008609768934547901, 0.006038660183548927, -0.009719202294945717, 0.1618289351463318, -0.09929700195789337, -0.10954248160123825, -0.031410522758960724, 0.04426959529519081, -0.07352037727832794, 0.0037649746518582106, 0.006063712760806084, 0.1231188178062439, -0.0018400514964014292, -0.1479426473379135, -0.12039679288864136, -0.012121081352233887, -0.15410630404949188, -0.0002783377713058144, -0.0457439087331295, -0.009441675618290901, -0.036878086626529694, 0.007248527370393276, 0.01801653578877449, -0.5018314719200134, 0.583873987197876, -0.320120245218277, 0.27316972613334656, -0.31905218958854675, 1.0088680982589722, 0.49296697974205017, -0.46452417969703674, 0.3618198335170746, -0.848861038684845, -0.2399003803730011, 0.7546865940093994, 0.33010491728782654, -0.3676844835281372, -0.2549201250076294, 0.865764856338501, 0.4188678562641144, -0.6606276631355286, 0.48763471841812134, -0.9792219400405884, 0.5046019554138184, 0.330646812915802, 1.0193265676498413, -0.4542345702648163, -0.7823479771614075, 0.29142361879348755, -0.7127282023429871, 0.4387144446372986, 0.4125607907772064, 0.2897018790245056, 0.25344833731651306, 0.286690890789032, -0.35872265696525574, 0.4375116527080536, 0.32804837822914124, 0.318947434425354], [0.15631498396396637, 0.1723945140838623, 0.1450539082288742, 0.20197081565856934, 0.0553472563624382, -0.047164805233478546, -0.11614812165498734, 0.11939724534749985, -0.06464492529630661, -0.07395801693201065, 0.1602802723646164, -0.11093319952487946, -0.18214723467826843, -0.1397005170583725, -0.128855898976326, 0.08610997349023819, 0.14343267679214478, 0.11889881640672684, 0.11122937500476837, -0.029078509658575058, -0.00021236235625110567, -0.05331171303987503, 0.05623968690633774, 0.15662622451782227, -0.18835847079753876, 0.04528304189443588, 0.16948886215686798, -0.05271267518401146, -0.49215108156204224, 0.5009037256240845, -0.4105142056941986, -0.45140594244003296, 0.37597426772117615, 0.5289304852485657, -0.4177485406398773, 0.46517568826675415, 0.5027646422386169, 0.6218794584274292, -0.3884962797164917, 0.6326920986175537, 0.47707173228263855, 0.42415180802345276, 0.3745560944080353, -0.581791877746582, -0.5697913765907288, -0.6059489250183105, 0.586971640586853, -0.6988742351531982, 0.5546491742134094, -0.2617095410823822, 0.6566945314407349, 0.5216960310935974, -0.49620622396469116, -0.31732645630836487, -0.5161102414131165, -0.42339807748794556, 0.3733287751674652, 0.47942718863487244, 0.4206302762031555, 0.45077648758888245, 0.4032319188117981, -0.3742418885231018, -0.4151929020881653, -0.4615297317504883], [0.1552475541830063, 0.13756881654262543, -0.16353215277194977, -0.14823532104492188, 0.14296872913837433, 0.03445053473114967, -0.1889943778514862, 0.09302148222923279, -0.07625672966241837, 0.0472681038081646, -0.1012464240193367, 0.03617352992296219, 0.1687271147966385, 0.021768927574157715, -0.18531279265880585, 0.0014982251450419426, 0.021289905533194542, 0.2027083933353424, 0.1937398910522461, -0.03528307005763054, 0.08366549760103226, 0.07139073312282562, -0.13030225038528442, -0.18635068833827972, -0.15985944867134094, 0.07461529970169067, 0.026851944625377655, -0.12682951986789703, 0.6273127794265747, -0.6074351072311401, -0.3580554127693176, -0.24079091846942902, -0.41597047448158264, -0.5331940054893494, -0.4882664084434509, -0.413574755191803, 0.4158309996128082, 0.6692951321601868, 0.43386486172676086, 0.5806820392608643, -0.4815181493759155, -0.4307670593261719, 0.3248418867588043, 0.6221935153007507, -0.46970629692077637, -0.5152407884597778, -0.5685364603996277, 0.5608338117599487, 0.5809544920921326, -0.27532288432121277, -0.6436024904251099, -0.5901560187339783, 0.5488765835762024, -0.4610000252723694, 0.636498212814331, -0.4110480546951294, -0.3067036271095276, 0.32527053356170654, 0.394425630569458, 0.32061126828193665, 0.41490283608436584, 0.3913848102092743, -0.3096732199192047, -0.32699790596961975], [0.02571769244968891, -0.17025092244148254, -0.042021628469228745, 0.1903078705072403, 0.011049114167690277, 0.08485936373472214, -0.2122931033372879, 0.14085425436496735, -0.17062371969223022, 0.0018486251356080174, -0.19556930661201477, -0.14440132677555084, -0.013341736048460007, 0.009934309870004654, 0.13202214241027832, -0.060291919857263565, -0.09462642669677734, 0.03898248448967934, 0.1527196317911148, 0.0877872034907341, -0.18725435435771942, 0.0540536530315876, -0.0037813379894942045, -0.0005020396783947945, -5.629328734357841e-05, -0.09423334151506424, -0.003938007168471813, 0.03181722015142441, -0.4657958447933197, 0.5621365308761597, 0.27048322558403015, 0.2682383358478546, 0.4231032431125641, 0.6973268985748291, -0.5285230875015259, -0.4922088086605072, -0.4638368487358093, -0.6286678910255432, 0.48066315054893494, 0.5175928473472595, 0.39236336946487427, -0.44075191020965576, -0.37658563256263733, 0.47326919436454773, -0.3997460603713989, -0.5263921618461609, -0.4867224395275116, -0.5084584951400757, -0.5707484483718872, -0.38742226362228394, -0.5008978247642517, 0.6042252779006958, -0.6756297945976257, -0.4022188186645508, -0.6190230846405029, -0.43691563606262207, -0.38537877798080444, -0.4872004985809326, 0.43752002716064453, 0.4569128453731537, -0.48647481203079224, 0.37649106979370117, 0.4908317029476166, 0.35128262639045715], [-0.14111316204071045, -0.1856078952550888, -0.045934826135635376, -0.031024139374494553, 0.11432614922523499, -0.0358748659491539, 0.24047888815402985, -0.17486658692359924, 0.17977824807167053, -0.18780794739723206, -0.12689949572086334, -0.07250410318374634, -0.1725655347108841, -0.03289157897233963, -0.06787331402301788, 0.1383587121963501, 0.09505927562713623, -0.06279708445072174, 0.17501650750637054, 0.1508384346961975, 0.1190449446439743, -0.16237689554691315, 0.020193731412291527, -0.16717135906219482, -0.1939021348953247, 0.07533757388591766, 0.18840168416500092, -0.2278626412153244, -0.5197632312774658, -0.4523749053478241, -0.2909473776817322, -0.39923959970474243, -0.3965170383453369, 0.4378945529460907, -0.42932137846946716, -0.5649921298027039, -0.3716021776199341, 0.5516989231109619, 0.4766937792301178, -0.43062326312065125, 0.3914698362350464, 0.45328477025032043, 0.4307703375816345, -0.44636544585227966, -0.5045861601829529, -0.4096829295158386, -0.6102436780929565, 0.5164141654968262, 0.5802243947982788, -0.4220772981643677, 0.5775277614593506, -0.5147386789321899, 0.46326345205307007, -0.3344484567642212, 0.5973682403564453, 0.457963228225708, 0.32425886392593384, -0.381500244140625, 0.36607488989830017, -0.37607666850090027, -0.46068042516708374, -0.3157091438770294, -0.42522186040878296, 0.4096047878265381], [0.14602309465408325, -0.0013161742826923728, -0.0006405673921108246, 0.05645349994301796, 0.007773232646286488, -0.031532298773527145, 0.14078965783119202, 0.0029086661525070667, -0.0005452937330119312, 0.14472508430480957, 0.1003444641828537, -0.05643047019839287, 0.007528815418481827, -0.0019179095979779959, -0.14958955347537994, -0.0945935845375061, -0.0013283444568514824, 0.0114981010556221, 0.00011950778571190313, 0.014525741338729858, -0.0014589184429496527, -0.04390802979469299, 0.09836772084236145, 0.0005929152830503881, 0.06836706399917603, -0.00048342428635805845, -0.03816099092364311, -0.02296595275402069, 0.532784640789032, -0.7010969519615173, -0.25613725185394287, -0.37848904728889465, 0.3269825577735901, 0.7525387406349182, -0.5196511149406433, 0.4235284924507141, 0.4368051588535309, -0.7453886270523071, -0.4022754728794098, -0.5516098141670227, 0.3768952190876007, -0.27749955654144287, -0.1972130686044693, -0.7453536987304688, 0.4391336143016815, 0.598352313041687, -0.5573603510856628, 0.6810769438743591, -0.5995867848396301, 0.3425632119178772, 0.8059749603271484, -0.3576214909553528, -0.7111377716064453, 0.3063252866268158, -0.6448112726211548, -0.44215700030326843, 0.4280099868774414, -0.366432785987854, -0.3001967668533325, 0.3145928382873535, 0.28521397709846497, -0.3367721438407898, -0.4113301634788513, -0.2646166980266571], [-0.009620219469070435, 0.1189572736620903, 0.053107850253582, -0.0860091894865036, 0.13926096260547638, -0.06756896525621414, -0.07306909561157227, -0.015092117711901665, -0.06931217014789581, 0.0686328262090683, 0.015058432705700397, -0.011357910931110382, 0.019421547651290894, 0.007203684654086828, 0.015310757793486118, -0.10311655700206757, -0.001852602232247591, 0.07201842218637466, -0.01274179294705391, 0.032706085592508316, 0.04746270924806595, 0.10468641668558121, 0.11565569043159485, 0.1341947317123413, 0.10251510888338089, 0.14417269825935364, -0.0019835862331092358, -0.08521707355976105, 0.49506258964538574, 0.6693894863128662, -0.3778518736362457, -0.32182615995407104, -0.32735300064086914, -0.8537322282791138, 0.46057379245758057, 0.3612203001976013, 0.414731502532959, 0.8893876671791077, 0.3350140452384949, 0.6628484725952148, -0.3180662989616394, 0.3789294362068176, 0.2820357382297516, 0.7131719589233398, -0.4245468080043793, 0.6627355813980103, -0.5013245344161987, -0.9109674692153931, -0.5634682178497314, 0.3033110201358795, 1.0014033317565918, 0.36555519700050354, 0.9210788011550903, 0.3207458257675171, -0.8114491105079651, 0.3764221668243408, -0.40953877568244934, -0.32775893807411194, -0.3551860451698303, 0.34608569741249084, 0.405560165643692, 0.2219955176115036, 0.3670649826526642, -0.2509080171585083], [-0.13897930085659027, -0.1354764997959137, -0.04887289181351662, -0.00041784613858908415, 0.0033504192251712084, -0.0007896261522546411, 0.13540364801883698, -0.0006783864228054881, -0.06892295181751251, -0.0962589681148529, 0.0033948745112866163, 0.026329658925533295, -0.016756296157836914, 0.09577713906764984, -5.853901893715374e-05, 0.06591276824474335, 0.00019097625045105815, -0.06564754992723465, -0.1407855749130249, 0.07261546701192856, -0.12894317507743835, 0.03536727651953697, -0.11565206944942474, 0.06328442692756653, -0.021194785833358765, 0.05482923239469528, -0.14598041772842407, 0.09839628636837006, -0.538438081741333, -0.5758345723152161, -0.22516536712646484, -0.3631742596626282, -0.2891596555709839, 0.8321307897567749, 0.4324125051498413, 0.3862704038619995, -0.41230881214141846, -0.6829781532287598, 0.2954643964767456, -0.7201877236366272, -0.5404407382011414, -0.3623737096786499, -0.2980048358440399, 0.5481269955635071, 0.4965730607509613, -0.5486527681350708, 0.46584969758987427, -0.6420944929122925, -0.5653700828552246, 0.33803945779800415, 0.7149792313575745, -0.39918410778045654, 0.7978084087371826, 0.26776954531669617, 0.5784667134284973, 0.4831438660621643, 0.22329622507095337, -0.24518126249313354, -0.28676313161849976, 0.3584704101085663, -0.20579217374324799, 0.4105378985404968, 0.36743393540382385, 0.3272094428539276], [-0.40319064259529114, -0.44655176997184753, -0.29325875639915466, -0.35773536562919617, 0.24555419385433197, 0.34188398718833923, 0.3256154954433441, -0.28994306921958923, 0.4457165002822876, -0.2112027108669281, 0.3821585178375244, -0.3211298882961273, -0.25834453105926514, -0.4053526818752289, -0.3568727970123291, -0.2781171500682831, -0.3844110071659088, 0.2911282479763031, 0.4086264669895172, -0.3146367073059082, 0.21501268446445465, 0.30500006675720215, -0.4146145284175873, 0.3690270185470581, -0.37007880210876465, -0.3473266065120697, 0.31736046075820923, 0.3078688979148865, 0.5246148705482483, -0.4969748258590698, -0.5233449339866638, -0.5389699339866638, 0.4382898211479187, -0.4079168140888214, -0.6511532068252563, -0.5245155096054077, -0.46125707030296326, -0.4421579837799072, 0.5290831327438354, -0.536447286605835, 0.4900124669075012, 0.572642982006073, 0.359192430973053, -0.32327985763549805, -0.6234954595565796, -0.482604444026947, -0.4065302610397339, -0.31765231490135193, -0.5198796987533569, 0.43644028902053833, 0.36614376306533813, -0.4826263189315796, 0.28890261054039, -0.4080086052417755, 0.42973893880844116, 0.5363838076591492, -0.7739642858505249, -0.6428674459457397, 0.6885671615600586, -0.6412815451622009, 0.6473971009254456, 0.6255300045013428, -0.5730404257774353, -0.6939334273338318], [0.003212367184460163, -0.0009596080053597689, 0.056956782937049866, 0.1524486243724823, 0.016628004610538483, 0.0009100201423279941, -0.15182867646217346, 0.053586527705192566, -0.00013154430780559778, -0.00032188251498155296, 0.1532260924577713, -0.10311676561832428, 0.1522190421819687, 0.06547348201274872, 0.14839892089366913, -0.15154999494552612, -0.08587425202131271, -0.0231771282851696, -0.05736710876226425, -0.1049686074256897, -0.1595032662153244, -0.12475553154945374, 0.028290292248129845, -0.13029581308364868, -0.04206179082393646, -0.027588317170739174, 0.000832820893265307, 0.019676007330417633, -0.5313169360160828, 0.6019017696380615, 0.2577401399612427, 0.2996639609336853, -0.29670456051826477, -0.7011279463768005, -0.4471142888069153, 0.531522274017334, -0.4552324712276459, 0.6816322207450867, 0.3690984845161438, 0.5657781362533569, 0.4099367558956146, -0.3661993145942688, 0.28408417105674744, -0.7458359003067017, -0.3485007584095001, -0.6548038125038147, -0.5634331107139587, -0.7930843234062195, -0.45892438292503357, -0.3458731174468994, 0.6411870121955872, 0.4283955991268158, 0.7794657349586487, -0.3291753828525543, -0.5987195372581482, 0.4476526379585266, 0.2813674509525299, 0.32701921463012695, 0.3008110523223877, -0.34919798374176025, 0.24841932952404022, 0.24740608036518097, -0.27786514163017273, 0.35273483395576477], [-0.060806967318058014, 0.000982564641162753, -0.07417507469654083, -0.015550869517028332, 0.1260315179824829, 0.14694970846176147, -0.00254455697722733, -0.10809990763664246, -0.0007375617860816419, -0.07810118049383163, -0.02423768676817417, -0.003983950242400169, -0.0005971553036943078, -0.13272686302661896, -0.07832812517881393, -0.03742570802569389, -0.042322270572185516, 0.07028341293334961, 0.0005467477021738887, -0.0003809644840657711, -0.1258731484413147, -0.04440400004386902, 0.05839937552809715, -0.020893458276987076, 0.0944688692688942, 0.08826954662799835, 0.053481005132198334, 0.0007408082601614296, 0.5767404437065125, -0.5057876110076904, 0.2473040521144867, -0.3670727014541626, 0.35323768854141235, 0.640190601348877, 0.48498284816741943, -0.4778936505317688, -0.4422931969165802, -0.6754094958305359, 0.45014533400535583, -0.6277758479118347, 0.5302892923355103, 0.2726518213748932, 0.2079518586397171, -0.6047536134719849, 0.49971115589141846, 0.6046757102012634, -0.6170661449432373, 0.7413015365600586, 0.5976354479789734, 0.24314522743225098, 0.8174862265586853, -0.4543628990650177, 0.6237848997116089, -0.32573533058166504, 0.6679468154907227, 0.50918048620224, 0.30731093883514404, 0.37880513072013855, -0.3797963857650757, 0.3427865207195282, 0.3890392780303955, 0.3766406774520874, 0.3603004217147827, 0.40494272112846375], [-0.11793366074562073, -0.12738123536109924, 0.09617815911769867, 0.17787058651447296, 0.20820309221744537, -0.1678330898284912, 0.11175402253866196, -0.12834402918815613, 0.2199741154909134, -0.21706071496009827, -0.17529618740081787, -0.1112799346446991, 0.24183887243270874, 0.1755431443452835, 0.21386177837848663, 0.13757440447807312, 0.1759016513824463, 0.08292626589536667, -0.20743030309677124, -0.2085292786359787, 0.18846042454242706, 0.2119198739528656, -0.15466918051242828, 0.2762642502784729, -0.1940007358789444, -0.17860999703407288, -0.07965000718832016, -0.24917064607143402, 0.5012744665145874, 0.4853566586971283, 0.299854576587677, -0.27556681632995605, 0.38334858417510986, -0.4297143220901489, 0.5856032967567444, -0.5766611695289612, -0.5410639643669128, 0.5577037334442139, -0.41610628366470337, -0.5349746942520142, -0.47928372025489807, -0.5356205105781555, -0.27867183089256287, 0.4859735071659088, -0.6135144233703613, -0.4319987893104553, -0.5822831988334656, 0.5790663957595825, 0.5602083206176758, 0.3593562841415405, -0.4730512499809265, 0.577843189239502, -0.5558425784111023, -0.3186667859554291, 0.5543935894966125, 0.5188892483711243, -0.46210652589797974, 0.4741953909397125, -0.3959316909313202, 0.4801686108112335, 0.5047109127044678, 0.33891761302948, -0.3736667037010193, -0.40117043256759644], [0.09090255200862885, 0.10486073046922684, 0.011695979163050652, 0.04203220084309578, -0.06907788664102554, -0.02033884823322296, 0.13832581043243408, 0.12459348887205124, 0.0306953527033329, -0.08224629610776901, -0.03740373253822327, 0.03203359618782997, 0.15920691192150116, -0.000292980985250324, 0.0027810854371637106, 0.002448001876473427, -0.10567879676818848, -0.013602142222225666, -0.005413423292338848, -0.1509130299091339, 0.13555726408958435, -0.14081519842147827, -0.1580515205860138, -0.047600824385881424, -0.12561623752117157, -0.1001921147108078, -0.12818731367588043, 0.11953495442867279, -0.4508887231349945, -0.7711952328681946, 0.24718867242336273, -0.3367330729961395, 0.45146146416664124, -0.9040807485580444, 0.3838459253311157, 0.3613802492618561, 0.360412061214447, 0.9636698365211487, 0.43947017192840576, 0.7820736169815063, -0.29613471031188965, 0.30444544553756714, -0.2374759167432785, -0.6800809502601624, -0.28770506381988525, 0.6272841095924377, 0.5864679217338562, -0.9017332792282104, -0.4882337749004364, -0.2552599012851715, -0.9729196429252625, -0.42917802929878235, 0.8759389519691467, -0.29224005341529846, -0.8891375064849854, -0.29606518149375916, -0.2520023584365845, 0.2804212272167206, -0.38524195551872253, -0.3496096730232239, -0.34252944588661194, 0.23121383786201477, -0.4244822561740875, 0.34412768483161926], [-0.0023029481526464224, -0.0009740504319779575, 0.0705992728471756, -0.0741296112537384, -0.0031397142447531223, 0.15849550068378448, 0.04012539982795715, 7.057430048007518e-05, -0.019285596907138824, 6.521175237139687e-05, -8.363670349353924e-05, -0.07404273748397827, 0.0006190407439135015, -0.0019124120008200407, 7.467104296665639e-05, 0.10785422474145889, 0.08842317014932632, -0.0337756983935833, -0.04642743617296219, 0.005713391583412886, 0.0012269767466932535, 0.0005092094652354717, 0.01060333102941513, -0.1450170874595642, -0.12974001467227936, -0.11238892376422882, 0.08568397909402847, 1.4910458048689179e-05, -0.5944883823394775, -0.6911357641220093, -0.2253776490688324, -0.2580488324165344, 0.3428646922111511, 0.7502670884132385, -0.5585231781005859, 0.44191300868988037, -0.38442566990852356, -0.809862494468689, 0.3334425389766693, -0.6820592284202576, -0.43417465686798096, 0.3076399266719818, -0.27490630745887756, -0.6109683513641357, 0.5365398526191711, 0.4985133707523346, -0.5511928200721741, 0.6917345523834229, -0.5254039168357849, -0.2516005337238312, -0.8166017532348633, 0.3637412488460541, -0.6591603755950928, 0.36627861857414246, -0.5688987374305725, 0.534225583076477, -0.3663617968559265, -0.46084433794021606, 0.33726203441619873, -0.2986777126789093, 0.39637818932533264, -0.4429839551448822, -0.4171752631664276, 0.3710279166698456], [-0.10077188163995743, 0.14562205970287323, 0.14622747898101807, 0.1396394819021225, 0.08075106143951416, 0.01866212673485279, -0.002171366009861231, -0.17763790488243103, 0.0035580710973590612, 0.10529837012290955, 0.1476101577281952, 0.16718584299087524, -0.0002947951725218445, 0.0581124871969223, -0.16360746324062347, -0.0746593028306961, 0.12382429838180542, -0.12072235345840454, 0.0006116144941188395, 0.04463263228535652, 0.045738279819488525, 0.06668657064437866, -0.09232586622238159, 6.201802170835435e-05, -0.054688990116119385, -0.04287530481815338, -0.07847610116004944, 0.2016398310661316, 0.5755204558372498, -0.4911489486694336, 0.3366783857345581, -0.2763431668281555, -0.2879607677459717, 0.6351433396339417, -0.4434281587600708, -0.49184080958366394, 0.3610183894634247, 0.5239775776863098, 0.4485678970813751, 0.5441446304321289, 0.4523282051086426, 0.3933457136154175, 0.25636187195777893, 0.6016609072685242, -0.413321852684021, 0.5507339835166931, -0.6129044890403748, -0.5570239424705505, -0.5813966393470764, 0.2767271101474762, 0.6711923480033875, 0.44512444734573364, -0.6997096538543701, -0.44149696826934814, -0.6523600220680237, -0.5033175349235535, 0.2676573693752289, -0.32649314403533936, -0.26961150765419006, 0.43300291895866394, -0.36110714077949524, 0.36144059896469116, -0.2771020829677582, 0.36183422803878784], [0.11208472400903702, 0.15817677974700928, 0.1255989521741867, 0.15314602851867676, 0.08868919312953949, 0.15633022785186768, -0.04945414513349533, 0.005110767669975758, -0.04357999935746193, -0.10997476428747177, 0.02427406795322895, -0.17359063029289246, 0.12043914943933487, 0.01696627587080002, -0.011952626518905163, -0.12374904006719589, -0.026901187375187874, -0.14259356260299683, 0.0023362773936241865, 0.0018429557094350457, 0.009680178947746754, -0.10644940286874771, -0.05880109965801239, 0.07841464877128601, -0.11439590156078339, 0.013904222287237644, 0.1034945398569107, -0.08354105055332184, -0.7150012254714966, 0.8765856027603149, -0.285671591758728, -0.27963316440582275, -0.3041036128997803, -0.9698357582092285, 0.5363534092903137, 0.5074285268783569, 0.5193929076194763, 1.1523607969284058, 0.4175374209880829, -0.8319412469863892, 0.4860808253288269, -0.34746864438056946, 0.25062835216522217, 0.9125680923461914, -0.42207473516464233, 0.706896185874939, 0.655552327632904, 1.0164231061935425, -0.6234958171844482, -0.19247816503047943, -1.074963927268982, 0.438429594039917, 1.121310830116272, -0.36082300543785095, 0.8393996953964233, -0.523880124092102, 0.2437710165977478, -0.27696534991264343, 0.2549712359905243, 0.26271113753318787, -0.3250727653503418, -0.2977988123893738, -0.4019344747066498, 0.32962533831596375], [0.00837161485105753, 0.12950578331947327, 0.03935125470161438, -0.06919211149215698, -0.08292365819215775, 0.12573149800300598, 0.05997069180011749, -0.08929330855607986, 0.12811321020126343, -0.16674743592739105, 0.0698995515704155, 0.0017394726164638996, 0.12705843150615692, 0.0036655799485743046, 0.009405676275491714, 0.09559569507837296, 0.06610077619552612, -0.11005006730556488, 0.0677749365568161, -0.048440173268318176, -0.14265474677085876, -0.09164079278707504, 0.1373089700937271, 0.07410605996847153, 0.025516454130411148, -0.003327001351863146, 0.1545042097568512, 0.08144774287939072, 0.6594853401184082, -0.6700777411460876, 0.3739515244960785, -0.3413751721382141, 0.38843613862991333, 1.1847178936004639, 0.3802502155303955, 0.28723952174186707, -0.3699832558631897, 1.0166206359863281, -0.31082257628440857, -0.7965633273124695, -0.4912758767604828, -0.38380664587020874, 0.20821109414100647, 0.9839810729026794, -0.5191052556037903, -0.596196711063385, -0.7371357679367065, 0.9937459826469421, -0.5461921691894531, -0.2007850557565689, -1.1811619997024536, -0.5181146264076233, 1.0195543766021729, -0.19065333902835846, -0.9605299830436707, -0.3355788290500641, -0.21453286707401276, 0.1496962457895279, -0.257930725812912, 0.17028944194316864, 0.256542831659317, -0.21407580375671387, -0.2064708024263382, -0.14584606885910034], [0.0025309226475656033, 0.03969740867614746, -0.009476077742874622, -0.0025530385319143534, -0.17713703215122223, 0.04990877956151962, 0.019871795549988747, 0.0040594968013465405, 0.05511368066072464, 0.09099670499563217, 0.13253290951251984, -0.0696166530251503, -0.011988860554993153, -0.007311572320759296, -0.08501485735177994, 0.07897530496120453, 0.14845120906829834, -0.10718729346990585, 0.010414566844701767, 0.062033992260694504, 0.061171695590019226, 0.05820571631193161, 0.005112535320222378, -0.005810796748846769, 0.033902447670698166, 0.058297041803598404, -0.05434291809797287, -0.0031538764014840126, 0.5072482824325562, -0.9123876094818115, 0.32956600189208984, 0.2281976193189621, -0.2708275318145752, -1.3097665309906006, -0.38906243443489075, -0.4245035648345947, 0.4500080645084381, -1.4004628658294678, 0.32825911045074463, 1.0019547939300537, 0.4062671959400177, 0.37555184960365295, -0.2527911067008972, -0.9545081853866577, -0.3233201503753662, 0.6016895771026611, 0.6277210116386414, -1.222183108329773, -0.5600166916847229, -0.18093931674957275, -1.2287769317626953, 0.35776543617248535, 1.112205147743225, -0.26267173886299133, 0.980104923248291, -0.35049253702163696, 0.16127406060695648, 0.0675145760178566, 0.1909060925245285, -0.26081621646881104, -0.11293558031320572, 0.14882349967956543, -0.22523100674152374, 0.232476606965065], [0.17174109816551208, -0.14623603224754333, -0.11724945902824402, 0.1500285267829895, -0.04170609265565872, -0.10840784013271332, -0.0066435676999390125, -0.10962683707475662, -0.16914956271648407, -0.17900392413139343, -0.07488736510276794, -0.11158185452222824, -0.006297469604760408, -0.00013847841182723641, 0.025025200098752975, 0.13840626180171967, 0.05252653360366821, -0.04468850418925285, 0.17181061208248138, 0.18388314545154572, 0.008844025433063507, 0.039991069585084915, 0.0034791643265634775, 0.014135977253317833, 0.022046338766813278, -0.17631813883781433, -0.00550824636593461, 0.04522467777132988, -0.5894746780395508, 0.6821657419204712, -0.18488697707653046, 0.27416932582855225, 0.3714660704135895, 1.1301724910736084, 0.5325290560722351, 0.3190154731273651, -0.4306522607803345, 0.9891224503517151, -0.3150545358657837, -0.7516922950744629, 0.332555890083313, 0.36937084794044495, -0.32270100712776184, 0.9153516292572021, 0.508212685585022, -0.6837493181228638, 0.6052775382995605, -1.1622650623321533, 0.5679060816764832, -0.2562999725341797, -0.9965373873710632, 0.4797435998916626, -0.9845537543296814, -0.34349820017814636, -0.9191020727157593, -0.32048115134239197, 0.11602821946144104, -0.2541196048259735, 0.2632873058319092, 0.1791604459285736, 0.16600893437862396, -0.2409151941537857, -0.13104206323623657, -0.11901771277189255], [0.1000632494688034, -0.1730264276266098, -0.16239714622497559, -0.24450765550136566, 0.2058028280735016, -0.10798567533493042, 0.22689270973205566, 0.23153804242610931, -0.08450981974601746, -0.09450814127922058, -0.13227136433124542, -0.12284230440855026, 0.16673900187015533, 0.2066550999879837, -0.15824760496616364, 0.13521318137645721, 0.2597312331199646, -0.06522751599550247, -0.10898900777101517, 0.06849207729101181, 0.2557952105998993, -0.20730164647102356, 0.10251876711845398, 0.18062932789325714, 0.07354342937469482, -0.24302786588668823, -0.2652972638607025, 0.12488476186990738, -0.5298383235931396, 0.5324391722679138, -0.4444170594215393, -0.434024453163147, -0.32573002576828003, 0.7933256030082703, -0.47037768363952637, -0.42626333236694336, -0.4287433922290802, -0.7705705761909485, 0.3224170506000519, -0.5534651875495911, 0.4917398989200592, -0.46691766381263733, -0.32052382826805115, -0.656179666519165, 0.6091559529304504, -0.6520048975944519, 0.5421873331069946, -0.6261955499649048, -0.4862910509109497, -0.41042277216911316, 0.7722970247268677, 0.5370162725448608, -0.6750308871269226, -0.3419381082057953, 0.753873348236084, -0.5377084612846375, -0.33857542276382446, 0.34604504704475403, -0.41643333435058594, 0.30672040581703186, 0.30658984184265137, 0.365644246339798, 0.48295915126800537, -0.35193055868148804], [0.17312774062156677, 0.03444289416074753, -0.23434412479400635, 0.15601631999015808, -0.21344612538814545, -0.20967021584510803, -0.13865208625793457, 0.1128559559583664, 0.10727300494909286, 0.1878112256526947, 0.08201221376657486, 0.2217469960451126, 0.13382138311862946, 0.11383064836263657, -0.22287699580192566, -0.20523250102996826, 0.11659473925828934, -0.07400385290384293, 0.17022797465324402, -0.028854772448539734, -0.06912117451429367, -0.21703632175922394, -0.2397887408733368, 0.0972813218832016, -0.03987739235162735, -0.21905465424060822, -0.1472175568342209, -0.0849863588809967, 0.6718213558197021, -0.6003106832504272, 0.3781542181968689, 0.4249858260154724, 0.43730658292770386, -0.7130622863769531, -0.5052931308746338, -0.46914514899253845, -0.4240137040615082, 0.7016391754150391, -0.5176827907562256, 0.6159855127334595, 0.6381628513336182, -0.41009339690208435, 0.42820456624031067, 0.7940582036972046, 0.5393967628479004, 0.6124392747879028, 0.5609892010688782, -0.8265911936759949, 0.6852644681930542, -0.40061578154563904, -0.797462522983551, -0.5672906637191772, 0.8548959493637085, -0.4914088845252991, -0.7228630781173706, 0.44836416840553284, -0.3502397835254669, 0.3809283971786499, -0.37253254652023315, -0.46132537722587585, 0.4427279233932495, -0.3888397812843323, 0.4076123535633087, 0.28110915422439575], [0.03599437326192856, -0.002343485364690423, -0.060878731310367584, 0.1808701753616333, 0.0884319469332695, -0.11593914031982422, -0.15374566614627838, -0.12254112958908081, -0.04514157399535179, -0.17209286987781525, 0.006855303421616554, 0.06850124895572662, 0.003855034476146102, 0.1373770534992218, -0.1382068246603012, -0.10924942046403885, 0.04373849555850029, 0.007547811605036259, 0.0315462090075016, 0.12731577455997467, -0.1976962387561798, -0.08096394687891006, -0.00445631705224514, 0.09162022173404694, -0.13432838022708893, -0.0836271196603775, -0.035109128803014755, -0.1390976458787918, 0.5781099796295166, -0.7623005509376526, 0.2684057950973511, 0.33829987049102783, -0.23805168271064758, -1.1396088600158691, 0.37973713874816895, -0.44501107931137085, 0.3278767764568329, -1.1806472539901733, -0.3377144932746887, 0.716700553894043, 0.3899383544921875, 0.3708396852016449, 0.24566806852817535, 0.9815219640731812, 0.4168184697628021, 0.6709540486335754, -0.5799793601036072, -1.1209673881530762, -0.6728116869926453, 0.22287797927856445, 1.2125970125198364, -0.42535364627838135, -1.0619860887527466, 0.2118646502494812, -0.8637029528617859, 0.4949309229850769, -0.13019463419914246, -0.18771085143089294, 0.1994161605834961, -0.25641509890556335, -0.1969326287508011, 0.19131724536418915, 0.1296999156475067, -0.289593368768692], [-0.08002830296754837, 0.16839224100112915, -0.09473521262407303, -0.18243089318275452, 0.04524127021431923, -0.13503512740135193, -0.03544824942946434, -0.233548104763031, -0.1647534817457199, 0.058351848274469376, -0.09484376013278961, 0.11410277336835861, -0.15802235901355743, 0.11392504721879959, 0.14006230235099792, 0.07861877977848053, -0.10763832181692123, -0.14553339779376984, -0.09576086699962616, 0.19915544986724854, -0.1378573775291443, 0.044877342879772186, -0.09521250426769257, 0.08297829329967499, -0.10494550317525864, -0.1959204375743866, -0.192881241440773, 0.07402407377958298, 0.5336928963661194, -0.5398315191268921, -0.3391161561012268, -0.33980584144592285, 0.2635270059108734, 0.7760012745857239, 0.4128040373325348, -0.3709360957145691, 0.48863890767097473, 0.8495503067970276, 0.28896602988243103, 0.5732554197311401, 0.5041375160217285, 0.4466148018836975, -0.3763299584388733, -0.7008521556854248, -0.45193246006965637, -0.5283426642417908, -0.6489763855934143, 0.6601935625076294, -0.45892396569252014, 0.32098403573036194, 0.6922296285629272, -0.3725208342075348, -0.8004972338676453, -0.3722517192363739, 0.70793217420578, -0.41746219992637634, -0.35466253757476807, -0.2609732747077942, -0.4116790294647217, -0.2861681282520294, -0.2580235004425049, 0.22525347769260406, 0.4117550253868103, 0.31056007742881775]], "PMT_dist_dense_3/bias:0": [-1.037615418434143], "PMT_dist_dense_3/kernel:0": [[0.06781482696533203], [0.07254091650247574], [-0.07263728231191635], [0.06951174139976501], [0.0756547600030899], [-0.07079137116670609], [0.06555675715208054], [0.07195631414651871], [-0.07407040894031525], [-0.07426372915506363], [0.06940276175737381], [0.07377725839614868], [-0.06975453346967697], [0.07351435720920563], [0.07327436655759811], [0.07377736270427704], [-0.07189707458019257], [0.07066888362169266], [-0.07352790981531143], [0.07145533710718155], [0.07590890675783157], [-0.07069742679595947], [-0.0740690603852272], [0.06756182014942169], [-0.07315505295991898], [0.07223939895629883], [-0.07426813244819641], [0.07164359092712402], [-0.03102952055633068], [0.029322540387511253], [-0.04121720418334007], [-0.04175364971160889], [-0.040026962757110596], [-0.028330277651548386], [0.03206592798233032], [-0.03375454246997833], [-0.03492804989218712], [-0.02819192036986351], [-0.037936631590127945], [-0.02893729694187641], [0.03315262869000435], [0.03656230866909027], [-0.04277658089995384], [0.028882455080747604], [0.032877445220947266], [0.030026374384760857], [0.029822273179888725], [0.02823728509247303], [0.030289478600025177], [0.04321176931262016], [0.028037846088409424], [0.03307242691516876], [-0.028108438476920128], [-0.040587130934000015], [-0.028199762105941772], [-0.03342052549123764], [-0.02900543063879013], [-0.02893291600048542], [0.028936320915818214], [-0.02901342697441578], [0.02900611236691475], [0.028625046834349632], [-0.028841331601142883], [0.028852812945842743]], "PMT_wall_dense_1/bias:0": [-0.04822966828942299, -0.04285840317606926, -0.09920860826969147, -0.07314208894968033, -0.07668532431125641, 0.06289076060056686, -0.023850249126553535, -0.0841493159532547, 0.012102794833481312, 0.013979095965623856, 0.026883600279688835, -0.07328492403030396, -0.003568998072296381, -0.05522901937365532, -0.05124258995056152, 0.0014756146119907498, -0.005752909928560257, -0.10581940412521362, 0.033728912472724915, -0.055273812264204025, 0.028359131887555122, -0.05567430332303047, 0.0782707929611206, -0.05791320651769638, 0.03830762952566147, -0.05292588472366333, 0.0103153632953763, -0.07848044484853745, -0.08426148444414139, 0.014962855726480484, -0.06321323662996292, 0.045649610459804535, -0.010019260458648205, -0.011522917076945305, -0.06414153426885605, -0.08880888670682907, -0.0172963235527277, -0.04785755276679993, 0.02524367719888687, -0.029101179912686348, -0.009593437425792217, 0.049326736479997635, 0.02990211732685566, 0.04495090991258621, -0.05626774579286575, -0.020447490736842155, -0.01205641869455576, -0.07459256052970886, -0.08177193254232407, -0.11024750769138336, -0.019730113446712494, -0.039841048419475555, -0.03519145026803017, -0.05910903215408325, -0.037042561918497086, -0.024583730846643448, 0.10199268907308578, -0.11470106244087219, -0.10203555226325989, 0.05261379852890968, -0.060308463871479034, -0.011124366894364357, -0.12369788438081741, -0.14390653371810913], "PMT_wall_dense_1/kernel:0": [[-0.5780648589134216, 0.603354275226593, -0.30642014741897583, -0.48170435428619385, 0.46741583943367004, -0.5052692294120789, 0.6436061263084412, -0.5379531979560852, 0.6545696258544922, -0.6371416449546814, -0.5968803763389587, -0.411141961812973, -0.665159285068512, -0.6001092195510864, 0.5750604867935181, 0.6135820150375366, -0.6521777510643005, -0.5013547539710999, -0.5754579901695251, -0.5684383511543274, -0.5906942486763, 0.5808898210525513, 0.4515935480594635, 0.5189549922943115, -0.6183335781097412, 0.5852203965187073, -0.622554361820221, 0.37337353825569153, 0.486819326877594, 0.6408794522285461, 0.47788554430007935, -0.578726053237915, -0.6476647257804871, -0.6646754741668701, -0.44739460945129395, 0.5316906571388245, -0.6597194671630859, 0.6289757490158081, -0.599412202835083, 0.5970255136489868, -0.6286131143569946, -0.5985741019248962, 0.6231966018676758, 0.5677310228347778, 0.5848840475082397, -0.643642246723175, 0.5747191905975342, -0.4067538380622864, -0.45119649171829224, -0.47982269525527954, -0.6573817729949951, -0.6096645593643188, -0.6797794103622437, 0.6271291375160217, -0.6272545456886292, 0.6358840465545654, 3.0369601249694824, 1.4081907272338867, 1.6281949281692505, 2.6320412158966064, -1.7457441091537476, 2.139403820037842, 1.4766123294830322, -1.2866076231002808], [-0.12074428051710129, 0.16831108927726746, -0.003776771714910865, -0.04487597942352295, 0.047875504940748215, 0.00040841809823177755, 0.06305421143770218, -0.005194948986172676, -0.010083490051329136, -0.0583079494535923, 0.0008688117959536612, -0.10574773699045181, -0.0016076997853815556, 0.013161519542336464, 0.06908831745386124, 0.09583470225334167, -0.07345204800367355, 0.02928607352077961, -0.0008496562950313091, -0.10199157148599625, -0.02030278742313385, -0.08688186854124069, -0.0002985964238177985, -0.16934052109718323, -0.001341368188150227, -0.10000963509082794, 0.0011234177509322762, -0.1058233380317688, -0.018334362655878067, -0.06869299709796906, -0.13249267637729645, 0.0009035203256644309, 0.06261865794658661, -0.007208466529846191, 0.13225890696048737, -0.0008595729013904929, -0.14025992155075073, 0.052231401205062866, 0.00082298245979473, -0.1540910005569458, -0.09031418710947037, 0.0007991634774953127, -0.0008646492497064173, 0.0008994073723442852, 0.06385425478219986, -0.14770658314228058, -0.15009768307209015, -0.1684967428445816, -0.03119560517370701, 0.0005355046596378088, -0.01766887865960598, 0.13050419092178345, 0.0009916390990838408, -0.025826873257756233, -0.08000249415636063, -0.14511016011238098, 0.686852216720581, -0.6688474416732788, 0.6892593502998352, 0.46909528970718384, -0.7475220561027527, 0.3271859884262085, -0.6921547651290894, -0.5036169290542603]], "PMT_wall_dense_2/bias:0": [-0.12146277725696564, 0.17712527513504028, -0.09838875383138657, -0.12612223625183105, -0.11069559305906296, 0.03202064335346222, 0.4657898545265198, -0.10492061078548431, -0.10104339569807053, 0.028271658346056938, -0.10239362716674805, 0.10713805258274078, -0.020719489082694054, 0.014524719677865505, 0.37299200892448425, -0.0023969660978764296, 0.04151633009314537, -0.12307129055261612, -0.09126029163599014, -0.06725121289491653, 0.06215197965502739, -0.11429985612630844, 0.04272798076272011, 0.0032846657559275627, -0.10610397160053253, 0.019027812406420708, 0.0023660261649638414, 0.10702142864465714, 0.19060273468494415, -0.10978058725595474, 0.05699353665113449, -0.005434887483716011, 0.0012205039383843541, 0.006188271567225456, 0.1205224022269249, -0.08975781500339508, -0.1313202977180481, -0.12243802100419998, 0.01274612732231617, -0.034378379583358765, 0.29706332087516785, -0.06238531693816185, -0.08752810955047607, 0.07908540219068527, -0.08599922806024551, -0.05101604014635086, -0.11985242366790771, 0.22096820175647736, -0.12938034534454346, 0.044005777686834335, 0.0414305180311203, -0.11122544854879379, -0.02979881502687931, 0.07767007499933243, -0.11968477070331573, -0.0997593104839325, -0.08786880224943161, -0.02969636209309101, -0.042816776782274246, -0.08556652814149857, 0.01837792620062828, -0.07314637303352356, -0.026433633640408516, -0.08914303034543991], "PMT_wall_dense_2/kernel:0": [[-0.2217160314321518, -4.0955201257020235e-06, 0.2569925785064697, -0.31081423163414, -0.22364547848701477, 7.773345714667812e-06, 1.008113849820802e-05, 0.20454272627830505, 0.27083057165145874, -3.722531982930377e-05, -0.18640372157096863, 2.2669997633784078e-05, -0.02844684198498726, -1.511933260189835e-05, -1.6201975086005405e-05, -0.08151258528232574, 3.70461457350757e-05, 0.2650013566017151, -0.28445348143577576, 0.1604001224040985, -3.7790241549373604e-06, 0.27358877658843994, 3.389412540855119e-06, -0.017531288787722588, 0.33781898021698, 1.9843522750306875e-05, 0.15565727651119232, -3.6948527849745005e-05, -1.254262951988494e-05, -0.33700868487358093, -2.7347141440259293e-05, -0.03233622759580612, -3.5338225643499754e-06, 0.022732790559530258, 1.3078631127427798e-05, 0.13298720121383667, -0.23827609419822693, 0.33498117327690125, 0.04282163456082344, -0.18241995573043823, -1.0621395631460473e-05, -0.1909753382205963, 0.27087458968162537, -1.2061686902598012e-05, -0.2889014184474945, -0.14377684891223907, -0.2420227974653244, 4.1296134440926835e-06, 0.29611778259277344, 4.063931555720046e-05, -4.3059071686002426e-07, -0.1833328753709793, 0.09773391485214233, -1.9318396880407818e-05, -0.19809715449810028, 0.2723011374473572, 0.316333532333374, -0.237837553024292, -0.055876728147268295, -0.15488874912261963, -1.7529502656543627e-05, 0.1369062066078186, 0.03520998731255531, 0.30067241191864014], [-0.22166453301906586, -4.147302752244286e-05, -0.15427643060684204, 0.33330559730529785, -0.35007244348526, 4.193857967038639e-05, 5.197066002438078e-06, 0.19925054907798767, 0.15501290559768677, 4.912949225399643e-05, -0.155869722366333, -3.331329571665265e-05, 0.10729651898145676, -0.004161024000495672, -1.0799779374792706e-05, 0.08707665652036667, 