{"PMT_dist_dense_1/bias:0": [-0.003947823774069548, -0.03005514107644558, 0.0001762212923495099, -0.006271539255976677, -0.01854473352432251, -0.007491007447242737, -0.03718775510787964, -0.00437791645526886, -0.005386680830270052, -0.22361284494400024, -0.007317336741834879, -0.3336474895477295, -0.03554636612534523, -0.20781449973583221, -0.03560616448521614, -0.04768107086420059, -0.057385485619306564, -0.008176279254257679, 0.0005964692682027817, -0.04652879014611244, -0.00416655233129859, -0.004471839405596256, -0.005424208007752895, -0.045777853578329086, -0.3205999732017517, -0.005559365730732679, -0.05625710263848305, -0.019075758755207062, -0.1751835197210312, -0.00893835537135601, -0.0781700611114502, -0.01409914530813694, -0.0037625832483172417, -0.1276208907365799, -0.13609802722930908, -0.019803885370492935, -0.06721720099449158, -0.0633227676153183, -0.004470418207347393, -0.0016035984735935926, -0.010590442456305027, -0.07765117287635803, -0.005031436216086149, -0.005488954018801451, -0.010035515762865543, -0.008045473136007786, -0.0027796668000519276, -0.04817510023713112, -0.00791085697710514, -0.137566938996315, -0.02350594289600849, -0.02275347150862217, -0.004323466215282679, -0.07718858867883682, 0.0048740035854279995, -0.013629701919853687, -0.03440080210566521, -0.006780164781957865, -0.006634652614593506, -0.010513109154999256, -0.005639221519231796, -0.014220422133803368, -0.005834568291902542, -0.010447537526488304], "PMT_dist_dense_1/kernel:0": [[0.0013957072515040636, -3.3297387744823936e-06, 0.19110360741615295, 0.0005410558660514653, -5.340301072465081e-07, -0.00062574353069067, 1.810716980799043e-06, -0.000987506820820272, -0.006021636072546244, 0.47707971930503845, -1.3305449328981922e-06, 0.4056899845600128, -0.03499431908130646, 0.43636634945869446, -0.016418328508734703, 9.478401807427872e-06, -1.6170566595974378e-05, 0.003993862774223089, -0.10006061941385269, -0.0040786778554320335, 0.0006452465895563364, 0.005636428948491812, 1.914602762553841e-05, 0.01743469573557377, 0.3989010155200958, -1.2402566426317208e-05, -1.213920859299833e-05, 6.52206927043153e-06, -0.16071319580078125, 0.013352341949939728, 0.20543086528778076, -8.647570211905986e-06, -0.034799009561538696, 0.26614657044410706, -1.4722545146942139, 0.01913943886756897, 0.2898198664188385, 0.19150084257125854, 0.006797130685299635, 0.03845248371362686, 0.01872284710407257, -0.7846866250038147, 0.000794063089415431, 1.4999620361777488e-05, 9.096890607906971e-06, -0.0027780504897236824, 0.05305716022849083, 0.3595631718635559, -0.10456044971942902, -0.24417950212955475, 0.15635238587856293, 0.025265054777264595, -0.008739194832742214, 0.2313181459903717, -0.012535537593066692, 0.014143414795398712, 9.483909707341809e-06, -1.4624927644035779e-05, 2.194885200879071e-05, -0.009377557784318924, -6.115596988820471e-06, 1.790832129699993e-06, 1.9623003026936203e-05, 0.0077888197265565395]], "PMT_dist_dense_2/bias:0": [0.10054892301559448, 0.0959932953119278, 0.09076688438653946, 0.09811766445636749, 0.08966940641403198, 0.08636657893657684, 0.09261314570903778, 0.1006200835108757, 0.09330163151025772, 0.08650004863739014, 0.0913570374250412, 0.08148764818906784, 0.09637125581502914, 0.10613717883825302, 0.12129326164722443, 0.08240669965744019, 0.08562199771404266, 0.09441955387592316, 0.0994485393166542, 0.09065073728561401, 0.09752088040113449, 0.1136217787861824, 0.09211257845163345, 0.09122209250926971, 0.09738894551992416, 0.10213044285774231, 0.08251553773880005, 0.08890626579523087, -0.06395784020423889, -0.06004931777715683, -0.063450887799263, -0.08224216103553772, -0.08833444118499756, 0.2908610701560974, -0.02323768474161625, -0.06879419088363647, -0.04792153462767601, -0.08727365732192993, -0.05539485812187195, -0.057255081832408905, -0.04504682123661041, -0.08838329464197159, -0.09318285435438156, -0.06147234886884689, -0.05802610516548157, -0.03580406680703163, -0.04524526000022888, 0.21544191241264343, -0.02680901624262333, -0.06746683269739151, 0.15219654142856598, -0.03674934431910515, -0.03951369598507881, -0.08945395797491074, -0.041239071637392044, -0.023191086947917938, -0.2779601216316223, -0.07777741551399231, -0.17152823507785797, -0.10838643461465836, -0.25285789370536804, -0.29234620928764343, -0.10856029391288757, -0.21516241133213043], "PMT_dist_dense_2/kernel:0": [[-3.152453064103611e-05, 1.1883341358043253e-05, -1.879939009086229e-05, 3.958876732212957e-06, -2.3850663637858815e-05, 0.00022698004613630474, 8.806400728644803e-06, -3.671584272524342e-05, 1.420497937942855e-05, 9.70224937191233e-06, -5.288232205202803e-05, 2.09979680221295e-05, -9.61465138971107e-06, -4.5770168071612716e-05, 7.889718290243763e-06, 5.90382387599675e-06, 8.011970930965617e-05, 1.360473470413126e-05, 9.73702481132932e-06, 1.2868490557593759e-05, 6.160980319691589e-06, -1.728726056171581e-05, 2.4299484721268527e-05, 9.319825949205551e-06, -1.7584827219252475e-05, -1.0798021321534179e-05, -6.248649697226938e-06, 1.827343658078462e-05, 0.0010642727138474584, 0.005593216046690941, -0.0019496495369821787, -1.7546255548950285e-05, 0.0025128843262791634, 0.08232571929693222, 0.0006829386693425477, 0.0019089925335720181, -0.0010582307586446404, -0.11292334645986557, -0.0009955650893971324, 0.0008537847897969186, 0.003533062292262912, -0.00310983182862401, -0.0001671879435889423, 0.0034600384533405304, 0.00042832325561903417, -0.004434760194271803, -0.004182587843388319, -0.08124233782291412, 8.420232188655064e-05, -0.0014397224877029657, -0.0563073605298996, -0.001232457347214222, 0.021987944841384888, -0.002979821292683482, -0.020016495138406754, -0.00756791653111577, -2.4748775103944354e-05, -0.0007173364283517003, 0.000786400109063834, 0.00019033951684832573, 1.8060292859445326e-05, -5.5851578508736566e-05, -0.0003845410537905991, -2.114002654707292e-06], [3.567480598576367e-05, -9.269599104300141e-06, -3.546275547705591e-05, -1.3676435628440231e-05, 2.619326551211998e-05, -0.00038072289316914976, 0.014697223901748657, -0.0006067429203540087, 1.4632507372880355e-05, 9.56621988734696e-06, -0.10348042100667953, 2.496105844329577e-05, 0.0013187946751713753, -0.007027111016213894, -0.045563407242298126, 1.030436123983236e-05, 0.0009802544955164194, 0.05503010004758835, -0.0003039381408598274, 1.6979473002720624e-05, -1.0224499419564381e-05, 1.973249891307205e-05, -0.00018140014435630292, -7.664587428735103e-06, 0.00048602765309624374, -8.728535249247216e-06, -8.015262210392393e-06, 1.5793933926033787e-05, 0.028131434693932533, -0.03744802623987198, 0.04676562547683716, -0.034651465713977814, 0.013302273117005825, 1.421616792678833, -0.49526679515838623, 0.03220602124929428, 0.02704387530684471, 2.5665855407714844, 0.14696750044822693, 0.8402729034423828, -0.18787680566310883, -0.08774890005588531, -0.027483507990837097, 0.7574706077575684, 0.05652367323637009, 0.684441089630127, 0.07319030165672302, 1.1162019968032837, 0.47673434019088745, -0.02836797386407852, 2.8944859504699707, 0.8783384561538696, -2.2717814445495605, -0.012309921905398369, -2.6726112365722656, -0.47483593225479126, -0.15955132246017456, -0.004335595760494471, -0.03414827212691307, 0.009649422019720078, 0.15568095445632935, -0.21480393409729004, -0.0018864943413063884, -0.12234623730182648], [1.0301042795181274, -1.0950599908828735, 1.0781078338623047, -0.9783238172531128, -1.015442967414856, 0.8891366124153137, 0.9907240867614746, -1.0759499073028564, 1.0006237030029297, -0.9754712581634521, -1.01421058177948, 1.0151187181472778, -0.8759233355522156, 1.0271375179290771, -0.9745826125144958, -0.9818881154060364, -1.0720144510269165, 0.9077803492546082, -0.920587420463562, -1.0794106721878052, 0.9839730858802795, 0.9895158410072327, 1.0676223039627075, 0.9266457557678223, 0.9159813523292542, 0.9545488953590393, 0.9162130355834961, 0.9959777593612671, -0.05403575301170349, -0.06176245957612991, -0.07843118906021118, -0.045834265649318695, -0.05418882519006729, -1.5370274782180786, -2.2212395668029785, 0.053934767842292786, -0.06255712360143661, -5.3141608238220215, 0.05325649678707123, -3.7586934566497803, 0.054181601852178574, 0.060110900551080704, -0.05139340087771416, -3.1793370246887207, -0.05776568874716759, -2.6840708255767822, -0.06650612503290176, -1.6344712972640991, -1.5130490064620972, 0.07346214354038239, -1.2052079439163208, -2.8505754470825195, -5.530092716217041, 0.05549637973308563, 5.214330196380615, 1.207870364189148, 1.82643600510346e-06, -8.787526894593611e-06, -1.77315041582915e-06, -0.001100741559639573, 6.950130568839086e-07, -4.7820235522522125e-06, 9.89384034255636e-07, -6.826949174865149e-06], [-3.4001644962700084e-05, -1.1855328921228647e-05, 2.3656049961573444e-05, -2.792900431813905e-06, -1.892531872726977e-05, -0.00026174154481850564, 7.542879302491201e-06, 0.0001699592248769477, -1.4318807188828941e-05, -1.3144324839231558e-05, 0.00012808693281840533, -2.4879347620299086e-05, 1.54879417095799e-05, 0.000292254495434463, -6.347136604745174e-06, -7.569475201307796e-06, -0.00010379080777056515, 5.509960828931071e-05, 0.0001373500272165984, -1.4328484212455805e-05, -1.0476219358679373e-05, 2.3807178877177648e-05, 0.0001503815146861598, -9.520785170025192e-06, 0.0006716184434480965, 8.612441888544708e-06, -5.003662408853415e-06, -2.0444567780941725e-05, -0.0017083721468225121, 0.0056961337104439735, -0.0020304841455072165, 2.180293267883826e-05, -0.0032838189508765936, -0.13936980068683624, -0.0006690009613521397, 0.0030041842255741358, 0.0006423353916034102, -0.09219123423099518, 0.0005806533736176789, -0.0008497051312588155, -0.004112733993679285, -0.0036687676329165697, 0.0014319759793579578, 0.0025371299125254154, -0.0005563063314184546, -0.00030381293618120253, -0.0029692796524614096, -0.14272743463516235, 7.986195123521611e-05, -0.0017803431255742908, -0.09169512242078781, 0.0011439338559284806, -0.17912419140338898, 0.005589837674051523, 0.06872754544019699, 0.0006870850920677185, -0.00024285214021801949, -0.0011277988087385893, -0.0010253387736156583, -0.0004261615395080298, -0.00017246560310013592, 8.073400385910645e-05, 0.0004876537714153528, 2.264020395159605e-06], [3.590032065403648e-05, -8.621977940492798e-06, 2.8232921977178194e-05, -6.444337032007752e-06, 7.720900612184778e-05, 0.0005802536616101861, -1.1346029168635141e-05, 0.0007429830147884786, -1.4223704056348652e-05, 1.1597294360399246e-05, 0.00035890156868845224, 3.03865090245381e-05, 0.0004074058961123228, 0.00036964600440114737, -8.841167982609477e-06, -8.305372830363922e-06, -0.00011968846956733614, -6.528401718242094e-05, 0.0003165450179949403, -1.1438655747042503e-05, -1.1467210242699366e-05, 2.517101529520005e-05, -0.00013599979865830392, -9.75251714407932e-06, -0.0004237531975377351, 9.987173143599648e-06, 8.75427394930739e-06, 1.5888970665400848e-05, 0.005600659176707268, -0.0032589994370937347, 0.013921617530286312, 0.006830926984548569, 0.004273164551705122, -0.5369234085083008, -0.31788742542266846, -0.012395334430038929, -0.0018408274045214057, 0.22776789963245392, 0.00030917359981685877, 0.35851573944091797, -0.004894550424069166, -0.013365965336561203, 0.07584580034017563, -0.3364242911338806, 0.0017414144240319729, -0.32768937945365906, 0.0021515293046832085, -1.040723443031311, -0.28418007493019104, -0.006919104140251875, 1.8969367742538452, -0.1795140504837036, 1.0864454507827759, -0.009600483812391758, -0.6135367155075073, -0.1166376993060112, 0.09201709926128387, -0.0037991993594914675, 0.020091796293854713, -0.015330051071941853, -0.0944877564907074, 0.09816978871822357, 0.0014079908141866326, -0.12698204815387726], [-4.062369771418162e-05, -1.176567002403317e-05, 2.4354025299544446e-05, -1.643083351154928e-06, 2.7065545509685762e-05, -0.00026593825896270573, -8.465735845675226e-06, 0.00019708741456270218, -1.5116228496481199e-05, -8.524238182872068e-06, 0.0001638112444197759, -2.337895057280548e-05, 9.211338692693971e-06, 0.00022733652440365404, -8.029124728636816e-06, -7.442862170137232e-06, -0.00010014313011197373, 5.660529495798983e-05, -0.00023509094899054617, -1.2703772881650366e-05, 7.560053290944779e-06, -2.3488226361223496e-05, -0.0001534766925033182, -8.600856745033525e-06, 0.0006181150674819946, 9.507788490736857e-06, -6.453243713622214e-06, 1.4214076145435683e-05, 0.0011881828540936112, -0.00519638741388917, -0.0028216985519975424, -0.00018496561096981168, -0.0029623156879097223, 0.1517210751771927, -0.0006468584761023521, 0.002866729162633419, -0.001055235741659999, -0.11051148176193237, -0.0006953077390789986, -0.0009428845951333642, -0.004087663721293211, -0.004335931036621332, -0.0019947693217545748, 0.005986396688967943, 7.555602496722713e-05, 0.0035521925892680883, 0.0027922121807932854, -0.1738426685333252, -9.881815640255809e-05, 0.002027379348874092, -0.13333512842655182, 0.001215988420881331, 0.07015406340360641, 0.0038837241008877754, -0.09261454641819, -0.002477476838976145, 0.00018897904374171048, -0.0017563244327902794, 0.0010216579539701343, 0.0002083921863231808, -0.00014697443111799657, -7.712516526225954e-05, 0.00050754239782691, 1.6485137166455388e-06], [-4.2258077883161604e-05, -1.4883928997733165e-05, 2.6570651243673638e-05, 1.3788418073090725e-05, -0.006140946876257658, 0.003354134038090706, -7.546308916062117e-05, 0.0320536233484745, 1.4180462130752858e-05, -7.543605079263216e-06, -0.0002516257227398455, 2.589116047602147e-05, 0.0013511773431673646, -0.0003194932360202074, -0.005101297050714493, -1.5926460037007928e-05, -0.00013030976697336882, 6.45789405098185e-05, 0.00028413085965439677, -1.436140519217588e-05, -1.1305463885946665e-05, 2.7249838240095414e-05, -0.000182595758815296, 7.391651251964504e-06, -0.0004838262975681573, -8.082927706709597e-06, -8.64705452841008e-06, 1.4565706806024536e-05, -0.06469212472438812, 0.015776487067341805, 0.10571475327014923, -0.030056653544306755, -0.019081486389040947, -1.5301319360733032, 0.648649275302887, -0.022532280534505844, -0.025040488690137863, 1.172634243965149, 0.017230883240699768, -0.8930707573890686, -0.03794979304075241, 0.015806613489985466, -0.020444655790925026, -0.6057142019271851, 0.03759504109621048, 0.26208817958831787, 0.007109282538294792, 1.4485985040664673, 0.3953789472579956, -0.06971113383769989, -1.5250571966171265, 0.584980309009552, 2.3364906311035156, -0.021118341013789177, 2.252225160598755, -0.21223774552345276, -0.12649030983448029, -0.0037228395231068134, -0.03319813683629036, -0.013255883939564228, -0.15207864344120026, 0.18282513320446014, -0.01269077230244875, -0.12451943010091782], [3.108798046014272e-05, -1.1188863027200568e-05, -2.5821687813731842e-05, -2.9560719667642843e-06, -2.6547966626822017e-05, -0.00018892363004852086, -9.840870006883051e-06, -4.199251998215914e-05, 1.2989354218007065e-05, -7.835968972358387e-06, 0.00012796653027180582, -1.9571643861127086e-05, -8.931477168516722e-06, -0.00012793828500434756, -8.5547771959682e-06, -1.0134811418538447e-05, -7.703825394855812e-05, -2.852292345778551e-05, 1.1316938071104232e-05, -1.622278432478197e-05, -8.030741810216568e-06, 2.08131896215491e-05, 5.9547404816839844e-05, -1.3714347005588934e-05, -0.00032094059861265123, -8.759338015806861e-06, -5.694217179552652e-06, 2.0076970031368546e-05, -0.002540207002311945, 0.005124770104885101, 0.0019143432145938277, -1.824432001740206e-05, -0.003126213327050209, 0.0916251540184021, -0.0006491707754321396, 0.0025770145002752542, -0.0006168383988551795, 0.16176772117614746, 0.0006704887491650879, 0.0008377207559533417, 0.004140624310821295, -0.0036307021509855986, 0.0032079084776341915, 0.0023528882302343845, 0.0009089932427741587, 0.0002488207828719169, -0.0029741215985268354, -0.10065411031246185, 3.614664819906466e-05, -0.0018976497231051326, 0.05570071190595627, -0.0011449557496234775, 0.2661784291267395, 0.0032983305864036083, 0.18695560097694397, -0.0006632448057644069, -3.5561992262955755e-05, -0.0012881215661764145, -0.0009218988125212491, -0.0002674410352483392, -1.8970871678902768e-05, -5.802590021630749e-05, -0.001093749888241291, 1.4296332437879755e-06], [-1.416968552803155e-05, 7.4225299613317475e-06, -1.1108198123110924e-05, 1.0890479416048038e-06, 8.83374650584301e-06, 1.2159069228800945e-05, -5.3672729336540215e-06, -5.443824193207547e-06, 1.5425299352500588e-05, -1.0139252481167205e-05, -2.269978722324595e-05, 1.7161652067443356e-05, 8.552459803468082e-06, 2.618455073388759e-05, -4.116337095183553e-06, 6.549844783876324e-06, -1.809532659535762e-05, 6.17004525338416e-06, -1.0053931873699185e-05, 1.0184329767071176e-05, -7.958130481711123e-06, 1.0600999303278513e-05, -9.752044206834398e-06, 7.787834874761757e-06, -1.1602579434111249e-05, -1.0131045200978406e-05, 6.7369674070505425e-06, -8.923590939957649e-06, 0.01126783899962902, 0.01800662651658058, -0.01050209067761898, 0.00904460996389389, 0.002633793978020549, -0.15757057070732117, -0.026394005864858627, 0.008865609765052795, -0.008320771157741547, 0.03514595329761505, 0.012115394696593285, 0.027738891541957855, 0.003065199125558138, -0.021410012617707253, 0.012220987118780613, -0.04036807268857956, -0.0038892028387635946, -0.02989277057349682, 0.013177094049751759, 0.10528882592916489, -0.008673475123941898, 0.004612979479134083, 0.07386182993650436, 0.02542758733034134, 0.04353710636496544, 0.00912401732057333, 0.047725748270750046, 0.022006472572684288, 4.033338427689159e-06, 0.00035750045208260417, 0.0003788878966588527, 4.529765647021122e-05, -1.8529271983425133e-05, 2.6206027541775256e-05, -9.748430602485314e-05, -1.4964060710553895e-06], [6.051627224223921e-06, -2.1670989553967956e-06, 2.8124918571847957e-06, 4.985325858797296e-07, 4.159311174589675e-06, 3.113418188149808e-06, 4.9921945901587605e-06, 5.631036970044079e-09, 6.5816971073218156e-06, 4.048162281833356e-06, -3.0154178602970205e-06, 9.716503882373217e-06, 2.696603189633606e-07, 1.1746516975108534e-05, 3.2099071631819243e-06, 4.380833047434862e-07, -1.3952029803476762e-05, -3.280102646385785e-06, -3.6522264963423368e-06, -9.761358796822606e-07, 2.862455176000367e-06, -1.7733736967784353e-06, -3.520089649100555e-06, -1.7626916815061122e-06, -5.051153948443243e-06, -4.074699972989038e-06, 2.7876569674845086e-06, -3.1475067885367025e-08, 2.023919105529785, 1.9102230072021484, -1.5348621606826782, -1.4562649726867676, 1.5089004039764404, -1.7386424541473389, 3.01731538772583, 1.765758752822876, -1.8981317281723022, -2.2024734020233154, 1.7514554262161255, 2.768693447113037, 1.8971178531646729, -1.6508989334106445, 1.4169209003448486, -2.840787887573242, -1.9198273420333862, 2.909323215484619, 1.9092704057693481, -4.277531147003174, 3.0701639652252197, -1.394646167755127, 2.875704526901245, 2.9032983779907227, 2.008535623550415, 1.662813663482666, 2.0242409706115723, -2.7409579753875732, 2.4847474833222805e-06, -2.0579525426001055e-06, 3.5604846289061243e-06, 0.31516990065574646, -1.1248053851886652e-05, -7.543030733359046e-06, -7.88807483331766e-06, 5.618920795313898e-07], [3.421037399675697e-05, 1.459270242776256e-05, -2.749302439042367e-05, -5.7549113989807665e-06, 2.0724290152429603e-05, 0.0003156973689328879, -6.97342875355389e-06, -0.0005183764733374119, -1.4116671081865206e-05, 1.2251736734469887e-05, 0.00023146398598328233, -2.5443408958381042e-05, 0.00015535672719124705, 0.0002934635558631271, -8.485440048389137e-06, -1.2039920875395183e-05, 0.0001083607567125, 6.354897777782753e-05, -0.00024854260846041143, -1.2025092473777477e-05, -1.0069597010442521e-05, -2.5225494027836248e-05, 0.0001730111544020474, 9.218387276632711e-06, 0.00041154713835567236, 1.1190744771738537e-05, -8.281474038085435e-06, 1.4112961252976675e-05, -0.006165041588246822, 0.003146745963022113, -0.01051328144967556, -0.01093127392232418, 0.003471078583970666, 0.5637010931968689, -0.3453388810157776, -0.011882788501679897, 0.0007527942070737481, 0.9778029918670654, -0.0002297438186360523, -0.49400457739830017, -0.010204724967479706, -0.011486505158245564, 0.014580107294023037, -0.3244782090187073, 0.0007500633946619928, -0.35084858536720276, -0.041474804282188416, -0.5712189674377441, 0.2614956200122833, -0.023146888241171837, 0.6128646731376648, 0.3938983976840973, -0.7896425724029541, -0.008534696884453297, -1.0155928134918213, -0.13136537373065948, -0.11091060936450958, 0.003274346236139536, -0.025846827775239944, 0.015627330169081688, 0.12638553977012634, 0.15250633656978607, -0.0037076978478580713, 0.1485210657119751], [1.0820715427398682, -1.1306421756744385, 1.098524808883667, -1.1102498769760132, -1.137539029121399, -1.0874295234680176, 1.1830750703811646, 1.058748483657837, -1.0705760717391968, -1.187782883644104, -1.0944218635559082, -1.0802744626998901, -1.1480838060379028, 1.1672900915145874, 1.204176425933838, 1.1345404386520386, 1.0227670669555664, 1.0361032485961914, 1.2107900381088257, -1.2337111234664917, -1.0767534971237183, -1.1291687488555908, 1.1512538194656372, -1.1713709831237793, 1.2378301620483398, -1.0948121547698975, -1.1108843088150024, -1.1984598636627197, 2.444680690765381, 2.280534029006958, -1.7859522104263306, -1.983364462852478, 1.9601683616638184, 2.5239312648773193, -3.114655017852783, -2.206289052963257, -2.327601909637451, -2.467989206314087, 2.199140787124634, 2.939253568649292, -2.338533878326416, -1.9850749969482422, 1.8277662992477417, 2.9903006553649902, 2.1947648525238037, -2.9655933380126953, 2.320263385772705, 3.1820356845855713, 3.176624298095703, 1.8121321201324463, 3.896803855895996, -3.090317726135254, 2.0027782917022705, -1.9505668878555298, 2.4856865406036377, 2.9825711250305176, -5.699979737983085e-06, -0.4412699043750763, -0.007820290513336658, -0.6845706701278687, -1.5508941942243837e-05, -2.674113420653157e-05, -0.019567225128412247, -8.051972599787405e-08], [-0.7624501585960388, -0.2362968921661377, -0.40364328026771545, 0.41846469044685364, -0.12386882305145264, -0.20460665225982666, -0.21170926094055176, 0.18595823645591736, 0.8901697397232056, -0.10668154060840607, 0.5644793510437012, -0.27707216143608093, -0.3964640200138092, -0.29917192459106445, -0.28723496198654175, -0.3168516457080841, -0.1891183704137802, -0.5859566926956177, -0.1438734084367752, 0.5791844129562378, -0.4092385470867157, -0.20314638316631317, -0.3643251657485962, 0.08571493625640869, -0.16203919053077698, -0.36246562004089355, -0.30568280816078186, 0.09696874767541885, 0.26985836029052734, 0.2211361527442932, -0.2371753603219986, 0.5030229091644287, 0.2093166708946228, 9.949734687805176, -6.710544586181641, -0.17243598401546478, -0.3426288962364197, -11.166845321655273, -0.06774230301380157, -9.705451011657715, 0.11930065602064133, -0.8020444512367249, -0.061997462064027786, 7.669495105743408, -0.12959502637386322, -7.677707195281982, 0.3321628272533417, 10.536747932434082, 4.441293716430664, -2.149843692779541, -12.613720893859863, -8.059569358825684, -11.199503898620605, 0.20021821558475494, -12.707385063171387, 3.7600960731506348, -5.126664746057941e-06, -0.0019162738462910056, -0.00044570094905793667, -5.298033283906989e-05, 1.917144254548475e-05, 3.459681465756148e-05, -8.573580271331593e-05, -6.880674732201442e-07], [-5.442796464194544e-06, -2.3599236556037795e-06, 2.9571715458587278e-06, 1.4444334794916358e-07, 5.48311572856619e-06, 4.734297363029327e-06, -5.140234407008393e-06, -1.7413422881418228e-07, -7.362652013398474e-06, -3.0919852633815026e-06, 2.320165549463127e-06, -1.1516127415234223e-05, 4.1182584027410485e-06, -1.201815302920295e-05, 2.1016996925027343e-06, 2.1158064100745833e-06, -1.5077006537467241e-05, -4.8477231757715344e-06, 1.4837739854556276e-06, 1.0668536560842767e-06, 1.4306929188023787e-06, 2.21534014599456e-06, -4.430159151525004e-06, 5.5164987315947656e-06, 5.5183336371555924e-06, 4.0749487197899725e-06, -3.870874479616759e-06, 2.566986267993343e-08, -1.8724937438964844, -1.8523749113082886, -1.5381423234939575, 1.4576606750488281, 1.6441457271575928, -1.7912187576293945, -2.865997552871704, 1.7197498083114624, 1.7346031665802002, 2.3585450649261475, 1.7755106687545776, -2.563565254211426, -1.8188385963439941, -1.5362117290496826, 1.4698026180267334, 2.625307559967041, 1.8104090690612793, -2.6181392669677734, 1.6903202533721924, 2.015615701675415, 2.844935417175293, 1.4651861190795898, 3.1608009338378906, -2.639963150024414, -2.0315122604370117, -1.5341789722442627, 2.5359630584716797, 2.6262362003326416, -2.220804162789136e-06, 0.799599826335907, 2.5839090085355565e-06, -0.44606882333755493, -9.801791748031974e-06, -5.6077515182551e-06, 0.24640586972236633, -2.3218782985168218e-07], [2.142491575796157e-05, -1.114025781134842e-05, 2.0104826035094447e-05, -5.2651935220637824e-06, -2.246705480501987e-05, 0.00013514079910237342, -1.0544839824433438e-05, -4.901335705653764e-05, 1.651972343097441e-05, -1.301188240176998e-05, -4.165534846833907e-05, 1.951299054780975e-05, -9.85859787761001e-06, -4.893816003459506e-05, 8.752652320254128e-06, 9.515032616036478e-06, -7.395526336040348e-05, 1.57844497152837e-05, 1.2883279850939289e-05, -1.1101815289293882e-05, -1.0222537639492657e-05, 1.5578563761664554e-05, -2.06067106773844e-05, -1.2412664545990992e-05, -8.316146704601124e-05, -7.315647053474095e-06, 5.249769401416415e-06, -1.4306656339613255e-05, 0.00755690922960639, 0.0038323248736560345, -0.018537361174821854, -0.09588506817817688, -0.006736474111676216, -0.9262256026268005, 0.47693198919296265, -0.023065434768795967, 0.007822499610483646, 0.8591780662536621, 0.005206642206758261, -0.489647775888443, 0.02707223780453205, 0.02442990057170391, -0.02971879206597805, 0.5086369514465332, -0.008107566274702549, -0.490353524684906, -0.026589449495077133, 0.9956518411636353, -0.3017980456352234, 0.012957782484591007, 0.9838532209396362, -0.4480668604373932, -0.8863977193832397, 0.016896672546863556, 0.8830286264419556, 0.12106821686029434, 1.7659083823673427e-05, 0.0037194970063865185, 0.01272805780172348, 0.0169354397803545, 1.8098766304319724e-05, -4.278297637938522e-05, 0.0003006983897648752, -2.9435027499857824e-06], [0.010239990428090096, -0.0953197106719017, -2.659726669662632e-05, -0.012827460654079914, -0.059754472225904465, -0.024840854108333588, -0.027794737368822098, 0.012673419900238514, -0.012283142656087875, -0.009112784639000893, 0.024757612496614456, 4.2342624510638416e-05, 0.0001632857311051339, -0.0229764636605978, 0.06319081783294678, 0.05463578179478645, -0.010502836667001247, -0.0684029832482338, 0.0003208215639460832, 1.3841471627529245e-05, -0.01295542437583208, -0.010459903627634048, 0.00018185206863563508, 1.167019217973575e-05, -0.059113189578056335, 7.104160886228783e-06, 7.94831521488959e-06, 0.02429172396659851, 0.010208819061517715, -0.005332483910024166, -0.016423828899860382, -0.029652666300535202, -0.10920534282922745, -3.4006171226501465, 1.6058834791183472, -0.03654070571064949, 0.1745697259902954, 2.5184011459350586, -0.0699191689491272, 1.3357402086257935, -0.06253872811794281, 0.030031314119696617, 0.02329547330737114, -1.8812812566757202, 0.2133263498544693, -1.528316855430603, 0.009456711821258068, -3.496230125427246, -1.0863839387893677, 0.037210769951343536, -2.75976824760437, 1.316261887550354, 3.2856831550598145, 0.029652709141373634, 3.5956711769104004, -0.7995319962501526, 0.00040465788333676755, 0.004871968645602465, 0.01266954280436039, 0.010416594333946705, 0.0003605867677833885, 8.563254959881306e-05, -0.002166787628084421, 3.2730183647800004e-06], [-4.324595647631213e-05, 0.2018423229455948, -0.02324661612510681, 0.0029886700212955475, -9.588056855136529e-05, 0.021508704870939255, 0.0068730940110981464, -0.003374521154910326, -0.0002507062454242259, -1.077461911336286e-05, -0.0040508233942091465, -0.027476169168949127, -0.045689187943935394, 0.00026722834445536137, -0.20260649919509888, 0.012622801586985588, 0.013578374870121479, 0.05725199356675148, -0.000360559526598081, -1.2989677998120897e-05, 0.22306020557880402, -0.024589616805315018, 0.00018269504653289914, 1.0073446901515126e-05, -0.027599425986409187, -0.00775297312065959, 7.952695341373328e-06, -2.195589149778243e-05, -0.029836229979991913, 0.07383795082569122, 0.013667243532836437, 0.06029918044805527, -0.09987045079469681, 4.289950847625732, -1.627298355102539, 0.03177483752369881, 0.04396054148674011, -1.8219895362854004, -0.013458647765219212, -1.8274140357971191, 0.034424494951963425, -0.07753929495811462, 0.04908579960465431, 2.071438789367676, -0.033047016710042953, -1.779632568359375, 0.1550169289112091, -4.971569061279297, 0.8962693810462952, -0.048280686140060425, -3.9661107063293457, 1.5123430490493774, 3.144636392593384, -0.08395278453826904, -2.5872690677642822, 0.7299807667732239, -0.0003614597371779382, -0.005175271537154913, -0.02037942223250866, -0.011172628961503506, 0.021902019158005714, -0.0013982746750116348, 0.0024951756931841373, 4.747877937916201e-06], [2.5378958525834605e-05, -9.773611964192241e-06, 1.6691650671418756e-05, -3.913768523489125e-06, 1.7397533156326972e-05, 0.0001653891522437334, 7.707330951234326e-06, 3.4422308090142906e-05, -1.5441119103343226e-05, 1.2859173693868797e-05, 5.117144246469252e-05, -1.9644188796519302e-05, -1.0167132131755352e-05, 4.0844581235433e-05, -3.9978467611945234e-06, 9.41894995776238e-06, -6.218776252353564e-05, 1.4599826499761548e-05, 1.366318974760361e-05, -1.0195787581324112e-05, 8.946435627876781e-06, 1.5061365957080852e-05, 1.1584299500100315e-05, -1.3190319805289619e-05, 9.478855645284057e-05, -6.629595645790687e-06, 7.088972779456526e-06, -1.5126110156415962e-05, 0.0055230711586773396, -0.0041167777962982655, -0.012599848210811615, -0.0002730359265115112, 0.004149598069489002, 0.1552399843931198, -0.0006153325084596872, -0.007852711714804173, 0.005807848647236824, -0.5441989302635193, -0.0021096887066960335, -0.3849709928035736, 0.006430591456592083, -0.012999271973967552, -0.02651078999042511, -0.03715357929468155, -0.014768080785870552, -0.00030361610697582364, -0.002682564314454794, -0.20425032079219818, -0.007304295431822538, -0.01133886631578207, -0.11749303340911865, -0.021964620798826218, -0.678213894367218, -0.013481791131198406, -0.5429829359054565, 0.0005310290143825114, -1.9208537196391262e-05, -0.0029482922982424498, 0.0007294822717085481, -0.006636758800595999, 1.807712578738574e-05, 4.146050923736766e-05, -0.00025012638070620596, -3.0680533313898195e-07], [-0.442783921957016, -0.470586359500885, 0.4197010099887848, 0.4544638991355896, 0.4173278212547302, -0.4437238872051239, 0.38334956765174866, -0.3918724060058594, -0.38415464758872986, 0.3195164203643799, 0.43765899538993835, -0.44129589200019836, -0.44930756092071533, -0.44816428422927856, 0.39062345027923584, 0.3789839446544647, 0.4706869423389435, 0.4682188034057617, 0.4064885079860687, -0.43009424209594727, 0.461230605840683, 0.42220377922058105, -0.47913092374801636, -0.35833272337913513, -0.44326698780059814, -0.4101288914680481, -0.46640658378601074, 0.46120399236679077, 0.056062933057546616, -0.06234060972929001, 0.06840205192565918, 0.048704881221055984, 0.057344529777765274, 1.1510812044143677, 1.1144688129425049, 0.054928965866565704, 0.06296729296445847, -4.047638416290283, 0.05566469952464104, -3.0777430534362793, -0.05656023323535919, 0.06263786554336548, 0.05508560314774513, 2.408614158630371, 0.06120091676712036, -1.6398301124572754, 0.06738725304603577, 1.4234669208526611, 1.1309727430343628, -0.06802835315465927, -1.3052518367767334, 1.8449950218200684, -4.1392316818237305, -0.05854205787181854, 3.876474380493164, -1.1525342464447021, 1.0955595826089848e-06, 8.629791409475729e-06, 1.110306584450882e-06, -9.251014489564113e-06, 5.6549706641817465e-06, 2.9854354011149553e-07, -5.314693680702476e-07, 6.948135251150234e-06], [-0.06822852790355682, 1.4901728718541563e-05, -2.367466913710814e-05, -1.0761128805825138e-06, -0.0011244586203247309, -0.00030740181682631373, -1.1479581189632881e-05, -0.0006593400612473488, 0.007225977256894112, 9.422972652828321e-06, 0.003727690316736698, 0.13095919787883759, -0.00011330207053106278, -0.00035539380041882396, -7.1701429078530055e-06, 0.028858615085482597, -0.024665871635079384, 5.404627154348418e-05, 0.0125515041872859, -0.004505418241024017, 0.1485811471939087, -0.0196074265986681, -0.0001557035866426304, -1.0788126928673591e-05, -0.00044168432941660285, 0.04444653540849686, 0.11703066527843475, 1.6687083189026453e-05, 0.02376338467001915, 0.06602323055267334, 0.016742639243602753, 0.04731317609548569, -0.19719068706035614, 2.392072916030884, 1.3853862285614014, -0.10660044848918915, -0.011689321137964725, -2.1874523162841797, -0.052157968282699585, 1.9371603727340698, -0.029740648344159126, 0.02025263011455536, 0.049169447273015976, -1.8114290237426758, -0.03505861386656761, 1.6448336839675903, -0.026970557868480682, -2.831026554107666, 0.6956473588943481, 0.024805119261145592, 2.7949678897857666, -1.6266107559204102, -2.8804914951324463, 0.02980257198214531, -2.605908155441284, 0.9584069848060608, -0.0002651160175446421, 0.005392326973378658, -0.01109300833195448, -0.009049858897924423, 0.00029729801462963223, 0.0005430121091194451, 0.0007174521451815963, 1.6312751540681347e-06], [3.071120590902865e-05, 1.1285883374512196e-05, 2.440802381897811e-05, 1.036281628330471e-05, -2.1272831872920506e-05, -0.00022167523275129497, 1.2033146958856378e-05, 4.3844494939548895e-05, -1.581157266627997e-05, 7.764461770420894e-06, 0.00012527585204225034, -2.776096880552359e-05, 1.2722151950583793e-05, 0.00017081362602766603, 9.015726391226053e-06, -1.0501353244762868e-05, 8.510838233632967e-05, -6.15218305028975e-05, -1.1210659977223258e-05, -1.1941106095036957e-05, 7.707458280492574e-06, 2.2704960429109633e-05, 0.00010474055306985974, 1.2447755580069497e-05, 0.0004634045762941241, 8.52728589961771e-06, -8.995274583867285e-06, 1.4134789125819225e-05, -0.0012594964355230331, -0.005470152944326401, 0.0022682067938148975, -2.5344685127492994e-05, -0.0022989229764789343, -0.08729977905750275, -0.0006451320368796587, -0.0018354824278503656, -0.0009188898839056492, 0.045744672417640686, -0.0009354943758808076, -0.0008745381492190063, -0.0020842028316110373, -0.0026282048784196377, 0.00017606235633138567, 0.0024688614066690207, -7.991528400452808e-05, -0.00032416608883067966, 0.0016301518771797419, 0.07968788594007492, -3.679935252876021e-05, 0.0016837097937241197, 0.05406857281923294, -0.0012218087213113904, 0.029456963762640953, -0.0031154595781117678, -0.027008449658751488, 0.0006433265516534448, 3.0378369046957232e-05, -0.000878717633895576, 0.000871075491886586, -0.00023801863426342607, -1.974912993318867e-05, -6.634801684413105e-05, 0.00040897264261730015, 4.397131760924822e-06], [1.1808539966295939e-05, 1.1882024409715086e-05, 3.496704948702245e-06, 1.6143968650794704e-06, -3.814865522144828e-06, 1.1926629667868838e-05, -4.373947376734577e-06, 8.932242963055614e-06, 1.3082679288345389e-05, -1.0105522051162552e-05, -1.6273115761578083e-05, -2.1441974240588024e-05, -7.790091331116855e-06, -2.330378811166156e-05, -1.303936528529448e-06, 6.593268153665122e-06, -2.0038360162288882e-05, -9.684587894298602e-06, -1.17889749162714e-05, 9.085494639293756e-06, 5.975090516585624e-06, -5.838504421262769e-06, 9.221585060004145e-06, -8.376115147257224e-06, 1.0330307304684538e-05, -6.9053189690748695e-06, -4.3619215830403846e-06, -6.158690666779876e-06, -0.010629616677761078, 0.012225484475493431, -0.011462068185210228, 0.009407266043126583, 0.006226233672350645, -0.11092463880777359, 0.03388172388076782, 0.010163756087422371, 0.012038614600896835, 0.06651235371828079, -0.015793347731232643, 0.031539224088191986, -0.005147962830960751, -0.022677510976791382, 0.01144209410995245, -0.04370938986539841, -0.00721835857257247, 0.03506425395607948, 0.009100277908146381, 0.11321306228637695, 0.017764458432793617, -0.006234043277800083, 0.08763820677995682, -0.03160203993320465, 0.04475339129567146, -0.011060756631195545, -0.04881436750292778, -0.027455102652311325, -3.145340087939985e-06, -0.000270896649453789, 0.00029087456641718745, 4.1602615965530276e-05, -1.9787421479122713e-05, -2.283318644913379e-05, -3.1620253139408305e-05, 2.3293398498935858e-06], [4.172182161710225e-05, 1.2453582712623756e-05, 3.73516850231681e-05, 6.546935765072703e-06, -2.436003887851257e-05, -0.00040453916881233454, -8.454904673271812e-06, -0.0005626322235912085, 1.4374529200722463e-05, 8.686239198141266e-06, -0.0002621905296109617, 2.552179830672685e-05, -0.00012680621875915676, 0.00022432190598919988, 8.593171514803544e-06, 8.94289587449748e-06, -9.970647079171613e-05, 7.044761878205463e-05, -9.498793951934204e-05, 1.2718188372673467e-05, -1.0629067219269928e-05, -2.578677231213078e-05, 0.00017804937670007348, 1.2060315384587739e-05, -0.00046645189286209643, 1.2306785720284097e-05, 8.477773008053191e-06, 1.5546738723060116e-05, -0.0034289176110178232, -0.004349995404481888, 0.0017671275418251753, 1.8819226170307957e-05, 0.0029188315384089947, -0.1262209266424179, -0.0006344299763441086, -0.0024792870972305536, 0.000668856780976057, 0.24658286571502686, 0.0005543988081626594, 0.000817479332908988, -0.004967608023434877, -0.0038198218680918217, -0.002209071535617113, 0.002501334063708782, 0.001044557080604136, -0.00029129782342351973, 0.006140456069260836, -0.128514364361763, -5.2757175581064075e-05, -0.0036069999914616346, 0.09062834084033966, 0.0011658519506454468, -0.322450190782547, 0.0029147332534193993, 0.192946195602417, 0.0006743783596903086, -0.00030142944888211787, -0.0025159891229122877, 0.00475434772670269, 0.00020010933803860098, 0.00019206354045309126, -8.347087714355439e-05, -0.0022814783733338118, 2.682194008229999e-06], [-2.3660686565563083e-05, 1.0064612979476806e-05, 2.1036994439782575e-05, 4.085403816134203e-06, 0.005135452840477228, -0.00016070035053417087, 6.642887910857098e-06, -0.0002622559550218284, 1.5421615898958407e-05, -7.234450094983913e-06, 6.395512900780886e-05, -2.365567888773512e-05, -1.1906138752237894e-05, 6.518727604998276e-05, 7.538152658526087e-06, 7.147488304326544e-06, 7.985909905983135e-05, -2.0225023035891354e-05, 1.0159957128053065e-05, 1.0849404134205543e-05, -6.877160103613278e-06, 1.6127873095683753e-05, -3.061044117202982e-05, 1.0456727068230975e-05, -0.00017897496582008898, 1.1706759323715232e-05, -5.615499958366854e-06, -1.2547508958959952e-05, -0.0069512673653662205, -0.0037084314972162247, 0.01860899105668068, 0.03119262307882309, 0.005771258380264044, 1.56373131275177, -0.9629751443862915, 0.02200097218155861, 0.005304133053869009, 1.1242815256118774, 0.007783008739352226, 0.7749984860420227, -0.004974061157554388, -0.01984785497188568, 0.02707836776971817, 0.901554524898529, 0.00795582216233015, -0.8939223885536194, -0.014811231754720211, -1.6516501903533936, -0.42940717935562134, 0.0407099574804306, -1.5348331928253174, 0.8391015529632568, -1.3931623697280884, -0.19945020973682404, 1.2106703519821167, 0.2778436243534088, -2.4745291739236563e-05, -0.003985990304499865, -0.013620762154459953, 0.011596725322306156, 1.8279693904332817e-05, 5.310447886586189e-05, -0.001181884785182774, -6.853545642115932e-08], [-0.8817925453186035, 0.7687095403671265, -0.9149549007415771, -0.873529314994812, -0.7975929379463196, -0.8590434789657593, 0.8322438597679138, -0.9115870594978333, 0.8819170594215393, -0.8636196255683899, -0.7865820527076721, 0.8130448460578918, -0.7657195925712585, -0.8954118490219116, 0.8363934755325317, 0.7859481573104858, 0.8156916499137878, -0.8369007110595703, 0.8186064958572388, -0.7167538404464722, -0.7984423041343689, 0.9060229063034058, 0.7573244571685791, -0.8748247027397156, 0.7743655443191528, 0.7773918509483337, -0.8076455593109131, 0.8195155262947083, 2.2401137351989746, 2.1471192836761475, 1.8241933584213257, 1.794873833656311, -1.9328521490097046, -1.9402810335159302, 3.146834373474121, 2.053461790084839, -2.261056423187256, -2.4612655639648438, 2.236815929412842, 2.939885139465332, -2.318187952041626, 2.0185704231262207, 1.7963948249816895, 3.0605857372283936, -2.29870343208313, -3.131721258163452, -2.2890279293060303, -2.0553719997406006, 3.0696709156036377, -1.5982365608215332, 3.14467453956604, 3.084143877029419, -2.214310884475708, -1.8380180597305298, -2.1841158866882324, -3.0388810634613037, -5.605867499980377e-06, -1.0683561563491821, -0.00020138861145824194, 0.7001115083694458, -1.546590283396654e-05, 2.7019448680221103e-05, 1.8407154083251953, 2.1919784103374695e-06], [-4.4851469283457845e-05, -9.30467194848461e-06, 5.3956926421960816e-05, 1.8451286223353236e-06, -0.0003609946870710701, 0.0006528593366965652, 9.440816938877106e-06, -0.0009851418435573578, -1.4367893527378328e-05, 0.0001464137021685019, 0.0008438078220933676, -2.6868647182709537e-05, 0.0003593432775232941, 0.0002790234866552055, -1.2132433766964823e-05, -8.559499292459805e-06, 0.00010295037645846605, 6.890468648634851e-05, 0.00025434591225348413, 0.00047655901289545, 1.0103737622557674e-05, 2.563407542766072e-05, -0.00019281938148196787, 1.043699467118131e-05, 0.0006071863463148475, -9.467549716646317e-06, -8.042870831559412e-06, -1.4969833500799723e-05, 0.00430376548320055, -0.0038914671167731285, -0.00222857017070055, -1.8135782738681883e-05, 0.0027937586419284344, -0.15673895180225372, -0.0005781629588454962, 0.002348448382690549, -0.004465355537831783, -0.4599989652633667, 0.0003660960355773568, 0.22924426198005676, 0.003993629477918148, -0.004154167138040066, -0.016906455159187317, 0.0024415627121925354, -7.751294469926506e-05, -0.00026552480994723737, -0.0023751198314130306, -0.1618359535932541, 3.484534681774676e-05, -0.0016405299538746476, 0.10116026550531387, -0.0010963949607685208, 0.5206467509269714, -0.00813110638409853, -0.37861910462379456, 0.0005880049429833889, -0.00037096792948432267, 0.003724447451531887, -0.006579095497727394, 0.0018383861752226949, 0.00027009210316464305, -9.482650784775615e-05, -0.0020382190123200417, 3.4697316095844144e-06], [0.0011645875638350844, -0.002626177156344056, -0.028203947469592094, -0.09021958708763123, 0.004680526442825794, 0.04529350996017456, 0.0001046785619109869, -0.03346496447920799, 1.5197215361695271e-05, 7.733729034953285e-06, -0.026803722605109215, -0.005924995988607407, 0.012696294113993645, -0.0023353234864771366, 0.01717224344611168, 0.001191421179100871, -0.030275972560048103, 0.03331605717539787, 0.0003002058947458863, -0.014643640257418156, 0.029851034283638, -0.04651285335421562, -0.01818125694990158, 9.99184248939855e-06, 0.000568795541767031, 0.014263041317462921, 7.362528776866384e-06, -0.04021860286593437, -0.02703900821506977, 0.06681478023529053, -0.03003007173538208, 0.3448149561882019, -0.06754864752292633, -2.9819653034210205, 1.22978675365448, 0.025905916467308998, 0.028269145637750626, 2.327209711074829, -0.05174725502729416, 1.7098278999328613, -0.05628805235028267, -0.01873621717095375, 0.11062642186880112, 1.0634725093841553, -0.011691190302371979, 1.2731415033340454, -0.050205692648887634, 3.168316125869751, -0.733501672744751, -0.02151201106607914, 3.339857578277588, -1.5729222297668457, 2.752216100692749, -0.018459506332874298, -2.545206308364868, -0.736640989780426, 0.0004081654769834131, -0.0047031608410179615, 0.026745183393359184, 0.011901826597750187, 0.007878298871219158, -0.0034874773118644953, 0.0013018421595916152, -3.320135874673724e-06], [-0.13003088533878326, 0.08725237101316452, 0.04623543843626976, 0.09013281017541885, 0.41248634457588196, -0.1029207780957222, -0.07972843199968338, -0.08048690855503082, 0.07642523944377899, 0.05098296329379082, -0.05089401826262474, 0.10095220804214478, 0.08365101367235184, -0.060471147298812866, -0.10452980548143387, 0.16267894208431244, -0.08710911124944687, -0.10015542060136795, -0.2551424503326416, 0.09929460287094116, 0.08481869846582413, -0.07498489320278168, 0.1439647674560547, 0.3574937582015991, -0.05621899664402008, 0.08776438981294632, -0.20693686604499817, -0.08741232752799988, -0.029661260545253754, -0.08191270381212234, 1.556166410446167, 0.05693111941218376, -0.27033349871635437, 2.3815155029296875, -4.0025482177734375, -0.02439238876104355, -0.01203666441142559, 6.426148891448975, 1.3835760354995728, -6.162131309509277, 0.08638772368431091, 0.07121136039495468, -0.024626314640045166, 5.146156311035156, 0.02838033437728882, -4.370031833648682, -0.00582774868234992, 3.6613407135009766, 0.426784485578537, -0.16259026527404785, 4.5008697509765625, 4.428365707397461, -6.960738658905029, -0.043344646692276, -7.015974998474121, -0.4311937689781189, 0.0003921319730579853, 0.0040071699768304825, -0.0029817684553563595, -0.0014321935595944524, 0.00025618658401072025, -9.06774730538018e-05, -0.0013089238200336695, 3.257748403484584e-06], [1.4952775927667972e-05, 0.09500672668218613, 1.2850328857894056e-05, -6.849914370832266e-06, -4.059763796249172e-06, -0.03713186830282211, -8.98906455404358e-06, -7.346189249801682e-06, 1.3723742085858248e-05, -9.036790288519114e-06, 0.06414083391427994, 0.0909043699502945, -0.03834729269146919, 0.025462806224822998, 5.363742275221739e-06, 7.460293090844061e-06, 0.11028627306222916, -0.09670231491327286, 9.625528036849573e-06, -1.00856423159712e-05, -1.0460420526214875e-05, 9.153055543720257e-06, 0.07176389545202255, 1.1041368452424649e-05, -1.4470546375378035e-05, -0.16212719678878784, -3.6633182389778085e-06, -8.126664397423156e-06, 1.9303885698318481, -1.9706231355667114, 2.3490688800811768, -2.255113363265991, 2.1846187114715576, 2.514206886291504, 2.1521248817443848, -2.058361053466797, 2.0634329319000244, 2.093820333480835, 2.0477733612060547, -1.5060278177261353, 1.991723895072937, 2.0905404090881348, 2.4141247272491455, -1.6984697580337524, 1.8742202520370483, -1.741468906402588, 2.0555343627929688, 2.204512596130371, -2.2873127460479736, 2.2829766273498535, -3.227440595626831, -1.7864024639129639, 1.6703137159347534, -2.3026721477508545, 2.072746992111206, 2.1190850734710693, -2.101990222930908, -3.3588006496429443, -4.316140174865723, -3.357525110244751, 2.0982766151428223, 1.7423291206359863, -3.306276798248291, -3.2864232063293457], [0.020617006346583366, -4.507960966293467e-06, -0.008090229704976082, -0.07262576371431351, -0.06939046829938889, -1.1744819857995026e-05, -0.03952191770076752, 0.006966091226786375, 1.2115660865674727e-05, -7.14368525223108e-06, 0.04262831062078476, -1.9968860215158202e-05, -7.27518499843427e-06, -1.948846511368174e-05, 6.726438641635468e-06, -4.172303306404501e-06, -1.9218490706407465e-05, -0.006343829911202192, 4.316939339332748e-06, 7.318710231629666e-06, -4.504737717070384e-06, 0.007451227866113186, -1.0276911780238152e-05, -8.797382179182023e-06, -1.0088608178193681e-05, 4.809412530448753e-06, 3.7938484638289083e-06, 0.06208368390798569, 0.6219190359115601, 0.6016402244567871, 0.5764777064323425, -0.5490766763687134, 0.34245556592941284, 1.4695158004760742, 2.642148017883301, -0.3736910820007324, 0.5584530234336853, 2.520030975341797, -0.3567591607570648, 2.6791858673095703, 0.9417561888694763, 0.2084531933069229, -0.2423708140850067, -2.6420764923095703, 0.6639069318771362, -2.5152626037597656, 0.24536457657814026, 1.6522173881530762, 1.4742923974990845, 0.22061355412006378, -1.670548915863037, 2.530996799468994, 2.7427518367767334, 0.2797810137271881, -2.607124090194702, -1.5617934465408325, 4.3926265789195895e-06, -0.00036000131512992084, 0.0001634302898310125, 3.467418719083071e-05, -1.4948150237614755e-05, 1.7263811969314702e-05, 2.3310345568461344e-05, 1.6020575799302605e-07], [-0.051703084260225296, 0.06043706461787224, 0.04972858726978302, -0.022741692140698433, 0.04999024420976639, 0.14752018451690674, 0.02691143937408924, 0.14063456654548645, -0.08804021775722504, 0.042686913162469864, -0.056154098361730576, 4.284824171918444e-06, 0.10330168902873993, 0.1154932975769043, -0.0799543708562851, 0.07694396376609802, 0.07716212421655655, 0.04391144961118698, -0.1171443983912468, -0.02893996611237526, 0.09390018880367279, 0.11901355534791946, 0.13239935040473938, -0.06706297397613525, 0.13557343184947968, 0.14527082443237305, 0.09235203266143799, 0.0008683230844326317, 0.40499359369277954, 0.6680929064750671, -1.1820313930511475, 1.3504858016967773, 1.237904667854309, -4.32570219039917, 6.588186264038086, -0.9307252764701843, -0.4344669580459595, 10.830717086791992, -0.7392333745956421, 9.728475570678711, 0.5368375778198242, -1.0409703254699707, 1.3616487979888916, 8.941308975219727, 0.6248688101768494, 8.404885292053223, 0.5825378894805908, 4.638818264007568, 3.1884443759918213, 1.3942291736602783, -4.988015174865723, -7.971142292022705, 11.84671688079834, 1.3258744478225708, 11.444136619567871, 2.619877815246582, -4.377291588752996e-06, -0.3936142921447754, -2.349667738599237e-06, -0.22656911611557007, 9.374037290399428e-06, -5.2863774726574775e-06, -0.195058211684227, -1.6081627052244585e-07], [0.0537528395652771, -0.08044792711734772, -0.05056663230061531, 0.05038389563560486, 0.21319293975830078, -0.05649295076727867, -0.03433983772993088, -0.07569358497858047, -0.13448236882686615, -0.04902240261435509, -0.09054505825042725, -0.04213913157582283, 0.028358781710267067, -0.06717691570520401, -0.04119464382529259, 0.08631644397974014, -0.19639810919761658, 0.07607774436473846, 0.12381564825773239, -0.09291596710681915, 0.11040375381708145, -0.15745362639427185, 0.02913069725036621, -0.027606042101979256, 0.12452372908592224, -0.09411270916461945, -0.11276516318321228, 0.0043547372333705425, 0.025769339874386787, -0.021840855479240417, -0.03711806982755661, -0.05794668570160866, 0.09654802083969116, 1.607140302658081, 2.685378313064575, -0.11371439695358276, -0.02479916624724865, 5.129764080047607, 0.06607602536678314, 4.522139072418213, -0.04645007848739624, -0.13939793407917023, -0.31555086374282837, 4.204507350921631, 0.008556552231311798, 4.0897393226623535, -0.057657402008771896, 1.8138093948364258, 1.467747688293457, -0.08914509415626526, -2.0133116245269775, 3.486213445663452, 5.467360019683838, 0.08965303748846054, -5.403314113616943, 0.798385739326477, 0.04223521053791046, -0.0034427817445248365, 0.018922101706266403, 0.06908070296049118, 0.04154103621840477, -0.09807492047548294, 0.000656456220895052, 2.3499239887314616e-06], [0.06053943186998367, -4.006034487247234e-06, -0.03786812350153923, 0.051675692200660706, -0.05357100069522858, -0.06311361491680145, 0.029830362647771835, 0.052976854145526886, -7.958079550007824e-06, 0.006103666964918375, 5.653472499034251e-07, -0.3341771066188812, 0.011303638108074665, 8.605813491158187e-06, 0.12008382380008698, 0.04236948862671852, 0.13854768872261047, -0.04046568274497986, -0.12309146672487259, 1.0706743523769546e-05, 0.23739254474639893, -0.16924747824668884, -0.05886545777320862, 0.007694203406572342, 0.18657879531383514, -5.813206371385604e-06, 0.009969118982553482, -6.8163890318828635e-06, 0.7586126327514648, -0.8189855813980103, -0.48576533794403076, -0.40935859084129333, 0.46575024724006653, -0.6405996084213257, -2.295196056365967, 0.44779378175735474, -0.5446149110794067, 2.1987357139587402, 0.7739340662956238, -2.318598508834839, -1.206093430519104, 0.47514939308166504, 0.41279351711273193, -2.1148929595947266, -0.8399978280067444, 2.396350145339966, -0.5227929353713989, -0.7526811957359314, 1.698283314704895, -0.2730467915534973, -0.8286389112472534, -2.443058729171753, -2.118016481399536, -0.5885135531425476, 1.9086867570877075, 1.4690443277359009, -2.645677341206465e-06, -1.4737352103111334e-06, -7.46083856029145e-07, -4.177142272965284e-06, 1.1407621514081256e-06, 1.291893738653016e-07, 2.516291942811222e-06, -6.398894925041532e-08], [6.865189334348543e-06, 7.549077736257459e-07, -2.7213129669689806e-06, -2.54664598742238e-07, -4.358424575912068e-06, -3.892772383551346e-06, -2.9390926101768855e-06, 2.569160528764769e-08, 3.522955239532166e-06, -5.458398959490296e-07, -3.6176734283799306e-06, -9.507351933280006e-06, 2.538195360557438e-07, -9.176564162771683e-06, -2.8844390271842713e-06, -1.0027966936831945e-06, 1.2168817193014547e-05, 7.884133083280176e-06, 3.24322377309727e-06, -6.969768264752929e-07, -3.0871328817738686e-06, 1.960460622285609e-06, -3.7236904972814955e-06, 4.170284682913916e-06, 6.279501576500479e-06, 2.4759165171417408e-06, -4.870970769843552e-06, 8.297865861095488e-07, 1.5204919576644897, 1.5205230712890625, 1.8005807399749756, 1.7717864513397217, 1.7464241981506348, -1.0884969234466553, -1.983280897140503, 1.6462459564208984, 1.6709649562835693, 1.6604994535446167, -1.6135492324829102, 1.6035985946655273, 1.6744128465652466, -1.6919413805007935, 1.7781407833099365, 1.6369012594223022, -1.592297077178955, 1.8096115589141846, -1.6067265272140503, -1.295041799545288, -1.9872936010360718, -1.7572762966156006, 2.1646883487701416, 1.8744375705718994, -1.3992811441421509, 1.695537805557251, 1.3869339227676392, -2.0282845497131348, -3.325775651319418e-06, -1.7213623523712158, -2.4061341285705566, 1.687877893447876, -9.011028851091396e-06, -5.539042831514962e-06, -1.6022197008132935, 2.2993116033376282e-07], [0.2928014397621155, -0.3341619074344635, -0.40660232305526733, 0.40018001198768616, 0.32492977380752563, -0.42395058274269104, 0.3660511076450348, 0.3018515706062317, 0.31926435232162476, 0.3534126281738281, -0.29399949312210083, -0.40013182163238525, -0.3297877907752991, 0.3173786401748657, -0.33523470163345337, 0.36174893379211426, 0.26294124126434326, -0.4066585302352905, -0.28889000415802, 0.2831900417804718, -0.3096749484539032, 0.25754469633102417, -0.33463045954704285, 0.36290043592453003, 0.41052499413490295, 0.3020646870136261, 0.37677010893821716, -0.36569905281066895, -8.207695960998535, 7.932401180267334, -7.181031703948975, -7.3382182121276855, 7.453397274017334, 117.14524841308594, -25.92609977722168, 7.642513751983643, 7.913729190826416, 36.78815460205078, 7.9400787353515625, -31.789989471435547, -8.12010383605957, -7.425763130187988, -7.060858249664307, -29.358991622924805, -7.7877373695373535, 27.719329833984375, 8.008951187133789, 101.43025207519531, -18.92802619934082, 6.903615474700928, -85.34112548828125, -27.66823959350586, 49.999752044677734, -7.329653263092041, 46.11505889892578, 16.626726150512695, -2.24910831451416, -3.7775373458862305, -3.803553581237793, 3.811755657196045, 2.1692867279052734, 2.1618831157684326, 3.859382152557373, 2.6608331203460693], [1.523561695648823e-05, -9.855913049250375e-06, -1.084948962670751e-05, -1.9434173736954108e-06, -6.969334208406508e-06, -7.81626658863388e-06, 7.55138944441569e-06, 9.731887075759005e-06, -1.3054092960373964e-05, -1.1877172255481128e-05, 3.2715881388867274e-05, -1.862363933469169e-05, 7.613543857587501e-06, 2.540751484048087e-05, 4.420282948558452e-06, -5.7405727602599654e-06, -2.396861782472115e-05, -4.751330379804131e-06, -9.453706297790632e-06, 1.0330083568987902e-05, -6.416211363102775e-06, 1.2232361768838018e-05, 7.928542800073046e-06, 1.1634401744231582e-05, -1.206474280479597e-05, -7.463715064659482e-06, 5.628170583804604e-06, -9.298714758187998e-06, -0.0084870345890522, -0.004073010291904211, 0.017131781205534935, 0.023705240339040756, -0.006491558626294136, 0.2876756191253662, 0.1403501331806183, -0.02051614411175251, -0.007683832664042711, -0.9225521087646484, 0.01069455873221159, 0.6197904348373413, -0.005463951732963324, -0.019485116004943848, -0.037035565823316574, 0.3719788193702698, 0.010580303147435188, 0.22067898511886597, 0.0037554255686700344, -0.350721538066864, 0.18435756862163544, -0.013202826492488384, 0.24406477808952332, -0.13103348016738892, 0.9122853875160217, 0.017368046566843987, 0.817871630191803, -0.1607237011194229, -5.306860202836106e-06, 0.003333108266815543, -0.0009127788944169879, 0.007141152396798134, 1.8688280761125498e-05, -3.522726910887286e-05, -0.00010779641888802871, -4.6427851430053124e-07], [0.61866295337677, 0.44008317589759827, -0.5256569981575012, 0.4700859785079956, -0.5226669311523438, 0.5822237730026245, -0.5936877727508545, -0.6315495371818542, 0.6064084768295288, 0.49663084745407104, -0.5460837483406067, -0.5172017216682434, -0.5824167728424072, -0.48516741394996643, -0.4600241482257843, 0.5855501890182495, 0.4479672610759735, -0.5414422154426575, 0.612086296081543, 0.6046082973480225, 0.4901609420776367, -0.5155124664306641, 0.556433379650116, 0.5344499349594116, 0.4959735870361328, -0.578190267086029, 0.4727413058280945, -0.6017001271247864, 1.6555696725845337, 1.8821654319763184, 2.6164019107818604, 2.762678623199463, -2.5745084285736084, -33.8821907043457, -13.290687561035156, -2.3168904781341553, 1.8138362169265747, 21.08871841430664, -2.101827621459961, -18.409801483154297, -1.9225692749023438, 2.4822800159454346, -2.9367563724517822, -16.706344604492188, -1.9816598892211914, -15.909041404724121, -1.9816867113113403, -35.180381774902344, -6.806402683258057, 2.7175776958465576, 34.587284088134766, -15.48437213897705, -25.375337600708008, 2.60244083404541, 23.609041213989258, -5.815648555755615, -2.687642563614645e-06, -1.583656907081604, -0.7456634640693665, -1.4761613607406616, 2.3453408175555523e-06, -6.884893082315102e-07, -1.1319129467010498, -5.000371174901375e-07], [0.08127083629369736, 0.1334080845117569, -0.14302924275398254, -0.059289343655109406, 0.10837608575820923, -0.03379737585783005, -0.10037782788276672, -0.14900290966033936, -0.0028506903909146786, -0.05127409100532532, 0.18773776292800903, -0.170192688703537, 0.12732475996017456, -0.037089332938194275, -0.10813797265291214, -0.05049706995487213, -0.1982421875, -0.14267310500144958, 0.15424895286560059, 0.023928202688694, -0.0976293683052063, -0.12464762479066849, 0.050336066633462906, -0.0015901594888418913, -0.012533271685242653, -0.023610172793269157, -0.15272316336631775, 0.1456926316022873, -0.39666229486465454, -0.3377632200717926, 1.1090611219406128, 1.1192518472671509, -1.0483423471450806, 6.795266151428223, -5.253288269042969, 0.70833820104599, 0.33017536997795105, 9.051472663879395, -0.5830121636390686, -7.882749080657959, -0.2539134621620178, 0.7466782927513123, -1.1827361583709717, -7.203201770782471, -0.4492877125740051, 6.759424209594727, -0.4666061997413635, -3.9429919719696045, 2.5766103267669678, -1.1929739713668823, 4.142129898071289, 6.536795616149902, -9.644146919250488, -0.8892178535461426, 9.266032218933105, 2.072749137878418, -2.49217532655166e-06, -0.1551460176706314, 3.146743665638496e-06, -0.03388394042849541, -7.393349733320065e-06, 9.273409204979544e-07, 2.7416217562858947e-06, -1.0698740027237363e-07], [9.3253402155824e-06, 9.494877303950489e-06, 4.776010428031441e-06, 6.070027325222327e-08, -0.03817169740796089, 1.2296057320781983e-05, -5.125365532876458e-06, 1.6671591538397479e-06, -1.1918620657525025e-05, 0.008600756525993347, 0.034507088363170624, -0.009737708605825901, -4.518080913840095e-06, 2.2813524992670864e-05, -6.144799954199698e-06, -3.6089725199417444e-06, -0.021511653438210487, 4.7080734475457575e-06, -8.741410056245513e-06, 7.956973604450468e-06, 9.268920621252619e-06, -0.02749832533299923, -1.1690362043736968e-05, 1.2696988960669842e-05, 0.018311966210603714, -4.209141025057761e-06, -4.114157945878105e-06, -6.313819085335126e-06, 0.3462374210357666, -0.2884441316127777, 0.0049551441334187984, 0.1279568374156952, -0.06903660297393799, 0.3449060320854187, -1.6546777486801147, -0.005503393243998289, -0.1747315227985382, -1.6960861682891846, 0.13806937634944916, 1.8119951486587524, 0.42496904730796814, 0.006889378651976585, -0.01190303172916174, 1.7620503902435303, 0.226700097322464, 1.7355581521987915, 0.002814565086737275, -0.4392717182636261, 0.8415186405181885, -0.008175675757229328, 0.4833207130432129, -1.9223686456680298, -1.847270131111145, -0.005364902783185244, 1.9167026281356812, 0.7062508463859558, 2.9595635169243906e-06, 0.0009032706147991121, -0.0001636032829992473, -3.3871197956614196e-05, 1.7685897546471097e-05, -1.0593828847049735e-05, -5.703621809516335e-06, -4.5233522882881516e-07], [-0.06172722578048706, 0.10580100119113922, -0.03913649171590805, 0.04078585281968117, -0.06859835982322693, -0.09385605156421661, 0.007933389395475388, -0.059733130037784576, -0.017739515751600266, 0.03089754283428192, 0.06953641772270203, -0.13884775340557098, 0.140433207154274, -0.19309307634830475, -0.03428985923528671, 0.033887576311826706, 0.11060178279876709, 0.1020752489566803, 0.04942125454545021, -0.06267619132995605, 0.12679865956306458, 0.13968101143836975, 0.07011730968952179, 0.06685919314622879, -0.03196172043681145, 0.12890081107616425, 0.1343269944190979, 0.10965725034475327, -0.04728339612483978, 0.1520671248435974, -0.05696570500731468, 0.0468478761613369, 0.05361616238951683, 0.873100996017456, 0.9259896874427795, 0.04989268258213997, 0.051976144313812256, 2.3588497638702393, 0.05047458037734032, -1.8723701238632202, -0.04935868829488754, -0.18434341251850128, 0.06045593321323395, 1.4946330785751343, -0.055648453533649445, -1.1584664583206177, -0.22337128221988678, -0.9010173678398132, -0.689068615436554, -0.06311377882957458, -1.266748309135437, 1.2101712226867676, -2.4650204181671143, 0.07645972818136215, 2.339174747467041, 0.7105069160461426, -6.846643145763665e-07, 5.336758476914838e-06, 1.6941980902629439e-06, 3.83397537007113e-06, 7.272203674801858e-07, 1.2841645684602554e-06, -2.269303195134853e-06, 1.043956444846117e-06], [-7.934039786050562e-06, -2.2959118268772727e-06, -4.269346391083673e-06, -1.1601333653743495e-06, 1.0655261348802014e-06, -1.0282269613526296e-05, -5.588443400483811e-06, -1.3869018857803894e-06, -1.0635868420649786e-05, -0.011692279949784279, -3.02558760267857e-06, -1.993721889448352e-05, -6.57036753182183e-06, -1.518521094112657e-05, -3.422401960051502e-06, -3.946011020161677e-06, -1.6130976291606203e-05, 4.684784016717458e-06, 7.154428203648422e-06, 5.562898422795115e-06, -6.315254267974524e-06, 4.072786850883858e-06, 7.471709523088066e-06, -5.263079401629511e-06, -8.596954103268217e-06, -5.081094514025608e-06, 3.2494110655534314e-06, 5.700981091649737e-06, -0.27065330743789673, 0.3363073170185089, -0.045203935354948044, 0.28768450021743774, -0.1675053834915161, 0.40978261828422546, -1.6602743864059448, -0.11824682354927063, -0.17915290594100952, -1.6608597040176392, -0.11935296654701233, -1.6735128164291382, -0.48982492089271545, 0.05143793299794197, 0.044545382261276245, -1.7628952264785767, -0.17595210671424866, 1.6668152809143066, 0.1515086591243744, -0.5952066779136658, -0.839295506477356, 0.10345742851495743, -0.5759077668190002, 1.802993893623352, -1.8075942993164062, -0.042573750019073486, 1.8046009540557861, 0.7947134375572205, -4.428187821758911e-06, -0.00012676179176196456, 6.833548832219094e-05, 2.5323648515040986e-05, -1.749343573465012e-05, 8.324447662744205e-06, 5.543147835851414e-06, -3.1909527820062067e-07], [-0.6435142755508423, -0.566149115562439, -0.5089356303215027, -0.4699666500091553, -0.5764960646629333, 0.5053322315216064, 0.5327864289283752, 0.5412274599075317, 0.6801407933235168, -0.6420689225196838, -0.6658304333686829, -0.5444782972335815, 0.5905612707138062, -0.6209337711334229, 0.581624448299408, 0.571222722530365, 0.6894993782043457, -0.5055489540100098, -0.6967244148254395, -0.6569422483444214, 0.5639669299125671, -0.6557725071907043, 0.5367311835289001, -0.5959969758987427, -0.49898576736450195, -0.6002544164657593, 0.5572805404663086, 0.5526801347732544, -5.033766746520996, 4.92562198638916, -5.096209526062012, 5.173219680786133, -5.235419273376465, 88.83150482177734, 21.163358688354492, -5.135054111480713, 5.001396656036377, -31.10938835144043, -5.034718036651611, 26.77115821838379, 4.940141201019287, -5.07296085357666, -5.122583866119385, 24.584152221679688, 5.009028434753418, -23.343229293823242, 4.962136745452881, -79.08043670654297, 13.892786979675293, 5.07060432434082, 68.78084564208984, -23.112186431884766, -41.787437438964844, 5.121570110321045, -38.3344612121582, 12.087050437927246, 5.717004114558222e-07, 2.664802074432373, 2.018517017364502, 2.634220600128174, -5.711915946449153e-06, -8.164037126334733e-07, 2.537607192993164, -2.900283107010182e-06], [-3.014444519067183e-05, -0.0038423228543251753, 2.003393638005946e-05, 5.75279455006239e-06, 0.12131508439779282, 0.00023192934168037027, 6.719015345879598e-06, 0.0006023146561346948, 1.4114039913692977e-05, 0.011721563525497913, 0.00014372040459420532, -2.677490920177661e-05, 0.041593730449676514, 0.00011435547639848664, -0.00021038342674728483, 0.017476363107562065, 0.013303822837769985, -0.002128808991983533, 6.1028396885376424e-05, -0.005111034959554672, -0.029423272237181664, -0.018521126359701157, 0.00011035153147531673, -8.815938599582296e-06, -0.0002797948254738003, 8.05285253591137e-06, -0.007898795418441296, -1.9120150682283565e-05, -0.06894489377737045, 0.0392431877553463, 0.08551563322544098, -0.08027851581573486, -0.013985068537294865, 0.28175273537635803, -1.352709412574768, 0.004244253505021334, 0.00045555405085906386, 1.5157276391983032, -0.005769731476902962, 1.7045880556106567, 0.3124781847000122, 0.007706770207732916, -0.1349972039461136, -1.5734835863113403, -0.13872672617435455, -1.6510155200958252, -0.0018112340476363897, 0.48812004923820496, 0.5940542221069336, -0.007625753525644541, 0.4942377209663391, 1.6255602836608887, 1.5668777227401733, 0.06135638430714607, 1.57571542263031, -0.44386017322540283, 9.824687731452286e-05, 0.005554639734327793, 0.0018553183181211352, -0.00251808762550354, -0.0001133686673711054, 5.5853135563666e-05, 0.0010702193249017, 5.46218552699429e-06], [3.527835724526085e-05, -1.1936882401641924e-05, 2.8910659239045344e-05, -1.3939590644440614e-05, -0.00017309116083197296, -0.000704407982993871, -8.941388841776643e-06, -0.0010075392201542854, 1.4716526493430138e-05, -1.2399872503010556e-05, 0.0005846143467351794, -4.3555548472795635e-05, 0.0006267557037062943, 0.0003471687959972769, -6.852553724456811e-06, -9.999591566156596e-05, -0.00010097494669025764, 6.246525299502537e-05, 0.00030934211099520326, 0.0008813767344690859, -7.991025086084846e-06, 2.524520459701307e-05, 0.00015443690062966198, 9.56074563873699e-06, -0.0006089706439524889, -9.80481127044186e-06, -5.252886694506742e-06, -2.2369846192304976e-05, -0.003233688184991479, -0.0043123881332576275, 0.0025111453142017126, 2.445602513034828e-05, 0.0025591100566089153, 0.15979129076004028, -0.013598702847957611, 0.002431069500744343, -0.005326614249497652, 0.5666264295578003, 0.0003684347902890295, 0.2904966175556183, -0.003709910437464714, -0.004244369454681873, -0.013794710859656334, 0.06513819098472595, 7.725021714577451e-05, -0.00031302901334129274, -0.0023781186901032925, -0.16512350738048553, 0.007690293248742819, 0.0013589278096333146, 0.13769598305225372, 0.0010875624138861895, 0.47128790616989136, -0.009497292339801788, 0.43449530005455017, -0.019841134548187256, -0.0003557823074515909, -0.006987592671066523, -0.005013688001781702, -0.004720229655504227, 0.00022608325525652617, -9.168507676804438e-05, -0.0038281662855297327, 2.956737262138631e-06], [-0.037257034331560135, 0.0036528364289551973, 0.00307517615146935, 0.09894250333309174, -0.033414799720048904, -0.009435754269361496, -0.011743327602744102, 0.07379035651683807, -0.05873173102736473, 0.055058542639017105, -0.07091068476438522, -0.006203155033290386, 0.00010240764095215127, 0.0003571345587261021, -0.12857216596603394, -0.044033389538526535, -0.04598846659064293, -0.033505748957395554, 0.03239154815673828, 0.04618043079972267, -0.02574017271399498, -0.06727004796266556, -0.04644954204559326, 9.075989510165527e-06, -0.010188709013164043, 0.08414220064878464, -0.010711133480072021, -1.537197022116743e-05, 0.0679885596036911, 0.0026742347981780767, 0.012362040579319, -0.01769287697970867, -0.013294260017573833, -0.4646131992340088, -2.8147897720336914, -0.10056406259536743, -0.12992751598358154, -3.4807589054107666, -0.029463794082403183, 3.2669339179992676, -0.0038211774080991745, -0.12127748876810074, -0.02060663141310215, 3.102243185043335, -0.028973370790481567, -3.1681439876556396, 0.16799737513065338, -0.6662521362304688, -0.2641861140727997, -0.4567786157131195, 1.3518844842910767, 3.239424228668213, -3.6884124279022217, -0.010897434316575527, -3.4225075244903564, 0.3031752109527588, -0.00034768745535984635, 0.1316184103488922, 0.005042916629463434, -0.0022328896448016167, 0.00038836064049974084, -8.52610610309057e-05, 0.0006815163069404662, 1.944774794537807e-06], [-2.4632243366795592e-05, -0.016455305740237236, -1.933744533744175e-05, -0.02293863333761692, -2.160705298592802e-05, -0.0015889008063822985, -7.027912488410948e-06, 0.012979959137737751, -1.395721483277157e-05, -1.076228181773331e-05, 9.702524403110147e-05, -2.200808194174897e-05, -1.0923964509856887e-05, 0.0008679471211507916, 0.004155815578997135, -0.010865290649235249, 0.02508528158068657, -1.4252556866267696e-05, -1.2883936506113969e-05, -1.4986939277150668e-05, -1.0467816537129693e-05, 1.4240733435144648e-05, 1.8858550902223215e-05, 0.013865169137716293, -0.0001744038163451478, 0.009008832275867462, 5.814531505166087e-06, 0.0035488170105963945, -0.05272161588072777, 0.10607635974884033, 0.02969636581838131, -0.1259089857339859, -0.04816941171884537, 0.35782259702682495, -1.1455384492874146, -0.04419037327170372, -0.00435552978888154, 1.2920464277267456, 0.008134601637721062, -1.338983178138733, 0.1541653275489807, 0.056759312748909, -0.0522162951529026, -1.3364211320877075, -0.006879475433379412, -1.3029289245605469, 0.06918087601661682, 0.48348313570022583, 0.5105270147323608, -0.006689280271530151, 0.6013761162757874, -1.4080817699432373, -1.410742998123169, 0.005689882207661867, -1.5528086423873901, 0.36407792568206787, -2.081725324387662e-05, 0.007212955038994551, -0.0050408910028636456, 0.005324001424014568, 1.828884705901146e-05, 4.981741585652344e-05, -0.0032393932342529297, -3.1547176604362903e-07], [0.20557354390621185, 0.1493612825870514, -0.06382853537797928, 0.1269378662109375, -0.14081436395645142, -0.10257517546415329, 0.16591955721378326, 0.07249829918146133, -0.05233459919691086, 0.19238923490047455, 0.17935602366924286, -0.1141854077577591, 0.06454858183860779, -0.04980739951133728, -0.1204594299197197, -0.12920205295085907, 0.07651960849761963, 0.08763620257377625, 0.10646472871303558, 0.08731002360582352, -0.1571570336818695, -0.064692921936512, 0.14942917227745056, 0.04837348312139511, 0.12456139922142029, 0.03105677105486393, -0.13315320014953613, -0.0853651612997055, 0.04861903190612793, 0.05697174370288849, -0.05937027558684349, -0.09664522856473923, 0.05598339065909386, -0.9792755246162415, -1.3467031717300415, -0.052083708345890045, -0.16599255800247192, -2.855877637863159, -0.052881453186273575, -2.168889045715332, 0.06049506738781929, -0.05843527615070343, 0.05553345009684563, -1.959212303161621, -0.05806579440832138, 1.6604007482528687, -0.06073475629091263, -1.1576426029205322, -0.7091864347457886, 0.15884153544902802, -1.3231520652770996, -1.5736712217330933, -2.9333791732788086, 0.05708320811390877, -2.5960774421691895, -0.5354299545288086, -1.0268530559187639e-07, -3.1363379093818367e-06, 1.939793264682521e-06, -4.766397978528403e-06, -1.9336525838298257e-06, -1.952375896507874e-06, -2.046070449068793e-06, -2.331211362616159e-06], [-0.6175509095191956, 0.729722261428833, 0.6671022772789001, -0.6974131464958191, 0.7417781352996826, -0.702305793762207, -0.6841180920600891, -0.6687895059585571, -0.670840322971344, 0.6948699951171875, -0.6227564811706543, -0.59783935546875, 0.6516998410224915, 0.6457993388175964, -0.6851528286933899, -0.6985855102539062, -0.6540336012840271, 0.7073740363121033, -0.6426101922988892, 0.6562073230743408, 0.6965047717094421, 0.6924864053726196, 0.736912727355957, 0.7679293155670166, 0.7216004729270935, 0.7775787711143494, -0.6817247271537781, -0.6983309388160706, 2.242027997970581, 2.411691904067993, -3.209859848022461, -3.207244396209717, -3.1334335803985596, -48.85383224487305, 15.148070335388184, 2.752741813659668, 2.395624876022339, 23.851327896118164, 2.5640039443969727, 20.367433547973633, -2.2806880474090576, 2.9198555946350098, 3.254335403442383, 18.494140625, -2.485637903213501, 17.80118179321289, -2.3504743576049805, -47.68932342529297, -8.21408462524414, 3.2003283500671387, 45.0085334777832, 17.214019775390625, 29.846742630004883, 3.1069390773773193, -27.562116622924805, 6.981596946716309, 3.4941683679790003e-06, -1.7762982845306396, -0.9720479249954224, 1.6810961961746216, 3.769865998037858e-06, 8.379673488434491e-08, 1.4505456686019897, -1.1074338317484944e-06], [-0.2902393043041229, -0.27830809354782104, -0.20006684958934784, -0.1301514208316803, 0.2550557553768158, -0.14069494605064392, 0.24687451124191284, -0.16609440743923187, -0.22010785341262817, -0.23737521469593048, -0.1642543375492096, 0.17670924961566925, -0.15450318157672882, 0.2532815635204315, 0.19551923871040344, 0.18115653097629547, -0.15477518737316132, -0.22208604216575623, -0.28145694732666016, 0.2304787039756775, -0.2904018759727478, 0.14832761883735657, -0.25899338722229004, 0.212724968791008, -0.16898132860660553, 0.19782519340515137, -0.32929831743240356, 0.2427467256784439, 0.05263442173600197, 0.057834211736917496, -0.23560217022895813, -0.34103819727897644, -0.2390485554933548, 1.6452453136444092, 2.2789113521575928, -0.05669631436467171, 0.05903260409832001, -4.536684036254883, 0.056681014597415924, -3.79048228263855, -0.05638644099235535, -0.12271317094564438, -0.4213482141494751, 3.140197992324829, 0.06251485645771027, -2.8984313011169434, 0.0653114914894104, -2.2439017295837402, -1.3095591068267822, 0.41334769129753113, 1.964262843132019, -2.822122812271118, 4.93016242980957, 0.20486930012702942, 4.395637512207031, 1.0845210552215576, 5.881992137801717e-07, 1.5747140196253895e-06, 2.207787019870011e-06, 4.114227976970142e-06, -3.3333317333017476e-06, 1.1795809768955223e-06, -2.49562776843959e-06, 2.190861778217368e-06], [6.566287538589677e-06, 1.7800192608774523e-06, 3.5539942473405972e-06, 1.7174885442727827e-06, -6.005809609632706e-07, 7.388096491922624e-06, -5.38897165824892e-06, 1.061084731190931e-07, 9.012444024847355e-06, 5.281169251247775e-06, -4.257586624589749e-06, 1.6610221791779622e-05, -5.0424773689883295e-06, 1.1512418495840393e-05, -3.941694558307063e-06, -3.923082658729982e-06, -1.4452711184276268e-05, 4.992762114852667e-06, 3.2361717785533983e-06, 3.913660293619614e-06, -3.5175542052456876e-06, 2.324094765526752e-07, 4.958002136845607e-06, -3.335745986987604e-06, -1.0872888196900021e-05, -3.7535696719714906e-06, -2.803811639751075e-06, -2.5905169422912877e-06, 1.686596155166626, -1.677805781364441, -1.895483136177063, -1.9248783588409424, 1.758069634437561, -1.1647069454193115, -2.0544052124023438, -1.7007976770401, -1.557894229888916, -1.7296142578125, 1.6826575994491577, -1.6614501476287842, 1.5690865516662598, 1.8016717433929443, 1.7822164297103882, -1.5443594455718994, -1.725894570350647, -1.705091118812561, -1.5397796630859375, 1.7711621522903442, -2.0719034671783447, 1.8606843948364258, -1.8948984146118164, -1.722009301185608, -1.72577965259552, -1.7700819969177246, -2.009587049484253, 1.996713638305664, -2.7228975341131445e-06, -2.012593984603882, 2.710444688796997, -1.9974528551101685, -1.5236370018101297e-05, -9.503074579697568e-06, -1.7830233573913574, -0.33196061849594116], [-0.23014597594738007, -0.18653631210327148, 0.20065508782863617, 0.30304017663002014, 0.1538076549768448, 0.13336043059825897, -0.26449912786483765, 0.22061027586460114, 0.11411546915769577, -0.23002848029136658, 0.32217955589294434, -0.2501507103443146, 0.2883925139904022, 0.2255062460899353, 0.19694218039512634, -0.2634895145893097, -0.2600061893463135, -0.17612658441066742, -0.19707168638706207, -0.25630348920822144, -0.3244778513908386, -0.23560598492622375, 0.17027506232261658, -0.27649685740470886, -0.18586821854114532, -0.17093220353126526, -0.17923590540885925, 0.16023778915405273, -0.06820938736200333, 0.07115080207586288, 0.6440763473510742, 0.6664847731590271, -0.626024603843689, -4.282106399536133, -3.7225279808044434, 0.48076868057250977, -0.07208821177482605, 6.667405128479004, 0.23294906318187714, 5.674008846282959, -0.047934506088495255, -0.4637548327445984, 0.8025798797607422, -5.250749111175537, -0.07250263541936874, -4.855879783630371, -0.16561831533908844, 4.434406280517578, -1.9413429498672485, -0.8026491403579712, -3.1136884689331055, 4.6080241203308105, 7.243680000305176, -0.6287700533866882, -6.696625232696533, 1.6679558753967285, -3.5099481010547606e-06, -2.964693521789741e-07, -2.1085420485178474e-06, 1.5678585896239383e-07, 4.956735892847064e-07, 1.6472082506879815e-06, -1.307475940848235e-06, -3.474030449979182e-07], [1.0631886652845424e-05, 1.2023130693705752e-05, 7.66247194405878e-06, 2.193158934460371e-06, 1.0084741006721742e-05, 0.024798385798931122, -7.229301900224527e-06, 1.284479094465496e-05, 0.03641192987561226, -6.269858204177581e-06, -1.3335155927052256e-05, -2.031077747233212e-05, -8.58968087413814e-06, -0.00951890554279089, 6.571938683919143e-06, 4.082737177668605e-06, -1.883349432318937e-05, 7.216869107651291e-06, -9.393558684678283e-06, 8.937819075072184e-06, -0.004382637329399586, -7.893032488937024e-06, 9.699529073259328e-06, 1.0073364137497265e-05, 1.3426452824205626e-05, 6.737801413692068e-06, -3.5616435525298584e-06, -9.943641089193989e-06, 0.009698288515210152, -0.02378610521554947, 0.03614277392625809, 0.029498429968953133, -0.014968839474022388, -0.7197738885879517, 0.491120845079422, 0.023050645366311073, 0.0128225302323699, -1.670302391052246, 0.016023820266127586, -1.2736647129058838, 0.010865728370845318, 0.08674483746290207, 0.03526846691966057, -0.9221580624580383, 0.012520411983132362, 0.8092886805534363, -0.061224427074193954, -0.595572292804718, -0.41508030891418457, 0.0890330821275711, -0.6097508668899536, -0.7890714406967163, 1.6585159301757812, 0.026795173063874245, 1.5208384990692139, 0.2936694622039795, -5.1116894610458985e-06, -0.001839173142798245, -0.0003939835587516427, -4.441522833076306e-05, -1.5961828466970474e-05, -2.6510739189689048e-05, -3.856430703308433e-05, -2.3365496417682152e-06], [6.246214525162941e-06, -0.004433337599039078, 0.009737959131598473, 1.035708351082576e-06, -4.824626557820011e-06, -0.05103115737438202, 4.515783984970767e-06, 0.060366440564394, 1.1750472367566545e-05, 3.610625071814866e-06, -3.6497631299425848e-06, -0.050992656499147415, -3.0664650694234297e-06, -0.02660653181374073, 9.69355369306868e-07, 2.215624817836215e-06, 1.9349923604750074e-05, 6.888094503665343e-06, 4.183779310551472e-06, 0.02120644599199295, 3.0676776532345684e-06, -8.471924957120791e-07, 4.966053438693052e-06, -8.751816494623199e-06, -5.112546205054969e-06, 2.5237613954232074e-06, -5.57016983293579e-06, 1.0506198577786563e-07, 0.2515144944190979, 0.16605202853679657, -0.03451894596219063, 0.4705067574977875, 0.2574070990085602, 0.39256876707077026, 1.878672480583191, -0.013209588825702667, -0.10245301574468613, 1.7199302911758423, -0.1491987407207489, -1.9029780626296997, -0.47897955775260925, 0.015069933608174324, 0.18384180963039398, 1.7795894145965576, -0.29870882630348206, -1.7990877628326416, -0.060169767588377, 0.7356591820716858, 0.9320565462112427, -0.3701668381690979, -0.5151392221450806, 1.9609848260879517, 1.8386424779891968, -0.0059838686138391495, -1.6920377016067505, 0.7360256910324097, -2.7318631055095466e-06, 3.3117932616733015e-05, -7.548948360636132e-06, -1.1993292901024688e-05, -1.3476459571393207e-05, 9.104523996938951e-06, -3.169356205035001e-06, -1.9457289113233855e-07], [0.26529717445373535, 0.23833636939525604, 0.14664626121520996, 0.18742813169956207, -0.20630498230457306, -0.1776006817817688, 0.2641846537590027, 0.29785600304603577, 0.1599169820547104, -0.23243507742881775, -0.20902948081493378, 0.1808057427406311, 0.31290698051452637, -0.1492118090391159, 0.18092961609363556, -0.17378449440002441, -0.2860965132713318, -0.1677570641040802, -0.14842715859413147, -0.2954762876033783, 0.30857446789741516, -0.25236308574676514, -0.29500269889831543, -0.1988600194454193, -0.2633815407752991, -0.25203844904899597, -0.32711726427078247, 0.2484159618616104, -1.0829869508743286, -1.3566288948059082, 1.8700047731399536, -1.9765419960021973, 2.027268409729004, -11.955073356628418, 9.562270164489746, 1.5747548341751099, 1.1625828742980957, 15.806123733520508, 1.5049175024032593, 13.918208122253418, -1.218524694442749, 1.6405677795410156, -1.9932591915130615, -12.576911926269531, -1.2360244989395142, 12.0663480758667, 1.2822456359863281, -16.282320022583008, -4.496954441070557, -1.950559377670288, -18.547935485839844, -11.572894096374512, 17.831043243408203, -1.872077465057373, -17.064693450927734, -3.7930471897125244, -2.0363177100080065e-06, 0.8635979294776917, -0.36878353357315063, -0.8307653665542603, -3.5758785088546574e-06, 2.0124616639805026e-06, -0.6827074289321899, -3.106765973370784e-07], [-0.024978214874863625, -0.028564365580677986, 0.04770105704665184, -0.16971085965633392, 0.05951560661196709, 0.040975891053676605, 0.0626533105969429, -0.04554341360926628, -0.018747203052043915, 0.12319491058588028, -0.12603746354579926, 0.011999702081084251, 0.00883799884468317, -0.072970911860466, -0.1231459528207779, -0.047724880278110504, 0.033136360347270966, 0.04849020391702652, 0.06561416387557983, 0.075822614133358, -0.12567782402038574, -0.10597032308578491, 0.019009554758667946, 0.00026479188818484545, -0.02503182180225849, -0.037462178617715836, 0.12785272300243378, -0.0387854166328907, -0.6692422032356262, -0.6245535016059875, -0.0076545667834579945, -0.07533712685108185, 0.12120532989501953, 0.2909180223941803, -2.1604480743408203, 0.2641848921775818, -0.35666218400001526, -2.0190987586975098, 0.47413140535354614, -2.191261053085327, -0.8721717596054077, 0.11256056278944016, 0.1817246526479721, -1.988948106765747, 0.6537505388259888, 2.041781425476074, -0.3345472812652588, -0.3335857093334198, -1.2633620500564575, 0.026710376143455505, -0.4555053412914276, 2.059248924255371, -1.896239161491394, 0.2613304555416107, 1.829831600189209, 1.1817492246627808, -4.424379767442588e-06, 1.801027792680543e-05, 2.2212414023670135e-06, -0.0013805314665660262, 1.54976878548041e-05, 3.6654380437539658e-06, -0.0006967358640395105, -1.2501598575909156e-05], [-1.5716675989096984e-05, -1.0596395441098139e-05, 1.178137790702749e-05, -2.8069741802028148e-06, -3.131883886453579e-06, -1.234337378264172e-05, -8.886674550012685e-06, 1.2244642675796058e-05, -1.2960170352016576e-05, -1.2524262274382636e-05, -2.9383769287960604e-05, -1.7196982298628427e-05, 7.92679020378273e-06, 2.623016553116031e-05, 9.34295076149283e-06, -4.957916644343641e-06, 1.994227568502538e-05, 1.193501793750329e-05, 1.078605328075355e-05, -7.066842499625636e-06, -5.434079866972752e-06, -9.05633805814432e-06, 1.0282765288138762e-05, -1.1797043043770827e-05, -1.3274149750941433e-05, -9.81202902039513e-06, -6.942894742678618e-06, 6.060987743694568e-06, -0.008994679898023605, 0.004175411071628332, 0.017359253019094467, -0.012428241781890392, 0.005947316065430641, -0.22809641063213348, -0.08014682680368423, 0.01775963045656681, 0.009299197234213352, 0.6221817135810852, -0.004784726072102785, 0.47548219561576843, -0.006491372361779213, 0.01962568238377571, -0.027947131544351578, 0.26844438910484314, 0.009356584399938583, 0.12311770021915436, 0.0037401639856398106, -0.22913144528865814, -0.08745571970939636, 0.011748608201742172, 0.23711511492729187, 0.07805716246366501, -0.8030016422271729, -0.01832778938114643, -0.6213443875312805, -0.08263671398162842, 2.1221794668235816e-06, 0.0035854484885931015, -0.0004028502444270998, 0.0007751308148726821, 1.823756429075729e-05, 2.6947205697069876e-05, 8.461032848572358e-05, 4.0814256863086484e-06], [0.01000839751213789, -0.04405868425965309, -0.03730766847729683, 5.847387456014985e-06, 0.05226567015051842, -0.00027491431683301926, 1.1100893971160986e-05, 0.02056787721812725, 1.4019318768987432e-05, 9.315891475125682e-06, 0.009848610498011112, 0.020074399188160896, 0.0027820037212222815, 0.004830468446016312, -8.24364360596519e-06, 0.04683905839920044, -0.07240620255470276, 0.009465819224715233, -0.013138641603291035, 1.4809032109042164e-05, -0.00947626307606697, 0.02553759515285492, 0.1433795988559723, -1.1649291991489008e-05, -0.1120927482843399, -0.023588500916957855, -0.004563164431601763, -0.04396876320242882, 0.028915928676724434, -0.33215412497520447, -0.3096233010292053, 0.05602946877479553, -0.025230009108781815, -1.1459888219833374, 1.4294852018356323, 0.043088097125291824, 0.20408995449543, 3.2642693519592285, 0.030243821442127228, 2.8626487255096436, -0.06828152388334274, 0.016250869259238243, -0.06028951331973076, -1.7379424571990967, 0.0032508736476302147, 1.8719253540039062, 0.007671029772609472, 2.126157283782959, -0.3606003522872925, 0.04058085381984711, -2.375399351119995, 1.6209853887557983, 3.704658269882202, 0.02126627415418625, -4.717573165893555, 0.2954721450805664, -0.00039726655813865364, -0.005822365637868643, -0.01623385027050972, -0.014893952757120132, 0.0003658432397060096, 0.0009983626659959555, -0.001936643966473639, -2.6439549856149824e-06], [-3.500565799186006e-05, -1.1339187949488405e-05, 2.8954134904779494e-05, 7.852110684325453e-06, 0.00021463145094458014, 0.0006828356417827308, -1.1387212907720823e-05, 0.0008142071310430765, -1.5274641555151902e-05, 1.2995777069590986e-05, 0.0006063078762963414, -2.5708624889375642e-05, 0.00033379896194674075, -0.00042553720413707197, -6.714402843499556e-06, -1.4223766811483074e-05, -0.00012180970225017518, 6.933938129805028e-05, -0.00042101359576918185, 1.162366424978245e-05, 8.709848771104589e-06, -2.562710506026633e-05, -0.00014529113832395524, -1.0178546290262602e-05, 0.0004933983436785638, -9.511207281320821e-06, 5.884137408429524e-06, -2.1142785044503398e-05, 0.004158828407526016, -0.0046256170608103275, 0.0024577153380960226, 1.6618507288512774e-05, 0.002842142479494214, 0.20812226831912994, -0.033462416380643845, 0.0023551967460662127, 0.0004460185009520501, 0.23420046269893646, 0.00047682641888968647, -0.08960727602243423, 0.004213258624076843, 0.003981337416917086, 0.0097737992182374, 0.037099145352840424, -0.001694051781669259, 0.012108652852475643, 0.0024748898576945066, -0.22371797263622284, -5.8470115618547425e-05, -0.001363885123282671, 0.1832164078950882, 0.005270530004054308, 0.31255313754081726, 0.0030415316578000784, -0.2912512719631195, -0.0006264415569603443, 0.00045212317490950227, 0.005645528435707092, 0.002507794415578246, 0.0038241271395236254, -0.0003625148965511471, -7.287297921720892e-05, 0.003262852318584919, 3.1968238545232452e-06], [4.292390076443553e-05, 1.4711330550198909e-05, -3.1091560231288895e-05, 1.3738148481934331e-05, -0.00027331250021234155, -0.0007616034708917141, -1.1567411092983093e-05, -0.001035098684951663, 1.4292802006821148e-05, -0.0003179290215484798, 0.00042310968274250627, -2.8557671612361446e-05, -0.0006933992845006287, -0.0005505973822437227, -6.6835486904892605e-06, -1.4676423234050162e-05, -0.00013670594489667565, -6.898658466525376e-05, -0.0004669131012633443, -2.2813852410763502e-05, -1.0707748515415005e-05, 2.503246651031077e-05, -0.0001708639902062714, 1.0098876373376697e-05, -0.0005164648173376918, -1.1152897059218958e-05, 8.709581379662268e-06, -1.5386131053674035e-05, -0.003389407182112336, -0.0038600917905569077, -0.003061444265767932, -1.83719203050714e-05, -0.0071997083723545074, -0.14696569740772247, 0.0005685880314558744, 0.0023919465020298958, -0.0028210373129695654, -0.5911250710487366, 0.0004094399628229439, -0.0007941133808344603, -0.004306431859731674, 0.00449627498164773, -0.012743687257170677, -0.002490254584699869, -0.0004262442234903574, -0.0004891292774118483, -0.0025880681350827217, -0.18285983800888062, -2.3035239792079665e-05, 0.0015445355093106627, 0.14471198618412018, 0.0011256661964580417, 0.38564616441726685, -0.011251752264797688, 0.30840471386909485, 0.000613090698607266, -0.000499555142596364, 0.003910738043487072, -0.005587799474596977, -0.002814784413203597, 0.00039916805690154433, -9.5885137852747e-05, -0.001643406692892313, -4.872999397775857e-06], [1.7480992028140463e-05, -8.41916335048154e-06, 1.5727548088761978e-05, 1.427266056452936e-06, -1.1671334505081177e-05, 1.2267628335393965e-05, -7.566389740532031e-06, -1.2054746548528783e-05, -1.412274650647305e-05, -1.0025994924944825e-05, -3.539716635714285e-05, -1.758844155119732e-05, -9.523358130536508e-06, -2.96076359518338e-05, -9.225431313097943e-06, -5.0745843509503175e-06, 2.7263962692813948e-05, 1.0517547707422636e-05, -1.0947483133350033e-05, -9.387305908603594e-06, 1.0138574907614384e-05, -9.819164006330539e-06, -1.0976303201459814e-05, 8.46677903609816e-06, -1.4985651432652958e-05, -7.362194082816131e-06, 6.335773832688574e-06, -8.136786163959187e-06, -0.006961334031075239, -0.004425528924912214, 0.014250102452933788, -0.002277076244354248, 0.0035210896749049425, 0.2644627094268799, 0.11032219231128693, 0.010020673274993896, 0.009517666883766651, 0.48765113949775696, -0.0064130909740924835, -0.34687212109565735, 0.018515557050704956, -0.01659216359257698, 0.023946503177285194, 0.2786855399608612, 0.006777515634894371, -0.12894096970558167, -0.003506853012368083, 0.2861914336681366, 0.09964261204004288, -0.012028546072542667, 0.2668997347354889, -0.14820091426372528, -0.5527753829956055, 0.013620706275105476, -0.5011394619941711, 0.07408085465431213, 3.868234671244863e-06, -0.0019991786684840918, 0.000522060610819608, -0.0033714098390191793, -1.596974652784411e-05, -3.3406166039640084e-05, 0.00013381759345065802, -2.5641413685661973e-06], [-0.0450274795293808, 0.07059363275766373, 0.06295323371887207, -0.10359280556440353, 0.012545991688966751, 0.08543892949819565, -0.018230924382805824, 0.02882329933345318, -0.03931381553411484, 0.026883158832788467, -0.04619285464286804, -0.01007007248699665, 0.029782915487885475, 0.06601116061210632, 0.03453368693590164, 0.08055603504180908, -0.08583509176969528, 0.029434718191623688, 0.026636147871613503, 0.01396817434579134, 0.0240985918790102, -0.019721444696187973, -0.04733707383275032, -0.016854099929332733, -0.005638458300381899, -0.08750087767839432, -0.029291419312357903, -0.05740305781364441, -0.003638229100033641, 0.20791976153850555, -0.010719235055148602, 0.5010872483253479, 0.004350970033556223, 0.3972844183444977, -1.052077054977417, 0.04981125891208649, -0.006291951518505812, -3.5491158962249756, 0.0012751300819218159, -3.167389392852783, -0.0038068846333771944, -0.012407884933054447, 0.03739828243851662, -2.8841865062713623, -0.002305426402017474, -2.3583738803863525, 0.0052429367788136005, 0.553383469581604, 0.6214678287506104, -0.007813503965735435, 1.3578495979309082, 2.4001705646514893, -3.8998725414276123, 0.008369826711714268, 3.7786877155303955, -0.7445245385169983, -0.00030291531584225595, 0.002941804938018322, -0.002056436613202095, -0.00034074249560944736, -0.00019862262706737965, 9.242558007827029e-05, -0.0005645219935104251, -2.0876261714875e-06], [3.522947372402996e-05, -1.543543658044655e-05, -3.4901528124464676e-05, -1.0969622962875292e-05, -0.00021395014482550323, 0.00027050040080212057, -8.378371603612322e-06, 0.0006578205502592027, -1.3585967280960176e-05, 1.0798090443131514e-05, 0.0003633664455264807, 2.9313539926079102e-05, 9.442277223570272e-05, 0.00032638435368426144, 7.480766726075672e-06, -1.030497151077725e-05, 0.0001145851201727055, 6.565040530404076e-05, 0.00012370350304991007, 1.3032379683863837e-05, -1.0451776688569225e-05, 2.1608700990327634e-05, -0.00018254382302984595, -8.168934073182754e-06, -0.0005498597747646272, -9.929271072905976e-06, 7.202771030279109e-06, -1.590338615642395e-05, -0.00461070379242301, -0.003530928399413824, -0.06856711953878403, -0.009845440275967121, -0.054223962128162384, -0.3383885324001312, 0.0746820792555809, 0.013050862587988377, -0.003343540243804455, 1.2357510328292847, -0.0005802036030218005, 0.653348982334137, -0.004067546222358942, 0.014493908733129501, 0.020488174632191658, 0.3159780502319336, -0.003698766464367509, 0.07370645552873611, -0.001972045050933957, 0.38466089963912964, 0.0789601132273674, -0.06969333440065384, 0.27637743949890137, 0.09464384615421295, 1.3639070987701416, -0.009752531535923481, -1.226668119430542, 0.02015485242009163, 0.05011406168341637, 0.003689624834805727, 0.006970049347728491, -0.005852860864251852, -0.0634656473994255, 0.0908891037106514, 0.0010337417479604483, 0.0769537091255188], [-4.279632048564963e-05, 1.1034610906790476e-05, -3.037154965568334e-05, -8.261340553872287e-06, 0.0002554033708292991, -0.0006692512542940676, 1.1662124961731024e-05, 0.0007329189102165401, -1.5277799320756458e-05, -1.5280762454494834e-05, -0.0004852921119891107, 2.345765824429691e-05, -0.0005077047389931977, -0.0002805809199344367, -6.734271210007137e-06, -1.6602214600425214e-05, -0.00012329481251072139, 6.582558125955984e-05, -0.00016511658031959087, 1.1648440704448149e-05, -9.221639629686251e-06, -2.7867965400218964e-05, -0.00020905020937789232, 7.716641448496375e-06, 0.0006208766135387123, 8.821130904834718e-06, -8.499396244587842e-06, -1.5479978173971176e-05, -0.004077521618455648, 0.004319731146097183, 0.002684320555999875, 1.668854929448571e-05, 0.0030119111761450768, 0.1461772620677948, -0.0006044762558303773, -0.0024407007731497288, -0.0005967671750113368, -0.4134577512741089, 0.000528674921952188, 0.0899854376912117, -0.004444166552275419, -0.004099986515939236, -0.014155964367091656, 0.08583191782236099, 8.365325629711151e-05, -0.0002795216569211334, -0.0024587037041783333, 0.15636858344078064, -4.0361974242841825e-05, 0.0018669901182875037, 0.10948827117681503, -0.0011558940168470144, -0.38757020235061646, -0.007262418512254953, -0.2039833515882492, -0.0006232868181541562, -0.0004066441615577787, 0.0034769801422953606, -0.0050463685765862465, 0.0013648651074618101, 0.00028802829911001027, -8.85294284671545e-05, 0.0021815896034240723, -2.7048197352996795e-06], [1.4328941688290797e-05, -0.013394203037023544, -0.0133751779794693, 4.055426416016417e-06, 1.573608096805401e-05, -7.817524419806432e-06, 1.0142727660422679e-05, 2.2290743800112978e-05, 1.4224521692085546e-05, -8.13214046502253e-06, 3.3481082937214524e-05, -0.010508046485483646, 7.947841368149966e-06, -3.940518945455551e-05, -4.45692512585083e-06, 0.00526298675686121, -3.411574653000571e-05, -6.378662419592729e-06, -9.160320587398019e-06, 7.76570141169941e-06, -0.004619975108653307, -8.969776899903081e-06, -1.1521616215759423e-05, -1.105967749026604e-05, -1.519623492640676e-05, -0.0083671435713768, 4.2452911657164805e-06, -1.1541824278538115e-05, -0.03415342792868614, -0.04669018089771271, 0.09012708812952042, 0.08546614646911621, 0.004235703032463789, -0.3829713761806488, 1.2094322443008423, 0.04226519167423248, 0.005488145165145397, 1.553597092628479, 0.10897905379533768, 1.5073258876800537, 0.17321538925170898, -0.019618522375822067, -0.021944241598248482, -1.5600507259368896, -0.003867906052619219, -1.4750432968139648, 0.00267610652372241, -0.34211266040802, -0.2569209337234497, -0.3025728166103363, 0.4714548885822296, -1.4231973886489868, -1.6146425008773804, 0.011246624402701855, 1.3329424858093262, -0.23473705351352692, 3.3231858651561197e-06, -0.005370953120291233, -0.0018062120070680976, 0.004082918632775545, 1.8073900719173253e-05, -3.5321143514011055e-05, 0.0008020213572308421, 2.3126331143430434e-06]], "PMT_dist_dense_3/bias:0": [0.011796905659139156], "PMT_dist_dense_3/kernel:0": [[0.11077956110239029], [0.1124664917588234], [-0.1108822301030159], [0.11411276459693909], [0.113836370408535], [-0.11185425519943237], [0.11085264384746552], [0.11263296753168106], [-0.1115388423204422], [-0.1100810095667839], [0.11208441108465195], [0.11251038312911987], [-0.11245915293693542], [0.1121460571885109], [0.11344411969184875], [0.1126190721988678], [-0.11321216821670532], [0.11275450140237808], [-0.11060651391744614], [0.11126796156167984], [0.11323431134223938], [-0.11265132576227188], [-0.11152448505163193], [0.11059248447418213], [-0.11186189204454422], [0.11249446123838425], [-0.11129835993051529], [0.11085683107376099], [-0.03128067031502724], [0.03175972029566765], [-0.0317697636783123], [-0.031428854912519455], [-0.031303200870752335], [-0.011964202858507633], [0.017617952078580856], [-0.03155238926410675], [-0.03153122961521149], [-0.014944746159017086], [-0.031454022973775864], [-0.015770625323057175], [0.0316341295838356], [0.03183342143893242], [-0.031882286071777344], [0.016469066962599754], [0.031458426266908646], [0.0166233628988266], [0.031512945890426636], [0.011771222576498985], [0.02145574241876602], [0.03203876316547394], [0.011689954437315464], [0.016978172585368156], [-0.014009779319167137], [-0.03170450031757355], [-0.014141597785055637], [-0.022775303572416306], [-0.09056840091943741], [-0.02892688848078251], [0.03208795189857483], [-0.029176630079746246], [0.09280752390623093], [0.09507516771554947], [-0.02999003790318966], [0.07046211510896683]], "PMT_wall_dense_1/bias:0": [-8.887046715244651e-05, 0.18737424910068512, 0.14150577783584595, 0.02007446438074112, 0.028892874717712402, 0.17650599777698517, 0.10642826557159424, 0.023057004436850548, 0.1980767846107483, 0.18115383386611938, 0.15914380550384521, 0.06881961226463318, 0.1615234911441803, 0.04855833202600479, 0.0606282539665699, 0.18713843822479248, 0.1696220487356186, 0.04647218808531761, 0.1623888909816742, 0.1365898847579956, 0.19076190888881683, 0.07712861150503159, 0.19589973986148834, 0.17030052840709686, 0.18353785574436188, 0.07255541533231735, 0.15854446589946747, 0.15834549069404602, 0.06925462931394577, 0.09168270230293274, 0.13704179227352142, -0.052089158445596695, -0.005307675339281559, -0.02144373208284378, 0.13679878413677216, 0.017153015360236168, 0.17882518470287323, -0.0015359377721324563, -0.05095759406685829, 0.20469900965690613, 0.09885721653699875, -0.04517308995127678, -0.038405489176511765, -0.016067029908299446, 0.0453815795481205, 0.12047985196113586, 0.16064059734344482, 0.147131085395813, 0.10227908194065094, -0.01394351664930582, -0.0066177016124129295, 0.13905026018619537, -0.02456756867468357, 0.05028412491083145, 0.01650569587945938, 0.13561739027500153, -0.014898614026606083, 0.03303122892975807, 0.053244948387145996, 0.005809325259178877, 0.04744477942585945, -0.01704174466431141, 0.03047490492463112, 0.03617966175079346], "PMT_wall_dense_1/kernel:0": [[0.0071464111097157, 0.3396068811416626, 0.3853243589401245, 0.03286834806203842, -0.04644258692860603, -0.3476850390434265, 0.2853163480758667, 0.079833984375, 0.3527967929840088, -0.3487301170825958, -0.2938700020313263, -0.15806424617767334, -0.3042115271091461, -0.09372542053461075, 0.1470763236284256, 0.3471607565879822, -0.3079289197921753, 0.08909309655427933, -0.3060871362686157, 0.3523673117160797, -0.3929087519645691, 0.18871577084064484, 0.35463282465934753, 0.32296425104141235, -0.3812413215637207, 0.17375968396663666, -0.3053939640522003, 0.2953312397003174, 7.387214282061905e-06, 5.091167622595094e-06, -7.171136530814692e-06, -0.7777212858200073, -0.3256949186325073, -0.5967738032341003, 6.145007318991702e-06, 0.11636968702077866, 5.360722298064502e-06, 0.35806670784950256, -0.7657204270362854, -2.9499742595362477e-06, -2.6449290544405812e-06, -0.7304223775863647, 0.6323988437652588, 0.5219259858131409, -4.763872311741579e-06, -5.471268650580896e-06, -7.45665010981611e-06, 0.21250374615192413, 6.65572406433057e-06, 0.3265380561351776, -0.3865595757961273, -4.599692147166934e-06, -0.6200127005577087, 6.584827588085318e-06, -0.09124398976564407, 3.95697497879155e-06, 0.42808306217193604, -0.07914293557405472, -1.4486641930488986e-06, 0.26229387521743774, -5.757814506068826e-06, 0.40944695472717285, 7.116777851479128e-06, 4.124916813452728e-06], [1.87144451047061e-07, -2.5766854605535627e-07, -6.63654731170027e-08, -1.2012472438982513e-07, 1.816423775835574e-07, -2.6790891638484027e-07, 1.4261361513945303e-07, 0.04710270091891289, -1.4090011291045812e-07, -1.8106031518527743e-07, 1.5299477240660053e-07, -1.9067478262968507e-07, 5.960160365248157e-08, -8.152629504820652e-08, 2.700231789276586e-07, 1.6524892032521166e-07, 2.862027486116858e-07, -1.99879423234961e-07, 2.1791319682051835e-07, 